#ifndef __FASTRNN_RNN1_PARAMS__
#define __FASTRNN_RNN1_PARAMS__

#define RNN1_HIDD_DIM0 (64)
#define RNN1_HIDD_DIM1 (32)

// clang-format off

const float RNN1_ALPHA = (-1.518004e+00);
const float RNN1_BETA = (2.737499e-01);

const float RNN1_BIAS_UPDATE[32] = 
   { 1.65129495e+00,  1.18214667e+00,  6.22995436e-01,  2.13809729e+00,  2.41588855e+00,  5.08146524e-01,  2.40797341e-01,  2.20446682e+00,
     2.46860671e+00,  1.64804590e+00,  2.24216080e+00,  1.20324934e+00,  2.14995289e+00,  1.05488110e+00,  1.76634598e+00,  1.28422320e+00,
     7.27592468e-01, -3.40111628e-02,  1.57867789e+00,  1.36243117e+00,  3.76603842e-01, -6.17162585e-02,  1.17389214e+00,  1.03171718e+00,
     7.87501276e-01,  1.00027382e+00,  9.92545664e-01,  2.73465371e+00,  1.48824489e+00,  1.20539618e+00,  1.08534360e+00,  2.39607543e-01};

const float RNN1_W[32][64] = {
   { 7.74744391e-01,  7.04793513e-01,  5.02119541e-01, -4.04488388e-03,  6.01477563e-01, -8.41585279e-01, -9.27427888e-01,  8.18203330e-01,
    -3.08431476e-01, -6.43240154e-01,  3.45033929e-02,  4.68461722e-01,  8.39624852e-02,  2.81051904e-01, -7.74419725e-01,  1.00983059e+00,
     2.18896627e-01, -4.03214812e-01,  2.32655391e-01, -4.37761128e-01,  1.91962823e-01,  5.39721310e-01, -8.61228630e-02,  2.90136039e-01,
     6.75417185e-02,  4.99184161e-01,  3.51632535e-02, -2.75345951e-01, -4.25177932e-01, -3.20145130e-01,  5.69274783e-01, -6.73316061e-01,
     1.43351957e-01, -5.72412610e-01, -1.32977355e+00,  4.33402747e-01, -8.12445998e-01,  1.02157855e+00,  9.89462912e-01,  1.13207245e+00,
     9.86073792e-01,  9.16403770e-01,  2.82657206e-01,  7.76613533e-01,  4.64634120e-01,  7.99233615e-01, -8.43387902e-01,  6.99355960e-01,
    -3.16182524e-01,  8.66371512e-01,  5.88352442e-01, -3.77241492e-01,  4.69084531e-01, -1.09056115e+00,  9.02242839e-01,  1.28964521e-02,
    -3.70434582e-01,  6.60545155e-02, -9.34540257e-02, -1.12551734e-01, -2.12415427e-01,  1.73401952e-01, -3.07796627e-01,  1.09920943e+00},
   { 2.25620583e-01,  3.02214831e-01,  6.87242210e-01, -8.23601857e-02,  2.70439893e-01,  2.06636265e-01, -7.85255551e-01,  2.07507238e-01,
     7.88337409e-01,  2.35321485e-02, -5.26052117e-01,  5.04129708e-01,  1.90186188e-01,  4.88197207e-01, -8.55039299e-01,  6.80382252e-01,
     4.71327901e-01,  1.54238075e-01,  5.73444128e-01, -2.00108469e-01,  3.13178599e-02, -2.81271338e-01, -1.93245485e-01,  2.54872322e-01,
     9.95467007e-02,  2.96054836e-02,  9.42349792e-01,  2.54422873e-01, -2.59074748e-01,  6.17986143e-01, -1.47699416e-01, -1.09258033e-01,
     3.60067070e-01, -6.46939218e-01,  9.92168393e-03,  2.41052166e-01, -7.07413912e-01,  2.69425839e-01,  1.45428014e+00,  9.23074901e-01,
     9.07147884e-01,  9.11474764e-01, -2.24887449e-02, -6.82345331e-02,  6.04059100e-01, -2.26642519e-01,  1.10486552e-01,  3.76104772e-01,
     9.76747692e-01,  1.27602160e-01, -4.54690248e-01, -1.59217030e-01,  6.28502905e-01, -5.25037587e-01,  1.35080171e+00, -4.17823233e-02,
    -1.98661506e-01, -4.97457653e-01, -6.41421199e-01,  4.60811794e-01, -2.63154894e-01,  3.00562114e-01, -6.67409599e-02, -5.71460187e-01},
   {-5.30799665e-02, -7.97930241e-01, -6.65467739e-01,  2.82147199e-01,  2.38705114e-01, -4.53428447e-01,  7.98864722e-01,  5.99472113e-02,
    -3.35786551e-01, -1.38979331e-01,  4.25410151e-01, -7.80028477e-02, -7.08624303e-01,  5.05466402e-01, -3.22331548e-01, -3.81980032e-01,
    -2.04444341e-02, -1.41257751e+00, -3.76990020e-01,  1.45131856e-01,  6.59653127e-01, -1.42016947e-01, -7.68581152e-01, -3.14447209e-02,
    -6.86424732e-01,  6.19206429e-01, -2.58420497e-01, -3.77070457e-01, -2.62733728e-01, -4.80558693e-01,  7.94239521e-01,  3.93681169e-01,
     5.09948015e-01, -1.18953250e-01,  1.72622293e-01, -4.92748290e-01,  2.30761096e-01,  1.33048564e-01,  1.75927505e-01, -2.52937227e-01,
     3.23027372e-01,  3.29477936e-01,  4.05255318e-01,  7.34918118e-01,  2.58950442e-01,  2.76594818e-01,  3.10330272e-01,  3.77246618e-01,
     2.49360740e-01, -6.95175111e-01,  2.08504558e-01, -6.82102919e-01, -1.49231195e-01, -6.22516870e-01,  2.98035473e-01, -5.96741699e-02,
    -4.07440886e-02, -2.12336108e-02,  1.32448480e-01,  5.31275347e-02,  6.21756852e-01, -3.85374069e-01, -7.65275240e-01, -1.38934687e-01},
   { 5.37374556e-01, -6.76710427e-01,  1.49455893e+00, -4.12655413e-01, -8.64045382e-01,  5.17063916e-01, -4.35260823e-03,  2.23851621e-01,
     1.23028362e+00,  2.79038996e-01,  5.02556637e-02,  2.16461205e+00,  1.12615836e+00,  1.59512246e+00,  3.94097269e-02,  3.32613289e-01,
    -3.91496420e-01,  2.29239747e-01,  7.00733781e-01, -1.08506346e+00,  9.22226369e-01, -1.87590003e-01, -4.73246098e-01, -7.36851573e-01,
     2.17456058e-01, -7.39135802e-01,  2.28344277e-01,  1.32530129e+00, -4.11976039e-01,  1.42829394e+00, -8.31960678e-01,  8.07837844e-01,
     8.05927873e-01, -5.72773993e-01, -2.91975886e-01, -8.84763241e-01, -2.62235925e-02, -6.81448132e-02, -2.56314650e-02,  8.87261093e-01,
     8.68881464e-01,  2.32967257e-01, -1.16743997e-01, -9.79657173e-01,  8.19270253e-01,  3.48111480e-01, -5.65321743e-01,  5.72167635e-01,
     1.45555532e+00, -2.14517057e-01, -3.95930827e-01,  2.06217468e-02,  7.71945596e-01,  2.28551656e-01, -4.83731300e-01,  9.78372842e-02,
     1.15550354e-01, -1.71121821e-01,  1.11027859e-01,  5.82095563e-01, -7.72721842e-02, -4.12693232e-01, -4.88389462e-01, -9.13292527e-01},
   {-3.59218866e-01, -4.80332859e-02,  8.88254821e-01, -1.15453351e+00,  8.06548774e-01, -5.34315586e-01, -2.65284568e-01,  2.11429805e-01,
    -5.78957319e-01, -4.58601385e-01, -3.17655116e-01, -4.35958385e-01, -2.47642323e-01,  4.51658994e-01, -1.67090967e-01,  1.78019926e-01,
     5.06660759e-01, -4.21264946e-01, -1.57541960e-01,  4.00280446e-01,  8.01474392e-01,  1.64505899e+00, -3.83899420e-01,  1.18389058e+00,
    -9.90189791e-01, -6.89075445e-04,  3.83305490e-01, -1.06989872e+00,  3.42263669e-01, -3.73225898e-01, -4.50452089e-01,  5.61223924e-01,
    -4.00907010e-01, -4.43876266e-01, -3.79666060e-01,  2.44999483e-01, -8.54990929e-02,  5.23965284e-02, -2.04252511e-01,  5.75368822e-01,
     6.63900912e-01,  1.32255507e+00,  2.92639881e-01, -8.75159025e-01, -1.85708448e-01, -1.29787874e+00,  1.13344975e-01,  1.07811511e-01,
     1.44797593e-01, -1.49738401e-01,  3.06466758e-01, -6.12831414e-01, -8.09749812e-02, -4.45024341e-01, -2.51973476e-02, -1.52806386e-01,
    -2.98152655e-01, -6.68632567e-01, -3.76609087e-01,  3.01408148e+00,  6.96069121e-01,  9.08309758e-01, -6.61828443e-02, -1.34872210e+00},
   {-3.17453742e-01, -4.77530360e-01,  5.65119565e-01,  3.58649194e-01,  8.30897510e-01, -1.10366136e-01, -3.74323606e-01, -8.75755772e-02,
     2.24500343e-01,  2.59265989e-01, -2.60660917e-01, -2.22515807e-01,  5.61379902e-02, -5.30937076e-01,  7.70361274e-02,  1.74246341e-01,
    -1.32570609e-01, -4.58153427e-01,  1.96454749e-01,  6.39869422e-02,  3.91179055e-01,  9.56483543e-01, -1.21099643e-01,  1.15904355e+00,
    -4.84712124e-02,  4.76420701e-01,  1.02817558e-01, -6.90323533e-03,  2.58814394e-01,  1.09901227e-01, -9.10890579e-01, -2.50956833e-01,
    -3.89835536e-01, -2.51015127e-01,  5.36911562e-03,  4.99745548e-01,  3.79015982e-01,  5.32837510e-01,  8.82103741e-01,  1.63541257e+00,
     2.75458604e-01,  1.00026801e-01,  2.48877823e-01, -5.49044311e-01,  1.85082406e-01,  2.15033129e-01, -2.10913494e-01,  1.01794398e+00,
    -4.41428795e-02,  1.96389854e-01, -8.30589712e-01,  3.33076000e-01,  7.44343460e-01,  1.29274338e-01,  8.82876754e-01, -1.32225841e-01,
     4.69925940e-01,  9.41703394e-02,  2.14931611e-02,  6.79039001e-01,  6.16503060e-01, -7.52454251e-02,  3.83212537e-01, -3.79007578e-01},
   {-1.51078627e-01,  1.75436333e-01, -4.34965283e-01, -9.76101458e-02,  1.93897635e-01,  3.96914721e-01,  1.06584942e+00, -9.72538888e-01,
    -1.60008028e-01,  3.40708792e-01, -9.79441404e-03, -3.35016251e-01,  4.62531984e-01, -1.68651864e-01,  9.26082492e-01, -3.18938434e-01,
    -9.45268571e-01, -1.74303278e-02, -3.24210525e-01, -7.65030742e-01, -1.43667758e-01, -3.15400869e-01, -1.41578138e-01,  1.06559778e-02,
     1.00217871e-01, -3.74828994e-01, -7.62896478e-01,  2.99383551e-01,  6.09568655e-02,  9.21114609e-02, -1.50885299e-01,  2.31716037e-01,
    -3.73229869e-02,  7.93729842e-01,  6.38646603e-01, -1.18445441e-01,  3.77222836e-01, -7.12870538e-01,  2.08716527e-01,  1.05535068e-01,
    -3.99888247e-01,  3.52981985e-01,  7.43571371e-02,  4.26566135e-03, -4.11728621e-01, -7.38029599e-01,  3.01342040e-01, -2.37392783e-01,
    -3.28241810e-02,  9.27641541e-02,  1.10843211e-01, -2.75659829e-01, -4.34884161e-01, -5.02119243e-01,  1.27259374e-01, -1.41053513e-01,
     3.51774544e-02,  1.71409205e-01,  2.08528697e-01, -1.12596005e-01, -6.36762008e-02, -3.25340517e-02,  3.75214368e-01,  2.79295176e-01},
   { 2.24383473e-01,  2.43423685e-01, -3.31542790e-01,  2.96810657e-01, -1.20346293e-01, -4.87996310e-01,  3.96243155e-01,  2.38894388e-01,
    -4.02862102e-01, -2.72224903e-01,  7.26128280e-01,  5.10977320e-02, -9.02656198e-01,  7.59080499e-02, -3.02126259e-01, -1.51843667e-01,
    -3.55791181e-01, -9.43896413e-01,  4.37814556e-02,  1.48870843e-02,  3.60116839e-01,  1.87555686e-01, -2.97823101e-01,  2.60951579e-01,
    -3.66938531e-01,  9.10460651e-01,  1.51499957e-02, -5.92805922e-01, -1.32751480e-01, -3.86444330e-01,  1.67861968e-01, -3.86120290e-01,
     3.67442697e-01,  6.80619031e-02, -3.79013896e-01, -3.88641864e-01,  2.68143594e-01,  6.67481303e-01,  3.56957734e-01,  2.45742962e-01,
     3.84753853e-01,  7.71995634e-02,  1.21525466e-01,  5.95830262e-01,  2.67065704e-01,  5.84321082e-01, -1.41966879e-01,  8.69468033e-01,
    -4.86064069e-02,  7.98113793e-02,  3.58068794e-01,  4.74524572e-02, -1.01740822e-01,  3.57407480e-02,  1.57252729e-01,  1.09609971e-02,
    -5.99350154e-01,  5.56365371e-01, -2.80569755e-02, -2.71628320e-01,  7.21227348e-01, -1.22625582e-01, -5.24044096e-01,  6.39957070e-01},
   { 2.94763684e-01,  1.79755080e+00,  1.75018325e-01, -8.45488489e-01, -4.99547303e-01,  2.03091338e-01,  2.39470080e-01, -1.17242508e-01,
    -2.80977428e-01,  2.25440577e-01, -7.30296820e-02, -6.46899045e-02,  3.25871438e-01, -3.79307896e-01,  8.79520737e-03, -2.14638934e-02,
    -7.87389800e-02,  6.34217799e-01,  3.70040298e-01, -3.27444136e-01, -3.31459343e-01,  4.36890990e-01,  4.77352232e-01, -1.97276384e-01,
     6.39040351e-01, -1.40602440e-01, -2.57282227e-01,  2.59994477e-01, -3.92453432e-01,  1.24565884e-01,  1.69022791e-02, -4.12830919e-01,
     1.67688698e-01,  2.08169088e-01,  3.43693256e-01, -1.88414738e-01,  6.26503378e-02,  6.53282087e-03, -1.01487255e+00,  1.27732843e-01,
    -1.35542780e-01,  1.49018675e-01, -8.55500102e-01, -2.24943325e-01, -5.52197218e-01, -4.91227478e-01, -9.12571698e-02, -3.20449919e-01,
    -5.76333940e-01,  9.50865626e-01,  2.65319467e-01,  1.28392026e-01, -1.33466758e-02,  1.94667429e-01, -4.49992418e-01,  1.49451673e+00,
     2.85154998e-01,  4.63065803e-01,  3.76400024e-01,  1.40764900e-02, -8.85719240e-01,  5.26376486e-01,  2.22513556e-01,  7.56211460e-01},
   {-1.16273677e+00, -6.64098561e-01, -1.59232274e-01,  6.88246429e-01, -1.99361503e-01, -6.63153589e-01, -6.49376035e-01,  7.38910496e-01,
    -1.78375095e-01, -3.78163755e-01,  1.61353275e-01, -5.46944141e-01, -1.19780028e+00,  7.14611113e-01, -6.72175169e-01,  2.75569111e-02,
     1.13089275e+00, -2.81078130e-01, -2.74312794e-01,  9.53031540e-01,  2.64619619e-01, -3.21464360e-01,  1.02973528e-01, -6.94489837e-01,
    -1.08041239e+00,  5.81671894e-01,  1.00430095e+00, -1.41548526e+00,  3.17834407e-01, -1.01040602e+00,  2.86648601e-01, -3.55113238e-01,
    -1.04654796e-01, -4.45172787e-01, -4.97752219e-01,  1.05111770e-01, -4.10532653e-02,  1.15340817e+00,  1.42256007e-01,  6.07805312e-01,
     2.80549824e-01, -7.84052968e-01, -6.60187006e-01, -1.46721616e-01,  5.18262327e-01, -6.21648848e-01,  5.34977876e-02,  2.07146734e-01,
     6.61673486e-01, -1.27795899e+00,  2.75909901e-01,  1.08853325e-01, -4.29970413e-01,  2.05175161e-01, -3.72993171e-01, -2.52846554e-02,
    -1.65343463e-01, -1.02102208e+00, -3.20103586e-01,  6.74788713e-01,  1.56058311e-01, -6.88725412e-02, -8.41135681e-01, -1.10536265e+00},
   { 7.51683176e-01,  7.28057325e-01,  8.07291925e-01, -3.81155878e-01,  5.94025664e-02,  3.40508908e-01, -4.94634509e-01,  1.37519956e-01,
     1.91157854e+00, -3.48200947e-01, -5.24025738e-01,  8.13111603e-01,  9.16947007e-01,  4.45729017e-01, -8.08080375e-01,  5.52067280e-01,
     7.67015994e-01,  2.70199418e-01,  2.07617044e+00,  4.40466106e-01, -5.76915173e-03, -4.64281321e-01,  5.58436848e-02,  2.74919897e-01,
    -5.19095600e-01, -6.58285439e-01,  6.06663048e-01,  5.07912755e-01,  2.95373052e-01,  1.10817063e+00, -2.53187567e-01,  1.23379183e+00,
     1.01544690e+00, -2.79841602e-01,  1.20322697e-01, -9.25255775e-01,  3.88253719e-01, -1.69744179e-01,  2.41738588e-01, -8.49138379e-01,
     1.01280905e-01,  1.03458309e+00, -6.17010951e-01,  1.14682160e-01, -9.57938731e-02,  1.81892693e-01,  1.80713713e-01, -1.27368581e+00,
     1.19847107e+00,  1.18023783e-01, -4.10803080e-01, -1.41653791e-02,  3.50843400e-01, -6.43656552e-02,  1.56436980e-01,  3.92905325e-01,
    -3.74418646e-01, -2.24450901e-01, -5.47614753e-01,  4.65032101e-01, -1.08503437e+00,  1.65944910e+00, -4.73712711e-03, -3.83276522e-01},
   {-3.34405243e-01, -4.85365421e-01,  2.90587664e-01,  2.40943823e-02,  1.34452248e+00, -3.60764593e-01, -5.91314793e-01,  1.37377560e-01,
    -1.33481082e-02,  1.99913025e-01,  3.20469052e-01,  2.79041946e-01, -5.83748221e-01,  9.47343588e-01, -1.12086296e-01,  5.14978528e-01,
     5.52943587e-01, -5.19516110e-01,  5.18256783e-01, -2.63854802e-01,  1.05643320e+00,  1.16127610e+00, -1.35642636e+00,  3.26054066e-01,
     3.11278164e-01,  2.17975706e-01,  7.69012511e-01, -3.03213686e-01,  9.36622545e-02,  5.95177189e-02,  4.28667545e-01, -2.27456480e-01,
     3.46678108e-01, -4.43846047e-01, -2.36793041e-01,  5.77345014e-01,  8.59882310e-03,  1.49202302e-01,  7.20949233e-01, -3.65097791e-01,
     8.08454037e-01,  6.37032166e-02,  1.37647295e+00, -1.30059063e-01,  3.78461391e-01,  6.88621581e-01, -1.00747585e+00, -1.92759372e-02,
    -2.10242897e-01,  4.44275700e-02,  4.35713306e-02, -3.22674066e-01,  1.89438373e-01, -2.30755702e-01,  3.82538855e-01, -4.25206460e-02,
    -4.21034992e-01, -2.40634128e-01, -4.25427072e-02,  4.56725895e-01,  7.35668063e-01,  2.86023170e-01,  2.31437773e-01, -4.62100118e-01},
   { 1.91404724e+00,  8.10772479e-01,  4.66110349e-01,  5.20072579e-01,  7.91221738e-01, -3.51620376e-01,  7.72973746e-02, -5.14057219e-01,
     3.14097434e-01,  2.05456078e-01,  5.07075191e-02,  6.54826164e-02,  6.82185531e-01,  2.64487177e-01,  2.05895633e-01,  1.54148519e-01,
     5.94601989e-01, -4.89127636e-01, -2.60108411e-01, -6.29055560e-01,  3.13655227e-01, -1.02641773e+00, -9.13652718e-01,  1.31824195e+00,
     3.05833250e-01, -3.76196146e-01, -2.36018300e-01,  4.97002959e-01, -4.40034240e-01, -4.24627364e-02, -1.49201080e-01,  5.93300343e-01,
     1.10485649e+00, -3.98903668e-01,  2.32867926e-01, -6.83782697e-01,  6.72934711e-01,  3.27746153e-01,  3.47002000e-01,  1.58343479e-01,
     5.77740490e-01,  7.97211409e-01,  3.28229070e-01, -5.45236506e-02, -1.38320997e-01,  1.90831766e-01,  3.91381085e-02,  5.53922296e-01,
     9.27191526e-02,  1.26173973e-01, -5.76074779e-01, -5.17629236e-02, -6.57964647e-01, -8.90136123e-01,  4.51975465e-01,  2.94205159e-01,
    -2.24403590e-02,  5.15136003e-01,  1.24866962e-01, -1.08169079e+00, -9.79210019e-01, -1.13653576e+00, -1.91316500e-01,  9.17131543e-01},
   { 7.60876834e-01,  1.15526021e+00,  4.97553676e-01, -8.78523231e-01, -6.63397312e-01, -1.11788169e-01, -5.99817157e-01,  6.76934242e-01,
     1.09526403e-01, -4.90430981e-01, -1.32519615e+00, -8.31479728e-02,  9.28719342e-01, -2.44376853e-01, -1.48524612e-01,  9.28288475e-02,
     6.06529295e-01, -4.30333793e-01, -8.71006586e-03,  2.68744409e-01, -6.17336296e-02, -6.87956929e-01,  1.78284645e-01,  5.96798994e-02,
    -7.77644068e-02, -1.09754944e+00,  9.72894788e-01,  5.74223816e-01,  6.44593775e-01,  1.13932699e-01, -4.95957017e-01,  1.10544062e+00,
    -9.01644677e-02,  4.21960115e-01,  7.78600752e-01,  1.06289357e-01,  5.26181698e-01, -6.64543267e-03, -1.23285198e+00, -1.11424160e+00,
     2.28597417e-01, -5.80986738e-01, -4.93625879e-01, -1.43280065e+00, -6.21502876e-01, -8.69392335e-01,  2.28948817e-01, -3.85281086e-01,
    -2.08436102e-01, -8.02294493e-01,  1.21810414e-01,  2.00302690e-01, -7.33063161e-01,  1.38548864e-02, -1.58631814e+00, -4.67794061e-01,
     1.72865093e-01, -6.08544886e-01,  2.89933771e-01, -9.74964976e-01, -1.94989264e+00,  4.88014400e-01,  1.86503977e-01, -7.05057144e-01},
   {-3.31712276e-01,  7.70979941e-01,  9.22658861e-01, -1.76995277e+00,  1.87012538e-01,  6.77703261e-01, -7.85472691e-01,  2.37008289e-01,
     3.81088048e-01, -3.96912873e-01, -5.89581788e-01, -1.24885060e-01,  3.49864930e-01, -1.13338061e-01, -3.08425009e-01, -3.21477115e-01,
    -3.44831534e-02,  1.39524251e-01,  1.11173618e+00, -3.40400606e-01,  1.29613712e-01,  2.35673165e+00,  4.44448620e-01, -7.28023201e-02,
     1.10387063e+00, -4.58382845e-01,  1.22449085e-01, -5.14213443e-01,  4.62283164e-01, -2.56047070e-01, -3.22755165e-02, -8.12597424e-02,
     3.66688639e-01, -8.96409079e-02, -4.51107711e-01, -1.12641402e-01,  8.63630250e-02, -2.08888814e-01, -2.66889185e-01, -1.66993648e-01,
     2.30973214e-01,  6.04299605e-01, -1.85306355e-01, -5.02647817e-01,  4.88566369e-01, -6.54170036e-01,  2.79629350e-01, -5.89654028e-01,
    -3.44086677e-01,  1.09207821e+00,  1.46296966e+00,  9.12838161e-01, -5.38767755e-01,  1.33057371e-01, -4.25160587e-01,  5.66339493e-01,
    -1.25050783e-01, -1.41162565e-02, -1.49409905e-01,  9.78001893e-01, -1.84430897e-01,  1.52545702e+00, -1.55836239e-01, -5.47790289e-01},
   { 1.57401070e-01,  1.45691678e-01,  2.93886334e-01,  6.24209166e-01,  3.90207738e-01, -6.21874690e-01, -6.32126510e-01,  6.13013506e-01,
    -6.67263448e-01, -5.44995010e-01, -2.56322056e-01, -7.56216109e-01,  2.94513673e-01, -3.65925759e-01, -4.64448452e-01,  1.91968918e-01,
     5.55715442e-01, -1.57298237e-01, -2.01027259e-01,  1.52941692e+00, -2.02775732e-01, -2.85776854e-01,  1.80185810e-01,  3.65909964e-01,
    -3.38703662e-01,  1.28348246e-01,  1.18103057e-01, -5.97326875e-01,  1.35127473e+00, -7.89820433e-01,  7.63757110e-01,  8.61544669e-01,
    -5.47891080e-01, -7.02046156e-01,  3.44477445e-01, -5.10410368e-01,  4.80261296e-02,  4.64116335e-01, -4.68098223e-01, -9.01097953e-01,
    -1.48852140e-01, -1.61247045e-01, -8.44976008e-02,  1.76710449e-03, -6.05928004e-01, -2.46801525e-02, -3.76849353e-01, -2.06847563e-01,
    -1.29462481e-01,  4.33675423e-02,  2.05168322e-01, -1.57536343e-01, -4.86659706e-01,  3.77858043e-01,  3.95878926e-02, -1.27941296e-01,
    -5.02990723e-01, -8.70962262e-01, -3.98986250e-01, -1.45805925e-01, -5.80439150e-01,  4.15278912e-01, -4.88726556e-01, -1.13692731e-02},
   { 6.67415619e-01,  7.20720410e-01,  5.86587787e-01, -3.71129364e-01,  3.75286639e-01,  1.54046908e-01, -5.07157743e-01, -1.46785885e-01,
     1.20153105e+00,  1.73766077e-01, -4.14755672e-01, -9.73484457e-01,  3.87135327e-01,  4.79279011e-01,  5.18315993e-02, -4.47145581e-01,
     8.00259531e-01,  1.05996795e-01,  5.46651363e-01,  1.09963524e+00,  2.56277710e-01,  4.38909054e-01, -4.25990582e-01,  3.76290917e-01,
    -5.53068221e-01, -4.15808409e-01,  6.64554417e-01,  4.55907822e-01, -2.00917691e-01,  1.33973867e-01, -4.23383147e-01,  5.27175188e-01,
     3.67523171e-02, -4.62504119e-01,  4.71322447e-01,  2.80282907e-02,  2.32223943e-01,  2.22759008e-01, -4.14206147e-01, -5.36653459e-01,
     2.49369964e-01,  8.63480330e-01, -3.14410776e-01, -5.28875351e-01,  1.50207520e-01,  3.63148272e-01, -1.43305764e-01, -4.21495616e-01,
     4.59719270e-01, -8.68684426e-02, -9.76740837e-01,  1.59183145e-01, -4.34311360e-01, -3.25321287e-01, -3.53892565e-01,  8.19151282e-01,
    -1.66909412e-01,  4.34933960e-01, -2.30997086e-01,  7.39323914e-01, -8.04821432e-01,  3.49722892e-01, -1.06097288e-01,  3.79705690e-02},
   { 1.84254259e-01,  1.37778413e+00,  7.81301558e-02, -7.12012768e-01,  5.95259368e-01, -4.97613639e-01, -8.80825639e-01,  6.47585034e-01,
    -5.06534755e-01, -3.76213074e-01, -9.33898836e-02, -4.79220867e-01, -2.54751295e-01,  4.01330478e-02, -4.40477490e-01,  3.13056484e-02,
     1.02211428e+00,  3.00530165e-01,  8.87677491e-01, -1.93983495e-01,  2.37996489e-01,  1.63472545e+00, -1.87275171e-01,  2.69469857e-01,
     2.13369831e-01, -4.50304270e-01,  6.96244597e-01, -1.01298952e+00, -1.10937142e+00, -8.40648115e-01, -5.68199992e-01, -5.98545790e-01,
    -2.19848305e-01, -8.38751256e-01, -3.92507225e-01,  8.63644242e-01, -5.14737189e-01, -1.77964285e-01, -4.11814004e-01, -3.86571437e-01,
     3.16702962e-01, -7.81277865e-02, -1.36598736e-01,  3.35387319e-01,  5.90039134e-01, -6.70935214e-01, -6.18880212e-01, -9.15610552e-01,
    -1.07940960e+00,  6.78418577e-01,  7.77502418e-01,  1.35315984e-01, -1.78920299e-01,  2.17126474e-01, -6.37607932e-01,  7.12535322e-01,
    -4.72081512e-01,  2.43875787e-01, -7.49162436e-01,  9.94422138e-01,  9.17229891e-01,  1.00646234e+00,  1.11769266e-01,  1.14075661e-01},
   { 7.59806931e-01, -2.28313431e-01,  4.79583979e-01,  5.11634499e-02,  1.01116449e-01, -1.25125360e+00, -7.66062558e-01,  5.84195554e-01,
    -5.17750442e-01, -1.26755261e+00, -3.86406988e-01, -6.44802272e-01, -3.83035019e-02, -4.37497616e-01, -7.02532828e-01, -2.73008078e-01,
     7.47523189e-01,  2.65357614e-01, -4.64698046e-01, -4.54186022e-01, -5.85081987e-02, -4.48456779e-02, -5.25733791e-02,  7.80427635e-01,
    -9.55529094e-01, -2.48195976e-01,  8.28387082e-01, -6.45343304e-01, -9.58013088e-02, -1.32309222e+00,  4.63080313e-03, -1.59723848e-01,
    -2.96671122e-01, -6.18640006e-01, -8.50251466e-02, -2.83214152e-01,  6.46220818e-02,  1.12744451e+00, -7.82064080e-01,  1.00191824e-01,
     1.44030675e-01,  4.84812379e-01, -6.26605451e-01, -8.57099891e-01, -4.54280734e-01, -7.61559725e-01,  2.74703622e-01,  1.39963850e-01,
    -3.04960579e-01, -2.92851746e-01,  4.10744220e-01, -1.16446304e+00, -1.29445803e+00, -7.23553479e-01, -8.47157776e-01, -5.00425279e-01,
    -7.32788384e-01, -4.31874037e-01, -6.20379210e-01,  5.22726700e-02, -9.38899875e-01,  4.89111036e-01, -3.58975828e-01, -6.64243579e-01},
   {-2.88224041e-01,  5.19395590e-01,  2.02716038e-01, -1.05317965e-01, -4.14690524e-01,  3.82886648e-01,  5.96398175e-01, -3.88219416e-01,
     9.41141307e-01,  6.53516352e-01,  7.40829855e-02, -3.75431269e-01,  1.10856569e+00, -2.63678730e-01,  7.30736792e-01,  1.27198502e-01,
    -4.48623955e-01,  6.61701560e-02, -7.80079290e-02,  4.86574233e-01,  1.24396525e-01, -3.14999759e-01,  2.10755393e-01, -2.67965585e-01,
     1.65793091e-01, -6.30423486e-01, -2.11556926e-01,  1.04185963e+00,  8.59963775e-01,  7.45795846e-01, -1.09082007e+00,  1.46215701e+00,
    -5.46963476e-02,  7.83587575e-01,  1.38630474e+00, -6.18018687e-01,  1.09098363e+00, -4.78415191e-01, -6.28826618e-01,  3.82365972e-01,
     2.34255362e-02,  3.50409627e-01, -1.99222844e-02, -8.50480437e-01,  3.61173637e-02, -5.16680956e-01,  1.65717438e-01,  8.83553028e-02,
     4.94923145e-01, -1.12674348e-01, -1.04348135e+00,  1.87555805e-01,  4.88334239e-01,  2.74144053e-01, -1.41125113e-01,  4.63760704e-01,
     6.68600440e-01,  5.94725966e-01,  7.82731652e-01, -2.44824931e-01,  3.63637730e-02, -1.25726119e-01,  1.08016706e+00, -3.95741537e-02},
   {-3.17693025e-01,  1.01916444e+00,  3.38782310e-01, -1.48030746e+00,  2.48454824e-01,  1.52268767e-01, -6.45234942e-01,  1.50680438e-01,
    -3.39887738e-02, -1.61728173e-01, -8.08969140e-01, -5.35541534e-01,  1.22964776e+00, -2.27354709e-02, -1.61614776e-01,  2.28236496e-01,
     2.82827914e-01,  7.14548111e-01,  1.13594696e-01, -9.13235784e-01,  9.96972695e-02,  2.28114039e-01, -4.20418054e-01, -1.98089302e-01,
    -5.59014492e-02, -7.19503164e-01,  9.32173312e-01, -1.89735144e-01, -5.35010815e-01, -3.16064775e-01, -9.11559582e-01,  7.00859308e-01,
    -5.19587219e-01, -2.29784980e-01, -1.33789748e-01,  5.60881644e-02,  4.02208745e-01,  1.98480397e-01, -7.25214839e-01, -4.08523589e-01,
     3.73849601e-01, -3.45343977e-01, -1.91098779e-01, -1.29142344e+00, -5.67954004e-01, -1.51790941e+00,  5.25822081e-02,  1.68425828e-01,
    -2.90024355e-02, -4.17797774e-01,  3.45658034e-01,  1.64564505e-01, -2.08763286e-01,  7.53955483e-01, -1.31395638e+00, -2.95731932e-01,
    -2.31795222e-01, -8.82159829e-01, -8.96867990e-01,  1.15129791e-01, -2.56174862e-01,  7.37324119e-01,  3.35016847e-01, -1.42988837e+00},
   {-3.60583484e-01, -1.04485643e+00, -4.58851546e-01, -1.17016718e-01, -5.54550588e-01,  3.40964869e-02,  8.53631914e-01, -5.40224433e-01,
    -1.30581212e+00,  2.13929147e-01,  5.61416507e-01,  2.17575990e-02, -6.83174253e-01, -1.16736317e+00,  3.98657560e-01, -3.00235093e-01,
    -8.71170938e-01,  4.22443658e-01, -1.33548081e-01, -3.60850580e-02, -9.93806064e-01, -1.91874966e-01,  1.19166172e+00, -6.92910492e-01,
     2.24968523e-01,  3.23849946e-01, -8.36354494e-01, -8.78036022e-02, -6.77591115e-02, -6.06274724e-01,  5.49636722e-01, -3.18721890e-01,
    -6.41928390e-02,  4.16477621e-01, -3.66710186e-01, -3.97383481e-01, -1.55726179e-01, -4.67412323e-01, -5.19466937e-01, -6.02184594e-01,
    -1.39555323e+00,  1.70506880e-01, -4.21677351e-01,  2.07082197e-01,  1.63671970e-01, -8.34209085e-01,  3.89803886e-01,  2.77723372e-02,
    -8.34681034e-01,  1.87787697e-01,  7.09516227e-01,  3.28566879e-02, -2.33627886e-01,  2.38990068e-01, -4.30238545e-01,  1.19343683e-01,
     4.98901993e-01,  4.33434576e-01,  5.05466104e-01,  3.89831632e-01,  4.00079846e-01, -1.01961695e-01,  6.89986348e-02,  1.38367012e-01},
   {-1.39636084e-01,  2.99897581e-01, -8.22728515e-01,  2.86760420e-01,  1.39183909e-01,  6.39162818e-03,  2.30054826e-01,  2.93130040e-01,
     4.49133128e-01, -1.23073608e-01,  6.60118639e-01,  1.81388259e-01,  3.27730507e-01,  4.10330296e-02, -2.22715680e-02,  6.87351152e-02,
    -3.37972641e-01,  1.14428550e-01, -1.80495560e-01,  4.26063329e-01,  5.22922337e-01, -3.40941370e-01, -5.99602878e-01, -4.60868537e-01,
     2.35667154e-01, -5.04659653e-01, -3.79859328e-01, -6.21542394e-01, -1.03832519e+00,  1.92531273e-01,  6.29192650e-01,  6.58438981e-01,
     5.46555519e-02, -1.80427834e-01, -2.42362574e-01, -5.47622561e-01,  2.34076977e-02,  1.55961037e-01, -1.45108089e-01, -7.57629991e-01,
     5.04350781e-01, -3.06356847e-01,  1.98383421e-01,  8.04849565e-01,  1.41001955e-01,  2.65590996e-01,  1.49854660e-01, -5.39126217e-01,
     2.45993182e-01, -5.90461373e-01, -4.43520039e-01,  2.18522429e-01,  3.66533771e-02,  2.95165837e-01, -1.66240305e-01,  3.91008317e-01,
     2.83450156e-01, -2.27631614e-01, -1.28049746e-01, -4.34453636e-01, -3.40637147e-01, -4.27958816e-01, -6.02157772e-01,  6.49493635e-01},
   { 4.95501786e-01,  1.03388309e+00,  7.48176873e-01,  3.13849717e-01,  2.65174896e-01, -2.35081196e-01, -5.36735177e-01,  1.58712244e+00,
    -4.70467180e-01, -7.91529179e-01, -1.00773776e+00, -2.96434667e-02,  2.06355024e-02,  2.06330210e-01, -9.97560799e-01,  1.22686408e-01,
     1.01619792e+00, -5.78540504e-01, -1.14912522e+00, -1.50141084e+00, -1.46050304e-01, -6.06536448e-01, -4.29193676e-01,  1.45890817e-01,
    -1.53912138e-02, -2.91866004e-01,  8.98270607e-01, -4.08401698e-01, -7.54365206e-01, -1.02243662e+00, -9.13856849e-02,  6.94161430e-02,
     1.73686609e-01, -1.35447204e+00, -9.94354486e-01,  2.51146346e-01, -5.90742171e-01,  1.40229905e+00,  4.82733071e-01, -4.15459722e-01,
     3.37336719e-01,  4.76054072e-01, -4.28599864e-01,  2.36207530e-01,  1.42371282e-01, -1.80522069e-01,  6.80770800e-02,  6.07172213e-02,
    -1.72132447e-01,  1.47117302e-01,  8.53970051e-01, -9.14349020e-01, -4.33796704e-01, -8.97586644e-01, -7.15399981e-01,  1.61509514e-01,
    -2.20869875e+00, -6.45697862e-02, -1.92925990e+00, -7.62391090e-01, -1.26672173e+00, -8.21614087e-01, -6.84798419e-01,  2.26938784e-01},
   {-5.19626439e-01, -2.42595866e-01, -8.10624838e-01,  5.43227494e-01, -1.14409834e-01,  3.40851277e-01, -2.24105548e-03, -4.11379516e-01,
     5.19998431e-01,  3.98874581e-01,  1.40143645e+00,  4.10659224e-01, -3.00197005e-01, -1.23807155e-02,  3.35465409e-02,  4.42692250e-01,
    -7.06823245e-02,  2.48411119e-01, -2.74221171e-02,  2.01070094e+00,  1.28236130e-01, -2.22357176e-02,  3.24495077e-01, -5.43870330e-01,
     1.23373099e-01,  8.01823318e-01, -6.93926662e-02, -5.52720189e-01, -4.05892849e-01,  3.79738927e-01,  1.31907415e+00, -5.62358737e-01,
    -2.93563455e-01,  3.42047155e-01,  5.94792664e-01, -1.79485619e-01, -5.13884053e-02, -5.69686554e-02,  6.89921230e-02,  4.32179540e-01,
    -3.76939736e-02, -1.08467591e+00, -9.32154581e-02,  7.68626451e-01,  4.20780897e-01,  6.94913805e-01, -1.83683224e-02,  4.28317785e-01,
    -5.42978197e-02, -7.41776288e-01, -2.76883066e-01,  2.23478168e-01,  1.12765181e+00,  1.38743556e+00,  6.84183478e-01,  1.90463990e-01,
     6.09533429e-01, -5.12393862e-02, -1.76886618e-01,  3.42306554e-01,  1.17659485e+00, -7.21468270e-01, -3.73697311e-01, -6.26024961e-01},
   {-3.36770207e-01,  6.95987940e-02, -5.67124644e-03,  2.86485970e-01, -3.24090570e-01,  3.75314742e-01,  8.59869897e-01, -6.13134086e-01,
    -5.93417704e-01,  3.27292770e-01,  1.11470127e+00,  8.19970191e-01, -4.59301680e-01,  1.06686382e-02,  8.53005886e-01,  6.79468751e-01,
    -7.48589039e-01,  3.10951233e-01,  3.75191905e-02,  2.23266229e-01, -4.98670079e-02, -1.43630967e-01, -4.34471853e-03, -2.82790333e-01,
     5.44971168e-01, -1.11925989e-01, -1.07685554e+00,  2.45500863e-01,  4.17591453e-01,  4.37277675e-01, -4.61467393e-02, -2.44278118e-01,
     4.26225960e-01,  4.34884220e-01, -4.34726924e-01, -5.84319867e-02, -6.03823125e-01, -1.52130753e-01,  2.68817276e-01,  7.20099628e-01,
     2.04647146e-02,  1.50968015e-01,  4.77477849e-01,  5.30397058e-01,  5.23354053e-01, -2.23273262e-01, -5.01202226e-01,  3.67005885e-01,
    -5.14955521e-01,  6.10722184e-01,  5.60940027e-01,  4.97252822e-01,  2.31303692e-01,  5.65901458e-01,  4.39727455e-01, -1.42733932e-01,
     5.79634830e-02,  2.43394756e+00,  9.21463847e-01, -7.90236443e-02,  3.60745758e-01,  8.30304697e-02,  3.14610541e-01,  2.06371927e+00},
   { 1.34275448e+00, -2.84005105e-01,  1.37160897e+00, -2.86547631e-01,  1.16992211e+00,  9.10791904e-02,  3.67275476e-01, -2.30773017e-01,
    -2.62430549e-01,  1.62438974e-01, -2.39172913e-02, -1.81642622e-01,  8.21777642e-01,  4.96445209e-01, -4.02077734e-02, -6.98792100e-01,
     2.49182329e-01,  2.48012781e-01,  5.86538136e-01,  3.23354810e-01,  3.06357555e-02,  1.09449673e+00, -9.07884166e-02,  1.00622892e+00,
    -2.12762043e-01, -7.59770513e-01, -4.64327633e-02,  8.56708050e-01, -6.99437797e-01,  4.03515041e-01, -1.04142062e-01,  8.53115261e-01,
     2.18210801e-01,  2.35719696e-01,  3.42962265e-01, -2.84687919e-03, -5.81084155e-02, -5.48478723e-01,  2.21256495e-01, -5.93507767e-01,
     4.22861241e-03,  2.00818372e+00,  4.69114035e-01, -3.30830187e-01,  2.52712399e-01, -1.70721501e-01, -8.29952598e-01, -7.77566254e-01,
    -1.42140254e-01,  5.00561237e-01, -7.84084857e-01,  2.46932268e-01, -7.90683925e-01,  2.29892775e-01,  3.29145312e-01, -8.31920147e-01,
    -2.46073276e-01,  2.77542949e-01,  4.38252866e-01, -2.22090036e-01,  1.22524299e-01,  5.58117747e-01,  1.12563252e+00,  5.10104835e-01},
   { 1.32393628e-01, -4.18856889e-01, -4.09556814e-02,  1.60561770e-01,  1.76347196e-02, -5.91620684e-01,  5.73094785e-01, -1.10953711e-01,
     5.30419946e-01,  5.97012863e-02,  2.52384156e-01,  8.71801555e-01, -3.42965931e-01,  4.81562436e-01,  3.55282873e-01,  2.72074044e-01,
    -5.39566912e-02, -5.76762259e-01,  4.14011478e-02,  3.91098797e-01,  2.26616055e-01, -2.42718503e-01,  1.78620845e-01,  4.13270235e-01,
    -1.28336459e-01, -7.01924562e-02, -3.31803054e-01,  3.17741156e-01,  6.90436542e-01,  3.50479156e-01,  6.35539532e-01,  1.11496079e+00,
     7.54133880e-01,  2.04015598e-01,  1.65091783e-01, -1.30219722e+00,  2.37785771e-01,  2.11568296e-01,  7.80175030e-01,  2.12299526e-01,
     7.67535508e-01,  1.53974041e-01,  4.95955199e-01,  3.80761951e-01,  7.80469120e-01,  4.56880450e-01,  4.94776696e-01,  7.76275814e-01,
     1.48421943e-01, -2.50904620e-01,  7.18584239e-01, -5.42301945e-02,  3.59994203e-01,  1.31173015e-01,  5.13056815e-01, -3.84792954e-01,
     4.52498853e-01,  2.81340182e-01,  3.79337996e-01, -2.66503785e-02,  1.22160569e-01, -3.46046180e-01, -4.39281285e-01,  2.93195039e-01},
   {-6.76873326e-01, -9.02606487e-01, -7.39860773e-01,  2.08030283e-01, -1.23426929e-01, -5.74756622e-01,  1.16729643e-05, -3.49848330e-01,
     8.84836376e-01,  9.39775631e-02, -2.70190060e-01, -1.70952931e-01,  3.37539852e-01,  1.46633849e-01, -1.61659837e-01,  7.67652571e-01,
    -8.01433027e-02, -1.29757032e-01, -2.25304421e-02,  2.51138568e-01,  1.70908988e-01, -2.77006209e-01,  3.48498642e-01, -7.54988670e-01,
    -1.10607243e+00, -8.01509082e-01, -4.14647788e-01, -5.73459506e-01,  2.80735552e-01,  2.00016752e-01,  1.64676845e-01,  5.76929390e-01,
     1.16961852e-01,  1.27255365e-01,  6.91652775e-01, -1.43392062e+00,  1.10216570e+00,  2.12739944e-01, -8.97803307e-01, -9.80977654e-01,
     1.73349530e-02, -8.67460072e-01, -7.85372376e-01,  7.14541525e-02, -2.52648026e-01, -4.90474373e-01,  1.62852705e+00, -8.34224045e-01,
     3.94486457e-01, -1.90112817e+00, -1.45113200e-01, -8.26446414e-02, -4.01475757e-01, -2.19584078e-01, -1.12035799e+00,  2.21070468e-01,
     2.64155030e-01, -6.86157227e-01,  2.33344398e-02,  2.56142467e-01, -1.15447176e+00, -3.85704488e-01, -7.09388614e-01, -1.63240993e+00},
   { 2.07734168e-01,  1.06953585e+00,  3.86566997e-01, -1.08453000e+00, -7.77679563e-01, -3.96537751e-01,  2.65430748e-01,  2.35470891e-01,
    -9.00026560e-01, -4.39895749e-01, -2.52395898e-01, -2.45137364e-01, -9.17706862e-02, -5.50115108e-01,  2.89396942e-02, -1.28757104e-01,
    -1.18145339e-01,  3.54722708e-01, -3.04464161e-01, -6.42248869e-01, -5.66261113e-01,  5.34462810e-01, -8.86649489e-02, -2.07429662e-01,
     2.17515931e-01, -8.58428702e-02, -8.48344341e-02,  1.48408040e-01, -1.30609214e-01, -3.38509411e-01, -9.39165592e-01, -3.42644334e-01,
    -1.77305326e-01,  1.50068209e-01,  1.76484487e-03,  5.91483593e-01, -1.22909397e-01,  1.10367268e-01, -1.14215064e+00,  1.59905925e-01,
    -1.74793348e-01,  5.79606235e-01, -9.45774436e-01, -7.19748676e-01, -8.67005408e-01, -1.20391703e+00,  1.75785765e-01, -2.11726472e-01,
    -5.45108438e-01,  6.46145463e-01, -3.79543304e-01, -3.46638530e-01,  1.92824706e-01, -3.77871871e-01, -6.37541056e-01,  4.08314198e-01,
     6.07075263e-03, -2.49250725e-01,  1.52600124e-01,  1.08969301e-01,  6.03445232e-01,  5.39581656e-01,  3.80278766e-01,  2.19263956e-01},
   { 1.17132747e+00, -2.02784643e-01,  2.23080730e+00, -2.71404624e-01,  2.03974557e+00, -6.94547474e-01, -7.84798920e-01,  3.88674706e-01,
     4.88860041e-01, -5.55352390e-01,  2.01955095e-01,  3.63637120e-01,  9.05897439e-01,  6.56519771e-01, -6.10648513e-01,  7.89442211e-02,
     9.06783700e-01,  1.64636776e-01,  6.77906156e-01, -2.32166961e-01,  2.91877031e-01,  1.20280170e+00, -1.04721296e+00,  1.43697989e+00,
    -8.63787532e-02, -9.20989811e-01,  8.02579880e-01, -9.48929973e-03, -2.18240678e-01, -1.07984006e+00, -7.12381527e-02,  1.47278559e+00,
     1.51764965e+00, -1.09140182e+00, -2.91127563e-01, -1.73542464e+00, -6.94666147e-01,  5.66380382e-01,  1.13097295e-01, -5.36351085e-01,
     1.39811993e+00,  2.62698030e+00,  8.45467508e-01, -1.09114432e+00,  8.26048493e-01,  4.72433478e-01, -4.86999661e-01,  3.51867348e-01,
     5.39330482e-01, -2.78357416e-01, -5.88367403e-01,  1.71966851e-01, -1.35516453e+00, -5.35359263e-01,  3.53189409e-01,  2.94754267e-01,
    -3.32783937e-01, -8.85458171e-01, -1.51641142e+00,  4.09680873e-01, -7.23702252e-01,  9.12398934e-01,  2.67120339e-02, -2.49598131e-01},
   { 1.49949715e-01,  4.96039391e-01, -7.16314435e-01,  8.61944020e-01, -8.94634247e-01,  1.79640949e-01,  4.33406174e-01, -4.41911399e-01,
    -1.75942872e-02,  3.22003454e-01,  8.90617132e-01, -5.16544759e-01, -1.43503711e-01, -2.07539767e-01,  9.58618939e-01, -3.12356979e-01,
    -7.85342872e-01,  5.31085193e-01,  8.63954127e-02,  7.73817301e-01, -3.32468003e-01, -4.10861075e-01,  7.12086260e-01, -5.15805304e-01,
     2.08400995e-01,  5.12036979e-01, -7.21465468e-01,  4.59635049e-01,  6.66469634e-02,  1.67092308e-01,  3.80370021e-01, -4.65811014e-01,
     3.96895111e-01,  7.20303178e-01,  2.60050327e-01,  9.35582668e-02,  9.34427753e-02, -4.18708831e-01, -2.33066440e-01,  2.55893581e-02,
    -4.03842896e-01, -8.26161265e-01, -2.49317497e-01,  8.86287034e-01, -3.54040831e-01,  5.08809328e-01,  2.84651786e-01,  7.04697520e-02,
    -2.32052013e-01, -3.91909242e-01, -4.76740241e-01,  1.26316369e-01,  3.09620500e-01,  4.21157151e-01,  3.44419032e-01,  3.30599695e-01,
     1.44176736e-01,  7.39892364e-01,  8.96452248e-01, -6.78621054e-01, -3.28881107e-02, -6.35802805e-01,  2.75053799e-01,  6.25091851e-01},
};

const float RNN1_U[32][32] = {
   { 4.41078568e+00,  5.50903603e-02, -2.09134889e+00, -6.08968973e-01, -1.22774529e+00,  7.27493405e-01, -9.27260444e-02,  1.37063146e+00,
    -1.05659735e+00, -1.39023316e+00,  1.37885642e+00, -1.90531397e+00,  2.43660927e+00,  7.19534755e-01, -2.26805568e+00, -1.20546031e+00,
     4.34631395e+00, -4.22889024e-01, -7.14614153e-01,  1.50240457e+00,  3.04699516e+00,  1.41706455e+00,  2.31144333e+00, -3.32660615e-01,
    -1.32811630e+00, -5.13195813e-01,  3.33954275e-01,  1.31954825e+00,  2.63798982e-01, -1.13826478e+00,  1.21646118e+00,  1.08527565e+00},
   { 7.49698460e-01,  6.40073597e-01, -3.71813267e-01,  2.08410159e-01, -1.32850692e-01,  1.27689525e-01, -2.80904388e+00,  1.61798477e+00,
    -2.00716686e+00, -2.61793995e+00,  1.69877052e+00, -8.83031189e-01,  1.08466017e+00, -7.98529685e-01, -1.13608742e+00, -2.45643234e+00,
     1.80787539e+00,  6.18395567e-01, -3.31127477e+00, -5.20032942e-01, -9.09973562e-01,  9.34498549e-01, -1.35130227e+00, -1.56306219e+00,
    -2.33437490e+00, -4.79712903e-01,  2.37027097e+00,  7.82739639e-01, -1.05219662e+00, -5.76653123e-01,  3.01844215e+00, -1.92197609e+00},
   {-2.53663683e+00,  9.30154920e-02, -2.62386966e+00, -1.53856826e+00,  1.48254931e-01,  2.76955694e-01, -4.83204484e-01, -2.48141408e+00,
     2.03029609e+00,  1.54476595e+00, -2.67406750e+00,  3.44701439e-01, -1.25961900e+00,  5.96221983e-01, -5.85467160e-01,  1.00748086e+00,
     3.95659171e-02,  1.38761556e+00,  1.72160554e+00, -9.71145391e-01, -9.61338520e-01, -3.49646235e+00, -1.15197785e-01,  1.77789330e+00,
    -3.64263475e-01, -8.57998729e-01, -2.61329800e-01, -2.20495963e+00, -2.15300155e+00, -5.41582584e-01,  1.16851680e-01, -2.07823706e+00},
   { 3.81366611e-01,  1.86659122e+00, -8.80993009e-01,  2.84141470e-02, -4.67949331e-01,  2.77983284e+00,  9.92016256e-01,  1.76987791e+00,
    -1.63124621e+00, -1.58307362e+00,  2.36194015e+00,  1.49352050e+00,  7.26508498e-01, -1.28784168e+00,  2.27763009e+00, -3.87649179e+00,
     3.40962470e-01,  1.60541403e+00, -4.26171732e+00,  3.27120304e-01,  6.36918187e-01, -2.66928524e-01,  2.56724745e-01, -1.60882497e+00,
     2.78860003e-01,  4.37710971e-01,  2.68323302e-01,  7.11610079e-01, -1.19371582e-02,  6.51551902e-01,  1.71720088e+00,  2.66316444e-01},
   { 2.17463923e+00,  5.65581381e-01,  2.13658020e-01, -7.92424202e-01, -8.08912337e-01, -5.81977591e-02, -2.14030886e+00,  2.16650534e+00,
     1.18410617e-01,  6.28251255e-01,  7.35245407e-01, -5.48587322e-01,  4.10043418e-01, -2.13567328e+00, -1.31090569e+00,  1.27632976e+00,
     5.67633510e-01, -2.15613294e+00, -2.82699257e-01, -3.38213056e-01,  9.49391603e-01, -2.51477927e-01,  2.55242515e+00, -1.04080784e+00,
     1.03286505e+00,  2.28626776e+00, -9.16498125e-01,  1.10216534e+00,  9.79836047e-01, -1.12645757e+00, -1.39503360e+00, -1.60494757e+00},
   { 5.07898033e-01, -8.92981142e-02, -4.95826483e-01,  1.23968637e+00, -5.39273381e-01, -5.01664829e+00,  4.65333223e-01,  1.06385732e+00,
     1.80966651e+00, -2.14424133e+00,  2.18363333e+00, -1.70469984e-01,  2.13901377e+00,  7.23899364e-01,  4.22643796e-02, -2.19740772e+00,
     1.50505733e+00,  9.49327648e-01, -3.12746239e+00,  1.03548253e+00,  9.37523723e-01,  1.73024833e+00,  1.72815776e+00, -2.44288635e+00,
     6.54470205e-01, -2.01345518e-01,  2.62095809e-01, -7.36321211e-01,  1.91156650e+00, -6.81616902e-01,  6.37816489e-01,  1.47182059e+00},
   {-1.60121882e+00,  1.36552346e+00,  1.88727713e+00, -5.46249211e-01,  3.87355757e+00,  2.17729568e+00, -3.45857263e+00, -2.26449347e+00,
     2.23427415e+00,  1.46137631e+00, -6.52868748e-01,  2.00986886e+00, -5.88451803e-01, -2.88859680e-02,  1.74439490e+00, -2.71961957e-01,
     1.03989439e-02,  2.85023361e-01, -2.31665754e+00, -1.69860005e+00, -3.28868866e-01, -9.21324730e-01, -3.84190440e-01, -2.01768160e+00,
     8.19240570e-01, -7.68360436e-01,  3.17388028e-01, -1.01309752e+00, -4.12453651e-01,  8.98840010e-01,  1.23910820e+00,  1.67910039e+00},
   { 1.51511371e-01,  2.16571093e+00, -2.89643455e+00,  7.25968719e-01, -2.66952467e+00,  8.32402408e-01, -9.12482321e-01,  1.93634856e+00,
    -5.89580595e-01, -3.76306713e-01,  7.36864626e-01, -2.95623690e-01,  7.94331133e-01,  8.75887692e-01, -1.75192249e+00, -7.87495375e-01,
     3.10321379e+00,  6.47153795e-01, -9.45223510e-01, -2.18698049e+00,  8.42790306e-01, -6.58460379e-01,  4.86432642e-01,  1.34278667e+00,
    -3.83615589e+00, -2.40053463e+00, -2.94589605e-02,  6.99233830e-01, -1.32888591e+00, -1.73584056e+00,  1.89394653e-01, -6.24630153e-01},
   { 1.26020476e-01,  6.94849849e-01,  2.79483843e+00, -2.62620759e+00,  1.70724595e+00,  1.67831647e+00,  1.79768041e-01, -1.70197153e+00,
     1.30249810e+00,  1.10503316e+00, -8.65054190e-01,  1.46751785e+00, -6.91142738e-01, -8.60294402e-01, -1.29213440e+00, -3.36936146e-01,
     6.71058893e-01,  9.63161051e-01, -1.10089314e+00, -4.12453204e-01, -4.59834374e-02, -1.83650172e+00, -6.94592968e-02,  1.24469090e+00,
     1.54562747e+00, -2.64011860e+00, -1.74734846e-01, -1.05234122e+00, -1.05933821e+00, -2.32286915e-01,  1.80742359e+00, -3.76153111e-01},
   { 9.13408458e-01,  2.08791542e+00, -4.39526588e-01,  1.44528925e-01,  9.90230620e-01,  1.73017442e+00,  2.08866024e+00, -2.51415465e-03,
     2.18238521e+00,  2.32679796e+00, -8.49013567e-01,  2.55401641e-01, -1.72157323e+00,  1.05937517e+00, -8.04607570e-03, -5.88338196e-01,
     2.55765229e-01, -2.12440419e+00,  5.58733940e-01, -1.97332656e+00, -4.81468529e-01, -2.06359792e+00, -1.88206017e+00,  1.39131081e+00,
    -1.27869987e+00, -2.28465605e+00, -3.27047586e+00, -8.68171990e-01, -2.27304173e+00,  5.85132182e-01, -1.99345946e+00,  1.29306149e+00},
   { 1.47423089e-01, -2.46189880e+00, -2.88504481e+00, -1.72989690e+00,  1.35406446e+00, -6.72365665e-01,  2.15344325e-01, -1.80595148e+00,
     1.10043503e-01, -1.48951244e+00, -2.35638946e-01, -1.28993547e+00, -1.46730340e+00,  1.32217705e+00,  2.18739796e+00,  2.35378051e+00,
     7.01992631e-01,  2.08200485e-01,  2.82599479e-01, -8.76479685e-01,  9.21864688e-01,  1.77320409e+00, -3.06344128e+00, -1.64709640e+00,
     5.91400743e-01, -2.46918723e-01, -1.19467322e-02, -2.68054485e-01,  4.24746573e-01,  3.68246698e+00, -1.62851286e+00, -3.87521058e-01},
   {-1.30823597e-01,  1.95049298e+00, -1.02112234e+00,  2.48095393e+00, -1.16367257e+00, -5.48927307e-01, -1.51975350e-02,  2.94487762e+00,
     4.21312183e-01, -3.07392687e-01,  2.57920456e+00, -1.40423882e+00,  5.22772610e-01, -1.04984617e+00,  5.48028834e-02, -2.39175940e+00,
    -7.88491070e-02, -1.00796378e+00, -3.69256449e+00,  4.91791219e-01,  5.96892595e-01,  2.26230755e-01,  2.02289939e+00, -1.48824763e+00,
    -5.28410077e-01,  9.81304348e-01, -9.49114621e-01, -4.49134447e-02,  1.58311081e+00, -2.28285193e+00, -2.60248095e-01,  1.49849141e+00},
   {-4.81966645e-01, -2.63797784e+00, -5.83836436e-01, -1.97444046e+00,  1.59272170e+00, -6.15614414e-01,  2.13560611e-01, -2.67138767e+00,
     6.63083851e-01, -3.37556744e+00,  9.28469002e-02, -6.89403057e-01, -4.56350774e-01,  7.73238063e-01,  2.18020368e+00,  1.60011303e+00,
     6.88713491e-01,  5.31327486e+00, -1.93296447e-01,  1.54864657e+00,  8.01565111e-01,  9.39661190e-02, -5.09587646e-01, -1.20600712e+00,
     1.73763740e+00, -4.99730200e-01,  5.29413879e-01, -3.77152562e-01, -1.06239641e+00,  2.56165433e+00,  1.54507384e-01, -1.52734682e-01},
   {-2.25049138e-01, -1.42094719e+00,  7.77993381e-01, -3.87474328e-01, -9.22172189e-01,  4.99610990e-01,  3.23378175e-01, -1.21375489e+00,
     1.67683259e-01,  1.21200252e+00, -1.98700273e+00,  1.31011903e+00, -2.99881291e+00,  2.83280444e+00,  1.63496092e-01,  1.63806736e+00,
    -4.42145579e-02, -1.65925169e+00,  1.38019407e+00, -1.54607344e+00,  1.13448751e+00, -1.70067990e+00, -2.53987718e+00,  1.58212554e+00,
     2.81533480e-01, -1.85022581e+00, -1.96156573e+00, -3.25891447e+00,  8.65798771e-01,  3.38611186e-01, -1.58111429e+00, -4.55152065e-01},
   {-3.34028721e+00,  2.31015301e+00,  1.64894509e+00,  1.95446420e+00,  3.64918530e-01,  8.86655807e-01, -1.34049344e+00,  1.19803882e+00,
    -7.09692061e-01,  4.98834662e-02,  2.04436445e+00,  8.66587996e-01, -6.84393048e-01, -1.03260636e+00,  1.69060659e+00, -4.11833644e-01,
    -4.03945237e-01, -1.69722903e+00, -6.54307067e-01, -1.29856122e+00,  1.30120802e+00, -1.99484479e+00,  4.27606523e-01, -1.67626357e+00,
     1.87913454e+00,  1.55502892e+00,  1.82180122e-01, -5.67532122e-01, -2.14299083e+00, -2.47194171e+00,  1.11601985e+00,  4.69004363e-01},
   {-1.64287865e+00, -4.37485784e-01, -2.40221739e-01,  1.21467817e+00, -2.16692138e+00, -2.56805015e+00, -2.11224842e+00,  1.22800338e+00,
    -1.70585084e+00, -4.90187258e-01,  1.81356594e-01, -2.68108559e+00,  1.60626137e+00,  1.96953356e+00,  6.94926605e-02,  3.01207900e-01,
    -2.27648282e+00, -1.97166586e+00,  1.00923562e+00, -8.80461037e-01, -1.13523006e+00,  1.76493764e-01,  1.21093392e+00,  2.85475087e+00,
    -3.45486689e+00, -2.17434436e-01,  2.19314766e+00,  1.48888612e+00, -8.19058597e-01, -2.16907358e+00,  3.50590587e-01, -1.94067800e+00},
   { 2.57780045e-01, -9.31357861e-01,  5.69820069e-02, -3.53107738e+00,  3.66615772e+00, -4.40562010e-01,  1.78095317e+00, -1.94068408e+00,
     1.98402536e+00, -1.96598783e-01, -1.71182609e+00,  4.16875154e-01, -2.28320670e+00,  6.98906839e-01,  1.95202768e+00, -1.42987119e-02,
    -1.10627532e+00,  1.38122737e-02, -1.63094974e+00,  6.17064893e-01,  5.26986301e-01,  1.11800417e-01, -2.53623581e+00, -1.14054930e+00,
     1.68546152e+00, -1.23060083e+00, -5.78218639e-01, -5.58618605e-01, -1.59165895e+00,  2.67733717e+00,  6.72991395e-01,  1.70216513e+00},
   {-5.64770222e-01, -1.08974612e+00,  1.07327580e+00, -2.59491563e+00,  1.90190637e+00,  3.90166253e-01, -1.60744035e+00, -2.02607560e+00,
     3.36857408e-01, -3.25721264e+00, -6.59279883e-01,  7.32106566e-01,  1.03110087e+00,  5.38913310e-01,  2.34941065e-01, -1.02384698e+00,
     4.02925402e-01,  1.44263291e+00, -1.71562183e+00,  3.36642671e+00,  6.25268877e-01,  5.06890677e-02,  3.77008617e-01, -2.28063256e-01,
     1.25628400e+00, -1.20490742e+00,  2.69905138e+00, -4.64310706e-01, -5.79317987e-01, -1.30838260e-01,  3.33414602e+00, -1.01632714e+00},
   {-7.64358163e-01,  6.66647702e-02, -6.85430095e-02,  7.71989703e-01, -9.36890125e-01, -1.78914428e-01, -1.15851820e+00, -6.95696056e-01,
    -1.26092994e+00,  4.19115067e-01, -1.03151476e+00, -1.08219311e-01,  2.11376739e+00, -4.69042301e-01,  3.53790492e-01, -1.40846741e+00,
    -7.44224250e-01, -6.34630203e-01,  2.28117988e-01, -1.56061780e+00,  9.72225666e-01,  1.91842771e+00,  1.98529229e-01,  3.93744135e+00,
     2.47842073e-01, -2.89007616e+00, -8.26608419e-01,  2.85540074e-01, -1.86085284e+00,  5.64349353e-01,  2.22449636e+00, -2.60875559e+00},
   {-2.20906064e-01, -2.02921033e-01,  3.34916997e+00, -1.72451079e+00, -8.09394658e-01, -8.05399060e-01, -1.15159023e+00,  1.55733466e+00,
     1.59061670e+00,  1.93421936e+00, -7.98735619e-01,  1.31710505e+00, -5.49962461e-01,  2.78572464e+00, -9.79985476e-01,  1.90396309e-01,
     6.34233594e-01, -6.38526320e-01, -7.70928621e-01, -8.71659741e-02,  1.17685163e+00, -1.96053231e+00,  1.10509348e+00, -1.32680905e+00,
    -7.91573226e-01, -2.83673167e+00, -2.66667366e+00, -2.22517347e+00,  2.73077679e+00, -2.38667345e+00, -1.45434988e+00,  5.72741151e-01},
   {-4.40270931e-01,  2.21908021e+00,  1.11401355e+00,  2.27722478e+00, -7.26279259e-01,  3.29252869e-01, -6.55600131e-01, -3.39418083e-01,
    -1.80023360e+00,  2.01159879e-03,  7.69310474e-01,  3.15825367e+00,  1.83300987e-01, -7.69231796e-01,  5.83754241e-01, -2.03522277e+00,
    -6.97564065e-01, -1.22852778e+00, -3.98229361e+00, -7.43694425e-01,  7.99439073e-01, -5.70161998e-01, -1.08671653e+00, -2.66533375e+00,
    -5.70618808e-01, -6.89713776e-01, -1.10533392e+00, -1.93964839e+00, -1.67336071e+00, -1.60166860e+00,  2.24102259e+00, -1.10928631e+00},
   { 1.37349498e+00,  1.55165339e+00,  7.43858457e-01,  1.13119245e+00, -6.11186683e-01,  5.70327759e-01,  1.51124942e+00,  2.10444641e+00,
    -2.15471244e+00,  3.03719550e-01,  2.55383897e+00,  1.09664768e-01,  3.22969604e+00, -2.32454610e+00, -1.90975213e+00, -2.20333171e+00,
    -5.52173615e-01, -6.44581556e-01, -1.62473941e+00, -2.20101550e-01, -1.39755630e+00, -2.34384567e-01,  5.89506745e-01, -8.07309210e-01,
     1.65189409e+00,  4.71111029e-01,  4.53411520e-01,  4.07142401e+00, -8.92600894e-01, -1.74941862e+00,  1.25268102e+00,  3.18391919e-01},
   { 6.52022958e-01, -7.50853300e-01, -7.31738448e-01,  1.08377016e+00, -9.22091529e-02, -3.05704057e-01,  1.24034548e+00,  4.01075125e-01,
     1.38103247e+00, -4.19018030e+00,  5.87851226e-01,  1.23075485e+00,  1.47742069e+00,  2.44131461e-01,  6.91399276e-01, -1.37537301e+00,
     1.27301228e+00,  2.69235992e+00, -3.66416955e+00,  1.24132526e+00,  1.85446203e+00,  1.38911808e+00, -4.23349142e+00, -2.54134321e+00,
    -9.44043577e-01, -1.41289875e-01,  1.67505765e+00, -1.48374689e+00,  3.01471669e-02,  3.66404772e-01,  1.47195899e+00,  1.47722638e+00},
   {-2.65168548e-01,  3.71808410e-01, -3.67264175e+00, -7.51000047e-01,  3.74091677e-02,  2.08446169e+00,  1.30056351e-01, -1.80174184e+00,
    -6.73894305e-03,  2.35761881e-01, -3.04475635e-01, -3.54759879e-02,  9.38524425e-01, -8.55527103e-01,  4.20113713e-01, -2.18782163e+00,
     2.17234015e-01,  8.24662805e-01,  1.32563755e-01,  5.12462378e-01,  1.34800866e-01, -1.74591839e-02, -1.34067625e-01,  8.68820548e-01,
     2.39989853e+00, -4.82091963e-01, -7.14795351e-01,  7.55504891e-02,  5.06045759e-01,  7.40461767e-01,  1.82298851e+00, -1.37893891e+00},
   {-1.75115645e+00, -6.12855732e-01, -1.09418428e+00,  7.06906021e-01,  2.46292448e+00,  7.47648954e-01,  1.92394531e+00, -2.92317891e+00,
     4.15022707e+00, -1.17098403e+00,  2.63326347e-01, -3.86736035e-01,  5.64043880e-01,  2.79906020e-02,  2.78134346e+00, -2.07364678e+00,
     6.83128655e-01,  1.00172892e-01, -4.00860786e-01, -2.57023007e-01, -1.14290677e-01,  2.50057787e-01, -6.48719132e-01, -2.47642183e+00,
    -1.03997946e+00,  2.09162092e+00,  1.41792095e+00, -4.30040397e-02, -4.77158636e-01,  1.70238566e+00, -1.85850590e-01,  1.46025848e+00},
   {-4.21274036e-01, -7.49735311e-02, -1.20831621e+00,  1.54150307e+00, -1.83914077e+00, -1.33631623e+00, -1.40988708e+00,  2.83463454e+00,
    -2.85509586e+00, -1.30450457e-01,  1.60564399e+00, -6.87761486e-01,  1.41537833e+00, -1.40618873e+00, -6.13233209e-01, -5.99718213e-01,
    -1.46811938e+00, -1.19726527e+00, -1.27041310e-01, -8.71067792e-02,  1.18487477e+00, -2.53516972e-01,  4.45627600e-01, -1.93605971e+00,
    -3.21327782e+00, -2.10544801e+00,  5.83802521e-01,  2.52213120e+00,  6.91022456e-01, -2.86155868e+00, -7.64527917e-01, -1.33983636e+00},
   {-1.82213426e-01, -5.79958022e-01,  9.16162953e-02,  3.74940008e-01, -5.98213732e-01, -1.25803208e+00, -2.46569610e+00, -1.00293145e-01,
    -2.49723935e+00,  5.58794916e-01,  9.17356431e-01,  3.63108337e-01,  2.15867782e+00, -7.95442104e-01, -5.28513432e-01, -6.55557871e-01,
     2.93056220e-01, -7.03302443e-01, -9.77733135e-01, -3.77162528e+00, -1.26433027e+00,  1.69567204e+00,  1.87287614e-01,  2.20386481e+00,
    -1.76547265e+00, -2.56650358e-01, -1.49004030e+00,  4.67469311e+00, -1.66766393e+00, -5.04778624e-01,  1.85267949e+00, -2.61635160e+00},
   {-1.23191699e-01,  1.63723379e-01, -8.86732221e-01, -1.07950306e+00,  2.09087670e-01, -7.30596423e-01, -1.39168811e+00, -7.20255017e-01,
    -2.84828806e+00,  2.95439094e-01,  1.71399987e+00, -1.08189273e+00,  1.48180640e+00,  1.20001018e+00, -5.01314580e-01, -1.05502355e+00,
     2.23710680e+00,  1.14604688e+00,  6.76541626e-01, -3.18102026e+00, -4.18772012e-01,  1.94744909e+00, -3.36847603e-01,  3.13073248e-01,
    -1.97270417e+00, -8.21090639e-02,  1.96393418e+00,  3.30950928e+00, -1.21548188e+00,  8.80084574e-01,  8.99637580e-01, -1.00192165e+00},
   { 2.02323461e+00, -6.70059919e-01, -7.64786899e-01,  5.44350803e-01, -2.43263149e+00,  2.71976858e-01,  1.02697305e-01,  5.18083692e-01,
    -2.54637909e+00, -1.11660612e+00,  9.69678760e-01,  4.49828692e-02, -3.26827168e-01,  3.16444087e+00, -2.05003548e+00, -6.34208918e-01,
     1.81551263e-01, -1.07970285e+00, -1.68636417e+00,  1.70340717e-01,  6.34261727e-01,  1.91128349e+00,  9.97451603e-01, -3.47303778e-01,
    -8.73475909e-01, -1.66680801e+00, -9.94349778e-01, -6.83068454e-01,  4.26956320e+00, -9.28430438e-01, -6.53113425e-01, -1.60762966e+00},
   { 7.36779273e-01, -6.33433402e-01,  2.54697514e+00, -1.61125398e+00,  3.58346319e+00,  1.37564898e+00, -3.11520040e-01, -2.25744939e+00,
     2.88099813e+00,  1.58227026e+00, -2.33094621e+00,  1.69511354e+00, -2.90209085e-01, -6.19318843e-01,  2.17605382e-01, -5.53374112e-01,
     2.02994451e-01,  7.05071807e-01, -1.98113883e+00,  5.57677746e-01, -9.23303843e-01, -1.83167970e+00,  6.21040165e-01, -1.25436461e+00,
     3.81751001e-01, -3.26166451e-01, -5.91103494e-01, -1.87672034e-01, -8.74980271e-01, -1.59818947e+00,  6.12444341e-01,  5.87052226e-01},
   { 1.12442803e+00, -1.04040039e+00, -3.21816254e+00, -3.62811804e-01,  1.13782156e+00, -1.68248975e+00, -2.54532194e+00,  7.00543895e-02,
    -1.71316636e+00,  2.90635258e-01,  2.15750790e+00,  1.52753338e-01,  1.68746209e+00,  1.42313409e+00, -6.05305731e-01, -2.72244308e-02,
    -2.98207104e-01, -8.02540958e-01, -8.84285450e-01, -4.22550857e-01, -1.70573866e+00,  8.74438286e-01, -5.52618563e-01, -2.93785185e-01,
     9.90628719e-01,  4.83812764e-03, -3.38910270e+00,  1.12302065e+00, -2.20744625e-01, -1.30534339e+00, -7.91797936e-01,  2.46271282e-01},
   {-1.46991253e+00,  1.03156793e+00, -3.42431605e-01,  3.69962543e-01,  2.74713254e+00, -1.54392362e+00, -5.55547550e-02,  1.06139243e+00,
     2.34667110e+00,  2.02402204e-01,  5.20639181e-01,  4.06889588e-01,  2.99656361e-01, -2.21552625e-01,  2.39939213e+00, -6.87792420e-01,
    -1.17793024e+00,  1.52477098e+00, -1.15930986e+00, -1.27396882e+00, -1.83764505e+00,  4.55693722e-01, -1.45146465e+00, -9.27053750e-01,
    -2.20726156e+00, -1.45177889e+00,  1.79177678e+00,  7.82653093e-01, -4.10073042e+00,  2.51698159e-02,  1.51106536e+00,  1.61100614e+00},
};

// clang-format on


#endif // __FASTRNN_RNN1_PARAMS__

