#ifndef __FASTGRNN_FC_PARAMS__
#define __FASTGRNN_FC_PARAMS__

#define FC_IN_DIM (32)
#define FC_OUT_DIM (6)

// clang-format off

const float FC_W[6][32] = {
   { 4.31606658e-02, -1.08135003e-03,  3.78389448e-01,  3.33841145e-01, -8.36440802e-01,  7.09545553e-01, -4.22931582e-01,  6.22839451e-01,
     1.81310102e-01,  1.01379204e+00,  1.41197830e-01,  7.18838096e-01, -1.11549556e+00,  5.74657023e-01,  2.70281136e-01, -1.80072084e-01,
    -8.11988175e-01,  4.96901274e-02,  6.57121956e-01,  2.45196387e-01, -4.50151592e-01,  1.71933949e+00,  3.08186620e-01,  5.99908233e-01,
     6.54613078e-02, -4.46736187e-01, -1.96002409e-01, -8.64304602e-02,  1.11119986e+00, -7.77931750e-01,  1.68354586e-01,  3.50275964e-01},
   { 7.96284914e-01, -2.36791819e-02,  1.99086535e+00, -1.46003819e+00,  1.03111684e+00, -7.83992290e-01,  1.75705636e+00,  7.52619922e-01,
     6.95191741e-01, -1.07417643e+00,  7.05318078e-02, -1.65335190e+00,  1.93713319e+00, -1.42854595e+00, -2.14591742e+00, -1.31943333e+00,
     2.46550202e+00, -1.80442646e-01, -1.23316634e+00, -1.01074338e+00,  1.01809490e+00, -3.48714042e+00, -1.27400815e+00, -3.74632388e-01,
     8.37907791e-01, -1.23465598e+00, -2.42487979e+00, -7.39865229e-02,  1.73759305e+00,  1.44066930e+00, -9.21467483e-01,  1.02100873e+00},
   {-3.99414897e-01,  3.94896001e-01,  1.54831719e+00, -7.38367260e-01,  1.02072418e+00, -1.47677147e+00, -2.33044887e+00,  1.49758673e+00,
     5.12061715e-01, -7.88277090e-02, -2.20890380e-02,  1.13638151e+00,  2.45406413e+00,  8.61241281e-01, -2.93607306e+00, -1.31284356e+00,
    -1.30719757e+00, -1.04641058e-01, -2.14785896e-02, -1.62725639e+00,  9.69748616e-01, -2.84991145e+00, -1.93442535e+00, -5.18004119e-01,
     3.93213391e-01, -9.60259497e-01,  7.13710129e-01,  1.01402068e+00, -1.12741351e+00, -1.36553693e+00, -1.02197313e+00, -3.17143440e-01},
   {-1.55723882e+00,  8.18813313e-03, -2.74900126e+00,  9.99120712e-01,  8.43041420e-01, -1.56318367e+00,  8.91725898e-01, -6.04566455e-01,
    -8.24466228e-01, -1.16595638e+00, -1.84408799e-01, -1.71283376e+00,  1.32180059e+00,  9.58036304e-01, -1.22590590e+00,  8.29919517e-01,
     1.69828856e+00, -2.26364240e-01, -1.31251788e+00,  7.72005081e-01, -7.78899014e-01,  1.29882801e+00, -3.38819265e+00,  1.33430552e+00,
    -6.42771959e-01,  1.86527812e+00, -3.48143172e+00, -4.23682839e-01, -9.66141820e-01,  8.05925667e-01, -1.12660336e+00, -1.34781086e+00},
   { 7.65011370e-01, -7.27858663e-01,  1.84743810e+00,  7.40877688e-01, -1.04515827e+00, -9.96440291e-01,  2.12067768e-01, -1.69221640e+00,
    -2.32951924e-01, -1.27917910e+00,  4.79075797e-02, -2.13642335e+00, -1.95395160e+00, -2.04671574e+00,  2.61095405e-01,  5.64484358e-01,
    -1.26606095e+00, -1.37863681e-02,  1.37445414e+00,  6.23880446e-01, -6.24775827e-01,  6.86227977e-01,  2.16729593e+00, -1.46248758e+00,
    -4.46544498e-01,  2.72690701e+00,  1.49169672e+00, -2.62724429e-01, -1.15384698e+00,  9.10446048e-01,  9.68447983e-01, -3.32347631e-01},
   {-1.08253181e+00, -6.52772665e-01, -2.36666965e+00, -8.58854711e-01,  8.49641085e-01,  1.54456913e+00,  8.34546015e-02, -1.73436129e+00,
    -5.18640757e-01,  9.97297227e-01, -2.96665967e-01,  3.28470230e-01,  7.65836120e-01, -1.55272496e+00,  1.83495545e+00,  2.01229334e+00,
     1.75561929e+00, -9.64347348e-02, -7.88093388e-01, -1.00051928e+00,  1.29061139e+00,  2.33728218e+00, -1.81403899e+00, -1.91187549e+00,
    -1.21202826e+00, -1.28363550e-01,  1.37706864e+00, -4.76056308e-01, -1.24066579e+00,  1.34737957e+00,  4.99498338e-01, -8.76610518e-01},
};

const float FC_B[6] = 
   { 1.74521971e+00, -1.08089018e+00, -1.43820226e+00, -1.04183227e-01, -1.38554466e+00, -7.50487089e-01};

// clang-format on


#endif // __FASTGRNN_FC_PARAMS__

