#ifndef __FASTGRNN_GRNN1_PARAMS__
#define __FASTGRNN_GRNN1_PARAMS__

#define GRNN1_HIDD_DIM0 (64)
#define GRNN1_HIDD_DIM1 (32)

// clang-format off

const float GRNN1_ZETA = (6.647981e-01);
const float GRNN1_NU = (-1.245992e+01);

const float GRNN1_BIAS_UPDATE[32] = 
   { 1.07455502e+01,  9.24744225e+00,  1.47309828e+00,  1.32642031e+00,  5.56203365e-01,  1.08749352e+01,  1.90905511e+00,  4.03564364e-01,
     9.80492973e+00,  9.70279217e+00,  2.94167566e+00,  1.00342779e+01,  1.40628076e+00,  1.08556976e+01,  1.15362377e+01,  1.20362234e+00,
     9.11334634e-01,  9.03472364e-01, -3.48051429e-01,  8.98362160e+00,  1.08259881e+00,  2.27201986e+00,  1.24910393e+01,  1.15837536e+01,
     8.09352589e+00,  9.03459489e-01,  1.00699263e+01,  5.93705118e-01,  2.23952919e-01,  1.43798661e+00,  8.58622265e+00,  1.00248842e+01};

const float GRNN1_BIAS_GATE[32] = 
   { 2.94733715e+00,  2.14218950e+00,  3.48876786e+00,  2.01464891e+00, -1.03562307e+00,  3.60210323e+00,  3.38567805e+00,  6.84322238e-01,
     1.38429296e+00,  3.69989300e+00,  1.58999264e+00,  3.98464823e+00,  3.01783705e+00,  4.11082315e+00,  3.06894922e+00,  1.97403479e+00,
     2.57611370e+00, -2.64493561e+00,  5.38638532e-01,  3.12721586e+00, -1.10803378e+00,  4.01322651e+00,  4.29494715e+00,  3.94551539e+00,
     2.33514214e+00,  2.12982106e+00,  3.67480826e+00, -2.43264222e+00,  9.44355428e-01,  2.57523775e+00,  2.65768147e+00,  2.91210961e+00};

const float GRNN1_W[32][64] = {
   { 4.60067838e-01,  1.91576883e-01, -1.85196817e-01,  6.66297793e-01, -3.40986401e-01,  7.85985947e-01,  1.06576693e+00, -6.48881078e-01,
    -9.09567118e-01,  1.91826618e+00,  9.66992736e-01, -5.59743285e-01,  3.62382233e-01,  8.66434753e-01, -1.41138577e+00, -2.37722382e-01,
    -1.08349466e+00,  7.89600968e-01,  1.53678679e+00,  1.90817147e-01, -2.06889534e+00, -1.73955417e+00,  3.39542508e+00, -3.20737273e-01,
    -6.72992170e-01,  5.86113691e-01, -1.83472061e+00, -5.37418962e-01,  6.09923840e-01,  4.60383028e-01, -8.12750340e-01, -1.16299045e+00,
     5.13695180e-01,  9.17653263e-01, -3.93534154e-01,  4.89895850e-01,  1.31794477e+00,  1.78656316e+00, -1.66485655e+00,  2.66922712e+00,
    -2.75626510e-01,  6.99309647e-01,  1.47454846e+00, -3.80805761e-01,  6.03320301e-01, -1.87286451e-01,  1.20136988e+00, -1.01591337e+00,
    -5.87316036e-01, -4.14593190e-01,  3.52232665e-01,  1.40408123e+00,  4.47142154e-01,  8.86001229e-01, -3.14027101e-01,  1.63497782e+00,
     2.95633465e-01,  1.65455151e+00,  1.86243474e-01, -1.03706515e+00, -1.43030927e-01,  5.82835197e-01,  1.08204401e+00, -2.44719815e-02},
   {-4.72220071e-02, -2.46690989e+00,  1.11730587e+00, -3.82369757e-01, -2.57034510e-01,  1.32192385e+00, -6.24176800e-01, -3.55991334e-01,
     1.38655901e+00, -3.00787115e+00, -2.49673173e-01, -2.54497617e-01, -7.24842489e-01,  5.91874003e-01, -1.78356981e+00, -2.03308725e+00,
     1.08507156e+00,  4.84502673e-01,  2.44071409e-01,  7.67357275e-02, -6.63563967e-01,  2.17007399e+00, -3.29241014e+00,  1.12393451e+00,
    -1.80647039e+00,  2.31987691e+00, -3.71509232e-02, -4.25279438e-01, -2.54442692e+00,  1.11377966e+00,  2.09704089e+00,  1.85384959e-01,
     3.09676647e-01, -2.07819128e+00, -1.93424262e-02, -3.86138290e-01, -2.23874116e+00,  1.30971920e+00, -9.67160285e-01, -9.88005579e-01,
     5.22295594e-01,  9.09209251e-01, -4.18445736e-01, -2.56548375e-01,  7.56904304e-01,  3.21115702e-01, -9.77053940e-01,  1.24145307e-01,
     2.13535517e-01, -1.53481448e+00,  1.15678382e+00,  9.38299835e-01,  1.48679829e+00, -7.36738980e-01,  1.16742447e-01,  1.29168317e-01,
     1.78519651e-01, -2.58689582e-01, -1.72760439e+00, -5.14318287e-01,  7.88369119e-01,  8.77730548e-01,  7.22097158e-01,  1.63532153e-01},
   { 5.01260936e-01,  9.08064544e-01, -3.27733099e-01, -1.12581956e+00,  4.69729044e-02, -7.63674080e-01, -3.76586974e-01, -4.32003587e-01,
     1.35830685e-01,  6.49873555e-01, -9.35736075e-02, -4.01561826e-01, -7.72030931e-03, -7.55047798e-01,  3.23335558e-01, -8.68720829e-01,
     6.24326110e-01,  7.34807134e-01, -1.08073540e-01,  8.31053138e-01, -5.00835143e-02, -1.53822803e+00,  1.71840680e+00,  4.41030473e-01,
    -2.65374839e-01,  1.05985068e-01, -2.51715451e-01,  6.06270552e-01,  2.09380180e-01, -4.02899355e-01, -8.55646372e-01, -1.12323630e+00,
     3.58646303e-01, -8.01174879e-01, -4.29787263e-02, -4.87257510e-01, -4.55793113e-01, -5.76568127e-01, -1.65091783e-01,  2.48052076e-01,
     1.56040460e-01, -6.31711602e-01, -1.86397031e-01, -5.28622642e-02, -4.18730140e-01, -4.74209607e-01, -8.04968059e-01, -5.28928638e-01,
     2.43377864e-01, -2.05762014e-01, -1.97792694e-01,  8.49298760e-02,  3.67120534e-01, -7.81132400e-01, -1.28821027e+00,  3.38997394e-01,
     9.19810176e-01, -1.18915164e+00,  6.00052059e-01,  2.12319210e-01,  1.89012304e-01,  4.09985095e-01, -4.31748889e-02,  1.23899627e+00},
   {-4.43441242e-01, -3.74430746e-01, -5.16439795e-01, -3.76773387e-01,  7.87903786e-01, -6.43617570e-01,  2.94413000e-01, -1.08003132e-01,
    -2.27500486e+00,  7.28383005e-01,  1.90124676e-01,  7.89355114e-02,  6.14754915e-01, -5.86786926e-01,  1.58360466e-01, -1.94135711e-01,
    -7.49987662e-01, -1.85284480e-01, -6.28314376e-01, -2.25535020e-01, -7.56444260e-02,  1.78640079e+00,  1.06221505e-01,  3.25952530e-01,
    -2.26550743e-01, -4.21888798e-01, -2.94797197e-02, -1.12929666e+00,  4.91887964e-02, -1.20664597e+00, -1.23543823e+00,  1.81310809e+00,
    -1.91341177e-01,  4.39057708e-01, -2.18863770e-01, -9.36418027e-02,  9.97440279e-01, -3.57109964e-01,  3.01367581e-01, -4.88689691e-01,
    -3.04486811e-01, -5.48263669e-01, -1.68024480e-01,  6.21190310e-01, -1.00228000e+00,  1.30843747e+00,  1.11695898e+00,  1.31389904e+00,
     5.08960634e-02, -1.66626006e-01,  7.64312029e-01, -5.71225703e-01, -6.02337599e-01, -2.25681439e-01, -3.70076269e-01, -2.79357851e-01,
    -6.63752034e-02,  4.21750695e-02, -5.05391777e-01, -2.82351434e-01, -3.18310976e-01,  2.84863651e-01, -2.31914148e-01, -1.14914440e-01},
   { 1.60752743e-01, -4.26230729e-02, -1.38087720e-02, -2.80003339e-01,  1.82863042e-01,  2.76528478e-01, -4.65619937e-02,  3.03310931e-01,
     5.74280262e-01,  4.12188731e-02, -6.46408200e-02, -4.89460155e-02, -3.96476984e-01, -1.09795339e-01,  2.14522615e-01, -9.60875526e-02,
     3.75176221e-01, -8.42897072e-02,  3.49357799e-02, -7.58930892e-02,  3.46997380e-02, -2.79362828e-01, -4.58692998e-01,  1.17554359e-01,
     1.45285830e-01,  6.35468781e-01,  5.30904941e-02,  1.14471093e-02, -3.05785686e-01, -2.18573794e-01, -1.13618627e-01,  2.98802704e-02,
    -6.95361733e-01, -6.19711757e-01, -4.05686907e-02,  4.17322516e-02, -4.31041390e-01, -2.83251733e-01, -1.42853390e-02, -3.63004059e-01,
     5.12760758e-01,  1.32755235e-01, -1.63054600e-01,  1.12515800e-01,  1.42101750e-01,  1.46011353e-01, -4.53869343e-01,  3.28055054e-01,
     1.71415284e-01,  6.43638447e-02,  4.68858540e-01,  1.63247779e-01, -5.30110061e-01, -1.41865954e-01,  3.38682830e-01, -1.72973722e-02,
    -1.30161205e-02, -6.06904030e-01, -1.46410897e-01, -9.39358324e-02,  2.95132756e-01,  8.39041054e-01, -5.12513876e-01, -2.48767927e-01},
   {-6.99614465e-01, -2.39402080e+00,  7.29745328e-02, -3.97917509e-01,  2.67601228e+00, -8.51561606e-01,  1.17441189e+00, -3.92704219e-01,
    -9.93264794e-01,  9.92868721e-01,  4.25084531e-01,  1.80441365e-01,  6.44929409e-01,  3.58065426e-01, -9.56397653e-02, -3.56918156e-01,
     3.77120562e-02,  4.00360674e-01, -1.45449746e+00,  4.12242651e-01, -1.44711912e+00,  1.34631503e+00,  1.47085643e+00, -8.46063554e-01,
    -4.61286902e-01,  2.32343817e+00, -2.97111452e-01, -1.85597277e+00, -3.28848273e-01, -2.50850058e+00, -8.72415006e-01,  2.26905656e+00,
    -1.23027229e+00,  1.25935626e+00,  2.47015357e-01,  3.05735409e-01,  3.30821723e-01, -9.05975401e-01,  3.97414476e-01, -9.53237861e-02,
    -1.04547763e+00, -3.08056232e-02,  7.23938167e-01,  5.56821108e-01, -7.69036233e-01,  1.64047968e+00,  1.73544550e+00,  2.86841893e+00,
    -7.76841581e-01, -1.01700962e-01,  1.22702539e+00, -1.10358667e+00, -1.37266532e-01, -7.76091814e-01, -7.73799717e-02, -4.46463376e-01,
     3.28101963e-01, -1.82226121e+00, -1.80776846e+00, -4.31021690e+00, -2.65638053e-01,  3.22863460e+00, -1.05284142e+00,  2.01644301e+00},
   { 4.20684487e-01, -2.01477006e-01, -6.07051075e-01, -1.57070696e-01,  3.80234063e-01, -2.32901827e-01, -5.50128400e-01,  2.27097437e-01,
    -1.63311553e+00, -1.65379584e+00,  4.34348553e-01,  5.41949630e-01, -1.13299645e-01, -2.55968153e-01,  2.62122512e-01, -1.99484766e-01,
    -5.06416857e-01,  8.32353532e-03,  2.82081813e-01,  3.67083028e-02, -6.44815803e-01, -2.01218799e-01, -3.16748357e+00, -3.79234374e-01,
    -4.31694359e-01,  9.72521245e-01,  5.86951077e-01,  2.83019632e-01, -5.99595964e-01, -8.12260509e-01,  1.44227669e-01, -6.85783446e-01,
    -9.56998467e-02,  1.48255408e+00,  2.70275652e-01,  3.08777004e-01,  3.05606425e-01, -4.45870996e-01, -5.91515541e-01,  1.78916305e-01,
     2.81455904e-01,  3.22071433e-01,  6.98693991e-01,  7.51785219e-01,  2.55100489e-01,  1.77017009e+00, -9.53222275e-01,  2.76011705e-01,
    -5.60139306e-02, -2.77976990e-01,  1.04959023e+00,  6.08658135e-01,  1.37602365e+00, -4.09628488e-02,  2.08649859e-01,  6.56392157e-01,
    -6.96979510e-03,  2.40125269e-01, -7.42219269e-01,  1.09917355e+00,  3.48445386e-01,  3.05776685e-01,  5.25405526e-01,  8.43472719e-01},
   {-2.50893414e-01, -5.04758835e-01,  5.02246737e-01,  1.11908160e-01, -8.38476717e-02,  3.99418212e-02, -4.63951647e-01,  3.80782932e-02,
     1.80978477e-02, -7.68491700e-02,  6.43981770e-02,  1.69503093e-01,  6.40763521e-01, -9.18297842e-02,  1.14262782e-01, -7.60076940e-01,
     6.62766099e-01, -7.55421892e-02, -4.84584868e-01,  1.12487286e-01, -6.62393689e-01, -6.74019814e-01,  1.31994867e+00, -1.24717779e-01,
    -3.39723766e-01, -6.75190240e-02, -5.32607913e-01,  1.23666310e+00,  5.02328515e-01,  4.42889005e-01, -3.09675813e-01, -4.58729148e-01,
    -1.92560360e-01,  5.66899002e-01,  2.10180312e-01,  2.06047699e-01, -2.55454421e-01, -2.93646343e-02, -8.02040517e-01, -5.73144257e-01,
    -6.58138752e-01,  2.62596935e-01,  6.02581240e-02, -2.96664804e-01,  2.81657308e-01, -1.05829418e-01, -4.01011586e-01,  1.06252301e+00,
    -6.40302777e-01, -4.92951721e-02, -9.66399074e-01, -8.26203525e-01, -9.71307218e-01,  1.68351874e-01,  4.62239832e-01, -9.49719489e-01,
    -3.39046478e-01, -3.81220102e-01, -3.77478957e-01, -1.74882397e-01,  5.42660952e-01, -2.93978482e-01,  2.35836938e-01, -4.92453068e-01},
   {-8.93254519e-01, -7.23121047e-01, -1.29848883e-01,  8.51560175e-01,  6.82302475e-01, -1.29454788e-02,  1.12921856e-01,  6.88960016e-01,
     2.43353033e+00, -9.32896316e-01, -1.28950477e+00,  1.65173101e+00, -6.03016853e-01,  5.08579850e-01, -4.57366437e-01, -2.46583056e+00,
    -5.40903747e-01,  8.80418837e-01,  1.80920887e+00,  2.13550597e-01, -1.07874012e+00, -1.20025301e+00,  6.74399316e-01,  1.46212816e-01,
    -3.08865339e-01,  2.92015642e-01,  4.87534195e-01,  1.54141772e+00, -1.50584686e+00, -1.95832217e+00,  2.41307855e+00, -5.26893675e-01,
     3.72599661e-01, -8.05746555e-01,  1.81532532e-01,  2.74185866e-01, -9.48792398e-01,  5.22853494e-01, -2.59828067e+00,  4.64530736e-01,
     2.73796535e+00, -4.33046043e-01, -8.08633208e-01,  1.39561343e+00,  4.47004378e-01,  1.49770528e-01, -2.32054219e-01, -6.53682351e-02,
    -8.08873549e-02, -9.84516501e-01,  1.79788426e-01,  4.91813302e-01, -7.27458060e-01, -6.18433595e-01,  1.21760378e-02,  2.24479175e+00,
     6.30263150e-01,  4.21914309e-01, -3.18401873e-01, -8.78755569e-01, -3.94411772e-01,  4.22356796e+00, -4.23293591e-01,  1.91624939e-01},
   {-1.20636597e-01, -5.27234137e-01,  1.17465115e+00, -1.78510204e-01,  9.81460810e-02,  8.82719517e-01,  6.38280287e-02, -6.55834854e-01,
    -1.86545029e-01, -9.56319630e-01,  1.40180600e+00,  2.07413363e+00, -1.02709389e+00,  4.33086185e-03, -1.82113266e+00, -1.13853264e+00,
     3.54179382e-01,  5.27030945e-01, -1.97935000e-01,  4.29880649e-01, -2.36538124e+00,  6.37345076e-01, -3.29307270e+00, -2.50272465e+00,
    -2.13261056e+00,  1.35942578e+00, -3.11277300e-01, -1.05518746e+00, -4.54938374e-02,  2.76897866e-02,  1.85798442e+00,  7.42786348e-01,
     1.55260578e-01, -1.63654447e+00,  4.97458011e-01,  1.17449808e+00, -4.79842722e-01, -1.93835720e-01, -1.39386368e+00,  9.11923707e-01,
    -1.11638820e+00,  2.10904911e-01,  1.27510965e+00,  1.05340266e+00,  8.79552722e-01, -1.85185984e-01,  4.44409996e-01, -2.17501614e-02,
    -1.47667825e+00, -1.72611201e+00,  1.89902529e-01,  3.15171897e-01,  3.32288206e-01,  7.38667920e-02, -2.60140866e-01,  1.18620716e-01,
     4.66278434e-01,  4.62222457e-01, -1.36792386e+00, -2.85511255e-01, -1.18722260e-01,  8.40539262e-02, -1.69843286e-01, -1.55951369e+00},
   {-6.44895658e-02,  3.22684914e-01, -2.57220238e-01, -8.01146701e-02,  4.88490850e-01, -3.67045134e-01, -1.02148727e-02, -3.98022383e-01,
    -2.00649858e+00,  8.12811792e-01, -9.48170722e-02, -1.85180426e-01, -1.59405458e+00,  6.94645286e-01,  4.32254553e-01,  3.58713478e-01,
    -3.50847244e-01,  9.86331701e-01, -2.50448763e-01,  1.85208768e-01,  3.72846514e-01, -2.43257686e-01,  4.84656662e-01,  9.09635305e-01,
     4.35372889e-01, -1.86704665e-01,  1.88924655e-01, -1.03540041e-01, -2.63461083e-01, -3.57361734e-01, -8.25375319e-01,  3.41665238e-01,
    -2.98535321e-02,  1.07443184e-01,  6.18833184e-01, -1.58916235e-01, -1.93725097e+00, -2.64422089e-01,  1.55457214e-01,  7.51154497e-02,
     1.13947833e+00, -5.55462301e-01,  2.80586690e-01,  1.03045928e+00,  1.45417511e-01, -3.57917905e-01,  1.54091790e-01, -5.78994930e-01,
     1.11830026e-01,  2.33967736e-01,  2.48430729e+00, -1.41904509e+00,  1.15049683e-01, -6.54611766e-01,  5.46865523e-01,  1.92017749e-01,
     1.56030977e+00, -1.15149117e+00, -2.65093267e-01,  5.68091273e-01, -4.50366467e-01, -7.70077705e-01, -1.27717066e+00,  8.30896080e-01},
   { 4.34384286e-01, -1.21612310e+00,  6.32006288e-01,  1.39153466e-01,  6.81883454e-01, -8.37441146e-01, -3.19923818e-01, -2.60268040e-02,
     6.42971575e-01, -9.59507346e-01, -7.87826598e-01,  1.00337529e+00, -1.09523654e+00, -1.46086916e-01,  3.33495647e-01, -2.73029730e-02,
     2.68408269e-01,  1.06687915e+00, -1.08141947e+00,  9.74372447e-01, -7.53461838e-01, -4.89187837e-01,  4.87131715e-01, -1.45213127e+00,
    -2.32350484e-01,  3.06048083e+00, -1.60792410e+00, -1.35208738e+00,  9.28551495e-01,  3.51672500e-01,  1.03679121e+00,  2.80393094e-01,
    -1.84110904e+00,  2.49323630e+00,  1.04153800e+00,  7.57562578e-01, -1.56369257e+00, -2.16634244e-01,  6.16646409e-01,  2.15678230e-01,
    -3.47866178e-01, -9.73295391e-01,  2.00964481e-01,  1.65859416e-01, -1.12094665e+00, -3.67156655e-01, -3.99006814e-01,  8.03927183e-01,
    -1.65925846e-01,  4.38408554e-01,  3.14865708e-01, -1.48762333e+00,  4.21338856e-01,  8.43720660e-02, -9.51064467e-01,  5.43249547e-01,
     8.78641248e-01, -1.05616534e+00, -2.12292984e-01, -8.50260854e-01,  4.29292321e-01,  5.24499178e-01, -1.30837679e+00,  6.62455380e-01},
   {-5.52985072e-01, -1.38561082e+00, -2.11075291e-01,  3.63051385e-01,  7.71830082e-02, -1.64629385e-01, -3.96456093e-01,  5.81596017e-01,
     8.82149577e-01, -3.86198908e-02,  5.52852690e-01,  3.69694158e-02, -1.26739919e-01, -1.25796586e-01, -3.69986117e-01,  5.30375421e-01,
    -4.25999671e-01,  2.97587603e-01,  2.00410888e-01,  6.56999946e-02, -6.15758002e-01, -2.80316949e-01, -2.44852334e-01, -1.04042542e+00,
     2.44182348e-01,  4.89469230e-01,  2.98711270e-01,  9.00679231e-01, -5.13836503e-01,  1.25878423e-01,  6.80847108e-01,  3.15374732e-01,
    -2.99105704e-01, -4.62056071e-01, -9.33796447e-03, -3.53534102e-01, -1.79480344e-01, -5.50673664e-01, -3.96028996e-01,  1.04409195e-01,
    -3.51751834e-01, -3.24786276e-01, -1.18250847e-01, -2.03716770e-01, -2.40210101e-01, -5.06384909e-01, -2.45601740e-02,  7.47975171e-01,
    -3.33355159e-01,  2.64526635e-01, -3.70836854e-01, -1.30917832e-01,  1.64575070e-01,  7.18326569e-02,  5.52061021e-01, -1.68991864e-01,
     2.54254073e-01, -1.18168898e-01, -6.03241146e-01, -1.19610238e+00,  3.37088346e-01,  1.56401551e+00, -3.70924413e-01, -1.30815411e+00},
   { 2.86876202e-01, -1.01716375e+00, -1.12609613e+00,  4.60460186e-01,  6.92442477e-01, -5.96285701e-01,  1.34455299e+00,  1.02241600e+00,
    -5.42762637e-01, -2.59907722e-01,  1.17342448e+00,  7.25552559e-01, -2.90479690e-01, -5.07291913e-01, -1.32440436e+00, -3.87405306e-02,
    -1.29473805e+00,  6.66701317e-01,  1.74212468e+00,  8.79579782e-01, -1.11670005e+00,  3.93826574e-01,  1.01065731e+00, -2.66559529e+00,
     7.85718262e-02, -1.20495653e+00, -4.28222388e-01,  3.45554426e-02,  8.46176863e-01, -1.71582091e+00,  2.17289519e+00, -1.73979893e-01,
     2.03675717e-01, -4.64676976e-01,  5.18400848e-01, -3.44546705e-01,  8.42252314e-01, -9.69423056e-01, -3.14787298e-01, -8.04682598e-02,
    -1.08187652e+00, -1.24958825e+00,  4.93689358e-01,  1.83322191e-01,  6.13305941e-02,  2.43247688e-01,  8.77192736e-01, -2.22302580e+00,
    -2.87281066e-01, -9.31610584e-01,  8.07430983e-01,  1.08969975e+00,  4.62950081e-01, -4.13988918e-01, -9.62736785e-01, -1.20739937e-01,
     5.10217726e-01,  1.02975643e+00, -2.62350345e+00, -1.64023352e+00, -5.41715205e-01,  2.49775410e-01, -2.31695867e+00, -1.82224000e+00},
   { 1.04696608e+00, -8.86195183e-01,  9.44156826e-01,  7.31945932e-01,  2.18462512e-01,  8.77117217e-01,  1.75320163e-01, -4.80377197e-01,
     5.83644271e-01, -2.56779820e-01,  6.65329754e-01, -3.38075399e-01, -7.03891218e-02,  1.20356882e+00, -1.27228546e+00, -1.08556294e+00,
     1.42865348e+00,  1.16570389e+00, -1.21784949e+00,  9.43227291e-01, -8.42283785e-01,  6.29207492e-01,  3.88315511e+00, -1.10785866e+00,
    -1.02623105e+00,  9.99390900e-01, -1.40383208e+00,  8.55346620e-01,  1.14627874e+00,  6.64823279e-02, -1.32115424e+00,  7.05311298e-01,
    -1.67159006e-01, -3.55464607e-01,  3.52651440e-02,  1.17763126e+00, -4.49496180e-01,  1.47243285e+00, -1.91351771e-01, -6.29259467e-01,
    -3.66357148e-01,  9.86619294e-01,  9.56483841e-01, -3.60742390e-01,  3.53940167e-02, -1.78184453e-02,  1.53529382e+00, -2.50395805e-01,
    -8.46608400e-01, -1.76933661e-01,  1.02946907e-01,  2.58991766e+00,  9.71450686e-01,  9.76810634e-01,  4.51829553e-01, -9.91168022e-01,
     4.98540431e-01, -4.58275616e-01, -1.52156317e+00, -1.16430664e+00,  1.18171549e+00, -2.34677291e+00,  1.28097427e+00, -1.17220271e+00},
   {-5.10222733e-01,  6.97364092e-01,  1.83602303e-01, -1.07163517e-02,  3.26251686e-02,  1.30328387e-01, -2.05828696e-01, -4.00594100e-02,
    -1.13992608e+00, -5.59212327e-01,  2.50092477e-01,  6.37460127e-02,  2.81203836e-01,  2.31726915e-01, -4.27069634e-01, -1.07456076e+00,
    -8.69529665e-01,  1.28377691e-01,  2.29389407e-02,  3.58107060e-01, -1.09543002e+00,  4.01807606e-01, -3.85918736e-01, -3.19183260e-01,
    -1.02129734e+00, -7.98573345e-02,  4.10428673e-01,  9.27550256e-01, -5.58199108e-01, -2.28245676e-01, -6.11336768e-01, -1.08997390e-01,
     4.78721410e-01,  6.71702623e-01, -1.02317058e-01,  3.16771001e-01,  7.15979695e-01,  6.53201044e-01, -6.61548674e-01,  6.56542957e-01,
     1.91571045e+00,  1.31585032e-01,  2.17759371e-01, -9.54378396e-02,  3.55088323e-01, -3.48953038e-01, -7.36426353e-01, -6.16482981e-02,
    -1.07583237e+00, -8.57414484e-01, -1.50595725e-01, -2.46636063e-01, -5.30668855e-01,  5.85081615e-02,  1.66272536e-01,  1.12380959e-01,
     3.45927894e-01,  3.95009816e-01,  3.11346233e-01,  1.06423676e+00, -2.20989838e-01, -4.30092104e-02,  9.19702113e-01,  3.41821373e-01},
   {-2.40813583e-01, -7.61073887e-01, -1.69683248e-01,  9.38824892e-01,  2.67850190e-01, -1.32144392e-01, -1.58956856e-01,  3.40535253e-01,
    -1.23286329e-01,  1.21225886e-01,  1.69149548e-01,  1.33474743e+00,  2.11568370e-01, -2.36019284e-01,  1.17797576e-01,  7.07318366e-01,
    -3.85180354e-01, -5.66682965e-02,  4.72906530e-01, -3.66166532e-01, -8.03172946e-01,  2.75198799e-02, -9.32008386e-01, -7.03770757e-01,
     1.10051356e-01,  1.84038007e+00,  4.15629931e-02, -6.73950791e-01, -1.24414302e-01,  3.36175531e-01, -1.07950000e-02,  3.00165892e-01,
     1.63784146e-01,  4.41366255e-01, -6.94220364e-02,  6.85002089e-01, -2.85783485e-02,  3.13633978e-02,  1.68513969e-01,  4.55444247e-01,
    -1.22906256e+00, -2.27082431e-01, -3.47825676e-01,  1.45571530e+00,  3.41230869e-01,  1.12161839e+00,  2.09497437e-01,  2.08717182e-01,
     4.97100800e-01, -1.80605769e-01,  1.20001507e+00,  6.04060352e-01,  1.21115339e+00,  5.30792117e-01,  6.15394950e-01, -1.49220124e-01,
    -4.24943328e-01,  3.95896286e-01, -1.08885503e+00, -5.13757505e-02, -1.29427791e-01, -3.43665838e-01,  5.24711683e-02, -2.29985043e-01},
   { 3.71486768e-02,  5.41158557e-01, -7.45863244e-02, -6.28689706e-01, -5.74101388e-01, -3.63313138e-01,  4.45218980e-01, -7.63061285e-01,
    -1.13660884e+00,  2.14480668e-01,  3.71964276e-03, -2.18094021e-01, -3.08792830e-01, -2.21802145e-01,  9.47166800e-01,  1.20706356e+00,
     1.58400595e-01, -3.80630791e-01, -2.35517994e-01, -3.04040611e-01,  3.61379713e-01, -3.37704688e-01, -3.03048581e-01,  7.77006149e-01,
     8.14721763e-01, -1.07424676e+00, -1.52609840e-01,  1.13941953e-01,  1.37849319e+00, -5.90731762e-02, -5.36159754e-01,  3.94250035e-01,
    -4.93318319e-01,  2.19360605e-01,  2.18033092e-03,  3.62116307e-01, -4.49555725e-01,  2.22326458e-01,  5.00494421e-01, -5.02623618e-01,
     3.25262994e-01, -3.67933065e-01, -3.33410025e-01, -5.27679384e-01, -4.36607599e-02, -7.38024473e-01, -4.28933740e-01, -5.00913620e-01,
     5.97143114e-01,  1.16535294e+00, -1.58913925e-01, -6.90427244e-01, -1.95527807e-01, -1.26863194e+00, -5.05264103e-01,  7.12376595e-01,
    -3.21402252e-01, -4.45825458e-01, -7.11254105e-02, -6.16718046e-02, -2.53022969e-01, -2.12341785e-01,  1.08142905e-01, -3.97359431e-01},
   {-5.46537519e-01, -3.42753351e-01,  5.09387910e-01,  4.08170283e-01, -4.27996442e-02,  4.57316160e-01, -2.64916923e-02,  5.36617815e-01,
     4.04860109e-01,  5.21826982e-01,  2.21751526e-01, -2.69684762e-01, -1.13395125e-01, -8.62968564e-02, -1.91126674e-01, -2.49271348e-01,
     4.40662503e-02,  1.90642178e-01, -1.54106602e-01,  2.25875393e-01, -7.50499070e-01, -5.47611237e-01,  2.57516444e-01, -3.62222679e-02,
    -1.06436692e-01, -5.89178503e-01,  8.01545978e-01,  1.41516566e+00, -3.19969594e-01,  1.59861431e-01,  1.50779992e-01, -7.13558644e-02,
     2.86457986e-01,  9.66767013e-01, -1.96434170e-01,  7.20458329e-02,  3.12795420e-03,  6.89207435e-01, -3.39558005e-01,  2.74284184e-02,
     1.30311894e+00,  6.45878851e-01, -2.03649804e-01, -1.10950001e-01,  3.80990356e-01, -1.06101787e+00, -3.66874337e-01,  9.23624754e-01,
    -1.20849267e-01, -2.55439520e-01,  5.39023392e-02,  4.08915952e-02, -1.07214403e+00, -1.94744859e-02,  5.80997586e-01,  1.07241297e+00,
     3.19294244e-01, -3.91428411e-01,  3.03177327e-01,  8.45470205e-02,  5.59657253e-02,  1.23347998e+00,  5.01579702e-01,  1.10312963e+00},
   { 1.65435517e+00, -7.47750521e-01,  1.13392687e+00, -5.03183603e-01,  2.70555407e-01, -2.57345615e-03,  2.51368672e-01,  3.74595731e-01,
     1.94340253e+00,  1.79209423e+00,  1.56919348e+00, -3.80459167e-02,  5.89572042e-02, -1.14725873e-01, -3.11950166e-02, -1.63538241e+00,
     1.43625033e+00,  1.17233843e-01, -1.06070995e+00,  9.38809812e-01, -2.12890553e+00, -4.97135997e-01,  2.17234898e+00, -3.02540183e-01,
    -1.29048717e+00, -7.27205426e-02,  3.23236406e-01,  1.25293899e+00,  3.66753697e-01,  4.10370231e-01, -1.85342538e+00,  4.66134012e-01,
     1.76575497e-01,  1.30763721e+00, -4.83139962e-01,  4.74792540e-01,  3.15973312e-02, -7.92104185e-01, -5.34367144e-01, -1.08631527e+00,
    -1.26073349e+00,  9.02976871e-01,  1.56112230e+00, -7.52463520e-01, -2.20298484e-01, -7.60748625e-01,  1.68199217e+00,  1.83021891e+00,
    -9.11272287e-01,  3.64741385e-01, -1.52440226e+00, -1.71881664e+00, -1.04887795e+00, -1.14748783e-01,  7.41809905e-01, -6.74108148e-01,
     8.88726413e-01, -1.10074520e+00,  5.58073461e-01, -1.02342749e+00,  2.74446106e+00, -6.70463800e-01,  1.16591597e+00,  8.09560239e-01},
   {-3.73673439e-02,  4.54293340e-01, -2.41931845e-02, -1.89717159e-01, -1.29481658e-01,  1.99683174e-01, -1.78595167e-03, -1.26245156e-01,
    -1.62816370e+00, -3.06542486e-01,  7.80946687e-02, -4.73840982e-01,  2.39560455e-02,  7.71532506e-02,  2.23087162e-01,  7.23536909e-01,
     3.30631323e-02,  1.89343438e-01, -3.76972780e-02, -1.36261031e-01,  3.38220745e-02, -5.77486694e-01,  1.02430367e+00,  3.42005998e-01,
    -1.63810868e-02, -4.75837708e-01, -2.14429975e-01,  1.55518726e-01,  2.25509584e-01,  2.42558688e-01,  4.65527549e-02,  7.46772438e-02,
     1.81799680e-01,  5.64874709e-01,  1.38701603e-01,  1.30718231e-01,  1.59685493e-01,  2.08657607e-01,  1.59770295e-01,  3.53040397e-01,
    -4.70780462e-01,  2.38612726e-01,  4.17729840e-03, -5.41880727e-01,  2.50375867e-01,  1.14571698e-01,  1.62287980e-01,  1.53422564e-01,
     2.16179386e-01,  4.91564274e-01, -2.39902735e-01,  3.45792882e-02,  4.69198078e-01,  4.85299230e-01, -2.63902456e-01,  2.56338894e-01,
    -9.81758609e-02,  1.24566518e-02, -2.15421036e-01,  1.65677756e-01, -2.44305447e-01, -5.84552467e-01, -5.03888652e-02,  4.32038844e-01},
   { 7.53408194e-01,  2.20005572e-01, -1.63254544e-01, -5.27206302e-01, -4.17045325e-01, -4.57361639e-01,  7.63909072e-02, -4.67246264e-01,
    -1.23773432e+00,  5.58187783e-01, -4.98161882e-01, -3.87282413e-03,  1.04195166e+00,  2.43793175e-01,  2.76465893e-01, -5.97470939e-01,
     1.34098247e-01, -8.87679681e-02, -2.90187031e-01, -1.41467199e-01, -2.98501700e-01,  1.00187898e+00,  2.30401731e+00,  9.90144074e-01,
    -2.23651938e-02, -3.24874781e-02, -4.50046696e-02,  2.70751268e-01,  5.18809319e-01, -5.12004137e-01, -3.47963482e-01,  5.60086444e-02,
     6.81351721e-01, -1.85552286e-04, -2.20364809e-01,  1.28226787e-01,  3.33442599e-01, -2.75403202e-01,  2.82775789e-01, -2.73092896e-01,
    -3.16791177e-01, -4.69989449e-01,  5.07870130e-03, -3.21509957e-01, -1.58824414e-01,  1.34694719e+00,  1.03530443e+00, -1.45912208e-02,
     1.18547633e-01, -3.90859485e-01, -2.98852146e-01,  4.45872426e-01,  1.39004827e-01,  1.86994046e-01, -7.91279674e-01,  5.66986352e-02,
     6.19089715e-02,  3.19461286e-01, -9.52155530e-01, -3.49601299e-01, -7.33532803e-03,  1.51543587e-01,  1.31401986e-01,  1.42176402e+00},
   {-4.01141286e-01, -1.48101556e+00, -1.08821321e+00,  3.95418942e-01,  1.70701012e-01, -5.15554659e-02,  7.56178200e-02, -2.00823724e-01,
    -1.99335396e-01, -1.94277775e+00,  1.47628653e+00, -1.22833982e-01, -3.18498939e-01,  2.07836136e-01, -1.87492359e+00, -1.79293454e-01,
    -7.11887836e-01,  1.00053477e+00,  6.66800320e-01,  1.22388160e+00, -8.28164041e-01,  2.58391201e-01, -1.38479936e+00, -1.15903699e+00,
     5.84561937e-02, -1.27783811e+00,  1.31346548e+00, -1.03539670e+00, -7.50137627e-01,  5.01359582e-01, -5.70684254e-01,  3.82361293e-01,
    -2.90009618e+00,  1.28860474e-01, -1.29346713e-01,  7.07103312e-01, -2.85245466e+00, -6.20433629e-01, -2.97431260e-01, -1.02163982e+00,
    -2.28364587e-01,  2.32821763e-01,  4.93759543e-01,  1.37423921e+00, -1.43785203e+00, -9.51612949e-01,  5.28168321e-01, -2.77885497e-01,
    -8.08974504e-02, -6.12778664e-01, -4.05955970e-01,  1.27356124e+00,  2.80756021e+00, -8.56107295e-01, -1.01408288e-01, -3.88822377e-01,
     8.71269643e-01, -9.69709873e-01, -2.28217554e+00, -2.44908595e+00, -1.14683533e+00, -7.43962109e-01,  4.77620512e-01, -1.62557185e+00},
   {-1.06299430e-01, -1.25858173e-01,  1.38066781e+00, -6.30438566e-01, -5.47387302e-01,  1.33760047e+00,  2.95706779e-01,  1.14110649e+00,
    -2.48926616e+00,  1.89922047e+00,  6.94720864e-01,  3.22763383e-01,  3.56205136e-01,  6.99650645e-01,  5.96458077e-01, -8.41680050e-01,
     1.20507824e+00,  4.59820658e-01, -2.88670659e+00,  7.13436544e-01, -7.40214467e-01,  5.07778764e-01, -4.85120916e+00, -3.43804866e-01,
    -1.83586121e+00,  9.40471530e-01,  2.40709233e+00,  8.48180115e-01, -1.08411598e+00,  4.39921379e-01, -3.32428169e+00,  6.47232711e-01,
     3.26120019e-01,  1.83477211e+00,  4.81289864e-01,  5.99548161e-01, -1.00194943e+00,  6.31492198e-01, -6.47199035e-01,  2.50810862e-01,
    -1.00621712e+00,  1.22213864e+00,  2.18627527e-01,  3.41998726e-01,  7.50437915e-01, -7.02057704e-02, -8.90792906e-01,  2.55600381e+00,
    -2.33257562e-01, -4.58651781e-01,  1.47020161e-01, -6.41644478e+00, -4.72343594e-01, -6.89083040e-01,  1.82863176e-01,  7.79743016e-01,
     1.53286862e+00, -2.26990366e+00,  3.69882762e-01, -6.15953386e-01,  1.57113314e+00, -4.07946205e+00,  1.35025489e+00,  2.56466818e+00},
   {-6.11190259e-01,  5.83664298e-01, -5.12126237e-02, -3.12335908e-01, -5.48540771e-01, -4.01697516e-01,  2.25039050e-01,  4.13089275e-01,
    -8.74252737e-01, -2.47790933e+00, -2.84482121e-01, -4.34467606e-02,  5.28610289e-01,  8.70678067e-01,  1.58056751e-01, -1.98575711e+00,
    -1.74511898e+00,  3.47714722e-01,  1.98756382e-01,  9.25793588e-01, -8.26075435e-01,  1.45228195e+00, -7.46262908e-01, -1.45432818e+00,
    -3.07828379e+00, -7.74509966e-01,  5.30348308e-02,  6.86592340e-01, -2.00917676e-01, -2.67615318e-01,  1.42288375e+00, -3.00940156e-01,
     7.96513706e-02,  1.34175408e+00,  8.34403455e-01,  1.32425046e+00,  6.45307362e-01, -6.43534958e-01,  2.10574046e-02,  1.12071991e+00,
     1.41238058e+00, -8.45206559e-01,  7.73326576e-01, -3.11118454e-01,  4.04488057e-01, -4.71430004e-01, -3.58872712e-01, -2.40450591e-01,
    -2.42167330e+00, -2.22344851e+00,  1.21445954e-01,  5.39925575e-01, -1.29822254e-01,  1.26040161e+00, -2.27362931e-01,  4.89940763e-01,
     5.36610842e-01,  9.73457336e-01, -2.27036810e+00, -6.76173210e-01, -5.46550751e-01,  1.64954945e-01, -7.43936181e-01,  2.11337790e-01},
   { 3.42073198e-03,  2.04898864e-01, -3.02110553e-01, -4.12667572e-01, -5.80981433e-01, -3.13960642e-01,  6.09700568e-02,  2.49329284e-01,
    -4.46499228e-01,  6.92831516e-01, -6.59884870e-01,  4.65915769e-01,  2.18376175e-01, -1.25350440e+00,  4.96093214e-01,  2.39738896e-01,
     7.40680471e-02, -3.12941760e-01,  3.71229470e-01, -4.80975360e-01,  2.34910458e-01,  1.33929121e+00, -1.61447600e-01,  4.60876048e-01,
     7.91185945e-02,  1.34066653e+00, -6.22557163e-01,  9.86932516e-02,  7.95130908e-01, -9.40612197e-01, -3.60840783e-02,  1.16489935e+00,
     3.76819402e-01, -1.90840349e-01, -2.76494980e-01, -3.64672206e-02,  8.94973040e-01, -5.56182563e-01,  4.84384865e-01, -3.57328773e-01,
     2.12885141e-01, -4.37814355e-01, -1.25604883e-01, -3.19935173e-01,  3.15664977e-01,  5.69482505e-01, -2.93370318e-02,  1.02229631e+00,
     1.60196796e-01,  1.75130755e-01, -5.64004064e-01, -1.46659417e-02, -6.43641233e-01,  2.03655377e-01, -5.54516278e-02, -5.41863777e-02,
    -2.18308300e-01,  5.54641366e-01, -1.41693223e+00, -1.69233561e-01, -9.45950896e-02,  1.16761220e+00, -4.33368385e-01,  5.36392748e-01},
   {-3.78217518e-01, -1.78904521e+00,  5.30209422e-01,  2.78538793e-01,  7.40877688e-01, -1.74675673e-01, -5.15082628e-02,  8.68997097e-01,
     2.11824268e-01, -4.08689880e+00,  4.11549449e-01,  6.47118151e-01, -1.01232283e-01,  1.29591358e+00, -5.14777422e-01, -1.02922535e+00,
     7.01705739e-02,  2.33548164e-01, -5.85878313e-01,  2.22369313e+00, -3.65779936e-01, -1.76335916e-01, -2.08933949e+00, -1.21201381e-01,
    -1.28946435e+00, -4.56878662e-01,  1.13437808e+00,  1.00527167e+00,  2.26387516e-01,  8.22205067e-01,  1.86787680e-01, -9.57434848e-02,
    -1.87901235e+00, -6.45183027e-01,  8.11049759e-01,  1.82466432e-01, -5.29481649e+00, -3.71122837e-01, -2.93375134e-01, -4.24049526e-01,
    -6.55511096e-02,  7.81975448e-01,  4.23185170e-01,  1.04754055e+00, -2.08884859e+00,  1.96495086e-01,  4.68632996e-01, -7.29325294e-01,
    -1.40656567e+00,  4.73024398e-01,  1.05804682e+00, -1.98383212e+00,  2.12888622e+00, -8.23558960e-03,  1.49420887e-01,  2.64908910e-01,
     9.73288357e-01, -2.55155063e+00, -3.11766434e+00, -2.77507812e-01,  5.46462715e-01, -1.13896072e+00,  9.88972485e-01, -1.73388731e+00},
   { 2.97345012e-01,  3.65187824e-01, -1.70065850e-01,  2.63802141e-01, -2.12855414e-01,  2.97794342e-02, -3.31424564e-01,  6.52354658e-01,
    -2.03644961e-01, -6.12950027e-01,  4.66443077e-02, -3.21465522e-01, -7.54405916e-01, -1.13853529e-01,  3.94212455e-01,  3.06984723e-01,
     2.95317173e-01, -5.00460789e-02,  3.90306950e-01,  8.92617479e-02, -3.01773902e-02, -4.49434191e-01,  5.39663695e-02,  4.89478141e-01,
     4.59589958e-01, -4.57337320e-01,  2.42959589e-01,  1.33815065e-01,  5.03385425e-01,  3.18948835e-01, -7.99778402e-01, -1.02366447e+00,
    -8.83927941e-02, -5.28082132e-01,  1.15853190e-01, -3.70820165e-01, -9.33737993e-01, -2.05918923e-01,  1.59333736e-01, -2.77038038e-01,
     2.19469264e-01, -6.28324598e-02, -2.08089978e-01,  5.27709901e-01, -2.77656820e-02, -5.77199161e-01, -5.70995450e-01, -8.12378287e-01,
     2.64955223e-01,  3.71731460e-01,  2.22957462e-01,  4.32811528e-01,  5.20193696e-01, -5.45145571e-01, -2.43326798e-02,  1.66993976e-01,
    -2.62764633e-01,  3.00710171e-01,  2.91287899e-01,  8.20269529e-03, -6.99388385e-02, -3.63453656e-01, -6.65033579e-01,  4.01863456e-01},
   { 1.20283403e-01, -8.39618742e-02,  3.45013022e-01,  2.74083376e-01,  4.99113575e-02, -3.53936516e-02, -5.50612770e-02,  1.98179007e-01,
     1.86104476e-01, -1.51660216e+00, -4.34540689e-01, -6.46859467e-01,  1.03444457e-01, -1.18074574e-01, -1.06183268e-01, -4.35495168e-01,
    -1.22115547e-02, -7.03897178e-02,  1.27512813e-01,  1.85737610e-01, -8.38917792e-02, -1.55814961e-01, -5.10028183e-01,  1.40189618e-01,
    -2.96039850e-01, -1.37095892e+00, -3.28473300e-01,  4.23193365e-01, -1.67883113e-01, -1.74432978e-01,  1.74429560e+00, -3.66714537e-01,
     1.01962820e-01, -1.18737621e-02,  1.48292407e-01, -1.66452184e-01, -6.94276929e-01,  1.41829982e-01, -1.08659782e-01, -3.70907426e-01,
     5.73495924e-01, -6.20806396e-01, -3.75194073e-01, -1.14254498e+00, -3.58618349e-01,  1.32250056e-01,  1.29226759e-01,  1.88409120e-01,
    -2.08723366e-01, -1.23463541e-01, -5.01262248e-01,  2.27076411e-01,  2.16701880e-01,  8.51749957e-01,  1.79210566e-02,  5.39032161e-01,
     2.53874529e-02,  4.28512953e-02, -2.44406313e-01,  3.43367666e-01,  1.32714778e-01,  8.63144159e-01,  4.58010167e-01,  4.75152060e-02},
   { 1.19170678e+00,  2.49316975e-01, -1.57026812e-01,  7.15308547e-01, -3.85038465e-01,  2.10615650e-01,  3.22542906e-01,  1.08716238e+00,
     7.14488029e-01, -3.50589961e-01,  4.58442196e-02,  7.93536067e-01, -1.34522095e-01, -2.99559891e-01,  2.95465410e-01, -8.28629613e-01,
     8.42104405e-02,  6.47076443e-02,  1.14657283e+00, -2.31529370e-01, -9.26982582e-01, -1.12767553e+00,  2.58145034e-01, -6.89202785e-01,
     2.34614778e-02,  1.14591789e+00,  4.86848265e-01,  3.28218997e-01,  7.32075036e-01, -1.26772237e+00,  2.39233804e+00, -7.85298109e-01,
    -2.73460776e-01,  6.07743502e-01,  4.74430680e-01,  1.48027971e-01, -2.27963310e-02, -1.48763776e+00, -7.22138166e-01,  3.66311938e-01,
    -5.53446949e-01, -1.24286890e-01, -5.70651889e-01,  1.25832081e+00,  2.42585372e-02,  5.25967121e-01, -3.17244262e-01, -9.60595191e-01,
    -2.24154085e-01,  1.17958941e-01,  9.08983886e-01,  1.08995640e+00,  1.42937756e+00,  5.77549279e-01,  3.48890394e-01, -6.35040522e-01,
    -4.41615433e-01,  7.08794236e-01, -1.90337941e-01, -1.02180111e+00,  2.10863590e-01, -1.56664774e-01, -8.02483618e-01, -1.65670559e-01},
   {-1.15748811e+00,  7.33136833e-01, -1.10680199e+00,  5.00528634e-01,  1.08639181e+00,  1.96094364e-01,  1.33449042e+00, -6.10944152e-01,
    -5.14921665e+00, -1.16598368e-01,  5.51127255e-01,  6.07982427e-02, -1.65711671e-01,  6.39619753e-02, -1.77802563e+00, -9.86825764e-01,
    -7.19375312e-01,  4.56145823e-01,  1.02236044e+00,  1.85826287e-01, -1.49545097e+00,  1.80207431e+00,  7.21803188e-01, -1.44493222e+00,
    -2.72003865e+00,  5.50505936e-01, -1.51226059e-01, -2.80835748e+00, -2.23340943e-01, -1.19760156e-01,  1.15049534e-01,  1.40263975e+00,
     4.80273724e-01, -9.68813002e-02,  4.01624203e-01,  1.56632328e+00, -1.40407458e-01,  9.57259595e-01, -6.02514565e-01,  2.42221999e+00,
    -1.71292078e+00,  2.28592068e-01,  2.14942408e+00, -8.72505784e-01,  3.99147928e-01,  2.67286032e-01,  1.33307326e+00, -3.28526825e-01,
    -1.94853258e+00, -6.52899027e-01,  6.98256075e-01,  2.81519026e-01,  2.00992033e-01,  1.10887921e+00, -7.06539631e-01, -1.94122300e-01,
     1.57387450e-01,  4.32894588e-01, -3.18535662e+00,  2.21462965e-01, -8.76590550e-01,  9.21383917e-01,  3.75650823e-01, -5.32611847e-01},
   {-5.09391546e-01, -1.75984335e+00, -1.38782114e-01, -2.72525609e-01,  5.89004517e-01,  8.75799179e-01,  3.34216841e-02,  1.70092002e-01,
     2.15182471e+00,  5.11645913e-01, -6.73650205e-01,  1.39156854e+00,  2.16546804e-01, -2.04345193e-02,  2.33255088e-01, -1.95407236e+00,
    -1.60833335e+00,  1.57049417e+00,  5.34237385e-01, -3.32909852e-01, -1.12037706e+00, -5.84381878e-01,  1.60798991e+00,  2.09868103e-01,
     1.06890428e+00,  2.77228618e+00,  1.58943880e+00,  7.82893300e-01, -3.40164471e+00,  3.69797468e-01, -3.26349258e+00, -8.97385851e-02,
    -5.09789407e-01, -5.66860199e-01,  2.74953485e-01, -1.31880045e-01, -1.36323476e+00,  1.27074504e+00, -2.23468232e+00,  1.39919245e+00,
    -7.12178424e-02,  1.39336991e+00, -8.34384859e-01,  5.39868259e+00, -2.53536422e-02, -3.63269806e-01, -1.21597230e+00, -1.32216072e+00,
    -3.66962194e-01, -2.11839318e+00, -2.80696422e-01,  1.03940916e+00,  4.46611494e-01, -2.25766683e+00,  1.02512121e+00,  9.24314857e-01,
    -2.99905211e-01,  8.60441506e-01,  8.76540691e-02, -2.81945038e+00,  4.14384544e-01, -6.74455687e-02, -6.43739283e-01, -2.24250793e-01},
};

const float GRNN1_U[32][32] = {
   { 3.39937139e+00,  1.26154768e+00,  9.43200588e-01, -5.70545197e-01,  8.02204132e-01,  8.26122224e-01,  1.63212880e-01, -2.18634844e+00,
     8.03205967e-01, -1.06869173e+00,  4.73593533e-01, -6.57301366e-01, -1.19603586e+00,  2.78272295e+00, -1.73332012e+00, -1.10472226e+00,
     1.02181399e+00, -3.49792719e-01, -9.25094306e-01,  9.19095516e-01, -4.12395149e-01,  4.02584016e-01,  2.02038622e+00, -7.25610435e-01,
     7.56089985e-01, -1.37016475e+00, -1.01944245e-01,  1.36534059e+00, -1.01275897e+00,  1.33674860e+00,  1.19191098e+00, -1.30148542e+00},
   { 5.20042479e-01,  1.47775078e+00,  1.42260283e-01, -4.12769727e-02,  1.21229053e+00,  2.29493833e+00,  2.60873973e-01, -1.90825701e-01,
     1.02233505e+00,  1.30879521e+00,  1.22261979e-02, -1.74712980e+00, -1.40215719e+00,  2.45056415e+00,  4.98586267e-01, -1.63277721e+00,
    -8.53158474e-01, -5.26475012e-02, -5.69363534e-01,  7.52588630e-01, -6.39323950e-01,  6.76263571e-01,  1.93769500e-01, -3.28297663e+00,
     3.09851003e+00, -1.60428882e-01,  6.25793695e-01,  5.68052411e-01,  9.41408724e-02,  9.10007715e-01,  2.08305669e+00,  9.80207622e-02},
   { 2.01185465e+00,  2.51194954e-01, -2.07547396e-01, -1.18827753e-01, -1.78478554e-01, -1.35689092e+00, -3.09241831e-01,  1.57812381e+00,
     7.35900640e-01,  1.25017250e+00, -7.38018155e-01, -1.72197461e+00, -9.97481942e-01,  2.53078079e+00, -9.47738886e-01, -2.29893208e-01,
    -1.64481914e+00, -6.81929708e-01,  1.45731080e+00,  4.35903549e-01,  8.57119262e-02,  1.45780861e-01, -2.60222769e+00, -1.59710169e+00,
     1.12068558e+00,  9.40131843e-01,  4.06067997e-01, -1.52565688e-01,  3.39187950e-01,  5.84673285e-01, -6.25269115e-01,  1.83870211e-01},
   {-7.60360241e-01, -1.40433997e-01, -1.22777545e+00,  3.07649434e-01, -9.44961369e-01,  1.16632628e+00, -1.53509170e-01, -5.07617712e-01,
    -1.40212274e+00, -5.29025972e-01, -8.70294631e-01, -5.71148470e-02, -1.07008827e+00,  5.77833176e-01,  2.46942186e+00,  8.40384066e-01,
     5.90743959e-01, -5.13466597e-01, -5.26570857e-01,  1.32319403e+00,  2.28980362e-01,  4.09032249e+00, -6.56466126e-01, -6.65253222e-01,
     1.50353163e-01, -8.52802038e-01,  1.31059021e-01,  9.39327180e-02, -8.66642520e-02, -6.47075772e-01,  1.57611024e+00, -3.31214964e-01},
   { 4.72517796e-02, -2.24952251e-01, -1.71350741e+00, -2.64986128e-01, -6.05999529e-01, -2.60032147e-01, -8.78027081e-01, -1.06291741e-01,
     2.86264479e-01, -5.75161934e-01, -8.85795772e-01,  3.68459523e-01,  1.93197238e+00, -1.04039466e+00,  1.34514987e+00, -3.57336514e-02,
     5.72958171e-01, -2.90302604e-01, -9.47688043e-01, -1.12075281e+00,  1.93712056e-01, -2.95751786e+00, -8.48316610e-01,  1.43765318e+00,
     2.23296344e-01,  4.00966823e-01,  3.53632689e-01, -2.81445414e-01, -5.36347687e-01,  1.75252661e-01, -1.63866973e+00, -2.34299868e-01},
   {-1.10735476e+00, -2.23100394e-01, -9.72425640e-02,  8.69662523e-01, -3.76467884e-01,  2.43662882e+00, -1.71452332e+00, -2.09689641e+00,
     1.02313839e-01,  1.17100322e+00, -4.92908180e-01,  4.42432851e-01, -8.41549695e-01,  2.14920115e+00, -1.89246535e-01, -2.92332292e+00,
     9.27385509e-01, -9.84867588e-02, -2.01987839e+00,  5.63790083e-01,  1.92772731e-01, -9.95144784e-01,  2.01192856e+00,  9.68766659e-02,
     1.25617898e+00, -3.30031943e+00,  2.79364300e+00,  3.63358140e-01,  1.25191718e-01,  1.02213836e+00,  1.88337576e+00, -2.13090563e+00},
   {-1.04821242e-01, -1.14320159e+00,  1.83291352e+00,  8.49718079e-02,  5.16575396e-01,  2.30182827e-01, -1.08317614e+00, -3.35527301e-01,
    -1.56504703e+00, -4.58479702e-01,  3.62865984e-01,  3.82570148e-01, -7.57668912e-01,  1.80456042e+00,  2.65333819e+00,  4.74198282e-01,
    -1.55087793e+00, -4.86899942e-01,  1.46747661e+00,  1.04420066e+00,  4.66227233e-01,  1.78970069e-01,  1.86425164e-01,  7.33705938e-01,
    -9.11345363e-01, -8.79502296e-01,  1.32607043e+00,  2.36633778e-01,  1.83772814e+00, -1.09913182e+00, -2.30274513e-01,  1.49481463e+00},
   {-1.13553250e+00,  2.30183989e-01, -2.24483275e+00,  9.19592530e-02, -3.95214260e-01,  6.00494742e-01,  5.45791209e-01, -1.52147138e+00,
     1.31651819e-01,  1.18916631e+00,  4.30485636e-01,  2.34404850e+00,  6.59660399e-01, -5.86047351e-01,  1.31981090e-01,  1.89342529e-01,
     2.69237190e-01, -1.02917239e-01,  6.26530409e-01,  9.15600538e-01,  3.56635988e-01,  1.32257909e-01,  3.46273541e+00,  9.91860986e-01,
     1.04442871e+00,  1.03971279e+00,  1.73677671e+00,  1.86493635e-01, -1.51123452e+00, -2.64957827e-02,  1.37604937e-01,  6.81341052e-01},
   { 3.98906255e+00,  7.94812083e-01,  1.16024506e+00,  7.82688618e-01,  3.14766616e-01,  7.63851166e-01,  3.70849706e-02, -1.04204345e+00,
     2.25815296e+00, -1.36179638e+00,  9.35442328e-01, -1.03228338e-01, -1.56960642e+00,  2.01831627e+00,  1.52610242e-01, -4.93572623e-01,
     2.11052492e-01, -5.55087805e-01, -2.70204520e+00, -2.56562471e-01,  2.48573080e-01,  3.53410810e-01,  2.06266141e+00,  3.31849039e-01,
     1.57531857e+00, -3.34900349e-01, -3.63887906e-01,  5.93488157e-01,  9.97509509e-02,  1.20782185e+00, -1.08899426e+00, -8.79836977e-01},
   { 2.74554420e+00, -1.06385374e+00, -7.12091982e-01,  2.79335427e+00,  9.72464383e-02, -2.01586246e+00,  1.62849240e-02, -2.78624833e-01,
     1.96356642e+00,  1.62529182e+00, -2.06741977e+00,  5.41296244e-01,  1.95012164e+00, -1.59248650e-01, -1.43658328e+00,  4.16786817e-04,
     7.74432346e-02, -9.46224868e-01, -5.21548152e-01,  9.59812939e-01, -9.56192434e-01, -9.58793402e-01,  2.48421407e+00, -2.48993683e+00,
     1.97311258e+00,  1.46126914e+00,  4.41527939e+00, -1.96060109e+00, -7.90542126e-01,  2.70015168e+00,  9.21304941e-01, -1.93022239e+00},
   { 1.02661979e+00,  4.45914650e+00,  3.10311764e-01,  8.64117205e-01,  1.20305693e+00,  1.01716638e+00,  2.14813605e-01, -1.48428106e+00,
     1.24943864e+00,  3.88532907e-01,  3.72417259e+00, -8.57607603e-01,  1.20920873e+00,  1.61668554e-01,  4.89763832e+00,  1.25596002e-01,
     2.28076267e+00,  4.38565880e-01,  9.01233479e-02,  1.87276490e-02, -7.79140353e-01,  9.14917052e-01, -1.20817709e+00,  2.73748779e+00,
    -5.50887167e-01,  1.31897902e+00, -6.64990842e-01,  5.37170887e-01,  9.26785827e-01, -6.46412730e-01, -3.40506881e-02,  2.93547106e+00},
   { 1.66248143e+00, -1.19524574e+00, -2.09330082e+00,  1.09895504e+00,  1.80456841e+00, -1.14075351e+00,  3.95025563e+00, -9.62148070e-01,
     4.35317338e-01,  1.30747187e+00, -5.17061949e-01,  9.43176329e-01, -7.23560512e-01, -2.47371817e+00, -3.11297083e+00,  2.27784228e+00,
     3.08305550e+00, -3.82644892e-01, -9.57323685e-02, -5.42221427e-01,  3.17110419e-01, -2.00908351e+00,  4.53953123e+00,  5.60075164e-01,
     1.06620598e+00,  2.39992261e+00,  4.41364574e+00,  3.49585533e-01,  7.90425181e-01,  3.97134399e+00, -2.02335763e+00,  1.22495592e+00},
   {-9.23181474e-01, -3.29461783e-01,  1.35997415e+00,  5.88427305e-01,  3.72909188e-01, -1.20661274e-01, -4.62583065e-01,  1.09240329e+00,
     4.61161524e-01, -6.27006471e-01, -1.12938094e+00,  1.56247294e+00, -2.22697049e-01, -8.13428402e-01, -6.80714026e-02,  1.89045668e-01,
    -3.63242209e-01, -5.91757715e-01, -3.10242236e-01, -7.05068052e-01, -3.77033919e-01,  1.32102087e-01,  1.13593161e+00, -4.34668988e-01,
    -2.37027332e-02,  3.53608906e-01, -5.14512658e-01, -1.03176606e+00,  2.47274622e-01,  7.47553349e-01, -5.39255202e-01, -6.72780037e-01},
   { 2.87895846e+00, -1.88093269e+00,  2.31843233e+00,  8.37194741e-01,  1.89130828e-01, -6.75903022e-01,  3.59411240e+00,  8.22674036e-01,
     1.21591675e+00, -2.18332887e+00,  1.44715784e-02,  2.06777835e+00, -8.49698961e-01,  5.76843023e-01, -1.75835229e-02, -8.73828083e-02,
     4.53551203e-01, -1.12278771e+00,  2.92457485e+00,  1.25348532e+00,  1.76830423e+00, -1.56269222e-01,  1.11778188e+00, -3.77435398e+00,
    -3.73396635e-01,  7.01974392e-01,  3.07540512e+00, -1.66278541e-01,  1.74800313e+00,  3.20067048e+00, -1.05883384e+00,  2.63205957e+00},
   { 1.98847687e+00,  6.41237736e-01, -2.36687750e-01,  2.23812199e+00,  1.06954050e+00, -8.29407692e-01, -5.40141873e-02, -7.25781441e-01,
     1.57549345e+00,  9.79489625e-01,  1.16942894e+00,  1.72140992e+00,  2.04296398e+00,  5.19253373e-01,  1.37584853e+00, -2.18478227e+00,
    -1.39298594e+00,  5.62409937e-01, -8.86589766e-01,  2.18445972e-01,  2.73663759e+00,  4.29286987e-01, -1.21182251e+00,  2.30559754e+00,
     1.30639088e+00,  2.85872531e+00,  2.17808676e+00, -1.21875477e+00, -6.05326891e-01, -1.36210835e+00,  2.29425216e+00,  7.58554935e-01},
   { 7.68851399e-01, -5.05516529e-01,  9.04442966e-01, -7.22815216e-01,  1.77432835e-01,  3.05974096e-01,  3.11563075e-01, -3.65390956e-01,
    -4.37020004e-01, -2.55144447e-01, -1.37160802e+00,  2.56192267e-01,  4.13219452e-01,  4.67404991e-01, -1.67046994e-01, -1.07076585e+00,
    -3.91907573e-01, -1.02799690e+00, -2.23027803e-02, -1.06210351e+00, -1.40846884e+00, -9.89658758e-02, -8.40413943e-02, -6.72118962e-01,
     1.69346881e+00, -1.09587622e+00, -2.47533754e-01,  6.18275046e-01, -2.83184141e-01, -5.38167238e-01,  2.77497411e-01, -7.38564491e-01},
   {-6.21411800e-01, -1.38822579e+00,  1.24325705e+00, -4.42937553e-01,  1.13756165e-01,  7.58639097e-01,  5.17681956e-01,  9.66249168e-01,
     2.92787552e-01, -7.10313022e-01, -6.11869574e-01,  2.31560826e+00,  1.97332287e+00,  1.00049627e+00, -2.21115112e-01, -1.84047148e-01,
    -2.20513844e+00, -6.91060126e-01, -6.70421660e-01, -1.08470595e+00, -2.53409773e-01,  4.83884096e-01,  7.42514014e-01,  5.41015089e-01,
    -9.12099779e-02, -5.73165491e-02, -8.16469848e-01, -1.07486808e+00,  2.51848131e-01, -8.59068751e-01, -9.40126777e-01,  1.00224411e+00},
   { 1.15083504e+00, -2.64581516e-02,  1.71044600e+00,  4.75008756e-01, -1.96559876e-01, -6.17853224e-01,  2.25389346e-01, -2.74035633e-01,
    -8.03180218e-01,  1.87594101e-01,  1.14778459e+00, -3.45822155e-01,  1.09516275e+00, -2.41716909e+00, -2.66277850e-01,  3.79338771e-01,
     8.60885978e-01,  3.72879893e-01, -1.82791963e-01, -2.10519409e+00, -5.05387127e-01,  4.46453452e-01, -2.64537311e+00,  6.61763400e-02,
    -2.10154963e+00, -3.23435031e-02, -9.59525108e-01, -4.29120474e-02, -1.47428885e-01,  1.23696387e-01,  2.91038185e-01,  3.96424413e-01},
   { 1.63853371e+00,  4.56933379e-02, -1.51028633e+00,  7.58934796e-01,  9.36294854e-01, -7.31239557e-01,  9.41545308e-01, -6.06435299e-01,
     6.80848539e-01,  9.14150953e-01,  6.67070746e-01,  1.31467593e+00,  9.53920007e-01, -1.39154661e+00,  1.90084946e+00,  1.79780751e-01,
     1.04659057e+00,  8.74126673e-01, -6.13609374e-01,  1.28114536e-01, -4.08844262e-01, -1.14154577e+00,  4.84791756e-01,  8.43217671e-01,
     1.22845185e+00,  1.04803681e-01, -6.68654799e-01, -4.56226438e-01, -5.94941795e-01,  1.05526984e+00,  1.49462894e-01,  6.25657856e-01},
   {-1.38373005e+00,  4.46677774e-01,  3.40367079e+00, -1.77837133e+00, -1.56854153e+00,  4.52236605e+00, -4.80896324e-01,  1.09823298e+00,
     3.56654584e-01,  1.28667498e+00, -1.91180527e-01, -8.50999951e-01, -3.90417266e+00, -7.37305403e-01,  3.39621806e+00,  3.91638309e-01,
    -1.66968435e-01, -9.02392209e-01, -7.28859127e-01,  3.10722375e+00,  7.84377694e-01,  1.43637419e+00, -1.86185136e-01, -1.08288205e+00,
     4.14347798e-01, -1.68648827e+00,  2.02984452e+00,  1.09000182e+00, -2.16619849e-01, -1.94593930e+00, -5.92750132e-01, -6.22768879e-01},
   {-5.10696657e-02,  2.56381243e-01, -3.81084353e-01, -4.65588093e-01, -2.21349552e-01, -7.70314574e-01, -1.81741214e+00, -1.20343380e-01,
    -7.88639709e-02, -7.77996361e-01, -6.39445245e-01, -2.68058032e-01,  2.02018380e+00, -6.91976845e-01,  2.75286961e+00, -1.09446514e+00,
     1.76265001e-01, -2.94096887e-01, -5.53336084e-01, -1.76203084e+00, -3.73205036e-01, -2.67178130e+00, -1.88656831e+00, -3.16255903e+00,
     4.08006012e-01, -1.99666113e-01,  5.99853933e-01, -2.29000479e-01, -7.20209181e-01,  7.43687093e-01, -9.25230920e-01, -5.89469194e-01},
   { 3.46751176e-02, -6.19832695e-01, -9.28213835e-01,  1.23423362e+00,  7.03270078e-01,  1.62703669e+00,  1.04311025e+00, -2.62158848e-02,
    -1.46160042e+00,  3.27938437e-01,  2.25114197e-01,  3.44410747e-01, -1.77492452e+00,  4.53014255e-01, -2.16502666e-01,  1.56315291e+00,
    -2.41381321e-02,  6.26747727e-01,  2.04278421e+00,  9.96683419e-01,  7.46692717e-01, -2.18843007e+00,  5.30008376e-01,  1.25806820e+00,
    -1.04240226e-02,  1.23360002e+00,  1.10477161e+00, -3.93828079e-02,  4.87508863e-01, -2.68408000e-01,  7.14622498e-01,  9.82604742e-01},
   {-2.06925511e+00,  3.75701284e+00, -2.50164956e-01, -9.69002545e-01,  9.73583400e-01,  2.97351956e-01,  1.79826391e+00,  1.80789304e+00,
     6.13099635e-02,  7.01214492e-01,  3.62389237e-01, -2.47162879e-01,  1.70682085e+00,  1.34767640e+00,  2.93023849e+00,  1.06922001e-01,
    -4.98337775e-01, -9.03329372e-01, -3.55315246e-02,  1.39356777e-01,  4.43018198e-01, -8.54043126e-01,  3.20892620e+00,  2.21969795e+00,
     1.23792553e+00, -7.81764090e-01, -2.50005269e+00, -1.11361611e+00, -9.13003981e-02, -2.00407696e+00, -4.06605810e-01,  8.81868839e-01},
   { 6.04863930e+00,  1.19446898e+00, -2.40711260e+00, -2.15052426e-01,  6.44624293e-01,  9.45466995e-01, -1.73124820e-01, -1.59445107e+00,
     1.97558427e+00, -3.26708436e-01,  3.27229857e-01, -2.77095270e+00,  2.78230339e-01, -2.47819233e+00,  2.62078428e+00, -2.78698385e-01,
     1.34102434e-01,  8.10386777e-01, -2.28485918e+00,  3.53036451e+00, -6.85926557e-01, -6.50948226e-01, -1.09779775e+00, -4.42452431e-01,
    -1.37190565e-01, -9.14839685e-01,  1.50162828e+00,  6.16518199e-01,  3.69182259e-01, -9.88071188e-02,  7.07387149e-01,  1.00643122e+00},
   { 2.18390131e+00,  3.35272044e-01,  5.10617375e-01,  4.45447177e-01,  2.28212881e+00,  5.23787916e-01,  1.71840131e-01, -1.79051861e-01,
    -4.10978824e-01, -3.91978115e-01, -3.12640309e-01,  1.25383484e+00, -1.23587358e+00,  1.52302647e+00,  4.70063239e-01,  1.83347929e+00,
     1.38320005e+00, -2.06441641e+00,  1.78088653e+00,  1.36664212e+00, -6.70807004e-01,  5.45568645e-01,  2.43282628e+00,  1.06166613e+00,
     1.70456779e+00, -3.62128317e-01,  2.78850365e+00, -6.43095493e-01,  8.73470306e-02,  1.21603131e+00,  8.65431249e-01, -1.05523872e+00},
   { 3.30577463e-01, -1.98545861e+00, -1.07959652e+00,  9.57397580e-01,  5.39182499e-02, -4.57465470e-01,  7.81154811e-01, -3.06107670e-01,
    -5.27607799e-01,  1.42379910e-01, -8.99395168e-01,  3.99959636e+00, -2.25305930e-01, -8.29649746e-01, -4.58463758e-01,  5.06399214e-01,
     1.23785388e+00, -4.08054769e-01, -3.13979000e-01, -5.75255275e-01, -2.77648479e-01,  1.68371761e+00,  2.26410317e+00,  1.71209824e+00,
    -5.13516784e-01, -1.56902349e+00,  1.46864259e+00, -6.07429385e-01,  7.05790043e-01, -4.97641802e-01,  5.02592146e-01, -1.16853321e+00},
   {-2.09274960e+00,  1.51327825e+00, -5.05194217e-02,  8.37891698e-01, -3.27178121e-01, -8.80643904e-01,  5.73502445e+00,  2.02915692e+00,
    -2.63495833e-01,  1.40932786e+00, -3.17568839e-01, -3.53851438e+00, -1.36005282e+00, -9.49820220e-01, -1.76812017e+00,  8.58267546e-01,
     2.66331667e-03, -9.99971986e-01,  1.08722210e+00,  7.40959108e-01,  6.47211373e-01,  8.47422108e-02,  3.63838935e+00,  3.81318760e+00,
     1.24032509e+00,  1.35371113e+00,  4.38894540e-01, -6.74562335e-01,  9.38990951e-01, -1.09744954e+00, -2.04789948e+00,  2.61845565e+00},
   { 7.04407394e-01,  9.39285100e-01,  1.28750181e+00,  8.54844391e-01,  4.78539765e-02, -1.23048210e+00, -1.46781361e+00,  5.63605189e-01,
     1.46085715e+00,  2.15155795e-01,  1.14051676e+00,  1.63002205e+00,  1.98516476e+00, -1.04930878e+00,  6.14838421e-01, -1.02550662e+00,
    -2.33885482e-01,  6.52594090e-01,  5.94961703e-01, -1.63579655e+00,  2.53057361e-01, -2.59149647e+00, -5.50537884e-01, -5.57010114e-01,
    -1.29497409e+00,  1.72165310e+00, -6.58395112e-01,  3.36053610e-01, -7.73459971e-01, -4.19779003e-01, -2.75979608e-01, -1.25871813e+00},
   { 1.28358901e-01,  1.05629301e+00,  2.62324977e+00, -4.01229113e-01, -9.75206494e-02, -8.37030709e-01, -1.24714947e+00,  6.10339999e-01,
     2.77735233e-01,  8.76856446e-01,  6.00801349e-01,  4.90991265e-01,  2.25816339e-01,  7.10602403e-01, -2.34611124e-01, -1.04879880e+00,
    -5.99412739e-01,  2.08234116e-02,  5.63142538e-01,  7.06625640e-01,  3.08119617e-02, -1.04444098e+00, -3.66342854e+00, -1.14137232e+00,
     7.64632076e-02, -3.76161709e-02, -1.55493331e+00,  3.69426996e-01, -1.71798599e+00, -9.22609150e-01, -5.20234965e-02, -4.72217165e-02},
   { 1.50757766e+00, -7.18317151e-01,  6.35470510e-01, -1.53800458e-01, -7.22660184e-01, -4.81674880e-01,  3.58555079e-01,  5.31712592e-01,
    -1.29304186e-01, -2.09540367e+00, -1.19476366e+00,  2.95762205e+00, -1.23729385e-01,  1.82376814e+00,  1.67555070e+00,  1.16526699e+00,
    -7.72695124e-01, -7.93026507e-01,  1.13974798e+00,  1.85170901e+00,  3.35873485e-01, -7.39470661e-01, -1.07865202e+00,  1.20889580e+00,
    -7.42673099e-01,  2.89163262e-01,  4.90896761e-01, -8.51667672e-02,  4.28609610e-01, -2.58914530e-01, -1.05760539e+00,  1.52916300e+00},
   {-4.55544114e-01,  4.36509192e-01, -6.56132877e-01,  2.59576082e+00, -1.88542366e+00, -1.40115213e+00,  9.24519636e-03, -1.38538504e+00,
     3.62821627e+00,  7.79423267e-02, -1.07633257e+00,  1.77472726e-01,  1.12619519e+00, -9.73776728e-03, -1.79025912e+00, -7.25112081e-01,
     3.89477983e-02, -2.39207476e-01, -2.31654930e+00,  3.89900237e-01,  1.72752988e+00,  1.50438344e+00,  1.56126618e+00, -1.96981490e+00,
     2.41983151e+00,  6.93309963e-01,  1.01972866e+00, -9.92186427e-01, -7.80150592e-01,  2.81426728e-01,  3.87559319e+00,  1.02510870e+00},
   { 3.11166477e+00,  3.78349638e+00,  5.68539143e-01,  6.00190759e-01,  1.61173180e-01,  1.12538129e-01,  1.26956248e+00, -4.62494612e-01,
     1.33795917e+00, -2.48213506e+00, -1.18014967e+00, -3.74194562e-01, -2.28406501e+00, -1.11704957e+00,  2.28377843e+00, -2.18294883e+00,
    -1.02467753e-01, -5.33570409e-01, -2.78219551e-01,  2.19145775e+00, -8.49938095e-02, -9.22962502e-02,  1.57316184e+00, -1.76787567e+00,
     1.65816915e+00,  7.77702332e-02,  9.37519848e-01, -3.98594111e-01, -8.16000998e-03,  2.66266537e+00,  5.50018609e-01,  1.52592838e+00},
};

// clang-format on


#endif // __FASTGRNN_GRNN1_PARAMS__

