#ifndef __FASTRNN_FC_PARAMS__
#define __FASTRNN_FC_PARAMS__

#define FC_IN_DIM (32)
#define FC_OUT_DIM (6)

// clang-format off

const float FC_W[6][32] = {
   { 1.35999948e-01,  3.15317035e-01, -3.56062084e-01,  2.10586831e-01,  1.21837072e-02,  4.40959483e-01,  4.79979366e-01,  1.06811084e-01,
     2.89603502e-01, -6.13098852e-02, -9.03856568e-03,  2.36670583e-01,  1.31119385e-01, -2.98868001e-01,  1.06372237e-01, -4.11525786e-01,
     2.90999115e-01,  2.09798202e-01, -6.57690838e-02, -3.24168712e-01,  1.06798477e-01,  2.91110247e-01,  4.35850263e-01, -4.37514745e-02,
     3.29828858e-01, -3.11302841e-01,  2.54433006e-01,  8.02032053e-02, -2.24309608e-01,  4.31370765e-01, -2.30827252e-03,  2.35829830e-01},
   { 1.86409369e-01,  6.57079697e-01, -5.83374858e-01,  3.04108441e-01,  2.49943342e-02, -7.53902316e-01, -1.20658195e+00,  6.30908668e-01,
    -1.25786209e+00,  2.86582083e-01,  1.24969944e-01,  2.53693163e-01, -1.16712904e+00,  1.28253503e-03,  4.37153541e-02,  4.83061016e-01,
    -1.00275397e+00, -1.14935899e+00,  3.42412740e-02, -3.29215497e-01,  3.26438755e-01,  2.73620129e-01, -1.21683562e+00,  1.65986121e-01,
    -7.54594326e-01,  1.02016807e+00,  8.93754438e-02,  1.31117940e-01,  8.70884061e-02, -1.35058320e+00,  1.72582865e-01, -3.37475657e-01},
   { 1.93488583e-01,  5.55897772e-01, -6.45851970e-01,  4.41134840e-01,  3.54997367e-02,  5.26112139e-01, -1.49107540e+00,  4.93301690e-01,
    -1.19569135e+00, -1.49975967e+00, -4.61490937e-02,  3.85100067e-01,  3.53125900e-01, -8.39174032e-01,  1.64747566e-01,  4.64308709e-01,
    -1.58547723e+00,  6.05435014e-01,  2.80107222e-02, -3.01602662e-01,  3.44650656e-01,  6.07325912e-01,  7.85880566e-01, -9.63213369e-02,
    -7.56737649e-01,  1.18698680e+00,  4.53726321e-01,  1.82260767e-01,  3.09100449e-01, -1.54508495e+00,  1.36997312e-01, -4.59192842e-01},
   { 3.72722059e-01, -2.89893299e-01,  4.78634506e-01, -7.63921857e-01,  4.00929451e-02, -9.65883315e-01, -1.11159313e+00,  2.04662476e-02,
     5.37451565e-01,  2.63522714e-01, -1.55797857e-03, -1.04145229e+00,  1.65394664e-01,  3.64355773e-01, -1.29561985e+00,  2.70876914e-01,
     3.83349895e-01, -2.57586837e-02,  2.77099252e-01,  6.19678557e-01, -9.95522141e-01, -3.63917023e-01, -1.42530084e+00,  6.05895976e-03,
    -5.72141469e-01, -5.45446038e-01,  1.12253249e-01,  1.26067802e-01,  2.52634466e-01,  5.50161183e-01, -2.72086821e-02, -2.93545991e-01},
   {-3.14737320e-01, -1.02413666e+00,  3.48255217e-01,  3.88989776e-01, -7.22602829e-02,  6.26052797e-01,  6.70839190e-01, -8.94290686e-01,
     3.09697032e-01,  2.24166721e-01, -2.50568956e-01,  2.41499782e-01, -9.94106159e-02,  6.67705417e-01,  1.68620393e-01, -7.58481503e-01,
     3.78687710e-01,  2.18002796e-01, -2.78787822e-01,  1.10605061e+00,  3.60616952e-01, -9.26007330e-01,  5.25930941e-01, -1.74020067e-01,
     3.07084292e-01, -3.23556632e-01, -1.29213572e+00, -1.18820155e+00,  8.53103697e-02,  5.42877436e-01,  5.69541007e-03, -2.09450483e-01},
   {-1.29415011e+00, -1.13300300e+00,  9.28744495e-01, -8.48368883e-01, -1.67359486e-01, -1.28088880e+00,  8.96956325e-01, -1.07128012e+00,
     2.40134612e-01,  2.57826865e-01, -1.41535372e-01, -1.28128898e+00,  7.25984126e-02,  4.49426591e-01,  5.37919044e-01,  5.86236119e-01,
     2.38760591e-01, -1.93149000e-01,  4.28724796e-01, -7.38607705e-01, -8.58902097e-01, -5.26534975e-01, -1.48310804e+00, -1.47982553e-01,
     5.42398095e-01, -4.92179066e-01,  1.15987211e-01,  1.85267225e-01, -8.19376588e-01,  4.04624492e-01, -2.26264119e-01,  9.39570427e-01},
};

const float FC_B[6] = 
   { 1.79702663e+00, -1.02423131e+00, -1.64528418e+00, -8.59583497e-01, -9.41758215e-01, -1.15172231e+00};

// clang-format on


#endif // __FASTRNN_FC_PARAMS__

