#ifndef __FASTRNN_RNN1_PARAMS__
#define __FASTRNN_RNN1_PARAMS__

#define RNN1_HIDD_DIM0 (64)
#define RNN1_HIDD_DIM1 (32)

// clang-format off

const float RNN1_ALPHA = (-1.527963e+00);
const float RNN1_BETA = (4.517882e-01);

const float RNN1_BIAS_UPDATE[32] = 
   { 2.29511690e+00,  5.93977332e-01,  1.03850377e+00,  7.20082819e-01, -5.48616052e-01,  6.34740412e-01,  2.72328496e+00,  1.79920471e+00,
     1.17765450e+00,  1.31570876e+00, -4.65680450e-01,  2.69632125e+00,  9.41373587e-01,  1.00443399e+00,  3.95674944e-01,  2.94109678e+00,
    -4.68462408e-01,  1.99137464e-01,  3.23160231e-01,  1.61791790e+00,  4.44237649e-01,  2.60961628e+00,  7.31732726e-01,  1.87971890e+00,
     1.88168859e+00,  1.69998050e+00,  3.29581559e-01,  1.43892860e+00,  4.80005890e-01,  1.34847748e+00,  2.71154809e+00, -2.34543160e-02};

const float RNN1_W[32][64] = {
   { 1.09901750e+00, -5.13324440e-01, -4.60695654e-01, -9.49956119e-01,  6.78053722e-02, -4.29212600e-01, -5.83044052e-01, -1.44420370e-01,
    -3.30920145e-02,  2.26177946e-01, -5.85899889e-01,  2.56061666e-02, -7.57554054e-01, -1.11917429e-01, -6.03370070e-01, -5.46301365e-01,
    -4.17346120e-01, -6.86305881e-01, -5.60131848e-01, -8.14592898e-01, -7.18561709e-02,  1.24427223e+00,  3.37487817e-01,  2.04332799e-01,
    -5.15123487e-01,  3.53183508e-01, -2.67363526e-02, -1.77350163e-01, -1.02338541e+00, -1.08262873e+00, -1.46771818e-01, -3.18616480e-01,
    -5.87180555e-01,  8.76795426e-02, -7.17868388e-01, -2.43265450e-01, -3.83666247e-01, -1.61833063e-01, -4.53172445e-01,  2.88202167e-01,
    -6.27012923e-05,  2.07342640e-01,  2.21394479e-01, -6.14134431e-01, -2.82114983e-01, -3.67507517e-01, -5.08194804e-01,  2.19399706e-01,
    -5.43788970e-01,  6.22142136e-01,  1.07067859e+00, -2.29528114e-01,  2.23520070e-01, -2.93249696e-01, -3.13717335e-01,  2.16615900e-01,
    -2.63748080e-01,  1.63263723e-01,  4.88597155e-02, -8.47567260e-01,  6.61114231e-02, -6.41468242e-02, -7.85685003e-01,  7.58567005e-02},
   { 3.11748087e-01, -3.24957460e-01, -6.65899590e-02, -2.73848712e-01, -7.73128927e-01, -2.02659830e-01, -3.69793445e-01, -9.10002410e-01,
     5.26909173e-01,  8.45856071e-02, -3.98242950e-01,  2.92404443e-01, -1.01995790e+00,  2.47506395e-01, -1.14314012e-01, -2.31960118e-01,
    -1.87254190e-01,  9.40343812e-02, -1.87888443e-01, -8.42873037e-01, -2.86960423e-01,  5.56665778e-01, -2.64430106e-01, -3.54903713e-02,
    -9.35660452e-02,  1.68867409e-01, -2.36670703e-01, -4.73026484e-01, -6.91797733e-01,  1.68291014e-02,  1.76338628e-01, -8.39551210e-01,
    -8.12867761e-01,  4.06072773e-02,  1.06126726e-01,  5.40300131e-01, -5.74206822e-02, -4.28323716e-01, -2.23193675e-01, -4.54296201e-01,
     1.18540868e-01, -1.54092222e-01, -1.49609402e-01, -2.17521608e-01,  5.99492908e-01, -7.98945367e-01,  1.61276191e-01, -8.54690135e-01,
     4.09521013e-01, -4.15741265e-01, -3.62962365e-01, -2.16738105e-01,  2.51052082e-01,  2.32825913e-02,  3.62598717e-01,  4.73340660e-01,
    -1.35901019e-01,  2.03342021e-01,  2.36610383e-01,  4.90312986e-02, -4.50739324e-01, -1.64304584e-01, -6.95928037e-01, -2.92977601e-01},
   { 4.77927327e-01, -8.55381489e-01, -4.37502205e-01,  8.13238025e-01,  5.36378026e-01, -1.65682212e-01,  6.63455203e-03,  2.32704848e-01,
    -4.18260813e-01,  1.71302736e-01,  4.61386964e-02, -7.12007284e-01,  8.73727128e-02, -5.38512468e-01,  1.48870730e+00, -1.29363155e+00,
    -6.70861423e-01, -1.31367251e-01,  4.09028918e-01,  5.86792007e-02, -4.86839302e-02,  3.60158235e-02,  6.70441329e-01, -5.84533662e-02,
    -1.76681638e-01, -9.09717143e-01, -1.57970166e+00, -5.40094227e-02,  1.08187521e+00, -2.47936308e-01, -5.39044201e-01,  1.79428828e+00,
     6.63476706e-01, -2.74904698e-01,  9.28683043e-01, -7.43098259e-01, -3.94980878e-01, -9.27868664e-01, -1.95506066e-01, -8.94797862e-01,
    -4.75110173e-01,  1.71952593e+00, -2.40102038e-01, -9.02639389e-01,  4.92002547e-01,  5.92488468e-01, -1.71614900e-01,  2.61417359e-01,
    -8.59836757e-01, -2.14281112e-01, -1.22202765e-02, -2.96442270e-01,  1.36666751e+00,  5.22031605e-01, -1.44034183e+00, -1.31650651e+00,
    -3.35329324e-01, -3.69979918e-01,  2.59019136e-01, -5.57296216e-01,  8.10131609e-01, -1.18763661e+00,  5.66909015e-01, -1.24023184e-01},
   {-2.04643220e-01,  6.91781402e-01,  8.08142245e-01, -4.16322649e-01,  5.39466798e-01,  5.95907211e-01, -4.36515570e-01, -1.03229783e-01,
     2.53754705e-01,  9.89491343e-02,  7.10988164e-01, -3.70827943e-01,  3.93011063e-01,  6.60256296e-02, -4.96933132e-01, -2.13646144e-01,
    -8.38275611e-01, -3.43749434e-01, -1.87908232e-01, -1.03520167e+00, -3.17832053e-01,  1.05617881e-01, -5.64865649e-01, -1.01883605e-01,
     5.98628283e-01, -3.00337791e-01,  6.21826872e-02,  6.53647363e-01, -2.78506517e-01,  6.95154518e-02,  6.12402022e-01, -1.02780890e+00,
    -9.99739647e-01, -1.33049279e-01, -5.33010736e-02,  1.05503492e-01,  3.77781600e-01,  1.41873304e-02,  4.60445195e-01, -3.46449256e-01,
     1.52395725e-01, -4.76414084e-01,  3.75129938e-01,  1.52559564e-01,  5.74630946e-02,  1.18475570e-03, -2.66127557e-01,  3.42647471e-02,
    -7.70312071e-01,  1.66442156e-01, -4.56372499e-01, -7.44525492e-01,  2.06244051e-01, -2.29446925e-02, -2.54457891e-01,  1.19974196e+00,
     3.30329034e-03, -8.55956733e-01,  5.62491007e-02,  8.06167841e-01, -6.53787255e-01,  1.15225790e-02, -5.87205350e-01,  1.09102345e+00},
   { 9.37990728e-04, -9.74055231e-01, -6.68701112e-01,  6.68217957e-01, -6.31640330e-02, -1.08830059e+00, -5.54257572e-01,  4.00413275e-01,
     3.66246067e-02,  3.39348197e-01,  8.30295309e-02, -7.53351688e-01, -6.45452142e-01, -5.85671514e-02,  1.18302381e+00, -1.50311399e+00,
     6.35253906e-01, -6.08124435e-01,  3.01215053e-01,  1.03413606e+00,  1.03908472e-01,  7.66479552e-01,  5.25175035e-01, -1.13450873e+00,
     9.05621409e-01, -9.40629900e-01, -9.62656796e-01,  3.15412611e-01,  9.81001183e-03,  6.85947359e-01, -1.58132231e+00, -4.34440374e-01,
     3.12315464e-01, -1.38457453e+00,  9.65405881e-01, -1.20165974e-01, -1.35271475e-01, -1.75917521e-01, -3.71620476e-01,  8.73433769e-01,
    -1.25259137e+00,  5.64048409e-01, -1.07644629e+00, -9.98633206e-01,  1.06230724e+00,  7.51602769e-01,  7.00574338e-01,  9.67921391e-02,
    -4.12673980e-01, -1.18673611e+00, -2.13889688e-01, -6.76252127e-01,  1.13617349e+00,  6.64638221e-01,  6.94581926e-01, -1.35314256e-01,
    -6.08467817e-01, -4.47114646e-01, -3.49658787e-01,  9.69125032e-01,  1.65117013e+00, -4.13313121e-01,  6.15202487e-01, -6.70628428e-01},
   { 4.25729126e-01, -1.89013049e-01,  1.33016020e-01, -1.69886299e-03, -9.57928225e-02, -6.05584025e-01, -5.72742939e-01,  1.21962202e+00,
    -1.07142043e+00,  5.83251953e-01,  5.59867799e-01, -6.46134973e-01, -2.24675462e-01, -1.59613296e-01, -1.12751782e-01,  2.35776290e-01,
     6.09719992e-01, -4.81350087e-02,  1.68143660e-02,  6.18983150e-01, -2.81206578e-01,  4.55605477e-01,  2.35935196e-01,  6.21070825e-02,
     4.09778327e-01,  4.50980663e-01,  2.07389280e-01,  3.12327892e-01, -1.20993398e-01,  2.09944010e-01,  7.54544735e-02,  5.79375029e-02,
     8.98402631e-01, -7.92465866e-01,  5.37284136e-01,  6.57662630e-01, -2.34860450e-01, -1.28507659e-01,  4.37036455e-01,  1.46512404e-01,
    -1.56948283e-01, -3.83444279e-01,  4.63171959e-01, -3.85767728e-01,  3.48542154e-01,  1.72626674e+00, -4.74773109e-01,  9.59566295e-01,
    -7.18871653e-01,  9.98431802e-01, -1.75781876e-01,  1.13657832e+00,  4.19999897e-01,  4.19155061e-02, -1.48070201e-01,  2.39564776e-02,
     5.88679731e-01, -7.98395395e-01,  1.49504259e-01,  4.53681439e-01,  3.38744074e-01,  5.75853467e-01,  4.76812869e-01,  9.64526117e-01},
   { 1.35545266e+00,  1.11561522e-01, -3.86486828e-01, -6.63722605e-02, -4.29507554e-01,  5.29703438e-01,  3.13174158e-01,  1.61440933e+00,
    -9.60251629e-01, -1.17031693e-01,  1.31811857e+00, -2.21781746e-01, -7.96071053e-01,  2.13830519e+00,  7.36039996e-01, -9.35693324e-01,
     4.01597619e-01,  1.18131006e+00, -5.79262733e-01, -5.90835392e-01, -1.94107950e-01,  2.98040193e-02, -3.70532185e-01,  9.20685709e-01,
     1.90408123e+00,  9.06787813e-01,  1.23727918e+00,  1.59422779e+00,  1.00659978e+00,  1.93222061e-01,  5.77685952e-01, -1.34333923e-01,
    -5.03134608e-01, -1.67639390e-01,  7.13458002e-01,  1.25613794e-01, -6.90869987e-01,  2.54800826e-01,  8.27812612e-01, -1.15311646e+00,
    -2.45981842e-01, -4.82167304e-01,  1.31249619e+00,  4.87911761e-01,  1.17951512e+00,  1.14154446e+00, -2.62696385e-01, -2.95032170e-02,
    -6.40623868e-01,  1.67490435e+00,  1.26258123e+00,  2.21973157e+00, -1.77859581e+00,  5.27599454e-01,  2.35533312e-01,  1.46679655e-01,
     6.07925653e-02,  6.02002561e-01,  1.11021288e-01,  9.84221160e-01,  2.02257514e-01, -4.53407466e-01,  7.74249494e-01, -6.86312199e-01},
   { 6.22657180e-01, -9.21580017e-01, -9.34689164e-01, -1.59081435e+00,  1.21083140e+00,  6.52344465e-01, -7.23456219e-02, -3.61477911e-01,
     1.09645581e+00, -4.42080051e-01, -3.40849668e-01,  9.95588228e-02,  1.16380945e-01, -2.79335856e-01, -6.75852537e-01, -5.76179743e-01,
     2.69083083e-01,  6.13628924e-01, -3.42563927e-01, -1.59174755e-01, -1.33339539e-01,  7.36317754e-01, -7.89387524e-01, -7.88069844e-01,
    -4.64255124e-01, -2.97475398e-01, -1.96317926e-01,  1.50856152e-02, -1.07929885e+00, -2.75465786e-01, -2.00871434e-02, -6.95211828e-01,
    -7.56257355e-01, -5.51907539e-01, -8.84025276e-01, -2.14832783e-01, -3.40662777e-01, -5.56397259e-01, -3.21514666e-01,  8.69025409e-01,
    -1.96024165e-01,  4.29083794e-01, -6.89045668e-01, -5.71143329e-01, -2.69776165e-01, -8.69262874e-01, -3.37662518e-01, -1.66196480e-01,
    -3.70949715e-01, -1.90246701e-01,  9.69120339e-02, -3.07628773e-02, -6.37933850e-01,  4.00435030e-01, -4.96410057e-02,  3.11591923e-01,
    -2.82111347e-01, -2.26547971e-01,  3.69479269e-01, -7.46843159e-01, -7.08478332e-01, -3.78382504e-01, -1.29069126e+00,  4.97158974e-01},
   { 6.29700124e-01,  5.51221251e-01,  1.33377540e+00,  3.23168397e-01, -1.80716082e-01,  4.00876403e-01, -2.17463151e-01,  5.66979766e-01,
    -2.46438935e-01, -2.30151817e-01,  1.00753641e+00,  9.49677154e-02,  6.38061762e-01,  7.24968195e-01,  2.07993761e-01, -1.10704756e+00,
     4.78681237e-01, -2.79958755e-01, -5.02091408e-01, -9.39477563e-01, -4.91956562e-01,  3.87341380e-01,  4.75867689e-01, -1.42421424e+00,
     2.00353980e+00,  8.62940073e-01,  1.72387838e+00,  8.25114906e-01, -9.52430725e-01,  9.76699114e-01, -2.13000588e-02, -1.86517441e+00,
    -3.95700306e-01, -9.31859851e-01,  6.57058477e-01,  2.13587904e+00, -4.20070201e-01, -1.90362304e-01,  1.69837677e+00,  1.39018834e+00,
    -4.33531016e-01, -4.71745506e-02,  1.96371627e+00, -1.23818919e-01,  9.94858980e-01,  8.18899333e-01, -2.01543972e-01, -8.47004712e-01,
    -3.59342605e-01, -9.37900245e-01, -4.93172914e-01,  2.33920082e-01, -6.30169809e-01,  4.25264269e-01, -3.21043432e-01,  1.00398743e+00,
     5.96529603e-01, -7.63170063e-01,  6.80551946e-01,  6.72963142e-01,  3.31075251e-01, -7.07613900e-02,  8.67646337e-01,  1.81262791e-01},
   {-5.56210995e-01,  7.72863746e-01,  1.52694464e+00, -4.37936857e-02, -7.01398790e-01, -1.24213055e-01, -9.06838402e-02,  1.05175543e+00,
    -7.10356236e-02, -1.25184422e-02, -9.63677764e-02, -5.49569130e-01, -1.13497949e+00,  9.46248293e-01,  8.63663077e-01, -7.80815542e-01,
     2.38612533e-01, -4.02881950e-01, -5.40511869e-02, -1.35098234e-01, -7.76092634e-02, -1.54953435e-01,  1.05770791e+00, -1.07929695e+00,
     1.16459250e+00,  5.84394991e-01,  5.59618056e-01,  9.01191056e-01, -3.93699884e-01, -3.39191169e-01,  4.62882742e-02, -2.99440205e-01,
    -4.44812238e-01, -3.55050296e-01,  7.15793431e-01,  9.14701998e-01, -1.05159298e-01,  4.02501315e-01,  1.03183436e+00,  3.03603023e-01,
    -5.26500106e-01,  4.24915224e-01,  7.23707020e-01,  9.69070137e-01,  5.91867089e-01,  4.53785688e-01,  6.06820643e-01, -1.09121844e-01,
    -1.23782611e+00,  1.15243971e+00,  4.40482289e-01, -4.31643486e-01,  1.14516914e-03,  1.93752244e-01, -2.59072930e-01,  6.23390436e-01,
     3.37082982e-01,  5.41875422e-01,  1.91792190e+00, -6.10466637e-02,  1.65280950e+00, -5.70688009e-01,  6.95285559e-01, -2.61424869e-01},
   {-5.01051009e-01, -1.22808528e+00, -6.83307290e-01,  3.28603387e-01,  1.50473011e+00, -6.01704299e-01, -7.60874033e-01,  1.52327806e-01,
     1.31157100e-01, -1.50977537e-01, -2.73428768e-01, -9.77555633e-01,  7.78649211e-01, -3.93335104e-01,  3.64206851e-01,  2.90713698e-01,
     5.93125820e-01,  6.21516824e-01,  1.62684605e-01,  4.96535450e-01, -4.68773931e-01, -6.53702557e-01, -2.90978372e-01, -1.56005597e+00,
    -1.34355032e+00, -4.82699394e-01,  2.60619998e-01,  9.31645691e-01, -1.80907130e-01,  3.62624228e-01, -1.16163111e+00,  1.43746898e-01,
     9.15264487e-01, -5.31315744e-01,  3.60691071e-01, -1.11441100e+00, -1.32488859e+00, -1.27041972e+00,  4.99507546e-01,  1.28705549e+00,
    -4.78818446e-01,  1.40941188e-01, -1.09174061e+00, -1.25539327e+00,  4.96530861e-01, -4.85297471e-01, -6.25251532e-01, -9.41268504e-01,
    -1.12140998e-01, -2.25829983e+00, -7.65925050e-01,  7.56831020e-02,  9.99529839e-01, -4.91766781e-01, -5.71000516e-01, -1.74351230e-01,
    -1.24550498e+00, -7.91070238e-03,  3.46064180e-01,  1.29299834e-02,  1.10896182e+00, -5.75749397e-01,  2.18809828e-01,  5.10442078e-01},
   {-1.05575109e+00,  1.03074396e+00,  2.91770488e-01, -2.17791051e-02,  3.68933350e-01,  1.29666662e+00,  1.09110415e+00, -1.27316535e-01,
     1.66784093e-01,  1.25334370e+00,  5.43732584e-01,  1.47564545e-01, -1.30569220e-01,  1.26219225e+00, -1.30472696e+00,  1.32023048e+00,
     3.79513383e-01,  1.21484935e+00,  9.44295168e-01,  1.13455462e+00,  9.95745778e-01, -1.86129481e-01, -5.64393640e-01, -1.41833389e+00,
    -5.78252792e-01, -2.03573197e-01,  5.33729076e-01, -4.59171534e-01,  1.23245962e-01,  1.31607592e+00, -9.47855264e-02,  5.33315361e-01,
     6.04213715e-01,  7.70750968e-03,  1.16669849e-01, -6.49795055e-01,  1.15653157e+00,  8.38701248e-01, -2.12508023e-01, -1.45316906e-02,
     2.86997885e-01, -3.09677958e-01,  3.40405554e-01, -1.73205227e-01, -7.81542361e-02, -6.33059740e-01,  1.35542381e+00,  1.47937214e+00,
    -1.75800785e-01,  6.83493555e-01,  3.14831233e+00,  1.48122287e+00,  4.72984701e-01, -9.19156134e-01,  5.24528742e-01, -6.63104534e-01,
    -5.50062060e-01,  8.45564246e-01,  3.22945439e-03, -3.06756973e-01, -3.24145079e-01,  6.41395330e-01,  7.01380670e-01,  1.06236950e-01},
   { 3.44816327e-01, -4.35411669e-02, -8.82295892e-02, -7.01618910e-01,  1.67043284e-01, -3.58853430e-01,  1.72202691e-01,  2.13913575e-01,
     2.83007145e-01, -3.70475858e-01, -1.75072670e-01,  6.97135210e-01,  8.05192649e-01, -3.97180408e-01, -5.78087211e-01, -7.02845514e-01,
    -2.91059196e-01, -6.18882254e-02, -1.59373507e-01,  1.93509057e-01,  1.42880958e-02,  9.99662399e-01, -4.13713232e-03, -8.04563344e-01,
    -3.66368711e-01,  6.24614805e-02, -1.31743819e-01, -3.62953963e-03, -5.16174734e-01, -2.99238801e-01, -7.89111927e-02,  5.52875698e-02,
    -2.37763032e-01, -8.35579157e-01, -8.86680186e-01, -1.73364416e-01, -4.55647737e-01, -5.12287498e-01,  9.54233035e-02,  7.86067545e-01,
    -2.33333245e-01, -7.29452595e-02,  2.04599440e-01,  3.36818308e-01,  4.00287360e-01, -1.35785211e-02, -7.55378306e-02, -1.79329440e-01,
     4.37014788e-01, -1.98140144e-01, -5.22461295e-01, -5.38245618e-01, -1.04513168e-01,  2.24817455e-01, -1.20198703e+00,  2.00756997e-01,
    -7.52948225e-01, -2.07949445e-01,  9.85094070e-01, -1.56895503e-01, -2.32959434e-01, -3.41761447e-02, -1.26147294e+00,  7.31489599e-01},
   { 9.73961115e-01, -5.37726805e-02, -3.84517550e-01, -1.10125530e+00,  7.27960944e-01,  4.50566739e-01, -1.96155727e-01,  2.63215154e-01,
     1.06732059e+00, -5.38369775e-01, -1.00719608e-01, -2.29552105e-01, -4.60781634e-01,  1.48854747e-01,  3.87696117e-01, -6.59380794e-01,
    -3.31561744e-01,  3.03954333e-01,  9.68170017e-02, -6.08250320e-01,  3.31745476e-01,  2.18230534e+00,  3.20827395e-01, -7.48151779e-01,
     4.90299344e-01, -7.53672123e-02, -6.86792612e-01, -2.67148495e-01, -4.16578948e-01, -2.51613051e-01, -6.23991489e-01, -9.91135612e-02,
    -3.64834368e-01,  5.01920938e-01, -1.28042787e-01,  3.22759926e-01,  1.62368774e-01, -7.87815034e-01, -2.10237861e-01,  9.09302771e-01,
     4.45560738e-02, -3.57933305e-02,  1.82946160e-01,  1.24852955e-01,  2.09984183e-01, -5.47348797e-01, -1.08168341e-01,  7.41158724e-01,
    -2.62015045e-01, -3.93049985e-01,  9.40573335e-01,  1.05947420e-01,  2.39256173e-01,  3.76205623e-01,  5.68667054e-01,  6.17687464e-01,
    -1.06874973e-01, -4.64967489e-01,  9.25628245e-01, -2.53324240e-01,  4.81089592e-01,  6.08310461e-01, -8.72489929e-01,  8.22048903e-01},
   { 1.11303020e+00, -1.12234318e+00, -7.85210252e-01,  1.41905993e-01,  4.58560079e-01,  5.88403165e-01,  1.31022155e-01, -1.06961310e+00,
     4.01048064e-01,  2.33343169e-01, -1.07491481e+00,  4.93065417e-01,  1.36544335e+00, -2.38959730e-01, -4.76127565e-01,  2.43490428e-01,
     7.21028805e-01,  5.49328685e-01,  1.02049068e-01,  7.07753241e-01, -7.48432577e-01,  1.34896357e-02, -8.02583992e-01,  1.36196330e-01,
    -1.19301748e+00, -3.12437564e-01, -3.07379216e-01, -5.75514853e-01,  5.55487350e-04, -5.13026975e-02, -3.18955332e-02,  6.39701128e-01,
     1.38300967e+00, -5.71141064e-01, -4.09559369e-01, -7.47190535e-01, -6.14833117e-01, -1.07186961e+00, -6.58726215e-01,  2.68918276e-01,
     5.47661006e-01,  3.66936594e-01, -6.35567605e-01, -1.28150237e+00,  6.58918992e-02, -3.33240181e-01, -7.07662344e-01, -6.35491610e-01,
     1.93224415e-01, -5.09800375e-01, -7.72009075e-01,  8.22163105e-01, -5.81339896e-01, -5.39650261e-01, -9.23545063e-01, -3.12291682e-01,
     8.75526816e-02, -7.15266824e-01, -8.98456752e-01, -1.33118737e+00, -7.94345737e-01, -1.96348324e-01,  3.83116931e-01, -2.20234558e-01},
   { 1.74489903e+00,  7.77419686e-01,  1.22895038e+00, -3.53022844e-01,  6.14502251e-01, -7.94084191e-01, -9.98058617e-01, -2.47877046e-01,
     8.29912961e-01, -2.66938895e-01, -1.59028657e-02,  3.60459000e-01, -3.88126373e-01, -3.47593009e-01,  8.93542051e-01,  7.40333080e-01,
    -6.13660455e-01, -6.07293725e-01, -3.35319072e-01, -5.00673592e-01,  4.97890890e-01,  1.38698852e+00,  3.51731181e-01,  8.13989103e-01,
     1.21953118e+00,  1.21000755e+00, -3.55318159e-01,  4.73356068e-01,  8.37361872e-01,  1.99971348e-01,  4.48213756e-01,  1.46103120e+00,
    -5.70333719e-01, -1.57399252e-01, -2.85782158e-01,  1.10664403e+00,  3.51736873e-01,  4.07164633e-01,  3.03188235e-01, -8.73685658e-01,
     4.17173296e-01, -1.45455107e-01,  9.69775736e-01,  2.26135150e-01, -3.66854370e-01,  5.26065707e-01,  4.85863060e-01,  1.23236787e+00,
    -5.92671096e-01,  1.09406066e+00, -2.25838706e-01, -4.97297406e-01,  1.22477615e+00,  4.29810673e-01,  8.30129385e-01,  1.01196027e+00,
     8.06455128e-03, -7.20884621e-01,  7.02187955e-01,  1.09745890e-01,  4.09163475e-01,  9.02668059e-01, -2.09363773e-01,  7.27238417e-01},
   { 1.65722772e-01, -2.86492556e-01, -3.02384943e-01, -5.32339036e-01,  2.06116140e-01, -3.09824914e-01, -8.48330021e-01, -4.67357635e-01,
    -2.89861470e-01, -4.42565121e-02, -8.79303336e-01, -6.41858697e-01, -3.26210976e-01, -1.71418741e-01, -6.24716163e-01,  1.92157641e-01,
     3.70430261e-01, -2.12361977e-01, -1.48715511e-01, -1.55234441e-01,  4.22764421e-02,  5.42476833e-01,  6.39380813e-01,  6.10140741e-01,
    -2.07167849e-01, -4.32541035e-03, -4.69699234e-01, -1.96923107e-01, -2.88584650e-01, -2.64359033e-03, -6.50299370e-01,  1.09496951e+00,
     4.13686246e-01, -5.72992265e-01, -3.66719067e-01,  7.18654275e-01,  1.83569610e-01, -3.98260206e-02, -3.98687512e-01, -6.75397336e-01,
     4.21595246e-01, -2.37482950e-01,  1.54482588e-01, -9.61247087e-01, -3.95701319e-01, -1.37569457e-01, -3.44708003e-02,  5.73115468e-01,
    -7.99181640e-01,  3.93678918e-02,  1.01239073e+00,  3.32042128e-01,  1.56017339e+00,  4.21877265e-01, -2.14441881e-01, -4.58984047e-01,
    -2.35595047e-01, -3.89132500e-01, -9.47786216e-03, -5.55088758e-01,  4.17794943e-01,  4.36878443e-01,  3.39288324e-01,  1.31876707e+00},
   { 1.11088976e-01, -6.24931991e-01, -1.04769552e+00, -3.34810555e-01, -4.17002529e-01, -4.79390651e-01, -1.13374710e+00,  6.06383502e-01,
    -7.70862177e-02,  6.22968137e-01, -4.53870863e-01, -4.32415873e-01,  8.55171919e-01,  1.47200882e-01, -1.47231710e+00,  2.41558608e-02,
     6.28733635e-02, -1.47222579e+00, -7.38575459e-01, -1.41017616e-01,  4.99839604e-01, -2.68084168e-01, -5.24704039e-01,  1.12818852e-01,
    -3.69351059e-02,  3.66674930e-01,  5.45613393e-02,  1.12049448e+00, -1.71690717e-01, -7.24992394e-01, -3.00023146e-02,  8.46653640e-01,
     8.16237509e-01, -6.33094311e-01,  4.83828112e-02, -2.14846835e-01, -9.18547630e-01, -1.05281913e+00, -2.91038185e-01, -2.03358695e-01,
    -8.64061475e-01, -6.70067489e-01,  5.08503973e-01, -2.92232752e-01, -4.47968058e-02,  8.56501818e-01, -2.02025867e+00, -4.18665797e-01,
    -1.18298888e+00, -3.08090389e-01,  6.50573730e-01, -2.73777973e-02,  6.82282448e-01, -1.99312627e-01, -8.92607391e-01, -6.01625919e-01,
    -9.52490270e-01, -2.57571638e-01,  2.72716880e-01,  5.78687899e-02,  6.15869522e-01, -4.40664649e-01,  2.26601675e-01,  1.78619373e+00},
   {-1.48871034e-01, -3.90945561e-03, -1.43750822e-02,  7.86664248e-01,  1.34733307e+00,  3.68315369e-01,  7.13483095e-01, -3.09242636e-01,
     8.44766721e-02,  4.97302376e-02,  1.73508182e-01, -1.37437787e-02,  6.09236181e-01, -2.89759457e-01,  4.19537276e-01, -6.23484366e-02,
     1.04676723e-01,  2.18577832e-02,  9.40175176e-01,  1.03345849e-01,  3.22405607e-01, -8.60974610e-01,  1.86771020e-01, -8.45017195e-01,
    -1.38653651e-01, -9.96375382e-01, -4.09791052e-01, -1.93790391e-01,  3.35568309e-01,  3.70977759e-01, -8.70870471e-01, -9.39794302e-01,
     3.06273371e-01,  2.58153528e-02,  8.22759092e-01, -6.45806134e-01, -2.28418171e-01,  2.82732546e-01,  6.97519481e-01,  5.92122614e-01,
    -3.91929179e-01,  5.50728559e-01, -4.65157300e-01,  4.54423636e-01, -2.28123888e-01,  3.47194970e-01,  1.43000990e-01, -2.56962562e-03,
     3.73324394e-01, -6.81804895e-01, -6.86946511e-01, -6.69690967e-01,  7.81017616e-02,  1.29481822e-01, -1.63239557e-02,  5.33846140e-01,
    -8.53202999e-01,  4.84829918e-02, -7.28510976e-01,  1.01153195e+00, -1.07891783e-01, -8.19157138e-02,  5.83394468e-01, -6.42616570e-01},
   {-4.62370180e-02,  6.17744565e-01,  8.68301868e-01, -8.57754946e-01,  1.53050110e-01, -2.78099626e-01,  5.01251936e-01,  4.83275831e-01,
     8.00054848e-01, -5.79667628e-01,  4.53145981e-01,  4.71831888e-01,  3.88385952e-01,  2.51820862e-01, -5.70818365e-01,  1.12085491e-01,
     1.45970416e+00,  6.48748279e-01,  1.36018082e-01,  5.07150292e-01,  1.44400718e-02, -2.79761881e-01,  6.70327783e-01, -1.72711217e+00,
    -7.63086736e-01,  1.80933267e-01,  4.26520467e-01, -1.61723956e-01, -1.90080297e+00,  1.79630294e-01, -1.91501394e-01, -1.58225298e+00,
    -2.97561526e-01, -6.38210893e-01, -9.96202379e-02,  9.09765005e-01,  8.59855413e-01,  6.75382376e-01,  6.44390762e-01,  4.26866579e+00,
     4.07877684e-01, -5.13784289e-01,  1.26790679e+00,  2.15701595e-01,  2.06968054e-01,  5.64052343e-01,  4.85056907e-01, -5.36521316e-01,
     5.07913470e-01, -5.98871589e-01,  4.87097651e-01,  1.05193675e+00, -3.59102696e-01, -4.27671820e-02,  9.16537941e-02,  9.00723100e-01,
     8.37174773e-01, -3.22839856e-01,  1.41309726e+00,  3.01013738e-01,  6.65415168e-01,  7.17478514e-01, -5.86416423e-01,  3.82617563e-01},
   { 5.34490466e-01,  3.11935246e-01,  2.33398497e-01,  1.18029974e-01,  8.33444893e-01, -2.66842663e-01,  5.64934552e-01,  1.48983061e-01,
    -8.16957772e-01,  4.60520774e-01,  4.16267425e-01,  2.56086886e-01,  7.40158319e-01, -8.56813371e-01, -1.01066387e+00, -4.19948213e-02,
     7.28277206e-01,  7.51792192e-01,  5.89317977e-01,  3.33533138e-01, -3.44825089e-01,  5.13690114e-01, -1.77526534e-01, -7.03084096e-03,
    -9.97272789e-01,  5.52684844e-01,  8.10249567e-01, -2.02435449e-01,  3.00519198e-01,  6.02267087e-01,  3.15477908e-01,  1.19313407e+00,
     7.28824660e-02, -1.42497927e-01,  2.02220589e-01, -2.94719547e-01, -3.10949206e-01,  2.62431931e-02,  6.16160274e-01, -5.29040337e-01,
     5.04607379e-01, -4.90342453e-02, -2.74218768e-01,  6.12427220e-02, -3.73867005e-01, -4.15605128e-01,  2.04624403e-02,  3.87735844e-01,
     3.77819419e-01,  3.20572466e-01,  6.88217878e-01,  3.18122596e-01, -3.72219324e-01,  6.14883959e-01,  4.88335878e-01, -4.27387565e-01,
     4.18696195e-01,  8.07426032e-03, -2.30756238e-01,  1.44757783e+00,  9.03787613e-02,  1.56950915e+00,  5.44914268e-02,  2.77888417e-01},
   { 1.82124245e+00,  2.40953997e-01,  3.00853997e-01, -1.00349113e-01, -1.03175151e+00, -6.13012731e-01, -5.27886569e-01, -1.56049162e-01,
     2.17727274e-01,  5.29589117e-01, -2.48780146e-01,  1.14346015e+00, -1.17068306e-01,  5.82627654e-01, -1.61270225e+00,  4.33934778e-01,
    -2.24000737e-01,  9.78530794e-02, -7.08089769e-01, -1.67411808e-02, -4.85363841e-01,  2.75965381e+00,  2.63355583e-01,  1.13082063e+00,
    -1.89435706e-01,  2.79995513e+00, -1.04874194e-01, -3.44477326e-01, -1.40041327e+00, -2.57245421e-01,  5.86354077e-01,  5.24995267e-01,
     1.53294355e-01, -1.98604465e-01,  1.48926407e-01,  8.03281307e-01,  2.21773967e-01,  1.54067680e-01,  2.50112623e-01,  3.72602940e-01,
     7.05930293e-02,  1.68351740e-01,  2.02901387e+00, -2.04922184e-01, -3.44956279e-01,  5.44285998e-02, -2.91208923e-01, -9.25382078e-01,
    -2.39670649e-01,  6.80339396e-01,  5.06021202e-01,  2.16231155e+00, -2.31003821e-01,  1.26331317e+00,  2.43176445e-01, -3.68021488e-01,
     3.56325179e-01, -1.98227063e-01, -7.76355863e-02, -1.57364988e+00, -1.69500768e+00,  1.15715325e+00, -8.43690038e-02, -2.13375002e-01},
   { 7.22548544e-01, -1.59227833e-01, -2.18076631e-02, -4.58875299e-02, -1.95420593e-01, -6.98625922e-01, -3.37924927e-01, -1.08910561e+00,
     7.06760228e-01, -7.60983974e-02, -1.21053898e+00,  1.19687021e+00, -1.91757664e-01, -2.98486680e-01,  8.92183185e-01,  1.87453091e-01,
     7.10408911e-02,  2.10105971e-01, -2.71080136e-01, -1.16436787e-01,  1.52846174e-02,  6.44344151e-01,  2.63056215e-02,  4.17873442e-01,
    -7.15830445e-01,  2.03194022e-01, -6.76198304e-01, -8.50209415e-01, -5.82487762e-01, -2.99173802e-01,  1.06810331e-01,  5.12316465e-01,
    -3.69217634e-01, -1.71419103e-02, -3.83577883e-01,  1.02009453e-01,  2.88780004e-01, -2.16752127e-01,  8.97496715e-02,  1.77583456e-01,
    -4.08173293e-01,  3.33915204e-01,  2.98140436e-01, -2.59813488e-01,  3.26326132e-01, -6.47620916e-01,  2.70971149e-01, -1.50044709e-01,
     5.69964111e-01, -7.76776135e-01, -3.34834099e-01, -6.17898166e-01,  1.08889496e+00, -9.12536740e-01, -9.26902294e-02,  4.93665308e-01,
    -2.93245703e-01, -3.31689388e-01,  4.55172807e-01, -8.53609681e-01, -2.77746409e-01, -4.24930245e-01, -8.92393827e-01,  1.26847699e-01},
   { 2.48864647e-02,  5.11296511e-01,  5.56276083e-01,  6.90792978e-01,  4.66656059e-01, -1.16266799e+00,  5.21940827e-01,  1.92441022e+00,
    -1.31946611e+00,  7.76885927e-01,  1.66710988e-01,  5.10369837e-01,  1.17965186e+00, -8.46186578e-01,  3.26324761e-01, -3.70534241e-01,
     4.95448589e-01, -1.49505183e-01,  5.14524817e-01,  1.47962892e+00,  7.22650528e-01,  1.54210865e-01,  3.13924968e-01, -1.46561897e+00,
    -1.81952566e-01, -1.80222735e-01,  8.28487456e-01, -1.02153170e+00, -5.34015633e-02,  4.11630869e-01, -4.18251038e-01,  5.00382066e-01,
     1.38662076e+00,  5.86187184e-01,  5.31014264e-01,  2.56624073e-01,  7.26488829e-02, -1.20456047e-01,  2.57870823e-01,  1.42845201e+00,
    -4.93577272e-01,  3.93149763e-01,  3.04025382e-01,  4.80000764e-01,  1.59651324e-01,  1.22069657e+00,  3.27028066e-01,  1.74504626e+00,
     5.99068046e-01,  9.30996180e-01, -6.77844822e-01, -1.35885224e-01, -2.21195281e-01,  8.17807257e-01, -5.97609639e-01, -2.06127256e-01,
    -3.37620854e-01, -8.41212571e-01,  3.30450267e-01, -8.88535529e-02,  1.76843721e-02,  5.36529481e-01,  1.17432296e+00, -5.09991527e-01},
   {-5.41909575e-01,  3.65311861e-01,  1.92823634e-01, -6.81813478e-01,  3.61978561e-01,  1.12233400e+00,  5.89949377e-02,  2.19234452e-01,
     1.21316051e+00, -3.84976298e-01,  2.91821331e-01, -1.79272220e-01, -1.15766846e-01, -6.27199233e-01, -3.83813858e-01, -1.76705569e-01,
    -6.93632841e-01,  2.67422408e-01, -3.37843925e-01, -6.86881423e-01,  3.99086595e-01, -1.10977423e+00, -3.42477530e-01,  6.62247002e-01,
     6.57677948e-01, -1.22549987e+00, -3.42786551e-01,  6.73116863e-01,  9.92866158e-01,  1.93347409e-02,  1.08459306e+00, -6.89771652e-01,
    -7.44423047e-02,  4.82417256e-01, -7.12355256e-01, -9.81733203e-01, -5.71231186e-01, -1.61156252e-01,  4.19152647e-01, -1.21588004e+00,
     2.35866144e-01, -9.11428571e-01, -5.29678643e-01,  1.99046656e-01, -3.49777251e-01,  4.38340962e-01, -3.47377628e-01,  5.28578877e-01,
     4.06019092e-01,  3.01581807e-02, -1.14356828e+00, -6.17450655e-01, -1.47146916e+00, -5.08640170e-01,  6.33642554e-01,  5.90741873e-01,
     5.69700181e-01,  3.60551149e-01, -3.28629762e-01,  1.39126003e+00, -1.17219424e+00, -1.11663759e+00, -1.20091105e+00,  7.37080753e-01},
   { 5.25002480e-01,  2.01917171e+00,  1.45632172e+00,  3.49294066e-01,  1.38011253e+00,  3.04731261e-02,  1.31979156e+00, -1.71147895e+00,
     1.17110562e+00, -5.42739868e-01, -3.85752380e-01,  1.68854105e+00,  4.29817557e-01, -1.70525938e-01,  5.21887302e-01,  6.46406293e-01,
    -8.63594055e-01,  1.75049543e+00,  7.03842282e-01, -4.98881564e-02,  2.84018349e-02,  3.08259338e-01,  9.91567522e-02, -2.12834263e+00,
    -1.17147243e+00,  9.39997360e-02, -4.48717505e-01, -3.39903069e+00, -5.11714481e-02, -6.49092734e-01, -5.71225770e-02, -7.28893042e-01,
     3.61605734e-01,  8.33927274e-01, -1.38007629e+00, -1.22969106e-01,  1.41154659e+00,  1.83196986e+00, -3.68126392e-01,  2.38524175e+00,
     2.37258077e-01,  1.37175977e+00, -1.03966045e+00,  1.78169703e+00, -1.06065106e+00, -1.46026027e+00,  1.26534617e+00, -3.81098807e-01,
     2.49152040e+00, -2.82379165e-02, -6.31953478e-01, -1.18509293e+00, -6.59134746e-01,  7.65931308e-01,  1.01328266e+00,  4.91074711e-01,
    -7.03928769e-02,  1.72369123e+00, -6.26773357e-01, -1.24072146e+00, -1.48877859e+00,  6.47661269e-01, -1.16388369e+00, -1.05210936e+00},
   { 2.03659176e-03, -2.08508939e-01, -3.59527320e-02, -6.76771820e-01,  7.46263266e-01,  5.42321920e-01, -5.55907547e-01,  1.90342963e-01,
     3.10780466e-01, -2.77620912e-01,  1.71226889e-01, -2.02577889e-01, -7.41252676e-02,  3.29547256e-01, -3.27170402e-01,  5.51294148e-01,
     1.07273507e+00, -4.80639935e-01,  7.08350956e-01, -3.84571373e-01, -2.19987169e-01, -1.05057977e-01, -1.04798682e-01,  4.02167767e-01,
     1.17520154e-01,  3.11661720e-01,  3.48329812e-01,  3.83426130e-01, -4.05961484e-01,  4.64999497e-01,  4.08507645e-01, -3.28235626e-02,
    -6.83276057e-01, -2.74347931e-01, -2.24576160e-01,  8.40569913e-01, -3.39776814e-01, -5.18155191e-03,  1.05932951e+00, -1.92177996e-01,
    -1.46359578e-01, -5.08450568e-01,  6.82940423e-01, -3.33552986e-01, -9.80223864e-02,  2.66654611e-01, -5.51121771e-01, -1.41595852e+00,
    -4.91162896e-01, -2.48406291e-01,  7.48632401e-02,  2.60491520e-01,  6.74060702e-01,  8.07244405e-02, -5.92853010e-01, -2.92358637e-01,
    -2.39950828e-02, -1.12226474e+00,  7.86345184e-01,  5.69733799e-01,  4.34310198e-01,  1.47664011e-01, -2.08211273e-01,  1.34216058e+00},
   {-2.35287771e-01,  7.76993155e-01,  7.42067695e-01,  7.12168217e-01,  9.41559970e-01, -8.56764540e-02,  5.74949920e-01,  2.58569628e-01,
    -5.58797479e-01, -1.77999526e-01,  9.74882782e-01,  6.99264482e-02, -2.67100453e-01, -3.99855167e-01,  1.89686697e-02,  9.14297402e-02,
     7.75309861e-01, -2.97058374e-01,  3.46782446e-01, -3.43902819e-02,  4.99632806e-02,  4.65152770e-01,  1.02813029e+00, -1.14061749e+00,
    -5.48388846e-02,  4.83484298e-01,  6.27390563e-01,  7.25232586e-02,  4.41567570e-01,  1.62582290e+00, -2.31503591e-01, -1.10307062e+00,
    -1.95620716e-01,  1.04661405e+00,  8.18663895e-01,  2.16024071e-01,  2.34875288e-02,  6.26390636e-01,  1.47966397e+00,  7.10473299e-01,
     9.65839922e-02,  8.70227754e-01,  3.92003268e-01,  8.39548469e-01,  2.67125309e-01,  2.62068957e-01,  3.22565049e-01,  2.77000636e-01,
     8.49289954e-01, -8.23953003e-03, -5.23577869e-01,  3.12519312e-01,  2.68787891e-01,  6.58921957e-01,  5.94465792e-01,  1.26714134e+00,
     3.06617081e-01,  2.07352653e-01, -2.57269919e-01,  1.67218983e+00,  3.32050681e-01,  5.24618387e-01,  6.74765348e-01, -1.05557692e+00},
   { 4.71809268e-01,  1.98178434e+00,  1.57730997e+00, -7.14681566e-01, -2.13628912e+00, -1.38511491e+00,  4.01686341e-01,  7.01454461e-01,
    -6.81730688e-01,  8.06747854e-01,  3.05914491e-01, -3.82805988e-02, -7.39095688e-01,  2.22364608e-02,  2.45355189e-01,  1.79753929e-01,
    -4.49196994e-02,  1.31804958e-01,  1.63065985e-01, -5.03596842e-01,  8.70861858e-02,  4.68935430e-01,  1.74117744e+00, -1.04098655e-01,
     5.15124857e-01,  3.06542993e-01,  8.96493554e-01,  1.39549568e-01,  8.72363031e-01, -2.29163662e-01,  5.47069252e-01, -8.89958978e-01,
    -6.17924750e-01, -8.89536217e-02,  3.69570367e-02, -8.33728239e-02,  2.76231825e-01,  1.01664805e+00,  7.39350915e-01, -1.70741141e+00,
    -2.99027950e-01, -2.68509269e-01,  8.28946948e-01,  1.17139959e+00,  5.43917948e-03,  7.59376943e-01,  3.06763232e-01, -1.36986992e-03,
    -1.42138422e-01,  1.00031137e+00,  3.49351257e-01, -1.31355852e-01, -1.02883264e-01,  1.31407557e-02,  7.16803730e-01,  2.19266820e+00,
     7.25810826e-01, -1.68948889e-01, -1.63097098e-01, -8.83280933e-02,  9.95065272e-02, -2.91338377e-02, -2.95626193e-01,  1.22548091e+00},
   { 1.00062072e+00,  6.12326384e-01, -1.00653008e-01,  4.99887541e-02, -1.97920427e-01, -2.41950229e-01,  4.15667534e-01, -1.12612918e-01,
     2.59325355e-01, -3.25360745e-01,  2.36085996e-01, -1.97801933e-01, -1.26972771e+00,  6.12619162e-01, -3.60042676e-02, -1.10238659e+00,
     1.48166502e+00, -4.09851938e-01, -3.12986791e-01, -9.48994815e-01,  2.79829800e-01,  3.22985679e-01,  5.59533417e-01, -7.97375560e-01,
     4.33912307e-01,  8.27478826e-01,  1.09922194e+00,  8.07991505e-01, -7.18908787e-01,  7.24279344e-01,  1.89865723e-01,  5.85130930e-01,
    -1.02996683e+00,  3.45804952e-02, -1.35332763e-01,  8.26430082e-01, -4.76506412e-01, -3.59529018e-01,  1.30786252e+00,  8.14524055e-01,
    -3.49642009e-01, -2.83663943e-02,  8.16853344e-01, -5.37664890e-01,  8.61802816e-01, -6.29127622e-01, -8.17117453e-01,  8.05086643e-02,
    -3.06460172e-01,  2.69114852e-01,  1.42282832e+00,  3.65651518e-01,  5.13917685e-01,  5.60025156e-01, -7.23861277e-01, -9.43117321e-01,
     3.62664223e-01, -2.14735717e-01,  9.89342093e-01,  4.83800173e-01,  9.82063651e-01,  2.96522111e-01, -9.38556314e-01,  1.25554764e+00},
   {-1.15208916e-01, -9.66471136e-02, -2.03908026e-01, -2.58881301e-01, -4.01531070e-01,  7.22599566e-01,  2.47156024e-02,  4.89115387e-01,
    -1.92682967e-01, -3.38376790e-01,  9.68117297e-01, -3.48309129e-01,  3.17697138e-01,  4.26143438e-01,  2.37963393e-01, -2.15948969e-01,
    -5.34765780e-01, -1.65415555e-02, -5.88824674e-02, -5.67953110e-01, -2.83999695e-03, -7.27806330e-01, -8.61377344e-02,  1.53971541e+00,
     1.55231965e+00, -1.44738472e+00,  4.16561842e-01,  4.23946351e-01,  3.57908010e-01,  3.62844437e-01, -6.24558926e-01, -1.03866088e+00,
    -6.86081941e-04,  3.42706710e-01,  8.05446267e-01, -4.75108743e-01, -4.81238514e-01,  7.21029788e-02,  1.39089775e+00, -1.83693588e-01,
    -7.46018767e-01,  4.23356682e-01,  8.85193706e-01,  1.66935980e-01, -1.46703199e-01,  1.25713730e+00,  1.58131495e-01,  7.16554344e-01,
     1.34686425e-01, -8.30624551e-02, -3.70900393e-01,  3.42866510e-01, -1.28855062e+00, -1.00137782e+00,  1.40072837e-01, -6.87318981e-01,
    -7.48916686e-01, -1.34425223e-01,  3.73921454e-01, -8.48696172e-01,  6.38911188e-01, -4.82689738e-01,  1.38372457e+00, -1.33629382e+00},
   { 6.36362135e-01,  8.49419415e-01,  9.83305693e-01, -5.43030083e-01,  6.62812591e-01, -9.67504561e-01, -6.03167713e-01,  1.80134088e-01,
     5.47748327e-01, -1.72542989e-01, -4.12281275e-01,  1.27391085e-01,  7.66831730e-03, -3.00980121e-01,  7.02861130e-01, -7.31074929e-01,
     2.72296965e-01,  4.21517521e-01, -1.72583476e-01, -4.80844453e-02, -4.39907581e-01,  1.15928376e+00,  7.34037399e-01, -4.40916508e-01,
    -2.10008770e-01,  1.17253256e+00,  3.24274510e-01, -8.51394415e-01, -5.36211014e-01,  2.10695088e-01,  3.38355154e-01,  2.67948598e-01,
    -1.35141730e-01, -2.36892670e-01, -8.23161602e-02,  1.76709616e+00,  3.78814846e-01,  7.32205153e-01,  5.40645421e-01,  9.49343503e-01,
    -1.33838445e-01, -7.42736518e-01,  1.33745265e+00, -2.60345548e-01, -7.83771649e-02,  1.89455226e-01,  4.14821804e-01, -2.08089247e-01,
    -9.80219692e-02,  1.13293302e+00,  3.11105609e-01,  1.99282199e-01,  1.01865435e+00, -1.30039051e-01,  4.89338487e-02,  8.21942031e-01,
     3.09175789e-01, -1.30708981e+00,  3.57185572e-01,  1.11259624e-01, -5.23231387e-01,  2.08568007e-01, -1.60017118e-01,  5.45972645e-01},
};

const float RNN1_U[32][32] = {
   { 5.00030160e-01,  9.51454490e-02, -1.22860503e+00,  6.54372573e-01,  2.35720828e-01,  8.28650057e-01, -1.70228791e+00,  9.32000875e-01,
    -2.37742171e-01, -1.44141042e+00, -4.51924801e-01, -1.74251842e+00, -2.10861111e+00, -8.64417478e-02, -8.10423672e-01, -1.22204542e+00,
    -4.17255551e-01, -3.08884948e-01,  3.23291278e+00,  6.82836592e-01,  4.01926231e+00,  1.32235527e+00, -1.93586087e+00,  1.34227300e+00,
    -1.67069530e+00,  1.32955015e+00, -6.14636503e-02,  2.16570139e+00,  1.64181435e+00,  7.84417987e-01, -1.60126567e+00,  5.90116441e-01},
   { 2.61054969e+00, -2.95037198e+00,  2.46289849e+00, -4.71290976e-01,  2.58475041e+00,  1.03888559e+00, -6.03086293e-01, -1.44129789e+00,
     1.93385649e+00,  7.08762944e-01,  2.19333911e+00, -2.21355557e+00,  9.98754874e-02,  4.62543279e-01,  1.26991659e-01, -1.59004331e+00,
    -8.20853770e-01,  1.10873508e+00,  1.34188664e+00,  2.31363320e+00,  8.51465940e-01,  1.78330135e+00, -2.32950711e+00, -1.89099520e-01,
    -1.72913384e+00, -3.24185006e-02, -2.53755152e-01,  1.39015234e+00,  2.30364990e+00,  3.99776131e-01, -1.93585241e+00,  1.08567560e+00},
   { 1.87183106e+00, -4.79339004e-01,  7.07019389e-01, -3.92819792e-01, -1.66487443e+00, -6.55199289e-02, -1.43614495e+00, -3.98903459e-01,
     7.03408599e-01,  1.64230490e+00, -7.83919871e-01, -4.81199622e-01,  9.84686911e-01,  4.08927828e-01,  1.28727114e+00, -2.53272486e+00,
    -4.63602573e-01, -2.04139706e-02, -2.71407604e+00,  3.55160618e+00,  1.61297488e+00, -1.98350802e-01, -4.98493388e-02, -7.03269958e-01,
    -9.18248221e-02, -1.09912181e+00,  1.02782297e+00,  2.71549553e-01, -1.03057480e+00,  1.04637548e-01, -8.11323285e-01, -6.56552196e-01},
   { 1.95201004e+00, -1.27591081e-02, -6.09723628e-01, -8.95986259e-01, -2.88357735e+00, -1.05856635e-01, -2.89811659e+00,  1.17909014e+00,
     1.19990838e+00, -8.76698673e-01, -1.20052636e+00, -2.62269783e+00,  4.59235795e-02, -1.38738215e+00, -5.92232764e-01, -1.77414036e+00,
    -5.20173490e-01,  1.65439650e-01, -2.89019108e-01, -1.72619033e+00,  1.56530368e+00, -2.63570994e-01,  5.80114365e-01,  3.19541037e-01,
    -4.36220288e-01,  5.15922070e-01, -3.16316748e+00,  8.09499174e-02,  5.38947880e-01,  7.19575286e-02, -1.57707083e+00, -6.77226298e-03},
   { 9.62331831e-01, -1.79044080e+00,  3.22003675e+00, -2.01896816e-01, -9.78475809e-01,  1.76456606e+00, -3.74494195e-01,  2.06627417e+00,
    -1.64095581e+00,  4.44856286e-01,  4.68245363e+00, -2.76780307e-01,  1.23949111e+00,  6.89063728e-01,  1.90921521e+00, -5.29892206e-01,
    -6.89067721e-01,  1.36092353e+00, -3.51002455e-01,  1.72569156e+00,  1.63454640e+00, -2.18123376e-01,  4.30112541e-01,  1.42893600e+00,
    -2.34255940e-01, -2.10264874e+00,  1.15899228e-01, -2.39941746e-01, -2.47986197e+00,  1.02507770e+00, -2.81789657e-02,  1.16351560e-01},
   {-2.29884481e+00, -2.08660901e-01, -4.46172297e-01, -2.68704724e+00,  3.67648220e+00, -5.55481005e+00,  2.18470979e+00, -1.22035491e+00,
    -1.15610421e+00,  1.66155136e+00,  2.09289598e+00,  1.31800544e+00,  3.69536765e-02,  4.44381326e-01,  2.84480482e-01,  2.61340761e+00,
     1.90046024e+00,  1.52154458e+00, -2.00055800e-02,  8.17467511e-01, -7.81530499e-01,  1.18092552e-01,  5.82218528e-01, -1.33733678e+00,
     6.88556969e-01, -4.49973702e-01,  3.30203080e+00,  7.68196657e-02, -4.44657691e-02,  7.57755578e-01,  1.91924125e-01, -1.09255505e+00},
   {-6.55339658e-01, -1.27219617e+00, -5.15202641e-01, -1.54064685e-01, -2.75835365e-01,  5.80286741e-01, -1.72413313e+00,  2.21409798e+00,
    -1.39178181e+00, -9.32578668e-02,  2.09358168e+00, -4.50047761e-01,  2.36043763e+00,  8.57554153e-02, -1.09265290e-01,  1.51778245e+00,
     1.92155540e+00,  5.38739860e-01, -2.94424033e+00,  2.02325273e+00, -2.88157582e-01,  1.90054274e+00,  2.87697530e+00, -2.94652134e-01,
    -1.19130373e+00,  1.06224203e+00, -3.74698499e-03, -1.50527811e+00, -1.05444133e+00,  7.71846712e-01, -6.42969072e-01,  1.90703094e+00},
   { 3.28748918e+00,  2.50211954e+00,  7.21064955e-02,  1.01330054e+00, -1.19467449e+00,  9.52858567e-01, -1.58676744e+00, -1.59142697e+00,
    -4.62869138e-01, -2.37700009e+00,  1.58433473e+00, -2.59045029e+00, -3.22775698e+00,  8.96205664e-01, -1.18325436e+00, -2.06089377e+00,
    -5.91291010e-01,  4.34826732e-01,  1.89937484e+00,  4.36852306e-01,  3.06259453e-01,  1.83762562e+00, -2.30804873e+00,  1.04894614e+00,
    -8.99690628e-01,  1.99043059e+00, -6.40708447e-01,  7.84284353e-01, -1.39040738e-01, -6.46089554e-01, -3.70807648e-01,  9.97123569e-02},
   {-2.83955276e-01,  5.10332465e-01,  1.21779263e+00, -1.15373993e+00,  2.43465528e-01, -5.01833260e-01,  1.81156099e+00, -1.91463959e+00,
     1.67064357e+00, -2.25727588e-01,  8.64082813e-01,  1.13467145e+00, -4.12580442e+00, -6.91878438e-01, -2.50382137e+00, -1.53452039e+00,
    -3.19539809e+00, -8.81272972e-01,  2.39861584e+00,  1.40151131e+00, -2.16088247e+00,  5.27912438e-01, -9.62480128e-01, -8.37449729e-01,
    -5.67688823e-01,  2.68046707e-01, -1.14866555e+00,  3.15984666e-01,  4.15218234e-01, -1.49110472e+00,  1.83872294e+00, -1.24778545e+00},
   {-2.27890134e+00, -5.69472969e-01, -4.18656766e-01,  8.88896167e-01,  2.40087271e+00,  1.58116758e+00,  2.19094062e+00,  5.92634618e-01,
    -2.62046307e-01,  4.97930479e+00,  1.97859132e+00, -1.33531630e+00,  1.05607033e+00,  4.90013778e-01,  1.08063424e+00,  5.86783171e-01,
     7.19050825e-01,  3.32751966e+00, -1.14238358e+00,  9.69687104e-01, -1.48432985e-01, -7.32498705e-01, -3.71158510e-01,  1.89336196e-01,
    -2.29256913e-01, -3.18499494e+00,  1.50720632e+00,  4.24628705e-01,  6.47592783e-01,  2.16931534e+00, -6.79942310e-01,  1.49134469e+00},
   {-2.97151450e-02, -1.32679331e+00,  2.27166176e+00, -1.08004820e+00, -2.05194163e+00, -1.24006271e-01,  9.18922842e-01, -3.62377465e-01,
    -9.29489791e-01,  1.03011286e+00, -5.95913827e-01, -4.76449907e-01,  1.14849232e-01,  1.16144514e+00,  1.25892603e+00, -1.18665290e+00,
    -1.05927253e+00, -5.30999541e-01, -3.84866023e+00,  5.98680198e-01,  1.10923624e+00,  3.34253341e-01, -1.77464855e+00,  1.10133708e-01,
    -4.63107020e-01, -9.89146471e-01,  2.88956881e-01, -1.93500352e+00, -3.57396007e+00,  7.21842229e-01,  1.26118660e+00, -6.17252469e-01},
   {-1.66920412e+00,  2.01509905e+00, -7.95158505e-01,  1.93731976e+00,  3.12793195e-01,  1.36036050e+00, -4.06673610e-01, -3.36344451e-01,
    -2.41676629e-01, -6.28058612e-01, -2.93997025e+00, -8.99537504e-01, -5.54661274e-01,  4.39423859e-01, -8.02773476e-01, -5.15996218e-01,
     1.17375338e+00, -4.37906444e-01, -1.52160335e+00,  5.32383144e-01, -1.49868095e+00,  1.90518987e+00,  3.26197237e-01, -2.25655580e+00,
    -1.33643210e+00, -4.68906760e-01,  1.42533982e+00, -1.66317666e+00,  8.76127303e-01,  1.83595687e-01,  1.75352764e+00,  3.50291896e+00},
   { 1.62422836e+00,  2.78711247e+00, -7.13872910e-01,  2.89626765e+00, -4.15232748e-01, -6.82075679e-01, -2.60567093e+00, -3.18708308e-02,
     2.48475742e+00, -4.83832993e-02, -7.95700788e-01, -2.29473495e+00, -9.90246415e-01, -2.13265371e+00, -1.94603130e-01, -2.15749693e+00,
     1.65963903e-01,  4.71438989e-02,  8.27841699e-01, -2.88835078e-01,  1.19221950e+00, -6.04040682e-01, -1.16344917e+00, -2.43574321e-01,
     2.61365384e-01,  5.19252904e-02,  1.10775971e+00,  9.40560736e-03,  4.20498252e-01, -7.32644722e-02, -2.41481590e+00,  6.58017024e-02},
   { 2.61046457e+00,  1.97786462e+00,  1.78086627e+00,  1.37904322e+00,  2.03826952e+00, -1.45940389e-02, -8.26278985e-01,  8.38407218e-01,
     5.42232037e-01, -1.62292278e+00,  1.89775801e+00, -1.79420340e+00,  2.07783031e+00, -1.06594491e+00, -6.17345512e-01, -2.06166673e+00,
    -3.56095135e-01,  1.26845014e+00,  3.34200311e+00,  1.98371756e+00,  2.27972221e+00,  1.75547063e+00, -7.69066811e-01,  1.14825547e+00,
    -1.74971998e+00,  1.93104279e+00, -1.01054251e+00,  2.07471323e+00,  1.96672708e-01, -1.05131853e+00,  4.31197807e-02, -1.12627530e+00},
   {-9.74948525e-01, -2.73050725e-01, -1.42679882e+00, -6.11891448e-01, -7.41989434e-01, -1.86966993e-02,  8.04533780e-01, -2.96773338e+00,
     1.81037402e+00,  1.20073724e+00, -1.47326982e+00,  9.30940285e-02,  6.13809645e-01, -4.37296689e-01, -1.19192803e+00, -6.40529871e-01,
    -3.17127848e+00, -2.86614895e+00,  9.25779581e-01,  1.58420408e+00,  8.89558077e-01, -7.53630280e-01, -1.71845114e+00, -2.17672661e-01,
    -1.36890960e+00, -8.41645896e-01, -9.85240579e-01, -5.38931429e-01, -2.72030026e-01, -1.41466331e+00, -1.81325451e-02,  1.24671066e+00},
   {-7.86131024e-01,  8.65581274e-01, -1.76256013e+00, -5.26069224e-01, -2.44005620e-02, -1.00201952e+00,  9.22181666e-01,  2.08281446e+00,
    -9.63869929e-01, -5.07515311e-01,  9.13315713e-01, -4.28702950e-01,  1.93299091e+00,  9.71694946e-01,  5.79785883e-01,  2.86335230e-01,
     8.85086879e-02,  4.79280353e-01, -1.89821184e+00,  9.58977222e-01, -3.00103784e+00,  2.36247373e+00,  1.45668948e+00, -1.62139857e+00,
     5.92307508e-01,  1.45495522e+00, -7.97623277e-01, -2.89959335e+00, -1.99091697e+00, -1.31794512e+00,  1.28121972e+00,  4.30069566e-01},
   { 1.43386219e-02,  1.88238275e+00,  1.07963480e-01, -9.27769542e-02,  1.61418152e+00, -3.38831043e+00,  5.62682629e-01, -1.36714125e+00,
     1.39079320e+00, -5.36744177e-01,  4.65904772e-02, -9.54710841e-01, -1.53094113e+00, -1.00379825e+00,  8.05812418e-01,  7.79638708e-01,
    -4.61688429e-01,  3.78927612e+00,  2.94444108e+00,  5.10861039e-01, -2.27939916e+00,  1.55984592e+00, -4.50562775e-01,  8.08604434e-02,
     5.87491572e-01,  5.18122315e-01,  2.46346903e+00,  2.84811187e+00,  1.21402979e+00,  2.71543765e+00,  2.34002639e-02, -2.21103287e+00},
   {-1.56658724e-01, -4.27173704e-01,  1.80269670e+00,  3.56930852e-01, -5.93278520e-02, -1.43527591e+00, -1.36083329e+00,  1.39880395e+00,
     1.08026356e-01,  1.35933268e+00,  1.59827650e+00, -1.50475788e+00,  2.40715790e+00, -6.76988125e-01,  1.56209457e+00, -1.55948257e+00,
    -1.15373838e+00, -2.16000199e+00, -9.84458447e-01,  3.99000883e-01,  3.38437533e+00, -2.17546511e+00, -1.17815530e+00, -4.71692145e-01,
     1.45180941e+00,  6.62801191e-02,  3.73331666e-01,  1.92044044e+00, -3.71989107e+00,  1.30295324e+00, -1.07085192e+00, -1.48095894e+00},
   { 3.27750850e+00,  8.53347421e-01,  2.54031944e+00, -7.93981493e-01,  1.86367774e+00, -3.98121268e-01,  6.59502387e-01, -5.38061500e-01,
     5.71657062e-01,  7.48708248e-01,  9.01723683e-01,  6.83609903e-01,  1.28556740e+00,  7.91246414e-01,  1.32217181e+00,  9.00024831e-01,
     2.41994357e+00,  4.06474686e+00, -3.76276946e+00,  1.27295184e+00, -2.12791157e+00,  2.16952872e+00, -1.28085184e+00, -1.21754813e+00,
    -4.94315952e-01, -3.44060272e-01,  1.12524080e+00, -4.32902187e-01,  1.12169254e+00,  1.92398548e+00, -6.97672784e-01,  4.41971235e-03},
   { 1.34920049e+00, -2.54217696e+00,  1.49427533e+00, -8.93958211e-02,  2.83015799e-02,  1.85778156e-01,  1.27962506e+00, -1.35199225e+00,
    -3.89564157e-01, -5.01786828e-01,  1.41047883e+00,  2.24049807e+00,  1.92213878e-01, -6.11064672e-01, -1.58058846e+00,  1.32101491e-01,
     2.98492253e-01,  1.51810020e-01, -2.10903570e-01, -1.56247878e+00, -1.97764784e-01,  4.30783629e-01,  4.59366292e-01,  1.06464732e+00,
     4.39937443e-01,  1.47783458e-01, -4.97234672e-01, -1.19798370e-02, -2.23373318e+00,  1.09577216e-02,  2.51643562e+00, -2.78058600e+00},
   { 2.41789296e-01, -6.43233716e-01, -2.20528579e+00,  6.60410762e-01, -4.21975422e+00, -1.70744193e+00, -3.66884017e+00,  1.67945158e+00,
     2.65980393e-01, -1.92678070e+00, -1.28625643e+00, -1.23762393e+00, -1.02191591e+00, -9.35318530e-01, -8.81475151e-01, -2.51996517e+00,
     2.83771567e-02, -1.86991906e+00, -9.87481952e-01, -2.55911201e-01, -1.73376501e+00, -7.25316346e-01,  1.56466186e+00, -1.31586623e+00,
    -8.67372215e-01, -2.97091931e-01,  1.34734285e+00, -1.59629643e+00,  9.56061959e-01, -6.62588000e-01, -7.42360711e-01,  1.27306104e+00},
   {-3.23797703e-01, -5.06263793e-01,  7.32143104e-01, -1.03529608e+00,  1.26349843e+00, -9.63986158e-01,  4.08446968e-01, -1.70700037e+00,
     5.56755066e-01, -7.97638953e-01,  1.37831652e+00,  3.86267900e-01,  8.98485333e-02, -1.09252870e+00, -1.92252386e+00, -1.33462775e+00,
    -3.13783264e+00, -1.74130428e+00,  3.89312291e+00,  1.42918134e+00,  1.91738829e-01, -6.81810260e-01,  6.53017163e-01,  1.24071598e+00,
    -5.82163781e-02,  1.32011831e+00, -9.76821780e-01,  1.25662506e+00, -1.84661853e+00, -1.41666937e+00,  1.79201627e+00, -1.77941847e+00},
   {-7.20327377e-01, -2.32810307e+00,  1.49988258e+00,  1.15396893e+00, -2.85280704e-01, -2.41200876e+00,  1.34494221e+00,  1.30794787e+00,
    -1.41256475e+00, -3.18838298e-01,  5.53058922e-01,  1.60143697e+00, -1.67777312e+00,  4.92202491e-01, -6.19559921e-02,  4.56439197e-01,
     1.60786808e+00,  3.01893592e+00,  1.08241312e-01, -2.03252792e+00,  9.75930035e-01, -6.12211883e-01, -3.91260505e+00,  1.44804108e+00,
     1.39894652e+00, -1.17881596e+00,  1.59025264e+00, -5.81678748e-01, -7.34686613e-01,  5.90795279e-01,  2.78284693e+00, -2.54987121e+00},
   {-5.07247150e-01, -1.30807817e+00, -1.06885350e+00,  2.78479099e+00,  8.20805669e-01, -2.73234987e+00, -5.98120093e-01,  2.44753242e+00,
    -1.63961780e+00,  8.40349495e-01, -5.54702163e-01, -7.67769158e-01,  2.82686472e+00, -9.32222843e-01,  5.08624554e-01,  3.24820220e-01,
     1.18234885e+00,  1.59344077e+00, -1.19811022e+00, -1.95130742e+00,  4.80680019e-01, -2.43806624e+00,  9.83234197e-02,  2.02554733e-01,
     3.13246107e+00, -2.77557343e-01,  1.08558428e+00,  2.15616751e+00, -4.97921556e-01,  1.56968701e+00,  1.02714217e+00, -2.70206094e+00},
   {-2.31068850e+00,  9.17999268e-01, -2.70250034e+00, -6.47651672e-01,  1.59968436e+00, -3.68024409e-01,  9.99919653e-01,  2.69513464e+00,
    -2.27158356e+00,  1.24324596e+00,  2.52343565e-01, -1.30238247e+00, -1.44875646e+00, -2.71294378e-02,  6.27679765e-01,  1.55940580e+00,
    -8.21828425e-01,  1.85554314e+00, -4.30026621e-01, -1.71356297e+00, -1.52253830e+00, -2.50302935e+00,  4.69000667e-01,  2.90291548e+00,
     8.31671596e-01,  8.98863450e-02,  8.53472471e-01,  7.90536761e-01,  1.35137534e+00,  1.06446229e-01,  5.73196225e-02, -7.80325234e-01},
   {-5.86178184e-01, -2.90683436e+00, -1.32012129e-01, -1.76173055e+00,  1.67188287e+00,  2.40438247e+00,  8.71775389e-01, -1.71069467e+00,
    -1.26360297e-01,  6.01090133e-01,  1.06306231e+00,  1.66065311e+00, -5.16214013e-01, -6.24830090e-02, -5.22629499e-01,  1.39005816e+00,
    -3.21458012e-01,  5.80261886e-01,  5.45331836e-01,  8.53890181e-01, -5.67770958e-01,  1.31100619e+00,  1.73145854e+00,  1.17343414e+00,
     2.91877091e-02, -1.76679361e+00,  1.96387425e-01,  1.52651060e+00, -1.69160306e+00,  4.43945676e-02,  6.97187901e-01, -1.69308114e+00},
   {-3.94815183e+00,  6.60060167e-01, -2.29587245e+00,  7.10132539e-01,  1.84209025e+00, -2.66488147e+00,  2.97310090e+00, -4.29655552e-01,
     3.02962512e-01,  8.08235466e-01, -1.25580141e-03, -1.23705834e-01, -5.23992348e+00,  1.23293483e+00, -5.59206128e-01,  1.04603326e+00,
    -2.00441122e+00, -8.23290029e-04, -7.26383924e-02, -1.10398158e-01, -7.30331898e-01, -3.28705937e-01,  1.60389531e+00, -2.68609405e+00,
    -1.78311658e+00, -8.49740028e-01, -6.70883715e-01, -8.59906316e-01,  7.48286366e-01,  2.82932234e+00,  1.61935496e+00,  5.61190963e-01},
   { 4.50500876e-01, -2.71460056e-01, -6.04907334e-01, -1.81367666e-01,  3.14626670e+00, -8.91634962e-04,  2.41567969e+00,  2.10119867e+00,
    -1.77708364e+00,  2.24476314e+00,  1.30781448e+00,  4.97668497e-02, -1.85192549e+00,  3.31985414e-01,  9.12401676e-01,  8.87149572e-01,
    -2.51667410e-01,  1.54983068e+00, -1.75587392e+00, -1.35681224e+00, -2.49264193e+00, -1.94825494e+00,  9.51793075e-01,  1.17754292e+00,
     2.58390832e+00, -1.09625721e+00,  9.77835357e-01,  3.48294750e-02, -4.77521539e-01, -1.27695411e-01,  1.46798599e+00, -1.63581359e+00},
   { 1.04267824e+00, -1.84498274e+00,  1.13310330e-01,  1.96436834e+00,  5.76568544e-01, -1.20820200e+00, -1.90780127e+00,  1.68252218e+00,
     9.94682610e-01, -1.99214578e+00,  6.38079464e-01, -3.11472678e+00, -3.96886289e-01,  2.15348125e+00, -2.24122584e-01, -1.45201826e+00,
     7.75425732e-01,  2.76885509e+00,  1.43301463e+00,  1.79725778e+00,  1.34460223e+00,  3.16381526e+00,  1.73141921e+00, -6.15066111e-01,
    -2.07218385e+00,  1.37199533e+00, -1.13686144e+00,  1.79656482e+00, -4.36021179e-01,  8.56652558e-01, -1.50962353e+00,  1.61062753e+00},
   {-3.03127646e-01,  3.54015422e+00, -8.44824255e-01,  1.44728470e+00, -3.92670244e-01, -5.72252989e+00, -6.47477388e-01,  7.39421189e-01,
    -6.37179554e-01, -1.41647947e+00,  8.45505238e-01, -1.11659563e+00,  3.45932841e-01, -8.37360561e-01, -6.11920416e-01, -1.59870625e-01,
     2.45963240e+00,  1.74686635e+00,  2.78107333e+00,  1.07873464e+00, -6.13466501e-01,  1.46961403e+00,  2.44666886e+00, -1.64683199e+00,
    -8.02733660e-01,  2.23422718e+00,  8.26658010e-01,  1.21225870e+00,  5.95456898e-01,  1.20614534e-02,  4.38481003e-01, -1.75787473e+00},
   {-2.52500272e+00, -7.14116842e-02, -3.40093279e+00, -6.44264758e-01,  2.11659208e-01,  8.40096593e-01,  6.47502661e-01,  1.38851309e+00,
    -1.26084006e+00, -1.15031481e+00, -2.42665544e-01,  2.68008530e-01, -3.08137357e-01,  9.52137232e-01, -6.60445750e-01,  1.76932716e+00,
     2.65612632e-01, -1.28557849e+00, -2.40141582e+00,  3.67808133e-01,  1.96177876e+00,  3.09583068e-01,  1.96501184e+00, -1.81656075e+00,
    -1.89590085e+00, -9.79096964e-02,  2.54907918e+00, -1.09847307e+00, -1.31086275e-01,  2.34357095e+00,  1.88581765e+00,  1.23333204e+00},
   { 2.61989713e+00,  3.85393828e-01,  2.69436073e+00,  2.47109771e-01,  5.79042912e-01,  1.11932385e+00, -8.82330894e-01,  1.97313035e+00,
     9.89924848e-01, -1.11132526e+00,  1.30108261e+00, -2.22470784e+00, -3.63993049e-01,  1.01433623e+00,  9.87386107e-01, -1.46754611e+00,
    -2.35739279e+00, -9.31771696e-01,  6.69813871e-01,  3.47788429e+00, -5.52010894e-01,  2.59559107e+00,  6.63726255e-02,  1.26100278e+00,
    -2.71621704e+00,  1.92321432e+00, -3.39780426e+00,  1.19504189e+00, -9.49524105e-01, -2.42729878e+00, -3.22798997e-01,  1.19860339e+00},
};

// clang-format on


#endif // __FASTRNN_RNN1_PARAMS__

