#ifndef __FASTGRNN_GRNN0_PARAMS__
#define __FASTGRNN_GRNN0_PARAMS__

#define GRNN0_HIDD_DIM0 (32)
#define GRNN0_HIDD_DIM1 (64)

// clang-format off

const float GRNN0_ZETA = (-1.163184e+00);
const float GRNN0_NU = (-5.347691e+00);

const float GRNN0_BIAS_UPDATE[64] = 
   { 1.85699952e+00,  1.20553279e+00,  2.49888992e+00,  5.11462748e-01,  3.02516365e+00,  3.06142044e+00,  6.64881849e+00,  8.96387577e-01,
     5.26542246e-01,  8.20347250e-01,  1.00586343e+00,  1.66848731e+00,  5.56871533e-01,  1.17662978e+00, -8.82539451e-01,  1.17057168e+00,
     2.27827311e+00,  6.46339655e+00,  1.12672222e+00,  5.73508120e+00,  2.61925578e-01,  1.30321264e+00,  1.02198267e+00, -1.07616699e+00,
     4.82566774e-01,  1.46835113e+00,  1.45551193e+00,  1.69239306e+00, -5.43128848e-01,  4.90512431e-01,  1.88037288e+00,  1.67872977e+00,
     1.64787984e+00,  1.89700639e+00,  3.93763566e+00,  4.62305975e+00,  2.05167174e-01,  2.43919873e+00, -3.46879177e-02,  1.95637929e+00,
     8.55822787e-02,  3.16297269e+00,  3.10278296e+00,  1.64407635e+00,  2.49680877e+00,  9.65380847e-01,  1.73357356e+00,  1.33889389e+00,
     8.00552517e-02, -1.74603775e-01,  5.38831912e-02,  5.79939604e-01,  1.63915253e+00,  1.24839890e+00,  2.25952291e+00,  2.52817917e+00,
     8.47325993e+00,  9.21173275e-01,  2.91162461e-01, -7.82023147e-02,  2.10816956e+00,  9.98787045e-01,  1.75436795e+00,  1.57068384e+00};

const float GRNN0_BIAS_GATE[64] = 
   { 1.44889164e+00,  2.53811502e+00,  4.38077658e-01,  1.62731397e+00,  1.22698748e+00, -9.36093390e-01,  2.99199343e+00,  1.41973865e+00,
     5.04924583e+00,  2.54044580e+00,  1.69774070e-01,  2.77312803e+00,  5.21093655e+00,  1.00668764e+00, -1.27184287e-01,  1.55321419e+00,
     7.15861559e-01,  2.00612855e+00,  2.00596499e+00,  1.88020813e+00,  4.17525625e+00,  2.90467453e+00,  2.72261286e+00,  7.01266527e-01,
     1.91107488e+00,  3.48767829e+00,  6.09868348e-01,  3.96887708e+00, -1.08908653e+00,  4.69938427e-01,  4.87406206e+00,  3.38426375e+00,
     2.31482649e+00,  3.69935203e+00,  1.57316136e+00,  1.02080488e+00,  5.22912121e+00,  2.30790567e+00,  3.28649789e-01,  2.64026213e+00,
     1.18617070e+00,  7.66560972e-01,  2.61937594e+00,  2.83754301e+00,  2.88797688e+00,  2.55086517e+00,  2.02432394e+00,  4.15038681e+00,
     2.34611535e+00, -3.11733395e-01,  1.52545917e+00,  2.05468678e+00,  3.31445813e+00,  5.61254215e+00,  2.08094621e+00,  2.45356393e+00,
     3.06752586e+00,  3.63317800e+00,  3.51004195e+00,  1.62757266e+00,  1.37030661e+00,  3.48119664e+00,  3.02879310e+00,  2.24734950e+00};

const float GRNN0_W[64][32] = {
   { 2.09539309e-02,  7.37292290e-01,  3.70995402e-01,  1.28925014e+00, -4.98033464e-01, -1.38588142e+00, -1.29055834e+00, -1.83782950e-01,
     5.16648173e-01, -5.18836677e-01, -1.16143680e+00, -1.47491384e+00,  1.73108593e-01,  1.21652949e+00,  7.67768979e-01,  6.28106594e-01,
     5.34069955e-01,  2.02477306e-01, -4.53846037e-01, -2.95545548e-01,  1.03215277e-02, -5.94024956e-01,  2.72642493e-01, -1.51287779e-01,
    -1.07024148e-01, -4.43058252e-01, -2.53448904e-01,  5.84185161e-02,  2.39847749e-01,  4.06397916e-02, -7.01857030e-01,  1.01645148e+00},
   {-2.26010084e-01,  3.18731904e-01,  7.02660918e-01, -5.91367841e-01, -6.36972070e-01, -5.19613624e-01, -1.09863675e+00, -4.78501052e-01,
     6.50136590e-01,  1.15640819e-01,  1.14411020e+00,  7.80204058e-01,  2.49435112e-01,  4.17309523e-01, -9.68161821e-02, -3.48554075e-01,
    -5.19777596e-01, -4.53662664e-01, -7.04599261e-01, -3.35017778e-02,  5.72540909e-02, -2.49250308e-01, -2.42145330e-01,  2.72592872e-01,
     1.24456644e-01, -1.04796588e-01, -6.57874703e-01,  1.75352737e-01,  8.34542438e-02,  3.36688370e-01,  5.76392449e-02, -1.33449271e-01},
   {-7.32876360e-02,  8.60350430e-02,  5.29187918e-01,  1.28421116e+00,  7.87094951e-01,  4.72188085e-01, -9.70157921e-01, -1.92187679e+00,
    -1.85766757e+00, -9.71524537e-01, -7.60906696e-01, -2.47143298e-01,  7.68719077e-01,  3.29345256e-01, -2.56631106e-01, -1.67983547e-01,
     5.38413405e-01,  4.42412734e-01, -6.49930477e-01,  7.08210096e-02,  5.20728528e-01,  5.76518357e-01, -8.91297758e-02, -2.31106997e-01,
    -3.68916422e-01,  7.28775114e-02,  3.06633234e-01,  2.72581756e-01,  5.03145158e-01,  2.54346430e-01,  3.64349544e-01, -5.83043218e-01},
   {-7.27444768e-01, -1.32863665e+00, -1.06435239e+00, -4.74225640e-01, -7.00371385e-01,  2.80522346e-01,  9.35271561e-01,  8.43641281e-01,
     2.22768769e-01, -5.47230467e-02, -8.82884920e-01, -3.18718314e-01,  7.96970844e-01,  4.60987270e-01, -3.41832817e-01, -1.00367308e-01,
    -5.90172946e-01, -7.01083362e-01, -3.47831607e-01,  1.16081521e-01, -2.71401286e-01,  4.45571207e-02,  5.45129478e-01,  9.42591190e-01,
     1.20645970e-01, -2.72575796e-01,  7.99729407e-01,  1.19543505e+00,  4.40388232e-01, -2.10900009e-01,  3.64365667e-01,  1.15825184e-01},
   {-4.04767931e-01,  4.73971605e-01,  1.59049451e-01,  2.03827143e-01,  4.53087956e-01,  2.05995545e-01, -5.39031625e-02,  2.79681623e-01,
    -4.29366380e-01,  5.88138551e-02, -3.31134498e-01,  1.63985677e-02, -1.19919881e-01,  3.35441262e-01,  9.77878034e-01,  4.79765236e-01,
    -1.03448965e-01,  6.08459592e-01,  2.11425535e-02,  2.20796853e-01,  9.79352117e-01,  3.41079116e-01,  8.32806408e-01,  2.31106669e-01,
    -5.66568196e-01, -1.05689847e+00, -1.08334911e+00, -1.06572711e+00, -7.93980122e-01, -1.16435707e+00, -9.46972847e-01, -1.14030397e+00},
   { 2.00010136e-01,  6.36389315e-01, -2.30582261e+00, -9.93753731e-01, -7.85272062e-01, -9.98158455e-01, -1.49066293e+00, -6.53748870e-01,
    -3.26940507e-01, -3.86217922e-01,  3.95098403e-02, -5.97863436e-01,  1.14022322e-01,  2.30061233e-01, -2.56363660e-01, -5.15088737e-01,
     3.98574173e-01,  1.57795459e-01,  5.65866470e-01,  1.46347880e-01, -2.63275862e-01,  3.89839746e-02, -6.18778050e-01,  4.20495361e-01,
     3.90062928e-01, -1.51394352e-01,  1.19157732e-01, -1.82264030e-01,  3.92907172e-01,  7.96845928e-02, -2.71490306e-01,  1.73368883e+00},
   {-1.31288874e+00, -9.58932221e-01, -4.58475322e-01, -7.12656915e-01, -7.70807490e-02,  8.48762333e-01,  5.98474562e-01, -3.86400342e-01,
    -1.81083798e-01,  1.63300693e-01, -1.04693139e+00, -1.19565737e+00, -1.34982300e+00, -1.91909224e-01,  5.36836445e-01,  6.85936868e-01,
     4.74761017e-02, -3.97017151e-01, -6.89484850e-02,  4.61295813e-01,  5.57150066e-01,  1.89367622e-01,  5.47337756e-02,  1.22279145e-01,
     1.07528269e+00, -3.78549844e-02, -1.81666657e-01,  3.01702052e-01,  6.36839032e-01,  3.94690394e-01,  2.74596125e-01,  5.60757101e-01},
   {-4.81224954e-01, -2.01367274e-01, -1.66989946e+00, -1.36067104e+00, -1.82108068e+00, -8.73045683e-01, -7.91098416e-01,  7.20740616e-01,
     8.50737274e-01,  3.01543057e-01,  1.53798619e-02, -1.21994033e-01,  4.51275080e-01,  3.01954150e-01,  5.55669785e-01,  6.73454940e-01,
     6.47795558e-01, -3.76729071e-01,  2.96170264e-01,  5.97275376e-01, -2.29748890e-01,  4.41617444e-02,  2.50843078e-01, -6.78664967e-02,
    -3.12808007e-01,  4.66586687e-02,  1.85113519e-01, -2.87125669e-02,  1.70066372e-01, -3.09352316e-02, -2.57134080e-01,  1.56891301e-01},
   {-1.90568432e-01,  1.08648229e+00, -1.16073799e+00, -8.46840441e-01, -1.07071722e+00, -1.43389881e+00, -4.23124075e-01,  6.73881114e-01,
     1.37800109e+00,  3.09329659e-01, -3.94927621e-01, -7.28664637e-01,  5.01019299e-01, -5.42484503e-03, -5.03669977e-01, -3.65931123e-01,
     6.13573074e-01,  4.30485278e-01,  1.11633027e+00,  8.36735129e-01, -4.90166008e-01, -3.70649993e-01,  6.13273740e-01,  4.81913120e-01,
    -5.84129095e-01, -9.73698646e-02, -3.60441625e-01,  3.59793939e-02,  2.25414142e-01, -4.44459349e-01, -1.47012085e-01,  2.87450880e-01},
   { 4.02247101e-01,  3.42713892e-01,  1.75724775e-01,  5.46943486e-01,  1.15787446e-01, -1.09971738e+00, -1.43416846e+00, -1.16642010e+00,
    -2.01751724e-01,  4.14725214e-01,  1.21753299e+00,  9.90607917e-01, -5.98187268e-01, -2.43888929e-01,  2.80065119e-01, -3.84153962e-01,
     6.93553627e-01,  1.31886256e+00,  1.87705867e-02, -1.14116454e+00, -4.32253808e-01, -9.29740965e-02,  1.19700402e-01, -3.81077915e-01,
    -1.10883427e+00, -2.89765686e-01, -2.29503885e-01, -3.88804436e-01, -4.26202416e-01, -3.19907442e-02, -1.45093903e-01,  6.93320274e-01},
   { 1.23560727e-01, -8.06796372e-01, -1.08999002e+00, -1.94681489e+00, -2.08519205e-01,  5.41710913e-01,  1.63246477e+00,  1.48618722e+00,
     5.35231471e-01,  7.94116974e-01,  1.45800245e+00,  4.56449687e-01, -6.02709711e-01, -8.61082315e-01,  1.48641681e-02,  6.24754429e-01,
     9.92093861e-01,  5.24381101e-02, -1.54409409e-01, -1.65487364e-01, -1.03975332e+00,  3.93115044e-01,  1.53962815e+00,  9.54535186e-01,
     2.11705845e-02, -5.92487454e-01,  4.66459274e-01,  5.69941759e-01,  2.96246469e-01,  4.03315634e-01,  1.85996398e-01, -5.46653152e-01},
   { 1.92768559e-01,  1.73827767e-01,  6.37351334e-01, -5.06814778e-01, -1.08256364e+00, -1.32799160e+00, -2.85195053e-01,  1.01854038e+00,
     4.92315739e-01,  7.64153600e-01,  1.36991441e+00,  1.05713820e+00,  9.05944221e-03, -1.08095729e+00, -1.14950085e+00, -7.23896205e-01,
    -4.22098428e-01, -3.90111327e-01,  3.09462875e-01,  1.35422409e-01, -1.52666986e-01,  8.34809430e-03,  6.83896095e-02,  3.22717428e-01,
    -6.83881521e-01, -4.16509718e-01,  1.29871607e+00,  8.74580443e-01,  5.10095417e-01,  3.65826100e-01, -3.17616701e-01,  5.54129064e-01},
   { 7.13346750e-02,  7.61521578e-01,  4.76954550e-01, -1.95767120e-01,  3.79314646e-03, -5.59928954e-01, -4.61047441e-02, -1.17600448e-01,
    -2.48505592e-01,  2.38225032e-02, -9.84718680e-01, -9.80491102e-01,  3.82755756e-01,  1.48425981e-01, -5.16132414e-01, -1.06580579e+00,
    -1.26171780e+00,  3.10683390e-04,  4.49007392e-01, -6.25087440e-01,  2.49380246e-01,  8.46961737e-01, -9.08347130e-01, -1.03838038e+00,
    -1.68713242e-01, -9.00798082e-01, -5.43974996e-01, -2.27053240e-01, -1.22955805e-02,  2.08585396e-01, -6.54140040e-02, -6.16298854e-01},
   {-4.04467463e-01, -6.03973746e-01,  3.67457300e-01,  7.57650435e-01,  8.55201006e-01,  9.90618885e-01,  7.53880262e-01,  6.42860055e-01,
     4.88744199e-01,  5.29720724e-01,  6.60166621e-01,  9.82174873e-02, -2.79454798e-01,  6.65683210e-01,  1.45937741e+00,  1.35571525e-01,
    -3.74180973e-01, -6.02691285e-02, -5.24355888e-01, -9.51846182e-01,  4.98866051e-01,  5.77480257e-01, -1.47370219e-01, -8.79049525e-02,
    -2.28981793e-01, -4.30325791e-02, -4.81546596e-02, -1.20490836e-02, -1.88125432e-01,  5.70378751e-02, -6.88863546e-02, -4.94255602e-01},
   { 4.32593793e-01,  8.14135015e-01,  2.19257402e+00,  7.97381401e-01,  5.25310934e-01, -5.27867436e-01, -4.06521827e-01, -1.02195930e+00,
    -1.30982399e+00, -1.06528848e-01,  7.69565284e-01,  8.88089180e-01, -1.05055526e-01,  9.20430243e-01,  8.25525820e-01,  4.02233362e-01,
     7.97024965e-02, -3.98495823e-01,  3.63022804e-01,  1.96872413e-01,  4.44234401e-01,  3.00555408e-01,  2.41996907e-02,  1.28447250e-01,
    -3.28364044e-01, -1.51515648e-01,  6.52590930e-01,  6.44950420e-02,  1.82632357e-01,  2.31366724e-01, -2.48214677e-02, -8.86745691e-01},
   {-3.31069231e-01, -1.01559870e-01,  1.24122167e+00,  8.14488471e-01, -1.51376516e-01,  3.54061574e-02, -5.16257398e-02, -2.63877600e-01,
     4.27375823e-01, -2.98856497e-02, -3.22040543e-02,  3.58332992e-01, -1.97342932e-02, -9.62196946e-01, -3.17861997e-02,  4.41755176e-01,
     4.17413116e-01, -4.48081583e-01, -4.12515104e-01,  8.90083611e-01,  6.09192610e-01, -2.77749389e-01,  3.44588190e-01, -1.99398816e-01,
    -2.15146616e-01, -2.38515258e-01, -7.90651381e-01, -9.51684639e-02, -1.83907732e-01, -3.51309717e-01,  5.31181619e-02,  4.20419604e-01},
   {-2.99531639e-01,  3.38380113e-02,  2.02401251e-01,  7.29777962e-02,  1.05525896e-01, -3.38350862e-01, -1.18177199e+00, -4.58397597e-01,
    -2.94103086e-01, -3.87415141e-01, -7.56111503e-01, -1.47073722e+00, -2.17611694e+00, -1.36181152e+00,  3.59900177e-01,  5.78480005e-01,
     1.48255920e+00,  7.35943794e-01,  9.60926533e-01,  5.17015338e-01,  2.86917895e-01, -3.23687881e-01,  5.29795766e-01,  3.22628170e-02,
     3.60250175e-02,  3.11940223e-01,  3.21720809e-01,  1.16899133e-01,  5.01595378e-01, -3.34768176e-01, -1.00537546e-01,  5.96833229e-01},
   { 7.39709020e-01,  1.84778526e-01,  1.10535514e+00,  7.31521964e-01,  2.40871459e-01,  7.11856961e-01, -1.16162345e-01,  4.85958785e-01,
     8.42066765e-01,  2.42527246e-01,  5.63585281e-01,  3.70950103e-02, -3.25459272e-01, -8.57585967e-01, -1.14742553e+00, -4.03030127e-01,
    -4.99438226e-01, -7.35817194e-01, -5.39891243e-01, -2.36142948e-01,  5.42627990e-01,  5.80280781e-01,  3.53494525e-01,  1.66913375e-01,
     1.38201103e-01,  1.67882025e-01, -3.39369237e-01, -4.51563507e-01, -1.17535278e-01, -1.02628835e-01, -4.33328480e-01, -1.39546478e+00},
   { 3.23799759e-01, -3.53413343e-01,  4.64420825e-01, -8.37337077e-02, -6.16159178e-02,  2.70730287e-01, -6.63424492e-01, -7.93205619e-01,
    -4.50688489e-02,  4.90976989e-01,  1.57633269e+00,  6.38563573e-01, -2.43833184e-01, -2.98263162e-01, -5.51479816e-01, -3.70527118e-01,
    -7.53866017e-01, -1.22933006e+00, -5.63708901e-01, -3.36961359e-01, -6.02149144e-02,  4.60046619e-01,  1.07379265e-01,  4.60732549e-01,
     5.51354408e-01, -4.61114198e-01, -9.84413773e-02,  4.80492741e-01, -1.09813184e-01, -9.36495066e-02, -2.09968820e-01,  2.10932121e-02},
   { 3.99226248e-01, -8.69744062e-01, -4.87478852e-01,  1.53771967e-01, -6.88814819e-02,  1.37208015e-01, -2.50001132e-01,  3.36128831e-01,
     6.31596386e-01,  2.81665415e-01,  4.82497633e-01,  5.17071128e-01,  9.29453790e-01,  1.64196241e+00,  1.13865805e+00,  3.18779171e-01,
    -5.10636449e-01, -5.59636474e-01, -3.71686071e-01, -3.32892849e-03,  4.31216031e-01, -3.11588109e-01,  4.67805713e-02,  1.94870997e-02,
    -1.63508594e-01, -5.98660827e-01, -4.36839849e-01, -2.40612000e-01, -3.18998754e-01, -1.55424729e-01, -1.18037336e-01, -2.47805372e-01},
   { 3.88362668e-02, -4.33400691e-01,  3.78471315e-01, -3.59268129e-01,  1.46642989e-02,  3.53224844e-01,  5.85590780e-01,  6.96077526e-01,
     5.13757348e-01,  1.06410146e+00,  7.64507830e-01,  8.78221571e-01, -3.64636332e-01, -2.47408614e-01, -1.65057793e-01,  1.05203331e-01,
    -1.62764758e-01, -4.18660969e-01, -3.95977378e-01, -5.77281296e-01, -5.93248308e-01, -7.64040947e-01, -3.00769120e-01,  6.35628641e-01,
     9.68819261e-01,  8.42238426e-01,  3.97738993e-01, -8.63456056e-02,  3.90725248e-02, -2.36583248e-01, -5.19230843e-01, -7.32457563e-02},
   {-2.51190923e-02, -6.84789538e-01,  4.07364428e-01,  1.10227084e+00,  8.63022268e-01,  6.80300474e-01,  7.44169176e-01,  7.24475265e-01,
     7.59547174e-01,  6.41498804e-01,  2.02890843e-01,  1.04254052e-01,  4.92747337e-01,  4.34170485e-01,  4.29936141e-01, -4.53084767e-01,
    -1.71657813e+00, -3.71783227e-01, -1.18744913e-02, -2.36685187e-01,  5.59505343e-01,  4.06181738e-02, -1.39689595e-01, -2.57699698e-01,
     1.05363816e-01, -1.62992775e-01, -2.42773101e-01,  2.98051327e-01, -3.75095159e-01, -4.86909956e-01,  1.29808828e-01, -8.16170335e-01},
   { 2.77544320e-01, -5.98793685e-01,  2.58045882e-01,  1.49338752e-01, -4.66778651e-02, -1.18981218e+00, -1.65043843e+00, -1.14248681e+00,
     6.84199706e-02,  8.83106530e-01,  1.00905728e+00,  8.57127726e-01,  4.41665798e-01,  5.57325371e-02, -1.90719049e-02, -2.99157530e-01,
    -4.15347248e-01,  2.31808141e-01,  1.23364128e-01, -5.57777107e-01, -3.31106305e-01, -6.19640350e-02, -6.14487305e-02, -3.68837565e-01,
     1.45817503e-01, -3.20107788e-01, -1.31594583e-01, -1.63284197e-01, -1.27412781e-01, -5.53488396e-02,  1.19415157e-01, -5.01107909e-02},
   {-1.54839981e+00, -9.27630246e-01,  6.33118078e-02, -7.09985644e-02, -2.45081007e-01,  4.17210400e-01,  1.03606045e+00,  1.24324071e+00,
     4.88829345e-01,  5.36053002e-01, -4.20238584e-01, -1.15613627e+00,  4.31470722e-01, -1.62838578e-01,  3.43445957e-01, -2.24277377e-01,
     2.29569063e-01,  6.65645659e-01,  2.47999430e-01,  5.65840900e-01, -4.68119830e-02, -2.75765181e-01, -1.72425464e-01,  1.71777934e-01,
     2.67651379e-01,  2.51096368e-01,  9.41668153e-01,  5.66800714e-01,  1.82821333e-01,  1.07688308e+00,  9.64771092e-01,  1.61374167e-01},
   { 1.11660235e-01, -7.16365874e-02,  1.62586316e-01, -1.48604870e-01, -2.95097530e-01, -7.25853622e-01, -8.72219354e-02,  4.78296727e-01,
     7.32113719e-01,  6.82436883e-01,  2.92249233e-01,  5.18760979e-01,  5.21818221e-01,  7.09984004e-01,  1.07957387e+00,  2.66709596e-01,
     1.14686869e-01,  6.90978318e-02,  5.92828155e-01,  1.01199579e+00, -7.39882886e-01, -8.04591060e-01, -6.71483502e-02, -3.83982807e-01,
    -1.46928036e+00, -7.86150277e-01, -2.84484655e-01,  3.51525754e-01,  4.68432456e-02,  4.42700118e-01,  5.14041960e-01, -2.88010240e-01},
   {-9.87987593e-02,  2.19402045e-01, -6.97413385e-02,  5.47336936e-01, -8.92674178e-03, -2.89785713e-01, -4.11930740e-01,  1.28056690e-01,
     1.58656865e-01, -1.34960139e+00, -1.50238883e+00, -1.19375992e+00,  5.32437623e-01,  1.93685293e+00,  1.19573891e+00,  1.37447464e+00,
     1.15588105e+00,  4.42709923e-01, -4.35246080e-01, -4.57614630e-01, -8.99406016e-01, -1.02931762e+00, -2.33309075e-01, -2.83782363e-01,
    -2.98720568e-01, -1.21084504e-01, -9.97654870e-02, -1.44118205e-01,  2.38626808e-01,  3.61646414e-01, -2.02721402e-01,  2.48717934e-01},
   { 1.45076320e-01, -1.91251338e-01, -1.19359481e+00, -1.46022177e+00, -1.32490969e+00, -4.98686403e-01, -6.92187324e-02,  6.52279556e-01,
     1.00948048e+00,  2.47808278e-01,  5.27141452e-01,  3.02785039e-01,  7.75400400e-01,  5.28870523e-01,  1.64143503e-01,  2.97843874e-01,
     6.59103841e-02, -8.78510833e-01, -2.16160417e-01, -9.08122957e-03, -9.02994931e-01, -4.05697733e-01, -4.95490313e-01,  1.78710207e-01,
    -3.68432343e-01, -3.28943461e-01,  5.27111255e-03, -2.09857285e-01, -9.13558006e-02,  1.15542665e-01, -4.20914777e-02,  1.55844212e-01},
   { 7.99251914e-01, -6.21916831e-01, -6.64792597e-01, -2.36444801e-01,  1.29412621e-01,  7.04421222e-01,  6.31168306e-01, -4.59681273e-01,
    -9.70809639e-01, -5.53044140e-01,  7.41560161e-01,  9.83598650e-01, -1.85194314e+00, -2.28925204e+00, -7.41138577e-01,  9.43077505e-02,
     6.06903017e-01,  4.55718815e-01,  8.30056846e-01,  9.38249901e-02, -1.81142986e-01, -3.07234406e-01, -2.09584907e-02,  1.96054563e-01,
     5.72834425e-02, -1.84784189e-01,  4.98031318e-01, -3.64809573e-01,  2.24907085e-01, -2.75011986e-01, -1.12101398e-01,  1.11450016e-01},
   {-3.24680805e-02, -6.70226067e-02,  2.03729913e-01, -1.22874188e+00,  4.77000959e-02,  1.13721335e+00,  1.17813981e+00,  9.85484347e-02,
    -2.65983284e-01, -2.78203964e-01, -4.83426154e-02, -7.98457801e-01, -7.26750731e-01,  1.35080948e-01,  1.38729662e-01,  2.29731023e-01,
    -1.39287516e-01, -3.25850844e-01,  5.73972523e-01,  5.64461589e-01,  1.23664171e-01,  3.72341812e-01, -5.64486049e-02,  3.41026634e-01,
     3.02511126e-01,  5.36168456e-01,  2.55131394e-01,  5.73700726e-01,  2.47624218e-01,  6.92373335e-01,  5.13001025e-01,  4.36809212e-01},
   { 4.31450009e-01,  3.05506974e-01, -4.01096284e-01, -1.31535828e-01,  8.29856619e-02,  5.45441687e-01,  1.62236202e+00,  7.96489775e-01,
     5.29638566e-02, -1.11772843e-01, -1.07713485e+00, -1.18736243e+00, -7.45156527e-01, -3.36837828e-01,  1.28901467e-01,  3.46033216e-01,
     1.78782955e-01, -3.27466697e-01,  1.08111948e-01, -2.27289796e-02, -2.70233661e-01, -4.78304088e-01, -1.94681033e-01, -2.44372681e-01,
     6.06948510e-02, -1.94356263e-01, -8.58090460e-01, -2.99942583e-01, -5.79544306e-01, -5.93321621e-01, -2.58832723e-01,  2.11625919e-01},
   { 1.52073368e-01,  1.37364849e-01,  9.75572228e-01,  3.41046154e-01, -2.22392023e-01, -6.55676663e-01, -1.25528479e+00, -2.32971191e-01,
     9.12740648e-01,  8.48527670e-01,  8.37777913e-01, -9.53434587e-01, -1.00040579e+00, -8.32992375e-01, -5.94253063e-01, -8.59400392e-01,
    -1.48572659e+00, -1.39043903e+00,  7.57003605e-01,  1.62765276e+00,  5.99866152e-01,  7.18876362e-01,  3.94551814e-01,  1.74693513e+00,
     3.31268758e-01,  3.95687908e-01,  5.40754259e-01,  2.36309946e-01,  8.41464877e-01, -2.46931419e-01, -3.86697352e-01, -1.17874360e+00},
   { 1.30364269e-01,  1.17955953e-01,  1.23457707e-01,  3.79619718e-01, -1.45863727e-01,  6.01757579e-02,  7.83289671e-01,  2.74100602e-01,
    -1.60123512e-01,  4.38938215e-02, -1.55199260e-01, -4.24569339e-01, -4.47836518e-01, -1.74133703e-01,  3.65051568e-01, -5.34298606e-02,
     1.61860928e-01,  6.25250399e-01,  3.68297011e-01,  1.66194469e-01,  2.91519076e-01, -9.28392783e-02, -5.66972256e-01, -9.44560945e-01,
    -2.44821429e-01, -2.03790784e-01, -3.91114242e-02, -6.11237347e-01, -7.33793497e-01, -5.07464588e-01,  1.82912741e-02,  2.89340496e-01},
   { 2.91196227e-01,  4.41640764e-01,  9.17438865e-01,  1.32827783e+00,  9.44981992e-01,  1.85750276e-01, -2.35276848e-01, -1.63380039e+00,
    -1.23919773e+00, -2.69077867e-01, -2.81178534e-01,  1.44381806e-01, -3.79246869e-03, -6.09813154e-01, -1.14635038e+00, -1.26855862e+00,
    -1.21861589e+00,  5.11057936e-02,  4.49522257e-01, -6.54409230e-01, -3.72588575e-01,  3.86992663e-01,  2.20810592e-01,  1.78331539e-01,
    -3.85388702e-01, -8.75266045e-02,  8.97193402e-02, -3.09305489e-01,  3.77888560e-01, -1.54818771e-02, -6.79556489e-01, -7.95113072e-02},
   { 1.15237042e-01, -3.54648411e-01, -1.98002130e-01, -5.19141197e-01, -8.70670021e-01, -2.18259305e-01,  2.07542837e-01,  4.36976194e-01,
    -7.63252601e-02,  4.08929847e-02,  5.20917594e-01,  2.14562088e-01, -4.10085768e-01, -2.18937192e-02,  5.20244360e-01, -2.54286714e-02,
     9.31846678e-01,  4.61841702e-01, -8.51534367e-01, -6.12364233e-01,  4.14971590e-01,  1.07059501e-01, -5.02580702e-01, -4.57225621e-01,
    -2.27144480e-01, -1.40986264e-01, -3.49011958e-01, -5.09770989e-01,  1.57416672e-01, -1.21397480e-01, -4.53834444e-01, -5.66507518e-01},
   {-9.06395838e-02,  1.32036400e+00, -6.40031278e-01, -2.34406479e-02, -1.83744691e-02, -6.00381732e-01, -7.18807220e-01, -6.72235429e-01,
    -3.38760614e-01, -7.93460310e-01, -6.76368594e-01,  2.19989315e-01,  6.97474122e-01,  9.77844000e-01,  1.16165853e+00,  3.77095819e-01,
     9.67812359e-01,  1.65670300e+00,  9.81759310e-01, -5.61893702e-01, -8.68025064e-01, -1.65447310e-01,  2.39407182e-01, -3.19256969e-02,
    -8.85660276e-02,  7.17262477e-02, -6.67208493e-01, -4.91315126e-02, -1.21752016e-01, -1.18861400e-01, -5.17143667e-01, -2.92620271e-01},
   {-2.78299779e-01, -1.93325475e-01,  9.04595405e-02, -7.60712802e-01, -2.20859244e-01, -3.72257173e-01, -3.14956039e-01, -3.41241360e-01,
     1.77975565e-01,  8.05180132e-01,  9.72477719e-02,  2.78281003e-01,  4.02344048e-01, -1.37946039e-01, -6.76750422e-01, -5.62099755e-01,
    -4.75814611e-01,  4.25545499e-02,  1.31496727e+00,  6.16100430e-01, -3.98243546e-01, -5.12684643e-01,  2.06483185e-01,  2.74386078e-01,
     5.18573523e-01,  1.01915324e+00,  1.53875244e+00,  5.10470152e-01,  2.89004654e-01,  1.10147750e+00,  5.42583168e-01,  4.40517724e-01},
   { 3.64278644e-01,  4.75295126e-01,  3.94667611e-02,  1.35785353e+00,  9.58666027e-01, -5.99448383e-01, -1.40071225e+00, -2.01937914e+00,
    -1.10627568e+00, -1.84485987e-01,  1.83381572e-01,  8.23500156e-01,  1.24080062e+00,  8.33892643e-01,  1.23549499e-01, -1.11090660e+00,
    -6.97082698e-01,  1.34148049e+00,  4.76208746e-01, -5.19055665e-01, -6.38829291e-01,  3.09700787e-01,  5.35511613e-01, -2.61479825e-01,
    -6.46690965e-01, -6.74052536e-01, -7.30187744e-02, -2.73466587e-01, -4.57240120e-02,  6.90086558e-02, -3.56319547e-01,  7.05651939e-01},
   { 6.33078039e-01, -6.56591356e-01, -1.47694957e+00, -2.97825724e-01,  1.30926132e+00,  1.48544860e+00,  1.99330187e+00,  1.51645660e-01,
    -2.08223224e+00, -1.76140344e+00, -1.08655608e+00, -6.38313368e-02, -7.47782826e-01, -2.37305835e-01, -2.65169263e-01, -1.87705025e-01,
     4.40034240e-01,  5.47629893e-01, -3.77711117e-01, -6.75226688e-01, -1.71166554e-01,  3.30200523e-01, -9.27857906e-02, -7.37491623e-02,
     6.29277050e-01, -3.28572780e-01,  4.88461256e-02, -2.57384647e-02,  3.79325777e-01,  2.13136494e-01, -6.78116381e-01,  6.74837232e-01},
   {-1.39919207e-01,  6.95151985e-01,  2.57694221e+00, -2.94212420e-02, -5.16972125e-01, -3.36500823e-01, -3.23753238e-01,  6.88373297e-02,
     2.43161216e-01,  1.56459823e-01, -4.93726611e-01,  4.71846104e-01,  6.42894730e-02, -3.07196051e-01, -2.89009750e-01, -3.06659967e-01,
    -9.04762566e-01,  2.19230093e-02,  2.33313758e-02, -1.53464414e-02,  5.93276806e-02, -4.43520755e-01, -3.64771366e-01, -5.87163627e-01,
    -1.72192082e-01,  2.53048360e-01, -2.04547241e-01, -6.35510504e-01, -9.08023477e-01,  2.88778216e-01,  1.44562781e-01, -5.92403114e-01},
   {-2.67296076e-01, -3.52940708e-01,  2.36082643e-01,  3.45651448e-01,  1.30899251e-02,  6.35315478e-01,  3.90456378e-01, -2.50341177e-01,
     6.86658472e-02, -4.46810603e-01, -1.91894230e-02,  2.98586607e-01,  1.38882267e+00,  1.97076619e+00,  6.68594480e-01, -8.64650488e-01,
    -1.77058649e+00, -1.57483864e+00, -1.28397572e+00, -5.59744895e-01, -1.35274203e-02,  2.75344223e-01, -2.66755372e-01,  2.81999409e-01,
     5.02079606e-01, -1.25953823e-01,  3.61921251e-01,  3.20084631e-01, -5.88859320e-01,  1.50364354e-01,  5.13146341e-01,  9.25426781e-02},
   { 1.45439357e-01, -1.68569461e-02,  3.11999202e-01, -7.99342766e-02, -4.91711974e-01, -7.89161026e-01, -7.95859337e-01, -5.83486035e-02,
     1.05874622e+00,  6.92756116e-01,  3.31598490e-01, -3.68707895e-01, -1.34418106e+00, -1.34103489e+00, -1.00477564e+00, -6.36068523e-01,
     5.39363921e-01,  1.01541162e+00,  9.16332364e-01,  2.60359794e-01, -1.96153075e-02, -1.05952300e-01,  8.74732912e-01,  9.16783586e-02,
    -6.23047471e-01, -1.16294473e-02,  5.78362525e-01, -1.05485670e-01,  4.61734951e-01,  8.66674930e-02,  1.46119654e-01,  1.12159707e-01},
   { 2.83380538e-01,  5.11412978e-01, -1.08229184e+00, -2.56720036e-01, -3.44025612e-01, -3.91143352e-01, -9.09409344e-01, -6.97496533e-01,
    -5.00930905e-01, -7.58475244e-01, -1.03047334e-01, -3.87337059e-01, -7.11643159e-01, -1.04378700e-01, -1.32844165e-01,  4.60718662e-01,
     8.86466384e-01,  7.01966286e-01, -4.48440433e-01, -1.00986457e+00, -6.54555619e-01, -2.37749144e-01, -6.29402339e-01, -5.67252755e-01,
     2.40868591e-02,  1.06972717e-01,  2.37169832e-01, -1.23372851e-02,  6.96703270e-02,  3.43209326e-01,  2.44813748e-02,  7.74975538e-01},
   {-2.40840539e-01, -1.63024616e+00, -1.86941087e+00, -2.15506911e+00, -1.06051341e-01,  9.77848649e-01,  1.29995143e+00,  7.27876306e-01,
     1.08852565e+00,  4.03880745e-01,  3.56110007e-01,  6.51296437e-01,  3.03123713e-01,  3.23338002e-01,  8.15755963e-01,  1.48798108e-01,
    -1.96357206e-01, -1.47856280e-01,  2.76296228e-01,  1.19751966e+00,  3.98969889e-01, -7.76010334e-01, -1.25370339e-01,  4.90242571e-01,
     4.14591491e-01,  8.74592960e-02, -1.31784230e-01,  4.89370555e-01, -1.49363175e-01,  2.77621806e-01, -2.22611561e-01, -8.60993743e-01},
   { 1.32629812e-01,  6.44422472e-01, -8.30737352e-01, -1.87764847e+00, -1.36079240e+00, -1.80509925e+00,  8.86631310e-02,  2.38939738e+00,
     1.02634931e+00, -2.32480243e-01,  6.89524710e-01,  6.00988388e-01, -4.18411851e-01,  3.90911639e-01,  6.90728247e-01,  4.72554266e-01,
     3.64004612e-01,  1.67848289e-01, -3.49826634e-01, -5.46310306e-01, -6.61935449e-01,  1.12383757e-02, -4.93854880e-01, -4.19910908e-01,
    -4.77465928e-01, -3.27762872e-01,  1.88178495e-01,  4.97848719e-01, -3.52488071e-01, -1.50400370e-01, -3.63156319e-01,  4.76177037e-01},
   { 1.79128081e-01,  1.01516283e+00, -7.75690973e-01,  3.86210263e-01,  1.34300023e-01, -8.24905396e-01, -1.08121896e+00, -1.33963084e+00,
    -4.11440998e-01, -2.91882843e-01,  1.03052163e+00,  1.10956669e+00, -4.64870930e-01, -7.77232289e-01, -8.77891123e-01, -1.44088244e+00,
    -1.22857618e+00,  1.26266003e-01,  5.99348366e-01,  4.13057953e-01, -4.69506025e-01, -2.61306673e-01,  3.39256115e-02,  4.10777420e-01,
    -5.58409274e-01, -4.64515060e-01,  4.41781014e-01,  1.84972435e-01,  2.35420480e-01,  2.91428655e-01, -2.86636986e-02,  1.19105291e+00},
   {-8.14034939e-01, -3.03666573e-02,  6.22545302e-01,  6.52411103e-01, -3.64560783e-01, -8.31020772e-01, -1.22339606e+00,  5.64795196e-01,
     7.66399086e-01,  1.64386048e-03, -1.82661995e-01,  6.52774990e-01,  1.72318566e+00,  1.49763548e+00,  1.12599957e+00,  6.06464028e-01,
    -3.73511106e-01, -6.45231783e-01, -7.95791447e-01, -3.65888685e-01, -3.34560215e-01, -7.16428518e-01, -1.14284480e+00, -7.71789253e-01,
     7.19392896e-02, -1.54927358e-01,  1.34420335e-01,  1.70606047e-01,  4.80678417e-02,  1.71574295e-01, -2.67643005e-01, -6.70103952e-02},
   { 6.32907391e-01,  6.63556159e-01,  5.39020956e-01,  2.13215292e-01,  2.25168571e-01, -8.34095627e-02, -7.21576631e-01,  2.94541299e-01,
     8.83352399e-01,  9.84626234e-01, -4.39884245e-01, -8.76369700e-02,  8.69968534e-01,  1.71559727e+00,  1.28498578e+00,  4.15646940e-01,
    -4.92456645e-01,  5.25736153e-01,  5.58047235e-01,  2.74221987e-01,  6.05546385e-02, -2.87847340e-01, -3.10007453e-01, -9.92632687e-01,
    -6.30934894e-01, -9.66786444e-01, -7.11384833e-01, -1.43182516e+00, -8.05404842e-01, -7.80075967e-01, -4.85509217e-01, -1.06049073e+00},
   { 5.00952482e-01, -8.57927680e-01, -7.71282554e-01, -4.64783400e-01,  1.84632778e-01,  3.31020087e-01,  2.37052158e-01, -2.99579024e-01,
    -8.10654402e-01,  3.96186441e-01,  4.92630035e-01,  1.72859177e-01, -1.32458103e+00, -6.21672034e-01,  6.19235218e-01,  2.39258885e-01,
     2.71741152e-01,  5.51670194e-01,  9.89984393e-01,  3.50546330e-01,  2.98998863e-01,  1.63463801e-01, -2.90976241e-02, -9.84812230e-02,
     2.74680436e-01,  5.64951375e-02, -2.31930673e-01, -5.07066786e-01, -1.70792907e-01, -6.53972149e-01, -3.30993086e-01, -5.78032136e-01},
   {-2.21873373e-01,  3.06754857e-01,  7.41721511e-01,  9.31271613e-01,  2.64938653e-01,  4.39948380e-01,  7.89539933e-01,  1.14420676e+00,
    -2.05337495e-01,  4.11741912e-01,  1.08963299e+00, -1.57218501e-01, -6.74151909e-03,  5.98691642e-01, -8.43376592e-02, -2.05572069e-01,
    -2.23825678e-01,  2.79837132e-01,  1.07862003e-01,  1.47687510e-01, -4.28989947e-01,  4.29846227e-01,  1.02060163e+00,  7.86196232e-01,
    -5.45945987e-02, -1.52152181e-01,  2.80933946e-01,  1.18527246e+00,  7.55887210e-01,  4.56234723e-01,  1.14300776e+00,  8.51313889e-01},
   {-3.29014152e-01, -7.08192885e-01,  4.85474944e-01,  1.76643088e-01,  8.49376857e-01,  9.00240302e-01,  4.90946025e-01,  3.31628442e-01,
     1.05409056e-01,  5.82250766e-02,  7.51962066e-02, -9.36937153e-01, -7.18777895e-01,  4.96590734e-01,  2.27303028e-01,  5.45738995e-01,
     2.78794259e-01, -5.00616692e-02,  7.24367917e-01,  6.44317985e-01,  5.70304453e-01,  1.05841726e-01, -7.06516683e-01,  9.20892596e-01,
     7.94128001e-01,  9.79961753e-01,  6.01116657e-01,  3.75919431e-01,  7.26264179e-01,  4.79232043e-01,  1.41940359e-02, -7.68351555e-01},
   {-3.70303422e-01, -4.18087214e-01,  1.09546483e+00,  4.52554375e-01, -7.58280277e-01,  4.19884473e-01,  1.01989937e+00,  4.80693758e-01,
     2.23643258e-01,  4.66637075e-01,  6.36410058e-01, -7.34028697e-01, -8.12017381e-01, -1.52500659e-01,  5.80252528e-01, -9.15836915e-02,
     1.77383557e-01,  1.12213716e-01,  8.25632155e-01,  6.21955633e-01,  6.20968752e-02,  5.94419479e-01,  5.23244798e-01,  1.83109790e-01,
    -5.25111929e-02, -3.76553237e-02,  5.46849668e-01,  3.50059807e-01, -1.71967283e-01,  9.16682333e-02,  8.15158963e-01,  1.39863646e+00},
   {-2.22625464e-01,  4.75481212e-01, -5.30532956e-01, -3.35703075e-01, -1.14577150e+00, -2.13894653e+00, -3.01706386e+00, -7.09251523e-01,
     1.39874244e+00,  1.01630437e+00,  7.08880663e-01,  8.31200331e-02,  5.42631805e-01,  3.26447099e-01, -2.87410468e-01,  2.23886117e-01,
     2.98510253e-01,  2.22156152e-01,  2.39114225e-01,  2.86033332e-01, -3.17365468e-01, -1.37457356e-01,  5.29157162e-01,  2.10834488e-01,
    -7.80493319e-01,  1.03199773e-01,  4.43691611e-01,  1.39978215e-01,  2.35520303e-01,  1.71660244e-01, -8.51001143e-02,  9.37406868e-02},
   { 2.61982173e-01,  1.87384516e-01, -2.84048676e-01, -4.94181544e-01, -9.34798062e-01, -9.64692235e-01, -9.54608798e-01,  5.99472404e-01,
     1.27425766e+00,  1.19910443e+00,  1.26682258e+00,  3.30957681e-01, -1.33971438e-01,  4.84843701e-01,  6.89110935e-01,  8.13599348e-01,
    -5.67780137e-01, -1.82548499e+00, -1.08777595e+00, -5.80043674e-01, -1.03124428e+00, -2.36284629e-01,  1.86840057e-01,  9.31847632e-01,
     6.22724295e-01, -4.07211453e-01, -3.64851624e-01,  2.27317587e-01, -4.76389974e-02,  2.37395644e-01, -4.66872334e-01,  3.03906858e-01},
   { 3.60014975e-01, -2.65662044e-01, -1.37447610e-01, -1.06501199e-01, -8.85389969e-02, -1.78204268e-01,  1.25559643e-01, -3.73116098e-02,
     1.35120466e-01,  9.93332118e-02, -3.91773462e-01, -7.19054997e-01, -4.91000235e-01,  2.28091851e-01,  2.88900077e-01,  5.14157265e-02,
    -1.32714450e+00, -1.52059686e+00, -4.63061512e-01,  3.33072543e-01,  4.85839516e-01,  3.09192330e-01, -4.31219965e-01,  1.59775242e-01,
     8.37432265e-01,  2.32857451e-01,  3.49459291e-01,  2.07151040e-01,  6.13443851e-02,  3.28689188e-01, -1.75969169e-01,  2.91380644e-01},
   {-2.36918144e-02,  8.13213408e-01, -2.01999068e+00, -5.57925999e-01, -5.76433241e-01, -5.64458966e-01, -3.39828432e-03,  6.90238774e-01,
     2.92177528e-01, -3.79371822e-01, -5.87711155e-01, -7.90713847e-01,  1.98852465e-01,  1.66745320e-01,  2.92829834e-02, -1.39038250e-01,
    -2.45494489e-02, -2.52171129e-01,  2.65737474e-01,  2.89595068e-01, -5.12593806e-01, -3.85889620e-01, -2.57668138e-01,  3.63870680e-01,
     1.10149473e-01, -3.43122870e-01,  9.97876078e-02,  2.32360899e-01, -6.18379302e-02, -1.27304435e-01, -2.86704272e-01,  9.18693185e-01},
   { 1.34550601e-01, -1.09761775e+00,  1.34722814e-01,  6.88139737e-01,  4.83100206e-01,  7.23568797e-01, -5.78238145e-02, -2.32947135e+00,
    -2.16238165e+00, -4.95798618e-01,  5.73545933e-01,  1.07160580e+00,  4.72418129e-01,  8.10669959e-02, -3.24471593e-02, -5.01526780e-02,
     1.75435528e-01, -8.32546055e-02, -9.41375613e-01, -6.88378751e-01,  3.98128480e-02,  3.63492042e-01, -1.90687105e-01,  2.11626649e-01,
     2.18798026e-01, -3.71244818e-01,  3.58801872e-01,  1.27794091e-02, -3.50526035e-01, -1.28278300e-01,  1.92814976e-01, -2.64406055e-01},
   { 9.07574415e-01, -7.35159755e-01, -6.09220624e-01, -9.28892136e-01, -6.33454144e-01,  3.94228697e-01,  3.65984499e-01,  7.79492259e-01,
     3.19093257e-01,  4.27833289e-01,  1.20271838e+00,  1.56633139e-01,  5.15563646e-03,  1.02348840e+00,  6.12193942e-01,  6.08893454e-01,
    -5.32903492e-01, -1.25399661e+00, -9.66549635e-01, -5.49756050e-01,  2.09485218e-01,  3.13869476e-01, -1.47292018e-01,  1.04904003e-01,
    -1.36412233e-01, -5.39833546e-01, -5.13632536e-01, -5.63174248e-01, -5.22066712e-01, -7.26572871e-02, -1.99569061e-01, -5.14981389e-01},
   { 5.75251102e-01, -8.00940394e-01, -7.57773399e-01,  9.55786631e-02, -3.84145707e-01, -2.87946284e-01, -8.99218023e-01, -9.12188113e-01,
    -1.27894402e-01,  5.46755567e-02,  1.38563347e+00,  1.64512610e+00,  2.18150806e+00,  9.72026527e-01, -7.58212149e-01, -9.62520838e-01,
    -7.28125691e-01, -5.71003437e-01, -7.52513707e-01, -6.66281164e-01,  8.29957202e-02,  6.95460737e-01, -1.74691498e-01, -4.39578742e-01,
    -3.99241447e-02,  3.59654844e-01,  4.62561280e-01,  7.47116864e-01,  5.17870486e-01,  5.91274738e-01, -6.19852170e-02, -2.57191747e-01},
   { 1.45518434e+00,  5.32142639e-01,  3.48965496e-01, -3.20273377e-02, -7.86158264e-01, -4.20975953e-01, -7.56062031e-01, -1.64587021e+00,
    -6.89241230e-01,  1.06886935e+00,  1.66362000e+00,  1.23889363e+00, -1.53242278e+00, -1.39774370e+00,  8.17382932e-01,  1.78351688e+00,
     1.44354224e+00,  8.32403898e-01, -8.25367272e-01, -1.16251695e+00,  6.35484219e-01,  5.41051447e-01,  3.63777757e-01, -5.23884259e-02,
    -5.50592482e-01,  3.37010920e-02,  1.06652997e-01, -6.15179360e-01,  2.66663749e-02, -3.06282967e-01,  7.96058401e-02,  5.37459910e-01},
   { 3.21930051e-01, -5.83718598e-01, -1.50905430e-01,  4.30964828e-01,  1.26430154e+00,  1.63089955e+00,  4.15183336e-01, -1.41867971e+00,
    -1.28413045e+00, -5.89871109e-01,  1.12739468e+00,  1.21908975e+00, -2.01947942e-01, -6.36048615e-01, -2.75087625e-01,  3.03904325e-01,
     3.74355257e-01, -8.55509162e-01, -1.92148638e+00, -2.44380996e-01,  2.98847079e-01,  2.78418530e-02,  2.44700655e-01,  2.09674910e-01,
     3.78697515e-01,  1.00024194e-01, -1.04033262e-01, -9.20611769e-02,  9.27137211e-02,  5.62646866e-01, -3.03133398e-01,  2.08157510e-01},
   { 5.75987846e-02, -9.38531399e-01,  8.41508925e-01,  3.02194297e-01, -3.78704667e-01, -1.29475817e-01, -5.45359731e-01,  8.83588940e-03,
    -3.26410860e-01, -3.49540144e-01, -1.06127322e+00, -2.21717405e+00, -1.75278783e+00,  8.89087260e-01,  2.63228869e+00,  1.75571430e+00,
     1.14280045e+00,  3.84347886e-01,  9.41175893e-02, -3.24802585e-02,  2.72245616e-01, -1.44327506e-02, -4.06555831e-01, -7.15736568e-01,
     7.69558847e-02,  1.76105797e-01,  1.08798496e-01, -1.03338592e-01,  8.95667747e-02, -1.56044513e-01,  1.15402237e-01, -1.44257188e-01},
   {-5.38665593e-01, -3.67072672e-01,  9.31338668e-01,  6.07121825e-01, -6.19738877e-01, -1.60783958e+00, -1.50372291e+00,  3.03951293e-01,
     1.49172664e+00,  8.15407276e-01,  3.34164500e-01, -1.02307379e+00, -7.58439183e-01,  2.46155500e-01, -9.72599506e-01, -1.75273585e+00,
    -2.98346013e-01,  1.30425692e+00,  2.03927374e+00,  8.20428431e-01,  3.08120221e-01,  4.20641631e-01, -1.44351767e-02, -1.39634550e-01,
    -3.32191139e-01, -3.81434590e-01,  3.29322278e-01, -3.03197592e-01, -2.95735747e-01, -6.71710849e-01,  1.04471967e-01,  4.96628545e-02},
   { 2.36001797e-02, -6.24592721e-01, -4.93084878e-01,  2.81958640e-01,  8.28373611e-01,  1.14324462e+00,  1.24840021e+00, -7.54195929e-01,
    -2.35771894e+00, -1.49152172e+00, -1.29847467e+00, -3.44836622e-01,  4.01541173e-01,  5.28711259e-01,  2.25456715e-01, -3.14238556e-02,
     1.81904778e-01, -3.27059180e-01,  2.24055126e-01,  4.25080210e-02, -1.56785205e-01, -3.67302984e-01, -4.38649714e-01, -4.27580833e-01,
     5.51556110e-01, -6.04657717e-02,  1.52961478e-01, -1.18033821e-02, -2.22671136e-01,  4.53037024e-01,  4.20304954e-01,  3.26545596e-01},
   { 6.02650821e-01, -5.39632559e-01, -7.06028223e-01, -4.98016626e-01, -1.05541098e+00, -1.44362044e+00, -8.00059617e-01, -3.17629874e-01,
     1.48363277e-01, -2.54638016e-01,  4.85069863e-02,  5.14243782e-01,  1.14102244e-01,  1.24235854e-01,  5.05992651e-01, -7.98490867e-02,
     1.31191388e-01,  1.94648132e-02,  6.50264993e-02, -2.58660197e-01, -4.20438617e-01, -3.88748288e-01,  1.17839091e-01, -2.42799461e-01,
    -3.77986401e-01, -7.53031254e-01, -1.68374509e-01,  8.05284306e-02,  9.79774725e-03, -3.36468190e-01, -4.11219865e-01,  3.12020838e-01},
};

const float GRNN0_U[64][64] = {
   {-3.05882597e+00,  2.22223020e+00, -2.22376199e-03, -1.02027583e+00, -7.29982078e-01, -4.48067427e-01,  7.49564946e-01,  3.31681035e-02,
    -2.08876562e+00,  9.32796776e-01,  1.76872343e-01,  3.75559777e-01,  2.95315713e-01, -3.84735078e-01,  9.01407778e-01, -3.93303484e-01,
     7.75714934e-01, -1.82108641e+00, -1.37575582e-01, -4.63988692e-01,  1.07897997e-01, -4.76882309e-01,  8.98751199e-01,  1.53700423e+00,
     9.73760486e-02, -5.90932593e-02, -3.48561794e-01, -6.35104835e-01,  3.00590396e+00, -5.95319923e-03, -9.03854311e-01, -1.79791605e+00,
     1.44600451e+00, -9.88430738e-01,  5.70319653e-01,  9.22140837e-01,  8.39739859e-01, -1.92773867e+00,  4.00360674e-01, -6.49569631e-01,
    -5.04578710e-01, -1.02471046e-01, -8.27142119e-01,  1.78005695e+00, -7.29682922e-01,  1.51064527e+00,  7.36142933e-01, -3.18240094e+00,
     2.63064235e-01,  1.22270608e+00,  1.29270196e+00,  4.17496109e+00,  3.59498453e+00, -9.24025536e-01, -1.20848942e+00, -1.13890827e+00,
    -1.12745345e+00,  1.06612337e+00,  1.08847356e+00,  5.52284062e-01,  2.22895813e+00, -3.05893683e+00, -7.11169720e-01,  9.25446153e-01},
   {-7.60590434e-01, -5.61433792e+00,  4.03814048e-01, -1.01995635e+00, -2.55095148e+00, -1.29722679e+00,  3.91086012e-01, -2.24425030e+00,
    -1.73873878e+00,  7.97998071e-01, -6.49531543e-01, -1.69022763e+00, -8.60549450e-01, -7.84578025e-01,  1.79058170e+00, -1.71022192e-01,
    -5.21217585e-01, -8.47450867e-02,  5.81109583e-01,  4.04806346e-01,  9.05684054e-01, -1.07371783e+00,  2.41342664e+00,  2.50354552e+00,
     6.98787093e-01, -6.20251000e-01, -1.87989163e+00,  1.88684121e-01,  3.72074318e+00,  8.81849468e-01, -3.11940098e+00, -1.03408027e+00,
    -7.50928819e-01,  9.36317861e-01,  7.16955125e-01,  9.60820988e-02,  1.24018764e+00,  1.69464350e+00,  6.11037076e-01,  3.82047200e+00,
     2.00778985e+00, -1.30282119e-01, -1.51725173e-01, -3.01778793e+00,  1.77701235e-01, -7.06892014e-01, -9.65517402e-01, -1.06764615e+00,
    -2.67896920e-01,  1.89393938e+00, -2.73725128e+00, -2.53747559e+00,  6.94305658e-01, -3.11930835e-01, -1.17292762e+00,  1.36196828e+00,
     2.59904951e-01,  1.04385376e+00,  2.83096695e+00,  1.13017404e+00, -1.25168109e+00, -1.98270833e+00,  1.43363917e+00,  2.53103852e+00},
   {-1.00116408e+00, -1.27438784e+00, -3.21879005e+00,  8.07950974e-01, -8.15048635e-01, -7.10708573e-02, -1.50106990e+00, -5.53917766e-01,
     1.29028547e+00,  3.09264570e-01, -3.63459498e-01,  6.84414282e-02,  8.51868331e-01,  2.57245693e-02, -2.23110557e+00, -4.43104625e-01,
     2.31468248e+00, -1.07366693e+00, -3.88633281e-01, -1.12829015e-01, -8.40671182e-01,  1.05083179e+00, -4.07032108e+00, -1.88304842e+00,
    -1.42311406e+00, -3.51949483e-01, -6.90948009e-01,  5.09459257e+00,  3.90124023e-01,  1.03458142e+00,  1.11240244e+00, -4.71361220e-01,
     1.08033967e+00,  6.54486239e-01, -3.67132515e-01, -6.32305384e-01, -4.26419526e-02,  2.53443313e+00,  3.79409432e-01, -2.28839922e+00,
     6.45978004e-02,  6.30807638e-01, -2.03515363e+00, -2.57043767e+00,  5.56710720e-01, -5.28227627e-01, -7.90002704e-01,  3.82219005e+00,
    -1.30136892e-01,  2.25552011e+00, -3.86586860e-02, -1.69061768e+00, -2.90099120e+00,  5.71861625e-01,  5.70474505e-01,  8.62774551e-01,
    -8.01933110e-01, -1.40976357e+00,  1.50293851e+00, -2.33676806e-01,  1.41022956e+00,  1.02221799e+00,  1.63349152e+00,  3.67311180e-01},
   {-6.93170726e-01, -7.99436808e-01, -8.61469805e-02, -3.49405885e+00, -3.27938378e-01,  1.44943539e-02,  1.18884814e+00,  2.55928755e+00,
     1.53463626e+00,  1.55431306e+00,  1.09867847e+00,  1.56560409e+00,  2.61515546e+00,  1.06949377e+00, -2.21615195e+00, -2.88072914e-01,
    -1.18647180e-01, -6.25697196e-01,  2.02925014e+00,  4.61947434e-02, -1.82321203e+00, -1.77867401e+00, -6.64854705e-01, -3.67355895e+00,
     4.71648544e-01, -1.47018135e-01,  3.74244928e-01,  2.44413638e+00,  1.75772250e+00, -9.58623707e-01,  4.05172729e+00, -1.08801174e+00,
    -6.04553759e-01,  1.11636662e+00, -1.60299242e-01,  1.72552299e+00,  8.87840390e-01,  1.01885653e+00, -1.14921546e+00,  1.42278981e+00,
    -4.78285879e-01, -5.92939019e-01,  6.77157521e-01,  1.46171963e+00,  7.96276331e-01,  4.41557050e-01,  6.60795450e-01,  1.17273223e+00,
    -4.08283949e-01, -6.88165069e-01, -1.29267144e+00,  1.65247571e+00,  8.53384554e-01,  2.38020611e+00,  6.37787044e-01, -7.67117143e-01,
    -7.24474549e-01,  3.33089828e-01, -9.13934290e-01,  1.32528529e-01,  1.34014261e+00,  3.05710733e-01, -1.06133386e-01, -2.30358434e+00},
   { 1.11536837e+00, -8.85453641e-01,  3.44002068e-01,  4.67091620e-01, -1.82695699e+00, -3.47739935e-01, -8.47653389e-01,  9.26178515e-01,
     1.84663963e+00, -3.46157402e-01, -1.94559872e+00,  1.48699749e+00, -7.16384828e-01,  6.26423717e-01, -1.08583891e+00, -2.34788179e-01,
     2.74671167e-01,  2.31377816e+00, -3.48327458e-01,  1.25077474e+00, -6.53223217e-01, -3.73080492e-01,  1.58915982e-01, -2.01118302e+00,
    -3.10263824e+00,  1.14190161e+00, -8.08683455e-01, -7.58936465e-01, -4.19462919e+00, -1.10527372e+00,  1.92598879e+00, -1.49410295e+00,
     3.40200514e-01, -5.75787902e-01,  1.07611656e+00, -1.75129926e+00, -2.05338672e-01, -1.94911098e+00, -2.17974111e-01, -2.11792856e-01,
     4.49629910e-02, -8.91285419e-01,  1.55917227e+00, -4.91094261e-01, -9.83715296e-01, -5.65122604e-01,  2.42741799e+00, -7.49660611e-01,
    -1.09541428e+00, -1.52495682e+00,  2.71860242e+00,  1.21090150e+00, -8.21507454e-01, -7.76979208e-01, -3.43642533e-02,  7.30882883e-01,
     2.87873483e+00, -1.17423832e+00,  1.40404713e+00, -7.30887234e-01,  7.25493968e-01, -4.15204614e-01, -3.17949820e+00,  4.35226373e-02},
   { 3.33510697e-01,  2.15934396e+00,  2.19650373e-01, -2.11856055e+00,  2.16861576e-01, -1.32853532e+00,  2.61121798e+00, -6.74908459e-01,
    -2.76529527e+00,  2.39935398e+00, -8.87266815e-01, -2.31816435e+00, -9.18251455e-01,  3.04256105e+00, -1.65341389e+00,  2.00180507e+00,
     1.11877334e+00, -9.49622810e-01,  1.05732657e-01, -1.32274330e+00,  1.92352164e+00,  1.20713520e+00,  4.12785441e-01,  3.15245724e+00,
     2.63000631e+00,  1.22937059e+00,  3.08795750e-01,  1.17616832e+00, -1.57067358e+00, -1.35459793e+00, -9.87261951e-01, -2.02774823e-01,
    -1.25597775e-01, -6.87672079e-01, -1.34399280e-01,  8.19447458e-01,  8.64512026e-01,  2.36327672e+00,  1.01607688e-01,  1.90846312e+00,
     4.41487640e-01,  1.13729358e+00, -2.39574146e+00,  8.30727518e-01,  1.01907742e+00,  1.36198843e+00, -6.64001524e-01, -3.94291461e-01,
     1.52222002e+00, -1.53879142e+00,  1.61370909e+00, -6.95050955e-01,  5.92604578e-01, -1.46581605e-01,  3.84908095e-02, -4.53045070e-02,
     8.29142988e-01,  6.77401960e-01, -2.40597463e+00,  1.28766537e+00,  1.96777952e+00,  1.81109369e+00,  2.89967966e+00, -1.14851999e+00},
   { 1.81406319e+00, -4.80767369e-01,  5.27741432e-01, -1.93855250e+00,  4.39136505e-01, -1.78307569e+00, -5.42384505e-01, -3.22199881e-01,
    -3.95550990e+00, -8.98853302e-01,  1.95160162e+00, -7.99020156e-02, -1.05879343e+00,  1.02355099e+00, -1.34246302e+00,  4.80749339e-01,
     1.94703424e+00,  2.34357381e+00, -1.50965941e+00,  2.34273028e+00,  1.07064056e+00, -9.53416601e-02, -3.63874793e-01, -2.23300743e+00,
    -1.01372743e+00,  1.42168570e+00,  2.01652750e-01, -1.15827405e+00, -4.10070419e-01, -1.41227889e+00, -1.05138160e-01,  1.84877539e+00,
    -2.88382554e+00,  2.19920015e+00,  3.11394668e+00,  1.61519217e+00,  2.28463739e-01,  9.03070629e-01,  1.19015038e+00, -1.09318495e+00,
     9.58133340e-01, -1.38141215e+00,  2.38038635e+00,  6.74614236e-02, -8.84545386e-01, -5.67615731e-03, -5.31590581e-01,  3.83596085e-02,
    -4.23226878e-02, -2.92870069e+00,  7.50057280e-01,  2.63516475e-02,  1.17974043e+00, -1.27390897e+00, -1.52472091e+00,  6.89440906e-01,
     2.43784738e+00, -2.75348854e+00, -2.73167086e+00, -2.15296221e+00,  2.16392565e+00, -1.30570507e+00,  1.73646316e-01,  2.20995569e+00},
   { 5.92394412e-01,  1.81936991e+00, -4.49426711e-01, -1.61374938e+00,  8.67507815e-01,  1.63190174e+00,  1.50689948e+00, -3.21943331e+00,
     5.29490113e-01, -1.00343332e-01,  2.29240105e-01,  6.00877285e-01,  4.03478444e-01,  1.76956654e+00,  8.96618515e-02, -1.21696866e+00,
    -4.39389721e-02, -1.15726328e+00,  1.96618855e+00,  6.19288027e-01, -2.43952125e-01, -6.78854227e-01, -4.91461372e+00,  2.87341416e-01,
    -5.65093160e-01, -1.03907847e+00,  3.57180476e+00,  2.04986525e+00, -1.13525665e+00, -1.69991052e+00,  2.73095679e+00, -2.65888512e-01,
     5.10996759e-01,  7.54655182e-01,  8.25826406e-01, -1.17075384e+00, -4.51069534e-01, -3.49602938e+00, -1.58669114e+00,  6.51962936e-01,
     1.21180093e+00, -7.03326941e-01,  5.45717716e-01,  1.29543555e+00,  1.69950533e+00,  8.99362326e-01, -1.57903528e+00, -1.55449128e+00,
    -7.44360447e-01, -8.95351887e-01,  6.46438897e-01,  1.56579480e-01,  1.06074870e-01,  7.24992603e-02,  4.51442003e-01, -9.96525824e-01,
     1.08296490e+00, -3.31095159e-01,  3.26571465e-01,  2.15570855e+00,  1.46530247e+00,  7.71070659e-01,  4.97603595e-01, -1.02882421e+00},
   { 1.02329850e+00,  9.39164042e-01, -1.54018784e+00, -9.51714873e-01,  1.69842863e+00,  1.96439242e+00,  9.84212756e-01,  1.78851679e-01,
    -4.00957966e+00,  5.13164163e-01,  4.41186816e-01,  7.82507241e-01,  8.36150255e-03,  1.74321473e+00, -1.20207615e-01, -1.21634734e+00,
     1.32930946e+00,  6.94860697e-01,  6.66930139e-01,  1.91900492e+00,  3.80731314e-01, -7.81769633e-01,  9.80661571e-01, -4.71138239e-01,
    -1.54719102e+00, -8.30800533e-02, -1.00842226e+00, -1.10924768e+00,  6.36880100e-01, -3.16932857e-01,  1.21302629e+00,  1.29322633e-01,
    -2.33882308e+00, -2.31979921e-01, -1.40903413e+00,  3.32883924e-01,  5.03320634e-01, -3.76596212e+00, -1.73578775e+00, -8.45361054e-01,
     1.77236378e+00,  4.35288370e-01, -2.15958691e+00, -5.06581187e-01,  2.59494424e-01, -1.94485402e+00, -1.33651018e+00, -1.18749940e+00,
     4.46333434e-04, -1.39719403e+00,  6.33789152e-02,  8.25320601e-01, -2.26428390e+00,  8.34444046e-01,  6.70321107e-01, -5.18772221e+00,
     1.88410866e+00,  1.03017581e+00,  6.51811600e-01, -1.29119858e-01,  5.57900000e+00,  2.96533918e+00, -1.72135699e+00, -3.73569846e+00},
   {-7.25607932e-01, -8.76176655e-01,  1.09365977e-01, -9.72783118e-02,  2.45258045e+00, -4.73934650e-01,  9.96856034e-01, -1.73046559e-01,
    -1.15275085e+00, -5.24389744e+00, -3.52068245e-01,  5.45125544e-01, -3.11412168e+00,  3.73413295e-01,  5.73123574e-01,  2.13221622e+00,
     2.67085409e+00,  1.50257969e+00, -1.13018548e+00, -3.97736639e-01, -1.05469060e+00,  1.06892979e+00, -5.92344463e-01,  1.80747175e+00,
     2.39738011e+00, -2.12910867e+00, -6.84935153e-01,  2.66666245e+00, -1.04497015e+00,  8.88408065e-01, -3.25170803e+00,  1.17598760e+00,
    -8.06451917e-01, -9.82422829e-02, -1.02026081e+00,  1.32505804e-01, -3.57028031e+00,  5.63418031e-01,  1.70861340e+00, -2.56680441e+00,
     3.96437824e-01, -2.15806112e-01,  9.68230665e-01,  1.94242084e+00, -2.27761135e-01, -1.65115625e-01,  3.20937276e+00,  7.93324172e-01,
     2.65232623e-01,  6.55056894e-01, -1.62532818e+00, -2.41905856e+00, -1.69604516e+00, -4.43521929e+00,  1.08535364e-01,  7.40511477e-01,
     1.49590325e+00, -1.31052524e-01,  1.09832907e+00, -8.80380943e-02,  3.10186714e-01, -1.38913655e+00, -9.09673572e-02,  1.14756215e+00},
   {-1.63622189e+00, -6.00832045e-01, -1.24674439e+00,  1.92827165e+00,  6.69704020e-01,  7.05644414e-02,  1.02750473e-01,  1.67718208e+00,
     1.22247469e+00, -1.41237879e+00, -2.47354436e+00, -1.86625078e-01,  4.10534239e+00,  2.57737041e+00, -4.60404426e-01, -1.95421863e+00,
    -1.13474783e-02,  5.49423276e-03,  1.59690917e+00,  1.79802585e+00, -1.70275903e+00, -5.85208461e-02,  4.82563317e-01, -2.51566768e+00,
    -1.19333065e+00, -2.83490968e+00,  2.67410398e+00, -6.20158553e-01,  5.84713876e-01, -3.02605182e-01, -1.28807336e-01, -2.21750736e-01,
    -1.58692431e+00, -2.01957360e-01,  5.65090001e-01,  2.00355911e+00,  1.25774622e+00, -2.41934443e+00, -9.93650794e-01, -1.68189538e+00,
    -8.66128325e-01,  6.89811289e-01, -2.36936912e-01,  6.78960204e-01, -2.27334642e+00, -4.19653130e+00, -1.67917919e+00,  1.99957535e-01,
    -3.33524138e-01, -1.69455457e+00,  1.44739676e+00,  1.34171247e+00,  2.48640075e-01,  8.69117618e-01, -2.02250794e-01, -1.33353695e-01,
     3.39890122e-01, -1.28640592e-01, -1.76390004e+00, -1.88751209e+00, -8.59614983e-02, -1.59887373e+00,  1.59448361e+00, -2.66616654e+00},
   { 4.12634797e-02,  7.36548305e-01, -1.21688358e-01, -4.52605546e-01, -4.85997647e-01,  5.32735050e-01,  1.60560501e+00,  1.09138978e+00,
    -2.91233277e+00,  1.09016705e+00, -2.03069901e+00, -3.79260230e+00,  1.57637382e+00,  8.50955725e-01,  8.22143674e-01, -2.06380749e+00,
    -8.26120973e-01, -8.05667281e-01,  7.15168893e-01,  8.17161441e-01, -8.11146140e-01, -4.87142831e-01, -3.98712188e-01, -4.73466665e-01,
    -2.33878183e+00, -7.51742303e-01,  1.81137395e+00,  1.66298866e+00,  2.13771150e-01, -1.15449905e+00,  1.21991587e+00,  5.53372502e-01,
    -6.90869510e-01,  1.78012228e+00,  1.56442118e+00,  5.78464389e-01,  2.74215668e-01, -2.74439073e+00, -2.73762703e+00,  7.35681176e-01,
    -3.97829384e-01, -6.87130272e-01, -7.41926193e-01,  2.34518552e+00,  1.82633281e+00,  2.07960510e+00, -5.03396010e-03,  9.84129608e-01,
    -1.44980514e+00, -2.20015955e+00,  2.49859405e+00, -6.65237606e-02,  2.27416253e+00,  1.35843587e+00,  2.02598944e-01, -2.88247371e+00,
    -1.41670644e-01,  2.54902792e+00,  1.66896805e-01,  2.14137268e+00, -2.24770710e-01, -2.08158541e+00, -8.72519851e-01,  1.61302078e+00},
   { 4.60654926e+00,  7.30110765e-01, -1.29386818e+00, -1.96150994e+00,  3.12275481e+00, -1.14402449e+00,  1.98033285e+00, -1.38176692e+00,
    -1.88171756e+00, -1.08226621e+00,  3.25371218e+00, -6.10008240e-01, -3.31774759e+00,  9.51923847e-01,  7.66740441e-01, -6.92771142e-03,
    -1.29402804e+00,  3.44674087e+00, -1.28819108e+00,  3.13311315e+00, -2.10479110e-01, -1.27963340e+00,  3.05906326e-01,  3.30437803e+00,
    -4.49332058e-01, -7.21223712e-01, -8.25956464e-01, -6.94582283e-01, -3.07426929e+00, -1.18126261e+00, -2.85644245e+00, -2.89747775e-01,
     8.26855361e-01,  1.75913501e+00,  3.09667993e+00,  7.10478365e-01, -1.00258541e+00, -1.63731921e+00,  5.58004677e-02,  5.96110463e-01,
     2.85561860e-01,  6.91186726e-01,  2.49968410e+00, -1.33362269e+00,  1.48764181e+00, -1.00617695e+00,  1.92797393e-01,  7.59726763e-02,
     2.87674379e+00,  2.21843943e-01,  2.78020835e+00, -1.03261650e+00,  2.49292803e+00, -2.17437315e+00, -1.25232232e+00,  2.30552840e+00,
     3.29989791e+00, -1.53008568e+00,  2.04019046e+00, -2.58512378e+00, -1.97180939e+00, -9.74426746e-01, -2.23768401e+00,  4.43215847e+00},
   { 2.10227275e+00, -1.26662505e+00,  2.45655465e+00,  1.05487669e+00,  1.52716196e+00, -3.65083784e-01,  1.85689199e+00,  1.95905602e+00,
     8.71491313e-01, -4.50703651e-01, -1.85976768e+00,  1.34962618e+00, -9.52098191e-01, -1.19916908e-01, -1.94067252e+00, -2.81200194e+00,
     2.78756142e+00,  2.66161680e+00, -5.64800873e-02,  2.02522230e+00, -3.62207556e+00,  7.84282267e-01,  8.49601150e-01, -2.72412133e+00,
    -2.56167245e+00,  2.72854733e+00, -2.53579676e-01,  2.02425456e+00, -6.94792867e-01, -1.43167928e-01, -3.86811465e-01,  5.19467115e-01,
     2.36925278e-02,  1.71527660e+00,  3.74165368e+00,  1.89988077e+00, -1.53810775e+00,  2.24402562e-01, -2.28375340e+00,  2.05255508e+00,
     2.91220278e-01, -4.31902856e-01,  2.16221523e+00,  1.46258485e+00, -5.32544553e-01,  5.62738717e-01,  1.74854472e-02,  1.29897940e+00,
    -9.81172800e-01, -2.10358644e+00,  1.69558942e-01,  1.44716239e+00,  1.52026308e+00,  7.28342533e-01,  9.77101564e-01,  1.86787605e+00,
     1.89075589e+00,  1.26522195e+00, -2.32303172e-01, -3.29139805e+00,  2.15222955e+00,  4.63543475e-01,  8.49382520e-01,  2.53546762e+00},
   {-2.09329200e+00, -5.96765578e-01,  1.63430297e+00, -7.90861726e-01, -2.65866375e+00, -6.93048418e-01, -2.35354468e-01, -9.64228883e-02,
    -3.76866937e-01,  1.50817335e+00, -1.97608554e+00,  1.56421089e+00,  2.09842610e+00,  4.66165721e-01, -6.86186361e+00, -7.08119348e-02,
     3.55393589e-01, -3.35406929e-01, -1.16102874e+00, -1.00503969e+00,  1.40804008e-01, -5.71384132e-01,  3.25790691e+00,  1.43046546e+00,
     1.04687023e+00, -6.11460693e-02, -1.60924959e+00,  1.30255830e+00,  4.00477314e+00,  1.56250060e+00,  1.23278625e-01, -9.94489491e-01,
     9.32957977e-02,  4.50352573e+00,  3.89448971e-01,  8.66579592e-01, -5.44945657e-01,  2.06611562e+00,  8.84984434e-01,  7.87467659e-01,
     1.81149864e+00, -3.07563215e-01, -6.72417700e-01,  1.58539367e+00,  5.65760173e-02,  1.26094192e-01, -1.18867660e+00,  4.00603533e+00,
    -1.76424444e+00,  9.67646539e-01,  4.58789319e-01, -6.49330139e-01, -2.37613845e+00,  2.50209880e+00,  6.57958567e-01, -2.80039132e-01,
    -2.12555480e+00, -1.07110548e+00, -7.28348911e-01,  6.05039537e-01,  1.87388882e-01, -1.37255299e+00,  4.84218329e-01,  3.53877807e+00},
   {-1.10443425e+00, -1.12628907e-01, -6.18983865e-01,  2.78085160e+00, -1.82269263e+00, -1.74067628e+00, -3.05705309e-01,  2.11331189e-01,
     3.44322634e+00, -2.67346883e+00,  1.77183568e-01, -6.08529687e-01, -3.69674015e+00,  9.54692066e-01, -7.68031538e-01, -4.96761894e+00,
    -4.93008643e-01, -5.73400147e-02,  8.00181091e-01, -1.84109294e+00, -5.80112994e-01,  1.38233244e+00, -2.07247496e+00,  1.35585523e+00,
     1.17031682e+00,  2.16563821e+00,  1.10562205e+00, -2.08667445e+00,  1.10764098e+00,  4.53195162e-02,  7.42676795e-01,  1.45620120e+00,
    -4.66384172e+00,  9.25144553e-01, -1.44387215e-01,  1.92110300e-01, -2.71093082e+00,  4.33981568e-01, -8.29010084e-02, -1.97435737e+00,
    -1.51177838e-01, -2.46525908e+00,  1.37559068e+00,  2.35412836e+00, -2.00038290e+00,  3.30666542e-01,  3.97656769e-01, -1.83847129e-01,
    -1.05560386e+00,  8.64817202e-01, -1.69923007e+00, -7.46369511e-02,  2.83328235e-01, -5.01536512e+00,  1.52667254e-01, -3.76336426e-01,
    -1.70873523e+00, -3.73638242e-01, -1.49455026e-03,  4.40731972e-01, -1.27952218e+00,  2.30242729e+00, -3.90279150e+00, -1.65160406e+00},
   { 1.58376658e+00,  1.40618753e+00, -1.08034039e+00, -1.38059294e+00, -1.95940566e+00, -2.86921803e-02,  1.72950006e+00, -5.09804428e-01,
    -2.32811093e+00, -1.15132356e+00, -3.32006025e+00,  5.70045114e-01,  5.03205359e-02, -1.83057468e-02,  6.95370495e-01,  6.31053090e-01,
    -4.00408459e+00, -1.28577173e+00, -1.86337501e-01, -3.39947402e-01,  1.40471005e+00, -1.08700350e-01, -1.91563177e+00,  1.07370317e+00,
     9.12063569e-02, -6.26056671e-01, -1.54441881e+00,  8.55254471e-01, -3.93123657e-01, -9.58693147e-01, -6.12084746e-01,  2.02604577e-01,
    -3.34542245e-01, -5.36522508e-01,  6.83760643e-01,  4.25011814e-01,  9.65524316e-02, -8.24846506e-01,  1.22689712e+00, -1.29574513e+00,
    -1.73547053e+00,  8.00008357e-01, -1.91890073e+00, -8.70042920e-01,  2.36033916e-01,  3.58559072e-01, -1.59390914e+00, -1.09493566e+00,
    -1.47205636e-01,  7.91069865e-01, -2.87581712e-01, -2.03452110e+00, -1.65876627e+00,  2.17383862e-01, -7.43370533e-01, -1.91880548e+00,
    -9.64865148e-01, -1.66271961e+00,  3.73271316e-01, -1.87110662e-01,  3.35507011e+00, -2.18334579e+00, -1.27250099e+00,  1.49214518e+00},
   {-2.47765724e-02, -3.28878015e-01,  8.46868396e-01, -1.51056528e+00,  1.92760158e+00, -2.22707915e+00,  4.87373972e+00, -7.82910585e-01,
    -4.28316593e-01, -9.07176256e-01,  2.41134262e+00,  1.55998385e+00, -2.29274797e+00,  5.76069772e-01, -2.65221906e+00, -1.82993144e-01,
    -1.18417132e+00,  1.44092768e-01,  1.13127160e+00,  3.60675216e+00, -3.80690765e+00, -1.43068528e+00, -3.26764017e-01, -1.08790183e+00,
    -1.24454427e+00, -4.64594960e-01,  1.93199322e-01,  3.33211571e-01, -5.83408535e-01,  3.64297420e-01,  2.04408836e+00,  2.80885249e-01,
    -9.57473338e-01,  5.08852303e-01,  4.09080124e+00,  1.43424058e+00, -3.03413200e+00, -1.95434362e-01, -2.20237780e+00,  1.13769114e+00,
    -8.88575435e-01, -1.65929425e+00,  3.19386697e+00,  7.75281131e-01, -6.40488863e-01, -9.43143964e-01,  3.47216964e-01, -7.66595379e-02,
    -4.96922314e-01,  2.19904967e-02,  7.93640554e-01, -1.84444821e+00,  2.25947881e+00, -2.16910267e+00, -2.08254218e+00,  4.42857552e+00,
     2.78161478e+00, -9.50855434e-01,  2.21196100e-01, -2.49820209e+00,  6.09660864e-01,  1.03543544e+00, -2.56160498e+00,  3.67595732e-01},
   { 6.13963008e-01, -3.48488659e-01,  1.35010555e-01, -8.80891457e-02, -6.91021860e-01,  1.70551375e-01,  4.62800682e-01,  1.63286769e+00,
     3.14780164e+00,  1.15725100e+00, -1.10088494e-02,  6.55641556e-01,  3.75938058e-01,  1.68074143e+00, -2.05896616e+00, -1.77774131e+00,
    -7.90657163e-01,  5.06205142e-01, -3.75003886e+00,  1.03896104e-01, -2.73593950e+00, -2.43814206e+00,  1.23831534e+00, -1.13019443e+00,
    -2.37026036e-01,  1.70437098e+00, -1.18689632e+00, -3.78277123e-01,  1.60309270e-01, -9.21464026e-01,  2.96005845e+00, -2.14020562e+00,
    -8.57606810e-03, -1.32137716e-01, -9.01551306e-01,  2.69366771e-01,  2.49532551e-01, -2.44832182e+00, -2.99705148e+00,  2.90163016e+00,
     2.55253911e+00, -4.18983042e-01,  1.89636454e-01, -9.61811021e-02,  1.03323984e+00, -8.26942980e-01, -1.71551752e+00,  3.24615777e-01,
     2.84556240e-01, -4.69993681e-01,  3.37163639e+00,  4.91596746e+00,  7.35860825e-01, -1.18109846e+00, -1.18386841e+00,  9.65996146e-01,
    -1.68350965e-01,  1.63875771e+00,  9.49777544e-01, -5.90739906e-01, -1.65631342e+00,  6.32316732e+00, -9.07861471e-01, -8.46609354e-01},
   { 2.50597048e+00, -6.36169255e-01,  1.10195446e+00, -5.86255252e-01,  8.98875535e-01, -6.32498682e-01,  3.79712486e+00,  7.60127842e-01,
     1.58000660e+00, -2.11901460e-02, -9.05039847e-01,  1.94187176e+00, -2.28000879e+00,  2.91953415e-01, -2.06514454e+00, -1.43723750e+00,
    -1.00881465e-01,  1.44319952e+00,  3.06088507e-01, -8.06506336e-01, -3.61768126e+00,  3.56605619e-01, -5.65404832e-01, -1.55051053e+00,
    -1.61910212e+00,  2.98838139e+00, -1.13707066e+00, -7.48843849e-01, -1.24393749e+00, -1.07978940e+00,  1.63068581e+00,  8.40353668e-01,
    -7.37600267e-01,  3.26989353e-01,  3.45304370e+00,  1.12301886e+00, -2.64540410e+00, -3.28594781e-02, -5.25865674e-01,  8.55504274e-01,
    -1.83277965e-01, -1.79876709e+00,  1.48361325e+00,  2.03889298e+00, -1.80252755e+00,  1.35177183e+00,  4.21970338e-01, -1.85507214e+00,
    -1.53652167e+00, -1.63372862e+00,  1.21339893e+00,  7.06951797e-01,  4.24419701e-01, -9.07871485e-01, -2.78695822e-01,  6.46490991e-01,
     1.45578504e+00,  1.86967269e-01, -2.59023547e+00, -2.64358377e+00,  1.02303791e+00,  1.66304600e+00, -3.33795094e+00,  6.01373076e-01},
   { 7.88115919e-01,  2.89936948e+00, -9.63875175e-01, -5.07747459e+00, -2.73277926e+00, -2.99703336e+00,  1.83926761e-01, -3.71576357e+00,
    -1.79228544e+00, -5.15138507e-02, -1.89668012e+00, -2.33821654e+00, -6.25756145e-01, -8.05725217e-01,  9.44559455e-01, -1.31138706e+00,
    -2.48020679e-01,  4.54907954e-01, -2.00202537e+00,  3.11283648e-01, -3.94040537e+00,  1.31100655e+00,  8.55226099e-01,  1.74422824e+00,
     2.12363213e-01,  5.21693081e-02, -2.19054198e+00,  1.35146463e+00,  2.13959193e+00, -8.73078823e-01, -5.02200794e+00,  5.73371172e-01,
    -9.73728180e-01, -1.33041430e+00,  9.72420692e-01,  2.87258387e-01,  1.80821076e-01, -1.42285258e-01,  6.23783529e-01, -1.09393048e+00,
     2.83430576e-01, -2.42547679e+00,  7.21469879e-01, -1.46481264e+00, -1.19626844e+00,  5.44561386e-01, -2.07261992e+00,  1.24087036e-01,
    -1.81217444e+00, -4.80850577e-01, -3.75995255e+00, -2.55533338e+00,  2.71936953e-01, -2.21569967e+00, -2.75190902e+00,  4.36053008e-01,
    -8.14776003e-01, -7.03448653e-01,  1.50431538e+00,  1.89568818e+00, -6.24499857e-01, -7.71583438e-01, -8.67547214e-01,  1.24587998e-01},
   {-9.16058183e-01, -1.72698319e-01, -8.23493481e-01,  1.28947392e-01,  1.24313116e+00, -2.39658833e+00, -1.56551093e-01,  1.73987794e+00,
    -3.21347028e-01, -8.46878409e-01,  1.09369326e-02, -1.68648040e+00,  1.59170806e+00,  1.78144717e+00, -2.06810132e-01, -2.08825731e+00,
    -1.54309297e+00,  1.80250025e+00, -2.85450280e-01,  1.03587496e+00, -2.47749233e+00, -6.57127523e+00,  1.59179986e-01,  5.97064912e-01,
    -2.47604990e+00, -1.70404211e-01, -7.18212426e-01,  1.33528996e+00, -5.66623688e+00,  5.00718057e-01, -1.87552154e+00, -7.70337284e-01,
     2.17520285e+00,  1.54671335e+00,  8.66165340e-01, -8.04912224e-02,  2.09839456e-02, -1.49949551e+00,  3.37872565e-01, -2.73415267e-01,
     1.30766523e+00, -1.69939268e+00,  1.51168823e+00,  5.74330151e-01, -2.67002869e+00,  2.09336972e+00,  1.08289194e+00,  1.28700817e+00,
    -2.39752799e-01, -1.68747592e+00,  2.01249838e+00,  1.46606874e+00,  9.99702334e-01,  2.78791368e-01, -1.84084475e+00, -1.14173818e+00,
     2.32369328e+00,  1.34985816e+00, -4.46476862e-02,  1.41959858e+00, -6.15567625e-01, -6.94228113e-01,  4.73342866e-01, -7.43443444e-02},
   { 1.87719274e+00,  9.16033208e-01, -2.72274166e-01, -1.04036875e-01,  1.36338317e+00, -9.77807105e-01,  4.22489613e-01, -1.06564498e+00,
     2.28394151e-01,  6.70141041e-01, -9.85461697e-02,  2.20491290e+00, -2.16136479e+00,  5.15401840e-01,  8.99309576e-01,  4.56948578e-01,
    -1.19747996e+00,  1.40184045e+00, -9.57613885e-01,  1.83243310e+00, -1.01186478e+00, -2.37997961e+00, -6.17558050e+00,  9.08896089e-01,
    -5.94756186e-01, -8.57387066e-01, -1.55517548e-01, -1.73266244e+00,  6.23722434e-01,  7.28647768e-01,  3.11902618e+00, -7.70968139e-01,
     5.30896634e-02, -1.42120540e+00,  1.86962068e+00, -4.00325097e-02, -4.22121286e+00, -1.96959651e+00,  1.05127978e+00,  7.74116488e-03,
     3.20866816e-02, -8.12992360e-03,  8.52517128e-01,  7.19358444e-01, -7.18312323e-01, -3.51795077e-01,  1.13536501e+00, -1.04774404e+00,
    -4.97171953e-02,  9.29560661e-01, -5.68585619e-02, -2.02477670e+00, -1.76414859e+00, -2.23332000e+00, -4.26639438e-01, -3.22626352e-01,
     2.43918681e+00, -1.13570213e+00, -1.43724287e+00, -1.39400256e+00,  4.90704894e-01, -4.60599922e-02, -2.93701625e+00,  9.97425079e-01},
   { 6.06260300e-02,  1.09111321e+00, -1.57131359e-01, -4.45639372e+00,  1.29791164e+00, -1.22560756e-02,  2.87977457e+00, -1.29476774e+00,
    -2.81913996e+00,  2.14401126e+00, -1.26166010e+00, -1.78115749e+00,  3.85269094e+00,  6.70645058e-01,  1.49883404e-01, -2.09162402e+00,
    -1.43124193e-01, -1.81550868e-02, -1.68129432e+00,  6.69265151e-01,  1.64434826e+00,  4.13435411e+00,  4.43595123e+00, -6.43337822e+00,
    -9.78084683e-01, -5.90227664e-01, -1.19344391e-01,  4.34665352e-01,  1.80929399e+00, -5.33295691e-01, -3.32823253e+00,  1.42137659e+00,
    -7.46511891e-02,  3.68396544e+00,  2.32531834e+00,  3.72040820e+00,  1.45982897e+00,  1.51080644e+00,  1.04194713e+00, -9.76946414e-01,
    -8.53201091e-01,  2.49376535e-01,  1.67835331e+00,  5.06923676e-01, -2.19268695e-01,  3.09987760e+00,  3.30981040e+00,  2.58005142e+00,
    -1.09134412e+00, -2.55479328e-02, -2.39219713e+00, -1.03064632e+00,  1.28232419e+00,  4.54988599e-01, -1.79773962e+00,  9.19015825e-01,
    -9.97398734e-01, -1.94053388e+00, -2.08793461e-01, -6.67080805e-02, -8.46479595e-01, -1.45770454e+00,  2.35607728e-01,  4.48743200e+00},
   {-2.32968614e-01, -7.86790073e-01, -2.23020744e+00, -2.78554022e-01, -2.04339027e+00, -1.41478181e+00,  5.02477825e-01,  2.83418119e-01,
     4.02252102e+00, -8.31163764e-01,  2.01253921e-01, -9.64316010e-01, -1.12376034e+00, -1.51122063e-01, -1.03051841e+00, -1.09987462e+00,
     8.42611313e-01, -3.24715048e-01,  1.64447415e+00, -4.07471150e-01, -2.74510801e-01,  2.33039841e-01, -5.18518865e-01,  4.32951450e-01,
    -5.26186514e+00,  1.43517101e+00,  9.40081179e-01, -2.33614016e+00,  2.24608970e+00, -7.58141935e-01,  2.20811462e+00, -6.95177019e-01,
    -4.04167795e+00, -9.88776535e-02,  6.81273192e-02,  4.28799279e-02, -2.28767490e+00, -2.44580126e+00, -3.62854362e-01, -2.28301096e+00,
     4.41531181e-01, -2.34147644e+00,  3.75745445e-01,  1.15830529e+00, -1.64468360e+00, -1.07189167e+00, -2.89661050e+00, -5.31704605e-01,
     5.62158465e-01, -2.28450012e+00, -2.71643424e+00,  1.55933714e+00, -1.27002060e+00, -2.78082967e+00, -1.10033321e+00, -3.42049807e-01,
    -1.93180287e+00, -3.20465899e+00, -1.15193558e+00, -6.75895751e-01, -7.87621140e-01,  2.28575134e+00, -4.49499035e+00, -8.41086149e-01},
   { 3.28324771e+00,  1.14169979e+00,  1.59502769e+00, -2.89855339e-02, -1.07153809e+00,  4.84393299e-01,  1.79713631e+00,  1.37470245e+00,
    -7.81210721e-01, -1.13911891e+00,  3.96341205e-01,  5.75136840e-01, -4.89851534e-01,  1.83746064e+00, -5.11114776e-01, -1.04601525e-01,
     1.11937356e+00,  1.05927233e-02,  2.39815980e-01,  2.54159808e+00,  2.44200975e-02,  6.29702449e-01, -1.60556257e+00, -1.77244961e-01,
    -2.34937119e+00, -5.63626242e+00,  6.97578013e-01, -2.32507682e+00,  6.61338419e-02, -1.25724089e+00,  1.23173296e+00,  6.96887374e-01,
    -1.27920032e+00,  7.34944522e-01,  3.01662517e+00,  5.92184305e-01, -6.78356141e-02, -3.42833638e+00, -7.95008302e-01,  1.71580696e+00,
    -1.57179177e-01,  6.42473996e-01,  1.98146969e-01,  2.70245051e+00, -2.12078714e+00,  1.27091253e+00, -2.64002395e+00, -2.12484217e+00,
    -8.16358745e-01, -1.90833092e-01,  1.81938434e+00,  1.98476958e+00,  3.25727773e+00,  3.47582102e-01,  3.95914167e-02,  7.58898020e-01,
     1.34488237e+00, -3.48887801e-01, -2.57823586e+00,  1.63588598e-01,  1.47663260e+00, -1.63212788e+00, -2.02380568e-01,  8.52996588e-01},
   {-8.36252719e-02,  9.79643524e-01,  9.22923446e-01, -6.19124711e-01,  1.00820148e+00,  4.84872609e-02, -4.33735281e-01,  3.75749230e-01,
     1.32976222e+00,  1.04035333e-01,  1.21442342e+00,  1.53599367e-01,  8.65585744e-01,  1.50160432e+00, -7.68369496e-01, -1.12290955e+00,
    -3.40295583e-01, -1.06166565e+00,  9.23585653e-01,  2.20633912e+00, -5.50754033e-02, -4.61906821e-01, -8.83916473e+00,  7.93742180e-01,
    -2.74574012e-01, -1.79490900e+00, -3.82982588e+00,  3.15808725e+00, -1.58939862e+00, -6.71805441e-01,  9.43473577e-01, -3.08508009e-01,
     2.82899231e-01,  8.86668339e-02,  3.05189103e-01, -6.67575240e-01, -1.94987559e+00, -2.22329211e+00, -2.56700492e+00,  3.24623853e-01,
     1.09828591e+00, -6.01289868e-01, -1.65449846e+00,  1.95027018e+00, -1.45864874e-01, -1.66735518e+00, -2.09195852e+00, -6.41567111e-01,
     8.53948534e-01, -9.37673032e-01,  1.30208802e+00, -2.93214011e+00, -3.80483031e-01, -9.37918901e-01, -3.63080740e-01,  1.58587956e+00,
     2.29334378e+00, -1.10097194e+00, -6.04571700e-01,  2.66709828e+00,  1.16737820e-01,  1.99252343e+00,  2.13856578e+00, -4.30047989e-01},
   { 4.60321784e-01, -5.34219623e-01, -7.36528695e-01,  3.63982111e-01,  1.50687528e+00,  6.12755597e-01,  2.33947372e+00,  5.93508184e-01,
    -8.16485167e-01,  7.75956631e-01, -1.39398015e+00,  2.45180225e+00, -1.50093782e+00,  7.23111033e-01,  9.91161391e-02,  6.12166882e-01,
     7.94567883e-01,  6.42601907e-01,  8.81909505e-02,  2.93037742e-01, -3.13192874e-01, -2.03314829e+00, -2.46793285e-01,  3.61608773e-01,
     6.97355807e-01, -2.04686999e+00, -3.73740762e-01, -2.87818074e+00, -1.14305079e+00, -5.11148751e-01,  6.05747879e-01,  1.55954921e+00,
    -2.61368323e-02, -7.11703598e-01,  6.85527027e-01,  2.95970649e-01, -1.11986721e+00,  3.31967920e-01,  9.27270591e-01, -1.58066213e+00,
     2.31204128e+00, -2.46876568e-01, -6.47609115e-01,  3.15792012e+00,  9.97261405e-01,  1.01681900e+00,  7.92146772e-02, -2.71866679e+00,
     1.39530357e-02, -1.33386695e+00,  3.71459484e-01, -1.35972631e+00, -1.44565392e+00, -2.37649536e+00, -1.26013231e+00,  1.27989852e+00,
     1.66761851e+00, -1.20525360e+00,  5.83840072e-01,  4.92654145e-01, -2.16024423e+00,  1.81316185e+00, -7.57743716e-01,  1.26013374e+00},
   {-1.02748978e+00,  9.41706419e-01, -7.93454275e-02, -4.50806409e-01, -2.42174339e+00, -9.94316757e-01,  1.76853609e+00,  5.04850090e-01,
    -1.64562774e+00,  1.52350092e+00,  2.83667028e-01, -1.05717830e-01,  4.24884701e+00, -7.92837143e-02,  3.82863134e-01, -1.00661707e+00,
     5.75270355e-01, -3.19271278e+00,  5.98579168e-01, -1.66589010e+00, -1.78249848e+00,  8.13062966e-01,  7.60964918e+00, -9.04772222e-01,
     1.34320006e-01, -1.76929998e+00, -9.87040102e-02,  2.49106097e+00, -5.71142435e+00, -2.94156522e-01, -1.51212704e+00,  5.27005315e-01,
     2.04178795e-01,  2.63868189e+00,  7.05672801e-01,  2.20415258e+00,  3.06221414e+00,  1.52559650e+00,  1.06183338e+00, -1.01972193e-01,
     1.66200008e-02, -3.43239367e-01,  2.12042642e+00,  6.71517849e-02,  8.47751182e-03,  7.89431572e-01, -1.80093205e+00,  1.98439860e+00,
     1.06498934e-02, -1.60083145e-01, -4.21992689e-01, -2.87869591e-02, -8.95114243e-01,  3.22632790e+00, -7.93016672e-01, -7.60968208e-01,
    -4.47363281e+00, -5.18537521e-01, -1.42336774e+00, -9.37918961e-01, -2.56812364e-01, -2.75105059e-01, -5.59401870e-01,  2.05563331e+00},
   {-1.98105228e+00, -7.61652708e-01, -4.75083083e-01,  8.83244932e-01, -6.17667437e-01, -1.17211957e-02, -2.29521084e+00, -2.19240636e-01,
    -5.00456631e-01, -3.45115805e+00,  3.47689152e+00, -4.35053818e-02, -1.15293193e+00,  1.40600455e+00, -2.21223652e-01,  5.01559317e-01,
     1.15741396e+00,  7.09696174e-01, -8.17422032e-01,  6.86618507e-01,  2.38215208e-01, -2.42150903e+00, -1.00779939e+00, -1.02917576e+00,
     3.45643789e-01, -7.46098608e-02,  5.09456813e-01, -1.89056706e+00,  7.03044474e-01, -5.20080948e+00, -2.06678033e+00, -7.87260354e-01,
    -1.31400371e+00, -8.22491884e-01, -4.86024261e-01, -1.27722991e+00, -1.57380223e+00,  2.17420959e+00,  2.64614522e-01,  9.63854194e-01,
    -2.14811587e+00, -4.66184974e-01,  2.28914666e+00,  8.96686792e-01, -7.00983822e-01, -2.67519259e+00, -2.26622558e+00, -1.05797362e+00,
    -8.90268743e-01,  4.44199979e-01, -7.70935774e-01, -1.08850050e+00,  5.49493015e-01,  5.88080347e-01,  1.34583250e-01, -1.79986048e+00,
     6.47122502e-01, -8.02073956e-01,  1.18271720e+00, -1.36663985e+00,  7.38167644e-01, -3.63859034e+00,  1.75004745e+00, -8.58492196e-01},
   { 6.18547201e-01,  1.44297862e+00,  8.71567011e-01, -1.25455117e+00, -5.43080159e-02,  1.12664270e+00,  2.09354043e+00, -5.13283670e-01,
    -1.30478418e+00, -1.41316855e+00, -3.06405449e+00, -1.10633783e-01, -2.83201188e-01,  1.84483564e+00, -1.76791716e+00,  6.65436149e-01,
     2.24392700e+00,  9.99211192e-01,  8.97373021e-01,  9.78503525e-01,  1.03527355e+00, -4.87026513e-01, -1.56567848e+00, -1.56826782e+00,
    -2.11884928e+00,  5.71655691e-01, -9.42173541e-01, -6.30812526e-01, -7.59095371e-01, -1.53755116e+00, -5.91035271e+00,  6.68344080e-01,
    -3.67202647e-02,  2.72323310e-01,  9.57286775e-01,  2.21180296e+00, -1.74083328e+00, -4.40153599e+00, -1.52085602e+00,  2.23009288e-01,
     7.83814311e-01, -1.88777577e-02, -7.42349267e-01, -1.02748883e+00,  1.23386800e+00,  4.70085144e-01, -5.92375815e-01,  3.50259870e-01,
    -1.13554335e+00, -6.74506187e-01,  1.23334217e+00,  1.08590412e+00,  9.28019583e-01, -1.06144619e+00, -5.56397177e-02,  1.01161265e+00,
     1.52933732e-01, -4.97737497e-01, -1.26056468e+00, -4.12067771e-01,  1.26943970e+00,  3.71473742e+00, -2.41185951e+00,  2.34972030e-01},
   {-1.19508803e+00, -3.18944693e+00, -1.77987432e+00, -8.25225890e-01,  1.60204601e+00, -2.04119468e+00,  8.47996771e-01, -1.52106181e-01,
    -8.75194907e-01,  7.74294853e-01,  8.02797735e-01, -1.61120200e+00,  1.42390892e-01, -4.64000314e-01, -6.67921066e-01, -1.07880795e+00,
    -8.67339000e-02,  9.22265589e-01,  1.40641153e-01,  5.32159090e-01, -3.31559610e+00,  2.84130168e+00,  1.23935509e+00,  1.37848407e-01,
    -3.21044993e+00,  9.70976293e-01, -1.49790192e+00,  1.37236810e+00, -1.12900996e+00, -3.18609738e+00, -6.79397583e-03, -3.21409178e+00,
    -6.19045854e-01,  2.04176283e+00,  5.52757859e-01, -6.00565016e-01,  2.17352104e+00, -2.73033679e-01,  4.33577776e-01,  1.68734348e+00,
     1.54470420e+00, -2.56681347e+00,  3.96235585e-02, -1.51119971e+00, -1.93511224e+00,  1.44459522e+00,  3.43263268e+00,  2.09935141e+00,
    -1.01834261e+00, -1.91187978e+00,  9.37146991e-02,  3.40025246e-01,  2.69672096e-01, -1.38095468e-01, -1.35702348e+00,  1.78255826e-01,
     7.51014233e-01,  4.69730757e-02, -7.00707495e-01, -3.18861842e+00, -1.11864150e-01,  1.84105289e+00, -7.68990695e-01, -5.41562736e-01},
   {-8.20131421e-01,  4.36499506e-01,  8.29172373e-01,  1.25672960e+00,  2.52049714e-01, -1.40954256e+00, -6.21256828e-01, -3.67511332e-01,
     1.51701307e+00,  5.62030315e-01,  2.45572865e-01, -3.69784117e-01, -2.86501193e+00,  5.07896364e-01, -7.71578312e-01,  1.41548264e+00,
    -2.35328674e+00,  2.74562120e+00,  1.45912993e+00, -2.32458815e-01, -2.01407839e-02, -9.00646210e-01,  2.09878251e-01,  2.07211113e+00,
     2.06561852e+00,  1.03557557e-02, -4.13014263e-01, -2.57154137e-01, -1.94394350e+00,  1.28862691e+00,  1.01870966e+00, -1.70302737e+00,
    -4.25213766e+00, -1.77010798e+00, -1.97187400e+00, -1.98230934e+00, -2.31971502e+00,  1.05653667e+00, -3.33285242e-01,  3.80212617e+00,
     8.28759193e-01, -1.23483932e+00, -1.47910786e+00, -2.01139593e+00,  7.27880239e-01,  9.84567583e-01,  3.21672368e+00,  7.06767797e-01,
     9.61829603e-01,  5.41431785e-01,  2.09852386e+00,  8.68698657e-01,  2.46446157e+00, -1.57337248e+00,  2.13380828e-01,  2.57436776e+00,
     1.52191651e+00,  1.19669306e+00,  3.11973619e+00, -3.04181814e-01, -1.24105191e+00, -7.09452406e-02,  2.04181457e+00, -5.43882310e-01},
   {-6.45933002e-02,  1.07980502e+00,  7.26028383e-01, -9.54759717e-01,  2.34026456e+00,  2.12514058e-01,  1.02275479e+00,  6.46798730e-01,
    -2.57561111e+00,  2.72877336e-01,  2.94539690e+00, -3.79138261e-01, -3.24904084e-01,  1.17847681e+00, -6.17196023e-01,  5.63812017e-01,
     1.90834068e-02,  1.64096975e+00,  8.63400638e-01,  1.70160282e+00, -4.97586429e-01, -6.41189590e-02, -4.30264652e-01,  5.53230047e-01,
    -1.68769732e-01, -3.19486451e+00,  3.60562533e-01,  3.54352117e+00, -1.03309095e+00, -5.55277944e-01, -1.28236401e+00,  1.52333605e+00,
     7.63511419e-01, -3.12492800e+00,  6.06159747e-01,  1.10225356e+00,  1.87604678e+00,  1.01782382e+00,  4.14404511e-01,  2.20797181e+00,
     1.14370739e+00,  8.26334178e-01,  1.76015282e+00, -1.57128072e+00,  8.81420672e-01,  2.20862869e-02, -1.30737042e+00, -3.60992134e-01,
    -5.49452186e-01,  1.14204025e+00, -4.26698029e-01, -1.73082530e+00,  7.52241254e-01, -1.54813337e+00, -7.45274365e-01,  3.40246820e+00,
     3.28291774e+00,  1.24766624e+00,  1.69237697e+00,  9.18572187e-01, -1.45132148e+00,  2.01255888e-01,  1.82715166e+00,  1.79951799e+00},
   { 3.04920363e+00, -8.31928492e-01,  1.62756455e+00, -4.93252516e-01, -1.44508803e+00, -3.60713392e-01,  2.62493038e+00,  4.24101591e-01,
     1.15701008e+00,  8.76940608e-01, -1.45197535e+00,  5.73076725e-01, -9.75425303e-01,  1.66841960e+00, -3.27789736e+00, -1.81910324e+00,
     9.91741240e-01,  3.74460912e+00,  2.34727755e-01,  2.22767735e+00,  3.55490893e-01,  2.24256611e+00,  1.29734838e+00, -4.43471104e-01,
    -2.38654822e-01,  1.86706591e+00, -5.52343845e-01, -2.22894669e+00, -2.08314896e+00, -2.42170405e+00, -1.95327449e+00,  1.76282275e+00,
    -1.77675128e+00,  1.40441668e+00, -7.18555510e-01,  3.32843781e+00,  3.32752973e-01, -5.95911562e-01, -7.33381033e-01, -3.81447166e-01,
     6.57686830e-01, -2.00982261e-02,  1.01232576e+00,  1.10356879e+00,  9.25907314e-01,  4.47861888e-02, -5.69770336e-01, -1.17872894e+00,
    -1.25846350e+00, -1.83732629e+00,  1.19841373e+00,  2.26879573e+00,  1.01397681e+00, -2.69513106e+00,  2.28662804e-01,  1.63577259e+00,
     1.11838818e+00,  5.12303054e-01, -6.65193439e-01, -4.00819206e+00,  6.57058358e-01,  7.66616940e-01, -1.37674105e+00,  1.13622949e-01},
   {-1.06174625e-01, -1.20202672e+00, -7.58895636e-01, -1.46033108e+00,  3.43255973e+00, -1.12686086e+00,  3.49084401e+00, -2.37509274e+00,
    -1.57754183e+00, -7.82332122e-01, -1.15230656e+00,  1.29409027e+00, -8.71615231e-01,  1.86280882e+00, -1.38201654e+00, -1.34410596e+00,
     3.13376129e-01,  3.90025306e+00, -7.21055090e-01,  4.04679871e+00, -1.44426203e+00,  8.22197080e-01, -1.01851404e+00, -1.39976037e+00,
    -1.88489687e+00,  8.65398228e-01, -6.09423518e-01,  1.07103193e+00, -1.50514209e+00, -2.96972156e-01,  2.51926035e-01,  1.92969072e+00,
    -1.99973667e+00,  1.54086745e+00,  2.35324430e+00, -4.36209515e-02, -3.36218619e+00, -5.75847507e-01, -1.50588500e+00,  9.94547248e-01,
    -1.05072641e+00,  1.15510190e+00, -1.16779602e+00, -3.15861940e-01, -1.96528316e+00,  1.07040739e+00, -5.58115840e-01,  2.27161169e+00,
    -1.78527975e+00, -1.71632028e+00, -9.06505138e-02, -1.59793484e+00,  1.52030647e+00, -1.88634920e+00, -1.31846511e+00,  1.14145696e+00,
     5.09211063e+00, -2.77711153e+00, -2.22108412e+00, -2.59647679e+00,  2.57778406e-01,  1.17754591e+00, -5.80869555e-01, -2.83769518e-01},
   { 1.25689097e-02,  1.86403766e-02, -1.16228366e+00, -1.81910157e-01,  1.81395292e+00, -9.98182297e-01, -7.73209035e-01, -9.18159261e-02,
    -1.77662635e+00,  2.57862735e+00,  1.14180470e+00, -7.00227976e-01,  6.41577661e-01, -4.21825498e-01, -1.37557125e+00, -7.06384107e-02,
    -1.43958437e+00,  1.66489318e-01, -9.68379557e-01,  7.28102326e-02, -2.12435842e+00, -3.03366780e-01,  1.90439129e+00, -8.29041183e-01,
    -2.39811793e-01, -1.88990796e+00, -9.59812291e-03,  8.98549020e-01, -1.10210288e+00, -3.64977419e-01, -2.49846983e+00,  6.28553033e-01,
     2.78329897e+00,  1.76069066e-01,  4.31313552e-02, -9.86262321e-01, -1.92513788e+00, -6.71466112e-01, -6.14162862e-01,  2.51103234e+00,
     1.47975647e+00, -1.42780960e+00,  1.85999417e+00, -2.74154544e+00,  6.78632021e-01,  1.32405090e+00,  2.98431039e+00,  5.85663497e-01,
    -6.63487166e-02,  1.26019157e-02, -6.06201470e-01,  4.87492569e-02, -3.89266051e-02,  6.40982166e-02,  3.83037239e-01,  1.82177556e+00,
     1.65933406e+00,  1.16074073e+00, -2.42069736e-01, -2.69728214e-01, -3.49849963e+00, -1.50941640e-01,  7.60620058e-01,  8.98026109e-01},
   { 6.71186209e-01, -4.80784684e-01, -1.77055573e+00, -2.57176638e-01, -2.22837269e-01, -4.20725405e-01,  2.23032141e+00,  6.37280881e-01,
    -1.40813911e+00,  1.56711209e+00, -8.00088227e-01,  2.95239955e-01, -5.35168648e-01,  1.30514920e+00, -1.74449313e+00,  5.75533152e-01,
    -3.01320970e-01,  1.40153861e+00, -2.26678163e-01, -1.46027237e-01,  2.63016135e-01, -9.40876782e-01,  2.06478286e+00, -1.86783716e-01,
    -7.15692222e-01,  4.60190922e-01, -4.98473737e-03,  1.32683051e+00, -1.32781553e+00, -5.26356101e-01, -1.06156170e+00, -9.95918334e-01,
     1.36179185e+00, -4.83319461e-01, -1.44214898e-01,  2.30631128e-01,  7.51112461e-01, -2.08103776e+00, -1.34676993e+00,  2.15061045e+00,
     2.97536284e-01, -1.03957045e+00, -1.07161772e+00, -1.91079631e-01,  8.22946310e-01,  1.59033155e+00,  1.42561227e-01, -5.06064892e-01,
    -3.15003097e-01, -8.10573399e-01,  1.13423014e+00,  1.96476832e-01, -7.48981476e-01,  2.25273505e-01, -3.61280322e-01,  2.18715787e+00,
     1.32268918e+00,  3.64213675e-01,  5.73397517e-01, -1.89764845e+00,  2.22964302e-01,  4.66505378e-01, -5.79747260e-01, -5.43141663e-01},
   {-6.32998109e-01,  1.74828857e-01, -2.22177601e+00,  4.01720583e-01,  1.38001651e-01, -2.62624025e+00, -1.13322461e+00, -2.27061108e-01,
    -2.54416585e-01, -1.23782575e+00, -1.46390557e+00,  1.12795985e+00, -1.35878825e+00, -7.27649927e-02,  2.57847095e+00, -1.09271124e-01,
    -8.13287973e-01,  1.50970900e+00, -5.27457237e-01,  4.40422326e-01, -1.23102510e+00,  5.68650484e-01,  1.53786257e-01,  9.85669553e-01,
    -1.23496795e+00, -4.37109143e-01, -5.37084997e-01, -1.15217471e+00,  2.63462949e+00,  1.66448510e+00, -9.80875671e-01,  1.75242043e+00,
    -1.26336336e+00,  5.66708624e-01,  1.72538102e-01, -1.40298510e+00, -1.80919850e+00,  1.43457964e-01, -4.12167835e+00, -9.66986775e-01,
     2.95958251e-01, -1.71384096e+00, -5.30472755e-01,  2.70593822e-01, -3.25769329e+00, -8.66751254e-01,  8.88772309e-01,  1.32266891e+00,
    -7.50156701e-01,  5.72190762e-01, -3.81232977e-01, -7.29672730e-01,  2.00703979e-01, -1.05645514e+00,  6.31456077e-01, -6.17654800e-01,
    -6.58003509e-01,  5.13659477e-01,  3.09203029e+00, -5.31429589e-01, -3.43586296e-01,  2.89971679e-01, -2.62411308e+00,  3.11827451e-01},
   { 6.65940046e-01, -2.14553088e-01,  4.04101282e-01, -8.53480756e-01, -2.09571123e-01,  7.02162206e-01,  1.98867905e+00, -9.37618554e-01,
    -1.00119710e+00,  8.62060964e-01,  9.35986459e-01, -1.09334327e-01,  8.09311152e-01,  1.75887692e+00, -3.17583871e+00, -1.60366759e-01,
    -1.96815324e+00,  3.52138723e-03, -5.39021455e-02,  8.21128115e-02, -1.51867497e+00, -1.52870464e+00,  2.85718894e+00, -1.53119397e+00,
    -7.56452680e-01,  9.81771886e-01, -7.97167718e-01, -1.60119510e+00, -1.54624358e-01,  3.93522829e-01, -2.07956505e+00, -6.43649042e-01,
     1.60853386e-01,  7.35813916e-01,  9.54604506e-01,  2.22164655e+00,  1.69763839e+00,  2.07786918e+00, -2.93971467e+00, -3.72946811e+00,
     2.79017299e-01,  7.32576907e-01,  2.05838418e+00,  1.08014679e+00,  5.01684189e-01,  7.28275180e-01,  8.61507058e-01,  7.19067529e-02,
    -8.81336808e-01, -1.93712580e+00,  1.36283612e+00,  1.28485823e+00,  8.73142779e-02,  4.64897037e-01,  2.25542143e-01,  1.84811008e+00,
     5.84955752e-01,  1.85190141e-01, -1.75560653e+00, -5.44774592e-01, -2.73079491e+00,  2.72710609e+00,  1.23094523e+00,  5.18396258e-01},
   { 1.77492356e+00,  1.66792798e+00, -2.06719017e+00, -1.73104599e-01,  1.36336827e+00, -1.09478482e-03,  2.99156833e+00, -9.16276202e-02,
    -3.19536591e+00,  1.77387044e-01,  4.76440102e-01,  2.25895119e+00, -2.80276418e+00,  4.31925327e-01,  6.03005707e-01,  1.81485817e-01,
     6.40009761e-01,  1.31611097e+00, -3.74021262e-01,  5.13353109e-01,  6.26315713e-01, -9.96399581e-01,  1.45126069e+00,  5.73728144e-01,
     2.48980433e-01, -3.90442371e-01,  3.91959041e-01, -2.02913833e+00, -1.91628671e+00,  1.01323998e+00, -2.94691682e+00, -2.11401716e-01,
    -3.99979019e+00,  2.41491723e+00, -3.02332014e-01,  2.31036949e+00, -3.73753667e+00, -6.17989779e-01,  1.87267935e+00, -4.96873647e-01,
    -5.32706022e+00,  3.92525643e-01,  7.08558142e-01,  1.04970288e+00,  1.14678308e-01,  1.03304660e+00, -6.43969476e-01, -3.52939677e+00,
    -4.16498601e-01,  5.17225683e-01, -1.19637263e+00, -8.56129706e-01, -1.43472373e+00, -3.15679479e+00, -7.64413700e-02, -1.09143043e+00,
     1.60752654e+00,  1.00856769e+00, -6.53832436e-01,  1.60644507e+00,  2.52071095e+00,  5.89668155e-01, -2.22302532e+00, -5.33398807e-01},
   {-2.83812284e-01, -1.58355653e+00,  4.81051028e-01, -3.81743580e-01,  1.65352905e+00, -1.19196936e-01,  1.42963660e+00, -1.38945639e-01,
    -2.51108527e+00,  2.36684084e+00,  1.95342803e+00, -6.16618574e-01,  1.87485531e-01,  5.19550860e-01, -3.08821082e+00, -9.35117230e-02,
     7.60111492e-03, -6.37862742e-01, -1.04396701e+00, -4.49289680e-01,  1.12929189e+00,  8.20615709e-01,  1.04163527e+00,  3.55779797e-01,
     1.42455697e+00, -1.05823636e+00,  8.57255161e-01,  1.91323507e+00, -2.65412092e+00,  1.10249531e+00, -5.18099070e+00,  1.53810823e+00,
    -1.05049932e+00, -1.45514596e+00,  4.73762214e-01,  7.79992461e-01,  6.84049904e-01,  1.93856287e+00,  7.33683646e-01, -1.67178378e-01,
    -1.96624660e+00, -3.89765620e+00,  8.55553389e-01,  8.62173080e-01, -1.70898867e+00,  6.59959376e-01,  2.69599319e-01,  3.01516205e-01,
     9.58174765e-01,  4.22699392e-01,  1.03043044e+00, -5.96641421e-01,  8.07332635e-01, -1.19762897e+00, -2.92136967e-01,  4.96387184e-02,
     1.60820320e-01,  3.14143628e-01, -1.45934498e+00, -1.47326374e+00,  1.51533520e+00, -2.26901746e+00,  4.28392440e-01, -3.65028858e-01},
   { 8.68384063e-01,  1.53941548e+00,  1.63980469e-01, -3.83232623e-01,  7.89298594e-01, -1.02161892e-01,  2.15835404e+00,  3.34570736e-01,
     1.17131400e+00, -9.51062322e-01,  4.06139225e-01,  2.24161959e+00, -2.31982660e+00,  8.06288362e-01, -3.01424354e-01, -2.75776005e+00,
     7.17569888e-01,  1.09377301e+00, -4.95613813e-01,  1.92486703e+00,  1.68377116e-01, -1.86313853e-01, -3.16865659e+00, -4.51537400e-01,
    -1.57494318e+00, -5.19461632e-01, -9.25904736e-02,  1.33623421e+00,  2.72170514e-01, -1.83577454e+00,  2.37934947e+00,  2.02571726e+00,
    -1.80828929e+00, -5.70736408e-01,  9.50915635e-01,  1.04307210e+00, -1.26965570e+00, -2.36660385e+00, -1.89452815e+00, -1.11123192e+00,
    -3.85088384e-01, -1.15440130e+00, -3.14244676e+00,  1.90840828e+00, -2.06647202e-01, -1.62748790e+00,  2.93323189e-01, -3.06623429e-02,
    -2.60187894e-01, -9.55310524e-01,  1.57451141e+00,  4.35328007e-01, -8.62659872e-01, -1.71313131e+00, -2.04209656e-01,  1.74810851e+00,
     3.71423531e+00,  8.33197951e-01, -1.81625068e-01, -1.15701950e+00,  9.08242881e-01, -6.67233109e-01, -9.10217702e-01, -6.53268695e-01},
   {-1.01045661e-01,  1.90718675e+00, -1.87845752e-01, -5.37985682e-01,  1.17976874e-01,  4.62787330e-01,  1.04667389e+00,  1.29785073e+00,
     9.42676187e-01, -3.74649763e-02,  6.94797754e-01, -1.95326135e-01, -8.36485863e-01,  5.67840815e-01, -4.66696650e-01, -1.36450624e+00,
    -2.44188443e-01,  1.46765381e-01,  6.62049592e-01,  1.10991442e+00, -5.81073463e-01,  1.51181149e+00, -5.79563677e-01,  3.58349860e-01,
    -9.68034148e-01, -1.43311486e-01,  2.84075439e-01, -7.05640614e-01, -1.12084188e-01, -6.96384132e-01,  1.13322544e+00,  6.11801088e-01,
    -1.98561299e+00,  1.29429853e+00,  1.84885311e+00,  6.74832940e-01, -1.33147523e-01, -3.29123068e+00, -1.19356835e+00,  2.26102069e-01,
     3.58273953e-01, -1.14020908e+00, -1.16083360e+00, -4.37517405e+00,  4.04620409e-01, -1.10885131e+00, -5.31804800e-01,  7.74165511e-01,
    -7.95705691e-02, -1.28854513e+00,  1.23782486e-01,  1.57714283e+00,  8.60957623e-01,  1.08663237e+00,  2.79806107e-01,  4.24723923e-02,
     9.21544850e-01,  4.52700377e-01, -2.97594666e-01,  1.31944966e+00,  1.31984925e+00,  9.92963791e-01, -6.76667869e-01, -7.27020979e-01},
   { 1.46024793e-01,  9.61011827e-01,  6.56279743e-01, -1.55790997e+00, -1.69308567e+00,  1.33533466e+00,  5.28287470e-01, -2.42655420e+00,
    -1.93969345e+00,  1.82655668e+00, -8.98094714e-01,  1.13613927e+00, -2.26058125e+00,  1.16180456e+00, -3.17150712e+00, -7.43470490e-01,
    -5.15856445e-01,  5.41672707e-01,  2.71636229e-02, -1.47524524e+00, -5.01163363e-01, -6.41869307e-01,  1.22142889e-01,  1.69982421e+00,
    -3.54062498e-01,  1.69165838e+00, -7.84039557e-01, -1.20483980e-01, -3.11514115e+00, -6.34438813e-01,  6.52630448e-01, -6.48618221e-01,
     3.28263670e-01, -2.36954972e-01,  3.66017282e-01,  1.90042913e+00,  8.67993057e-01,  1.07990897e+00, -1.77103901e+00,  4.26667929e+00,
    -3.77709210e-01, -1.17570721e-01, -2.10407749e-01, -1.27896953e+00, -2.00468636e+00,  1.44678438e+00, -1.25563812e+00,  6.66365996e-02,
    -1.13918614e+00,  4.53887850e-01, -1.77883339e+00,  4.98815149e-01,  2.12940097e+00, -2.51110530e+00, -6.38622582e-01,  2.42822790e+00,
     5.50839484e-01,  7.02737689e-01,  2.59858489e-01,  1.31964028e+00,  1.65182829e-01,  2.30631590e+00,  6.12274528e-01,  5.43279290e-01},
   { 7.96382427e-01,  3.55678946e-01,  1.70272672e+00, -6.71762228e-02,  2.56826973e+00, -9.19779092e-02, -1.86406994e+00,  5.92713714e-01,
    -3.10780954e+00, -7.45943010e-01, -1.56756961e+00,  9.44455802e-01,  5.39322793e-02,  4.63829696e-01,  8.20884258e-02, -6.83986768e-02,
     1.63639918e-01, -3.50632757e-01, -4.92601603e-01,  1.60497451e+00, -5.64715087e-01, -9.33348835e-01, -3.08476138e+00,  6.94053948e-01,
    -1.79687786e+00,  2.52404261e+00,  5.57787716e-01, -5.90803981e-01, -4.14759493e+00,  7.00252652e-01,  1.44934595e+00, -6.94671094e-01,
     2.59224510e+00, -1.24415278e+00,  3.06150031e+00, -1.27650654e+00, -1.89911044e+00, -3.76678562e+00,  9.77366745e-01,  4.07383531e-01,
     4.44736600e-01, -2.70867676e-01,  2.42938101e-02,  5.18704474e-01,  1.23543730e-02, -4.72120476e+00,  2.59943390e+00,  3.65432382e-01,
    -2.82092005e-01, -1.88162184e+00,  1.17949104e+00, -3.92932326e-01,  9.35592532e-01,  1.19962700e-01,  4.51085940e-02,  1.00823188e+00,
     1.45918095e+00,  1.93827987e-01, -7.68560112e-01,  3.32837081e+00,  1.61310553e-03,  7.19623193e-02,  6.80988610e-01,  5.05286515e-01},
   {-6.80676103e-01, -9.98489439e-01,  3.80047202e-01,  1.12865043e+00,  2.52396584e+00, -2.06900334e+00, -1.33777678e+00,  3.88789684e-01,
    -3.84713888e-01, -2.37442708e+00,  6.39469087e-01, -3.98359030e-01, -2.17483664e+00,  1.27792227e+00,  2.84189433e-01, -1.02135265e+00,
     6.71479329e-02,  1.66105580e+00, -1.17207694e+00,  2.57589221e+00, -1.18182969e+00, -5.26891351e-01, -9.93677557e-01, -3.52888942e-01,
    -2.79166555e+00, -1.35843039e+00,  8.79966915e-01,  1.14008677e+00, -1.15337420e+00,  1.76020288e+00,  1.46984684e+00, -1.72524250e+00,
     2.19479442e+00, -8.28369260e-01,  1.40433264e+00, -2.67417693e+00, -4.66973782e+00, -7.83761382e-01, -1.60596237e-01, -1.25528479e+00,
     2.84037733e+00, -1.33401775e+00,  4.16973740e-01,  1.01163626e+00, -2.36781979e+00, -2.04386306e+00, -2.10928941e+00, -3.63942444e-01,
    -5.14532983e-01, -6.21913731e-01,  2.31756687e-01, -3.94202061e-02, -1.56519926e+00, -1.24243450e+00, -1.97843075e+00,  1.32459581e+00,
     3.78823853e+00,  3.09182137e-01, -5.58473647e-01,  1.90372765e+00,  1.44846469e-01, -1.44942582e+00,  6.46993816e-01,  5.38270473e-01},
   { 1.27281654e+00,  1.08739877e+00,  4.15847182e-01,  8.88656378e-01,  2.00723600e+00,  6.46139264e-01,  1.36503518e-01,  1.87056530e+00,
    -2.13800168e+00,  8.62091839e-01,  4.81618717e-02,  1.99598551e+00,  1.06551063e+00,  1.35911310e+00, -9.87881422e-01, -4.47367042e-01,
     2.12165833e+00,  7.22424805e-01, -1.51942706e+00,  4.06476319e-01, -1.58373684e-01,  1.43104959e+00, -1.28012991e+00, -2.24414304e-01,
    -1.67228711e+00,  1.58820307e+00,  1.35131562e+00,  1.96360958e+00, -3.85922170e+00, -1.13656425e+00, -4.87118483e-01,  3.08846068e+00,
    -7.05103219e-01,  2.84160876e+00,  6.32872343e-01,  4.35035169e-01,  5.41658640e-01, -1.28057763e-01,  1.48762155e+00, -1.93737000e-01,
     7.50272214e-01, -1.29938865e+00, -1.36974752e-01, -2.51361227e+00,  9.24777031e-01,  1.06244206e+00,  4.70584854e-02, -5.10637283e+00,
     1.25330508e+00, -2.35231709e+00,  2.50624490e+00, -2.75895786e+00, -2.82823586e+00,  1.59616208e+00,  7.61883199e-01, -6.84518695e-01,
     9.71544504e-01, -8.07212055e-01,  7.24462032e-01, -1.64650872e-01,  8.54379416e-01,  3.89403939e-01,  3.63162309e-01,  2.31941748e+00},
   { 1.58606434e+00,  1.66210747e+00, -1.40149748e+00, -3.13032269e-01, -1.01826680e+00, -2.27543974e+00,  4.09881145e-01, -5.46419978e-01,
    -1.93565869e+00,  1.37076390e+00,  5.71334898e-01,  5.99793434e-01,  2.76903272e+00, -8.81942511e-01,  6.11209452e-01,  1.20699644e+00,
    -9.16882753e-01, -8.10316861e-01,  1.06854093e+00, -1.82481468e+00,  2.27260256e+00,  1.05326796e+00,  2.06373835e+00,  2.11083889e+00,
     2.33207345e+00, -6.17892981e-01, -2.55558252e-01, -1.20908940e+00,  2.38431740e+00, -6.76288068e-01, -6.48217142e-01, -3.74475121e-01,
     4.30186391e-01,  7.74304152e-01, -8.34129527e-02, -1.30927157e+00,  1.60093915e+00, -2.00961280e+00,  1.67818284e+00,  5.95993936e-01,
     1.30345714e+00, -1.82235265e+00, -4.49773520e-01,  1.94591677e+00, -1.50808918e+00,  1.71405423e+00,  6.84395209e-02, -1.59981406e+00,
    -2.90105128e+00,  1.87335849e+00,  1.66133440e+00,  2.29726410e+00,  2.09538484e+00, -2.78883606e-01, -3.31207466e+00,  7.04799592e-01,
    -2.19627976e+00,  1.77068186e+00,  6.82988107e-01,  8.04147303e-01, -2.82486129e+00, -2.45886230e+00, -1.51722884e+00,  1.19392431e+00},
   {-1.32085550e+00, -1.00329351e+00,  4.52019244e-01,  2.19000173e+00, -1.15475941e+00,  2.89909571e-01, -1.91263878e+00,  1.48515475e+00,
     1.42704105e+00,  1.15840173e+00,  1.66070282e+00, -4.95902628e-01,  3.21579194e+00,  7.27629513e-02,  3.86777848e-01,  1.01674736e+00,
     2.14708304e+00, -2.89839959e+00,  1.21398438e-02, -1.98439229e+00,  2.42026076e-01,  4.11235601e-01,  3.30380154e+00, -1.87166905e+00,
     3.55794692e+00, -6.03317499e-01,  2.89402628e+00,  2.20181775e+00,  3.91326451e+00,  2.15237689e+00,  8.99442494e-01,  4.96708572e-01,
    -9.64232802e-01,  1.70893443e+00, -3.29649985e-01, -9.01732028e-01, -1.74972653e+00, -1.51392508e+00,  1.74043882e+00, -5.38049126e+00,
     2.85568684e-01,  5.31588674e-01,  9.40480232e-01,  1.42973161e+00, -1.96880221e+00, -3.39969814e-01, -9.67630923e-01,  2.45916224e+00,
    -6.81801677e-01, -6.56946182e+00, -2.31166148e+00,  6.19125903e-01,  1.13976374e-01,  2.67371774e-01,  1.49282455e+00, -1.03737032e+00,
    -3.34280300e+00, -2.92504072e+00, -1.37637734e-01,  1.32225704e+00,  1.71402335e+00, -1.10655144e-01, -4.87607062e-01, -4.88008589e-01},
   { 1.54228079e+00,  9.76553917e-01, -8.68055701e-01,  6.86737895e-01, -4.68135744e-01, -1.72979617e+00,  2.10727143e+00,  9.86360073e-01,
    -2.15209198e+00,  2.45029330e-01, -2.25649655e-01,  2.28890824e+00,  1.44532537e+00,  1.54594135e+00, -2.43356180e+00, -2.79316449e+00,
    -1.31360090e+00, -6.48978293e-01,  1.77779758e+00,  1.22830176e+00, -3.30872965e+00, -1.27833021e+00, -4.56354350e-01, -4.13602924e+00,
    -4.72171575e-01,  2.36611557e+00,  1.76688087e+00, -4.91512954e-01, -1.66885626e+00, -1.31220663e+00, -2.00965810e+00, -1.06312120e+00,
     7.45902862e-03,  3.03744388e+00,  3.30606294e+00,  4.55693340e+00,  2.00980878e+00, -1.56880128e+00, -2.65169120e+00,  1.85541725e+00,
    -4.36571926e-01, -1.03352085e-01,  5.79517603e-01,  3.13782167e+00,  1.28714108e+00,  1.09116805e+00, -1.24962497e+00, -2.28419733e+00,
    -1.90684867e+00, -1.99927354e+00, -3.88461709e+00,  6.67223215e-01,  8.97105277e-01,  1.60197115e+00,  2.40496378e-02, -3.32910597e-01,
    -8.24220657e-01,  2.18701720e+00, -3.16035032e+00,  1.12234581e+00, -1.68395624e-01, -9.05629814e-01,  1.78256035e+00,  2.37117815e+00},
   { 3.02204192e-01,  1.18310070e+00, -1.50597262e+00, -6.69086576e-01,  1.41701841e+00,  1.68283045e-01,  1.38201320e+00,  8.31945777e-01,
    -8.09384108e-01,  1.03431487e+00,  1.19091853e-01,  1.22278047e+00, -3.16683352e-02,  1.21276414e+00,  2.44251136e-02,  4.31324467e-02,
    -7.51904309e-01, -6.98274314e-01, -6.94271922e-01,  1.47764099e+00, -1.01294267e+00, -9.00161088e-01,  9.18405175e-01,  6.27843291e-02,
     1.11916637e+00, -2.17818365e-01,  5.34213245e-01,  1.55843377e+00,  9.30006802e-01,  5.88820338e-01, -1.63931832e-01, -7.83317804e-01,
    -5.50934255e-01,  4.10192996e-01,  2.26055336e+00,  2.31032476e-01,  1.74173862e-01, -2.77334809e+00, -1.61941782e-01, -2.18296885e-01,
     8.33341062e-01, -7.76656151e-01,  9.82393682e-01,  4.27398777e+00,  6.54846013e-01,  1.60694540e+00,  3.34837735e-01, -1.11537468e+00,
     7.63051584e-02,  4.13158685e-01,  9.22150314e-01, -2.88878179e+00,  3.23805833e+00, -2.45377994e+00, -1.60119736e+00, -1.39710689e+00,
     1.77489519e+00,  1.39108574e+00, -9.52593386e-01,  1.23510921e+00, -4.62913543e-01,  1.58906901e+00, -2.61660099e+00,  9.27253127e-01},
   { 1.33212194e-01,  3.83663118e-01,  4.22774732e-01, -5.15514463e-02, -7.17779040e-01,  3.74486834e-01, -1.79193270e+00, -3.86510998e-01,
    -1.78073362e-01,  1.97543398e-01,  3.14636993e+00, -2.91655111e+00,  3.14041436e-01,  3.12309675e-02, -2.81698704e+00,  1.23946881e+00,
    -1.65377545e+00, -2.50469577e-02, -3.78368199e-01,  8.01235437e-01, -1.65564954e+00, -1.02352512e+00, -2.07794642e+00, -1.43134642e+00,
     1.21821141e+00,  1.57157760e-02,  1.05310524e+00,  2.42825672e-01,  5.96164942e-01,  2.70111036e+00, -1.86829782e+00, -2.01378679e+00,
     3.55872780e-01,  8.33124388e-03,  1.42952669e+00,  3.44259471e-01, -8.96659136e-01, -2.75023937e+00, -4.57897216e-01,  1.15730238e+00,
     7.60376811e-01,  2.79048324e-01,  4.85597223e-01,  4.36897188e-01, -5.97457647e-01,  2.46562019e-01,  1.44839895e+00,  1.30604661e+00,
    -4.24246378e-02,  1.42120385e+00, -2.59589463e-01, -7.56828308e-01, -4.24080467e+00, -9.70922887e-01, -3.31455380e-01,  4.85792667e-01,
     1.28489006e+00, -1.37734449e+00, -3.97351146e-01,  2.06335354e+00, -2.01976299e+00, -8.50113481e-02,  2.40250036e-01,  1.60343158e+00},
   { 2.21322584e+00,  2.45229173e+00, -3.94404918e-01, -9.32839066e-02, -1.15716998e-02,  2.00360849e-01,  8.43102634e-01,  2.23193064e-01,
    -4.20793867e+00,  7.40863681e-01,  1.02005243e+00, -1.35139072e+00,  2.99314260e-01,  9.05046344e-01, -2.68754673e+00,  1.69196332e+00,
    -3.00739020e-01,  5.11769831e-01,  2.21286225e+00,  8.48578691e-01, -3.80198240e-01,  1.48116601e+00,  2.84031701e+00, -7.01448798e-01,
     3.30003977e-01, -6.63970336e-02,  3.19950059e-02,  1.89919353e+00, -3.28266360e-02, -7.65510023e-01,  2.73355055e+00, -9.23471510e-01,
     1.27586627e+00,  1.96564746e+00,  2.22120595e+00,  3.31348062e-01,  4.80689824e-01, -5.90639710e-01,  6.66779160e-01,  1.99027431e+00,
     1.16198921e+00, -5.32162488e-01,  1.97265172e+00, -4.52859259e+00,  2.49673533e+00,  1.91250873e+00,  2.00498819e-01,  6.06356919e-01,
     4.57494892e-02, -6.26099885e-01,  1.49981797e+00,  1.29386723e+00,  3.53596759e+00, -1.17443776e+00,  3.05040609e-02,  2.41941881e+00,
     7.05026150e-01,  9.96385887e-02, -1.11291146e+00,  4.57429856e-01,  3.61444265e-01,  1.68182647e+00, -2.07815602e-01,  2.24621415e+00},
   { 5.49058616e-01,  8.35714161e-01,  4.85545814e-01, -2.69741058e-01, -3.68026167e-01,  1.81167334e-01,  6.23791397e-01,  2.59288621e+00,
     1.44984412e+00,  7.66623020e-01,  1.26792169e+00,  2.18961310e+00,  5.06143808e-01,  2.13387680e+00, -2.22107673e+00, -2.55504632e+00,
     6.86243892e-01, -4.33067977e-01,  2.61769056e+00,  1.25151312e+00,  8.88129115e-01, -7.51942277e-01, -3.32106948e+00,  7.61363924e-01,
    -1.06971908e+00,  1.46113527e+00,  3.17420936e+00,  4.52674770e+00, -7.05751896e-01, -5.66458046e-01,  1.31275535e+00, -1.28731680e+00,
    -3.32030058e-01, -5.62798917e-01,  9.32428718e-01, -4.85024065e-01, -1.70016795e-01, -4.73379232e-02, -3.07821631e+00, -1.23071539e+00,
     4.54696342e-02, -9.83653367e-01, -7.24281311e-01,  1.54841936e+00,  5.82913101e-01, -8.88189077e-01, -2.73171854e+00,  1.04357779e+00,
