#ifndef __FASTRNN_RNN0_PARAMS__
#define __FASTRNN_RNN0_PARAMS__

#define RNN0_HIDD_DIM0 (32)
#define RNN0_HIDD_DIM1 (64)

// clang-format off

const float RNN0_ALPHA = (-2.929627e+00);
const float RNN0_BETA = (9.704195e-01);

const float RNN0_BIAS_UPDATE[64] = 
   { 1.36791945e+00,  3.46732557e-01,  2.75855875e+00, -6.73749626e-01, -3.15592736e-01,  5.31470180e-01, -1.41860020e+00,  1.32469130e+00,
     1.93952978e+00,  5.64619243e-01,  8.86427015e-02,  2.53585839e+00,  3.14428061e-01,  2.71520376e+00, -1.26970220e+00,  1.82930803e+00,
     3.17289066e+00, -5.04922457e-02,  2.39782786e+00,  2.09553719e+00,  2.32050443e+00,  6.25743926e-01,  1.81979740e+00,  1.64322102e+00,
     1.58597660e+00,  2.33487797e+00,  3.32988501e+00, -6.90988660e-01,  2.77551603e+00, -4.80368406e-01,  2.88771439e+00,  2.10507154e-01,
     1.83120298e+00, -9.96323287e-01,  5.92603326e-01,  1.72751069e-01,  4.14569807e+00, -2.06093162e-01,  1.63192010e+00,  1.88509166e+00,
     2.60108280e+00,  8.13258410e-01, -7.83532202e-01,  8.43075216e-02,  1.28265965e+00, -2.52254635e-01,  4.10042667e+00,  1.10752463e+00,
     2.56762981e+00, -1.03556168e+00,  2.12325549e+00,  9.26758349e-01,  1.34061730e+00, -9.50961411e-01,  1.49071395e+00,  8.26341957e-02,
     5.12890875e-01,  3.98181647e-01, -1.06770682e+00,  3.34614158e+00,  1.40721583e+00,  3.53777623e+00,  7.22212076e-01, -3.71089093e-02};

const float RNN0_W[64][32] = {
   { 3.43097955e-01, -6.29960597e-01, -1.50881481e+00, -9.69783962e-01, -1.36691947e-02,  1.28419709e+00,  2.66192436e+00,  2.04849720e+00,
     9.35313404e-01,  5.49226046e-01, -4.45708007e-01, -6.54842854e-01, -4.81994450e-01, -7.77486920e-01, -7.90991843e-01, -4.37084973e-01,
     1.68545008e-01,  3.86034399e-01,  9.77559149e-01,  6.90322161e-01,  2.32825637e-01,  3.80796641e-02,  4.90128338e-01,  1.34596854e-01,
     5.20772099e-01,  3.29234213e-01,  4.07658786e-01,  2.83426195e-02,  5.92604391e-02,  3.57424498e-01, -3.94095480e-01,  3.70052576e-01},
   {-2.55701854e-03, -5.39488137e-01,  1.02876818e+00, -4.67917532e-01, -2.45769337e-01,  2.57972538e-01,  3.95919353e-01,  3.81495267e-01,
     1.93524033e-01,  7.58240998e-01,  2.19035804e-01,  5.47574693e-03, -1.06063855e+00, -7.01345384e-01,  4.72120076e-01,  5.67510962e-01,
    -4.37357314e-02,  5.53379655e-01,  4.89455909e-01,  4.78873342e-01,  5.27020812e-01,  2.60077655e-01,  2.39567742e-01,  3.10654432e-01,
     5.45716643e-01,  8.10741723e-01,  6.81204200e-01,  6.28648937e-01,  2.82938391e-01,  7.21611619e-01,  4.61739153e-01, -2.05609739e-01},
   { 2.69154102e-01, -1.43133759e+00, -7.17997432e-01,  5.59285998e-01,  1.79887784e+00,  2.15166879e+00,  1.99691570e+00, -1.50172806e+00,
    -2.47330713e+00, -1.27281988e+00, -9.42283511e-01,  1.10019401e-01, -1.24655135e-01, -3.66997570e-02, -5.06085038e-01, -5.41507483e-01,
     1.97129801e-01,  5.98883510e-01, -5.99774480e-01, -9.48810756e-01, -2.62988627e-01, -4.57322933e-02, -1.83035076e-01, -6.34467125e-01,
     5.96884489e-01, -2.18798131e-01,  2.54029781e-01,  5.10868371e-01,  2.18910307e-01, -2.84068715e-02,  3.16569567e-01,  9.34598446e-01},
   { 4.39614713e-01, -1.60263464e-01, -4.89109427e-01, -7.45627463e-01,  7.36201257e-02,  7.49295712e-01,  4.97106701e-01,  5.86846098e-02,
     9.27299678e-01,  9.35426295e-01,  9.34958637e-01, -5.23082279e-02, -1.37975311e+00, -1.54740334e+00, -8.97012293e-01,  2.70977199e-01,
     6.34465456e-01, -2.05950037e-01,  8.20189238e-01,  7.79127419e-01,  1.05367973e-01, -6.48317099e-01,  4.81983393e-01,  1.06849527e+00,
     1.28603458e-01,  9.35259879e-01,  9.64640856e-01,  6.56616330e-01,  4.48373854e-01,  7.98926800e-02,  2.05439433e-01,  2.23637253e-01},
   { 1.08782530e+00, -5.23452982e-02, -9.98604178e-01, -8.18575382e-01,  2.53953934e-01,  3.45860422e-02, -3.11865091e-01, -1.07717323e+00,
    -2.01493263e-01,  1.97680855e+00,  2.29162765e+00,  1.14783025e+00, -1.93119597e+00, -2.74408102e+00, -1.95260131e+00, -1.19405138e+00,
    -2.76150644e-01,  9.54246163e-01,  7.90111542e-01,  1.25292987e-01,  1.81760818e-01,  4.44642693e-01,  4.44813967e-01,  3.52313042e-01,
     2.27127120e-01,  2.96862483e-01,  3.54348838e-01, -1.49636686e-01,  9.17850249e-03, -8.82142857e-02, -3.74155283e-01, -6.01697974e-02},
   { 1.15218413e+00,  7.98431695e-01,  5.37144184e-01,  3.93815041e-01,  2.89051294e-01, -1.04732737e-01, -7.61797419e-04, -3.99542451e-01,
    -5.78978479e-01,  5.33365071e-01,  7.01258719e-01,  5.31878415e-03, -1.38985109e+00, -1.10378098e+00,  2.75683582e-01,  9.55137312e-01,
     1.26566172e+00,  3.61318469e-01, -3.88328463e-01, -3.23085994e-01,  1.08916014e-01,  7.62666464e-02, -2.03439191e-01, -5.06834567e-01,
    -6.32556856e-01, -3.28493804e-01, -7.78506249e-02, -8.90214622e-01, -1.61323488e-01, -2.68624127e-01, -5.54477513e-01,  2.44269416e-01},
   { 2.56658077e-01, -5.81738114e-01,  2.11996412e+00,  8.65337372e-01,  7.72975683e-01,  1.21731818e+00,  1.17703927e+00,  7.82255292e-01,
     4.03501600e-01,  2.60634840e-01,  5.58738053e-01,  9.92169499e-01, -6.01388030e-02, -4.93527316e-02,  3.65745336e-01,  2.95924991e-02,
    -3.15326154e-01,  6.49022385e-02, -5.01637816e-01, -2.91202635e-01,  5.06555140e-01,  4.10366178e-01,  5.92577636e-01, -5.31556189e-01,
    -4.56958562e-01, -2.44646698e-01, -8.94596100e-01, -7.73615003e-01, -7.75482178e-01, -2.20781624e-01,  1.59165174e-01, -1.39757347e+00},
   { 3.23132612e-02, -1.43188477e+00, -1.91688204e+00, -4.54292268e-01, -1.11855114e+00, -1.18330503e+00, -1.55296731e+00, -1.34721446e+00,
    -5.42972624e-01,  2.50885993e-01,  3.42699498e-01, -4.69573885e-01,  6.37976944e-01,  8.33346725e-01,  7.37162709e-01,  6.15936816e-01,
     8.37022245e-01, -1.79828629e-01, -2.92428017e-01, -4.36982334e-01, -9.54203457e-02,  1.93720877e-01, -5.12344539e-01,  6.92591891e-02,
     8.81190822e-02, -1.21250071e-01,  4.30813134e-01,  7.56760716e-01,  8.11178803e-01,  5.95909238e-01,  1.90801233e-01,  2.00693917e+00},
   {-2.19447732e-01,  7.37837404e-02,  7.89199412e-01,  6.08338594e-01, -2.43869200e-01, -6.83051527e-01, -1.34684873e+00, -2.14311868e-01,
    -5.40288985e-01, -1.80566534e-01, -1.18194580e+00, -1.63947535e+00, -2.96843195e+00, -7.36692309e-01,  1.07764256e+00,  1.25270414e+00,
     1.82773316e+00,  1.23126709e+00,  1.30930746e+00,  9.47337866e-01,  8.95174921e-01, -1.37373611e-01,  3.06083471e-01, -2.94532418e-01,
    -3.15713525e-01,  1.15588762e-01,  3.08958143e-01, -3.14510673e-01, -2.57144362e-01, -4.65626448e-01, -3.21650743e-01,  1.35285124e-01},
   { 5.58670044e-01,  2.36805940e+00,  2.52520132e+00,  1.59536436e-01,  1.62273157e+00,  7.16206193e-01,  4.28792179e-01, -8.30109976e-03,
    -5.13851821e-01, -4.50299710e-01,  2.32197315e-01,  6.44006193e-01, -1.35644484e+00, -1.06507099e+00, -8.05275798e-01, -4.19441015e-01,
     1.83200657e-01,  1.14125812e+00,  4.20732915e-01, -3.37918460e-01, -3.87731194e-01, -5.78142107e-01,  2.37749159e-01, -6.82205558e-01,
     1.24254059e-02,  2.16267556e-01, -5.01420140e-01, -5.54756939e-01, -4.98948365e-01,  1.36901274e-01, -4.65716213e-01, -1.81244540e+00},
   {-5.04066408e-01, -8.47258046e-02,  1.03588355e+00,  8.75307441e-01, -5.80451190e-01, -5.96863568e-01,  2.64073419e-03,  9.76622045e-01,
     1.39433599e+00, -1.20710239e-01,  1.39708549e-01,  4.13523555e-01, -1.19042218e+00, -1.32792532e+00, -6.67501315e-02,  7.58961260e-01,
     8.04388344e-01,  6.54453695e-01,  8.54633987e-01,  9.63431895e-01,  7.71100372e-02,  4.40390140e-01,  7.60218799e-01,  2.10517526e-01,
     9.12601203e-02,  5.59078395e-01,  3.61079238e-02, -2.07473472e-01, -3.98485839e-01, -4.76421788e-02,  8.07210565e-01,  7.38704622e-01},
   { 2.28859186e-01, -3.76345664e-01,  3.66120040e-02, -4.75209504e-01, -7.13984489e-01,  6.27002656e-01,  5.92026711e-01,  4.10024226e-01,
    -3.83083731e-01, -6.69254124e-01, -1.43575931e+00, -1.17714381e+00, -1.46626222e+00,  6.23512030e-01,  2.35966897e+00,  2.79461575e+00,
     2.51032472e+00, -2.07174085e-02, -1.40946507e+00, -7.12794781e-01,  6.36612857e-03, -6.64293319e-02, -2.97494948e-01, -5.85717678e-01,
     2.69900441e-01,  4.67866927e-01, -1.20130479e-01,  1.77774966e-01,  2.93467104e-01, -7.62339085e-02,  3.81632857e-02,  1.78169280e-01},
   { 5.06997764e-01, -1.10105515e+00, -2.21080184e-01,  4.77625608e-01,  8.63272369e-01,  1.28804934e+00,  1.14229918e+00, -6.32519007e-01,
    -1.82705045e+00, -6.92319810e-01, -7.76923180e-01, -2.33090132e-01,  1.14625469e-01,  3.11315060e-01, -1.48195237e-01, -8.85200083e-01,
    -3.77712995e-01,  4.89046693e-01, -7.41624162e-02, -5.00003517e-01,  6.32452846e-01,  5.34515738e-01, -2.71404117e-01, -5.73085606e-01,
     3.95284265e-01,  1.65629312e-01, -2.25097343e-01, -1.66564673e-01,  1.39866963e-01,  3.36581111e-01,  3.92786205e-01,  6.06138647e-01},
   { 1.83403611e-01,  2.93432832e-01,  2.83073694e-01, -7.96970651e-02, -6.13025069e-01, -1.49261940e+00, -9.48530912e-01, -2.56548170e-02,
    -1.23556638e-02, -4.94060785e-01, -7.67975509e-01,  3.09566297e-02, -1.06441653e+00, -1.18308461e+00, -1.10426462e+00, -5.54591060e-01,
     1.64517868e+00,  2.29233956e+00,  1.37346375e+00,  1.90447003e-01, -6.99726641e-02, -4.41586196e-01,  7.31935680e-01, -1.97917685e-01,
    -2.26861730e-01, -4.31493260e-02,  3.35395485e-01, -4.09980386e-01,  1.70834288e-01, -4.51030582e-01, -2.48076364e-01,  8.15649271e-01},
   {-2.13491052e-01,  6.10420763e-01,  3.68288112e+00,  1.48706460e+00,  2.35552144e+00,  1.10895395e+00,  3.70647192e-01,  2.93795109e-01,
     3.89045887e-02,  2.40532517e-01,  7.75116682e-02,  6.48644447e-01, -4.31119293e-01, -2.38663062e-01,  1.94903508e-01, -9.81636271e-02,
    -6.98098540e-01,  1.56261742e-01, -3.15887958e-01, -6.42060101e-01,  2.84078389e-01,  5.44880927e-01,  4.87420470e-01, -4.25595284e-01,
    -1.12389535e-01,  4.66129154e-01, -6.43308520e-01, -8.21100473e-01, -8.55778992e-01, -5.08948922e-01,  4.39356744e-01, -1.69101536e+00},
   {-6.58779323e-01, -1.32090044e+00, -8.29233289e-01, -1.94398686e-02,  4.19398487e-01,  1.72449708e-01, -1.09821290e-01, -5.87397099e-01,
    -5.42806685e-01, -8.80847991e-01, -8.12829196e-01,  7.76133910e-02,  5.57215571e-01,  5.42233706e-01,  4.32130992e-01,  2.19512448e-01,
     2.11761236e-01,  5.25819242e-01, -8.36444616e-01, -1.80376446e+00, -1.00388753e+00, -1.21395588e+00, -8.65699530e-01, -9.39028621e-01,
    -2.74816424e-01,  1.80109656e+00,  1.74299574e+00,  1.98230708e+00,  2.01790643e+00,  1.95265162e+00,  1.20752835e+00,  3.83892727e+00},
   { 4.54649001e-01,  4.20774579e-01, -2.79734445e+00, -1.18307281e+00, -9.07906294e-01, -1.36788535e+00, -1.41018069e+00, -1.32651794e+00,
    -1.13839245e+00, -1.15772152e+00, -6.47123933e-01, -9.79562521e-01, -6.44464135e-01, -4.02770758e-01, -1.63801670e-01, -6.44176155e-02,
     6.51676476e-01, -1.16331540e-01,  7.24985823e-02, -5.28051257e-01, -5.18979132e-01, -7.50800908e-01, -8.63720000e-01,  2.29469299e-01,
     7.82697856e-01,  4.69781369e-01,  9.74062145e-01,  3.83073568e-01,  9.68957365e-01,  1.02926981e+00, -2.07567587e-01,  1.97439981e+00},
   { 4.37539339e-01,  4.39680696e-01,  2.18672085e+00,  1.12342715e+00,  2.34731793e-01, -2.62719482e-01, -5.62566102e-01, -7.68166363e-01,
    -1.73150909e+00, -2.12746322e-01, -5.10693565e-02,  1.37613252e-01, -1.06895685e+00, -6.53800488e-01,  5.62794864e-01,  7.34512031e-01,
    -2.22844079e-01,  1.03103526e-01, -3.80908281e-01, -1.51047027e+00, -2.02672482e-01,  6.29952967e-01, -8.83928761e-02, -6.34074450e-01,
     3.21170092e-02, -1.60416871e-01,  8.25903490e-02,  2.91797966e-01, -4.00808871e-01,  4.01867747e-01,  4.53353934e-02,  4.05367881e-01},
   {-4.88889277e-01, -3.08752954e-01, -4.09574777e-01, -4.39050168e-01,  5.45437098e-01,  5.77971339e-01,  8.23225796e-01,  2.34955952e-01,
    -1.38890898e+00, -7.36965477e-01,  2.54968226e-01,  5.46097815e-01, -1.03867710e+00, -6.98626935e-01,  1.37273133e-01,  4.50315326e-01,
     4.79061753e-01,  1.27730131e-01, -1.40024170e-01, -9.64901596e-02,  1.31274819e-01, -1.16609477e-01,  2.65989304e-01,  1.46626800e-01,
    -4.62920457e-01, -3.04880679e-01,  3.38326812e-01,  1.22396939e-01, -2.50258539e-02, -1.89463988e-01,  1.30746499e-01,  7.90053904e-01},
   {-3.14599156e-01, -5.89803696e-01,  7.59448409e-01,  9.54604983e-01, -6.27891570e-02, -1.33820140e+00, -1.34756184e+00,  2.70093858e-01,
     1.60061121e+00,  2.07083076e-02,  7.06624866e-01, -2.85941511e-01, -1.58990860e+00, -1.11266172e+00, -1.36402690e+00, -1.32256198e+00,
     1.76379010e-01,  1.86498296e+00,  2.72329187e+00,  1.21213190e-01,  1.46931738e-01,  5.77697873e-01,  6.63856924e-01, -8.81662592e-02,
    -1.10588515e+00, -7.05397308e-01, -7.09140375e-02, -4.88970757e-01, -3.39663923e-01, -5.10868430e-01, -3.56091142e-01,  1.13063788e+00},
   { 1.44127876e-01,  5.68219960e-01,  2.36319959e-01, -1.23690322e-01, -5.32805845e-02, -1.45516753e+00, -7.55349517e-01, -5.91985881e-01,
    -1.74164012e-01, -8.71835172e-01, -1.13722754e+00,  2.42128745e-01,  8.27123702e-01,  1.89844102e-01, -1.11336434e+00, -8.26084733e-01,
     1.12026548e+00,  2.30802035e+00,  2.19622707e+00,  7.81278133e-01,  7.30866313e-01, -1.60215706e-01,  3.84911388e-01, -1.92202717e-01,
    -4.74942625e-01,  2.50274837e-01,  2.81482756e-01, -2.74533242e-01,  4.63260055e-01, -2.35177651e-01,  9.28246751e-02,  4.49140280e-01},
   { 1.60037562e-01, -3.30185831e-01, -4.47766840e-01,  3.63027811e-01,  5.63503265e-01,  3.91995728e-01, -9.70603675e-02, -1.17476749e+00,
    -1.05057490e+00, -9.49784636e-01, -2.62495410e-02,  1.45757818e+00,  6.17401183e-01, -2.04387754e-01, -6.48072660e-02,  2.63871580e-01,
     4.76162583e-02,  8.21731925e-01, -1.01942945e+00, -1.22210371e+00, -2.57711351e-01,  6.75101299e-03, -2.75038004e-01, -3.08575600e-01,
     5.60240626e-01, -1.78931594e-01,  1.07483789e-01, -8.66068229e-02,  9.40560549e-02, -2.03211769e-01, -6.50318682e-01,  4.09440458e-01},
   { 6.60266519e-01,  7.97051370e-01, -3.56673181e-01, -1.08452514e-01,  4.24664736e-01,  1.01443142e-01,  2.44795963e-01, -2.82171369e-01,
    -6.98719084e-01,  2.06363231e-01,  1.82192671e+00,  1.02890968e+00,  8.53842676e-01,  1.94713366e+00,  2.31982136e+00,  9.25200343e-01,
    -1.52516961e+00, -2.10196114e+00, -1.32704759e+00, -1.17539454e+00, -1.23062778e+00, -8.17284703e-01, -2.49226004e-01,  6.01746142e-01,
     7.02334493e-02, -7.31798053e-01, -3.78827780e-01, -1.38456732e-01,  2.68059820e-02,  5.29902160e-01, -3.92769843e-01, -1.69092994e-02},
   { 6.58040166e-01, -6.44029379e-02, -8.25337410e-01, -7.09239691e-02,  6.50510967e-01,  8.66183877e-01,  1.30951250e+00, -3.74733269e-01,
    -1.15484297e+00,  4.23099697e-01,  1.31246209e+00,  1.25739050e+00, -6.95070624e-01, -1.90903556e+00, -1.68999863e+00, -2.21195483e+00,
    -1.12933612e+00,  8.43767703e-01,  1.23700833e+00,  7.64691234e-02,  1.78572252e-01,  1.09994400e+00,  8.12182665e-01,  1.59893960e-01,
     5.88174835e-02,  1.70207545e-02,  2.06488729e-01, -8.12729955e-01, -1.92345396e-01,  5.89722693e-02, -2.11490750e-01, -4.86557901e-01},
   { 1.17241390e-01, -4.37858552e-01,  1.25014865e+00,  3.33821535e-01,  8.03224146e-01,  5.69746614e-01,  9.46545780e-01,  4.46812630e-01,
    -2.09343255e-01, -7.53172696e-01,  9.47268188e-01,  1.08695960e+00,  4.64905538e-02,  5.17848367e-03,  3.86569142e-01,  5.76774895e-01,
     1.77311862e+00,  6.95806026e-01, -4.37994450e-01, -1.20416391e+00, -1.17825019e+00, -9.74910140e-01, -6.72740459e-01, -9.76197124e-01,
    -3.16081166e-01, -1.45273924e-01,  8.37873574e-03,  4.58682418e-01,  5.05758882e-01,  7.20192552e-01,  2.35957459e-01,  8.99070501e-01},
   {-1.63182169e-01,  3.40216979e-02,  3.47996533e-01, -3.47449124e-01, -3.49174201e-01, -3.50372553e-01,  1.83851123e-01,  6.72845483e-01,
     7.41177976e-01,  2.50316411e-01,  2.41340280e-01, -1.17154610e+00, -6.97349906e-01, -8.67947340e-02, -8.48194864e-03, -4.63504821e-01,
    -1.50042713e+00, -1.12997580e+00,  3.20120007e-01,  1.79623437e+00,  1.55379677e+00,  1.41637564e+00,  4.20804799e-01,  1.03928328e+00,
    -5.61585188e-01, -5.67355275e-01,  6.08892918e-01,  9.12179828e-01,  8.87854695e-02,  1.92384422e-01,  1.69617057e-01, -4.79219586e-01},
   { 4.44469780e-01,  2.16438144e-01, -2.15087795e+00, -4.74146456e-01, -6.07125521e-01, -1.11490047e+00, -1.05216944e+00, -1.49356985e+00,
    -1.70591366e+00, -1.02595985e+00, -6.72103047e-01, -7.47388303e-01, -2.43599072e-01,  3.88311371e-02,  1.16348714e-01,  2.98658639e-01,
     5.08693218e-01,  7.09796697e-02,  4.18913588e-02, -5.73328063e-02, -2.55268395e-01, -4.57577229e-01, -3.56506675e-01,  2.10426301e-01,
     2.55252331e-01,  2.53965855e-01,  1.20891404e+00,  6.04452848e-01,  9.20069754e-01,  7.99015939e-01,  1.86324716e-01,  1.99151695e+00},
   {-2.60544449e-01,  7.14205997e-03, -7.51206517e-01,  3.41190547e-02,  8.73112977e-01,  1.43238914e+00,  2.21754932e+00,  7.77635694e-01,
    -7.98949897e-01, -7.17635036e-01, -2.21490765e+00, -1.06977642e+00, -9.85630333e-01,  4.71708894e-01,  1.08283222e+00,  4.17717516e-01,
    -3.69956911e-01, -1.89981133e-01,  2.72887170e-01,  3.81131500e-01, -1.84948117e-01, -5.18641770e-01, -4.90146652e-02,  1.86904728e-01,
     5.13254881e-01,  2.51576483e-01, -8.72483850e-02, -2.46681064e-01, -2.18425110e-01,  1.46258399e-02,  2.69054949e-01, -4.77996379e-01},
   {-9.12394747e-02,  4.45803791e-01, -8.13181102e-02,  1.00113153e+00,  1.85685754e+00,  1.62178075e+00,  1.86031926e+00,  1.23627031e+00,
     2.79680252e-01, -8.89252484e-01, -6.50268734e-01, -1.50492036e+00, -1.59236002e+00, -7.71570385e-01, -6.94037616e-01, -5.39469659e-01,
     2.58157432e-01,  1.86346805e+00,  1.04434550e+00,  9.76912916e-01,  1.28903544e+00,  1.36935604e+00,  5.83142579e-01, -1.20722242e-01,
    -3.95508289e-01, -8.74488354e-01, -4.59186167e-01, -8.16427112e-01, -7.40628779e-01, -9.72572029e-01, -6.43609345e-01, -7.80530632e-01},
   { 8.51749443e-04,  3.57249826e-02,  2.48242155e-01, -1.65929809e-01, -3.69431257e-01, -5.23869209e-02,  3.55799556e-01,  5.53561568e-01,
     1.67353198e-01,  2.03342333e-01, -1.83868945e+00, -1.65051901e+00, -1.84778821e+00, -1.51144907e-01,  1.17871952e+00,  1.44893980e+00,
     1.47290111e+00,  6.77913785e-01,  6.40508533e-01,  1.00726438e+00,  7.28803337e-01, -4.09898847e-01, -3.85578498e-02, -3.90431315e-01,
    -6.64842427e-01, -5.89680001e-02, -5.36500216e-02, -5.49958825e-01, -2.26904631e-01, -1.85126603e-01,  6.36790872e-01,  7.09813088e-02},
   { 1.49149790e-01,  2.42145032e-01, -1.23221004e+00, -1.35141277e+00, -1.77582657e+00, -1.77759361e+00, -8.40643272e-02,  2.81638885e+00,
     2.12959886e+00,  1.32174790e-01,  6.22644126e-01,  2.19418898e-01,  9.19332027e-01,  2.95225233e-01,  1.10493541e-01,  3.01647782e-01,
     4.98765230e-01, -5.24377078e-02,  2.25955304e-02,  3.02583039e-01, -6.84336603e-01, -5.17942905e-01, -3.09071571e-01,  4.93885905e-01,
    -4.34880108e-01,  1.88332334e-01,  2.56963015e-01, -7.01691583e-02, -1.79008514e-01, -3.57491314e-01, -2.11650729e-01,  4.95992452e-01},
   { 4.94774990e-02, -1.23457837e+00, -5.02111733e-01,  5.43369591e-01,  4.73920614e-01,  1.59975290e+00,  2.19058037e+00,  7.78254986e-01,
    -4.06718403e-01, -9.12440956e-01, -1.78204334e+00, -9.27032292e-01, -3.28864247e-01,  3.22651342e-02,  2.37324879e-01,  2.26468351e-02,
     6.89826369e-01,  1.21633410e+00,  9.57729399e-01,  4.06549841e-01,  6.51047155e-02, -4.22963232e-01, -2.26328403e-01, -1.12719607e+00,
    -8.92950296e-01, -4.98970419e-01, -1.05685461e+00, -9.37461615e-01,  1.18188769e-01, -5.07333636e-01,  3.14031690e-01,  5.16794808e-02},
   {-3.00397910e-02,  3.99384797e-01, -8.69871825e-02, -5.94033301e-01, -7.82382131e-01, -3.93176377e-02, -1.58086747e-01,  6.19735241e-01,
     5.91243088e-01,  1.94607639e+00,  4.95038420e-01, -4.34187263e-01, -1.17420483e+00,  8.40048373e-01,  1.72889364e+00,  4.64309216e-01,
     1.34895757e-01, -1.08937943e+00,  1.38591006e-01,  6.17904663e-01,  1.21971354e-01, -2.73656338e-01,  5.72136305e-02, -2.06627160e-01,
     3.04761291e-01,  7.16890216e-01,  5.83860576e-01,  2.66894810e-02, -1.27631590e-01,  4.08369675e-03,  8.88494849e-01,  7.32175708e-01},
   {-8.08746994e-01,  7.35292196e-01,  3.80010748e+00,  1.95921600e+00,  2.14842081e+00,  1.48131406e+00,  1.08349800e+00,  3.11768472e-01,
     5.66009462e-01,  5.85595667e-01,  4.93721850e-03,  8.50015938e-01, -1.83685616e-01,  1.58639386e-01,  2.52353311e-01, -5.02947688e-01,
    -9.52479482e-01, -2.90528983e-02, -8.08251798e-01, -3.92602175e-01,  8.25610161e-01,  1.02128792e+00,  5.27930617e-01, -6.80115700e-01,
    -5.70923835e-02,  2.66245127e-01, -4.80387062e-01, -4.54336911e-01, -1.00251758e+00, -9.22062755e-01, -2.01049708e-02, -2.12915230e+00},
   { 1.82384863e-01,  4.26452011e-01,  1.24752939e+00,  1.19031334e+00,  6.97182596e-01,  7.65870273e-01,  2.76090443e-01,  8.19067895e-01,
     1.59284270e+00,  1.53979218e+00,  1.37913927e-01,  7.30126500e-01,  1.37061846e+00,  4.43487093e-02, -3.08885008e-01, -2.46335551e-01,
     8.05125013e-02,  1.48893130e+00,  1.46826720e+00,  9.94707108e-01,  1.37527943e+00,  2.71306396e-01, -8.37108567e-02, -1.09850812e+00,
    -3.02441448e-01, -5.97213149e-01, -5.89097440e-01, -5.60276985e-01, -6.91262305e-01, -7.67757416e-01, -7.02320933e-01, -9.23975170e-01},
   {-2.70220757e-01,  1.15153633e-01,  6.25093758e-01,  2.73902684e-01,  4.81930643e-01, -8.82090449e-01, -7.80255139e-01, -4.80666548e-01,
    -1.08644694e-01, -2.66387910e-01, -1.94029927e-01, -7.34187424e-01, -7.22545207e-01, -1.37305617e+00, -1.44149256e+00, -1.09559166e+00,
    -6.41820252e-01, -5.92880189e-01, -3.69850576e-01, -9.11516428e-01, -1.47620216e-01,  1.49596538e-02,  4.20914173e-01,  1.07548535e+00,
    -3.48027609e-02,  5.31275980e-02, -1.31409347e-01,  2.28771895e-01,  2.29507208e-01,  4.93715435e-01,  7.08132505e-01,  3.52963388e-01},
   { 2.46564358e-01,  2.57309973e-01,  6.90900683e-01,  1.28550470e+00,  9.22878027e-01,  5.90093791e-01,  1.35474190e-01,  3.69604111e-01,
     7.11829662e-01,  4.81647521e-01,  2.10838303e-01,  4.90211904e-01,  1.03529263e+00,  1.74880877e-01,  3.74800414e-01, -3.53432268e-01,
    -9.55790818e-01,  6.53034151e-01,  1.04870200e+00,  9.19134319e-01,  1.55444074e+00,  8.98997188e-01,  6.98922098e-01, -7.09901273e-01,
    -5.91855347e-01, -7.41157532e-01, -9.71761823e-01, -1.30913544e+00, -9.69062865e-01, -9.81118917e-01, -1.09973454e+00, -1.11865509e+00},
   { 9.91449952e-01,  9.48582441e-02,  3.75623882e-01,  9.39053714e-01,  6.08229220e-01,  1.62443519e-01, -1.04651786e-01, -9.51470315e-01,
    -5.92983961e-01, -6.91283166e-01, -1.07662654e+00, -1.69559741e+00, -1.32282048e-01,  6.08701289e-01,  2.80611813e-01,  3.77991766e-01,
     1.41927914e-03, -9.24552202e-01, -4.09485996e-01,  1.36338800e-01,  3.81262988e-01,  8.93971682e-01,  4.56290618e-02,  1.42465144e-01,
     7.12144256e-01,  6.74796402e-01,  2.81571597e-01,  1.17563106e-01,  2.45170206e-01,  4.65947509e-01, -1.25208274e-01,  8.48541498e-01},
   {-2.16929004e-01,  5.68060458e-01, -3.32888305e-01, -6.15704477e-01, -1.27862319e-01,  9.45041627e-02,  8.11442316e-01,  9.52910721e-01,
     1.03223228e+00,  1.24462771e+00,  2.93695386e-02, -1.62532771e+00, -3.23659015e+00, -1.45156896e+00,  4.74713653e-01,  8.17540407e-01,
     5.32165468e-01, -9.19157505e-01, -9.17066932e-02,  8.93279910e-01,  1.86109439e-01, -5.60885131e-01,  6.09009206e-01,  3.78915191e-01,
    -2.40067065e-01, -3.23385268e-01,  3.14323783e-01,  3.67038518e-01,  2.25811064e-01,  2.41525352e-01, -1.22220375e-01,  8.29696283e-03},
   {-3.87143135e-01, -3.32034320e-01,  1.25920725e+00,  2.04166126e+00,  1.61892068e+00,  2.10959935e+00,  1.04542363e+00, -1.07759023e+00,
    -6.70943260e-01, -1.19574785e+00, -8.78207624e-01, -8.51529121e-01, -1.06825483e+00, -1.09068561e+00, -3.88220578e-01,  7.50386938e-02,
    -2.78029293e-01, -6.00273490e-01, -5.10897160e-01,  7.26158142e-01,  4.53822255e-01,  2.63242796e-02, -6.85332119e-02,  5.48769653e-01,
     1.18185699e+00,  4.06553239e-01, -2.09498942e-01, -2.76807398e-01, -1.88360348e-01,  3.42474580e-01, -4.22970057e-01, -5.64825296e-01},
   { 3.47399265e-01, -6.29226029e-01, -5.68322539e-01,  1.95403636e-01, -3.00297979e-02, -3.57522309e-01, -3.20018351e-01, -3.08645546e-01,
    -3.06943387e-01, -1.40087903e+00, -1.31264186e+00, -4.59324002e-01, -8.67815495e-01, -9.22270477e-01, -1.07705116e+00, -6.00118816e-01,
     1.04754615e+00,  1.70940042e+00,  1.50482142e+00,  4.62379694e-01, -8.89317095e-02, -5.39255738e-01, -2.21205771e-01, -8.21929693e-01,
    -3.50427806e-01,  2.03715682e-01,  7.01924860e-01,  2.83475667e-01,  3.89314055e-01, -2.12075263e-01, -1.19029433e-01,  5.27589321e-01},
   { 5.98253727e-01, -5.68619251e-01, -1.28367960e+00, -6.00833476e-01,  7.27190793e-01,  1.30732334e+00,  1.79795265e+00, -7.39109814e-02,
    -1.54051983e+00, -3.48490119e-01,  4.40853387e-01,  7.05624938e-01, -1.53737381e-01, -3.19452882e-01, -5.03003657e-01, -6.18683875e-01,
    -5.64978004e-01, -7.99338341e-01, -4.33730066e-01, -3.81368101e-01, -1.71576336e-01,  3.52138877e-01, -2.38735482e-01, -5.84949553e-03,
     4.32914197e-01, -4.28715140e-01, -3.53763193e-01, -1.84627786e-01,  2.08241791e-02,  9.44958255e-02, -2.62901306e-01, -1.98327616e-01},
   { 8.11638117e-01, -8.09263945e-01, -6.25450730e-01, -4.51688319e-01,  3.80207241e-01,  7.32088685e-01,  6.75989807e-01,  2.97573686e-01,
     5.83342969e-01,  4.83335495e-01, -4.71015871e-01, -2.11544901e-01, -9.67453063e-01, -2.04742050e+00, -2.16474390e+00, -2.18135953e-01,
     2.02300096e+00,  1.89113772e+00,  7.78186500e-01,  6.80641174e-01,  4.80361700e-01,  1.82237640e-01,  2.81092167e-01,  1.64473727e-01,
     5.17941080e-02,  3.38870972e-01,  3.60396594e-01,  3.64265621e-01, -1.27060488e-02, -9.10949886e-01, -1.20280430e-01, -5.93716562e-01},
   { 1.98855862e-01, -1.28097594e-01,  7.77739882e-02, -1.78256285e+00, -1.87548649e+00, -9.40242231e-01,  5.01360714e-01,  1.06452084e+00,
     1.53538156e+00,  2.08739853e+00,  1.31694710e+00, -2.32091695e-01, -1.33018196e+00, -3.78534794e-01,  4.64706123e-01,  6.78631127e-01,
     9.95651364e-01, -3.04958373e-01,  1.56569928e-01,  7.14689612e-01, -1.90829486e-01,  6.90304339e-02,  1.25883207e-01,  2.40775079e-01,
     2.28116721e-01,  7.46683896e-01,  4.89994377e-01,  8.03988457e-01,  2.52127528e-01,  3.97152185e-01,  3.03343564e-01,  2.22312987e-01},
   {-4.82470274e-01,  1.07470703e+00, -9.59248543e-01, -4.79795307e-01,  3.74455333e-01, -5.69023609e-01,  4.47007895e-01,  2.04412177e-01,
    -7.36979902e-01, -1.78758180e+00, -2.46618986e+00, -7.60239124e-01,  1.40252382e-01,  1.39682627e+00,  9.40497577e-01,  9.58078384e-01,
     1.37375462e+00,  1.06914043e+00,  5.06928384e-01,  1.10222638e-01, -7.34241128e-01, -1.54905629e+00,  5.85955940e-02, -4.69992459e-02,
    -4.14782792e-01, -9.75662708e-01, -1.34174466e-01,  1.60028655e-02,  2.70764023e-01, -3.44423324e-01, -9.03404951e-02,  9.26960588e-01},
   { 5.33112824e-01,  8.60697851e-02, -1.01209915e+00, -1.44415236e+00, -6.34968042e-01,  2.20976800e-01,  1.93800166e-01,  3.49605471e-01,
     3.06457877e-01,  2.30230242e-01,  1.63688093e-01, -8.27935219e-01, -2.54907393e+00, -1.76581073e+00, -3.03794444e-01,  8.53170574e-01,
     1.83992827e+00,  1.06827772e+00,  9.82422769e-01,  1.60173535e+00,  7.43897080e-01, -6.38168901e-02,  8.62666845e-01,  6.57346427e-01,
    -1.86436474e-01,  3.81428242e-01,  2.38429770e-01,  8.14979672e-02,  8.84197891e-01,  5.74878335e-01,  4.68530595e-01,  3.77429932e-01},
   {-1.57503843e-01,  9.89033282e-01,  1.89963043e-01, -3.07482630e-01, -1.15754998e+00, -7.79307902e-01, -1.44178522e+00,  1.34799052e-02,
    -1.00716211e-01, -5.65373242e-01,  5.61497152e-01,  1.38613069e+00,  1.45919585e+00,  2.34112763e+00,  2.75321794e+00,  1.66577399e+00,
    -3.24002057e-01, -5.26114345e-01, -3.17696661e-01, -5.86196244e-01, -3.51261407e-01, -3.39779183e-02, -7.50329494e-02, -6.47648036e-01,
     1.16252556e-01,  3.05106997e-01, -1.18219241e-01, -1.01626503e+00, -7.47993648e-01, -1.17971361e+00, -1.23061192e+00, -8.96231085e-02},
   { 2.37329006e-01,  3.25438678e-01, -2.80728668e-01,  1.32677603e+00,  1.81656933e+00,  1.64425123e+00,  1.05425048e+00, -2.56516963e-01,
     5.03092166e-03, -1.11463439e+00, -9.27791715e-01, -7.57932186e-01, -9.98629510e-01, -4.53125626e-01, -2.78034329e-01,  6.58986688e-01,
    -1.12984248e-01, -1.05654776e+00, -7.62361050e-01, -1.57294631e-01,  1.00197807e-01,  2.92429924e-01,  8.89833331e-01,  9.67929363e-01,
     1.01763260e+00,  4.45787102e-01, -1.49732485e-01, -2.84806993e-02,  5.68034112e-01, -4.67058569e-01, -1.18267524e+00, -5.52184761e-01},
   {-7.26112604e-01, -6.10906482e-01,  9.09813285e-01,  5.61714530e-01, -5.75707018e-01, -6.47822618e-01, -1.25336218e+00, -1.17914774e-01,
     5.75778484e-02, -3.08941871e-01, -1.34606218e+00, -1.84533417e+00, -2.90504146e+00,  1.91307683e-02,  2.06475663e+00,  1.65596068e+00,
     9.29431021e-01,  4.46687609e-01,  1.02845776e+00,  9.26134467e-01,  4.76490706e-01,  2.81930268e-01,  5.12748539e-01, -2.45360747e-01,
     1.84413999e-01, -2.92610973e-02,  3.32687736e-01,  2.09842503e-01, -1.72241956e-01, -8.27818811e-01, -5.49264967e-01, -7.89600730e-01},
   { 4.64884222e-01, -1.14102197e+00, -1.92753673e-01, -3.02561224e-01,  7.55952775e-01,  1.06544602e+00,  6.58985376e-01, -7.06126273e-01,
    -1.41407669e+00, -1.43453717e-01, -8.56714100e-02,  2.83044964e-01, -2.37577975e-01,  3.78965169e-01,  5.05705237e-01,  7.25669801e-01,
     3.63031596e-01, -8.84772658e-01, -1.59551370e+00, -6.81718230e-01,  1.69699360e-02, -4.49457377e-01, -1.78790152e-01,  2.27171602e-03,
     5.28532624e-01, -6.64477646e-02,  1.55847400e-01,  2.35740602e-01,  2.45226100e-01,  5.16986549e-01, -1.11235499e-01, -3.39137256e-01},
   { 3.26322615e-01, -3.42941806e-02,  1.39133692e-01, -3.93923163e-01, -5.34767091e-01,  1.80923060e-01, -2.81796575e-01,  1.44655943e-01,
     5.50290406e-01,  1.22979856e+00,  3.08345556e+00,  1.59260273e+00,  4.75173324e-01, -3.67458612e-01, -6.20970368e-01, -1.11815751e-01,
    -1.38182774e-01, -1.36111403e+00, -1.52482855e+00, -1.04567492e+00, -3.48794371e-01,  2.36766110e-03,  1.45125091e-01,  2.53115684e-01,
    -8.77731979e-01, -1.01896226e+00, -2.61346132e-01, -4.61450405e-02,  5.80354333e-01,  1.05685031e+00, -5.06167971e-02,  9.74428058e-01},
   { 1.07410026e+00,  1.84271777e+00,  3.96502376e+00,  2.92653173e-01, -3.44019353e-01, -4.49090570e-01, -1.72907627e+00, -5.89685500e-01,
     2.75654972e-01,  1.07277906e+00,  1.31946611e+00,  1.73039675e+00, -8.69538367e-01, -3.93144011e-01,  4.36732173e-01,  1.80623770e+00,
     3.60174924e-01, -5.35964429e-01, -1.30112755e+00, -2.95765400e-01,  2.91815609e-01, -6.27725840e-01, -3.15786861e-02, -3.99992466e-02,
     7.12244153e-01,  1.22881114e+00,  5.16210735e-01, -3.28597188e-01, -6.06378876e-02,  2.96652645e-01,  3.38566005e-01, -7.48848498e-01},
   {-4.51342434e-01, -4.38242584e-01,  4.86010641e-01,  1.11053362e-01, -6.27650082e-01, -6.83903039e-01, -1.67925429e+00, -9.13667977e-01,
     1.22183718e-01, -7.19105452e-02, -7.91169524e-01, -7.36456871e-01, -1.55560791e+00, -1.01775467e+00,  1.74771130e-01,  4.46386307e-01,
     4.47892219e-01, -2.05984175e-01,  9.00838524e-02,  7.67593622e-01,  6.18004203e-01, -7.72565827e-02,  9.08588886e-01,  1.07463729e+00,
     2.70524114e-01,  8.30759108e-01,  9.03033555e-01,  2.81105060e-02,  3.14351052e-01,  7.22959265e-02,  4.45543289e-01,  1.97121561e+00},
   { 6.12978458e-01,  2.14437175e+00,  2.66736388e+00,  8.31402302e-01, -1.22938013e+00, -1.65265524e+00, -1.48763645e+00,  4.72145438e-01,
     1.46382356e+00,  7.40538299e-01,  5.89060187e-01,  6.86420619e-01, -9.14671719e-01, -1.16207528e+00,  4.77977276e-01,  2.30740523e+00,
     1.99930191e+00,  2.32954550e+00,  5.93688525e-02,  4.40249562e-01,  8.71230960e-01, -4.30104226e-01,  7.28329942e-02, -3.20493817e-01,
     2.88068593e-01,  4.08047944e-01,  1.57406941e-01, -7.03931808e-01, -7.24955440e-01, -4.65283543e-01, -9.46175218e-01, -8.61635923e-01},
   {-5.50390601e-01, -6.24010980e-01, -6.99871659e-01, -1.06950414e+00, -2.99927592e-01,  3.26249510e-01,  1.15005529e+00,  7.78294384e-01,
     6.15792572e-01,  5.75142622e-01,  7.75107384e-01, -2.67819345e-01, -1.91778672e+00, -1.09347415e+00, -1.10170459e-02,  1.07324887e-02,
     3.19512188e-01, -8.59689415e-01,  1.28213540e-01,  1.26731169e+00,  7.49589086e-01,  3.17403942e-01,  8.35354686e-01,  1.62209344e+00,
     3.79116327e-01, -2.33068436e-01,  4.09095019e-01, -1.57415524e-01, -6.98299035e-02,  5.98367095e-01, -2.14737281e-01, -4.90812629e-01},
   { 5.27365386e-01, -8.36724043e-02,  1.05941284e+00, -5.16817570e-01, -4.93236005e-01,  3.04609209e-01,  9.17753100e-01,  8.72074962e-01,
     6.81357861e-01,  1.63960493e+00,  4.07148182e-01, -6.23521581e-02, -3.85589182e-01,  5.19223392e-01,  9.18130994e-01,  6.62029147e-01,
    -1.60393298e-01, -2.31998935e-01,  1.86043814e-01,  1.71278328e-01,  1.37086734e-01,  7.33759208e-03,  1.52569234e-01, -4.95251983e-01,
     3.19097251e-01,  9.28209782e-01,  5.55910349e-01,  5.54903805e-01,  7.11272120e-01,  9.72668111e-01,  4.53278959e-01, -9.13203120e-01},
   {-1.42343211e+00,  2.66784453e+00,  3.92140841e+00,  1.90285194e+00,  2.95043421e+00,  1.31193888e+00,  3.92377526e-02, -2.92849302e-01,
     4.65326816e-01,  3.65496755e-01,  3.86000246e-01,  4.19562817e-01, -2.94485927e-01,  1.85330808e-02, -1.59251168e-01, -9.04251993e-01,
    -6.46410346e-01,  8.59683156e-01,  5.52227855e-01,  5.77250838e-01,  1.50106454e+00, -1.39127716e-01,  8.77326261e-03, -5.13982773e-02,
     2.68737823e-01,  1.91992044e-01,  1.16689533e-01, -2.64461935e-01, -4.59422320e-01, -4.34170008e-01, -3.37961823e-01, -1.22335362e+00},
   {-2.00091392e-01,  2.91129023e-01,  8.77335727e-01,  8.49287808e-02, -2.90836751e-01,  1.13733554e+00,  1.40483046e+00,  8.36827815e-01,
    -1.76818725e-02,  1.99150190e-01,  3.34082067e-01,  3.31415534e-01, -6.23144984e-01, -9.83600765e-02,  4.87299919e-01,  5.23206770e-01,
     3.54986936e-01, -5.88796496e-01,  2.11406335e-01,  1.22521114e+00,  5.21403790e-01,  1.31210491e-01,  5.41157961e-01,  2.93352962e-01,
     5.33166945e-01,  3.45587492e-01, -4.97719198e-02,  8.25702429e-01, -1.17587969e-02,  2.07634792e-01,  3.43446821e-01, -4.04247463e-01},
   {-2.71619737e-01,  9.46357548e-01,  4.24841785e+00,  1.91990566e+00,  1.81170106e+00,  1.61375833e+00,  9.57002163e-01,  4.99225855e-01,
     8.66146743e-01,  9.20668602e-01,  4.54165667e-01,  1.04194641e+00, -3.86963248e-01, -1.81353852e-01,  2.20023334e-01, -3.65639657e-01,
    -4.63980466e-01,  4.32854295e-01,  7.52113014e-03, -1.24992609e-01,  9.24120769e-02,  4.23390418e-01,  3.79256159e-01, -3.59011114e-01,
    -2.24806786e-01, -2.94008464e-01, -6.30510628e-01, -6.63556993e-01, -1.69876015e+00, -1.03070688e+00, -3.48627418e-01, -1.90924788e+00},
   { 2.15883523e-01, -7.46961176e-01, -2.90967792e-01,  1.52654395e-01,  3.65984380e-01,  5.37332118e-01,  1.53881848e-01, -1.72176313e+00,
    -1.93219924e+00, -9.45089817e-01,  3.15350443e-01,  1.15715075e+00, -1.10666454e-01,  3.94773260e-02, -7.08077848e-02,  2.90731955e-02,
    -6.33363202e-02, -3.94755334e-01, -8.55810821e-01, -7.40620852e-01,  9.91608715e-04,  3.86956073e-02,  1.87617794e-01,  1.47269413e-01,
     1.65686920e-01, -6.79241300e-01,  4.04246189e-02, -2.89479136e-01, -8.95004943e-02, -2.73711532e-01, -3.43367070e-01,  3.95461977e-01},
   {-1.12859029e-02, -7.43199468e-01,  2.44460981e-02,  1.62940681e-01,  1.06635980e-01,  2.30726510e-01, -2.98605412e-01, -1.51160944e+00,
    -9.63426113e-01, -9.41145569e-02,  1.31091130e+00,  1.57392836e+00,  2.65474230e-01, -5.68227589e-01, -1.03688180e+00, -1.06051183e+00,
    -3.63301933e-01, -7.58152753e-02, -1.94952086e-01, -3.55043888e-01,  3.93075906e-02, -2.45505348e-01, -2.90419549e-01,  5.69882870e-01,
    -2.26334557e-01, -7.70256281e-01,  1.53209731e-01,  3.17890644e-01, -5.21767884e-02,  9.84192938e-02, -3.40953708e-01,  7.15296149e-01},
   {-1.10887788e-01, -3.66206765e-01, -7.33722210e-01, -1.70518503e-01,  2.43872508e-01,  2.63697803e-01,  2.70956218e-01, -3.80481273e-01,
    -1.20505846e+00, -7.46240497e-01,  6.87587261e-02,  8.62960696e-01, -2.65053332e-01, -5.26092768e-01, -1.52727440e-01, -5.77254184e-02,
    -7.69267902e-02,  2.09050894e-01, -6.15017414e-01, -5.31708539e-01,  1.16653331e-01,  1.58523992e-01, -4.08983320e-01, -4.20885347e-02,
     4.56976220e-02, -5.69764972e-01, -2.42948398e-01, -1.56564876e-01,  7.42400298e-03,  4.81015928e-02, -6.77545011e-01, -1.29082069e-01},
   {-5.50870776e-01, -1.67090353e-02,  2.26591754e+00,  7.14886725e-01,  1.88752306e+00,  1.31638753e+00,  5.76732516e-01,  1.20937161e-01,
    -7.56672502e-01, -9.53522265e-01,  2.81798709e-02,  1.13297772e+00, -7.37714648e-01, -1.56613123e+00, -9.12803054e-01, -7.27105618e-01,
    -1.66519538e-01,  3.20893794e-01, -7.83078909e-01, -9.14581478e-01,  6.48221791e-01,  3.36199492e-01, -6.61060121e-03, -1.93271056e-01,
     1.07975647e-01, -1.26050925e-02, -3.77634823e-01, -4.72247273e-01, -8.00720692e-01, -6.06158853e-01, -2.53760070e-01,  5.64401746e-02},
   {-3.84629592e-02,  1.47909686e-01,  5.16497672e-01, -5.58429778e-01, -5.74644446e-01,  3.82119924e-01,  1.38186169e+00,  9.62029994e-01,
     8.47200900e-02,  7.47818708e-01,  6.30912364e-01,  1.45930618e-01, -6.47336721e-01,  1.33680701e-01,  3.66893977e-01,  7.03006089e-02,
    -5.01851439e-02, -4.15671796e-01,  7.69114554e-01,  1.27829945e+00,  3.24896365e-01,  2.85637558e-01,  2.06468314e-01,  1.55731877e-02,
     4.83837128e-01,  9.52016354e-01,  2.89893955e-01,  8.68843198e-01,  1.07127659e-01,  4.61394601e-02,  2.42689967e-01, -3.39804083e-01},
};

const float RNN0_U[64][64] = {
   {-6.34116411e+00, -4.53200370e-01,  4.67020082e+00, -1.58744884e+00,  1.23106384e+00,  8.12529087e-01, -1.18462110e+00,  2.04264975e+00,
     8.57501447e-01, -1.99459982e+00, -1.77774811e+00, -2.76671231e-01,  4.23335743e+00, -3.33513394e-02, -2.28303671e+00, -2.36610436e+00,
     2.29001617e+00,  2.82480431e+00,  3.17539811e+00, -3.89441514e+00,  5.57134077e-02, -1.23086119e+00, -1.68826617e-02,  2.16484427e+00,
    -1.16175377e+00, -2.59059453e+00,  1.48552632e+00,  2.13105702e+00, -2.40256548e+00,  1.08746016e+00, -2.85602570e+00,  6.91765428e-01,
     1.97903705e+00, -2.68552947e+00, -2.92900085e-01, -1.31810176e+00,  7.05776751e-01, -1.49769235e+00,  4.43119764e-01, -3.29878998e+00,
    -5.11176944e-01,  6.28504455e-01,  1.26806343e+00, -2.38188767e+00,  7.92761922e-01, -3.43057841e-01, -1.34635067e+00, -3.42037582e+00,
    -2.67864704e-01,  1.39608288e+00, -6.87495589e-01, -2.04477000e+00, -7.44024217e-01, -2.80675244e+00, -1.17506707e+00, -1.42104626e+00,
    -2.50043154e+00, -8.18719149e-01, -1.94957948e+00, -2.29550242e+00, -2.79874182e+00,  2.85796309e+00, -1.53018928e+00, -1.72847167e-01},
   {-2.01797915e+00, -6.16056252e+00,  2.93464804e+00, -5.39547014e+00,  1.94082963e+00,  2.37774634e+00, -2.11228013e+00,  6.89635277e-01,
    -2.40607548e+00, -1.41968560e+00, -2.64271355e+00, -5.04109716e+00,  2.27194166e+00, -1.09959137e+00, -4.17929649e-01, -4.99477243e+00,
     1.13086104e+00,  4.00044775e+00,  2.18530440e+00, -1.81157529e+00, -1.00720751e+00,  2.35086635e-01, -8.77475023e-01,  6.70524478e-01,
    -2.86817694e+00, -2.29509783e+00,  1.04972684e+00,  7.49889970e-01, -4.59081030e+00, -1.95280087e+00, -3.49572372e+00,  1.39738023e+00,
    -2.08341694e+00, -1.09331739e+00, -1.79961002e+00,  4.98887253e+00,  1.01704031e-01, -4.33973837e+00, -8.31431508e-01, -5.05396700e+00,
    -1.19084990e+00,  2.13324714e+00,  2.80105472e-01, -2.71653175e+00,  7.74163365e-01, -3.28757262e+00, -5.88223457e-01, -4.84077740e+00,
    -2.29808712e+00,  7.02981591e-01, -1.06658208e+00, -2.96940732e+00, -1.15687048e+00, -3.07926536e+00, -2.40328217e+00, -1.75503182e+00,
    -1.53356671e+00, -3.94154310e+00, -6.92256629e-01,  3.81488657e+00, -3.51319194e-01,  5.37454748e+00,  8.58854175e-01, -3.55105925e+00},
   { 3.46356320e+00, -8.01987469e-01, -1.06393337e+00,  1.02751255e+00, -1.35370955e-01, -1.23879278e+00, -1.38300121e+00,  2.03536177e+00,
     2.56782770e-01, -6.39851868e-01,  2.45215520e-01,  6.35494366e-02,  1.29013789e+00,  6.22059584e-01, -1.69681513e+00, -8.55936646e-01,
     3.11022091e+00,  1.77972913e+00,  7.44451433e-02,  2.22971272e+00,  3.78174633e-01, -1.42155683e+00,  2.15636396e+00, -5.96207500e-01,
    -7.69241154e-01, -2.05130267e+00,  2.68131876e+00,  2.55972362e+00,  4.88871515e-01,  7.46083260e-01, -2.95620799e+00, -2.86825955e-01,
     3.00016713e+00, -2.11886334e+00,  2.25439262e+00, -4.99546498e-01,  1.22315013e+00,  4.02482264e-02, -6.85488164e-01,  7.44373500e-01,
    -7.47105002e-01, -1.49717093e+00, -1.11470020e+00, -1.37980008e+00,  3.59587955e+00, -1.13949764e+00, -2.09529459e-01,  1.42461360e+00,
    -8.94945025e-01,  1.05757177e+00, -1.57120407e+00,  2.24206114e+00,  2.31260568e-01,  8.21465850e-02, -8.50797653e-01,  1.50625896e+00,
     2.94423252e-01, -7.70636141e-01, -1.26988506e+00,  2.56105685e+00,  1.27948582e+00,  4.92103010e-01, -1.77336991e+00, -1.07216680e+00},
   {-2.33648252e+00, -6.38083696e-01, -3.39189053e+00, -2.70858860e+00, -2.36744785e+00,  1.88204253e+00, -8.43331575e-01, -1.21118844e+00,
     3.47267556e+00,  1.00195575e+00, -2.27841210e+00, -1.01268873e-01,  3.40325266e-01, -3.65383476e-02, -2.09042236e-01, -5.46684361e+00,
    -3.90726216e-02,  6.28747940e-01, -2.62933898e+00, -8.66663814e-01, -5.90671301e-01, -6.00612497e+00, -3.90922070e-01, -2.30278802e+00,
     5.21964729e-01, -7.76381910e-01,  2.00897828e-01,  9.74128544e-01, -5.34855604e+00,  1.65573859e+00,  1.89533710e+00,  1.80105579e+00,
    -2.20046267e-01, -5.37081122e-01, -3.26697206e+00, -9.87857342e-01, -2.52538490e+00, -2.08888555e+00, -1.13339818e+00, -3.07942224e+00,
    -8.46167266e-01, -2.66372108e+00, -4.58152056e-01,  2.69334817e+00, -3.16690254e+00, -2.75733382e-01, -2.70136356e-01, -4.29316187e+00,
     3.71481800e+00, -4.67106962e+00, -1.34790450e-01, -9.81436133e-01, -1.74897575e+00, -3.57552814e+00, -2.97169757e+00, -1.73546338e+00,
    -1.15792191e+00, -1.13014281e+00, -6.86553359e-01, -5.78156662e+00, -6.28988218e+00, -5.11452961e+00, -4.17402923e-01,  8.76504242e-01},
   { 4.76896882e-01,  1.66699874e+00,  8.01291108e-01,  2.10747266e+00,  1.12425447e+00,  3.54554772e-01, -5.75764894e-01,  6.23135924e-01,
    -2.35817492e-01,  4.40662384e-01,  1.50866315e-01, -1.48072314e+00, -5.89216888e-01,  3.12535691e+00, -9.69659150e-01, -2.04211617e+00,
     1.69604146e+00,  8.54782224e-01,  1.37263346e+00,  1.75668299e+00,  2.20996523e+00, -1.65914465e-02, -3.64427477e-01,  2.55923057e+00,
    -1.47080988e-01, -2.57578754e+00,  1.10910022e+00,  1.08859909e+00, -2.93709230e+00, -2.35128880e-01, -1.29294312e+00,  7.04109430e-01,
     2.62872529e+00, -1.14162338e+00,  8.84067237e-01,  3.06005031e-01, -2.82232761e-01, -1.48953414e+00,  7.40072310e-01, -6.97123885e-01,
     3.02117515e+00, -4.67062414e-01,  1.14638102e+00,  2.58702040e+00,  2.79283667e+00,  8.81346941e-01, -2.79284811e+00, -3.96720290e-01,
     7.68226758e-02,  5.06762505e-01, -1.27037930e+00,  3.01411319e+00,  7.71530271e-01,  2.48556867e-01,  2.39852011e-01,  3.31185341e+00,
     4.59492840e-02, -2.67921865e-01, -1.08762920e+00,  1.03138506e+00,  3.47950578e+00,  1.22138572e+00,  7.95098424e-01,  8.73803735e-01},
   {-2.02977133e+00, -4.73031104e-01,  3.14227486e+00, -3.17060304e+00,  4.13523972e-01,  4.00690985e+00,  2.72291899e+00, -2.72856307e+00,
     2.44231820e+00,  3.04567575e+00,  8.41320932e-01,  2.73498321e+00,  3.66590190e+00, -1.04604053e+00,  3.23990679e+00,  3.54460090e-01,
    -1.67982280e+00,  3.43265724e+00,  3.45483780e+00, -1.85999095e+00, -7.90659666e-01,  2.63587260e+00,  1.52971637e+00,  1.33722752e-01,
     2.06086636e+00, -1.79692161e+00, -1.90192676e+00,  4.81209803e+00,  1.06523120e+00,  4.59610415e+00, -3.89169264e+00,  5.08152246e-01,
     4.25232112e-01,  2.54650688e+00,  1.30738926e+00, -6.35260046e-01,  4.95868623e-01, -5.93248129e+00,  1.37458146e+00,  2.12046218e+00,
    -9.21331167e-01,  1.36120999e+00, -8.22964385e-02, -1.08054292e+00,  1.82841396e+00, -1.07986972e-01, -5.62980115e-01, -2.02492997e-01,
     6.19269669e-01,  5.54743433e+00, -6.39333725e-01,  2.57436967e+00,  9.29203451e-01,  1.35842919e+00,  9.42470908e-01,  1.52217317e+00,
     2.77246284e+00,  2.12210751e+00,  2.60566115e+00,  1.50735998e+00,  2.90950084e+00,  2.52004743e+00,  3.32447672e+00,  8.41112673e-01},
   {-3.66243482e-01,  2.87028456e+00, -2.01254153e+00, -1.96921200e-01,  5.33457458e-01, -3.04143143e+00, -2.11306143e+00,  1.82697043e-01,
    -1.86478209e+00, -2.25106716e+00,  1.32985914e+00,  1.48404747e-01,  9.21850726e-02,  1.50790066e-01,  2.68434972e-01,  2.43149495e+00,
    -2.03996754e+00,  4.53015000e-01,  6.51240885e-01, -4.53983116e+00,  1.74381554e+00, -2.05672717e+00, -4.26450443e+00, -1.96106720e+00,
    -1.36717033e+00, -7.43954360e-01, -3.31134200e+00,  1.83666408e+00, -4.98979330e+00,  9.05994773e-01, -7.46076047e-01,  3.94871998e+00,
     1.80880141e+00,  1.16525674e+00, -1.31473851e+00, -6.41010165e-01, -2.06790462e-01,  4.50951636e-01,  1.97351766e+00, -6.96888638e+00,
     1.16928542e+00,  1.53133929e+00,  3.98624349e+00,  3.07721639e+00,  2.65402007e+00,  1.80304563e+00, -1.90265620e+00, -1.18122196e+00,
     9.23495829e-01,  5.40509582e-01, -4.65808153e+00,  1.15867667e-01,  1.00520670e+00, -1.37619901e+00,  1.96553326e+00,  1.40847635e+00,
    -3.17530584e+00,  3.48155928e+00,  1.98540819e+00, -1.01872230e+00, -4.04297209e+00,  2.36688927e-01, -1.49445212e+00,  4.34570074e+00},
   {-1.74786925e+00, -3.72319245e+00,  4.41980451e-01, -1.29638445e+00, -1.39092207e+00,  2.70270920e+00, -4.21131420e+00, -1.64563882e+00,
     1.38269901e+00,  9.27372947e-02, -3.10572290e+00,  1.02066612e+00, -1.30748779e-01,  1.64196777e+00, -2.35721469e+00, -3.17636228e+00,
     2.62323666e+00,  1.38499355e+00, -9.87089396e-01,  1.08468735e+00,  4.97420520e-01, -1.31607306e+00,  2.43848920e+00,  7.81386137e-01,
     1.39650190e+00, -7.28398740e-01,  2.89020610e+00, -1.66802084e+00,  4.16908860e-01,  1.16773319e+00,  7.28500128e-01, -2.19172931e+00,
    -2.93576527e+00, -2.94422150e+00, -9.60712731e-01,  3.52684855e-01, -1.49874020e+00, -3.47463340e-01, -1.33059132e+00,  1.54665485e-01,
     2.07794333e+00, -1.97800446e+00, -2.49527645e+00, -2.44239163e+00, -1.65075350e+00, -1.95280755e+00,  8.34227562e-01, -2.47818804e+00,
     4.89025712e-01,  3.13189119e-01,  3.48279023e+00, -5.11941910e+00, -1.83739495e+00, -3.03984022e+00, -2.64691520e+00, -4.26983261e+00,
    -1.31094396e+00, -4.57752037e+00, -4.15618229e+00, -8.72258365e-01,  1.55235338e+00, -7.49889493e-01,  4.29448992e-01, -5.18901205e+00},
   {-1.45192480e+00,  6.88719869e-01,  7.11325169e-01, -2.14155149e+00,  6.50005862e-02,  1.78289318e+00,  4.86946583e-01, -1.11189032e+00,
    -9.06087017e+00,  1.34408402e+00, -6.65092826e-01,  2.07515311e+00,  3.57945800e+00,  8.38102221e-01,  6.50273025e-01,  2.65183091e+00,
     1.08347990e-01,  2.86214519e+00,  4.81559187e-01, -2.08870411e+00, -1.15089193e-01,  4.20047909e-01, -1.29218042e+00, -2.25855446e+00,
    -7.59243727e-01, -2.73428154e+00,  9.84716564e-02,  3.84868932e+00, -3.23900700e-01,  2.54258347e+00, -3.01786447e+00,  3.05843472e-01,
     2.62602836e-01,  6.51298940e-01,  2.90370440e+00, -3.03340268e+00,  4.14413357e+00, -8.99962425e-01,  4.60588604e-01, -8.04678977e-01,
     4.26200360e-01, -1.16259849e+00,  5.65376043e-01, -5.46116352e-01,  9.50041041e-03,  5.27901530e-01,  1.46243012e+00, -1.07427502e+00,
    -6.63512111e-01, -1.13469772e-01,  4.09867406e-01,  1.11196029e+00,  1.56346476e+00,  6.55123413e-01,  4.50357229e-01,  2.16861397e-01,
     1.80293679e+00, -9.64317679e-01,  5.93609929e-01, -2.69478893e+00, -1.09565949e+00, -5.14707565e-01,  9.35394943e-01, -2.33101755e-01},
   {-1.55359060e-01,  2.84139490e+00,  3.84378321e-02, -9.28775728e-01,  1.25326717e+00, -1.82369483e+00,  3.21157598e+00, -3.29021668e+00,
     3.82779539e-01, -1.60422671e+00,  1.76897752e+00, -5.90476513e-01,  1.32425880e+00,  4.41061318e-01,  4.22500181e+00,  1.07565820e+00,
    -3.46596599e+00,  1.51202396e-01,  2.91492772e+00, -1.07203197e+00,  8.57602417e-01,  2.84693456e+00, -1.88130713e+00, -4.83094841e-01,
     1.05493486e+00, -5.23388922e-01, -3.77070737e+00,  3.78132915e+00, -6.62646711e-01,  4.06475353e+00, -1.97051334e+00,  2.95841241e+00,
     6.65883303e-01,  3.79681182e+00,  8.04915845e-01,  1.08950770e+00,  5.69015801e-01, -4.05946541e+00,  1.47653234e+00, -1.36585340e-01,
    -9.47555065e-01,  2.08350873e+00,  2.59865141e+00,  1.49135149e+00,  1.19794345e+00,  2.12620282e+00, -7.38138795e-01, -8.63676369e-01,
     4.93569672e-02,  1.86269653e+00, -3.42962098e+00,  3.81087399e+00,  4.25785828e+00,  6.94658697e-01,  2.70802522e+00,  1.99351847e+00,
     2.43386984e+00,  3.03073549e+00,  3.86234999e+00,  7.71846831e-01,  1.28699803e+00,  1.58099842e+00,  2.19181442e+00,  2.89791298e+00},
   {-2.08539867e+00,  1.22280955e+00, -2.79619741e+00,  2.45756316e+00, -1.52585006e+00, -6.95335209e-01,  1.10757387e+00, -6.98288023e-01,
    -2.44562435e+00,  1.69044465e-01, -2.07761168e+00, -1.25742841e+00, -8.79555047e-01, -1.57856286e-01,  1.51466906e+00, -3.16717672e+00,
    -1.85376239e+00,  1.59510648e+00,  9.51701164e-01, -1.03001034e+00,  1.35351345e-01, -2.71190214e+00, -1.66358244e+00, -2.42869353e+00,
     3.52778316e-01, -3.49326521e-01, -3.04839277e+00,  7.05272734e-01, -5.75056696e+00,  8.71059775e-01,  2.69208336e+00,  1.50535107e+00,
     1.27612245e+00,  7.25975513e-01, -8.90660346e-01, -9.25403059e-01, -2.26844192e+00, -1.81606412e-01,  8.46856117e-01, -5.15282869e+00,
    -5.38001060e-01, -1.57901335e+00,  4.07757670e-01,  6.68570042e+00,  1.59992754e+00,  1.57398987e+00, -3.03407240e+00, -1.40151632e+00,
     9.13454533e-01, -1.80695653e-01, -3.31588244e+00, -2.38455817e-01, -1.06327116e+00, -1.12596357e+00, -1.84205699e+00,  4.30922413e+00,
    -1.32867539e+00,  4.36090136e+00,  9.61021602e-01, -3.97892237e-01, -4.35538149e+00,  4.89618853e-02, -4.44388479e-01,  6.16214418e+00},
   {-7.78595865e-01, -2.43112063e+00,  2.81183553e+00,  1.87472284e-01, -1.02973819e+00,  2.11692341e-02,  5.87918330e-04, -1.46229684e+00,
    -6.28101826e-01,  1.46487951e+00,  4.49467748e-01, -1.81967044e+00,  1.77179784e-01,  1.34442365e+00, -3.18914860e-01,  1.14111125e+00,
     2.72811145e-01,  5.94925821e-01,  1.64938438e+00, -4.94124699e+00,  6.68950379e-01,  1.47538507e+00, -9.26381648e-01, -2.24922967e+00,
     1.37112498e+00, -3.09617281e-01,  1.41464740e-01,  2.07218361e+00, -8.15319836e-01,  2.69665956e+00,  1.09822594e-01, -1.53866613e+00,
     3.02996469e+00, -2.03858569e-01, -3.00966144e+00,  7.45893538e-01, -3.28607273e+00, -7.05366731e-01,  2.53927159e+00,  3.09141541e+00,
     8.67110193e-01,  2.54586428e-01,  1.06555712e+00,  3.09293222e+00,  2.10249448e+00,  2.70136261e+00, -1.99240422e+00,  6.58839822e-01,
    -9.77569938e-01,  1.94643009e+00,  1.81097102e+00,  1.13784504e+00,  1.52561808e+00, -1.04309559e+00,  1.29093969e+00, -1.36840618e+00,
    -6.72469661e-02,  2.34258413e+00,  2.99571365e-01, -1.64634132e+00,  4.44690257e-01,  7.10403919e-01,  3.80445093e-01,  3.41126204e+00},
   { 3.46242642e+00,  2.87467694e+00,  3.11472607e+00, -4.10944796e+00, -5.41206837e-01,  1.24230754e+00,  1.56182277e+00, -3.14265132e+00,
    -1.38759077e+00,  2.21622705e+00, -2.59131765e+00,  4.82700586e-01,  6.93453372e-01, -9.22167480e-01,  2.15393329e+00,  1.79222035e+00,
    -2.23095798e+00,  2.33054018e+00,  2.68468285e+00, -2.23335719e+00, -3.08499515e-01,  2.78084695e-01,  1.36143994e+00, -1.18126202e+00,
    -3.14509773e+00, -3.09358811e+00, -1.90882158e+00,  4.21763611e+00,  6.10504597e-02,  3.15864825e+00, -3.76036286e+00,  1.91581988e+00,
     2.06083226e+00,  2.04943657e+00,  3.45542169e+00, -3.21334815e+00,  2.82361102e+00, -2.47195697e+00, -1.84363329e+00, -2.62221646e+00,
    -1.45646346e+00,  5.35810828e-01, -1.12611675e+00, -4.16190338e+00,  2.40903020e-01, -1.56893194e+00,  4.34917271e-01, -2.42605448e+00,
     7.16201589e-02,  2.73101687e+00, -3.09394026e+00,  1.20737815e+00, -1.35613203e-01, -6.29594564e-01, -9.16521013e-01,  2.14945984e+00,
     1.89276063e+00, -2.11502337e+00,  2.51946735e+00,  6.90918624e-01, -3.23336720e+00,  2.17341590e+00,  1.56171823e+00, -8.53534639e-01},
   {-3.51918411e+00, -1.86088514e+00,  1.01320589e+00,  2.55531406e+00,  2.32153344e+00,  5.77734709e-01, -2.01125145e+00,  1.76106119e+00,
     4.21888494e+00,  1.04296124e+00, -9.40875351e-01,  1.05739629e+00, -1.82186210e+00,  4.21891975e+00, -1.22945559e+00,  1.28904235e+00,
     2.60153365e+00, -1.58941197e+00,  7.63959348e-01,  3.69967461e+00,  2.02513909e+00, -1.99905396e-01, -1.60256732e+00,  6.51155472e-01,
     9.86841679e-01, -6.87343121e-01,  2.95481515e+00,  7.00148106e-01, -7.86459982e-01,  2.01723647e+00,  2.42651129e+00,  1.99264839e-01,
     8.92857015e-01, -1.70596087e+00,  1.91792250e+00,  2.91707301e+00,  1.14781654e+00,  1.99278224e+00,  3.75310493e+00,  3.08729863e+00,
     5.48733473e+00, -2.83685994e+00,  3.18560863e+00,  1.89292800e+00,  3.01092362e+00,  3.82169247e+00, -1.36715364e+00,  1.97842438e-03,
     3.30361891e+00, -2.23187852e+00,  1.41534731e-01,  3.11273885e+00,  2.51783562e+00,  2.33926162e-01,  1.45145774e-01, -6.28745794e-01,
     9.62953210e-01, -3.04259634e+00, -8.85997117e-01,  1.98750865e+00,  3.40195394e+00, -2.36844882e-01, -4.68105286e-01, -3.98697162e+00},
   {-1.09274232e+00,  2.91006398e+00, -2.33882999e+00,  1.34292349e-01, -2.97884177e-02, -3.87990379e+00,  1.50730538e+00,  3.88650745e-01,
    -2.06730771e+00, -4.20889330e+00,  1.16228306e+00, -3.11081707e-02,  6.64559245e-01,  3.67567800e-02, -1.94212067e+00,  3.47446609e+00,
    -2.49021006e+00, -1.11747873e+00,  1.67393196e+00, -3.91177583e+00,  1.33833379e-01, -2.23862063e-02, -2.82734990e+00, -1.98295033e+00,
    -1.97411108e+00, -6.49989903e-01, -1.94840515e+00,  7.83567607e-01, -3.03238678e+00,  7.90686347e-03, -2.06605673e+00,  3.02777958e+00,
     4.68016595e-01,  2.04749966e+00, -1.52516854e+00,  1.55075300e+00, -1.03368151e+00,  1.63068011e-01,  1.96728301e+00, -4.71068382e+00,
    -6.04733467e-01,  3.30373049e-01,  2.66589975e+00,  3.46261215e+00,  1.08855093e+00,  1.57952642e+00, -1.88917673e+00, -5.37834466e-01,
     7.47442782e-01,  4.94099438e-01, -3.34289432e+00,  5.66125453e-01,  1.32152796e+00, -1.73275554e+00,  2.40509224e+00,  2.37846184e+00,
    -1.59725535e+00,  3.30007243e+00,  2.99386907e+00, -2.49374673e-01, -3.51261997e+00,  1.16681421e+00, -9.28407073e-01,  2.78078914e+00},
   { 1.91613007e+00,  2.50075191e-01,  4.01744783e-01,  5.48934817e-01, -1.00925374e+00, -1.85708416e+00, -1.72594368e-01, -8.25890243e-01,
    -2.40769339e+00,  2.14257047e-01, -9.17226225e-02,  1.11879015e+00, -2.09991312e+00, -4.32253242e-01,  1.75349131e-01, -2.78999257e+00,
     2.66348153e-01, -1.28421569e+00, -3.34982902e-01, -3.93055767e-01,  6.24809146e-01,  9.63685453e-01,  1.73504755e-01, -6.56900942e-01,
     1.89462316e+00,  1.11563957e+00,  1.89521551e-01, -1.53223395e+00, -8.40777159e-01,  1.90335467e-01,  8.75435591e-01, -1.91528630e+00,
     1.77597538e-01,  1.54747352e-01, -1.20402956e+00,  8.03233147e-01, -1.05508447e+00,  1.38745439e+00, -4.89821672e-01,  1.63003373e+00,
     8.49737704e-01,  4.02149856e-01,  1.15867019e+00,  2.57514864e-01, -3.29503208e-01,  5.75007379e-01,  5.71761847e-01, -1.95051044e-01,
    -1.92682731e+00,  5.41883945e-01, -2.07299680e-01, -8.39541078e-01,  8.55803072e-01, -7.85201192e-01,  1.31221604e+00,  4.27945584e-01,
    -5.50314546e-01,  2.58803934e-01,  5.75722940e-02, -5.86408257e-01,  3.61353755e-01, -2.18761414e-01, -3.33225042e-01,  9.19890523e-01},
   { 1.16999519e+00, -2.73609495e+00,  1.59430897e+00, -1.07298648e+00, -1.75763345e+00,  3.23390365e+00, -1.74521041e+00,  1.15876652e-01,
     2.69235730e+00,  6.33427560e-01, -1.92919552e+00,  7.01684773e-01,  8.17331851e-01,  5.79233110e-01, -4.42761272e-01, -4.42625427e+00,
     6.75460324e-02,  6.41735554e-01,  4.57072228e-01,  2.15043426e+00, -1.84166849e-01,  4.67673615e-02,  3.35384297e+00,  1.37192512e+00,
     1.11779416e+00,  2.35286921e-01,  2.28484344e+00, -1.04912734e+00,  2.60546160e+00,  2.94052064e-01,  1.14228821e+00, -1.74758136e+00,
    -7.45733261e-01, -1.87374413e+00, -2.86579430e-01, -8.81861031e-01,  7.70424426e-01, -1.25878143e+00, -7.96166837e-01,  2.39812899e+00,
     8.48851204e-01,  3.05444062e-01, -3.74320698e+00, -2.30108142e+00, -1.20007408e+00, -1.75718069e+00,  2.43832564e+00, -1.35819983e+00,
     4.35137033e-01, -9.26078260e-01,  3.11641455e+00, -2.69768357e+00, -1.63204443e+00, -2.50493383e+00, -1.71797812e+00, -3.55472779e+00,
     9.30575371e-01, -2.84612513e+00, -3.00009179e+00,  4.26262975e-01,  1.68341029e+00,  9.01842713e-01,  5.29626347e-02, -3.83892441e+00},
   {-7.30335474e-01,  6.04356575e+00,  5.64366221e-01, -3.49889135e+00, -1.00951374e-01,  9.11009073e-01,  1.96702290e+00, -2.05277276e+00,
    -3.20426154e+00,  1.31898618e+00, -2.58155782e-02, -2.69161105e+00,  1.37527072e+00, -1.91626501e+00,  2.55957270e+00,  2.09566474e+00,
    -2.44128871e+00,  5.57668567e-01,  1.07971537e+00, -1.66652620e+00, -2.29957438e+00,  1.58750796e+00,  1.65969479e+00, -1.54135752e+00,
    -1.95047641e+00, -2.01297951e+00, -2.30537939e+00, -9.39771086e-02, -1.38910329e+00, -1.69183299e-01, -8.99097681e-01, -2.36626148e-01,
    -8.74491751e-01,  2.41981912e+00,  2.13403916e+00, -5.39984941e-01,  9.21852350e-01, -1.88254952e+00, -2.12183595e+00, -3.14878488e+00,
    -1.99575877e+00, -5.92986286e-01, -2.20557952e+00, -1.19998336e+00, -1.40566692e-01, -2.98995757e+00,  6.98272586e-01, -2.51329017e+00,
    -3.67823482e+00,  1.99761534e+00, -7.79664874e-01,  2.47977003e-01, -2.57084990e+00,  1.49673069e+00, -3.15319538e+00,  4.71459866e+00,
     1.14347029e+00,  5.96130550e-01,  3.03479552e+00,  1.73609102e+00, -2.01851916e+00,  1.71304142e+00,  1.37127113e+00,  1.77858341e+00},
   {-1.35355151e+00,  3.42396116e+00,  1.92494893e+00, -6.01721644e-01,  2.57279468e+00,  2.82269597e+00,  1.15785360e+00,  2.39290193e-01,
     2.11702490e+00,  2.70107478e-01,  1.34726071e+00, -7.25198448e-01,  1.87195706e+00,  1.10826111e+00,  7.01966524e-01,  5.84224939e-01,
     1.23155963e+00,  2.50399685e+00,  6.01529900e-05,  4.71402019e-01, -1.30780709e+00,  2.35191554e-01,  3.17958975e+00, -8.77782330e-02,
    -3.90365034e-01, -2.16271782e+00,  7.37173185e-02,  2.93650270e+00, -8.40497553e-01,  1.36937594e+00, -2.32442403e+00,  5.25020421e-01,
     3.31019497e+00,  7.78085291e-01,  3.79172635e+00, -2.72848487e+00,  1.96611857e+00, -5.81235361e+00,  1.84071697e-02, -1.14669216e+00,
    -1.78807750e-01,  9.81021285e-01, -1.74489903e+00,  1.90052211e+00,  3.33636737e+00, -3.03216279e-01,  9.95562077e-02, -1.44493866e+00,
     6.92144334e-01,  1.21595669e+00, -1.02512705e+00,  3.88167620e+00,  1.80286014e+00,  2.74300981e+00, -6.31010234e-02,  6.20338106e+00,
     1.92921877e+00,  2.34566736e+00,  1.70981252e+00,  6.04144239e+00,  4.20548296e+00,  3.67462778e+00,  1.72344863e+00,  1.51942182e+00},
   {-1.22435141e+00,  1.62162036e-01, -3.79726505e+00,  1.43041968e+00, -3.71748662e+00,  1.53121650e+00,  3.95931125e-01,  8.21557164e-01,
     1.97720253e+00, -4.30250913e-02,  2.56298637e+00,  1.75432849e+00, -7.81950712e-01, -9.29580390e-01,  3.75361860e-01, -4.96564895e-01,
     9.97392476e-01,  7.55952179e-01, -4.17768061e-01, -2.51824617e+00, -8.31237257e-01, -2.83107138e+00,  2.39656711e+00, -1.58746397e+00,
     4.21133375e+00,  1.06027699e+00,  1.62427694e-01,  4.59013581e-01,  1.31159067e+00,  6.69911861e-01,  4.33580446e+00,  6.19107604e-01,
    -6.65036321e-01,  2.33278960e-01,  3.02079344e+00, -1.97585404e+00,  2.40464640e+00, -8.42165291e-01, -1.80602562e+00, -2.16835165e+00,
    -1.05090570e+00, -4.04220343e+00, -3.03421521e+00,  4.67508316e+00, -8.07931662e-01, -1.55499148e+00,  1.66070652e+00, -1.34095502e+00,
     1.49771857e+00, -2.81415462e+00,  7.56420612e-01,  2.25519943e+00, -1.57969281e-01,  2.79979318e-01, -5.66674247e-02,  2.47780895e+00,
     8.03730369e-01,  8.70451331e-01,  3.09721947e-01, -2.00611830e+00, -3.71583819e+00, -2.47037339e+00, -1.15663841e-01,  1.60249364e+00},
   {-3.37224340e+00, -1.16474652e+00,  2.03182602e+00,  1.98889995e+00,  2.53062749e+00,  9.81417358e-01, -1.42799616e+00, -2.50985563e-01,
     1.05666506e+00,  7.50432789e-01, -8.82765532e-01,  7.66294181e-01, -4.94159222e-01,  5.12344646e+00,  1.95188522e-01, -3.68547261e-01,
     3.46903384e-01, -1.01354146e+00,  6.01355135e-02,  1.01718867e+00,  6.14987373e+00,  1.20657670e+00, -2.80754447e+00,  1.90093029e+00,
     1.22537637e+00, -1.29894638e+00,  8.57946932e-01,  1.70017743e+00, -4.00334454e+00,  2.59044600e+00,  2.11855680e-01,  1.63172174e+00,
    -6.77368343e-01, -5.85058749e-01,  2.72014916e-01,  4.44872475e+00, -5.55477560e-01,  6.29636288e-01,  1.77677870e+00,  2.17563415e+00,
     4.89233255e+00, -1.68116164e+00,  2.80152535e+00,  1.46093917e+00,  3.28870559e+00,  3.07446098e+00, -2.54011011e+00, -3.09516132e-01,
     2.06268692e+00, -2.17680737e-01, -1.02770364e+00,  1.74715686e+00,  1.96019840e+00, -3.60103965e-01, -3.66313189e-01, -1.36065388e+00,
     6.65577650e-01, -3.31972051e+00, -7.19038248e-01,  1.93843871e-01,  4.41146326e+00, -3.54935557e-01, -2.03865647e-01, -2.82644439e+00},
   { 7.78344631e-01,  3.74295235e+00,  2.44811559e+00,  2.36798191e+00,  3.55261970e+00, -1.28392470e+00,  1.14844584e+00, -1.06773153e-01,
    -2.30014992e+00, -2.68379718e-01,  3.08523345e+00, -4.20622063e+00, -1.05749929e+00, -5.70339151e-02,  4.65330869e-01,  1.01480889e+00,
    -3.10054421e-01, -8.76131296e-01,  6.99304163e-01,  2.99610710e+00,  4.42952305e-01, -6.65476274e+00,  4.27732766e-01,  2.04775333e+00,
    -5.75253308e-01, -7.41899669e-01, -2.19942499e-02, -1.11808228e+00,  2.62045562e-01, -8.04745793e-01, -2.47913337e+00,  5.74318647e-01,
     2.19264463e-01, -9.70854387e-02,  3.97857547e+00, -8.35471272e-01,  6.17548883e-01, -1.00319028e+00, -5.08150578e-01,  5.50625324e-01,
     3.25966060e-01,  2.00223637e+00,  9.29535270e-01,  8.95107329e-01,  4.80369473e+00, -3.37185897e-02, -2.29467821e+00,  1.53450429e+00,
    -3.65228343e+00,  2.53367376e+00, -3.38578916e+00,  2.61522245e+00,  1.19890177e+00,  3.58593059e+00,  1.05792093e+00,  5.37500811e+00,
     9.64516461e-01,  1.92017651e+00,  4.05053109e-01,  6.24618053e+00,  6.27598619e+00,  1.59591269e+00, -5.13418376e-01,  1.51780307e+00},
   { 9.40139033e-03,  1.47162020e-01, -2.83165646e+00, -1.22062016e+00, -4.76980066e+00, -5.23879111e-01,  1.67601836e+00,  4.90721673e-01,
     4.64777499e-01, -5.99541143e-02,  1.81385767e+00,  8.38450491e-01, -5.00636101e-01, -2.11083126e+00,  7.06264555e-01,  3.30444157e-01,
    -1.05884343e-01, -7.39633739e-01, -1.61951959e+00,  1.53258848e+00, -2.58476949e+00, -2.47984958e+00,  2.28914142e-01, -3.88056087e+00,
    -1.01681624e-03,  1.53305697e+00, -8.36048722e-01, -7.81796336e-01,  5.38706350e+00,  9.97720301e-01, -2.38567200e-02, -1.71842539e+00,
    -2.58086268e-02,  1.16123044e+00,  3.97720814e+00, -5.67555618e+00,  2.41425228e+00, -2.85970211e-01, -7.22047865e-01, -4.41191733e-01,
    -3.39275670e+00, -1.31480920e+00, -3.27976680e+00, -7.13118136e-01,  2.34422144e-02, -1.35498774e+00,  1.83986890e+00,  8.52917790e-01,
    -1.64266074e+00,  2.03083843e-01, -1.13150907e+00, -2.03487545e-01, -1.07773948e+00,  2.55634522e+00,  1.71406007e+00,  1.40233362e+00,
     1.63290465e+00,  2.47829914e+00,  5.56211412e-01, -1.27236736e+00, -2.20396042e+00, -8.44686031e-02, -1.10008812e+00,  9.18364644e-01},
   { 2.30853367e+00,  9.21683073e-01,  2.62810826e+00,  1.07776713e+00,  3.68660092e+00, -4.35969889e-01, -2.15533805e+00,  2.33196497e+00,
    -9.12007928e-01, -1.66678059e+00,  1.93981200e-01, -1.91826403e+00,  7.16645420e-01,  2.91386580e+00, -2.46392465e+00, -1.86723411e+00,
     3.48554659e+00,  5.21492183e-01,  1.56207991e+00,  2.97033715e+00,  2.67451167e+00, -5.38335979e-01, -4.58733290e-01, -3.52132350e-01,
    -5.42879462e-01, -2.01764798e+00,  2.87491202e+00,  8.52777123e-01, -1.50723350e+00, -1.04893279e+00, -8.45684707e-01,  2.46695328e+00,
     3.39926791e+00, -2.71187568e+00,  1.14406431e+00, -1.95341969e+00,  1.31007719e+00,  1.09064627e+00,  1.76542294e+00, -1.34795105e+00,
     1.74200869e+00,  1.49267280e+00,  3.80206525e-01,  6.41311407e-01,  3.39534855e+00, -6.80446148e-01, -1.16526473e+00, -2.60213137e-01,
    -5.68914652e-01, -3.86792198e-02, -1.45226038e+00, -2.23250389e-01, -5.66469252e-01, -7.21708834e-01,  9.25350547e-01,  1.01380706e+00,
    -1.56738198e+00, -4.94797200e-01, -2.40926814e+00,  1.22737861e+00,  8.90173554e-01,  1.93581641e+00, -5.97592473e-01,  7.24478662e-01},
   { 8.79913449e-01,  3.13575554e+00,  2.18937206e+00, -1.94673288e+00, -6.04754031e-01,  2.26090980e+00, -3.84196818e-01, -2.53276181e+00,
     3.16511542e-01,  1.88856030e+00,  7.44194031e-01,  1.55153620e+00,  2.81608152e+00, -9.98366833e-01,  4.71136421e-01, -2.84850216e+00,
    -1.00565016e+00,  1.64352906e+00,  3.20400023e+00, -3.85208368e+00, -7.71453142e-01,  2.17361450e+00, -2.52385616e-01,  3.14013034e-01,
    -3.53789091e+00, -1.94376886e+00, -4.45904195e-01,  4.34664965e+00, -2.87940097e+00,  4.05338526e+00, -7.54392922e-01,  1.29304564e+00,
     1.03302896e+00, -2.52572391e-02, -1.84246838e+00,  2.21316409e+00, -4.30341196e+00, -3.38173413e+00, -1.49735820e+00,  3.87329042e-01,
    -1.99413621e+00,  2.12600732e+00,  1.23297107e+00,  2.04984450e+00,  1.84589362e+00, -3.99386764e-01, -2.91638947e+00, -9.18213069e-01,
    -2.12418270e+00,  7.14644241e+00, -2.05401635e+00,  1.61885273e+00, -7.70821869e-01, -8.76978517e-01, -3.94723833e-01,  1.57707560e+00,
    -7.02258825e-01,  2.43629169e+00,  2.20605135e-02,  2.74611735e+00,  1.04132175e+00,  3.01912642e+00,  2.06944728e+00,  3.65106225e+00},
   {-3.23941398e+00, -1.51374722e+00, -2.43972540e+00,  2.83704090e+00, -1.40943718e+00, -1.12875342e+00,  3.67176592e-01,  8.14415663e-02,
    -3.71744096e-01, -3.90805423e-01,  1.62255704e+00, -1.71536350e+00, -9.10137534e-01, -1.46833694e+00,  4.36517775e-01, -3.41011000e+00,
    -8.82930338e-01, -1.04096770e+00,  6.21868253e-01,  1.27745426e+00, -7.33383417e-01, -1.16429484e+00, -3.83954078e-01,  9.02007341e-01,
     5.24399090e+00, -3.22198343e+00, -6.81134462e-01, -3.79854679e+00, -2.62680483e+00, -1.60247779e+00,  4.02282810e+00,  7.76822865e-01,
    -1.02644551e+00,  6.20205343e-01, -3.90175128e+00,  2.63313246e+00, -4.39834070e+00, -1.22185946e-02,  1.87635824e-01,  8.26050639e-01,
    -1.10667968e+00,  5.70501685e-01, -9.96732414e-01,  3.95691919e+00, -3.14686275e+00,  6.01611257e-01, -1.06308198e+00, -2.27940631e+00,
     5.31705618e-01, -1.24139512e+00,  2.13352299e+00, -3.03756571e+00,  1.23695159e+00, -2.07795215e+00,  1.35290194e+00, -1.22593355e+00,
    -8.58406603e-01,  1.72804093e+00, -1.29267618e-01,  2.24897265e-01,  2.32855701e+00, -1.46369314e+00, -7.77244270e-01,  1.28543687e+00},
   { 2.88897753e-01, -3.49698114e+00,  1.65773618e+00, -1.01889670e+00, -1.83525229e+00,  2.54349017e+00, -1.40506697e+00, -1.35957670e+00,
     1.69408417e+00,  1.36981094e+00, -1.71617067e+00,  2.23507628e-01,  4.67854440e-01, -1.99056119e-01,  1.56429317e-02, -4.10611582e+00,
     1.06144214e+00,  4.74136889e-01,  1.20335937e+00,  2.85421133e+00, -1.48463023e+00,  9.06862557e-01,  4.42877054e+00,  6.18030429e-01,
     8.73881578e-01,  9.99255478e-01, -1.40900826e+00, -1.64127290e+00,  3.23816848e+00, -3.45162868e-01,  1.45658934e+00, -2.67203689e+00,
    -1.49483049e+00, -1.31306410e+00,  6.43993437e-01, -7.91566730e-01,  1.25703484e-01, -1.36612129e+00, -9.30646539e-01,  2.72120881e+00,
    -2.22356632e-01,  2.63556004e-01, -4.36159468e+00, -3.34315419e+00, -1.99306011e+00, -1.92654133e+00,  2.44070959e+00, -1.40386820e+00,
    -7.95894265e-01, -5.12140334e-01,  3.54182076e+00, -1.95802903e+00, -1.33006322e+00, -1.96463811e+00, -2.13960505e+00, -3.43616056e+00,
     1.88252175e+00, -3.18764710e+00, -1.65217543e+00,  1.31858563e+00,  3.34210873e+00,  8.51555109e-01,  5.99012673e-01, -3.47813821e+00},
   { 3.83026433e+00, -5.05856156e-01,  3.73870850e+00, -1.66705739e+00, -7.37861037e-01, -1.90532756e+00,  2.01541543e+00, -3.42891908e+00,
    -6.48220479e-01,  2.02280903e+00, -1.77583182e+00,  3.45032620e+00,  3.65238094e+00, -2.32466149e+00,  2.45267749e+00,  1.90415645e+00,
    -2.15055346e+00,  1.26561654e+00,  5.22183657e-01, -5.99355030e+00, -1.37350321e+00, -2.90719837e-01, -1.34736165e-01, -1.83861351e+00,
    -2.50866342e+00, -2.80463076e+00, -2.28542614e+00,  8.36084411e-02, -9.96298134e-01,  4.21245861e+00, -5.51729727e+00,  6.71049118e-01,
     3.01544905e+00,  2.78421926e+00,  1.22967911e+00, -1.35832131e+00,  1.06568348e+00, -1.35854566e+00, -2.28310212e-01, -1.53127682e+00,
    -1.81799865e+00,  2.51193643e-01, -5.33730626e-01, -2.44294572e+00,  1.24278915e+00,  4.50008690e-01, -1.14818239e+00, -1.96150243e-02,
    -2.22655281e-01,  2.34282446e+00, -2.34305549e+00,  1.71084809e+00,  3.35323572e-01, -9.87178445e-01,  1.16242237e-01, -5.21873713e-01,
     2.01733279e+00,  1.57755956e-01,  2.77062964e+00, -3.06613517e+00, -5.44642973e+00,  6.99720085e-01, -1.01400301e-01,  9.14056957e-01},
   { 2.05331707e+00, -2.67222404e+00,  1.87929690e-01,  1.21425867e+00, -1.36664355e+00, -3.05874920e+00, -3.99524629e-01,  1.31839800e+00,
    -2.81232506e-01, -1.51154447e+00, -1.20969944e-01,  1.29931378e+00, -1.53099132e+00, -1.04356158e+00, -7.30513692e-01,  3.73218441e+00,
     1.15337086e+00, -8.72269213e-01, -8.42449367e-01,  2.12588525e+00, -2.23161444e-01, -5.17433763e-01, -8.53959382e-01,  6.26436234e-01,
    -2.10582152e-01,  3.77963710e+00,  6.70844376e-01,  9.69327837e-02, -8.10484231e-01, -6.91938639e-01,  2.50095159e-01, -2.15605569e+00,
     9.37892124e-02, -5.51347852e-01,  5.26068389e-01, -1.36174059e+00,  6.00264132e-01,  3.15449119e+00,  9.31037068e-01, -5.94940126e-01,
    -5.63800097e-01, -3.77417207e-01,  1.61280227e+00,  7.50711441e-01, -2.50609428e-01,  2.20760465e+00,  1.77289283e+00,  3.49549460e+00,
     4.47600067e-01, -4.46202755e-01,  1.39185095e+00, -1.15850294e+00,  6.31427705e-01, -2.44989246e-01,  2.10504055e+00, -3.14132184e-01,
    -1.65057778e+00,  4.61444497e-01, -7.01116621e-01, -1.64614105e+00, -2.03298116e+00,  1.49212182e-01, -1.68377507e+00,  5.59097946e-01},
   {-8.73765796e-02,  1.01711440e+00,  2.53016424e+00, -2.62903929e+00,  1.19301125e-01,  1.33993745e+00,  2.50988555e+00, -4.50563049e+00,
     2.55111217e+00,  3.27686810e+00, -1.61606526e+00,  7.11689055e-01,  4.10299921e+00, -1.38358429e-01,  3.49006271e+00,  1.81676364e+00,
    -3.24897766e+00,  1.68834460e+00,  1.57803285e+00, -4.90784311e+00, -4.80962455e-01,  6.73141539e-01, -2.27594733e+00, -1.21454608e+00,
    -9.00110781e-01, -2.86227155e+00, -3.17040205e+00,  4.95221901e+00, -7.49674380e-01, -3.36484194e+00, -5.33238649e+00,  1.50685787e+00,
     6.93457663e-01,  3.34241605e+00,  1.10336554e+00,  8.44275236e-01,  6.59494877e-01, -3.70161891e+00,  1.65383506e+00,  4.98639226e-01,
    -1.08182395e+00,  7.87320316e-01,  1.20600069e+00, -1.75789165e+00, -1.43649387e+00,  6.97143555e-01, -1.42010689e+00, -2.19976878e+00,
     4.24368620e-01,  2.90914941e+00, -2.08351374e+00,  2.57494998e+00,  7.40269780e-01, -7.98941433e-01, -2.18365341e-01, -2.33244687e-01,
     2.93330526e+00, -2.96646595e-01,  3.96710134e+00, -1.23005772e+00, -6.44924402e-01,  1.58319163e+00,  2.45448685e+00,  2.59411633e-01},
   {-5.49780011e-01, -4.31318331e+00, -2.32555413e+00,  1.82591617e+00,  1.24585524e-01,  1.79069054e+00, -6.54436052e-01,  1.86553395e+00,
     2.00425529e+00, -1.09299374e+00,  2.07481909e+00,  2.46732116e+00,  5.96215487e-01, -6.45638525e-01, -1.62848043e+00, -2.46120572e+00,
     1.05314481e+00, -6.95220888e-01, -1.44112551e+00,  3.56586725e-01, -5.62651813e-01,  1.61492422e-01,  9.20064807e-01,  2.25419116e+00,
     4.19252920e+00,  1.03623855e+00,  5.83041370e-01, -3.63155872e-01,  1.48122728e+00, -1.32472348e+00, -2.98369210e-02,  3.21980923e-01,
    -1.02449787e+00, -1.38856447e+00, -2.49487495e+00,  2.50690550e-01, -2.37470269e+00, -2.11827350e+00,  2.91758597e-01,  2.23775578e+00,
     1.77290663e-01,  1.40236735e+00,  1.06300056e+00,  3.21959805e+00, -3.54473330e-02,  8.31619263e-01,  4.07821357e-01,  9.31457698e-01,
     2.66422719e-01, -2.38368943e-01,  2.90809560e+00, -2.01142144e+00, -7.39818156e-01, -2.22684428e-01,  1.24519491e+00, -2.26125669e+00,
    -1.58257198e+00,  3.54534125e+00, -1.58870792e+00, -2.72535276e+00,  2.42419153e-01, -1.87012279e+00,  9.72856224e-01,  3.52903819e+00},
   { 1.44939554e+00,  3.25801909e-01,  2.07322025e+00, -8.73648107e-01, -2.68294305e-01, -3.06175160e+00, -8.61908317e-01,  7.19735920e-01,
     3.24805117e+00, -2.53120208e+00, -2.74861157e-01,  2.14938927e+00,  6.10237062e-01,  2.64742017e+00, -1.08198571e+00,  2.87234616e+00,
     2.33934388e-01, -6.63299739e-01, -4.23155189e-01,  2.37300590e-01,  2.59050298e+00, -1.32356358e+00, -2.86403799e+00, -3.29331279e-01,
    -3.87838435e+00, -4.07815313e+00,  4.47089709e-02,  1.50876653e+00, -6.99836254e-01,  1.48018920e+00, -2.59263420e+00, -2.49353981e+00,
     7.58372605e-01, -7.95858264e-01,  3.22438669e+00, -4.10573387e+00,  3.33376193e+00,  2.36413479e+00,  1.35607719e-01, -3.44306564e+00,
     3.38104796e+00, -1.12989533e+00,  1.08870435e+00, -2.36125898e+00,  1.23429859e+00, -6.55916393e-01, -4.75888312e-01, -1.13349557e+00,
     4.50419378e+00, -2.56968069e+00, -8.32119524e-01,  4.51582730e-01, -1.86035618e-01,  3.41841906e-01, -3.54553103e+00,  1.06580532e+00,
    -1.19548166e+00, -5.44013321e-01, -1.27471760e-01, -1.10236853e-01, -5.35889530e+00,  7.75708795e-01, -1.66428196e+00, -6.39064848e-01},
   { 8.64366531e-01, -1.56116515e-01,  2.98392987e+00, -1.16921258e+00,  4.98667383e+00,  1.31230569e+00, -6.40785038e-01,  1.03136015e+00,
     4.12711811e+00, -2.52787918e-01, -2.83058643e+00, -6.76758826e-01,  1.70495284e+00,  2.58752537e+00, -7.73089349e-01, -1.57230937e+00,
     1.85402751e+00,  1.01200891e+00,  4.11356544e+00, -4.03361702e+00,  1.17972052e+00, -6.07863426e-01, -2.62614172e-02,  3.08879638e+00,
    -1.31722808e+00, -2.55185771e+00,  1.05015755e+00,  3.41366553e+00, -2.26312160e+00,  3.08275914e+00, -5.76753139e-01,  3.25370121e+00,
    -3.67274380e+00, -1.24155533e+00,  2.73574710e-01,  2.35306501e+00,  8.77786636e-01, -1.13077843e+00,  4.18215752e+00, -9.72188473e-01,
     1.68299580e+00,  2.00494266e+00,  6.72153771e-01, -5.58056891e-01,  5.32764769e+00,  1.19356692e+00,  6.88122511e-01, -2.98130780e-01,
     3.54197359e+00, -6.70374393e-01, -1.70201230e+00,  9.59858894e-01, -1.15302944e+00, -2.89663172e+00,  1.15691710e+00,  5.54938018e-01,
    -7.85394549e-01, -1.26260066e+00, -4.45622444e-01,  2.55109239e+00, -6.57597125e-01,  2.65189314e+00, -7.88811326e-01, -9.21690762e-02},
   {-1.29744482e+00,  2.76881528e+00, -3.01412439e+00,  5.55919409e-01, -4.28385288e-01, -2.74447179e+00,  1.55969095e+00,  4.93086368e-01,
    -1.31579041e+00, -2.37971663e+00,  1.64979696e+00, -5.97236753e-01, -9.11910161e-02,  7.57479608e-01, -3.25226992e-01,  2.53434134e+00,
    -1.01676774e+00, -2.34071285e-01,  6.86031699e-01, -3.36500025e+00,  6.80469871e-01, -9.17756617e-01, -2.81199265e+00, -2.40801859e+00,
    -1.85774183e+00, -4.13473547e-01, -1.16961563e+00,  6.32816851e-01, -3.21872616e+00,  8.79951954e-01, -1.80681193e+00,  3.10080361e+00,
     7.73055315e-01, -7.42537439e-01, -1.54336047e+00,  2.34607744e+00, -9.20402557e-02, -7.90291205e-02,  2.73572636e+00, -3.65364623e+00,
    -3.34511161e-01, -7.69050121e-01,  2.73353219e+00,  3.44286966e+00,  4.45245743e-01,  1.24772620e+00, -9.71523225e-01, -1.42795950e-01,
     1.52640057e+00,  5.44701040e-01, -3.67524934e+00,  1.85031617e+00,  2.32887745e+00, -7.41659164e-01,  1.76343501e+00,  1.98320162e+00,
    -1.76171756e+00,  2.55114079e+00,  2.13372922e+00, -1.36402354e-01, -3.26293898e+00,  6.05905235e-01, -7.14210570e-01,  2.85887074e+00},
   { 2.57899880e+00,  6.61436176e+00,  1.87199914e+00, -3.35102630e+00,  2.45958492e-01, -1.23507786e+00, -1.79846072e+00,  8.50499809e-01,
    -8.39281827e-02, -3.28877747e-01, -2.94399333e+00, -9.43141222e-01,  1.71060157e+00,  1.10767210e+00, -7.07978159e-02,  1.93578565e+00,
     1.58368838e+00,  1.18020332e+00, -6.92143261e-01, -3.44742131e+00,  1.15532804e+00, -3.78637373e-01, -3.30110741e+00,  6.22596204e-01,
    -1.07596803e+00, -8.95110428e-01,  1.66085672e+00,  1.06150377e+00, -2.93584466e+00,  1.28338766e+00, -2.61269307e+00,  3.02287483e+00,
     3.71398002e-01, -3.40113670e-01, -6.18646288e+00,  1.88578188e+00,  1.77153742e+00,  9.49357688e-01, -9.37316775e-01, -2.95956588e+00,
     1.57414806e+00,  5.74588537e-01,  3.39722395e+00, -1.73617184e+00, -1.25248468e+00,  1.24133177e-01,  2.30485940e+00, -2.14049578e+00,
     1.72751808e+00, -1.42571235e+00, -1.20496881e+00, -1.90020764e+00,  1.76973367e+00, -2.70502043e+00,  2.36910149e-01,  1.90933323e+00,
    -5.10438383e-01, -2.09667158e+00, -6.30220890e-01, -2.26935409e-02, -4.94381094e+00,  2.22219753e+00, -1.40094340e-01, -8.66678715e-01},
   {-3.94566965e+00,  2.42138696e+00, -2.24326754e+00, -7.87751019e-01, -8.15964282e-01,  2.89913154e+00,  5.46388805e-01, -1.90378678e+00,
    -3.13369298e+00,  1.98318744e+00,  2.70139194e+00, -2.18007517e+00, -1.58632374e+00, -1.81153178e+00,  2.13290405e+00, -5.56828547e+00,
    -1.80241930e+00,  1.61210775e+00,  6.07305169e-01,  1.72021437e+00, -1.63643396e+00,  7.50415385e-01,  6.91319525e-01, -1.69500363e+00,
     1.86119890e+00,  1.43926397e-01, -1.06518662e+00, -2.43481493e+00, -4.55124289e-01, -2.54971099e+00,  1.50112414e+00, -1.97026134e+00,
    -2.65621686e+00,  1.66820347e+00, -1.39482009e+00, -2.41929770e+00, -3.10264683e+00, -4.72467661e+00, -1.38486230e+00,  3.56855488e+00,
    -1.92366707e+00,  1.09231904e-01, -1.72173989e+00,  1.27332473e+00, -2.50874090e+00, -2.21459317e+00, -1.78901947e+00, -6.28278732e-01,
    -2.77198315e+00,  1.16786778e+00,  1.64794493e+00,  2.68856812e+00, -7.03757405e-01,  1.99423456e+00, -4.76957381e-01,  2.08666825e+00,
     1.18210828e+00,  2.40827560e+00,  1.20634019e+00,  3.17695045e+00,  4.80699062e+00,  1.18678045e+00,  2.57721949e+00,  7.45181322e-01},
   { 8.75041187e-01, -2.68496692e-01,  2.38827896e+00, -9.64985311e-01,  6.46500826e-01, -2.49228597e+00, -4.53052819e-01,  1.41218615e+00,
     7.89295673e-01, -1.53240681e+00, -1.57578838e+00,  9.33882415e-01,  8.35730433e-01,  9.97705400e-01,  4.96567786e-02,  5.50628567e+00,
     8.32106829e-01,  4.24324125e-01, -8.17747355e-01, -1.45571327e+00,  8.02388608e-01,  5.07705867e-01, -3.11626959e+00,  9.15766835e-01,
    -7.38010585e-01,  6.28732860e-01,  1.38238704e+00,  9.15939748e-01, -2.64340591e+00,  4.64628220e-01, -1.33402789e+00,  1.54756844e+00,
     2.36648977e-01,  2.61146873e-01, -2.92428708e+00,  3.60034013e+00, -4.82668114e+00,  2.37638330e+00,  6.42407596e-01,  1.12692632e-01,
     1.85279560e+00,  3.10554355e-01,  3.47555685e+00, -5.58341920e-01,  1.88783193e+00,  9.02817905e-01,  1.87830055e+00,  7.76978254e-01,
     2.23297715e+00,  9.23308507e-02, -5.19220769e-01, -2.92111325e+00,  1.52744281e+00, -3.07130671e+00,  1.58143306e+00, -1.58905292e+00,
    -8.72459292e-01,  2.82591701e-01,  2.85212576e-01, -6.34195149e-01, -6.44022882e-01,  7.55078971e-01, -3.83896023e-01,  4.33651388e-01},
   { 1.73609877e+00,  1.26278985e+00, -1.36918187e+00,  5.26014268e-01, -2.47883129e+00, -3.46856594e+00, -3.79565501e+00,  2.52208495e+00,
     3.89155269e-01, -2.84168363e+00, -3.96140957e+00,  9.58664179e-01, -1.33211315e+00,  1.65372920e+00, -3.38073897e+00, -2.45660257e+00,
     3.89082670e+00, -2.01599908e+00, -1.61518359e+00, -4.77610044e-02,  1.79850125e+00, -4.83159208e+00, -3.96734297e-01,  2.36958176e-01,
    -3.50526422e-01, -4.82263006e-02,  4.45978880e+00, -2.67212558e+00, -1.83293569e+00, -1.36924636e+00,  2.77578998e+00, -1.25618446e+00,
     2.79840291e-01, -3.71810341e+00, -2.02801681e+00,  4.97072190e-01, -1.65949869e+00,  7.64898539e-01,  6.48857355e-01, -7.86680400e-01,
     2.15756297e+00, -1.56722081e+00, -9.21275467e-02,  2.22173309e+00, -2.89054656e+00,  7.89407015e-01, -2.79751848e-02, -1.82848084e+00,
     2.10684943e+00, -1.32400823e+00,  1.23773301e+00, -4.56215191e+00, -1.02231884e+00, -4.11199713e+00, -2.93672979e-01, -2.85135102e+00,
    -3.20650339e+00, -3.17970395e+00, -3.92997050e+00, -4.08176184e+00, -7.74990177e+00, -1.20916164e+00, -2.24438024e+00, -1.63155472e+00},
   {-2.80831504e+00, -7.62120581e+00,  1.49458960e-01,  3.15679026e+00,  2.99585700e+00,  5.75563014e-01,  7.28155673e-02, -3.01512212e-01,
     1.50554526e+00,  6.67750895e-01, -5.41919410e-01,  6.95338905e-01, -2.64693290e-01,  6.38764083e-01, -1.88215762e-01, -9.20945227e-01,
     1.34946302e-01, -7.44679630e-01,  1.68046868e+00, -1.18469214e+00, -5.44372678e-01, -1.11155677e+00, -9.31557417e-02,  6.03053570e-01,
     2.05730510e+00,  6.98699653e-01, -1.39753118e-01,  2.78423977e+00, -2.94302702e+00,  5.29831946e-01,  3.52066517e-01, -7.41859013e-03,
     2.10369253e+00, -4.26961958e-01, -3.66134262e+00,  2.69480944e+00, -3.83559656e+00, -1.29385746e+00, -2.68570089e+00,  3.03822470e+00,
    -4.98997778e-01,  3.49457234e-01,  4.05041158e-01,  3.75645804e+00, -1.71644583e-01,  2.83799982e+00, -3.37664080e+00,  1.10427165e+00,
     1.87766027e+00,  2.78875977e-01,  7.76068449e-01,  2.17001987e+00, -5.88689923e-01, -1.36455154e+00,  6.76429629e-01, -2.57531738e+00,
    -2.34742463e-01,  6.63374603e-01,  7.70546675e-01, -1.10630953e+00,  1.80524325e+00,  3.52222979e-01, -2.26334110e-01,  1.05268466e+00},
   {-2.31690550e+00, -3.62203717e+00, -7.02178776e-02,  3.93542361e+00, -3.65999174e+00, -2.45605969e+00,  5.46212912e-01, -2.13166547e+00,
    -1.83701241e+00,  5.68947852e-01,  3.66940832e+00,  2.35730505e+00, -2.60017872e+00,  8.23114514e-01,  1.57670474e+00,  9.68856454e-01,
    -8.04121852e-01, -1.81460357e+00, -2.55627990e+00,  1.99834788e+00,  1.52442598e+00,  5.64532042e-01,  2.85110056e-01, -4.38089967e-01,
     3.82841492e+00,  3.34381509e+00, -2.14927435e-01, -2.44566131e+00, -1.58965933e+00,  4.44644958e-01,  1.74963033e+00, -1.08160436e+00,
     6.66009247e-01,  1.22880471e+00, -4.79832500e-01, -4.65497017e-01, -1.91661227e+00,  3.80944777e+00,  3.17885309e-01,  1.78113508e+00,
     1.20946467e+00, -4.32987154e-01,  1.59681290e-01,  2.02516103e+00, -2.28873760e-01,  2.38663697e+00, -2.33586550e+00,  4.71863651e+00,
    -2.37564847e-01,  1.21778297e+00, -5.45329094e-01,  2.34891081e+00,  1.85076022e+00,  9.04768944e-01,  1.63191390e+00, -1.08606231e+00,
     1.02233946e+00,  1.31203723e+00,  1.02725184e+00,  6.77294433e-01,  4.21327543e+00, -2.21432781e+00,  3.60871315e-01, -4.82199520e-01},
   {-8.50231111e-01, -1.06182659e+00,  3.82828617e+00,  2.48539758e+00,  1.49988449e+00,  3.85331154e-01, -2.28454137e+00,  3.10555363e+00,
     4.22006893e+00,  4.71568882e-01, -1.18923306e+00,  2.37475562e+00,  1.41897142e-01,  4.89028025e+00, -2.08907843e+00,  4.87490669e-02,
     3.36739159e+00, -2.44524956e+00,  2.38165483e-01,  2.46998954e+00,  3.29688525e+00,  1.10543573e+00, -3.86694503e+00,  2.29654241e+00,
     1.89980292e+00, -2.09118724e+00,  3.87013698e+00,  2.99808502e+00, -8.54505897e-01,  2.73376441e+00,  1.27942026e+00,  2.34768510e+00,
     1.36050546e+00, -2.34781194e+00,  1.02522707e+00,  1.12044930e+00,  4.62708652e-01,  2.32204676e+00,  4.02989531e+00,  1.81387329e+00,
     6.25144958e+00,  1.20700336e+00,  4.47873926e+00,  1.26851451e+00,  4.82772160e+00,  3.72108269e+00, -2.66947556e+00,  7.99775600e-01,
     3.48893690e+00, -7.40981460e-01, -1.81749082e+00,  1.43457496e+00,  7.98631370e-01, -9.09787655e-01,  2.69781679e-01, -1.32340014e+00,
     8.27671587e-02, -2.95931053e+00, -1.99689651e+00, -6.03133261e-01,  2.06227660e+00, -2.10926458e-02, -8.58404040e-01, -2.25632572e+00},
   { 4.06349087e+00,  3.41171056e-01,  3.66338158e+00,  1.71836758e+00,  3.05298805e+00, -1.21530831e+00,  4.63049114e-01,  1.02480376e+00,
    -3.80689561e-01, -1.79135942e+00,  2.51469970e+00, -1.27518797e+00,  2.72921562e-01,  2.81538386e-02, -1.50218070e+00, -3.78756791e-01,
     7.02036619e-01, -1.57111502e+00,  1.41388774e+00,  2.11971426e+00, -2.62855411e-01, -1.23237574e+00,  1.40790069e+00,  1.63618386e+00,
    -1.17568231e+00, -1.45155096e+00,  2.27799684e-01,  2.29346633e+00, -2.83866435e-01, -4.01213676e-01, -2.42371964e+00,  2.26346970e+00,
     4.14965487e+00, -1.71042693e+00,  1.56944144e+00, -3.97664905e+00, -4.29411680e-01,  2.03399017e-01,  1.84401536e+00, -7.40603387e-01,
    -7.85367489e-01, -6.07797766e+00,  5.46186984e-01,  8.84385705e-01,  7.01873350e+00,  5.37145972e-01, -2.44873714e+00,  1.56098807e+00,
    -6.27685428e-01,  2.15182352e+00, -3.55433440e+00,  2.37890577e+00, -1.99846670e-01,  2.03815484e+00,  2.26728320e+00,  2.93026352e+00,
    -1.11101151e+00,  2.88071513e+00, -6.44107282e-01,  3.60546398e+00,  4.80204940e-01,  1.94065690e+00, -9.87915158e-01,  3.06050587e+00},
   {-1.11435628e+00, -6.39822578e+00,  2.82306254e-01,  5.35988474e+00,  5.26852894e+00,  6.46930456e-01, -1.04214227e+00, -9.84280527e-01,
    -2.76019633e-01,  1.54129863e-01,  1.26930803e-01,  9.48365569e-01, -3.11656088e-01,  1.47386718e+00, -1.87935278e-01, -1.27849889e+00,
    -1.56200677e-01, -2.57945466e+00,  6.59739554e-01, -7.04159319e-01,  2.08319354e+00,  9.51032758e-01, -2.77394676e+00,  1.54314935e+00,
     2.05600643e+00, -1.12556410e+00,  1.97211459e-01,  1.31554675e+00, -5.10117006e+00,  1.00759578e+00,  7.93814778e-01,  6.55182719e-01,
     1.04945493e+00, -1.08546782e+00, -4.45505810e+00,  2.68332911e+00, -4.41394329e+00, -1.41282904e+00,  1.94829893e+00,  2.02823490e-01,
     1.67672682e+00,  4.61758494e-01, -2.14362097e+00,  4.20898104e+00,  1.89001989e+00,  2.73552275e+00, -4.58059645e+00, -3.83466601e-01,
     1.37369049e+00,  1.21580742e-01,  6.35238409e-01,  1.74937558e+00,  1.84214437e+00, -2.10952330e+00,  9.75428164e-01, -2.68912411e+00,
    -1.59655273e+00,  1.07404387e+00,  1.13979526e-01, -1.15981114e+00,  3.39147925e+00, -2.17827559e-01, -8.12777162e-01,  1.80042243e+00},
   {-3.51051092e+00, -2.68035561e-01, -4.18070173e+00, -1.86438859e+00,  5.76856077e-01,  2.57326007e+00, -2.87658840e-01, -1.73144460e+00,
    -5.84950507e-01,  6.47806227e-01, -9.24099326e-01, -1.01200581e+00,  5.75517297e-01,  8.43761116e-02,  1.62006259e+00, -6.59418154e+00,
    -1.29206598e+00,  1.72090220e+00,  1.32163584e+00, -2.55818725e+00,  2.32163191e-01, -2.56952643e+00, -5.18885374e-01, -1.14950049e+00,
     1.55399585e+00, -3.24442476e-01, -2.27788115e+00,  1.76593363e+00, -6.65041876e+00,  8.94305468e-01,  2.65159345e+00,  1.93196249e+00,
     6.35341048e-01,  6.11666501e-01, -4.45826769e+00,  1.97452152e+00, -5.60210657e+00, -3.76666164e+00,  1.91119671e+00, -3.65924525e+00,
    -1.38967848e+00, -1.46991134e-01,  5.60908377e-01, -1.70025432e+00,  3.59881759e-01, -1.24020541e+00, -3.60094357e+00, -3.59130025e+00,
     1.64831984e+00,  6.47969484e-01, -8.90307188e-01, -1.36771595e+00, -3.29145694e+00, -3.22428918e+00, -3.11387300e+00,  2.89250106e-01,
    -1.50511110e+00, -1.45239484e+00,  1.59243798e+00, -5.22845268e-01, -2.86045933e+00,  1.31721750e-01,  4.86110710e-02,  6.93586588e-01},
   {-3.22392344e-01, -4.92106533e+00,  1.16069093e-01,  4.06733608e+00,  5.39257705e-01, -7.01145709e-01,  6.47307038e-01, -1.07231832e+00,
     1.23594511e+00,  5.78471005e-01,  2.23804426e+00,  3.70808196e+00, -1.78746283e+00,  1.48724520e+00,  4.27873492e-01, -6.31564677e-01,
    -5.66728354e-01, -2.94030046e+00, -2.70899606e+00,  6.85110211e-01,  2.04661298e+00, -2.36836481e+00, -2.45068574e+00, -2.70465875e+00,
    -1.72311127e-01,  2.16818199e-01, -1.32689190e+00,  3.76420546e+00, -2.71257162e+00,  2.36908150e+00, -9.53816414e-01, -6.14951968e-01,
     1.07827604e+00,  2.39826158e-01, -1.36633801e+00, -4.29217070e-02, -1.77073753e+00,  1.61271131e+00,  2.15685821e+00,  2.18717146e+00,
     1.08229518e+00, -2.81518817e+00,  1.51324654e+00,  2.89786434e+00,  4.33267087e-01,  4.74945021e+00, -3.90554857e+00,  2.73234129e+00,
     2.20443010e+00,  2.49417782e-01, -5.64729631e-01,  2.21459746e+00,  7.05756187e-01,  2.02911210e+00,  1.28763512e-01,  1.14201283e+00,
     9.76108164e-02,  1.89536691e+00,  1.13223469e+00, -9.11149681e-01, -4.16395158e-01, -3.86919951e+00, -1.00515485e+00,  1.48301685e+00},
   {-4.67298597e-01, -1.82270288e+00, -1.37723076e+00,  3.16301680e+00,  1.34643292e+00,  1.42661452e+00, -3.20381790e-01, -1.96889460e+00,
     1.08399105e+00,  1.18722177e+00, -1.21590294e-01, -2.25701556e-01, -5.73038906e-02,  5.49862683e-01,  6.40166879e-01, -6.02297640e+00,
    -1.04685724e+00, -3.54910314e-01,  1.97954738e+00, -1.77853334e+00, -1.73840895e-01, -1.67526734e+00, -1.45097125e+00, -1.13699055e+00,
     2.37099695e+00,  4.47096556e-01, -8.84752989e-01,  3.23809242e+00, -5.56316757e+00,  2.51400232e+00,  3.64896178e-01,  5.14057636e-01,
     1.11730504e+00,  2.55275488e-01, -2.70270658e+00,  1.29357147e+00, -4.66847229e+00, -3.24836254e+00, -8.36310387e-01, -3.42785430e+00,
    -3.63139898e-01, -7.95235932e-01,  1.19655323e+00,  4.57941580e+00, -3.01335526e+00, -4.51773262e+00, -5.25757027e+00, -3.88751435e+00,
     3.01150918e+00,  1.18874383e+00, -1.34204492e-01,  1.35268879e+00, -1.39781570e+00, -1.70620489e+00, -2.98316860e+00,  5.08603305e-02,
    -7.52260864e-01,  6.73654854e-01,  8.78309250e-01, -1.38448942e+00, -1.52369046e+00,  5.68216205e-01, -2.94013351e-01,  1.75645828e+00},
   {-1.86071426e-01, -1.76678884e+00, -2.70678163e-01, -1.97054017e+00, -1.31820822e+00, -1.72109747e+00,  5.45648217e-01,  9.65974212e-01,
     2.13917780e+00, -1.51869416e-01, -7.78249025e-01,  1.60037315e+00,  1.11791035e-02, -1.72564298e-01, -6.87457668e-03,  4.82480955e+00,
     1.08262956e+00,  9.99127209e-01, -2.98154682e-01, -2.34283209e+00, -7.30145633e-01, -9.61494222e-02,  1.19137013e+00, -7.01020420e-01,
    -1.58011484e+00,  7.34907389e-01,  6.15144014e-01, -3.31759810e-01,  1.80888116e+00,  2.27381885e-01,  1.64165473e+00, -6.02818310e-01,
    -1.14401090e+00,  4.66805786e-01,  1.80212021e-01, -1.25561550e-01,  4.02187443e+00,  1.49880326e+00,  1.01915300e+00,  2.08107924e+00,
     6.39954582e-02, -8.05061519e-01,  1.48988760e+00, -1.70429850e+00,  2.40470338e+00, -8.47930551e-01, -1.29564190e+00,  1.98574424e+00,
     1.83288193e+00, -6.01333380e-01,  3.13455987e+00, -2.64638662e+00, -3.97117168e-01, -1.35338083e-01,  1.31722856e+00, -3.48773170e+00,
     6.93479538e-01, -5.53855717e-01,  7.55895525e-02, -8.75112474e-01,  6.58409446e-02, -7.98533559e-01, -6.11692071e-01, -1.36561084e+00},
   { 4.09303457e-01, -3.83857775e+00,  4.04476196e-01,  6.03352165e+00, -2.01498199e+00, -3.40516472e+00, -1.25266895e-01,  6.86883748e-01,
    -5.03182292e-01, -1.05182338e+00,  2.16726661e+00,  1.71374750e+00, -1.82014811e+00,  1.59773517e+00, -6.48027718e-01, -1.62211180e-01,
     9.23402369e-01, -2.13845849e+00, -2.30317497e+00,  3.54711175e-01,  1.95987689e+00, -1.39495122e+00, -1.27328944e+00, -1.07216589e-01,
     1.62555289e+00,  1.62990749e+00,  1.06882215e+00, -1.52069771e+00, -1.07311249e+00, -1.05621505e+00, -3.57309729e-01, -1.00135779e+00,
     1.20160019e+00, -7.79807746e-01, -1.69533277e+00, -7.58960426e-01, -1.78775620e+00,  6.50271511e+00,  4.62172747e-01,  3.42163348e+00,
     2.18424201e+00, -1.04417241e+00,  4.43265617e-01,  2.28196454e+00,  1.68018520e+00,  3.42553115e+00, -3.14754772e+00,  5.39079547e-01,
     1.34265149e+00, -7.35787600e-02, -7.65667498e-01,  2.42588148e-01,  8.29747021e-01, -8.29337895e-01, -1.03539646e-01, -1.17078531e+00,
    -1.00158823e+00,  2.06680632e+00, -8.37467790e-01, -3.86710763e+00, -7.16386974e-01, -4.35923290e+00, -1.49565172e+00,  2.22002506e+00},
   {-8.63696754e-01,  3.61581951e-01,  1.02719569e+00, -2.23787874e-01,  8.54615867e-02,  1.46312153e+00, -2.22400337e-01, -5.52635670e-01,
     3.14896870e+00,  1.68593824e+00, -1.50191188e+00,  3.19825888e+00,  6.98188901e-01,  2.50566792e+00,  1.57736927e-01,  2.80493069e+00,
     1.46688759e-01,  1.09128451e+00, -1.78107306e-01, -1.43367600e+00,  1.22351098e+00, -6.99598968e-01, -4.88439769e-01, -1.53563273e+00,
    -9.28668261e-01, -2.53216505e+00,  4.21244532e-01,  3.02501106e+00, -7.95156360e-01,  2.94171214e+00, -8.65353167e-01,  9.40765321e-01,
     1.36591637e+00, -7.30652735e-02,  1.81218398e+00, -2.40585136e+00,  3.87797475e+00,  1.27348945e-01,  2.41678238e+00, -7.32147098e-01,
     2.08947825e+00, -2.04835343e+00, -7.10359097e-01, -6.97312295e-01,  1.30527571e-01, -8.06809068e-01,  2.03546238e+00, -1.87612310e-01,
    -4.03426313e+00, -1.44664586e+00, -9.93116498e-01,  3.19873363e-01,  1.03174782e+00, -5.43479398e-02, -1.96733177e-01, -1.02797556e+00,
     6.12811446e-01, -2.21718359e+00,  3.87403309e-01, -2.02475023e+00, -4.32454395e+00, -1.04405928e+00,  1.60237297e-01, -1.95174158e+00},
   { 1.30303276e+00,  3.42463589e+00,  3.34014535e+00, -3.12647343e-01,  2.22332597e+00,  4.30073798e-01,  1.02464092e+00, -2.64108658e+00,
    -3.97954369e+00,  1.29329789e+00,  1.92628133e+00, -1.18223798e+00,  1.58278322e+00, -1.99040377e+00,  8.95990849e-01, -3.51558280e+00,
    -1.69517279e+00,  1.56980884e+00,  3.63597560e+00, -8.67125213e-01, -2.18856478e+00,  1.97792256e+00, -5.76409876e-01,  1.04124224e+00,
    -6.87226355e-01, -1.62424719e+00, -1.85726142e+00,  2.77175474e+00, -3.03691268e+00, -6.63946569e-01, -4.10207224e+00,  2.88776875e-01,
     2.76988697e+00,  4.44401145e-01, -1.70502365e+00,  1.73711419e+00, -4.73700094e+00, -3.51113033e+00,  1.51325595e+00, -1.13967729e+00,
    -1.50433290e+00,  2.71714258e+00,  1.01595879e+00,  8.62817824e-01,  3.62799644e+00, -5.56418478e-01, -3.97019386e+00, -2.28271261e-01,
    -4.61927319e+00, -2.13815451e+00, -2.95980120e+00,  2.91693282e+00, -1.02957428e-01,  2.04917860e+00,  9.15392578e-01,  2.95234013e+00,
    -8.96944329e-02,  3.37547088e+00,  1.24928391e+00,  3.33903599e+00,  3.34338522e+00,  3.82029510e+00,  8.70447516e-01,  3.60886335e+00},
   {-6.03551328e-01, -3.27770400e+00, -1.36478448e+00, -4.09755319e-01,  1.07413542e+00,  7.39909589e-01, -1.16721225e+00,  1.88941991e+00,
    -2.32023787e+00, -1.20632350e+00, -6.33018553e-01, -5.61080948e-02, -4.95094627e-01,  7.39981949e-01, -1.77142036e+00, -1.61756182e+00,
     2.74002910e+00, -1.05984047e-01,  3.95689547e-01,  1.34205317e+00, -8.38473380e-01,  1.96136439e+00,  2.91337705e+00,  3.27974463e+00,
     1.92924595e+00,  2.75196028e+00,  2.24160457e+00, -1.88387132e+00,  2.43457627e+00, -1.63146734e+00,  2.66915369e+00, -1.55843508e+00,
    -1.20408869e+00, -8.75538409e-01, -2.27068138e+00,  7.31467366e-01, -3.15311337e+00,  1.04389764e-01,  1.15964615e+00,  2.40653515e+00,
     1.53072667e+00,  1.60891438e+00,  1.18827426e+00,  1.05163622e+00,  4.24248278e-01,  7.95181036e-01, -6.84778869e-01,  1.27033746e+00,
    -2.45394659e+00,  8.73916864e-01, -4.08735371e+00, -1.97174907e+00, -2.00586319e+00,  3.20036322e-01,  2.31799436e+00, -1.97790182e+00,
     2.82667838e-02,  7.08052039e-01, -1.79243553e+00, -9.51925814e-02,  5.31372452e+00,  5.18580317e-01,  1.66396871e-01,  1.14381480e+00},
   { 1.01316857e+00,  4.64843035e+00,  1.19554186e+00, -8.28958273e-01,  8.19216847e-01,  3.94145213e-03, -8.88371527e-01, -1.04421902e+00,
     4.56133664e-01,  1.25746858e+00, -1.34396553e+00,  1.39396954e+00,  1.03564465e+00,  2.69002295e+00, -6.09196313e-02, -2.09174275e+00,
     3.36791724e-01, -1.57706469e-01,  4.56042385e+00, -6.02068424e-01,  2.80021340e-01,  1.94630682e+00,  9.30049002e-01,  6.49649143e-01,
    -1.03901553e+00, -7.23610342e-01,  7.73554221e-02,  3.12478471e+00,  5.51036179e-01,  3.00930762e+00, -1.05168629e+00,  1.61377621e+00,
     3.46623373e+00, -3.25132698e-01,  5.92954755e-01,  2.14907646e-01,  1.33435059e+00, -3.78224397e+00,  1.48265922e+00, -1.67879581e+00,
     1.61948156e+00,  2.13771319e+00,  4.46328998e-01,  1.87863421e+00,  8.24963331e-01,  9.84234035e-01,  1.56695545e-01, -2.57269359e+00,
     1.52369320e+00,  6.94281936e-01, -2.85343122e+00, -2.35178185e+00,  3.07918262e+00, -1.76374757e+00,  2.14796472e+00,  4.70476437e+00,
     5.12853205e-01,  1.74290323e+00,  4.80907023e-01,  2.47361708e+00, -8.04486513e-01,  3.39892411e+00, -2.63772774e-02,  2.80600429e+00},
   {-4.07960844e+00,  8.10547352e-01, -5.26099384e-01,  1.52938747e+00, -1.92096317e+00,  2.10491943e+00,  1.42638922e+00, -3.24907851e+00,
     4.85000700e-01,  2.46276259e+00,  1.41313565e+00, -9.13424671e-01,  2.10774732e+00,  3.65053385e-01,  2.89604855e+00, -2.80106831e+00,
    -2.58323193e+00,  1.42141604e+00,  2.85212159e+00, -3.53472412e-01, -6.28233254e-01,  9.91244912e-01, -9.80239287e-02, -3.75495529e+00,
     2.75066805e+00,  2.47887373e-01, -2.46606588e+00,  4.55104446e+00, -2.13053799e+00,  5.05204201e+00, -1.23363125e+00,  2.32825470e+00,
     1.50081456e-01,  2.33635688e+00,  2.41069272e-02,  2.14445734e+00, -3.45811933e-01, -4.34339571e+00,  8.61555696e-01, -1.85688853e+00,
    -1.39384925e+00, -6.62316084e-01, -1.04996666e-01,  4.32098627e+00,  1.57742238e+00,  1.44238901e+00, -5.34957290e-01, -1.98918104e+00,
     2.22265244e+00,  6.50805593e-01, -3.19826198e+00,  2.95202255e+00, -5.16515923e+00, -1.34610760e+00,  2.70842910e+00,  1.00270462e+00,
     1.87882006e+00,  1.01737630e+00,  2.63369560e+00,  3.64101863e+00,  7.68821776e-01,  1.21259737e+00,  2.22084618e+00,  3.31116796e-01},
   { 8.22332561e-01,  3.91975045e+00,  2.04710796e-01, -8.37508798e-01, -1.22311211e+00,  5.96655130e-01, -1.43831635e+00, -2.75473326e-01,
     1.47423685e+00,  1.28636122e-01, -7.58299291e-01,  1.27063942e+00,  1.87187433e+00, -9.01994467e-01, -3.99372876e-01,  5.44958472e-01,
     4.89101321e-01,  6.71735525e-01,  4.46057200e-01, -8.69475543e-01, -1.08096051e+00, -2.99510270e-01,  6.45878851e-01, -1.81630540e+00,
     7.64491558e-02, -1.00182176e+00,  8.69478106e-01,  2.51861000e+00, -6.29687965e-01,  4.36980247e+00, -1.85662663e+00,  1.79301620e+00,
     3.63113284e-01, -2.00504720e-01,  1.25064480e+00,  2.75329679e-01,  6.15446031e-01, -1.03555298e+00,  1.43452808e-01, -2.83402514e+00,
    -1.61562896e+00, -1.79108366e-01,  1.38588333e+00,  7.58501410e-01, -7.03250587e-01, -4.25700611e-03, -6.18098795e-01, -1.74709499e+00,
     9.60934579e-01,  9.45743263e-01, -3.00737333e+00,  1.29827690e+00,  7.55251884e-01, -9.77956235e-01,  1.69194555e+00,  3.65521026e+00,
     7.00559676e-01,  2.66113460e-01, -4.32538569e-01, -9.52990055e-01, -3.53333569e+00,  3.88131618e-01,  4.38118368e-01,  4.00806129e-01},
   { 1.39737141e+00, -2.71600175e+00,  1.18307126e+00,  3.00166130e+00,  1.26521540e+00, -1.05041623e-01,  3.85130465e-01, -2.37765622e+00,
    -1.83242053e-01,  9.05528367e-01,  2.43160725e+00, -1.48053503e+00,  1.91694140e-01,  1.28019083e+00,  1.05653906e+00, -1.26271701e+00,
    -8.84849310e-01,  2.01937228e-01,  3.79129076e+00,  6.88278913e-01,  5.09447217e-01, -5.39458930e-01, -5.60073555e-01,  1.16782629e+00,
     3.35907030e+00,  1.46415341e+00, -1.25977278e+00,  2.91859818e+00, -2.02999616e+00,  3.19891119e+00,  2.02942476e-01,  1.76727390e+00,
     2.74525690e+00,  1.92160025e-01, -2.08735585e+00,  1.27521947e-01, -3.28559041e+00, -2.70199394e+00,  3.05535626e+00, -2.69336879e-01,
    -3.92324835e-01,  2.70987654e+00,  1.41576076e+00,  6.23278999e+00,  3.07276845e+00,  3.50345898e+00, -3.98736906e+00, -7.01159000e-01,
     1.69660640e+00,  2.78395605e+00, -3.25236368e+00,  1.89223671e+00, -4.78452593e-02, -1.34621954e+00, -2.21054196e+00, -7.79331863e-01,
    -4.99533921e-01,  2.95093155e+00,  8.79855394e-01,  1.15746450e+00,  2.18113852e+00,  1.21036935e+00,  7.41680503e-01,  4.08877563e+00},
   {-8.39741766e-01,  4.57862568e+00,  1.44548929e+00, -4.26139545e+00,  2.00476527e+00, -5.74073613e-01, -1.29344833e+00,  3.90188187e-01,
    -2.02936101e+00, -4.46034700e-01, -4.53845644e+00, -3.25708675e+00,  1.36708689e+00,  1.45618439e-01,  3.32238898e-02, -4.82352924e+00,
     8.97211909e-01,  3.13668323e+00,  1.33247960e+00, -4.38741159e+00,  7.23035634e-01, -6.82742417e-01, -1.55539477e+00, -6.42708302e-01,
    -3.02734923e+00, -2.11950302e+00,  1.04372752e+00,  2.37911731e-01, -5.04385948e+00, -4.06488687e-01, -3.71521282e+00,  5.90262830e-01,
     9.99428406e-02, -6.91939294e-01, -1.26630199e+00,  4.99824429e+00, -1.11595109e-01, -1.56422377e+00,  1.61785960e-01, -5.24333239e+00,
     2.01323286e-01,  1.60887170e+00, -5.13499081e-02, -8.62723589e-01,  2.42671147e-01, -1.59004211e+00, -1.01696551e+00, -4.04003382e+00,
     4.90302354e-01,  1.47558510e+00, -1.68074381e+00, -2.29056382e+00, -1.00400698e+00, -4.68796635e+00, -1.93959618e+00, -6.86567879e+00,
