#ifndef __RNN0_PARAMS__
#define __RNN0_PARAMS__

#define RNN0_HIDD_DIM0 (32)
#define RNN0_HIDD_DIM1 (64)

// clang-format off

const float RNN0_ALPHA = (-2.862838e+00);
const float RNN0_BETA = (1.005097e+00);

const float RNN0_BIAS_UPDATE[64] = 
   { 5.83994448e-01,  3.27670765e+00,  3.63326573e+00,  1.01510927e-01,  2.35203791e+00,  1.27763951e+00,  1.31158209e+00,  2.22565532e+00,
     3.39059949e+00,  3.62289995e-01,  3.67907500e+00,  2.63530421e+00,  2.53273082e+00,  1.03829634e+00,  9.56020176e-01,  2.50779271e+00,
     4.75357801e-01,  2.57055730e-01,  1.42209935e+00,  1.44896483e+00,  7.20263362e-01, -5.17331958e-01, -2.57831275e-01, -1.43718064e+00,
     1.26078498e+00,  2.71996117e+00,  2.84991765e+00,  1.48584116e+00, -1.36035120e+00,  1.14367807e+00,  1.18899012e+00, -7.32650459e-01,
     1.97073519e+00,  2.56681204e+00,  1.09093890e-01,  1.50309253e+00,  1.53386331e+00,  2.16324949e+00,  2.10844159e+00,  3.52399087e+00,
     2.01946521e+00,  1.75638175e+00,  2.67236614e+00,  1.70620072e+00,  5.27397037e-01,  1.43094182e+00,  2.07816482e+00,  2.07948852e+00,
     1.47456825e+00, -8.22010934e-01, -3.44813138e-01,  2.09333777e+00,  1.80115521e+00,  3.91024351e-01,  2.92377186e+00,  2.39877582e+00,
     1.08715260e+00,  2.13034010e+00,  4.34286880e+00,  3.30335677e-01,  4.44378257e-01,  7.02367842e-01,  9.06849444e-01,  1.75312030e+00};

const float RNN0_W[64][32] = {
   {-2.73233622e-01, -6.92024529e-01,  3.34232509e-01, -1.22678801e-02,  4.88319218e-01,  1.53313470e+00,  2.92201805e+00,  1.14355886e+00,
    -6.52140498e-01, -9.28188264e-01,  9.75219131e-01,  9.69288778e-03, -2.83632725e-01,  2.64340967e-01,  1.37724483e+00,  1.53746712e+00,
     1.23389113e+00, -4.97345805e-01, -6.75881743e-01, -5.56329906e-01, -2.35277176e-01, -6.94315732e-01, -8.65674555e-01, -4.51251149e-01,
     3.29040438e-01,  7.05777407e-01,  4.11334187e-01,  6.54796958e-01,  4.36159819e-01,  3.73934418e-01,  5.13205349e-01,  6.75629437e-01},
   { 1.29495040e-01, -5.88683113e-02, -2.80802464e+00, -1.44213498e+00, -1.02386403e+00, -1.45509756e+00, -1.72728896e+00, -1.41021538e+00,
    -9.14471328e-01, -1.05033159e+00, -1.58701837e-01, -5.32504141e-01,  7.25441501e-02,  1.02602370e-01,  1.78417832e-01, -3.68620194e-02,
     7.17869759e-01,  1.25838324e-01, -8.67356658e-02,  4.40131761e-02,  1.52435258e-01, -6.13260329e-01, -1.27247643e+00,  1.77039988e-02,
     4.78546143e-01,  4.60042000e-01,  1.42061841e+00,  8.74112904e-01,  8.39972496e-01,  6.49367213e-01, -1.45806642e-02,  2.26705527e+00},
   { 9.98724699e-01,  6.04367197e-01, -1.95523465e+00, -4.69154865e-01, -5.90856493e-01, -1.97353590e+00, -2.05357385e+00, -1.10595322e+00,
    -7.86200047e-01, -9.25206900e-01, -2.10492089e-02, -1.04566491e+00, -8.05549085e-01, -8.07250679e-01, -4.72968072e-01, -3.16686302e-01,
     9.42447484e-01, -5.47823608e-01, -1.49917200e-01, -3.49519521e-01, -8.41705203e-01, -4.96076792e-01, -7.52659380e-01,  3.80851001e-01,
    -9.06492919e-02,  2.17491314e-01,  1.06972468e+00,  2.72981554e-01,  7.65865922e-01,  2.49375314e-01, -5.36709204e-02,  2.32314467e+00},
   {-7.96336532e-02,  5.18030882e-01, -9.05488729e-01, -9.97673124e-02,  1.20215595e-01,  4.74382907e-01,  8.72655690e-01, -1.75179586e-01,
     1.84778884e-01,  3.39429118e-02,  8.32414150e-01,  1.31798911e+00, -8.99071097e-01, -1.51301312e+00, -1.14674044e+00,  5.25006890e-01,
     1.23882794e+00,  9.52597737e-01,  4.62935537e-01,  1.58242732e-01, -6.79492116e-01,  8.93470868e-02,  1.11039221e+00,  8.95919442e-01,
    -4.32451218e-01, -9.04711634e-02, -1.25320613e-01, -9.71330523e-01,  3.95996213e-01,  4.03750658e-01, -4.35717374e-01,  1.95215449e-01},
   { 2.64237702e-01, -3.05615544e-01,  1.40893459e+00,  1.01150370e+00, -4.23174441e-01, -1.43946648e+00, -1.41471505e+00,  3.38593215e-01,
     2.02914500e+00,  3.18813264e-01, -8.91958773e-02, -1.11393023e+00, -1.50268018e+00, -1.05833423e+00, -1.28241563e+00, -1.92703533e+00,
    -6.73053980e-01,  1.45761061e+00,  3.22153544e+00,  1.39163148e+00,  3.54987651e-01,  1.14047682e+00,  6.82097495e-01, -3.54721457e-01,
    -7.07265198e-01, -6.93023324e-01, -1.79627746e-01, -7.51253188e-01, -3.80614191e-01, -6.07023418e-01, -5.09131074e-01,  5.43978274e-01},
   {-1.65626004e-01, -4.68846112e-01, -6.41170859e-01,  7.55539769e-03, -7.24496365e-01, -3.48836780e-01,  2.69091070e-01,  8.67525935e-01,
     3.35765868e-01,  9.04980123e-01, -8.32949951e-03,  4.89565283e-01,  5.97672164e-01,  1.21376824e+00,  2.55571318e+00,  1.31523752e+00,
     2.02307343e-01,  8.56279373e-01,  9.58532572e-01,  1.24735415e+00,  1.06705451e+00,  5.42845607e-01, -9.33444947e-02, -8.05908680e-01,
    -4.00274038e-01, -8.28965306e-01, -7.54135668e-01, -7.66238630e-01, -1.14961219e+00, -9.35564101e-01, -6.91531956e-01, -4.33704317e-01},
   {-7.60014117e-01, -1.81150365e+00, -2.02044487e+00, -1.31467652e+00, -8.77560139e-01, -9.12328139e-02, -7.09530294e-01, -2.63470739e-01,
     8.28671277e-01,  3.03538740e-01,  3.93619269e-01,  9.37239587e-01,  2.09945869e+00,  6.68098390e-01, -1.33333161e-01, -2.55666524e-01,
    -3.98192585e-01, -3.21014643e-01,  5.29999614e-01,  6.27982497e-01,  1.40555203e-01, -1.25752985e-01, -1.90471232e-01,  5.76223075e-01,
     3.07321131e-01,  6.09715402e-01,  1.20972621e+00,  1.06855738e+00,  4.16865259e-01,  1.10295311e-01, -2.83515096e-01,  2.34052345e-01},
   {-8.10216665e-01, -3.02533507e-01, -5.13972521e-01,  8.78741503e-01,  8.98127973e-01,  1.19411850e+00,  1.05167627e-01, -1.03796875e+00,
    -1.20674300e+00, -1.19009554e+00, -1.44836271e+00, -8.27383280e-01, -1.03198826e+00, -9.36699748e-01, -1.48722231e-01, -2.49775931e-01,
    -1.71712935e-01, -6.01182878e-01, -4.79209095e-01,  5.51508486e-01,  4.63120103e-01,  1.43894523e-01,  8.11561346e-01,  1.03261113e+00,
     8.88207138e-01,  1.38715833e-01,  1.70270458e-01, -1.20554812e-01,  4.84787315e-01,  7.73598313e-01,  9.35318246e-02,  8.87134194e-01},
   { 1.57393605e-01,  1.11585513e-01,  2.07472458e-01,  8.89048100e-01,  4.90144521e-01,  3.48800093e-01, -1.16750777e+00, -2.06778574e+00,
    -2.16399431e+00, -4.78767842e-01,  3.90270263e-01,  8.86295557e-01,  1.40718088e-01,  5.45682870e-02,  4.76354390e-01, -1.93751175e-02,
    -3.16717356e-01,  2.76362330e-01, -5.66339552e-01, -1.28283405e+00, -2.08232373e-01,  4.85149294e-01, -5.85325360e-01, -5.73172152e-01,
     5.10628343e-01, -7.31445909e-01, -4.11438107e-01, -7.54101932e-01, -4.48923707e-01, -6.92462027e-01,  2.16910988e-01,  4.72182065e-01},
   {-3.52377802e-01,  1.06728697e+00, -5.51811516e-01, -2.26048753e-01,  7.96498179e-01,  1.10859847e+00,  8.56144845e-01,  4.09212947e-01,
     3.84281278e-01,  1.77088928e+00,  3.07021689e+00,  1.11259878e+00, -1.14608574e+00, -1.39788389e+00, -9.58880603e-01, -1.57304120e+00,
    -2.03725624e+00, -1.84647930e+00, -9.81438398e-01, -1.61083326e-01,  3.11027437e-01,  8.55148852e-01,  6.38524517e-02, -9.08400193e-02,
    -9.80669558e-02,  3.40708971e-01, -2.45047450e-01, -2.94569939e-01,  5.68673491e-01,  7.51131535e-01,  1.79000974e-01,  1.52430654e-01},
   { 5.24639070e-01, -7.00742126e-01, -1.53758496e-01,  2.43175253e-02, -7.71190643e-01, -4.95192677e-01, -3.07783455e-01,  3.99311334e-01,
    -6.77399114e-02,  5.16675189e-02, -9.07718301e-01, -1.32379758e+00, -3.08238816e+00, -1.87158573e+00,  4.24947411e-01,  1.55305922e+00,
     1.71247852e+00,  5.57922482e-01,  2.86882706e-02,  4.18823302e-01,  7.22429037e-01, -1.98032241e-02,  5.07224314e-02,  8.71777385e-02,
     1.80066526e-01, -2.24856799e-03,  1.19148262e-01,  5.56579307e-02,  2.08959892e-01, -4.03862119e-01, -1.90154344e-01,  6.56098351e-02},
   { 4.63814437e-02, -3.90892833e-01,  2.56265756e-02,  3.11967693e-02,  3.93021613e-01,  4.93573159e-01, -1.40102506e-01, -9.35834169e-01,
    -7.70835698e-01, -6.12071991e-01,  1.16417015e+00,  1.56063557e+00,  1.93088830e+00,  6.89764082e-01, -5.80085814e-01, -7.69063532e-01,
    -7.14938104e-01, -9.71835852e-01, -1.91260278e+00, -1.67111802e+00, -8.39210570e-01,  1.75023749e-01, -9.15113688e-02,  4.23656702e-01,
     1.74904048e-01, -2.24137083e-01,  4.21723843e-01,  5.32816172e-01,  3.35200354e-02,  7.30924010e-01, -3.97142529e-01,  7.27230430e-01},
   {-4.92032379e-01,  1.88853353e-01,  7.48269379e-01,  1.40917039e+00,  1.30394304e+00,  6.78228557e-01, -1.10450275e-01, -6.95621610e-01,
    -2.58286506e-01, -9.03655708e-01, -1.05193293e+00, -1.61199534e+00, -1.62395751e+00, -1.07831955e+00, -5.71678877e-01, -7.24763274e-01,
    -8.21667254e-01,  1.15775573e+00,  1.78654885e+00,  1.17114496e+00,  9.00715530e-01,  1.06098402e+00,  8.31644833e-01,  4.17277306e-01,
     8.61386359e-01,  6.40763879e-01,  4.38695014e-01, -2.17607975e-01, -3.20049673e-01, -8.97184551e-01, -7.25503266e-01,  8.77701491e-02},
   { 2.69392163e-01,  3.00781876e-01, -1.80102813e+00, -1.98413956e+00, -1.01935351e+00, -2.01316532e-02,  1.16359091e+00,  1.27048874e+00,
     9.05139744e-01,  1.74652803e+00,  1.08850789e+00, -2.26256341e-01, -1.05213702e+00, -1.75870895e-01,  1.69099474e+00,  1.53822446e+00,
     1.46873832e+00,  1.43194675e-01,  1.01521516e+00,  9.89209116e-01, -1.33120179e-01, -3.81445289e-01,  4.40546602e-01, -1.66441396e-01,
     7.92751387e-02, -4.98807877e-01, -5.37843823e-01, -4.54948574e-01, -1.28162652e-01, -8.10950175e-02, -8.48984346e-02, -1.25063747e-01},
   {-3.76188725e-01, -8.20248481e-03,  3.87871444e-01, -8.19601059e-01, -1.05369353e+00, -5.45469344e-01, -3.42824519e-01, -9.57405746e-01,
    -6.73494875e-01,  6.30771220e-01,  6.13419652e-01, -1.30819654e+00, -3.30827093e+00, -2.08576131e+00, -8.21361899e-01,  1.11348426e+00,
     1.25949788e+00, -1.35821307e+00, -8.18724692e-01, -1.52853221e-01, -9.20052528e-02,  4.40674216e-01, -1.81950897e-01,  5.39319694e-01,
     5.77933908e-01,  4.26558465e-01, -1.20865241e-01,  5.44730246e-01,  6.94430649e-01,  4.53335196e-01,  5.87098837e-01,  1.66892612e+00},
   {-5.91943264e-01, -5.56832068e-02, -1.60533297e+00, -2.10006684e-01, -4.14754033e-01, -7.95075119e-01, -5.83617032e-01, -4.62211482e-02,
    -1.56641811e-01, -1.05628610e+00, -5.83974183e-01, -4.67354476e-01,  1.31540084e+00, -1.85467020e-01, -8.72149646e-01, -4.05634493e-01,
    -2.05394700e-01, -8.83868873e-01, -5.09023786e-01, -6.14545703e-01, -9.96693313e-01, -6.66275024e-01, -6.74126804e-01,  4.48172450e-01,
    -1.71339661e-01, -1.18141282e+00, -6.34754837e-01, -3.83520961e-01, -8.35601330e-01, -1.04882467e+00, -8.20956469e-01,  1.19026732e+00},
   { 2.74710357e-01, -4.72963542e-01, -3.23668152e-01, -9.63331878e-01,  2.52404839e-01,  5.37010133e-01,  2.58876950e-01, -1.14301670e+00,
    -9.05840635e-01,  9.92647707e-01,  1.79496658e+00,  1.48567212e+00, -8.00784230e-01, -2.10925317e+00, -1.93557441e+00, -1.69189370e+00,
    -5.89107633e-01,  2.57484883e-01,  1.21438615e-01,  2.23010719e-01,  4.19874042e-01,  4.97978240e-01, -5.64337894e-02,  6.29738331e-01,
     6.54005468e-01,  2.43006736e-01,  4.31464911e-01,  4.81034182e-02,  1.49899423e-01, -2.32190102e-01,  1.87312469e-01, -1.49797633e-01},
   { 1.57977033e+00, -1.67330158e+00,  2.98046395e-02, -2.67214847e+00, -2.70157766e+00, -1.91210890e+00, -5.54598808e-01,  1.17006254e+00,
     1.12005699e+00,  1.44737589e+00,  1.08120275e+00,  1.59369305e-01, -5.03367662e-01,  4.86215204e-01,  9.05824125e-01,  6.51164114e-01,
    -6.74205720e-01, -2.60707378e+00, -6.79036602e-02,  1.24470067e+00,  1.08145273e+00,  2.11972132e-01, -1.77117705e+00, -1.89422309e-01,
     9.00869787e-01,  6.55187666e-01,  4.99563247e-01,  2.95087636e-01, -2.80803770e-01, -1.58804774e-01,  6.56531334e-01, -3.60364199e-01},
   { 1.09181654e+00,  1.59912515e+00, -7.46348798e-01, -1.33971000e+00, -7.30581105e-01, -1.87946630e+00, -7.23663151e-01,  5.72758913e-01,
     1.14451838e+00,  7.69079268e-01,  8.24893534e-01, -1.03865838e+00, -1.15571558e+00, -6.49021506e-01, -4.21742792e-04, -6.58260643e-01,
    -1.80047750e-01,  6.80526614e-01,  1.95324874e+00,  1.72858953e+00,  3.47682238e-02,  8.35241318e-01,  7.65565157e-01,  1.03996503e+00,
    -9.88635540e-01,  7.96550885e-02,  7.61754990e-01, -1.38774693e-01,  1.27466500e-01, -1.17575012e-01,  3.42807800e-01,  3.56098205e-01},
   {-1.00986645e-01,  6.58698520e-03, -2.63639063e-01, -6.28942549e-01, -1.33859500e-01,  4.80598003e-01, -4.96522546e-01, -6.73598289e-01,
    -1.48570001e-01, -2.83166885e-01,  3.01972985e-01,  1.00473404e-01,  1.55616432e-01,  3.37285131e-01,  9.25071239e-02,  1.08308174e-01,
    -5.57296336e-01, -1.57223427e+00, -1.25863600e+00,  7.79516160e-01,  1.22883403e+00,  3.67144555e-01,  4.36076581e-01,  1.15658331e+00,
     5.80052197e-01, -6.86812699e-01,  9.04420316e-01,  1.36954260e+00, -3.72074395e-01,  5.94054699e-01, -6.32921308e-02, -1.88834593e-01},
   {-1.37868595e+00, -1.66216409e+00, -4.69501346e-01,  3.83066177e-01,  4.39609498e-01,  1.51442671e+00,  1.35780430e+00, -1.79781616e-01,
    -5.30855775e-01, -5.06084323e-01, -6.41274592e-03,  8.10893893e-01, -1.70859858e-01, -7.57473826e-01, -5.33523202e-01, -1.25406101e-01,
     4.27884370e-01,  8.20197344e-01, -1.20942235e+00, -8.45040917e-01,  1.85051516e-01,  3.49772841e-01,  4.77537513e-01,  6.89633667e-01,
     3.90005261e-01,  3.80763113e-01,  7.82120347e-01, -2.22859457e-01,  3.97339612e-01,  2.57188296e+00,  2.95685887e+00,  3.56484532e+00},
   {-3.38639230e-01, -6.96664333e-01,  9.81161118e-01,  3.76929902e-02,  4.94935334e-01,  1.02605510e+00,  1.50397456e+00,  5.09440839e-01,
    -1.31479397e-01, -2.27716908e-01,  2.43913621e-01,  1.43902883e-01, -7.73257732e-01, -5.54895401e-01,  5.67166984e-01,  5.82846820e-01,
     8.78922269e-02,  8.42966661e-02,  4.39987704e-02,  3.48025143e-01,  6.19157851e-01,  5.76559976e-02,  1.12094902e-01,  5.22305191e-01,
     6.64268613e-01,  5.30493319e-01,  5.84196031e-01,  6.22112393e-01,  4.44615602e-01,  7.83218384e-01,  4.42981124e-01,  5.83541155e-01},
   {-4.32173193e-01, -2.68565506e-01,  5.29168308e-01, -3.11079505e-03,  2.89145231e-01, -9.03174698e-01, -1.78775215e+00, -2.01242399e+00,
    -1.16825557e+00, -8.86833310e-01, -5.45962453e-01,  5.96155167e-01,  2.36018494e-01,  6.30323291e-01, -7.78701842e-01, -1.16312587e+00,
     5.07206246e-02, -1.01973712e+00, -1.13991284e+00, -2.32212973e+00, -2.13863587e+00, -9.12821233e-01, -1.31253317e-01,  7.00467467e-01,
     7.46522188e-01,  1.43317103e+00,  8.53321433e-01,  1.16725588e+00,  1.21168470e+00,  1.39175153e+00,  9.77876067e-01,  1.19276619e+00},
   { 1.15243137e-01, -6.22876108e-01,  3.99831980e-01,  9.16149139e-01,  8.55713129e-01,  2.03475428e+00,  2.32226610e+00,  9.22260880e-01,
    -7.47244895e-01, -9.79880765e-02,  2.76022643e-01, -3.70311081e-01, -5.98567009e-01, -1.65923014e-01,  1.60690919e-01,  1.04147291e+00,
     4.87117589e-01, -3.05806071e-01,  1.39962174e-02,  4.80383456e-01,  3.36544156e-01,  3.65957648e-01, -4.16260153e-01,  2.11226508e-01,
     5.70647180e-01,  6.50994599e-01,  5.86100936e-01,  5.94562650e-01,  3.35210864e-03,  5.21464467e-01,  7.39343941e-01, -9.59078819e-02},
   {-6.66366965e-02, -8.99085626e-02,  8.29439819e-01,  1.19195199e+00,  3.01151961e-01,  1.29163628e-02, -7.11057425e-01, -1.26366839e-01,
    -1.06560838e+00, -1.33853197e+00, -2.61701012e+00, -2.58615375e+00, -7.47246087e-01,  1.59900510e+00,  3.02973485e+00,  2.29381394e+00,
     2.43775368e+00,  1.21373248e+00,  6.24886826e-02,  2.37194300e-01,  5.08668184e-01,  1.48921356e-01, -2.94398814e-01, -7.90941238e-01,
    -1.05956621e-01,  5.77886164e-01,  1.39864355e-01,  3.49723190e-01, -1.58109546e-01, -7.15456665e-01, -3.55723739e-01, -1.95208669e-01},
   { 1.05265462e+00, -1.83848012e-02, -9.71887827e-01, -2.28112906e-01,  1.10962570e+00,  1.01033890e+00,  6.65714860e-01, -1.15141630e+00,
    -1.87415302e+00, -9.89275098e-01,  3.01283717e-01,  1.33341992e+00, -3.80864203e-01, -1.16217148e+00, -7.18874633e-01, -1.72577351e-01,
    -1.41493440e-01, -4.46524508e-02, -2.86586314e-01, -2.02003628e-01,  4.71308053e-01,  9.57593024e-01,  3.47866386e-01, -2.36116692e-01,
    -5.05971730e-01, -5.86905956e-01,  6.01873219e-01,  4.49014992e-01,  2.06591904e-01,  4.73318934e-01, -3.13022971e-01,  2.48608887e-01},
   { 7.28951216e-01,  1.95380479e-01, -6.29843891e-01, -2.85060495e-01, -3.32075581e-02, -2.72728741e-01, -7.64649630e-01, -5.33904195e-01,
    -3.15111071e-01, -4.69390273e-01, -2.68985540e-01, -3.41328979e-01, -7.38440931e-01, -1.43694496e+00, -1.17286897e+00, -7.40115762e-01,
     8.58839035e-01,  1.66030896e+00,  1.66695726e+00,  8.68414223e-01,  8.37644413e-02, -3.29061180e-01,  6.20603800e-01, -4.18081105e-01,
    -1.04567039e+00,  2.12124839e-01,  6.75468147e-01, -3.28949019e-02,  5.11872888e-01,  1.00932203e-01,  3.46675843e-01,  1.01118219e+00},
   {-4.71628457e-01, -2.32379109e-01, -5.46797752e-01, -5.95773995e-01, -4.22526270e-01,  3.06053609e-02,  1.05678964e+00,  1.60999894e+00,
     6.02523923e-01, -3.44456822e-01, -1.51466417e+00, -1.16469717e+00, -1.84836793e+00, -1.10334396e+00,  7.70341516e-01,  1.36805964e+00,
     1.74038756e+00,  1.13777256e+00,  4.80063766e-01,  8.49183679e-01,  2.61548460e-01, -1.35666096e+00, -4.62106049e-01, -7.84394383e-01,
    -3.65969181e-01,  2.91669488e-01,  4.53499258e-01, -3.44260722e-01,  1.30957365e-01, -2.93151647e-01,  5.33150043e-03,  6.95225716e-01},
   {-5.19899689e-02, -3.07225436e-01, -1.02677584e+00, -1.26714683e+00, -7.13616967e-01,  1.95527941e-01,  7.59619713e-01,  1.29559445e+00,
     5.08954883e-01,  3.99164855e-01, -5.49437702e-01, -2.00245547e+00, -2.71959233e+00, -1.06309152e+00,  4.83280659e-01,  1.10231900e+00,
     1.15137959e+00,  4.15024608e-01,  1.30670440e+00,  1.59545779e+00,  6.04856312e-01, -2.08141789e-01,  3.95000726e-01,  9.31380928e-01,
     2.21224532e-01,  1.30454254e+00,  8.12116206e-01,  4.40732569e-01,  9.23164904e-01,  1.93262905e-01,  3.89561385e-01,  9.39151168e-01},
   {-5.12414575e-01, -1.68560103e-01, -9.51311111e-01, -7.74238586e-01,  6.91632450e-01,  8.79456997e-01,  9.17183578e-01, -2.26055712e-01,
    -3.96116227e-01,  1.21187754e-01, -7.53653497e-02,  3.84012699e-01, -1.15022099e+00, -2.21132541e+00, -2.21423221e+00, -1.47884250e+00,
    -2.64143080e-01,  9.98871446e-01,  6.85125887e-01,  2.77613372e-01, -1.81327492e-01,  4.81224507e-01,  1.16507792e+00,  1.13590801e+00,
     3.60428691e-01,  2.13249624e-01,  5.61206758e-01, -3.23315024e-01, -3.74036252e-01,  2.05476224e-01,  6.81594849e-01,  7.61182085e-02},
   { 4.12500948e-01, -2.90223122e-01, -9.99819219e-01, -2.63038930e-02,  1.01718104e+00,  1.16463816e+00,  9.01792109e-01,  3.78608108e-01,
     4.41297859e-01, -8.44408929e-01, -9.14012313e-01, -1.24951625e+00,  2.92987585e-01,  8.39878380e-01, -6.52058780e-01, -4.82023448e-01,
    -2.00823292e-01,  8.14305663e-01,  2.87461281e-01, -4.51427549e-01, -7.31513143e-01,  8.79679739e-01, -1.02671780e-01, -1.66005850e-01,
     1.00387391e-02, -8.10709819e-02,  5.77254534e-01,  4.23574150e-01,  5.19580655e-02, -7.91388690e-01, -1.10803807e+00, -1.44311771e-01},
   {-3.57364565e-01, -1.07585907e+00,  7.69341588e-01, -3.03127944e-01,  4.47843671e-01,  1.43427658e+00,  1.92090774e+00,  1.31278861e+00,
     2.51099706e-01, -3.20255272e-02, -2.13013619e-01, -9.47654545e-01, -1.47515142e+00, -8.96740377e-01, -8.16569746e-01, -5.41813314e-01,
    -2.35650882e-01,  1.20046496e-01,  2.02360439e+00,  1.89893174e+00,  5.98441541e-01,  4.11715120e-01,  5.89640141e-01,  5.92682481e-01,
     3.34346920e-01,  1.07594228e+00,  9.91041362e-01,  1.10430074e+00,  3.87466908e-01,  1.57869861e-01,  4.92018968e-01,  8.12519848e-01},
   {-7.83240676e-01, -6.20388150e-01,  7.43120551e-01,  2.95858085e-01,  4.20679450e-02,  1.07513583e+00,  4.76105422e-01, -9.16485265e-02,
     2.40233675e-01,  2.98309743e-01,  5.39821051e-02, -1.04165137e+00, -1.30521774e+00, -6.49426520e-01, -4.26579177e-01,  4.73127574e-01,
     3.00513238e-01, -1.09685302e+00, -4.82913554e-01,  1.58034515e+00,  5.05538702e-01, -3.44407298e-02, -2.80705214e-01,  9.29655373e-01,
     1.39921713e+00,  8.08967590e-01,  1.13187706e+00,  1.09997690e+00,  3.63272339e-01,  9.83295217e-02, -8.72743249e-01, -2.90108800e+00},
   {-3.04663628e-01, -7.85251930e-02, -1.47669315e+00, -3.34171534e-01,  4.50944342e-02, -1.21228406e-02,  5.79776287e-01,  9.16393921e-02,
     1.59102887e-01, -8.51062953e-01, -2.08030772e+00, -4.32906002e-01,  2.15899062e+00,  1.42270505e+00, -2.83480376e-01, -7.22166896e-01,
    -7.59993792e-01, -2.81659007e-01, -4.39374894e-01, -7.15023816e-01, -1.22233975e+00, -7.70216048e-01,  2.41401270e-01,  7.42991269e-01,
     7.33184397e-01,  3.83827478e-01,  8.48537743e-01,  1.36836743e+00,  9.10980999e-01,  8.23633909e-01,  1.25924516e+00,  1.46723509e+00},
   {-6.09801292e-01, -9.51698720e-01, -8.55357289e-01, -9.43767786e-01, -7.09616840e-01,  2.58450806e-01,  1.33979571e+00,  1.54756820e+00,
     6.45050928e-02,  1.41425341e-01, -6.77183747e-01, -8.86072755e-01, -2.34611750e+00, -1.50038409e+00,  5.69911122e-01,  1.56647635e+00,
     2.32663274e+00,  7.51188576e-01,  2.45205849e-01,  6.49133444e-01,  3.62248033e-01, -3.23613554e-01,  5.74883282e-01,  1.12458980e-02,
    -3.58544141e-01, -1.90381929e-01,  1.55763343e-01,  7.09197462e-01,  8.83872986e-01, -9.58059877e-02, -4.80264693e-01, -4.39430088e-01},
   { 5.61038792e-01,  6.06119215e-01,  4.78692323e-01,  1.46312654e+00,  1.09925199e+00,  9.61843431e-01,  3.53924334e-01, -1.99681640e+00,
    -2.87724900e+00, -1.00607109e+00, -3.47597569e-01, -3.22005004e-01,  1.29202113e-01, -2.39302531e-01, -7.61251748e-01, -1.27196324e+00,
    -1.03883839e+00, -9.92790386e-02, -2.31025591e-02, -9.14922729e-02, -8.18148017e-01,  1.53211072e-01,  3.31897885e-01,  1.09565416e-02,
    -2.74674892e-01, -7.26595297e-02, -8.51660490e-01, -5.93095608e-02,  4.65816945e-01,  2.05580264e-01, -5.07860661e-01,  5.72622597e-01},
   {-9.57673118e-02, -2.75706673e+00, -5.13411236e+00, -1.34638464e+00, -7.61477292e-01, -1.24185048e-01,  6.12302780e-01,  4.21378970e-01,
    -4.56524193e-01, -1.93746939e-01,  3.55718791e-01, -6.33318245e-01, -9.16909426e-02, -4.19517666e-01,  2.13178024e-01,  3.97904009e-01,
     5.78130186e-01,  3.88599783e-01,  1.06046712e+00,  5.72142959e-01,  3.06633383e-01,  9.20346260e-01, -4.63939942e-02, -1.27154559e-01,
    -9.90213931e-01, -1.24749410e+00, -3.20259005e-01,  9.53379869e-02, -4.79854494e-02, -2.20944613e-01, -3.95734578e-01, -2.50683844e-01},
   {-2.35042751e-01, -8.27208161e-01, -3.54723287e+00, -2.61590314e+00, -2.24910188e+00, -1.49279165e+00, -2.81893849e-01, -9.53285545e-02,
    -1.19661808e+00, -8.69643867e-01,  2.15494871e-01, -6.40622616e-01, -2.92238817e-02,  6.70957789e-02,  1.01046756e-01,  2.25189328e-01,
     1.54630232e+00, -8.69574398e-02,  3.75843197e-02, -5.46212196e-02, -3.62098247e-01,  8.44983757e-03, -2.16495350e-01,  8.13810110e-01,
    -3.15512687e-01,  3.19777578e-01,  6.06046617e-01,  9.51969802e-01,  1.43293476e+00,  8.14725697e-01,  4.69402432e-01,  1.82065666e+00},
   { 7.20057309e-01,  4.35808599e-01, -7.22778261e-01, -6.47782028e-01,  5.67495525e-01,  5.47081470e-01,  1.29542959e+00,  8.71661678e-02,
    -1.02684975e+00, -1.19986343e+00, -1.39090610e+00, -5.80250025e-01, -1.19065106e+00, -1.78777969e+00, -1.26582146e+00, -2.85180330e-01,
     1.66500008e+00,  2.16029167e+00,  1.08596230e+00, -2.92656310e-02, -8.17817822e-02, -5.75002253e-01, -1.40742608e-03, -5.96386082e-02,
     5.80494329e-02, -2.61711657e-01, -1.25298053e-01, -6.10494196e-01,  5.00050604e-01, -2.19658658e-01,  1.75842032e-01,  1.10787058e+00},
   {-2.75229570e-04, -1.18044114e+00, -4.87051517e-01,  7.87177980e-02,  3.63088340e-01,  5.02039254e-01,  1.24249808e-01, -1.86114383e+00,
    -1.85261631e+00, -9.63111758e-01,  3.81619215e-01,  1.58835697e+00,  1.03621349e-01,  1.73840761e-01,  1.66732505e-01, -7.76465461e-02,
    -2.30441347e-01, -5.90614498e-01, -1.32207298e+00, -1.06766582e+00, -1.84799850e-01,  2.37953275e-01, -1.88243151e-01,  2.14180037e-01,
     1.34618938e-01, -6.76053286e-01, -8.50497335e-02,  4.84251529e-02, -3.09163809e-01, -5.18818796e-01,  6.94126496e-03,  4.72576827e-01},
   {-6.11978769e-01, -1.43988657e+00, -3.74138522e+00,  6.07828796e-02, -4.13420171e-01, -3.21282983e-01,  3.57315779e-01,  3.67278934e-01,
     7.22316444e-01, -3.93840522e-01, -2.93691188e-01, -1.02341664e+00,  6.45753264e-01, -7.39528611e-02, -7.76663244e-01, -1.02144873e+00,
    -7.33311176e-01,  5.25120676e-01, -8.51842403e-01, -1.10756502e-01, -5.13452664e-02, -3.81431319e-02,  5.29793501e-01,  2.32582420e-01,
    -1.51211953e+00, -1.57536328e+00, -2.64282167e-01,  2.39643529e-01, -3.90613854e-01, -9.77705479e-01, -1.91720057e+00,  4.72795576e-01},
   {-4.14769977e-01, -1.67985052e-01, -4.08498824e-01, -8.51080775e-01, -1.12631929e+00, -1.25661564e+00, -2.10856050e-01,  1.51623249e+00,
     2.69110823e+00,  8.97679508e-01,  3.09859842e-01, -4.68798876e-01, -9.13249850e-01, -6.76080883e-01, -1.35988319e+00, -3.94188702e-01,
     2.13738227e+00,  1.72844422e+00,  1.25065565e+00,  4.28770036e-01,  1.94965899e-01, -1.24400824e-01,  1.07472336e+00,  8.57592404e-01,
    -5.88360369e-01, -2.93561965e-01,  2.10339263e-01,  2.74709105e-01,  1.28836676e-01, -3.69853824e-02,  7.96520710e-02,  9.97108817e-01},
   { 6.55610025e-01, -1.11001945e+00, -1.62545764e+00,  6.04872871e-03,  1.66090333e+00,  2.52817798e+00,  3.00367355e+00, -8.35558623e-02,
    -3.00478864e+00, -2.46344447e+00, -1.99683559e+00, -6.03197455e-01,  8.26541260e-02,  3.19690615e-01, -2.98434887e-02, -4.15601075e-01,
     6.09864891e-01,  2.35113055e-01, -6.79190695e-01, -7.69557297e-01, -8.88153613e-02,  6.08843490e-02, -2.10831836e-02, -2.11337581e-01,
     5.49459636e-01,  2.32251920e-02, -1.12573922e-01, -2.12891519e-01,  7.41961226e-02,  1.41430706e-01, -3.79335135e-01,  1.03617013e+00},
   {-4.37807143e-01, -1.51557982e+00, -2.67531228e+00, -1.96914291e+00, -1.16668057e+00, -6.91646695e-01, -1.46231031e+00, -1.86773038e+00,
    -4.17775393e-01,  4.89226013e-01,  9.55201328e-01, -9.32774600e-03,  6.23951972e-01,  1.00460672e+00,  1.19591761e+00,  8.72500241e-01,
     5.49261630e-01, -2.43956119e-01, -3.86188686e-01, -4.47844535e-01,  3.79220665e-01,  1.04778612e+00, -3.18351358e-01, -1.24174155e-01,
     4.32703733e-01,  5.09165406e-01,  1.03414345e+00,  1.07622015e+00,  2.28485335e-02, -6.60396442e-02,  2.43036926e-01,  1.20787466e+00},
   { 8.19815472e-02, -5.22542357e-01,  1.29107881e+00, -1.41086489e-01,  3.05713397e-02,  4.17726576e-01, -4.23898906e-01, -1.03205585e+00,
    -3.50344121e-01,  1.66663313e+00,  1.95967329e+00,  1.06861067e+00, -2.96641111e+00, -4.31098908e-01,  2.89326525e+00,  2.67891145e+00,
     4.97836739e-01, -7.28966534e-01, -1.17605686e+00, -9.18330193e-01,  5.52347481e-01,  3.74029249e-01, -4.09601003e-01, -4.46714371e-01,
     7.55106390e-01,  4.96739447e-02,  5.45481741e-01,  4.82886344e-01,  6.24822229e-02, -8.72482955e-02,  2.48045981e-01,  4.05249834e-01},
   { 3.16930532e-01,  1.76727250e-01,  8.76297235e-01,  1.54501128e+00,  8.60910296e-01,  1.57275903e+00, -8.96420628e-02, -1.27014351e+00,
    -1.66661322e+00, -9.85087574e-01, -1.00017726e+00, -1.09245491e+00, -2.00413179e+00, -3.89892757e-01,  1.39520001e+00,  1.25588465e+00,
     6.57310486e-01, -4.23147768e-01, -5.37959158e-01, -1.93865165e-01,  6.35853767e-01,  7.54789412e-01,  1.74156129e-01,  5.41780710e-01,
     1.51845980e+00,  1.37234926e+00,  4.26426470e-01,  1.63380012e-01, -1.23464599e-01, -2.12830320e-01, -7.99082160e-01, -1.04012930e+00},
   {-9.08051282e-02, -1.77843750e+00, -1.63903081e+00, -1.54469585e+00, -2.41825747e+00, -1.61275077e+00, -7.91491032e-01, -7.63050973e-01,
    -4.21320051e-01,  6.89896166e-01,  1.34923565e+00, -7.19563901e-01, -7.01057851e-01, -7.90109217e-01,  6.30462170e-01,  1.17578673e+00,
     7.10736215e-01, -1.71275425e+00, -1.01245856e+00, -9.15140629e-01, -1.69880137e-01,  7.42813647e-01, -8.79645884e-01,  1.00944869e-01,
     1.19687155e-01,  8.93226936e-02,  6.10046387e-01,  5.30893981e-01,  1.07814896e+00,  7.03097463e-01,  5.26215196e-01,  1.74847031e+00},
   {-1.31516337e+00, -4.29369867e-01, -3.21305931e-01,  2.91366637e-01,  1.34042636e-01,  8.00350666e-01,  3.76052350e-01,  3.32220376e-01,
     4.80029225e-01, -1.02344608e+00, -3.19741774e+00, -2.17492700e+00,  8.32843184e-01,  1.22686958e+00,  4.69635338e-01, -2.72894710e-01,
    -4.41212356e-01, -4.77929652e-01, -2.01249525e-01,  1.05580330e+00,  4.23843145e-01, -4.35593486e-01, -3.82196516e-01, -4.69894260e-01,
     3.32158148e-01,  1.07865310e+00,  5.91244340e-01,  7.41957605e-01,  7.02074051e-01,  5.05358875e-01,  8.59852195e-01,  9.11858737e-01},
   {-7.82574341e-02,  4.02581580e-02,  5.45300007e-01,  3.88983727e-01, -1.51993111e-01, -6.28704131e-01, -1.44470990e+00, -1.29018986e+00,
     1.67544618e-01,  9.23613787e-01,  2.49948215e+00,  1.60743999e+00,  9.68912005e-01, -7.49865845e-02, -9.72510219e-01, -5.28192222e-01,
    -6.92641437e-01, -8.54117751e-01, -1.06343257e+00, -8.07985246e-01, -3.69976848e-01,  6.06822133e-01, -4.25871432e-01,  9.36608464e-02,
    -2.23532468e-01, -5.55049956e-01,  3.47261801e-02,  4.23020065e-01, -1.45096956e-02,  8.61175537e-01,  1.63755879e-01,  6.79422319e-01},
   {-2.54415631e-01,  1.09335072e-01, -1.10616946e+00, -1.13454354e+00,  2.94104636e-01,  1.18663073e+00,  1.46913338e+00,  1.60987616e+00,
     1.83070213e-01, -1.33206177e+00, -2.37205696e+00, -2.85204005e+00,  2.30932012e-01,  1.91437972e+00,  1.11200011e+00, -6.37195110e-01,
    -1.92045236e+00, -2.30646539e+00, -6.03099287e-01,  9.44890380e-01,  1.03405809e+00,  7.63810754e-01, -3.37096304e-01,  9.80942249e-01,
     8.73070002e-01,  1.34049073e-01, -6.39527678e-01,  3.22227813e-02,  4.49853390e-01,  6.00647748e-01,  4.43475723e-01, -3.41422021e-01},
   {-1.23962916e-01, -5.01449108e-01, -4.86768544e-01, -1.87180114e+00, -6.65566981e-01,  5.84496796e-01,  2.23419142e+00,  2.35684299e+00,
     1.58486032e+00,  1.74023223e+00, -3.76531039e-04, -1.09685123e+00, -3.60026687e-01, -4.06939946e-02, -2.52912134e-01, -2.45080832e-02,
     2.15378746e-01,  5.23851633e-01,  1.94749033e+00,  1.23684311e+00,  1.59580588e-01,  4.70182627e-01,  4.87087488e-01,  4.90401030e-01,
     7.22355485e-01,  1.03592694e+00,  7.21610725e-01,  3.98572206e-01,  5.56624889e-01,  5.80174267e-01,  4.95907456e-01, -8.43089461e-01},
   { 1.59368008e-01, -1.31096399e+00,  5.32734454e-01, -8.84629011e-01, -1.71761632e-01,  2.04098344e+00,  2.56152368e+00,  2.16276670e+00,
    -1.90672949e-01, -1.48010746e-01,  5.32007217e-01, -1.30243585e-01, -8.65624189e-01, -6.61345124e-01, -7.96167374e-01, -1.14925110e+00,
    -1.65650272e+00, -2.58854532e+00,  2.78939515e-01,  7.61367559e-01,  8.91773254e-02,  1.65416613e-01, -6.44783318e-01,  2.27816463e-01,
     6.65761769e-01, -5.66594303e-01, -9.48514521e-01,  2.87554651e-01, -4.41990614e-01,  1.79662615e-01,  4.82379854e-01, -1.45355248e+00},
   { 1.02135170e+00,  3.48601162e-01, -1.09307134e+00, -1.72465816e-02,  1.39807975e+00,  9.87389088e-01,  8.62846434e-01, -1.06426430e+00,
    -1.76137125e+00, -8.69683087e-01,  2.33250290e-01,  1.16429102e+00,  4.97905433e-01, -1.03466868e+00, -1.52954841e+00, -1.50128913e+00,
    -8.36665213e-01,  2.50213206e-01,  4.89667356e-01, -1.12161301e-01, -4.38507855e-01,  2.66097516e-01,  3.68714422e-01,  1.81959286e-01,
     9.58833247e-02,  1.06349096e-01,  3.22939724e-01,  2.37258807e-01,  2.84819365e-01,  6.94090247e-01, -6.05095699e-02,  5.59383750e-01},
   {-8.99428189e-01, -8.28265190e-01,  8.66052091e-01,  8.29843760e-01, -4.14055198e-01, -1.03027046e+00, -1.98149967e+00, -1.23481786e+00,
     6.87790036e-01, -4.71264087e-02, -7.67325938e-01, -1.10242677e+00, -8.30564260e-01, -1.40619791e+00, -1.68804991e+00, -1.32995069e+00,
     5.85219562e-01,  2.03851604e+00,  1.92041290e+00,  1.81927836e+00,  2.19590306e+00,  1.70719288e-02, -3.72992814e-01, -1.20059657e+00,
    -5.39360404e-01,  9.45207953e-01,  7.23910034e-01,  3.93610805e-01,  8.96128733e-03,  3.87590051e-01,  5.61649561e-01, -2.95487553e-01},
   { 9.94166195e-01,  7.01093912e-01, -9.92592752e-01, -4.33548599e-01, -1.60201049e+00, -1.85018444e+00, -1.71643031e+00,  9.94767919e-02,
    -5.40978551e-01,  8.21546793e-01, -1.70446992e-01, -6.11428976e-01, -3.38477343e-01, -3.87544990e-01,  4.63872075e-01,  5.16303539e-01,
     1.22317910e+00, -6.22397065e-01, -3.87807816e-01, -1.23851025e+00, -1.06410706e+00, -9.93059427e-02, -1.66310441e+00, -2.25101244e-02,
     6.95633650e-01, -8.07400823e-01, -9.50023532e-01, -5.20987749e-01,  7.60476887e-02,  1.15386872e-02, -2.36976385e-01, -1.49469411e+00},
   { 4.79681849e-01, -2.41470128e-01, -1.45950663e+00,  2.30611503e-01,  1.76623628e-01, -1.71586618e-01, -1.05616963e+00, -6.11345232e-01,
    -3.13111901e-01, -4.27358598e-01, -4.06550050e-01,  7.64179379e-02,  2.30704576e-01, -3.21076334e-01,  1.29126310e-01, -3.34782124e-01,
    -4.98076558e-01, -5.76047480e-01, -1.68965924e+00, -1.12629545e+00, -5.86772740e-01, -6.42812192e-01, -1.35302007e+00, -9.94332850e-01,
    -6.16971135e-01, -3.85866433e-01, -4.52531636e-01, -7.11945057e-01, -1.85800740e-03,  3.60436231e-01, -1.41323935e-02,  8.45374107e-01},
   { 9.55248773e-01, -6.39969468e-01, -1.56471837e+00, -8.75076056e-01,  3.07823032e-01,  1.29624450e+00,  7.31024683e-01,  4.36398387e-01,
    -7.18904376e-01, -1.07107377e+00, -1.26016021e+00, -1.65163505e+00, -6.04777753e-01, -5.34949228e-02, -7.69804835e-01, -3.00740421e-01,
     5.74421346e-01,  1.38463870e-01, -4.48576361e-01, -4.33563560e-01, -1.43774807e+00,  4.80261832e-01,  1.52977133e+00,  1.43922329e+00,
    -3.26258987e-01, -6.39924347e-01,  1.04959510e-01,  1.43274498e+00,  1.15879726e+00, -5.69872819e-02, -3.39424580e-01, -9.30091068e-02},
   {-5.07065393e-02,  3.19551468e-01, -1.15217483e+00, -2.21561456e+00, -3.12159395e+00, -3.53883886e+00, -1.23484969e+00,  2.86741519e+00,
     2.38881063e+00,  1.23951919e-01,  9.94126439e-01,  8.75945926e-01,  9.05313849e-01,  7.17503130e-01,  6.10987365e-01,  6.97907031e-01,
     4.74830061e-01, -1.24129476e-02, -1.03189610e-01, -1.66770637e-01, -6.77519679e-01, -2.09321499e-01, -3.38912845e-01,  7.41199136e-01,
    -6.13372386e-01, -4.83027965e-01,  6.71626568e-01,  2.78391302e-01, -2.18864322e-01,  3.19139630e-01, -3.57326776e-01,  1.00661778e+00},
   {-9.29205492e-02, -1.09265780e+00, -1.08198094e+00, -5.83979487e-01,  5.04843116e-01,  7.07298577e-01,  4.12797958e-01, -3.91597509e-01,
    -1.87295103e+00, -1.38676333e+00, -4.96525496e-01,  2.87178576e-01, -1.05415440e+00, -3.34661007e-01,  2.14997292e-01, -7.03840479e-02,
     2.76521176e-01,  5.50178885e-01,  1.78835899e-01, -7.06466496e-01,  1.97719689e-02,  4.97919358e-02, -1.73274800e-01,  1.64585575e-01,
    -4.42480236e-01, -9.23042297e-02,  3.24212939e-01,  4.48080301e-01,  1.69337556e-01, -6.76507354e-02,  1.71736419e-01,  8.15692365e-01},
   { 1.00836180e-01,  6.34686947e-01, -1.00812860e-01, -9.44228351e-01, -8.36907983e-01, -7.41815031e-01, -2.14765325e-01,  3.56437415e-01,
     3.70962739e-01,  1.72021255e-01, -5.79578996e-01, -6.69673860e-01, -2.15653801e+00, -1.98512983e+00, -1.29834163e+00, -4.35758799e-01,
     1.16688144e+00,  2.21147585e+00,  1.69767714e+00,  1.07772136e+00,  5.44491887e-01, -8.19262043e-02,  1.32489979e-01, -6.38918042e-01,
    -6.53095901e-01, -2.10425541e-01,  1.03360355e-01, -2.72611201e-01,  5.72366178e-01,  1.72119718e-02,  3.37070107e-01,  6.53308183e-02},
   {-3.79496664e-01, -1.87367704e-02, -9.80149209e-01, -1.85664725e+00, -1.36504340e+00, -3.99431854e-01,  9.42341983e-02,  3.82241070e-01,
    -1.40907139e-01,  1.25795752e-01, -7.06689954e-01, -5.58381855e-01, -1.21409059e+00, -2.67656922e-01,  1.09015572e+00,  1.16840589e+00,
     1.93088818e+00,  4.59712416e-01,  2.67719239e-01, -8.69087800e-02, -7.25811124e-01, -1.03123903e+00,  8.04891646e-01,  6.23216629e-01,
     1.26084760e-01,  1.18782938e-01,  5.03650546e-01,  2.71280646e-01,  6.62786543e-01,  5.47686040e-01,  2.77571261e-01,  1.08351684e+00},
   { 8.74423087e-01,  4.21834648e-01, -4.01559621e-01, -1.69886102e-03, -7.81410839e-03,  3.00186545e-01, -2.47295536e-02, -5.78501761e-01,
     2.03499869e-01,  8.05129334e-02,  5.86371064e-01,  5.22207022e-01,  9.99984443e-01, -9.94236887e-01, -2.64505363e+00, -2.26000404e+00,
    -9.54992592e-01,  4.67861801e-01,  9.81316328e-01,  8.21312070e-01,  5.24908826e-02,  2.61918932e-01,  5.09154558e-01,  9.23694432e-01,
     1.80543333e-01, -1.43691078e-02,  1.20842636e+00,  5.75357497e-01,  2.58024722e-01, -9.28550437e-02, -5.13305902e-01, -4.31878090e-01},
   { 5.54691970e-01,  1.29144192e-01,  1.77927598e-01,  1.69025469e+00,  9.10688281e-01,  1.43563151e+00,  1.33480287e+00, -9.76683795e-02,
    -3.45861346e-01, -8.53714764e-01, -6.18064880e-01, -1.01644313e+00, -1.35831380e+00, -1.11119163e+00,  3.29831630e-01,  4.95267391e-01,
    -2.55747944e-01, -8.60645950e-01,  5.55768073e-01,  1.61298907e+00,  1.51001140e-01, -7.52065301e-01, -7.81626463e-01,  1.95135072e-01,
     6.81530356e-01, -1.00045666e-01, -3.68887901e-01, -8.72238949e-02,  1.55661747e-01,  3.87572885e-01, -2.92559415e-01, -9.73819196e-01},
   {-6.29112065e-01, -6.64940715e-01, -1.88275397e-01,  9.69816372e-02,  8.15549254e-01,  9.71559465e-01,  3.15232247e-01,  1.93390086e-01,
    -7.55250692e-01, -7.47236788e-01, -4.33569908e-01,  8.48827511e-02, -8.69773448e-01, -1.14524591e+00, -1.44932938e+00, -1.77683854e+00,
    -9.17658687e-01,  1.00981104e+00,  7.93977916e-01, -4.33338761e-01,  2.76794791e-01,  6.30954206e-01,  3.35093439e-01, -3.72300707e-02,
     4.76269841e-01,  1.38154536e-01,  5.38722336e-01,  4.37611490e-02,  1.70378819e-01, -3.19489315e-02, -2.04505309e-01,  8.37921202e-01},
};

const float RNN0_U[64][64] = {
   {-3.84386539e+00,  9.53230381e-01,  1.51536095e+00, -3.07377887e+00, -2.22354412e+00, -2.23424506e+00, -1.92003334e+00, -9.93620217e-01,
     5.64259470e-01, -2.93851447e+00, -6.12910807e-01,  1.03865218e+00, -4.36195421e+00, -3.51576984e-01,  6.86136186e-01,  6.20461047e-01,
     2.72561884e+00,  2.93687415e+00, -3.05217552e+00, -3.53466678e+00, -2.19522595e+00,  4.92834616e+00,  2.48149252e+00, -1.41011560e+00,
    -2.29734182e+00,  2.03265047e+00, -5.17082810e-01, -1.72597259e-01, -1.30390549e+00, -4.98351753e-01, -2.41296306e-01,  6.12147033e-01,
    -3.13076711e+00, -2.73619342e+00, -2.83688486e-01,  7.69059002e-01,  4.88404393e-01,  1.59268522e+00,  1.03211141e+00,  2.09160233e+00,
    -2.08737686e-01, -2.63899684e+00,  3.88497615e+00,  1.97692662e-01, -6.91054046e-01, -3.37716794e+00,  1.01460409e+00, -3.87706900e+00,
     1.89744066e-02,  1.30746305e+00,  2.22558856e+00,  1.86731529e+00, -2.40226448e-01,  2.21932983e+00,  3.23334485e-01,  6.93016469e-01,
     5.53313017e-01, -2.74666858e+00,  1.18855751e+00,  8.68262887e-01, -2.68713069e+00,  1.40654039e+00, -3.20613885e+00,  2.77350998e+00},
   {-7.44386196e-01, -8.74721467e-01,  1.64108121e+00, -1.63087189e+00,  3.14666152e+00, -1.45028353e+00, -2.68037319e-01,  8.96253407e-01,
     2.22800422e+00,  4.40475941e+00, -1.94555134e-01,  1.16307938e+00,  3.06908822e+00, -2.01960158e+00, -1.05104482e+00,  5.00864077e+00,
    -1.67358327e+00, -1.40093207e+00,  2.78845787e-01, -9.07212377e-01, -2.89779234e+00, -2.44216394e+00, -5.14820457e-01, -3.19405317e+00,
    -3.22371900e-01,  2.62396455e+00,  7.59832442e-01,  3.71600389e-01, -9.90556479e-01, -1.37573504e+00,  2.14930248e+00, -1.87827373e+00,
     1.68126285e+00, -4.81961346e+00, -1.51410079e+00,  1.02677643e+00,  2.28904271e+00,  1.27482855e+00, -4.27258462e-01,  3.68463024e-02,
     4.05732965e+00, -1.50922012e+00,  2.80215263e+00, -2.87859178e+00, -2.02591133e+00,  1.10206723e+00,  6.54782534e-01, -1.79972398e+00,
     1.41498044e-01, -1.54645872e+00, -2.27731347e+00,  4.62412030e-01,  2.65593028e+00, -3.33258319e+00,  2.33808231e+00,  2.20865989e+00,
    -2.38034987e+00,  1.54814172e+00,  4.85444874e-01,  1.34193897e-01, -6.30613804e-01,  6.54980838e-01,  4.98453677e-01,  2.53310370e+00},
   {-6.75232708e-01,  8.15348685e-01, -1.92069197e+00, -1.02568388e+00,  3.34806299e+00, -7.52311587e-01,  8.34278315e-02, -4.36345398e-01,
     1.78899920e+00,  5.72680664e+00, -8.72551858e-01,  1.35599840e+00,  4.66747379e+00, -2.05857778e+00, -5.39608896e-01,  4.18889236e+00,
    -2.46234632e+00, -1.73216951e+00,  3.26580882e-01, -1.41122472e+00, -3.06600976e+00, -1.87328923e+00, -6.29957974e-01, -2.11719251e+00,
    -1.18545330e+00,  7.07663178e-01,  2.09836721e-01, -1.27771342e+00, -6.97095394e-01, -2.31110787e+00,  3.81932139e-01, -2.91882634e+00,
     1.62350881e+00, -3.73072195e+00, -2.33849955e+00,  3.52043986e-01,  1.14777625e+00,  7.14800715e-01, -1.73407555e+00,  3.54502469e-01,
     3.98098183e+00, -1.49667621e-01,  2.24156117e+00, -7.01623857e-01, -8.71831238e-01,  1.48300195e+00, -3.20520252e-02, -1.88216794e+00,
     1.16162121e+00, -8.74594033e-01, -2.04778624e+00,  3.49370092e-01,  1.17702246e+00, -4.53877640e+00,  1.28062403e+00,  2.40770006e+00,
    -2.80170918e+00,  1.35621691e+00,  2.22998947e-01, -1.94371903e+00, -1.24627411e+00,  2.06411839e-01,  8.59818220e-01,  2.05240560e+00},
   { 1.76638520e+00,  7.94461131e-01,  1.88525951e+00,  2.11643815e+00,  2.84635484e-01, -1.79977179e+00,  3.38800764e+00, -3.01239997e-01,
    -6.45190668e+00,  1.79442084e+00,  2.03870893e+00,  6.44816365e-03, -1.00872612e+00, -1.72418094e+00,  1.69192100e+00,  6.99434757e-01,
     1.00497827e-01,  3.15201789e-01,  2.12676454e+00,  2.34935379e+00,  2.91376853e+00, -2.31576753e+00,  5.20795918e+00,  3.57247829e+00,
     1.34757543e+00, -2.17760062e+00,  1.10736728e+00, -1.91764867e+00,  7.63623762e+00, -2.95117855e-01,  1.01541424e+00,  3.63962150e+00,
     1.64265144e+00, -6.88788116e-01, -3.87949079e-01,  7.20780015e-01,  9.31149662e-01,  2.65925741e+00,  1.45192707e+00, -1.70778716e+00,
    -8.52066159e-01,  2.44385457e+00, -1.44715428e+00,  1.02466440e+00,  1.54111886e+00, -7.65677541e-02,  1.72872233e+00,  2.01280162e-01,
     2.42188096e+00,  1.34631371e+00, -3.36304712e+00, -7.21148491e-01,  2.63523608e-01,  3.48884630e+00,  1.56706423e-01, -1.90643299e+00,
     1.18390727e+00,  2.44951081e+00, -5.55598068e+00,  9.78981197e-01, -1.73430145e+00,  1.34182560e+00, -5.96731961e-01, -1.81127739e+00},
   { 6.10377979e+00,  3.85922849e-01,  4.15970981e-01, -9.51090157e-01, -4.23269939e+00,  1.66298962e+00,  2.53328010e-02, -1.33405316e+00,
    -6.00263238e-01, -2.92252207e+00, -1.00272715e+00,  1.79106319e+00, -1.30581546e+00, -1.48594093e+00, -1.94111180e+00, -8.52550626e-01,
    -3.06917286e+00,  7.22803771e-01, -1.36396646e+00, -3.00709271e+00, -1.01907074e+00,  2.52589440e+00, -2.29117736e-01,  1.78788161e+00,
     3.03944319e-01, -2.65545082e+00, -1.34136581e+00,  3.71491909e+00,  3.72684747e-01, -2.38409758e+00, -8.23081791e-01,  1.70183599e+00,
    -8.49792123e-01,  3.05601209e-01, -8.15195590e-02, -3.53375173e+00,  4.65332657e-01, -3.11420113e-01, -5.90095162e-01, -1.21345544e+00,
    -6.72262669e-01,  4.80834770e+00, -2.17616582e+00,  7.29506969e-01,  1.16527557e+00, -1.16585648e+00,  6.34946525e-01,  4.01011169e-01,
     2.90256172e-01, -1.15316582e+00,  1.70306301e+00, -3.85389376e+00, -2.36999559e+00, -5.77337444e-01, -7.44237304e-01, -1.14142883e+00,
    -6.46539330e-01,  3.04989815e+00, -7.92229593e-01,  6.85589552e-01,  1.47155678e+00, -2.04152837e-01, -1.71301699e+00, -2.55605340e+00},
   {-3.91870284e+00,  9.13030267e-01, -4.49669182e-01, -1.72891229e-01, -3.55890083e+00, -3.72304630e+00,  2.76431441e+00,  4.70664680e-01,
     2.58517599e+00, -1.52589512e+00,  2.65280890e+00,  1.84247438e-02, -1.03934681e+00,  2.45387673e+00, -4.82377440e-01,  3.16215444e+00,
    -2.60351986e-01,  1.40627789e+00, -2.56126344e-01, -1.09996319e+00,  1.86352873e+00, -4.43236303e+00, -8.48751843e-01,  1.64974475e+00,
     1.75927711e+00, -2.11480763e-02,  2.14258766e+00,  1.09817338e+00,  1.37291384e+00,  1.75557137e+00,  1.52540052e+00, -1.49583805e+00,
    -1.58182549e+00,  5.76900434e+00,  1.93045568e+00,  1.03427017e+00,  3.12968898e+00,  4.80637044e-01,  1.85064816e+00, -2.44227004e+00,
     3.81028056e+00, -2.41950655e+00,  7.49945939e-01,  1.80264533e+00, -3.69908023e+00,  1.22014272e+00,  7.17108846e-01,  4.43843079e+00,
    -9.36232686e-01,  2.21585870e-01,  3.87950838e-01,  9.53224123e-01, -1.57206988e+00,  3.58218402e-01, -7.28527069e-01, -2.62160718e-01,
     1.25482166e+00,  2.70805860e+00, -3.45190465e-01,  3.02765274e+00,  1.16403806e+00, -2.42091322e+00, -3.43948102e+00, -8.71497393e-01},
   {-7.07460225e-01,  3.05305052e+00,  1.69659925e+00,  5.95680416e-01,  3.43707633e+00,  4.00213629e-01, -1.13655412e+00,  4.28385198e-01,
    -3.70857453e+00,  7.85443783e-01,  1.60064113e+00, -3.13599646e-01,  3.28092074e+00, -2.89081577e-02, -2.38552976e+00,  3.07516146e+00,
    -1.52066481e+00,  3.31941843e+00,  2.57313061e+00,  8.25959325e-01, -4.80244085e-02, -2.72829556e+00, -6.79381192e-01, -1.79796529e+00,
     1.03985381e+00,  1.14331245e-01,  4.18384743e+00, -9.36543792e-02, -8.27924967e-01,  6.17473900e-01,  7.63551831e-01, -2.85817361e+00,
     3.56905103e-01, -1.04958963e+00,  1.52242458e+00, -1.43862545e+00,  2.03174281e+00,  2.59526634e+00,  5.41343451e-01,  6.89181387e-01,
     2.67828846e+00,  3.07943821e+00, -1.46931362e+00,  2.87393618e+00, -9.99949098e-01,  5.01356781e-01,  1.34296978e+00,  8.55404973e-01,
     1.65218174e+00, -2.41304898e+00,  1.30093306e-01,  1.97407708e-01, -1.83864379e+00, -4.25964706e-02,  1.45975041e+00,  9.49386001e-01,
    -2.77919143e-01,  3.53470969e+00, -4.51259327e+00,  7.18095183e-01, -2.99252719e-01,  1.68229830e+00,  1.12467396e+00, -2.75499606e+00},
   {-3.48215914e+00, -3.51419926e-01,  9.95179787e-02,  4.23967332e-01,  1.81391549e+00,  1.17976926e-01, -1.32741451e+00,  2.35189056e+00,
    -1.97117138e+00,  1.77117062e+00,  3.59252477e+00, -3.25161290e+00,  1.89173841e+00, -6.02443755e-01,  5.85090697e-01,  1.15077960e+00,
     1.35959104e-01, -1.94019723e+00, -2.81858778e+00,  1.07404745e+00, -8.89732063e-01, -2.99949861e+00,  7.21043468e-01, -6.13504648e-01,
     2.17654395e+00,  1.08480431e-01,  4.01032066e+00,  5.36588621e+00,  3.15729171e-01, -3.87790680e-01, -1.58443791e-03, -1.03472292e+00,
     2.17685461e+00, -1.87865841e+00,  3.83189678e+00,  1.73364997e+00, -1.81906188e+00, -1.78794849e+00,  2.98034835e+00,  7.91178107e-01,
    -4.26831394e-01,  4.21085030e-01,  3.63291550e+00, -1.30129695e+00,  2.35199571e+00,  3.83221030e+00, -1.50091088e+00,  1.48349881e+00,
    -3.75712395e+00,  1.09642351e+00, -4.25338936e+00,  2.13087583e+00, -1.76135644e-01, -2.27217764e-01, -1.33396399e+00, -4.62353557e-01,
    -2.07302999e+00, -3.81847763e+00,  1.37175739e+00,  1.15618002e+00,  2.55323100e+00, -5.99915862e-01,  2.10848522e+00, -1.88555598e-01},
   {-1.81556427e+00,  5.32919109e-01, -9.95016575e-01,  1.86509299e+00,  6.23532891e-01,  4.42513561e+00, -2.38718670e-02, -2.70053172e+00,
     1.11787558e+00, -1.88247240e+00, -2.90627575e+00,  2.52543211e+00,  3.17987132e+00,  3.58415222e+00, -9.57091808e-01, -1.91787863e+00,
    -1.65781033e+00, -5.06199777e-01,  6.48030192e-02,  4.74970043e-02,  1.63092113e+00,  5.97858131e-01, -5.77714872e+00, -1.96558249e+00,
    -1.17037404e+00,  3.38996261e-01, -1.94763947e+00,  6.39704525e-01, -1.50655973e+00, -2.06529832e+00, -4.36727613e-01, -7.45296359e-01,
     2.26947451e+00,  5.84912181e-01,  9.56518352e-02, -1.30461323e+00, -3.93007219e-01, -1.72603261e+00, -3.45437455e+00,  9.76873100e-01,
    -2.00533724e+00, -2.46565416e-01, -2.56626439e+00, -6.96381032e-02,  1.37659460e-01, -3.05034190e-01, -1.34015930e+00, -8.18714619e-01,
     1.75206125e+00, -3.69192004e+00,  4.43160248e+00, -3.08861065e+00, -2.30662346e+00, -8.65273774e-02, -5.14837801e-02, -1.19048536e+00,
    -1.53091693e+00, -1.32568195e-01, -8.09796512e-01, -9.44607984e-03,  4.41710919e-01, -2.22054291e+00,  3.53698659e+00, -1.06356502e+00},
   {-1.32193208e-01,  2.23815247e-01,  1.21424961e+00,  7.79656351e-01,  2.45284653e+00, -1.56782019e+00,  1.12946248e+00,  2.38647413e+00,
     1.32155284e-01,  1.37180471e+00,  7.07405269e-01, -1.86172795e+00,  1.70295084e+00,  7.61084557e-01,  5.16479276e-02,  2.16756272e+00,
     3.70956469e+00, -8.63246083e-01,  1.79655921e+00,  4.54749227e-01,  7.48457253e-01, -2.90570855e+00,  6.60054386e-01, -3.10300136e+00,
    -4.31919485e-01,  7.23980963e-01,  4.13636118e-01, -1.73091590e+00, -2.55432463e+00,  2.93989205e+00,  3.00783128e-01, -2.23271513e+00,
     2.41629815e+00, -1.77333355e+00,  1.96515888e-01,  2.46737218e+00, -1.03981376e+00, -6.68963611e-01,  1.93240017e-01,  2.92258358e+00,
     5.12443244e-01,  1.19685304e+00, -2.91093588e+00, -4.00699466e-01,  1.48265910e+00,  5.85456252e-01, -1.82033777e+00, -1.33426738e+00,
     1.10614741e+00,  9.39749837e-01, -2.75851035e+00,  3.62179494e+00,  2.11138344e+00, -4.09552574e+00,  1.23292232e+00,  1.36563087e+00,
    -1.03923464e+00,  1.04969490e+00, -7.56869435e-01,  1.81316003e-01,  2.76268512e-01,  2.85520387e+00,  1.36852634e+00,  2.84581876e+00},
   { 6.95211813e-02,  2.46801472e+00,  3.34745407e+00,  1.11520064e+00,  3.44010401e+00, -4.57400829e-01,  8.03794324e-01, -3.75913717e-02,
    -3.53260970e+00,  3.85868716e+00,  2.20517054e-01,  5.57138920e-01,  2.72092652e+00, -2.77429557e+00, -4.08949554e-01,  1.66559327e+00,
    -3.52691382e-01,  5.83638966e-01,  1.95321107e+00,  7.77070940e-01, -1.17403424e+00, -7.95424283e-01,  2.15086865e+00, -3.74761522e-01,
     1.05241036e+00, -2.03318730e-01,  1.60718131e+00,  4.03878498e+00,  3.55412197e+00, -8.01554739e-01,  4.27099824e-01, -2.11733484e+00,
     1.74748719e+00,  7.24310338e-01,  2.20583177e+00, -2.19727588e+00, -1.84919298e-01,  1.05118227e+00, -2.93811709e-01, -6.78841770e-01,
     2.84675092e-01,  1.77379501e+00,  1.43382466e+00,  2.25533104e+00,  3.87873441e-01,  2.52556396e+00,  4.67547417e-01,  2.09984899e+00,
    -1.49934566e+00,  2.13938522e+00, -3.25075936e+00,  9.32940364e-01, -1.35844815e+00,  1.98508632e+00,  2.22131467e+00,  2.23206568e+00,
     6.48183525e-02,  1.62527776e+00, -5.59073210e-01,  1.36149442e+00, -2.52820492e-01,  2.16569018e+00,  1.85880259e-01, -4.77527082e-01},
   { 4.04620677e-01,  4.74696589e+00,  2.86201239e+00,  1.17940450e+00,  2.08015180e+00, -8.22709560e-01,  2.12500525e+00, -5.11107981e-01,
     3.20993495e+00, -2.10049844e+00, -2.99679565e+00, -1.95270693e+00,  2.30484915e+00, -1.99256614e-01,  6.41315758e-01, -1.61174226e+00,
    -5.92778921e-01,  2.16600940e-01,  1.32785952e+00,  2.97163635e-01,  4.94442552e-01,  5.39221108e-01,  4.76073235e-01, -2.12720704e+00,
    -3.34024620e+00,  1.38699639e+00, -6.82171643e-01, -2.51258874e+00, -8.53446960e-01,  1.30339038e+00,  9.05945063e-01, -5.13289809e-01,
     4.00768548e-01,  4.07393664e-01, -7.09562898e-01,  1.21387638e-01,  2.93534875e+00,  3.59505653e+00, -1.02755821e+00,  5.03416920e+00,
     1.56289756e+00,  1.18546629e+00, -9.23079439e-03,  4.34249735e+00, -1.49770892e+00,  1.03706658e+00,  1.49962592e+00, -1.78263223e+00,
     4.77342033e+00, -2.29321504e+00,  1.07103586e+00, -2.48129678e+00,  2.65476155e+00, -6.81802869e-01, -9.12664831e-01,  1.79611742e+00,
     6.15865111e-01,  2.66220737e+00, -7.01006830e-01, -3.39857340e+00, -3.57612014e-01,  2.40005136e+00,  3.64860475e-01, -6.91775560e-01},
   { 3.95772290e+00,  8.91402841e-01, -1.30987227e-01,  2.03297377e+00,  6.48147583e+00,  1.50906694e+00,  1.65926027e+00,  2.72808880e-01,
     3.79678607e-01,  1.40737045e+00,  8.90754998e-01,  3.31166506e-01, -2.24299645e+00, -1.31276309e+00, -2.25242758e+00,  5.33196115e+00,
    -1.91629386e+00,  1.00150979e+00,  2.54364967e-01,  6.28743052e-01,  7.21099600e-02, -3.24142933e+00, -1.05124784e+00,  2.55670714e+00,
     1.15730298e+00, -2.06866908e+00,  8.12314034e-01,  2.26147556e+00,  1.14815867e+00, -4.53214407e+00,  9.79799867e-01,  1.43603766e+00,
     1.49385679e+00,  8.24701071e-01,  1.74676311e+00, -3.00610518e+00, -4.97137129e-01, -7.66735673e-01, -7.54520893e-01, -6.74973607e-01,
     2.19414163e+00,  3.33332205e+00, -5.45343280e-01,  6.69751346e-01, -8.09739232e-01,  1.58901548e+00, -1.90145552e+00,  1.85048625e-01,
     7.14970529e-01, -1.09101510e+00, -5.78423405e+00, -7.63618052e-01, -3.21353817e+00, -6.35045826e-01, -4.01007831e-01, -8.57886672e-02,
    -6.35758758e-01,  9.70548809e-01, -2.23864508e+00, -4.87503618e-01,  7.55692244e-01, -3.37554395e-01,  5.92409015e-01, -1.32982790e+00},
   { 5.34881949e-01,  1.37008858e+00,  1.79220474e+00,  2.35033616e-01, -3.11082578e+00, -1.60719550e+00, -8.12409818e-01,  1.59103179e+00,
     8.54388475e-01,  3.55562806e-01,  2.27206850e+00, -1.39556110e+00, -3.34741020e+00, -4.13685942e+00,  1.69558513e+00,  1.63213098e+00,
     3.25485134e+00,  8.60847890e-01,  2.28886887e-01, -2.54287392e-01, -2.05270481e+00,  1.34021640e-01,  2.57325983e+00,  1.01616438e-02,
    -8.82951856e-01,  1.24939954e+00,  2.49239230e+00,  1.73154247e+00,  3.80294633e+00,  2.95609617e+00,  1.84413517e+00,  4.57164317e-01,
    -1.33210647e+00, -2.36985135e+00,  2.70291305e+00,  4.36945772e+00,  1.54929888e+00,  2.46153951e+00,  4.42357254e+00,  1.81825951e-01,
     7.27713168e-01,  4.02045250e-01,  2.30810475e+00,  8.20990562e-01,  3.09310883e-01, -4.59301114e-01,  2.09956217e+00, -8.65094364e-01,
    -2.53704119e+00,  1.44671595e+00,  1.92253101e+00,  3.57347488e+00,  3.09325385e+00, -1.80181134e+00,  1.66305661e+00,  7.66695380e-01,
     1.11213791e+00,  2.43194774e-02,  4.54052544e+00,  3.29433918e+00,  1.04065156e+00,  1.16326511e+00, -3.02978134e+00,  2.03366089e+00},
   { 3.97280908e+00, -1.31870425e+00,  3.86530869e-02,  5.68561077e-01,  2.13085413e+00,  4.45971847e-01, -1.95985782e+00, -1.68495619e+00,
    -2.01292381e-01, -5.10228463e-02,  1.31561971e+00, -1.76971829e+00, -6.25456631e-01,  2.82715607e+00, -2.94845319e+00, -2.52304673e+00,
    -2.28547335e+00, -7.80309558e-01,  3.27324486e+00, -2.25053623e-01, -8.79594564e-01,  4.94659454e-01,  1.95548522e+00,  3.36148548e+00,
     2.08222580e+00, -2.94071198e+00, -3.61964583e+00,  3.35361123e-01,  4.98474169e+00, -2.36260843e+00, -1.22322166e+00,  2.78984928e+00,
     2.53624678e-01, -5.07575417e+00,  7.87828565e-01, -5.39755285e-01, -1.29248226e+00,  1.48261392e+00, -2.00985026e+00, -2.40736341e+00,
    -2.98713803e+00,  4.48222637e+00, -2.20074964e+00, -1.28486443e+00,  2.88491893e+00,  6.11053705e-01,  4.27040190e-01, -3.24219275e+00,
    -7.82526493e-01, -1.09242164e-01,  2.01101208e+00, -4.29496717e+00, -2.11373615e+00, -3.54348183e+00, -6.62782907e-01, -1.12011087e+00,
    -8.39643598e-01,  2.33830547e+00, -8.89118731e-01, -1.44886911e+00,  1.66003311e+00, -3.45763421e+00,  6.56665146e-01, -1.70034993e+00},
   { 2.25771844e-01,  1.33764172e+00, -3.05261072e-02,  1.09819007e+00,  6.82079971e-01,  1.18156958e+00, -3.27029943e-01,  2.88924903e-01,
     1.27845660e-01,  1.81802893e+00, -7.62374938e-01, -1.31649876e+00,  1.98371148e+00, -3.66850644e-01, -1.51483133e-01, -3.98439002e+00,
    -1.98833418e+00, -3.82689190e+00,  2.68305349e+00,  3.07226181e+00,  4.03329277e+00, -1.17775297e+00, -2.15865278e+00,  4.89281797e+00,
    -6.34332955e-01, -1.67762494e+00, -1.66910732e+00, -7.00328946e-01,  2.94255018e+00,  6.91003799e-01, -5.45418167e+00,  3.73688817e+00,
     3.25802422e+00,  1.33716571e+00,  4.15137738e-01,  3.60215098e-01, -1.98265111e+00,  1.03566837e+00,  4.89442408e-01, -3.78474998e+00,
    -1.86654127e+00,  2.69150108e-01, -8.58705267e-02, -5.41878998e-01,  1.04851693e-01,  1.84596133e+00,  1.08179331e+00,  3.68367076e+00,
    -1.09288204e+00, -3.79143786e+00,  2.38559389e+00, -2.87268686e+00,  2.45540476e+00, -4.73174238e+00, -4.63273287e+00, -4.68413353e+00,
    -3.18732834e+00,  8.48734796e-01, -4.28965569e+00,  3.59440506e-01,  1.13661087e+00, -3.84014070e-01,  1.88606548e+00, -1.05978084e+00},
   { 4.82840240e-01, -1.76427126e+00, -1.15722740e+00,  1.09284914e+00,  2.00539684e+00,  1.77388883e+00, -2.05710903e-01,  4.42905813e-01,
     2.20928341e-01, -4.52464342e+00,  5.05644977e-01, -2.09645748e+00, -2.28277922e-01,  2.10360289e+00,  8.59986395e-02, -1.58371377e+00,
     1.22459114e+00,  3.27174950e+00, -2.41776347e-01, -2.01747441e+00, -1.28649831e+00,  4.71623033e-01,  6.46731734e-01, -7.98955917e-01,
    -3.44539380e+00,  2.66392970e+00,  2.13908648e+00,  1.57545829e+00,  9.70469296e-01,  8.44057083e-01, -5.45144007e-02,  2.75940800e+00,
    -1.00174165e+00, -2.63238120e+00,  6.11875892e-01, -4.60200667e-01,  2.72727042e-01, -3.49248230e-01,  3.85827971e+00,  1.29243731e+00,
    -1.34792566e+00,  1.98523223e+00,  2.26927012e-01, -1.53269148e+00,  4.22953558e+00, -1.00965166e+00,  9.77266252e-01, -2.80733299e+00,
    -1.08051002e+00, -2.82820797e+00,  2.26012063e+00,  1.11966121e+00, -1.48069966e+00,  9.99591708e-01,  2.46569425e-01, -2.11472416e+00,
    -2.81249821e-01, -3.55315542e+00,  1.66775334e+00,  2.27659035e+00,  8.08544517e-01,  6.20876193e-01, -4.64971572e-01,  1.58753824e+00},
   { 6.21077955e-01,  8.14762294e-01,  3.90972644e-01, -1.13725400e+00,  6.03223383e-01,  1.46928161e-01,  1.22266495e+00, -6.25578225e-01,
     9.37368631e-01, -8.33290517e-01,  1.93734717e+00,  1.62136340e+00, -6.84680700e-01, -8.45430970e-01,  1.74014187e+00,  3.01658177e+00,
    -1.90881693e+00,  7.24581480e-01,  8.75960052e-01,  1.49294949e+00,  5.79362273e-01, -2.32503700e+00, -1.97400212e+00,  1.29158604e+00,
    -2.59699273e+00,  1.05951560e+00, -9.40562069e-01, -3.58837932e-01,  1.08215523e+00, -2.43002295e+00,  1.43505239e+00,  2.59883702e-01,
     7.05020010e-01, -3.16740036e-01, -2.61529350e+00, -2.27680111e+00,  5.72176039e-01,  1.14441395e-01, -9.88854647e-01,  1.34590137e+00,
     7.49603510e-01, -4.46257293e-02, -2.44886875e+00,  6.13445401e-01, -1.60060060e+00, -4.36721832e-01,  1.10457265e+00, -3.53278816e-01,
     1.21676564e+00,  1.51934779e+00, -6.92358494e-01,  5.56188917e+00, -2.89024830e+00, -1.82487893e+00,  6.45431936e-01,  1.69880956e-01,
     5.81275821e-01,  6.60972536e-01,  7.11015880e-01, -4.40386117e-01, -1.79920197e+00,  1.70932102e+00, -1.31664610e+00, -2.31386518e+00},
   { 4.20248127e+00,  2.30175829e+00,  2.21928072e+00,  3.07200241e+00,  2.92436099e+00, -1.59835947e+00,  2.09481921e-02, -3.06765646e-01,
    -1.95965421e+00,  1.40693855e+00, -5.53387761e-01,  5.64772546e-01,  2.00441623e+00, -1.39662743e+00, -2.12843871e+00,  5.54959178e-02,
     9.75764617e-02,  3.03581047e+00, -3.23053449e-01, -2.77779579e-01, -1.51527727e+00, -9.12239552e-01,  2.02830601e+00,  1.04964125e+00,
     1.67951971e-01,  4.25362475e-02,  1.67318404e+00,  9.43902805e-02,  1.26426125e+00,  6.79070950e-01, -6.13109767e-01,  1.04114366e+00,
     6.55803859e-01, -1.25289547e+00, -1.76115143e+00,  6.71751976e-01,  1.18820715e+00,  2.77605581e+00,  2.85650343e-01, -4.05716568e-01,
     1.10068905e+00,  3.66776776e+00, -3.97792578e+00,  1.29541206e+00, -1.29994050e-01, -6.73179567e-01,  1.15380430e+00, -1.77285874e+00,
     2.22138906e+00,  1.33919775e-01, -1.20765066e+00,  1.14005113e+00,  1.64442587e+00, -1.68834770e+00, -1.33559871e+00, -2.91493392e+00,
     1.32745743e+00,  3.56424999e+00, -2.76370001e+00, -1.17433155e+00, -2.42306627e-02,  3.39644599e+00, -7.57947862e-02, -5.25013149e-01},
   { 3.32552695e+00, -2.12016344e+00, -2.83574557e+00,  3.17409110e+00,  2.92157054e+00, -1.52028811e+00,  1.28203559e+00,  1.72438014e+00,
    -5.23647547e+00,  1.33490562e+00,  1.06997085e+00, -4.00307834e-01,  7.70836532e-01, -7.30481982e-01,  6.55101657e-01,  2.35569882e+00,
     2.86151242e+00,  2.76893467e-01,  1.48237979e+00, -1.89572191e+00, -6.06426656e-01, -1.23227262e+00,  2.60569906e+00,  1.91064441e+00,
    -1.34159350e+00,  1.78584433e+00,  4.97846723e-01, -1.96570504e+00,  4.36238855e-01,  2.27305555e+00, -8.14226031e-01,  2.90665889e+00,
     3.46824408e+00, -5.68801880e-01, -2.86006868e-01,  2.43526840e+00, -1.37292683e+00, -1.21617889e+00, -5.60391784e-01,  2.06743717e+00,
     1.88641489e-01,  4.78640985e+00,  4.04407121e-02, -1.55047894e+00,  6.83508098e-01, -1.75923431e+00, -8.40322971e-01,  3.66417840e-02,
     2.50117421e+00,  2.05852032e+00, -4.16155767e+00,  4.86839914e+00,  1.61326826e+00,  9.90543514e-03, -9.07892883e-02, -4.40572929e+00,
     4.14716661e-01,  1.45281419e-01, -2.78075409e+00, -2.89225841e+00,  2.00352326e-01,  1.98940563e+00,  1.02923071e+00,  1.93284005e-01},
   { 2.07253957e+00, -4.89731610e-01, -3.13520849e-01,  1.86082137e+00, -1.24740243e+00,  3.21203876e+00,  2.51254892e+00, -2.65439034e-01,
    -1.99431926e-01,  2.55124593e+00,  5.56721687e-01,  8.45479012e-01, -1.78032398e+00,  3.82203364e+00, -1.84535909e+00,  9.19457793e-01,
     2.00926900e+00, -1.34038150e-01,  1.92931902e+00,  1.67741263e+00,  2.70465922e+00, -2.11161509e-01, -6.79045677e-01,  8.43411446e-01,
     7.68191934e-01,  1.88831472e+00,  2.42668104e+00, -3.23333120e+00,  1.77907634e+00,  2.98948455e+00,  9.41780150e-01,  3.54526901e+00,
     1.26731086e+00,  2.96388245e+00, -1.72262967e-01,  2.15058661e+00,  1.27725279e+00,  4.74657416e-01,  7.81000078e-01,  2.88760573e-01,
     8.23755324e-01,  1.39547586e+00,  7.80870378e-01, -2.76444227e-01, -7.07941771e-01, -2.19280314e+00, -2.89383531e-01,  2.01426554e+00,
     5.08169055e-01,  1.47714591e+00,  4.52446556e+00, -8.64303410e-01,  1.80385768e+00,  3.87168527e-01,  1.18792999e+00, -1.34040558e+00,
     1.86658370e+00, -2.89138198e-01,  4.98018324e-01, -1.88783574e+00,  8.28432366e-02,  1.11910188e+00,  4.32468504e-01,  1.35175264e+00},
   {-2.38451600e+00,  2.18685246e+00,  1.48585892e+00, -3.01754427e+00,  2.92081565e-01, -1.28647423e+00, -2.60227203e+00, -8.23495686e-02,
     1.45389640e+00, -3.87424517e+00, -6.72674656e-01,  9.35915411e-01, -1.97603655e+00, -2.32392454e+00,  9.04978871e-01, -9.70236734e-02,
     1.98020947e+00,  4.00317955e+00, -3.44599652e+00, -3.50361967e+00, -4.53465366e+00, -4.59557247e+00,  1.98112583e+00, -4.76798201e+00,
    -5.69838905e+00,  2.73272848e+00, -1.43944061e+00,  1.10584915e-01, -4.88943481e+00, -1.08949125e+00,  1.54194355e+00, -3.86132455e+00,
    -1.26223707e+00, -2.09961271e+00, -2.92943925e-01,  2.58853227e-01,  1.75212550e+00,  1.36711001e+00,  1.29571289e-01,  5.57564116e+00,
     1.55361700e+00, -1.39591253e+00,  3.25610971e+00,  2.27977157e+00, -1.65452659e+00, -2.27340341e+00,  1.88994133e+00, -3.27713156e+00,
     1.49617955e-01,  4.72985208e-01, -3.47491773e-03,  2.76402211e+00, -1.05828023e+00,  4.39916325e+00,  2.63870192e+00,  2.44694662e+00,
     1.25239038e+00, -3.52293205e+00,  2.96776867e+00, -1.08286667e+00, -2.06651878e+00,  2.01771569e+00, -1.65446258e+00,  1.67621803e+00},
   { 2.30234599e+00, -4.51715559e-01,  1.51783514e+00, -1.76652050e+00,  1.83068597e+00, -3.04105461e-01,  6.67767078e-02, -7.47358382e-01,
    -1.42107934e-01, -1.78858709e+00, -4.53997195e-01, -1.81179857e+00, -6.72090948e-01, -4.03769851e-01, -2.57049620e-01, -1.99591649e+00,
    -1.58833897e+00, -1.28282344e+00, -1.64288354e+00, -6.28663874e+00, -3.85199237e+00,  2.24524212e+00, -6.59863424e+00, -1.18848217e+00,
    -9.16589916e-01, -1.84525624e-01, -7.98124731e-01, -1.09465075e+00,  2.59125680e-02, -1.42497647e+00, -2.38129854e+00, -1.23193872e+00,
    -2.25612235e+00, -3.46383071e+00, -1.10122371e+00, -1.02537572e+00, -1.41178417e+00,  9.88630056e-01, -2.89120942e-01,  1.11135125e+00,
    -1.07055867e+00,  1.62195420e+00, -5.71126789e-02,  1.92504704e-01,  1.40868950e+00, -2.12964129e+00,  3.11018676e-01, -3.82349253e+00,
     1.29381329e-01, -2.92547083e+00, -1.51111454e-01, -1.58163202e+00,  1.98513433e-01, -4.43722916e+00, -1.21031344e+00, -2.18829617e-01,
    -2.05701423e+00, -2.22131938e-01,  7.71743238e-01, -3.00859213e+00,  1.94093406e+00, -2.53085792e-01, -3.26046973e-01,  4.17686820e-01},
   { 1.20916009e-01,  9.90077019e-01,  8.98146570e-01, -3.84545255e+00, -5.32822895e+00,  5.28026640e-01, -2.06954598e+00, -2.55087703e-01,
     1.87976432e+00, -2.51540971e+00, -5.38660645e-01,  5.34612358e-01, -2.94822502e+00,  1.11309612e+00,  3.86339760e+00,  1.38070703e+00,
     1.37796044e+00,  2.20712662e+00, -2.63271284e+00, -3.98356867e+00, -2.94449997e+00, -1.10916400e+00,  2.07885170e+00, -2.28859472e+00,
     9.35153544e-01, -2.19472122e+00, -1.42140925e+00,  7.55127132e-01,  6.56586707e-01, -1.44409382e+00,  4.05797911e+00,  1.70897532e+00,
    -3.31398916e+00, -2.81211168e-01, -9.69134808e-01,  4.88835871e-01,  2.43314528e+00,  3.22009969e+00, -5.00579596e-01, -6.15783119e+00,
     2.57765293e+00, -5.09993792e+00, -1.02444756e+00,  2.00014162e+00, -2.59141183e+00,  1.46030635e-01,  2.45146918e+00, -3.38397455e+00,
    -4.61017489e-01,  3.27402854e+00,  2.29456108e-02, -1.77903867e+00, -3.40359569e+00,  6.11050904e-01,  2.33728695e+00,  8.39490294e-01,
     3.53373837e+00, -7.80505955e-01, -1.98817205e+00,  2.29239702e+00, -2.30416059e+00, -2.05554795e+00, -2.32715964e+00,  6.00340903e-01},
   { 2.32533026e+00, -2.75181472e-01,  9.59840059e-01, -3.40858214e-02, -2.86143970e+00,  6.10879660e-01, -6.02935553e-01, -4.03213710e-01,
     8.23385477e-01,  3.39114690e+00,  3.92462635e+00,  2.75001913e-01, -3.50472951e+00,  3.21398902e+00,  1.49066758e+00, -7.04372749e-02,
     1.62572050e+00, -3.00745368e-01, -3.70147407e-01, -7.52517998e-01,  1.70259759e-01,  2.31884074e+00,  1.63449180e+00, -1.33267307e+00,
    -1.86800694e+00, -1.44658113e+00,  2.44965696e+00, -1.64687574e+00,  1.29184759e+00,  4.28548455e-01,  5.58088839e-01,  9.00625467e-01,
    -8.84146765e-02, -3.34309411e+00,  3.61268592e+00,  1.76331210e+00, -9.54158664e-01, -2.90225923e-01,  8.25712740e-01,  9.62710202e-01,
    -6.66318059e-01, -1.11907208e+00,  2.85861921e+00, -9.73824561e-01,  2.76284456e-01,  5.44251055e-02, -4.58714217e-01, -6.52061522e-01,
    -1.50259113e+00,  2.23078203e+00,  2.76652956e+00, -1.73238114e-01,  5.54494202e-01,  1.70124006e+00,  1.17010593e+00,  9.17859316e-01,
     5.16607821e-01,  1.30055204e-01,  4.74631929e+00, -1.10546517e+00,  2.62335396e+00, -3.01996040e+00, -5.78254700e-01,  6.92254484e-01},
   { 2.50105405e+00,  3.35264444e+00,  2.60766196e+00,  2.29638889e-01,  1.11583519e+00, -9.85912979e-01, -4.93396610e-01,  2.15368837e-01,
     1.40234447e+00, -3.52352977e+00, -1.84140790e+00,  1.09252644e+00, -1.89524427e-01,  2.63838625e+00, -2.00452733e+00, -4.57917333e-01,
     3.79935908e+00,  2.72853661e+00, -2.03662848e+00, -1.12432098e+00, -8.00170183e-01,  2.63275075e+00,  2.06599742e-01,  5.58586001e-01,
    -4.46350336e+00,  3.03786731e+00,  4.00301397e-01, -8.27857018e-01, -8.25194120e-01,  9.35017109e-01,  5.28381705e-01,  7.49795139e-01,
    -2.25527361e-01, -1.70574057e+00, -2.97035861e+00,  1.32704210e+00,  2.36799574e+00,  2.62713957e+00,  2.16712284e+00,  1.30886197e+00,
     1.28893125e+00,  6.37928963e-01,  3.44152188e+00,  2.57752681e+00,  4.47863638e-01, -4.26780224e-01,  2.18790936e+00, -2.22824979e+00,
     6.65814459e-01, -1.97325444e+00,  2.71917391e+00,  7.47367740e-01,  3.15115976e+00,  3.25246382e+00,  5.56358218e-01,  1.02948725e+00,
     1.69856504e-01, -5.14416075e+00,  3.23693824e+00,  2.43945539e-01, -9.66010869e-01,  2.05060244e+00,  6.00047410e-01,  2.47879577e+00},
   {-5.47026515e-01,  4.80951786e+00,  5.21257353e+00,  1.14506936e+00,  2.97223043e+00, -4.51231241e-01,  8.89729619e-01,  3.22324777e+00,
    -1.32870495e+00,  1.46425176e+00,  3.26489830e+00,  4.29923266e-01,  1.80495524e+00, -2.03705215e+00, -1.94346905e+00,  1.53457475e+00,
     2.43293953e+00, -8.76656830e-01,  9.41438794e-01, -1.20487666e+00, -3.42940688e-01, -7.90681064e-01,  2.75261378e+00, -2.64912438e+00,
     4.59763557e-01,  3.86179256e+00,  4.81570387e+00,  2.86188579e+00,  7.28630960e-01,  1.82149780e+00, -9.82474014e-02, -2.57270241e+00,
    -2.29742241e+00,  9.91726995e-01,  3.48404646e-01,  1.14673269e+00,  8.09083998e-01,  2.65413213e+00,  4.56872702e+00,  1.40385449e+00,
     1.09850311e+00,  2.03321910e+00,  5.92494440e+00,  2.45656300e+00,  6.39235139e-01,  2.97176099e+00,  1.46637368e+00,  7.66546905e-01,
    -1.10265303e+00, -8.30502391e-01, -2.11520004e+00,  5.95812976e-01,  2.62232184e+00,  3.61514091e+00,  2.67056465e+00,  2.47202349e+00,
     9.11568403e-02, -9.83751059e-01,  1.57762623e+00,  4.59793615e+00, -6.41707480e-01,  3.62202382e+00,  2.34519482e-01,  6.50309265e-01},
   {-1.05210209e+00, -2.28471708e+00, -1.33644640e+00, -2.99225950e+00, -3.95223665e+00,  2.59907174e+00, -2.65978408e+00,  1.16920066e+00,
    -1.62033987e+00,  5.92414558e-01,  1.16366160e+00, -8.05521309e-01, -2.89914393e+00, -3.98598373e-01, -4.24477607e-01,  4.08267640e-02,
     1.54228008e+00, -1.44756532e+00, -5.19267607e+00, -1.03386831e+00,  2.92036720e-02, -2.76234913e+00, -7.44312465e-01,  2.02957058e+00,
     2.78840756e+00, -7.56027758e-01,  2.06688833e+00, -3.14659142e+00,  1.64738393e+00, -1.32574201e+00,  3.77307743e-01,  1.35706878e+00,
    -1.48879921e+00, -7.05669820e-01,  7.44256079e-01, -7.72702880e-03, -1.85268188e+00, -2.45356154e+00,  1.77397251e+00, -4.03561449e+00,
    -6.23142183e-01, -2.45441675e+00,  1.75965059e+00, -3.80776548e+00,  6.03827655e-01, -2.65698016e-01, -1.25576913e+00,  1.53511000e+00,
    -4.51050282e+00,  1.38342798e+00, -2.03705549e-01,  1.68362164e+00,  5.53917944e-01,  2.00873637e+00,  2.07401514e-01, -1.09269512e+00,
    -1.02754101e-01, -2.92158890e+00,  1.88098073e+00,  7.33987808e-01,  2.02068973e+00, -4.73464537e+00, -4.99547511e-01,  9.78747666e-01},
   { 9.23024833e-01, -5.90615906e-02,  2.24673104e+00, -3.50781727e+00, -2.80181956e+00, -1.85026586e-01,  2.18562052e-01, -2.96179986e+00,
    -3.28268856e-01,  3.37311792e+00, -4.78976846e-01, -1.33741868e+00, -1.89865160e+00, -8.09332550e-01,  1.57870877e+00,  1.73582470e+00,
    -1.01037407e+00,  2.11186695e+00,  7.83705175e-01, -1.83490551e+00, -3.98435688e+00, -1.59187174e+00,  3.54985571e+00,  9.63165581e-01,
     1.58765757e+00, -3.36979079e+00, -1.56244230e+00,  1.88316190e+00, -3.45925570e+00, -1.67550600e+00,  1.65680480e+00,  7.18073130e-01,
    -1.68309736e+00, -2.67750335e+00, -3.18948698e+00, -1.59432054e+00, -1.81957349e-01,  2.10190725e+00, -8.09124708e-01, -7.54554510e+00,
     8.70058477e-01, -1.44186771e+00, -3.51906824e+00, -7.56975353e-01, -1.17605656e-01, -9.52031970e-01,  2.20653224e+00, -2.63623667e+00,
    -5.48936903e-01,  2.86744571e+00, -1.89614320e+00,  8.79976869e-01, -4.49486637e+00, -4.19703573e-01,  1.03474379e+00,  9.75195408e-01,
     9.76887465e-01,  2.72490764e+00, -2.75187612e+00,  8.68737400e-01, -3.97240925e+00, -3.53251100e+00, -3.20733356e+00, -7.72051692e-01},
   {-1.48229778e+00,  5.55181682e-01,  8.13347995e-01,  4.36844444e+00,  3.86054605e-01,  3.94411862e-01,  1.32867312e+00, -2.79911995e-01,
    -1.57792091e+00, -3.82164860e+00,  7.77890757e-02, -3.05670762e+00, -1.64340258e+00, -1.65895104e-01,  5.80373585e-01,  1.08976138e+00,
     2.75602055e+00,  2.57305574e+00, -3.70533228e-01, -2.16241312e+00,  6.69109166e-01, -9.78702664e-01,  2.83378458e+00, -1.17384613e-01,
    -1.94416952e+00,  1.86931396e+00,  1.65367317e+00, -1.66347355e-01,  2.43594742e+00,  2.36536473e-01,  2.81086713e-01, -4.48354185e-01,
    -1.10465753e+00, -2.29032218e-01,  2.64178443e+00,  7.05219328e-01,  1.45506954e+00,  2.04138756e+00,  5.03270817e+00, -2.70335764e-01,
    -1.21585339e-01,  1.81550646e+00, -4.50928003e-01,  6.57087207e-01,  1.01593471e+00, -8.01449716e-01,  1.71165943e+00, -3.57049704e-01,
    -1.15662622e+00, -6.65168524e-01, -8.61955285e-02,  2.51811600e+00,  5.53930581e-01,  3.10258961e+00,  1.98236489e+00,  2.16405585e-01,
     1.46846259e+00, -2.44903445e+00, -1.28963566e+00,  4.62402105e+00,  9.21255827e-01,  1.94662988e+00, -5.03140152e-01, -2.17542148e+00},
   {-4.30367082e-01,  5.01604223e+00,  4.73017216e+00, -1.19172394e+00,  5.18337376e-02,  8.04551780e-01,  2.36119890e+00,  2.62048449e-02,
     2.38890123e+00,  4.25714350e+00,  1.89249134e+00,  2.35550356e+00,  2.47773671e+00, -1.46124065e-01, -3.38409972e+00,  2.54586172e+00,
    -1.14753616e+00,  4.87993807e-01, -4.18442376e-02, -1.28709185e+00, -7.80497551e-01, -1.03280926e+00, -1.89443636e+00,  1.78284585e-01,
     1.50823504e-01,  1.84776831e+00,  3.24295282e+00, -8.84993732e-01,  7.48549581e-01, -3.79570603e-01,  5.25494480e+00, -3.63420272e+00,
    -1.60967755e+00,  5.69726706e-01, -3.02284122e+00, -2.54134208e-01,  1.62153256e+00,  1.89290667e+00, -3.70598584e-01, -2.34935474e+00,
     5.15718365e+00, -2.22675586e+00, -1.25245661e-01,  3.14608097e+00, -2.58052063e+00,  1.54004622e+00,  1.80336133e-01, -4.53994423e-02,
     2.95919394e+00, -2.17636138e-01, -8.95596623e-01, -5.61720788e-01, -9.31285918e-01, -6.39487028e-01,  1.13413775e+00,  5.11526537e+00,
     1.48797929e+00,  8.78445625e-01, -1.52534890e+00,  5.78848183e-01, -3.98120284e+00,  1.94337630e+00, -2.24412537e+00,  3.10538387e+00},
   { 5.22366107e-01, -2.41057768e-01,  1.16517889e+00, -4.05720568e+00, -2.74732161e+00, -2.29149580e+00, -1.85818875e+00, -7.70647883e-01,
     1.58602047e+00, -2.30673170e+00, -8.20447624e-01, -1.83929011e-01, -3.42592454e+00, -2.94142812e-01,  3.93507242e+00,  1.56450498e+00,
     1.82508945e+00,  3.96853518e+00, -2.26949549e+00, -3.05452847e+00, -6.33260155e+00,  9.33813989e-01,  2.83239412e+00, -9.73157704e-01,
    -4.48875046e+00,  3.40593457e-01, -1.65408194e+00,  5.08919477e-01,  1.54676020e+00, -1.87903774e+00,  2.11715174e+00, -4.09775639e+00,
    -1.98419821e+00, -2.25446343e+00, -1.55573702e+00,  1.20778307e-01,  7.60787606e-01,  9.59190428e-01,  5.21281123e-01, -1.30141437e+00,
     1.67492807e+00, -2.38129997e+00, -1.19441843e+00,  1.73271880e-01, -2.41251874e+00, -3.45625925e+00,  2.70059752e+00, -3.16510177e+00,
     4.05559719e-01,  2.87757587e+00,  4.18728828e-01,  1.22875500e+00, -1.02786016e+00,  2.23188806e+00,  8.47650111e-01,  3.22537124e-01,
     2.27165675e+00, -1.91396511e+00,  1.55088627e+00,  1.28733087e+00, -1.75817573e+00, -1.73255575e+00, -3.20446730e+00,  1.57265425e+00},
   { 3.00268650e+00, -1.96743226e+00, -1.44397879e+00,  2.96448088e+00,  4.35305977e+00, -1.34867454e+00,  1.44687629e+00,  4.40021187e-01,
    -3.34676266e+00,  6.63430631e-01,  5.52254736e-01, -4.09812003e-01,  9.12081242e-01,  2.52900749e-01,  2.05432177e+00,  4.86853075e+00,
     1.45650163e-01,  1.40895176e+00,  4.44406092e-01, -4.48376328e-01,  5.64855158e-01, -5.27811909e+00,  1.84599626e+00,  4.97677565e+00,
    -1.55921769e+00, -5.59075117e-01, -6.03504956e-01,  7.70244479e-01,  2.31690240e+00,  1.08016801e+00, -3.31031173e-01,  3.36271620e+00,
     8.64444971e-01,  9.58251134e-02, -1.31469116e-01,  9.86064494e-01, -4.28679973e-01, -5.33084631e-01, -2.51233310e-01,  1.38261378e+00,
     3.12496185e-01,  3.86132932e+00, -2.44544238e-01, -2.43320179e+00, -1.58287227e-01, -9.90011841e-02, -3.84784006e-02,  9.86375690e-01,
     2.20143676e+00,  1.64246619e+00, -4.23295164e+00,  2.36413264e+00,  2.83419847e-01, -9.25787210e-01,  9.10713136e-01, -1.90209162e+00,
    -7.72022784e-01,  3.16528648e-01, -2.33553743e+00, -5.95185459e-01,  5.65062225e-01,  2.15702295e+00,  1.43153691e+00, -9.53986526e-01},
   { 2.09921122e+00,  2.84752965e+00,  1.53466749e+00, -6.33195698e-01,  7.63608634e-01, -1.31070495e+00,  1.25967121e+00,  7.39214301e-01,
    -9.06151354e-01, -9.53802824e-01,  9.71670628e-01,  1.95192122e+00,  3.51249784e-01,  1.16579616e+00,  2.20602536e+00,  2.26824141e+00,
    -1.81579626e+00, -6.95285082e-01,  8.36809695e-01, -1.61203229e+00, -9.76224959e-01, -5.94005883e-01,  8.06476176e-01,  3.04326940e+00,
     3.57498932e+00, -7.70169914e-01,  1.48293436e+00, -5.86364716e-02,  3.02411222e+00, -2.03316879e+00,  1.01201248e+00,  1.42144048e+00,
    -2.66780376e+00, -2.38153443e-01, -3.23330194e-01, -9.39732790e-01,  1.16938138e+00,  1.46923602e+00, -5.81054628e-01, -4.53419304e+00,
     2.33245945e+00,  2.04100370e+00, -1.52837074e+00,  2.53210497e+00, -2.88335538e+00,  2.07000709e+00,  5.79085171e-01,  2.33188823e-01,
     3.08536625e+00, -1.37532330e+00,  6.20223045e-01, -2.47746348e+00,  1.16033815e-02, -2.68810987e-01,  2.37660933e+00,  1.77085710e+00,
     1.61205697e+00,  3.12996387e+00, -1.92905819e+00, -2.81677771e+00, -4.80894465e-03,  5.64212799e-01,  1.93983972e-01, -1.17085195e+00},
   {-8.55643690e-01,  1.35182828e-01,  2.47278857e+00,  1.59859920e+00, -8.18059146e-01, -2.09504724e+00, -2.15716124e+00,  5.52836418e-01,
    -4.63684034e+00,  2.36924243e+00,  3.29652953e+00, -2.70132041e+00, -1.09640825e+00,  5.67101408e-03,  2.43726182e+00,  1.83851576e+00,
     2.17356753e+00,  1.86101794e-01,  1.54857254e+00,  1.25398946e+00,  6.04280829e-01, -3.68328476e+00,  2.22287536e+00, -6.72128618e-01,
     2.64576983e+00, -1.15953743e+00,  1.57871485e+00,  1.11118472e+00,  6.45040703e+00,  8.40422750e-01, -1.63935721e+00,  1.92609215e+00,
     7.56091118e-01, -2.43970084e+00, -2.01149082e+00,  3.47951770e-01, -9.19489503e-01,  1.26537597e+00,  2.95794630e+00, -1.71804821e+00,
    -2.15838289e+00,  2.84420776e+00, -6.41131923e-02,  6.04370534e-02,  2.41161442e+00, -5.72317302e-01,  7.83446133e-01, -1.36931098e+00,
    -2.80509090e+00,  1.19645762e+00, -1.89886451e+00,  1.05238867e+00,  4.17919815e-01,  1.59666747e-01,  1.19451678e+00, -1.32773125e+00,
     9.28395838e-02, -1.08021343e+00,  1.14945078e+00, -7.25771248e-01,  3.63790751e+00, -2.08678320e-01, -6.33931279e-01, -1.86418629e+00},
   { 1.53103065e+00,  1.47670126e+00,  1.76035082e+00,  1.93767929e+00,  1.74548888e+00, -1.04873610e+00,  1.00624725e-01,  1.09666228e+00,
     1.48278189e+00, -1.46702373e+00,  6.70687914e-01, -3.21178615e-01,  1.58750921e-01,  3.20269275e+00,  1.79539073e+00, -1.16595769e+00,
    -6.20945133e-02,  1.73896149e-01, -2.30987334e+00, -2.13298702e+00,  6.82095826e-01,  2.70427132e+00,  1.30895305e+00, -8.39928538e-03,
     1.28882110e+00,  2.05237174e+00,  1.22939658e+00, -2.55004549e+00,  6.84937909e-02,  1.42486989e-01, -1.81655049e+00,  1.99741328e+00,
     1.92429855e-01,  6.99396253e-01,  5.42471528e-01, -1.10556495e+00, -1.09333289e+00,  3.25387359e-01,  2.65395188e+00,  1.81071198e+00,
    -1.78233743e+00, -6.88240767e-01,  4.66123295e+00,  2.27034020e+00,  1.31691432e+00,  4.48812574e-01,  2.20051825e-01, -1.85968924e+00,
    -1.33876944e+00, -2.37967300e+00,  2.57863736e+00, -4.24153805e+00,  2.69324732e+00, -1.23925138e+00, -1.42485118e+00, -5.41829646e-01,
    -2.62603569e+00, -7.45791435e+00,  5.49233556e-01, -1.25589943e+00,  1.81959105e+00,  1.73372078e+00,  1.55355597e+00, -2.37116528e+00},
   { 7.74921477e-02,  2.01756334e+00,  1.72023201e+00,  3.96005780e-01, -1.39338553e+00, -3.29674520e-02, -3.03723011e-02, -8.34935367e-01,
    -1.81216206e-02,  2.82161474e+00, -2.43767214e+00,  1.55780816e+00,  4.78330851e-01, -2.36506034e-02,  9.23386157e-01,  3.77135038e+00,
    -3.51326060e+00, -2.62009144e+00,  2.13942838e+00,  2.11265421e+00,  1.82394660e+00, -3.15352702e+00, -5.99920392e-01, -3.07530612e-01,
    -7.89872169e-01,  1.51332512e-01, -4.78318095e-01, -3.49290776e+00,  6.21595263e-01,  1.99788049e-01, -6.37329102e-01, -1.73333025e+00,
     1.44376075e+00,  1.19288392e-01, -1.86717355e+00,  2.82266498e+00, -4.81311131e+00,  1.19027615e+00, -1.01015911e-01,  1.14762962e-01,
     4.81569678e-01, -1.31103873e+00,  7.11434424e-01, -6.09611809e-01, -8.10141623e-01,  1.54530632e+00,  2.04267550e+00,  2.24157214e-01,
     4.96810168e-01, -1.89984035e+00, -1.55657160e+00, -6.96995080e-01,  3.45980239e+00, -2.58061862e+00,  2.31744289e+00,  2.10399413e+00,
    -1.14596868e+00,  2.69415450e+00, -7.18113124e-01, -2.29112244e+00, -4.56620485e-01,  3.54222476e-01,  1.84267330e+00, -4.46689665e-01},
   {-7.74172425e-01, -1.34402323e+00,  1.61553609e+00, -8.95054102e-01,  5.72963357e-01, -9.78586078e-01, -1.94131327e+00,  1.53013784e-02,
     1.80172825e+00,  3.66984987e+00, -6.43333673e-01,  8.68531883e-01,  1.91912389e+00, -5.42917848e-01,  4.90258694e-01,  5.13055658e+00,
    -2.11888528e+00, -3.32608271e+00,  9.64164317e-01, -1.82078516e+00, -3.97003436e+00, -2.78147697e+00,  2.05259427e-01, -1.55275571e+00,
    -7.26437390e-01,  1.18460119e+00,  5.18760502e-01, -6.54433787e-01, -1.13375533e+00, -2.23970199e+00,  1.12586498e+00, -1.97247410e+00,
     1.82481170e+00, -3.98338723e+00, -2.69251418e+00,  4.49534798e+00, -6.28314614e-01, -1.60404706e+00,  2.09761262e+00,  4.80609149e-01,
     3.32887530e+00, -1.76957452e+00,  1.34341574e+00, -3.23194504e+00, -2.23007512e+00,  8.09053957e-01,  1.03044617e+00, -3.30289650e+00,
     2.76573032e-01, -3.45404416e-01, -9.45300579e-01,  2.19410747e-01,  1.22218692e+00, -3.32340097e+00,  1.90198076e+00,  3.54190516e+00,
    -2.00338054e+00,  2.56601024e+00,  4.99123484e-01,  7.69839168e-01, -2.22494221e+00,  7.25930452e-01,  1.44296587e+00,  4.39950854e-01},
   {-1.12761760e+00,  3.05434704e+00,  3.84076834e+00,  3.37296033e+00,  1.51954937e+00,  1.91755962e+00,  2.23021650e+00, -2.42381167e+00,
    -1.33389866e+00, -1.88371253e+00,  1.38080940e-01, -5.05833030e-01,  3.07792902e-01, -1.37075222e+00, -4.68045026e-01,  1.95326298e-01,
    -1.60271168e+00,  3.15618873e-01,  7.68330276e-01, -1.11313891e+00,  4.61574011e-02, -1.00769913e+00,  3.17057824e+00, -1.64526772e+00,
     2.13356686e+00, -1.33026946e+00,  2.58581948e+00,  1.43819320e+00,  4.35375166e+00, -2.57090855e+00, -2.23824453e+00, -3.80125356e+00,
    -2.41666651e+00,  6.84808612e-01,  1.77909219e+00, -9.88168895e-01, -2.81620383e-01,  1.55651402e+00,  1.04698813e+00,  1.28640783e+00,
    -1.50949633e+00,  3.72934556e+00,  3.86225605e+00,  1.35812521e+00,  2.72823429e+00,  1.99864662e+00,  1.49870050e+00,  6.21632785e-02,
    -1.31265378e+00, -2.75517917e+00, -3.66734838e+00, -3.31976247e+00, -1.76295745e+00,  1.52404654e+00,  1.81263566e+00, -3.58958513e-01,
    -9.68532339e-02, -4.99365181e-01,  3.03700596e-01,  1.88000548e+00,  9.58976984e-01,  8.66899252e-01, -5.99120021e-01, -3.09759212e+00},
   { 5.21607578e-01, -7.98627853e-01, -1.26821816e+00,  1.62575603e+00,  5.32267570e+00, -3.88822138e-01,  8.42398345e-01,  1.61639357e+00,
    -1.16830134e+00, -1.46699369e+00, -1.95333317e-01, -1.03152084e+00,  2.38323641e+00, -4.27123785e-01, -1.43486524e+00, -1.79461181e+00,
     4.64163631e-01, -1.07640052e+00,  6.62322283e-01,  1.22041285e+00,  1.79859459e+00, -1.47983938e-01, -1.63047385e+00,  1.64694321e+00,
    -3.48341036e+00,  7.91974306e-01,  1.98926687e+00,  2.17927530e-01,  2.17162743e-01,  7.70807147e-01, -2.94835329e+00,  2.15549543e-02,
     1.95139015e+00, -3.62065345e-01, -4.14836109e-02, -3.89137655e-01, -2.30053353e+00, -1.91157830e+00,  1.60667479e+00, -1.56112719e+00,
    -2.97645593e+00,  4.67081499e+00,  2.02283764e+00, -1.66680729e+00,  2.37055326e+00,  2.08171868e+00, -1.32944858e+00,  6.22780144e-01,
     2.83353233e+00, -4.07537317e+00, -1.03161752e+00, -1.17731261e+00,  9.88302454e-02,  7.45617211e-01, -2.27306581e+00, -1.28767896e+00,
    -1.91864407e+00, -2.25048256e+00, -1.17144215e+00,  1.04668200e+00,  9.00757760e-02,  2.18631673e+00,  2.72358513e+00, -1.63119888e+00},
   { 7.15644121e-01,  1.40414643e+00, -1.20760977e+00, -1.04183182e-01,  6.21763878e-02, -1.15905738e+00, -2.18610451e-01,  6.70431077e-01,
    -1.16938126e+00,  2.35293150e-01, -2.18127584e+00,  1.92958820e+00,  4.88815397e-01, -2.45135951e+00, -2.92606354e-01,  3.71472836e+00,
    -2.74139953e+00, -4.19885397e+00,  1.31597924e+00,  5.67539334e-01,  4.09987307e+00, -1.86598837e+00,  9.25265610e-01,  2.37564540e+00,
    -6.92926466e-01, -6.28788769e-01,  1.15919280e+00, -2.70581555e+00,  1.07066810e+00,  1.64313361e-01, -3.95310712e+00,  1.48285449e+00,
     1.66041553e-01,  2.67219877e+00, -2.97265220e+00,  9.30213213e-01,  3.71368468e-01,  1.73460102e+00,  5.34821987e-01, -2.73418665e+00,
    -2.04831004e+00, -6.59469962e-01, -1.29560018e+00,  1.20647264e+00, -2.40186167e+00,  1.87175110e-01,  1.38579690e+00,  1.93044281e+00,
     1.41428661e+00, -3.04861379e+00, -1.85781419e+00, -2.03968358e+00,  2.10399604e+00, -4.87231404e-01, -3.09329295e+00, -1.09853303e+00,
    -1.05036843e+00,  1.58886504e+00, -3.81805682e+00, -8.97885740e-01, -1.11412215e+00,  9.34499443e-01,  1.73141390e-01, -9.51751649e-01},
   { 5.84893084e+00, -4.43297178e-02,  1.02982020e+00, -7.03516126e-01, -2.47937894e+00, -9.99480903e-01, -3.28853536e+00, -2.13230968e+00,
    -2.41265345e+00, -1.14805663e+00, -1.42157698e+00,  1.47208703e+00, -2.14437771e+00, -1.59341311e+00,  7.48312771e-02, -1.46453869e+00,
    -2.19692349e+00, -5.77738166e-01, -2.47034669e+00, -2.64482546e+00, -1.65695417e+00,  2.91547370e+00,  3.23087883e+00,  4.26154232e+00,
     8.19688261e-01, -1.96635151e+00, -1.76702476e+00,  1.58191299e+00, -2.26954952e-01, -1.61753964e+00, -1.30390748e-01,  2.97841716e+00,
    -1.87269545e+00, -2.20970273e+00, -5.80738366e-01, -2.99980235e+00,  5.21637261e-01,  1.33308506e+00,  4.66442913e-01, -1.03746593e+00,
    -6.71031356e-01, -1.67900670e+00, -9.86809492e-01,  5.89628935e-01,  2.52115893e+00, -4.87834960e-01,  1.60034263e+00, -1.79821801e+00,
    -5.55251479e-01,  1.22992635e+00, -1.04427886e+00, -2.66026449e+00, -3.58218640e-01,  2.06910348e+00, -2.92615414e-01, -1.34128940e+00,
     6.54581308e-01,  3.96357918e+00,  2.42643684e-01, -5.91010451e-01,  1.26256466e+00, -2.41617703e+00, -9.39238727e-01, -5.73612034e-01},
   { 3.58619571e-01,  3.02418709e+00,  3.35316372e+00,  6.54874682e-01,  1.28708684e+00,  7.94273913e-02,  2.82360816e+00,  1.37125298e-01,
     4.17007017e+00,  3.25937122e-01, -3.07507634e-01,  1.02119565e+00,  7.31408298e-01,  3.51833999e-01,  9.02436018e-01,  1.95562196e+00,
     2.78032362e-01, -1.90807223e-01, -7.08372653e-01, -7.15856075e-01, -5.47671139e-01,  1.38206959e-01, -2.47629762e-01,  1.65509748e+00,
     1.69417560e-01,  7.85654247e-01,  2.99088180e-01, -1.65624857e-01,  2.13928032e+00,  9.20176804e-02, -3.72627497e-01,  1.10875130e-01,
    -1.48566797e-01,  3.61792624e-01,  3.58338803e-01, -1.34602427e-01,  4.70128506e-01,  1.40325975e+00,  6.55350327e-01,  3.21787572e+00,
     2.84318775e-01, -1.58120081e-01,  5.01273930e-01,  6.18652463e-01,  6.43461466e-01,  2.00388765e+00,  1.58566463e+00,  3.23971242e-01,
    -1.83637619e+00, -1.25925314e+00, -4.20488954e-01, -1.95813000e+00,  1.42425442e+00,  8.36148500e-01, -3.08676418e-02,  9.48236287e-01,
    -5.48738599e-01, -4.71841669e+00,  2.10113668e+00,  4.24687237e-01, -1.83706355e+00,  1.01377249e+00,  1.55560839e+00,  1.29081234e-01},
   {-3.13037336e-01,  5.18691349e+00,  3.75651503e+00, -1.28455782e+00,  1.84600329e+00, -1.92200661e+00, -1.53568828e+00,  2.27210140e+00,
     1.33259070e+00,  2.66861844e+00,  2.40579104e+00,  6.16508901e-01,  2.45774460e+00, -7.72867560e-01, -4.38205034e-01,  3.20528531e+00,
    -2.58308077e+00, -1.01316500e+00,  9.21237171e-01, -1.39544010e+00, -3.99178505e+00, -3.10892367e+00, -4.31852311e-01, -3.19475293e+00,
     4.38539982e-01,  1.28718674e+00,  1.28610766e+00,  1.67885232e+00, -1.41253662e+00, -3.01031685e+00,  2.28872466e+00, -5.24486923e+00,
    -5.80109835e-01, -4.91685295e+00,  3.81803870e-01, -8.54303062e-01,  1.79632032e+00,  2.87213850e+00, -6.59503341e-01,  1.38041139e+00,
     4.14626884e+00,  5.01858354e-01,  5.43529570e-01, -2.31419778e+00, -3.24072886e+00,  3.00401616e+00,  1.24069655e+00, -1.90759861e+00,
     8.10039759e-01, -1.32542861e+00, -2.53859997e+00, -2.07042384e+00, -2.77873963e-01, -1.07861435e+00,  2.29713607e+00,  3.55382442e+00,
    -6.58686578e-01,  3.04453397e+00,  1.36170995e+00,  1.19521332e+00,  9.18221891e-01, -4.08643454e-01, -6.23978376e-01,  1.18160106e-01},
   {-5.91012716e-01,  2.92215347e-01,  1.39603937e+00, -3.34519893e-01, -9.25010622e-01, -3.77613991e-01, -1.10067642e+00, -1.93113521e-01,
     1.99880469e+00, -8.33207905e-01,  2.88151789e+00, -1.25531638e+00, -2.69615936e+00,  1.32422686e+00,  1.84350181e+00, -2.43115354e+00,
     1.80851650e+00,  3.66474771e+00, -8.65316331e-01, -1.40367913e+00, -2.81027937e+00, -1.51390684e+00, -2.47668196e-02, -3.81312490e+00,
     1.87661171e+00,  1.34004247e+00,  8.74718249e-01,  2.41622066e+00, -1.46651721e+00, -6.01092458e-01,  2.21055388e+00, -3.48534679e+00,
    -1.79904437e+00, -1.71656394e+00,  2.55587482e+00,  3.46652150e-01,  8.21622163e-02, -1.65036786e+00,  1.08286333e+00,  4.06151247e+00,
    -9.42842215e-02, -5.78665555e-01,  6.76399767e-01,  1.08845055e+00, -2.01225972e+00, -2.58847117e-01, -2.08129957e-01, -2.36016250e+00,
    -8.58770847e-01,  1.24818909e+00, -2.02885294e+00,  1.15508664e+00, -1.61248839e+00, -5.68353534e-01,  1.27225327e+00,  2.41879034e+00,
     4.43768501e-01, -1.41216254e+00,  5.50020981e+00, -1.00780892e+00,  2.06874919e+00, -3.27181578e+00, -1.54318368e+00,  1.28736055e+00},
   { 3.23027164e-01, -5.72643876e-01, -1.37183428e-01, -2.81664640e-01,  1.48527193e+00, -2.93551832e-01,  7.58050919e-01,  6.71416581e-01,
    -1.52901602e+00,  2.77146363e+00,  2.15737081e+00, -3.94366980e+00, -4.14703578e-01,  4.48929131e-01, -1.78595877e+00,  1.12008703e+00,
     1.01927316e+00,  3.63087833e-01, -7.23662078e-01,  2.01266789e+00,  1.04647839e+00, -4.32709360e+00,  2.35682154e+00,  6.18569314e-01,
     2.59887600e+00, -2.34253931e+00,  2.33696151e+00,  1.74773419e+00,  1.19401002e+00, -1.04679060e+00, -9.43815708e-01, -1.17183125e+00,
     1.43100858e+00, -9.75594759e-01,  2.45602059e+00,  1.10363793e+00, -1.34324479e+00, -9.71399248e-01,  2.81678587e-01, -1.04995704e+00,
     8.22196841e-01, -9.79996324e-02,  8.83711815e-01, -1.04171537e-01,  1.50306261e+00, -6.16356373e+00, -1.37571967e+00,  1.14110947e+00,
    -3.82731724e+00,  1.00122082e+00, -6.69632816e+00,  1.86078057e-01, -1.30570042e+00,  4.71368641e-01, -4.79651280e-02, -7.78871119e-01,
    -6.66725159e-01, -1.98317862e+00,  1.42373681e+00, -1.84287477e+00,  2.66289234e+00, -8.81685734e-01,  8.05160165e-01, -8.49019825e-01},
   { 5.88144101e-02, -7.18569279e-01,  3.18296611e-01,  1.00645316e+00,  3.23649168e-01, -1.12679017e+00, -8.96829486e-01, -1.06544518e+00,
     8.40729102e-02,  3.36381793e+00, -1.42678475e+00,  8.67272913e-01,  1.26663268e+00, -3.21448207e-01,  3.43959594e+00,  4.09203339e+00,
    -2.22264361e+00, -2.10610366e+00,  2.12648201e+00,  3.93538386e-01, -2.03909636e+00, -2.10896373e+00, -1.06141376e+00,  1.18662107e+00,
    -1.21339166e+00, -1.34182203e+00, -2.30391407e+00, -1.74789333e+00,  1.14781070e+00, -1.03485537e+00, -4.52141047e-01,  2.77514428e-01,
     4.18495321e+00, -3.67811418e+00, -8.88075650e-01,  9.21076715e-01, -5.30036569e-01,  9.66625631e-01, -2.05898380e+00,  3.03191841e-01,
     3.38699889e+00, -5.19007325e-01, -2.39993736e-01, -3.27470207e+00, -2.66152668e+00,  9.66658652e-01, -3.93976068e+00, -2.87416124e+00,
     1.33588806e-01, -5.33126473e-01,  4.27262872e-01,  1.37267852e+00,  7.21478403e-01, -4.61517668e+00, -6.60055757e-01,  3.27707112e-01,
    -1.52566421e+00,  3.66486669e+00, -7.04776824e-01, -2.10278368e+00, -4.09653306e-01, -3.03686589e-01,  2.59151697e+00, -1.83035862e+00},
   { 2.07876301e+00, -2.46525571e-01, -4.57790881e-01, -1.68434656e+00,  1.23326743e+00, -1.68410051e+00,  1.40881133e+00,  1.09908998e-01,
    -2.61386395e+00,  4.09374857e+00, -3.15909326e-01,  6.19014323e-01, -5.71437240e-01, -2.26269627e+00,  1.60708654e+00,  2.73398995e+00,
     4.72497284e-01,  4.00629312e-01,  1.40333283e+00,  2.03642416e+00, -2.67044115e+00, -4.99200463e-01,  2.16751742e+00,  7.40350425e-01,
     1.12950873e+00, -2.25127324e-01, -1.85525805e-01, -1.10143030e+00,  1.10412025e+00,  6.00989759e-01,  1.11885262e+00,  2.01988864e+00,
     1.35141563e+00,  1.23978384e-01,  1.19249856e+00, -9.83499467e-01,  5.35937488e-01,  1.10451216e-02, -1.94490051e+00, -1.96708870e+00,
     1.19437349e+00,  1.79300475e+00, -1.27751458e+00, -1.08161592e+00, -1.74553394e+00,  1.80393457e+00,  1.12031221e+00, -1.83689880e+00,
     8.24163556e-01,  2.41468668e+00, -1.06892502e+00,  6.47118449e-01,  1.49750257e+00, -1.40978611e+00,  1.21344554e+00,  5.68325818e-01,
     4.28475291e-01, -1.47614479e-01, -1.09202969e+00, -3.79834199e+00,  8.58753681e-01,  7.56253004e-01,  2.57026672e-01, -1.33152023e-01},
   { 3.54341775e-01,  4.11213017e+00,  2.38923240e+00,  9.68404114e-01,  4.63003397e+00, -4.54800665e-01,  8.97448808e-02,  1.00885069e+00,
    -1.97989738e+00, -1.30564320e+00,  1.98972249e+00, -2.20339209e-01,  4.22377300e+00, -2.19878957e-01, -4.47277248e-01, -2.56756425e-01,
     1.02743663e-01,  1.45651662e+00,  3.58028722e+00,  5.25540709e-02, -2.10666940e-01, -1.11229396e+00,  1.05923140e+00, -2.22765833e-01,
    -3.15590739e+00, -9.18658912e-01,  2.61219096e+00,  1.58633977e-01, -3.69333655e-01,  1.51871228e+00,  3.62258673e-01, -1.22607553e+00,
     5.61513484e-01, -9.65219736e-01,  4.10516053e-01, -2.17424130e+00,  2.44382596e+00,  3.88940668e+00,  1.49788475e+00,  6.14806056e-01,
     1.83945608e+00,  3.95701170e+00, -5.33760977e+00,  4.30186510e+00, -1.02222419e+00,  1.43093896e+00,  2.40946317e+00, -3.07434583e+00,
    -1.53202415e+00, -2.52301049e+00, -7.46031761e-01, -2.80666828e+00, -1.19946051e+00,  6.17937803e-01,  2.64119029e-01,  5.18376768e-01,
     1.12744951e+00,  4.76213264e+00, -2.93046999e+00,  1.35681343e+00, -1.09941615e-02,  3.43061137e+00, -1.55880511e-01, -1.47991526e+00},
   { 4.44775552e-01,  1.70107543e+00,  2.12362766e+00, -2.78348994e+00,  8.59083980e-02, -1.01545167e+00,  1.93634355e+00,  3.45333427e-01,
     2.64935446e+00,  3.79925609e+00,  1.37739420e-01,  6.98867679e-01,  2.79781771e+00, -9.37748373e-01,  2.75926590e-02,  1.75713587e+00,
    -7.86722183e-01,  1.66990030e+00,  6.88895762e-01,  1.27150118e+00, -1.19255900e+00,  1.05762827e+00,  9.15091872e-01, -1.54482806e+00,
     4.98843580e-01,  8.15725982e-01,  5.93092263e-01, -3.24897742e+00,  2.56957144e-01, -2.79312468e+00,  1.86656463e+00, -2.73027450e-01,
     7.84904838e-01,  2.15147048e-01, -2.92178988e+00,  4.16241455e+00,  4.89900231e-01,  1.97257924e+00, -1.78659654e+00,  1.21832728e+00,
     1.57473612e+00, -1.54144013e+00,  6.60680354e-01,  2.19329691e+00, -1.01185727e+00,  1.70314878e-01,  1.53449917e+00,  1.94058347e+00,
     8.67351532e-01, -2.74075326e-02,  1.34983554e-01,  2.39440227e+00, -2.04414055e-01, -4.71152401e+00,  2.57967424e+00,  2.06965184e+00,
     1.87218916e-02, -1.96055663e+00,  1.79054213e+00, -2.89181376e+00, -2.38625789e+00,  1.80280194e-01,  7.23349035e-01,  2.12611365e+00},
   {-8.14224839e-01,  1.45038950e+00,  9.18265641e-01, -2.92220664e+00, -3.10865307e+00, -1.39083421e+00, -9.81004536e-01, -2.49965042e-01,
     1.13801479e+00,  1.35612592e-01, -5.08147657e-01, -1.21730506e+00, -2.60167623e+00, -1.51301837e+00,  6.20227829e-02,  2.40281248e+00,
     1.83866906e+00,  2.82559252e+00, -1.88349307e+00, -1.01345074e+00, -4.56506538e+00,  4.16767597e-01,  1.95257986e+00, -1.47622943e+00,
    -4.50128174e+00,  2.52537894e+00,  1.09140432e+00,  7.26880059e-02, -1.01328111e+00,  1.42435586e+00,  1.16610360e+00, -2.06104302e+00,
    -1.18493915e+00, -1.44693768e+00, -1.51347303e+00,  1.71211398e+00,  1.29442632e+00,  1.84343588e+00,  2.04354191e+00, -1.01518869e+00,
     1.11006737e+00, -2.74697375e+00,  2.43218446e+00,  1.02474570e+00, -2.59306073e+00, -9.67906594e-01,  2.14231133e+00,  3.41413707e-01,
    -2.42682266e+00,  1.00651824e+00, -6.56467438e+00,  5.07397127e+00,  1.14397116e-01,  1.83224964e+00,  3.53197098e+00,  3.09560132e+00,
     1.02651548e+00, -2.50159883e+00,  3.03192592e+00,  1.70711291e+00, -1.95837319e+00,  6.27530634e-01, -2.13920093e+00,  1.51175714e+00},
   { 6.84054434e-01, -1.23838627e+00, -1.45814586e+00,  1.29870176e+00,  3.29873443e+00,  1.49618542e+00,  1.72378469e+00,  9.67836022e-01,
    -6.20005190e-01, -3.13059926e+00,  1.88181102e+00, -2.56207824e+00,  1.89055061e+00,  9.65924978e-01,  1.46924663e+00,  4.73077869e+00,
     1.22401178e+00,  3.01622581e+00,  9.21995103e-01, -4.25462648e-02,  2.68342465e-01, -2.72684860e+00,  2.48109674e+00,  3.70452380e+00,
     1.57549158e-01,  2.11817718e+00,  3.07431608e-01,  7.10338354e-01,  2.24823666e+00, -9.84364673e-02, -2.15228462e+00,  2.35438657e+00,
     4.39567298e-01,  1.64137363e+00,  1.68617857e+00,  2.51545668e+00,  8.01220775e-01,  7.67526150e-01,  2.65056205e+00,  2.40461707e+00,
     1.57036710e+00,  1.50681090e+00,  3.87589383e+00, -1.18178988e+00,  4.55447942e-01,  1.97715724e+00,  1.90742362e+00,  1.21407640e+00,
    -1.30133784e+00, -4.02454525e-01, -3.00240660e+00, -2.34365153e+00, -8.45546246e-01, -1.65552795e-01,  6.60525382e-01, -3.13146067e+00,
     1.72828114e+00, -3.78093553e+00,  1.76485741e+00,  1.08857119e+00,  2.69978017e-01, -7.36893177e-01,  2.85823607e+00,  2.55008191e-01},
   { 1.82713592e+00, -1.57084942e+00, -1.18219948e+00,  1.78722978e+00, -4.11314189e-01, -2.03578568e+00, -8.35557997e-01, -2.32282066e+00,
    -1.06517184e+00, -7.70574510e-01, -3.41839147e+00, -2.41111255e+00, -4.36795044e+00,  9.69058454e-01,  2.96064377e+00, -2.18058348e+00,
     4.55539465e-01,  6.52433634e-01,  2.01218441e-01, -1.66488886e+00, -1.08624732e+00,  1.85188925e+00,  2.31850624e+00,  1.73672140e+00,
    -3.93907881e+00,  1.33936524e+00, -1.89343512e+00, -1.57790232e+00,  2.66682625e+00,  1.65335691e+00, -2.62391829e+00,  4.58911943e+00,
     2.84733802e-01, -3.80003238e+00,  4.49410677e-01,  8.45702291e-01,  1.16301313e-01, -1.27181935e+00, -3.25751752e-01, -1.25529468e-01,
    -1.47007990e+00,  1.97625935e+00,  1.36158037e+00, -2.50096369e+00,  2.06773138e+00, -3.75569153e+00,  5.70545137e-01, -3.49634528e+00,
    -2.15048409e+00, -3.87616801e+00,  2.74710941e+00, -1.75349379e+00,  4.14832383e-02, -7.86727488e-01,  1.92093442e-03, -8.85328650e-01,
    -4.40144807e-01, -4.97199774e+00,  8.43625009e-01, -3.01448202e+00,  2.29772091e+00, -5.70905924e-01,  8.13190043e-01,  3.25012118e-01},
   { 1.52735868e-02, -1.28214586e+00,  6.57523721e-02, -2.20517659e+00, -4.98311609e-01, -1.09652340e+00, -2.65129232e+00,  5.80487251e-01,
    -3.73406649e+00,  6.97788835e-01, -6.78500891e-01, -6.89843357e-01, -2.59118557e+00, -4.61850882e+00, -1.57874084e+00, -2.24524546e+00,
    -1.32913733e+00,  1.79738522e+00,  4.18476641e-01, -2.03550768e+00, -3.29195905e+00,  2.65213847e+00,  3.12876010e+00, -2.43580365e+00,
     4.41440850e-01,  8.54888499e-01,  9.52371657e-01, -3.75520945e-01,  3.99074078e-01, -2.19295573e+00,  8.52092266e-01, -6.83252394e-01,
    -2.72836947e+00, -6.39652550e-01, -1.73962831e+00,  2.02284709e-01,  6.64520562e-01, -1.56207168e+00,  8.30496788e-01, -2.66589820e-01,
     5.56123197e-01, -1.05753446e+00,  1.88216150e+00, -8.27093303e-01,  1.21046163e-01,  9.48420227e-01,  2.49944782e+00, -7.14258015e-01,
    -8.08452129e-01,  2.13004661e+00, -1.83714008e+00, -9.60423589e-01,  1.42854965e+00,  2.49812937e+00,  2.14079857e-01,  4.16459352e-01,
     8.45282614e-01, -5.04669189e+00,  9.82370138e-01, -2.13019776e+00, -1.15262914e+00, -1.29025087e-01, -2.98340440e-01,  1.45356977e+00},
   { 6.56166792e-01,  5.92862442e-03, -6.59119368e-01,  1.76828599e+00,  1.65153265e+00,  1.23784876e+00,  6.80830061e-01,  1.28326133e-01,
     1.02608252e+00,  8.53902876e-01, -8.57792735e-01,  8.17145646e-01,  1.29587042e+00,  1.71546161e+00,  1.50003326e+00,  4.47997046e+00,
    -3.16725135e+00, -4.15571117e+00,  9.24528182e-01,  6.48611188e-01,  4.69652128e+00, -1.82966101e+00, -1.18540525e+00,  2.67011046e+00,
     1.68126214e+00, -6.22160852e-01, -8.52666855e-01, -6.93713427e-01,  5.15992641e-01,  2.38000184e-01, -3.10691261e+00, -3.52225929e-01,
     2.23246431e+00,  1.19133663e+00, -7.60710835e-01,  7.31470644e-01,  5.70270121e-02,  2.19187760e+00,  5.18981278e-01, -8.99610102e-01,
    -6.42896295e-01,  1.34947494e-01,  5.07471144e-01, -2.31112504e+00, -1.22057855e+00,  2.75580096e+00,  8.68266284e-01,  1.65912592e+00,
     1.17740488e+00, -1.82899559e+00,  2.66140580e-01, -1.52027249e+00,  1.20696723e+00, -2.96981740e+00, -4.92850685e+00, -9.20216143e-01,
    -8.83161962e-01,  3.18454885e+00, -2.84458828e+00, -2.26522192e-01,  7.39399731e-01,  1.93074179e+00,  4.32855368e+00, -9.07084703e-01},
   {-2.23576522e+00,  2.59956837e+00, -5.32531142e-01,  2.23347497e+00,  2.13135195e+00,  5.90197146e-01,  2.23648453e+00,  9.29287970e-01,
     3.10300279e+00,  2.99135613e+00, -8.64012480e-01,  1.37270725e+00,  1.67186904e+00,  3.26357096e-01, -5.90941608e-01,  2.18839288e+00,
    -1.96521491e-01, -3.80825472e+00,  7.49080002e-01,  1.50694597e+00,  2.28011131e+00, -1.74452102e+00, -4.84158325e+00, -3.19889522e+00,
     2.12068582e+00, -4.53680977e-02, -6.79421704e-03, -7.85831034e-01, -2.62286901e+00, -1.21350992e+00, -4.99643946e+00, -4.11850023e+00,
     7.93588340e-01,  2.64287639e+00,  1.12251902e+00,  1.42878461e+00, -1.16627491e+00, -1.30559778e+00, -1.56570303e+00,  5.20994127e-01,
    -1.94788802e+00, -4.14519042e-01,  8.18149328e-01,  1.27890849e+00, -6.42305762e-02,  3.37444282e+00, -3.43313599e+00,  2.96309143e-01,
     4.88997012e-01, -4.69420099e+00, -2.28892803e+00, -2.17479444e+00,  2.39563060e+00, -4.29493666e+00, -2.04983163e+00, -3.59578013e+00,
