#ifndef __RNN0_PARAMS__
#define __RNN0_PARAMS__

#define RNN0_HIDD_DIM0 (32)
#define RNN0_HIDD_DIM1 (64)

// clang-format off

const float RNN0_ALPHA = (-2.862838e+00);
const float RNN0_BETA = (1.005097e+00);

const float RNN0_BIAS_UPDATE[64] = 
   {5.839944e-01, 3.276708e+00, 3.633266e+00, 1.015109e-01, 2.352038e+00, 1.277640e+00, 1.311582e+00, 2.225655e+00,
    3.390599e+00, 3.622900e-01, 3.679075e+00, 2.635304e+00, 2.532731e+00, 1.038296e+00, 9.560202e-01, 2.507793e+00,
    4.753578e-01, 2.570557e-01, 1.422099e+00, 1.448965e+00, 7.202634e-01, -5.173320e-01, -2.578313e-01, -1.437181e+00,
    1.260785e+00, 2.719961e+00, 2.849918e+00, 1.485841e+00, -1.360351e+00, 1.143678e+00, 1.188990e+00, -7.326505e-01,
    1.970735e+00, 2.566812e+00, 1.090939e-01, 1.503093e+00, 1.533863e+00, 2.163249e+00, 2.108442e+00, 3.523991e+00,
    2.019465e+00, 1.756382e+00, 2.672366e+00, 1.706201e+00, 5.273970e-01, 1.430942e+00, 2.078165e+00, 2.079489e+00,
    1.474568e+00, -8.220109e-01, -3.448131e-01, 2.093338e+00, 1.801155e+00, 3.910244e-01, 2.923772e+00, 2.398776e+00,
    1.087153e+00, 2.130340e+00, 4.342869e+00, 3.303357e-01, 4.443783e-01, 7.023678e-01, 9.068494e-01, 1.753120e+00};

const float RNN0_W[32][64] = {
   {-2.732336e-01, 1.294950e-01, 9.987247e-01, -7.963365e-02, 2.642377e-01, -1.656260e-01, -7.600141e-01, -8.102167e-01,
    1.573936e-01, -3.523778e-01, 5.246391e-01, 4.638144e-02, -4.920324e-01, 2.693922e-01, -3.761887e-01, -5.919433e-01,
    2.747104e-01, 1.579770e+00, 1.091817e+00, -1.009866e-01, -1.378686e+00, -3.386392e-01, -4.321732e-01, 1.152431e-01,
    -6.663670e-02, 1.052655e+00, 7.289512e-01, -4.716285e-01, -5.198997e-02, -5.124146e-01, 4.125009e-01, -3.573646e-01,
    -7.832407e-01, -3.046636e-01, -6.098013e-01, 5.610388e-01, -9.576731e-02, -2.350428e-01, 7.200573e-01, -2.752296e-04,
    -6.119788e-01, -4.147700e-01, 6.556100e-01, -4.378071e-01, 8.198155e-02, 3.169305e-01, -9.080513e-02, -1.315163e+00,
    -7.825743e-02, -2.544156e-01, -1.239629e-01, 1.593680e-01, 1.021352e+00, -8.994282e-01, 9.941662e-01, 4.796818e-01,
    9.552488e-01, -5.070654e-02, -9.292055e-02, 1.008362e-01, -3.794967e-01, 8.744231e-01, 5.546920e-01, -6.291121e-01},
   {-6.920245e-01, -5.886831e-02, 6.043672e-01, 5.180309e-01, -3.056155e-01, -4.688461e-01, -1.811504e+00, -3.025335e-01,
    1.115855e-01, 1.067287e+00, -7.007421e-01, -3.908928e-01, 1.888534e-01, 3.007819e-01, -8.202485e-03, -5.568321e-02,
    -4.729635e-01, -1.673302e+00, 1.599125e+00, 6.586985e-03, -1.662164e+00, -6.966643e-01, -2.685655e-01, -6.228761e-01,
    -8.990856e-02, -1.838480e-02, 1.953805e-01, -2.323791e-01, -3.072254e-01, -1.685601e-01, -2.902231e-01, -1.075859e+00,
    -6.203882e-01, -7.852519e-02, -9.516987e-01, 6.061192e-01, -2.757067e+00, -8.272082e-01, 4.358086e-01, -1.180441e+00,
    -1.439887e+00, -1.679851e-01, -1.110019e+00, -1.515580e+00, -5.225424e-01, 1.767273e-01, -1.778437e+00, -4.293699e-01,
    4.025816e-02, 1.093351e-01, -5.014491e-01, -1.310964e+00, 3.486012e-01, -8.282652e-01, 7.010939e-01, -2.414701e-01,
    -6.399695e-01, 3.195515e-01, -1.092658e+00, 6.346869e-01, -1.873677e-02, 4.218346e-01, 1.291442e-01, -6.649407e-01},
   {3.342325e-01, -2.808025e+00, -1.955235e+00, -9.054887e-01, 1.408935e+00, -6.411709e-01, -2.020445e+00, -5.139725e-01,
    2.074725e-01, -5.518115e-01, -1.537585e-01, 2.562658e-02, 7.482694e-01, -1.801028e+00, 3.878714e-01, -1.605333e+00,
    -3.236682e-01, 2.980464e-02, -7.463488e-01, -2.636391e-01, -4.695013e-01, 9.811611e-01, 5.291683e-01, 3.998320e-01,
    8.294398e-01, -9.718878e-01, -6.298439e-01, -5.467978e-01, -1.026776e+00, -9.513111e-01, -9.998192e-01, 7.693416e-01,
    7.431206e-01, -1.476693e+00, -8.553573e-01, 4.786923e-01, -5.134112e+00, -3.547233e+00, -7.227783e-01, -4.870515e-01,
    -3.741385e+00, -4.084988e-01, -1.625458e+00, -2.675312e+00, 1.291079e+00, 8.762972e-01, -1.639031e+00, -3.213059e-01,
    5.453000e-01, -1.106169e+00, -4.867685e-01, 5.327345e-01, -1.093071e+00, 8.660521e-01, -9.925928e-01, -1.459507e+00,
    -1.564718e+00, -1.152175e+00, -1.081981e+00, -1.008129e-01, -9.801492e-01, -4.015596e-01, 1.779276e-01, -1.882754e-01},
   {-1.226788e-02, -1.442135e+00, -4.691549e-01, -9.976731e-02, 1.011504e+00, 7.555398e-03, -1.314677e+00, 8.787415e-01,
    8.890481e-01, -2.260488e-01, 2.431753e-02, 3.119677e-02, 1.409170e+00, -1.984140e+00, -8.196011e-01, -2.100067e-01,
    -9.633319e-01, -2.672148e+00, -1.339710e+00, -6.289425e-01, 3.830662e-01, 3.769299e-02, -3.110795e-03, 9.161491e-01,
    1.191952e+00, -2.281129e-01, -2.850605e-01, -5.957740e-01, -1.267147e+00, -7.742386e-01, -2.630389e-02, -3.031279e-01,
    2.958581e-01, -3.341715e-01, -9.437678e-01, 1.463127e+00, -1.346385e+00, -2.615903e+00, -6.477820e-01, 7.871780e-02,
    6.078288e-02, -8.510808e-01, 6.048729e-03, -1.969143e+00, -1.410865e-01, 1.545011e+00, -1.544696e+00, 2.913666e-01,
    3.889837e-01, -1.134544e+00, -1.871801e+00, -8.846290e-01, -1.724658e-02, 8.298438e-01, -4.335486e-01, 2.306115e-01,
    -8.750761e-01, -2.215615e+00, -5.839795e-01, -9.442284e-01, -1.856647e+00, -1.698861e-03, 1.690255e+00, 9.698164e-02},
   {4.883192e-01, -1.023864e+00, -5.908565e-01, 1.202156e-01, -4.231744e-01, -7.244964e-01, -8.775601e-01, 8.981280e-01,
    4.901445e-01, 7.964982e-01, -7.711906e-01, 3.930216e-01, 1.303943e+00, -1.019354e+00, -1.053694e+00, -4.147540e-01,
    2.524048e-01, -2.701578e+00, -7.305811e-01, -1.338595e-01, 4.396095e-01, 4.949353e-01, 2.891452e-01, 8.557131e-01,
    3.011520e-01, 1.109626e+00, -3.320756e-02, -4.225263e-01, -7.136170e-01, 6.916324e-01, 1.017181e+00, 4.478437e-01,
    4.206795e-02, 4.509443e-02, -7.096168e-01, 1.099252e+00, -7.614773e-01, -2.249102e+00, 5.674955e-01, 3.630883e-01,
    -4.134202e-01, -1.126319e+00, 1.660903e+00, -1.166681e+00, 3.057134e-02, 8.609103e-01, -2.418257e+00, 1.340426e-01,
    -1.519931e-01, 2.941046e-01, -6.655670e-01, -1.717616e-01, 1.398080e+00, -4.140552e-01, -1.602010e+00, 1.766236e-01,
    3.078230e-01, -3.121594e+00, 5.048431e-01, -8.369080e-01, -1.365043e+00, -7.814108e-03, 9.106883e-01, 8.155493e-01},
   {1.533135e+00, -1.455098e+00, -1.973536e+00, 4.743829e-01, -1.439466e+00, -3.488368e-01, -9.123281e-02, 1.194118e+00,
    3.488001e-01, 1.108598e+00, -4.951927e-01, 4.935732e-01, 6.782286e-01, -2.013165e-02, -5.454693e-01, -7.950751e-01,
    5.370101e-01, -1.912109e+00, -1.879466e+00, 4.805980e-01, 1.514427e+00, 1.026055e+00, -9.031747e-01, 2.034754e+00,
    1.291636e-02, 1.010339e+00, -2.727287e-01, 3.060536e-02, 1.955279e-01, 8.794570e-01, 1.164638e+00, 1.434277e+00,
    1.075136e+00, -1.212284e-02, 2.584508e-01, 9.618434e-01, -1.241850e-01, -1.492792e+00, 5.470815e-01, 5.020393e-01,
    -3.212830e-01, -1.256616e+00, 2.528178e+00, -6.916467e-01, 4.177266e-01, 1.572759e+00, -1.612751e+00, 8.003507e-01,
    -6.287041e-01, 1.186631e+00, 5.844968e-01, 2.040983e+00, 9.873891e-01, -1.030270e+00, -1.850184e+00, -1.715866e-01,
    1.296245e+00, -3.538839e+00, 7.072986e-01, -7.418150e-01, -3.994319e-01, 3.001865e-01, 1.435632e+00, 9.715595e-01},
   {2.922018e+00, -1.727289e+00, -2.053574e+00, 8.726557e-01, -1.414715e+00, 2.690911e-01, -7.095303e-01, 1.051676e-01,
    -1.167508e+00, 8.561448e-01, -3.077835e-01, -1.401025e-01, -1.104503e-01, 1.163591e+00, -3.428245e-01, -5.836170e-01,
    2.588769e-01, -5.545988e-01, -7.236632e-01, -4.965225e-01, 1.357804e+00, 1.503975e+00, -1.787752e+00, 2.322266e+00,
    -7.110574e-01, 6.657149e-01, -7.646496e-01, 1.056790e+00, 7.596197e-01, 9.171836e-01, 9.017921e-01, 1.920908e+00,
    4.761054e-01, 5.797763e-01, 1.339796e+00, 3.539243e-01, 6.123028e-01, -2.818938e-01, 1.295430e+00, 1.242498e-01,
    3.573158e-01, -2.108561e-01, 3.003674e+00, -1.462310e+00, -4.238989e-01, -8.964206e-02, -7.914910e-01, 3.760523e-01,
    -1.444710e+00, 1.469133e+00, 2.234191e+00, 2.561524e+00, 8.628464e-01, -1.981500e+00, -1.716430e+00, -1.056170e+00,
    7.310247e-01, -1.234850e+00, 4.127980e-01, -2.147653e-01, 9.423420e-02, -2.472955e-02, 1.334803e+00, 3.152322e-01},
   {1.143559e+00, -1.410215e+00, -1.105953e+00, -1.751796e-01, 3.385932e-01, 8.675259e-01, -2.634707e-01, -1.037969e+00,
    -2.067786e+00, 4.092129e-01, 3.993113e-01, -9.358342e-01, -6.956216e-01, 1.270489e+00, -9.574057e-01, -4.622115e-02,
    -1.143017e+00, 1.170063e+00, 5.727589e-01, -6.735983e-01, -1.797816e-01, 5.094408e-01, -2.012424e+00, 9.222609e-01,
    -1.263668e-01, -1.151416e+00, -5.339042e-01, 1.609999e+00, 1.295594e+00, -2.260557e-01, 3.786081e-01, 1.312789e+00,
    -9.164853e-02, 9.163939e-02, 1.547568e+00, -1.996816e+00, 4.213790e-01, -9.532855e-02, 8.716617e-02, -1.861144e+00,
    3.672789e-01, 1.516232e+00, -8.355586e-02, -1.867730e+00, -1.032056e+00, -1.270144e+00, -7.630510e-01, 3.322204e-01,
    -1.290190e+00, 1.609876e+00, 2.356843e+00, 2.162767e+00, -1.064264e+00, -1.234818e+00, 9.947679e-02, -6.113452e-01,
    4.363984e-01, 2.867415e+00, -3.915975e-01, 3.564374e-01, 3.822411e-01, -5.785018e-01, -9.766838e-02, 1.933901e-01},
   {-6.521405e-01, -9.144713e-01, -7.862000e-01, 1.847789e-01, 2.029145e+00, 3.357659e-01, 8.286713e-01, -1.206743e+00,
    -2.163994e+00, 3.842813e-01, -6.773991e-02, -7.708357e-01, -2.582865e-01, 9.051397e-01, -6.734949e-01, -1.566418e-01,
    -9.058406e-01, 1.120057e+00, 1.144518e+00, -1.485700e-01, -5.308558e-01, -1.314794e-01, -1.168256e+00, -7.472449e-01,
    -1.065608e+00, -1.874153e+00, -3.151111e-01, 6.025239e-01, 5.089549e-01, -3.961162e-01, 4.412979e-01, 2.510997e-01,
    2.402337e-01, 1.591029e-01, 6.450509e-02, -2.877249e+00, -4.565242e-01, -1.196618e+00, -1.026850e+00, -1.852616e+00,
    7.223164e-01, 2.691108e+00, -3.004789e+00, -4.177754e-01, -3.503441e-01, -1.666613e+00, -4.213201e-01, 4.800292e-01,
    1.675446e-01, 1.830702e-01, 1.584860e+00, -1.906729e-01, -1.761371e+00, 6.877900e-01, -5.409786e-01, -3.131119e-01,
    -7.189044e-01, 2.388811e+00, -1.872951e+00, 3.709627e-01, -1.409071e-01, 2.034999e-01, -3.458613e-01, -7.552507e-01},
   {-9.281883e-01, -1.050332e+00, -9.252069e-01, 3.394291e-02, 3.188133e-01, 9.049801e-01, 3.035387e-01, -1.190096e+00,
    -4.787678e-01, 1.770889e+00, 5.166752e-02, -6.120720e-01, -9.036557e-01, 1.746528e+00, 6.307712e-01, -1.056286e+00,
    9.926477e-01, 1.447376e+00, 7.690793e-01, -2.831669e-01, -5.060843e-01, -2.277169e-01, -8.868333e-01, -9.798808e-02,
    -1.338532e+00, -9.892751e-01, -4.693903e-01, -3.444568e-01, 3.991649e-01, 1.211878e-01, -8.444089e-01, -3.202553e-02,
    2.983097e-01, -8.510630e-01, 1.414253e-01, -1.006071e+00, -1.937469e-01, -8.696439e-01, -1.199863e+00, -9.631118e-01,
    -3.938405e-01, 8.976795e-01, -2.463444e+00, 4.892260e-01, 1.666633e+00, -9.850876e-01, 6.898962e-01, -1.023446e+00,
    9.236138e-01, -1.332062e+00, 1.740232e+00, -1.480107e-01, -8.696831e-01, -4.712641e-02, 8.215468e-01, -4.273586e-01,
    -1.071074e+00, 1.239519e-01, -1.386763e+00, 1.720213e-01, 1.257958e-01, 8.051293e-02, -8.537148e-01, -7.472368e-01},
   {9.752191e-01, -1.587018e-01, -2.104921e-02, 8.324142e-01, -8.919588e-02, -8.329500e-03, 3.936193e-01, -1.448363e+00,
    3.902703e-01, 3.070217e+00, -9.077183e-01, 1.164170e+00, -1.051933e+00, 1.088508e+00, 6.134197e-01, -5.839742e-01,
    1.794967e+00, 1.081203e+00, 8.248935e-01, 3.019730e-01, -6.412746e-03, 2.439136e-01, -5.459625e-01, 2.760226e-01,
    -2.617010e+00, 3.012837e-01, -2.689855e-01, -1.514664e+00, -5.494377e-01, -7.536535e-02, -9.140123e-01, -2.130136e-01,
    5.398211e-02, -2.080308e+00, -6.771837e-01, -3.475976e-01, 3.557188e-01, 2.154949e-01, -1.390906e+00, 3.816192e-01,
    -2.936912e-01, 3.098598e-01, -1.996836e+00, 9.552013e-01, 1.959673e+00, -1.000177e+00, 1.349236e+00, -3.197418e+00,
    2.499482e+00, -2.372057e+00, -3.765310e-04, 5.320072e-01, 2.332503e-01, -7.673259e-01, -1.704470e-01, -4.065500e-01,
    -1.260160e+00, 9.941264e-01, -4.965255e-01, -5.795790e-01, -7.066900e-01, 5.863711e-01, -6.180649e-01, -4.335699e-01},
   {9.692888e-03, -5.325041e-01, -1.045665e+00, 1.317989e+00, -1.113930e+00, 4.895653e-01, 9.372396e-01, -8.273833e-01,
    8.862956e-01, 1.112599e+00, -1.323798e+00, 1.560636e+00, -1.611995e+00, -2.262563e-01, -1.308197e+00, -4.673545e-01,
    1.485672e+00, 1.593693e-01, -1.038658e+00, 1.004734e-01, 8.108939e-01, 1.439029e-01, 5.961552e-01, -3.703111e-01,
    -2.586154e+00, 1.333420e+00, -3.413290e-01, -1.164697e+00, -2.002455e+00, 3.840127e-01, -1.249516e+00, -9.476545e-01,
    -1.041651e+00, -4.329060e-01, -8.860728e-01, -3.220050e-01, -6.333182e-01, -6.406226e-01, -5.802500e-01, 1.588357e+00,
    -1.023417e+00, -4.687989e-01, -6.031975e-01, -9.327746e-03, 1.068611e+00, -1.092455e+00, -7.195639e-01, -2.174927e+00,
    1.607440e+00, -2.852040e+00, -1.096851e+00, -1.302436e-01, 1.164291e+00, -1.102427e+00, -6.114290e-01, 7.641794e-02,
    -1.651635e+00, 8.759459e-01, 2.871786e-01, -6.696739e-01, -5.583819e-01, 5.222070e-01, -1.016443e+00, 8.488275e-02},
   {-2.836327e-01, 7.254415e-02, -8.055491e-01, -8.990711e-01, -1.502680e+00, 5.976722e-01, 2.099459e+00, -1.031988e+00,
    1.407181e-01, -1.146086e+00, -3.082388e+00, 1.930888e+00, -1.623958e+00, -1.052137e+00, -3.308271e+00, 1.315401e+00,
    -8.007842e-01, -5.033677e-01, -1.155716e+00, 1.556164e-01, -1.708599e-01, -7.732577e-01, 2.360185e-01, -5.985670e-01,
    -7.472461e-01, -3.808642e-01, -7.384409e-01, -1.848368e+00, -2.719592e+00, -1.150221e+00, 2.929876e-01, -1.475151e+00,
    -1.305218e+00, 2.158991e+00, -2.346117e+00, 1.292021e-01, -9.169094e-02, -2.922388e-02, -1.190651e+00, 1.036213e-01,
    6.457533e-01, -9.132499e-01, 8.265413e-02, 6.239520e-01, -2.966411e+00, -2.004132e+00, -7.010579e-01, 8.328432e-01,
    9.689120e-01, 2.309320e-01, -3.600267e-01, -8.656242e-01, 4.979054e-01, -8.305643e-01, -3.384773e-01, 2.307046e-01,
    -6.047778e-01, 9.053138e-01, -1.054154e+00, -2.156538e+00, -1.214091e+00, 9.999844e-01, -1.358314e+00, -8.697734e-01},
   {2.643410e-01, 1.026024e-01, -8.072507e-01, -1.513013e+00, -1.058334e+00, 1.213768e+00, 6.680984e-01, -9.366997e-01,
    5.456829e-02, -1.397884e+00, -1.871586e+00, 6.897641e-01, -1.078320e+00, -1.758709e-01, -2.085761e+00, -1.854670e-01,
    -2.109253e+00, 4.862152e-01, -6.490215e-01, 3.372851e-01, -7.574738e-01, -5.548954e-01, 6.303233e-01, -1.659230e-01,
    1.599005e+00, -1.162171e+00, -1.436945e+00, -1.103344e+00, -1.063092e+00, -2.211325e+00, 8.398784e-01, -8.967404e-01,
    -6.494265e-01, 1.422705e+00, -1.500384e+00, -2.393025e-01, -4.195177e-01, 6.709578e-02, -1.787780e+00, 1.738408e-01,
    -7.395286e-02, -6.760809e-01, 3.196906e-01, 1.004607e+00, -4.310989e-01, -3.898928e-01, -7.901092e-01, 1.226870e+00,
    -7.498658e-02, 1.914380e+00, -4.069399e-02, -6.613451e-01, -1.034669e+00, -1.406198e+00, -3.875450e-01, -3.210763e-01,
    -5.349492e-02, 7.175031e-01, -3.346610e-01, -1.985130e+00, -2.676569e-01, -9.942369e-01, -1.111192e+00, -1.145246e+00},
   {1.377245e+00, 1.784178e-01, -4.729681e-01, -1.146740e+00, -1.282416e+00, 2.555713e+00, -1.333332e-01, -1.487222e-01,
    4.763544e-01, -9.588806e-01, 4.249474e-01, -5.800858e-01, -5.716789e-01, 1.690995e+00, -8.213619e-01, -8.721496e-01,
    -1.935574e+00, 9.058241e-01, -4.217428e-04, 9.250712e-02, -5.335232e-01, 5.671670e-01, -7.787018e-01, 1.606909e-01,
    3.029735e+00, -7.188746e-01, -1.172869e+00, 7.703415e-01, 4.832807e-01, -2.214232e+00, -6.520588e-01, -8.165697e-01,
    -4.265792e-01, -2.834804e-01, 5.699111e-01, -7.612517e-01, 2.131780e-01, 1.010468e-01, -1.265821e+00, 1.667325e-01,
    -7.766632e-01, -1.359883e+00, -2.984349e-02, 1.195918e+00, 2.893265e+00, 1.395200e+00, 6.304622e-01, 4.696353e-01,
    -9.725102e-01, 1.112000e+00, -2.529121e-01, -7.961674e-01, -1.529548e+00, -1.688050e+00, 4.638721e-01, 1.291263e-01,
    -7.698048e-01, 6.109874e-01, 2.149973e-01, -1.298342e+00, 1.090156e+00, -2.645054e+00, 3.298316e-01, -1.449329e+00},
   {1.537467e+00, -3.686202e-02, -3.166863e-01, 5.250069e-01, -1.927035e+00, 1.315238e+00, -2.556665e-01, -2.497759e-01,
    -1.937512e-02, -1.573041e+00, 1.553059e+00, -7.690635e-01, -7.247633e-01, 1.538224e+00, 1.113484e+00, -4.056345e-01,
    -1.691894e+00, 6.511641e-01, -6.582606e-01, 1.083082e-01, -1.254061e-01, 5.828468e-01, -1.163126e+00, 1.041473e+00,
    2.293814e+00, -1.725774e-01, -7.401158e-01, 1.368060e+00, 1.102319e+00, -1.478842e+00, -4.820234e-01, -5.418133e-01,
    4.731276e-01, -7.221669e-01, 1.566476e+00, -1.271963e+00, 3.979040e-01, 2.251893e-01, -2.851803e-01, -7.764655e-02,
    -1.021449e+00, -3.941887e-01, -4.156011e-01, 8.725002e-01, 2.678911e+00, 1.255885e+00, 1.175787e+00, -2.728947e-01,
    -5.281922e-01, -6.371951e-01, -2.450808e-02, -1.149251e+00, -1.501289e+00, -1.329951e+00, 5.163035e-01, -3.347821e-01,
    -3.007404e-01, 6.979070e-01, -7.038405e-02, -4.357588e-01, 1.168406e+00, -2.260004e+00, 4.952674e-01, -1.776839e+00},
   {1.233891e+00, 7.178698e-01, 9.424475e-01, 1.238828e+00, -6.730540e-01, 2.023073e-01, -3.981926e-01, -1.717129e-01,
    -3.167174e-01, -2.037256e+00, 1.712479e+00, -7.149381e-01, -8.216673e-01, 1.468738e+00, 1.259498e+00, -2.053947e-01,
    -5.891076e-01, -6.742057e-01, -1.800478e-01, -5.572963e-01, 4.278844e-01, 8.789223e-02, 5.072062e-02, 4.871176e-01,
    2.437754e+00, -1.414934e-01, 8.588390e-01, 1.740388e+00, 1.151380e+00, -2.641431e-01, -2.008233e-01, -2.356509e-01,
    3.005132e-01, -7.599938e-01, 2.326633e+00, -1.038838e+00, 5.781302e-01, 1.546302e+00, 1.665000e+00, -2.304413e-01,
    -7.333112e-01, 2.137382e+00, 6.098649e-01, 5.492616e-01, 4.978367e-01, 6.573105e-01, 7.107362e-01, -4.412124e-01,
    -6.926414e-01, -1.920452e+00, 2.153787e-01, -1.656503e+00, -8.366652e-01, 5.852196e-01, 1.223179e+00, -4.980766e-01,
    5.744213e-01, 4.748301e-01, 2.765212e-01, 1.166881e+00, 1.930888e+00, -9.549926e-01, -2.557479e-01, -9.176587e-01},
   {-4.973458e-01, 1.258383e-01, -5.478236e-01, 9.525977e-01, 1.457611e+00, 8.562794e-01, -3.210146e-01, -6.011829e-01,
    2.763623e-01, -1.846479e+00, 5.579225e-01, -9.718359e-01, 1.157756e+00, 1.431947e-01, -1.358213e+00, -8.838689e-01,
    2.574849e-01, -2.607074e+00, 6.805266e-01, -1.572234e+00, 8.201973e-01, 8.429667e-02, -1.019737e+00, -3.058061e-01,
    1.213732e+00, -4.465245e-02, 1.660309e+00, 1.137773e+00, 4.150246e-01, 9.988714e-01, 8.143057e-01, 1.200465e-01,
    -1.096853e+00, -2.816590e-01, 7.511886e-01, -9.927904e-02, 3.885998e-01, -8.695744e-02, 2.160292e+00, -5.906145e-01,
    5.251207e-01, 1.728444e+00, 2.351131e-01, -2.439561e-01, -7.289665e-01, -4.231478e-01, -1.712754e+00, -4.779297e-01,
    -8.541178e-01, -2.306465e+00, 5.238516e-01, -2.588545e+00, 2.502132e-01, 2.038516e+00, -6.223971e-01, -5.760475e-01,
    1.384639e-01, -1.241295e-02, 5.501789e-01, 2.211476e+00, 4.597124e-01, 4.678618e-01, -8.606459e-01, 1.009811e+00},
   {-6.758817e-01, -8.673567e-02, -1.499172e-01, 4.629355e-01, 3.221535e+00, 9.585326e-01, 5.299996e-01, -4.792091e-01,
    -5.663396e-01, -9.814384e-01, 2.868827e-02, -1.912603e+00, 1.786549e+00, 1.015215e+00, -8.187247e-01, -5.090238e-01,
    1.214386e-01, -6.790366e-02, 1.953249e+00, -1.258636e+00, -1.209422e+00, 4.399877e-02, -1.139913e+00, 1.399622e-02,
    6.248868e-02, -2.865863e-01, 1.666957e+00, 4.800638e-01, 1.306704e+00, 6.851259e-01, 2.874613e-01, 2.023604e+00,
    -4.829136e-01, -4.393749e-01, 2.452058e-01, -2.310256e-02, 1.060467e+00, 3.758432e-02, 1.085962e+00, -1.322073e+00,
    -8.518424e-01, 1.250656e+00, -6.791907e-01, -3.861887e-01, -1.176057e+00, -5.379592e-01, -1.012459e+00, -2.012495e-01,
    -1.063433e+00, -6.030993e-01, 1.947490e+00, 2.789395e-01, 4.896674e-01, 1.920413e+00, -3.878078e-01, -1.689659e+00,
    -4.485764e-01, -1.031896e-01, 1.788359e-01, 1.697677e+00, 2.677192e-01, 9.813163e-01, 5.557681e-01, 7.939779e-01},
   {-5.563299e-01, 4.401318e-02, -3.495195e-01, 1.582427e-01, 1.391631e+00, 1.247354e+00, 6.279825e-01, 5.515085e-01,
    -1.282834e+00, -1.610833e-01, 4.188233e-01, -1.671118e+00, 1.171145e+00, 9.892091e-01, -1.528532e-01, -6.145457e-01,
    2.230107e-01, 1.244701e+00, 1.728590e+00, 7.795162e-01, -8.450409e-01, 3.480251e-01, -2.322130e+00, 4.803835e-01,
    2.371943e-01, -2.020036e-01, 8.684142e-01, 8.491837e-01, 1.595458e+00, 2.776134e-01, -4.514275e-01, 1.898932e+00,
    1.580345e+00, -7.150238e-01, 6.491334e-01, -9.149227e-02, 5.721430e-01, -5.462122e-02, -2.926563e-02, -1.067666e+00,
    -1.107565e-01, 4.287700e-01, -7.695573e-01, -4.478445e-01, -9.183302e-01, -1.938652e-01, -9.151406e-01, 1.055803e+00,
    -8.079852e-01, 9.448904e-01, 1.236843e+00, 7.613676e-01, -1.121613e-01, 1.819278e+00, -1.238510e+00, -1.126295e+00,
    -4.335636e-01, -1.667706e-01, -7.064665e-01, 1.077721e+00, -8.690878e-02, 8.213121e-01, 1.612989e+00, -4.333388e-01},
   {-2.352772e-01, 1.524353e-01, -8.417052e-01, -6.794921e-01, 3.549877e-01, 1.067055e+00, 1.405552e-01, 4.631201e-01,
    -2.082324e-01, 3.110274e-01, 7.224290e-01, -8.392106e-01, 9.007155e-01, -1.331202e-01, -9.200525e-02, -9.966933e-01,
    4.198740e-01, 1.081453e+00, 3.476822e-02, 1.228834e+00, 1.850515e-01, 6.191579e-01, -2.138636e+00, 3.365442e-01,
    5.086682e-01, 4.713081e-01, 8.376444e-02, 2.615485e-01, 6.048563e-01, -1.813275e-01, -7.315131e-01, 5.984415e-01,
    5.055387e-01, -1.222340e+00, 3.622480e-01, -8.181480e-01, 3.066334e-01, -3.620982e-01, -8.178178e-02, -1.847998e-01,
    -5.134527e-02, 1.949659e-01, -8.881536e-02, 3.792207e-01, 5.523475e-01, 6.358538e-01, -1.698801e-01, 4.238431e-01,
    -3.699768e-01, 1.034058e+00, 1.595806e-01, 8.917733e-02, -4.385079e-01, 2.195903e+00, -1.064107e+00, -5.867727e-01,
    -1.437748e+00, -6.775197e-01, 1.977197e-02, 5.444919e-01, -7.258111e-01, 5.249088e-02, 1.510011e-01, 2.767948e-01},
   {-6.943157e-01, -6.132603e-01, -4.960768e-01, 8.934709e-02, 1.140477e+00, 5.428456e-01, -1.257530e-01, 1.438945e-01,
    4.851493e-01, 8.551489e-01, -1.980322e-02, 1.750237e-01, 1.060984e+00, -3.814453e-01, 4.406742e-01, -6.662750e-01,
    4.979782e-01, 2.119721e-01, 8.352413e-01, 3.671446e-01, 3.497728e-01, 5.765600e-02, -9.128212e-01, 3.659576e-01,
    1.489214e-01, 9.575930e-01, -3.290612e-01, -1.356661e+00, -2.081418e-01, 4.812245e-01, 8.796797e-01, 4.117151e-01,
    -3.444073e-02, -7.702160e-01, -3.236136e-01, 1.532111e-01, 9.203463e-01, 8.449838e-03, -5.750023e-01, 2.379533e-01,
    -3.814313e-02, -1.244008e-01, 6.088435e-02, 1.047786e+00, 3.740292e-01, 7.547894e-01, 7.428136e-01, -4.355935e-01,
    6.068221e-01, 7.638108e-01, 4.701826e-01, 1.654166e-01, 2.660975e-01, 1.707193e-02, -9.930594e-02, -6.428122e-01,
    4.802618e-01, -2.093215e-01, 4.979194e-02, -8.192620e-02, -1.031239e+00, 2.619189e-01, -7.520653e-01, 6.309542e-01},
   {-8.656746e-01, -1.272476e+00, -7.526594e-01, 1.110392e+00, 6.820975e-01, -9.334449e-02, -1.904712e-01, 8.115613e-01,
    -5.853254e-01, 6.385245e-02, 5.072243e-02, -9.151137e-02, 8.316448e-01, 4.405466e-01, -1.819509e-01, -6.741268e-01,
    -5.643379e-02, -1.771177e+00, 7.655652e-01, 4.360766e-01, 4.775375e-01, 1.120949e-01, -1.312533e-01, -4.162602e-01,
    -2.943988e-01, 3.478664e-01, 6.206038e-01, -4.621060e-01, 3.950007e-01, 1.165078e+00, -1.026718e-01, 5.896401e-01,
    -2.807052e-01, 2.414013e-01, 5.748833e-01, 3.318979e-01, -4.639399e-02, -2.164954e-01, -1.407426e-03, -1.882432e-01,
    5.297935e-01, 1.074723e+00, -2.108318e-02, -3.183514e-01, -4.096010e-01, 1.741561e-01, -8.796459e-01, -3.821965e-01,
    -4.258714e-01, -3.370963e-01, 4.870875e-01, -6.447833e-01, 3.687144e-01, -3.729928e-01, -1.663104e+00, -1.353020e+00,
    1.529771e+00, -3.389128e-01, -1.732748e-01, 1.324900e-01, 8.048916e-01, 5.091546e-01, -7.816265e-01, 3.350934e-01},
   {-4.512511e-01, 1.770400e-02, 3.808510e-01, 8.959194e-01, -3.547215e-01, -8.059087e-01, 5.762231e-01, 1.032611e+00,
    -5.731722e-01, -9.084002e-02, 8.717774e-02, 4.236567e-01, 4.172773e-01, -1.664414e-01, 5.393197e-01, 4.481725e-01,
    6.297383e-01, -1.894223e-01, 1.039965e+00, 1.156583e+00, 6.896337e-01, 5.223052e-01, 7.004675e-01, 2.112265e-01,
    -7.909412e-01, -2.361167e-01, -4.180811e-01, -7.843944e-01, 9.313809e-01, 1.135908e+00, -1.660058e-01, 5.926825e-01,
    9.296554e-01, 7.429913e-01, 1.124590e-02, 1.095654e-02, -1.271546e-01, 8.138101e-01, -5.963861e-02, 2.141800e-01,
    2.325824e-01, 8.575924e-01, -2.113376e-01, -1.241742e-01, -4.467144e-01, 5.417807e-01, 1.009449e-01, -4.698943e-01,
    9.366085e-02, 9.809422e-01, 4.904010e-01, 2.278165e-01, 1.819593e-01, -1.200597e+00, -2.251012e-02, -9.943328e-01,
    1.439223e+00, 7.411991e-01, 1.645856e-01, -6.389180e-01, 6.232166e-01, 9.236944e-01, 1.951351e-01, -3.723007e-02},
   {3.290404e-01, 4.785461e-01, -9.064929e-02, -4.324512e-01, -7.072652e-01, -4.002740e-01, 3.073211e-01, 8.882071e-01,
    5.106283e-01, -9.806696e-02, 1.800665e-01, 1.749040e-01, 8.613864e-01, 7.927514e-02, 5.779339e-01, -1.713397e-01,
    6.540055e-01, 9.008698e-01, -9.886355e-01, 5.800522e-01, 3.900053e-01, 6.642686e-01, 7.465222e-01, 5.706472e-01,
    -1.059566e-01, -5.059717e-01, -1.045670e+00, -3.659692e-01, 2.212245e-01, 3.604287e-01, 1.003874e-02, 3.343469e-01,
    1.399217e+00, 7.331844e-01, -3.585441e-01, -2.746749e-01, -9.902139e-01, -3.155127e-01, 5.804943e-02, 1.346189e-01,
    -1.512120e+00, -5.883604e-01, 5.494596e-01, 4.327037e-01, 7.551064e-01, 1.518460e+00, 1.196872e-01, 3.321581e-01,
    -2.235325e-01, 8.730700e-01, 7.223555e-01, 6.657618e-01, 9.588332e-02, -5.393604e-01, 6.956336e-01, -6.169711e-01,
    -3.262590e-01, -6.133724e-01, -4.424802e-01, -6.530959e-01, 1.260848e-01, 1.805433e-01, 6.815304e-01, 4.762698e-01},
   {7.057774e-01, 4.600420e-01, 2.174913e-01, -9.047116e-02, -6.930233e-01, -8.289653e-01, 6.097154e-01, 1.387158e-01,
    -7.314459e-01, 3.407090e-01, -2.248568e-03, -2.241371e-01, 6.407639e-01, -4.988079e-01, 4.265585e-01, -1.181413e+00,
    2.430067e-01, 6.551877e-01, 7.965509e-02, -6.868127e-01, 3.807631e-01, 5.304933e-01, 1.433171e+00, 6.509946e-01,
    5.778862e-01, -5.869060e-01, 2.121248e-01, 2.916695e-01, 1.304543e+00, 2.132496e-01, -8.107098e-02, 1.075942e+00,
    8.089676e-01, 3.838275e-01, -1.903819e-01, -7.265953e-02, -1.247494e+00, 3.197776e-01, -2.617117e-01, -6.760533e-01,
    -1.575363e+00, -2.935620e-01, 2.322519e-02, 5.091654e-01, 4.967394e-02, 1.372349e+00, 8.932269e-02, 1.078653e+00,
    -5.550500e-01, 1.340491e-01, 1.035927e+00, -5.665943e-01, 1.063491e-01, 9.452080e-01, -8.074008e-01, -3.858664e-01,
    -6.399243e-01, -4.830280e-01, -9.230423e-02, -2.104255e-01, 1.187829e-01, -1.436911e-02, -1.000457e-01, 1.381545e-01},
   {4.113342e-01, 1.420618e+00, 1.069725e+00, -1.253206e-01, -1.796277e-01, -7.541357e-01, 1.209726e+00, 1.702705e-01,
    -4.114381e-01, -2.450475e-01, 1.191483e-01, 4.217238e-01, 4.386950e-01, -5.378438e-01, -1.208652e-01, -6.347548e-01,
    4.314649e-01, 4.995632e-01, 7.617550e-01, 9.044203e-01, 7.821203e-01, 5.841960e-01, 8.533214e-01, 5.861009e-01,
    1.398644e-01, 6.018732e-01, 6.754681e-01, 4.534993e-01, 8.121162e-01, 5.612068e-01, 5.772545e-01, 9.910414e-01,
    1.131877e+00, 8.485377e-01, 1.557633e-01, -8.516605e-01, -3.202590e-01, 6.060466e-01, -1.252981e-01, -8.504973e-02,
    -2.642822e-01, 2.103393e-01, -1.125739e-01, 1.034143e+00, 5.454817e-01, 4.264265e-01, 6.100464e-01, 5.912443e-01,
    3.472618e-02, -6.395277e-01, 7.216107e-01, -9.485145e-01, 3.229397e-01, 7.239100e-01, -9.500235e-01, -4.525316e-01,
    1.049595e-01, 6.716266e-01, 3.242129e-01, 1.033604e-01, 5.036505e-01, 1.208426e+00, -3.688879e-01, 5.387223e-01},
   {6.547970e-01, 8.741129e-01, 2.729816e-01, -9.713305e-01, -7.512532e-01, -7.662386e-01, 1.068557e+00, -1.205548e-01,
    -7.541019e-01, -2.945699e-01, 5.565793e-02, 5.328162e-01, -2.176080e-01, -4.549486e-01, 5.447302e-01, -3.835210e-01,
    4.810342e-02, 2.950876e-01, -1.387747e-01, 1.369543e+00, -2.228595e-01, 6.221124e-01, 1.167256e+00, 5.945626e-01,
    3.497232e-01, 4.490150e-01, -3.289490e-02, -3.442607e-01, 4.407326e-01, -3.233150e-01, 4.235741e-01, 1.104301e+00,
    1.099977e+00, 1.368367e+00, 7.091975e-01, -5.930956e-02, 9.533799e-02, 9.519698e-01, -6.104942e-01, 4.842515e-02,
    2.396435e-01, 2.747091e-01, -2.128915e-01, 1.076220e+00, 4.828863e-01, 1.633800e-01, 5.308940e-01, 7.419576e-01,
    4.230201e-01, 3.222278e-02, 3.985722e-01, 2.875547e-01, 2.372588e-01, 3.936108e-01, -5.209877e-01, -7.119451e-01,
    1.432745e+00, 2.783913e-01, 4.480803e-01, -2.726112e-01, 2.712806e-01, 5.753575e-01, -8.722389e-02, 4.376115e-02},
   {4.361598e-01, 8.399725e-01, 7.658659e-01, 3.959962e-01, -3.806142e-01, -1.149612e+00, 4.168653e-01, 4.847873e-01,
    -4.489237e-01, 5.686735e-01, 2.089599e-01, 3.352004e-02, -3.200497e-01, -1.281627e-01, 6.944306e-01, -8.356013e-01,
    1.498994e-01, -2.808038e-01, 1.274665e-01, -3.720744e-01, 3.973396e-01, 4.446156e-01, 1.211685e+00, 3.352109e-03,
    -1.581095e-01, 2.065919e-01, 5.118729e-01, 1.309574e-01, 9.231649e-01, -3.740363e-01, 5.195807e-02, 3.874669e-01,
    3.632723e-01, 9.109810e-01, 8.838730e-01, 4.658169e-01, -4.798545e-02, 1.432935e+00, 5.000506e-01, -3.091638e-01,
    -3.906139e-01, 1.288367e-01, 7.419612e-02, 2.284853e-02, 6.248222e-02, -1.234646e-01, 1.078149e+00, 7.020741e-01,
    -1.450970e-02, 4.498534e-01, 5.566249e-01, -4.419906e-01, 2.848194e-01, 8.961287e-03, 7.604769e-02, -1.858007e-03,
    1.158797e+00, -2.188643e-01, 1.693376e-01, 5.723662e-01, 6.627865e-01, 2.580247e-01, 1.556617e-01, 1.703788e-01},
   {3.739344e-01, 6.493672e-01, 2.493753e-01, 4.037507e-01, -6.070234e-01, -9.355641e-01, 1.102953e-01, 7.735983e-01,
    -6.924620e-01, 7.511315e-01, -4.038621e-01, 7.309240e-01, -8.971846e-01, -8.109502e-02, 4.533352e-01, -1.048825e+00,
    -2.321901e-01, -1.588048e-01, -1.175750e-01, 5.940547e-01, 2.571883e+00, 7.832184e-01, 1.391752e+00, 5.214645e-01,
    -7.154567e-01, 4.733189e-01, 1.009322e-01, -2.931516e-01, 1.932629e-01, 2.054762e-01, -7.913887e-01, 1.578699e-01,
    9.832952e-02, 8.236339e-01, -9.580599e-02, 2.055803e-01, -2.209446e-01, 8.147257e-01, -2.196587e-01, -5.188188e-01,
    -9.777055e-01, -3.698538e-02, 1.414307e-01, -6.603964e-02, -8.724830e-02, -2.128303e-01, 7.030975e-01, 5.053589e-01,
    8.611755e-01, 6.006477e-01, 5.801743e-01, 1.796626e-01, 6.940902e-01, 3.875901e-01, 1.153869e-02, 3.604362e-01,
    -5.698728e-02, 3.191396e-01, -6.765074e-02, 1.721197e-02, 5.476860e-01, -9.285504e-02, 3.875729e-01, -3.194893e-02},
   {5.132053e-01, -1.458066e-02, -5.367092e-02, -4.357174e-01, -5.091311e-01, -6.915320e-01, -2.835151e-01, 9.353182e-02,
    2.169110e-01, 1.790010e-01, -1.901543e-01, -3.971425e-01, -7.255033e-01, -8.489843e-02, 5.870988e-01, -8.209565e-01,
    1.873125e-01, 6.565313e-01, 3.428078e-01, -6.329213e-02, 2.956859e+00, 4.429811e-01, 9.778761e-01, 7.393439e-01,
    -3.557237e-01, -3.130230e-01, 3.466758e-01, 5.331500e-03, 3.895614e-01, 6.815948e-01, -1.108038e+00, 4.920190e-01,
    -8.727432e-01, 1.259245e+00, -4.802647e-01, -5.078607e-01, -3.957346e-01, 4.694024e-01, 1.758420e-01, 6.941265e-03,
    -1.917201e+00, 7.965207e-02, -3.793351e-01, 2.430369e-01, 2.480460e-01, -7.990822e-01, 5.262152e-01, 8.598522e-01,
    1.637559e-01, 4.434757e-01, 4.959075e-01, 4.823799e-01, -6.050957e-02, 5.616496e-01, -2.369764e-01, -1.413239e-02,
    -3.394246e-01, -3.573268e-01, 1.717364e-01, 3.370701e-01, 2.775713e-01, -5.133059e-01, -2.925594e-01, -2.045053e-01},
   {6.756294e-01, 2.267055e+00, 2.323145e+00, 1.952154e-01, 5.439783e-01, -4.337043e-01, 2.340523e-01, 8.871342e-01,
    4.721821e-01, 1.524307e-01, 6.560984e-02, 7.272304e-01, 8.777015e-02, -1.250637e-01, 1.668926e+00, 1.190267e+00,
    -1.497976e-01, -3.603642e-01, 3.560982e-01, -1.888346e-01, 3.564845e+00, 5.835412e-01, 1.192766e+00, -9.590788e-02,
    -1.952087e-01, 2.486089e-01, 1.011182e+00, 6.952257e-01, 9.391512e-01, 7.611821e-02, -1.443118e-01, 8.125198e-01,
    -2.901088e+00, 1.467235e+00, -4.394301e-01, 5.726226e-01, -2.506838e-01, 1.820657e+00, 1.107871e+00, 4.725768e-01,
    4.727956e-01, 9.971088e-01, 1.036170e+00, 1.207875e+00, 4.052498e-01, -1.040129e+00, 1.748470e+00, 9.118587e-01,
    6.794223e-01, -3.414220e-01, -8.430895e-01, -1.453552e+00, 5.593837e-01, -2.954876e-01, -1.494694e+00, 8.453741e-01,
    -9.300911e-02, 1.006618e+00, 8.156924e-01, 6.533082e-02, 1.083517e+00, -4.318781e-01, -9.738192e-01, 8.379212e-01},
};

const float RNN0_U[64][64] = {
   {-3.843865e+00, -7.443862e-01, -6.752327e-01, 1.766385e+00, 6.103780e+00, -3.918703e+00, -7.074602e-01, -3.482159e+00,
    -1.815564e+00, -1.321932e-01, 6.952118e-02, 4.046207e-01, 3.957723e+00, 5.348819e-01, 3.972809e+00, 2.257718e-01,
    4.828402e-01, 6.210780e-01, 4.202481e+00, 3.325527e+00, 2.072540e+00, -2.384516e+00, 2.302346e+00, 1.209160e-01,
    2.325330e+00, 2.501054e+00, -5.470265e-01, -1.052102e+00, 9.230248e-01, -1.482298e+00, -4.303671e-01, 5.223661e-01,
    3.002687e+00, 2.099211e+00, -8.556437e-01, 1.531031e+00, 7.749215e-02, -7.741724e-01, -1.127618e+00, 5.216076e-01,
    7.156441e-01, 5.848931e+00, 3.586196e-01, -3.130373e-01, -5.910127e-01, 3.230272e-01, 5.881441e-02, 2.078763e+00,
    3.543418e-01, 4.447756e-01, -8.142248e-01, 6.840544e-01, 1.827136e+00, 1.527359e-02, 6.561668e-01, -2.235765e+00,
    2.008039e+00, 2.410195e+00, -5.633190e-01, -3.784095e+00, 1.779329e+00, 2.234628e+00, 8.506789e-01, -7.803750e-01},
   {9.532304e-01, -8.747215e-01, 8.153487e-01, 7.944611e-01, 3.859228e-01, 9.130303e-01, 3.053051e+00, -3.514199e-01,
    5.329191e-01, 2.238152e-01, 2.468015e+00, 4.746966e+00, 8.914028e-01, 1.370089e+00, -1.318704e+00, 1.337642e+00,
    -1.764271e+00, 8.147623e-01, 2.301758e+00, -2.120163e+00, -4.897316e-01, 2.186852e+00, -4.517156e-01, 9.900770e-01,
    -2.751815e-01, 3.352644e+00, 4.809518e+00, -2.284717e+00, -5.906159e-02, 5.551817e-01, 5.016042e+00, -2.410578e-01,
    -1.967432e+00, 2.847530e+00, 1.351828e-01, 1.476701e+00, 2.017563e+00, -1.344023e+00, 3.054347e+00, -7.986279e-01,
    1.404146e+00, -4.432972e-02, 3.024187e+00, 5.186913e+00, 2.922153e-01, -5.726439e-01, -7.185693e-01, -2.465256e-01,
    4.112130e+00, 1.701075e+00, 1.450390e+00, -1.238386e+00, -1.570849e+00, -1.282146e+00, 5.928624e-03, 2.599568e+00,
    -5.401827e-01, 2.082464e+00, -9.358293e-01, -1.133879e+00, -3.713736e+00, 3.826941e+00, -1.088919e+00, -1.791091e+00},
   {1.515361e+00, 1.641081e+00, -1.920692e+00, 1.885260e+00, 4.159710e-01, -4.496692e-01, 1.696599e+00, 9.951798e-02,
    -9.950166e-01, 1.214250e+00, 3.347454e+00, 2.862012e+00, -1.309872e-01, 1.792205e+00, 3.865309e-02, -3.052611e-02,
    -1.157227e+00, 3.909726e-01, 2.219281e+00, -2.835746e+00, -3.135208e-01, 1.485859e+00, 1.517835e+00, 8.981466e-01,
    9.598401e-01, 2.607662e+00, 5.212574e+00, -1.336446e+00, 2.246731e+00, 8.133480e-01, 4.730172e+00, 1.165179e+00,
    -1.443979e+00, 1.534667e+00, 2.472789e+00, 1.760351e+00, 1.720232e+00, 1.615536e+00, 3.840768e+00, -1.268218e+00,
    -1.207610e+00, 1.029820e+00, 3.353164e+00, 3.756515e+00, 1.396039e+00, -1.371834e-01, 3.182966e-01, -4.577909e-01,
    2.389232e+00, 2.123628e+00, 9.182656e-01, -1.458146e+00, -1.182199e+00, 6.575237e-02, -6.591194e-01, -5.325311e-01,
    1.551927e+00, 1.353252e+00, -3.776221e-01, 1.329765e+00, -2.238537e+00, 2.707862e+00, -3.237448e-01, -1.888537e+00},
   {-3.073779e+00, -1.630872e+00, -1.025684e+00, 2.116438e+00, -9.510902e-01, -1.728912e-01, 5.956804e-01, 4.239673e-01,
    1.865093e+00, 7.796564e-01, 1.115201e+00, 1.179404e+00, 2.032974e+00, 2.350336e-01, 5.685611e-01, 1.098190e+00,
    1.092849e+00, -1.137254e+00, 3.072002e+00, 3.174091e+00, 1.860821e+00, -3.017544e+00, -1.766521e+00, -3.845453e+00,
    -3.408582e-02, 2.296389e-01, 1.145069e+00, -2.992260e+00, -3.507817e+00, 4.368444e+00, -1.191724e+00, -4.057206e+00,
    2.964481e+00, -6.331957e-01, 1.598599e+00, 1.937679e+00, 3.960058e-01, -8.950541e-01, 3.372960e+00, 1.625756e+00,
    -1.041832e-01, -7.035161e-01, 6.548747e-01, -1.284558e+00, -3.345199e-01, -2.816646e-01, 1.006453e+00, -1.684347e+00,
    9.684041e-01, -2.783490e+00, -2.922207e+00, 1.298702e+00, 1.787230e+00, -2.205177e+00, 1.768286e+00, 2.233475e+00,
    2.969160e-01, 3.485048e-01, 8.512839e-01, 1.433259e+00, -2.072443e+00, 8.689295e-01, 4.123867e+00, -1.614732e+00},
   {-2.223544e+00, 3.146662e+00, 3.348063e+00, 2.846355e-01, -4.232699e+00, -3.558901e+00, 3.437076e+00, 1.813915e+00,
    6.235329e-01, 2.452847e+00, 3.440104e+00, 2.080152e+00, 6.481476e+00, -3.110826e+00, 2.130854e+00, 6.820800e-01,
    2.005397e+00, 6.032234e-01, 2.924361e+00, 2.921571e+00, -1.247402e+00, 2.920816e-01, 1.830686e+00, -5.328229e+00,
    -2.861440e+00, 1.115835e+00, 2.972230e+00, -3.952237e+00, -2.801820e+00, 3.860546e-01, 5.183374e-02, -2.747322e+00,
    4.353060e+00, 7.636086e-01, -8.180591e-01, 1.745489e+00, -1.393386e+00, 5.729634e-01, 1.519549e+00, 5.322676e+00,
    6.217639e-02, -2.479379e+00, 1.287087e+00, 1.846003e+00, -9.250106e-01, 1.485272e+00, 3.236492e-01, 1.233267e+00,
    4.630034e+00, 8.590840e-02, -3.108653e+00, 3.298734e+00, -4.113142e-01, -4.983116e-01, 1.651533e+00, 2.131352e+00,
    -8.566105e-01, 3.338664e-01, 3.271612e-01, -2.053350e+00, -5.941365e-01, 4.494141e+00, 3.420310e+00, -1.497972e+00},
   {-2.234245e+00, -1.450284e+00, -7.523116e-01, -1.799772e+00, 1.662990e+00, -3.723046e+00, 4.002136e-01, 1.179769e-01,
    4.425136e+00, -1.567820e+00, -4.574008e-01, -8.227096e-01, 1.509067e+00, -1.607195e+00, 4.459718e-01, 1.181570e+00,
    1.773889e+00, 1.469282e-01, -1.598359e+00, -1.520288e+00, 3.212039e+00, -1.286474e+00, -3.041055e-01, 5.280266e-01,
    6.108797e-01, -9.859130e-01, -4.512312e-01, 2.599072e+00, -1.850266e-01, 3.944119e-01, 8.045518e-01, -2.291496e+00,
    -1.348675e+00, -1.310705e+00, -2.095047e+00, -1.048736e+00, -3.296745e-02, -9.785861e-01, 1.917560e+00, -3.888221e-01,
    -1.159057e+00, -9.994809e-01, 7.942739e-02, -1.922007e+00, -3.776140e-01, -2.935518e-01, -1.126790e+00, -1.684101e+00,
    -4.548007e-01, -1.015452e+00, -1.390834e+00, 1.496185e+00, -2.035786e+00, -1.096523e+00, 1.237849e+00, 5.901971e-01,
    -1.421436e+00, 4.345053e-01, 4.429706e-01, -6.550333e-01, -1.929762e+00, -6.492277e-01, 1.651417e+00, 1.660181e+00},
   {-1.920033e+00, -2.680373e-01, 8.342783e-02, 3.388008e+00, 2.533280e-02, 2.764314e+00, -1.136554e+00, -1.327415e+00,
    -2.387187e-02, 1.129462e+00, 8.037943e-01, 2.125005e+00, 1.659260e+00, -8.124098e-01, -1.959858e+00, -3.270299e-01,
    -2.057109e-01, 1.222665e+00, 2.094819e-02, 1.282036e+00, 2.512549e+00, -2.602272e+00, 6.677671e-02, -2.069546e+00,
    -6.029356e-01, -4.933966e-01, 8.897296e-01, -2.659784e+00, 2.185621e-01, 1.328673e+00, 2.361199e+00, -1.858189e+00,
    1.446876e+00, 1.259671e+00, -2.157161e+00, 1.006247e-01, -3.037230e-02, -1.941313e+00, 2.230217e+00, 8.423983e-01,
    -2.186105e-01, -3.288535e+00, 2.823608e+00, -1.535688e+00, -1.100676e+00, 7.580509e-01, -8.968295e-01, 1.408811e+00,
    8.974488e-02, 1.936344e+00, -9.810045e-01, 1.723785e+00, -8.355580e-01, -2.651292e+00, 6.808301e-01, 2.236485e+00,
    1.057599e-01, -3.631649e+00, -7.686806e-01, -8.255309e-01, -2.151774e+00, 1.464467e-01, 2.318348e+00, -1.076973e+00},
   {-9.936202e-01, 8.962534e-01, -4.363454e-01, -3.012400e-01, -1.334053e+00, 4.706647e-01, 4.283852e-01, 2.351891e+00,
    -2.700532e+00, 2.386474e+00, -3.759137e-02, -5.111080e-01, 2.728089e-01, 1.591032e+00, -1.684956e+00, 2.889249e-01,
    4.429058e-01, -6.255782e-01, -3.067656e-01, 1.724380e+00, -2.654390e-01, -8.234957e-02, -7.473584e-01, -2.550877e-01,
    -4.032137e-01, 2.153688e-01, 3.223248e+00, 1.169201e+00, -2.961800e+00, -2.799120e-01, 2.620484e-02, -7.706479e-01,
    4.400212e-01, 7.392143e-01, 5.528364e-01, 1.096662e+00, -8.349354e-01, 1.530138e-02, -2.423812e+00, 1.616394e+00,
    6.704311e-01, -2.132310e+00, 1.371253e-01, 2.272101e+00, -1.931135e-01, 6.714166e-01, -1.065445e+00, 1.099090e-01,
    1.008851e+00, 3.453334e-01, -2.499650e-01, 9.678360e-01, -2.322821e+00, 5.804873e-01, 1.283261e-01, 9.292880e-01,
    -1.133879e+00, 1.615080e+00, 4.473879e-01, 1.288292e+00, -9.970340e-01, 1.814295e+00, 1.499310e+00, -1.355299e+00},
   {5.642595e-01, 2.228004e+00, 1.788999e+00, -6.451907e+00, -6.002632e-01, 2.585176e+00, -3.708575e+00, -1.971171e+00,
    1.117876e+00, 1.321553e-01, -3.532610e+00, 3.209935e+00, 3.796786e-01, 8.543885e-01, -2.012924e-01, 1.278457e-01,
    2.209283e-01, 9.373686e-01, -1.959654e+00, -5.236475e+00, -1.994319e-01, 1.453896e+00, -1.421079e-01, 1.879764e+00,
    8.233855e-01, 1.402344e+00, -1.328705e+00, -1.620340e+00, -3.282689e-01, -1.577921e+00, 2.388901e+00, 1.586020e+00,
    -3.346763e+00, -9.061514e-01, -4.636840e+00, 1.482782e+00, -1.812162e-02, 1.801728e+00, -1.333899e+00, -1.168301e+00,
    -1.169381e+00, -2.412653e+00, 4.170070e+00, 1.332591e+00, 1.998805e+00, -1.529016e+00, 8.407291e-02, -2.613864e+00,
    -1.979897e+00, 2.649354e+00, 1.138015e+00, -6.200052e-01, -1.065172e+00, -3.734066e+00, 1.026083e+00, 3.103003e+00,
    -1.151749e+00, -1.851739e+00, 4.876774e+00, -1.500199e+00, -3.508329e+00, -9.711960e-01, -4.363400e+00, 5.802154e+00},
   {-2.938514e+00, 4.404759e+00, 5.726807e+00, 1.794421e+00, -2.922522e+00, -1.525895e+00, 7.854438e-01, 1.771171e+00,
    -1.882472e+00, 1.371805e+00, 3.858687e+00, -2.100498e+00, 1.407370e+00, 3.555628e-01, -5.102285e-02, 1.818029e+00,
    -4.524643e+00, -8.332905e-01, 1.406939e+00, 1.334906e+00, 2.551246e+00, -3.874245e+00, -1.788587e+00, -2.515410e+00,
    3.391147e+00, -3.523530e+00, 1.464252e+00, 5.924146e-01, 3.373118e+00, -3.821649e+00, 4.257143e+00, -2.306732e+00,
    6.634306e-01, -9.538028e-01, 2.369242e+00, -1.467024e+00, 2.821615e+00, 3.669850e+00, -1.883713e+00, -1.466994e+00,
    2.352931e-01, -1.148057e+00, 3.259371e-01, 2.668618e+00, -8.332079e-01, 2.771464e+00, 3.363818e+00, 4.093749e+00,
    -1.305643e+00, 3.799256e+00, 1.356126e-01, -3.130599e+00, -7.705745e-01, 6.977888e-01, 8.539029e-01, 2.991356e+00,
    1.054080e+00, 3.712717e+00, -6.330025e-01, 1.609457e+00, 3.663009e-01, -9.369119e-01, 2.215029e+00, -2.613410e+00},
   {-6.129108e-01, -1.945551e-01, -8.725519e-01, 2.038709e+00, -1.002727e+00, 2.652809e+00, 1.600641e+00, 3.592525e+00,
    -2.906276e+00, 7.074053e-01, 2.205171e-01, -2.996796e+00, 8.907550e-01, 2.272069e+00, 1.315620e+00, -7.623749e-01,
    5.056450e-01, 1.937347e+00, -5.533878e-01, 1.069971e+00, 5.567217e-01, -6.726747e-01, -4.539972e-01, -5.386606e-01,
    3.924626e+00, -1.841408e+00, 3.264898e+00, 1.163662e+00, -4.789768e-01, 7.778908e-02, 1.892491e+00, -8.204476e-01,
    5.522547e-01, 9.716706e-01, 3.296530e+00, 6.706879e-01, -2.437672e+00, -6.433337e-01, 1.380809e-01, -1.953333e-01,
    -2.181276e+00, -1.421577e+00, -3.075076e-01, 2.405791e+00, 2.881518e+00, 2.157371e+00, -1.426785e+00, -3.159093e-01,
    1.989722e+00, 1.377394e-01, -5.081477e-01, 1.881811e+00, -3.418391e+00, -6.785009e-01, -8.577927e-01, -8.640125e-01,
    7.730008e-01, -2.657431e-01, -8.870004e-01, 3.001889e+00, 1.110072e+00, -7.093871e-01, 8.822702e-01, -1.758838e+00},
   {1.038652e+00, 1.163079e+00, 1.355998e+00, 6.448164e-03, 1.791063e+00, 1.842474e-02, -3.135996e-01, -3.251613e+00,
    2.525432e+00, -1.861728e+00, 5.571389e-01, -1.952707e+00, 3.311665e-01, -1.395561e+00, -1.769718e+00, -1.316499e+00,
    -2.096457e+00, 1.621363e+00, 5.647725e-01, -4.003078e-01, 8.454790e-01, 9.359154e-01, -1.811799e+00, 5.346124e-01,
    2.750019e-01, 1.092526e+00, 4.299233e-01, -8.055213e-01, -1.337419e+00, -3.056708e+00, 2.355504e+00, -1.839290e-01,
    -4.098120e-01, 1.951921e+00, -2.701320e+00, -3.211786e-01, 1.557808e+00, 8.685319e-01, -5.058330e-01, -1.031521e+00,
    1.929588e+00, 1.472087e+00, 1.021196e+00, 6.165089e-01, -1.255316e+00, -3.943670e+00, 8.672729e-01, 6.190143e-01,
    -2.203392e-01, 6.988677e-01, -1.217305e+00, -2.562078e+00, -2.411113e+00, -6.898434e-01, 8.171456e-01, 1.372707e+00,
    3.537006e+00, 6.257666e-01, 1.629668e+00, -1.298859e+00, -3.720403e+00, 1.299818e+00, -2.663056e+00, -8.345330e-01},
   {-4.361954e+00, 3.069088e+00, 4.667474e+00, -1.008726e+00, -1.305815e+00, -1.039347e+00, 3.280921e+00, 1.891738e+00,
    3.179871e+00, 1.702951e+00, 2.720927e+00, 2.304849e+00, -2.242996e+00, -3.347410e+00, -6.254566e-01, 1.983711e+00,
    -2.282779e-01, -6.846807e-01, 2.004416e+00, 7.708365e-01, -1.780324e+00, -1.976037e+00, -6.720909e-01, -2.948225e+00,
    -3.504730e+00, -1.895244e-01, 1.804955e+00, -2.899144e+00, -1.898652e+00, -1.643403e+00, 2.477737e+00, -3.425925e+00,
    9.120812e-01, 3.512498e-01, -1.096408e+00, 1.587509e-01, 4.783309e-01, 1.919124e+00, 3.077929e-01, 2.383236e+00,
    4.888154e-01, -2.144378e+00, 7.314083e-01, 2.457745e+00, -2.696159e+00, -4.147036e-01, 1.266633e+00, -5.714372e-01,
    4.223773e+00, 2.797818e+00, -2.601676e+00, 1.890551e+00, -4.367950e+00, -2.591186e+00, 1.295870e+00, 1.671869e+00,
    -1.681071e-01, 1.692623e+00, -8.146360e-01, -3.164618e-01, -3.292718e+00, 3.258140e+00, 1.122813e+00, -2.231690e+00},
   {-3.515770e-01, -2.019602e+00, -2.058578e+00, -1.724181e+00, -1.485941e+00, 2.453877e+00, -2.890816e-02, -6.024438e-01,
    3.584152e+00, 7.610846e-01, -2.774296e+00, -1.992566e-01, -1.312763e+00, -4.136859e+00, 2.827156e+00, -3.668506e-01,
    2.103603e+00, -8.454310e-01, -1.396627e+00, -7.304820e-01, 3.822034e+00, -2.323925e+00, -4.037699e-01, 1.113096e+00,
    3.213989e+00, 2.638386e+00, -2.037052e+00, -3.985984e-01, -8.093325e-01, -1.658951e-01, -1.461241e-01, -2.941428e-01,
    2.529007e-01, 1.165796e+00, 5.671014e-03, 3.202693e+00, -2.365060e-02, -5.429178e-01, -1.370752e+00, -4.271238e-01,
    -2.451360e+00, -1.593413e+00, 3.518340e-01, -7.728676e-01, 1.324227e+00, 4.489291e-01, -3.214482e-01, -2.262696e+00,
    -2.198790e-01, -9.377484e-01, -1.513018e+00, 9.659250e-01, 9.690585e-01, -4.618509e+00, 1.715462e+00, 3.263571e-01,
    -6.193590e-01, 1.087959e+00, 2.171755e+00, -4.211270e+00, 1.732205e+00, -2.124837e+00, 2.996430e+00, 1.393685e+00},
   {6.861362e-01, -1.051045e+00, -5.396089e-01, 1.691921e+00, -1.941112e+00, -4.823774e-01, -2.385530e+00, 5.850907e-01,
    -9.570918e-01, 5.164793e-02, -4.089496e-01, 6.413158e-01, -2.252428e+00, 1.695585e+00, -2.948453e+00, -1.514831e-01,
    8.599864e-02, 1.740142e+00, -2.128439e+00, 6.551017e-01, -1.845359e+00, 9.049789e-01, -2.570496e-01, 3.863398e+00,
    1.490668e+00, -2.004527e+00, -1.943469e+00, -4.244776e-01, 1.578709e+00, 5.803736e-01, -3.384100e+00, 3.935072e+00,
    2.054322e+00, 2.206025e+00, 2.437262e+00, 1.795391e+00, 9.233862e-01, 4.902587e-01, -4.680450e-01, -1.434865e+00,
    -2.926064e-01, 7.483128e-02, 9.024360e-01, -4.382050e-01, 1.843502e+00, -1.785959e+00, 3.439596e+00, 1.607087e+00,
    -4.472772e-01, 2.759266e-02, 6.202278e-02, 1.469247e+00, 2.960644e+00, -1.578741e+00, 1.500033e+00, -5.909416e-01,
    1.161260e+00, -1.959242e+00, 8.171605e-01, -4.187122e+00, 1.836484e+00, -1.678234e+00, 1.623618e+00, -3.039700e+00},
   {6.204610e-01, 5.008641e+00, 4.188892e+00, 6.994348e-01, -8.525506e-01, 3.162154e+00, 3.075161e+00, 1.150780e+00,
    -1.917879e+00, 2.167563e+00, 1.665593e+00, -1.611742e+00, 5.331961e+00, 1.632131e+00, -2.523047e+00, -3.984390e+00,
    -1.583714e+00, 3.016582e+00, 5.549592e-02, 2.355699e+00, 9.194578e-01, -9.702367e-02, -1.995916e+00, 1.380707e+00,
    -7.043727e-02, -4.579173e-01, 1.534575e+00, 4.082676e-02, 1.735825e+00, 1.089761e+00, 2.545862e+00, 1.564505e+00,
    4.868531e+00, 2.268241e+00, 1.838516e+00, -1.165958e+00, 3.771350e+00, 5.130557e+00, 1.953263e-01, -1.794612e+00,
    3.714728e+00, -1.464539e+00, 1.955622e+00, 3.205285e+00, -2.431154e+00, 1.120087e+00, 4.092033e+00, 2.733990e+00,
    -2.567564e-01, 1.757136e+00, 2.402812e+00, 4.730779e+00, -2.180583e+00, -2.245245e+00, 4.479970e+00, 2.188393e+00,
    3.558512e+00, 2.831382e-02, -2.408831e+00, -5.583046e-01, -4.451153e-01, 2.449382e+00, 5.159197e+00, -9.180238e-01},
   {2.725619e+00, -1.673583e+00, -2.462346e+00, 1.004978e-01, -3.069173e+00, -2.603520e-01, -1.520665e+00, 1.359591e-01,
    -1.657810e+00, 3.709565e+00, -3.526914e-01, -5.927789e-01, -1.916294e+00, 3.254851e+00, -2.285473e+00, -1.988334e+00,
    1.224591e+00, -1.908817e+00, 9.757646e-02, 2.861512e+00, 2.009269e+00, 1.980209e+00, -1.588339e+00, 1.377960e+00,
    1.625721e+00, 3.799359e+00, 2.432940e+00, 1.542280e+00, -1.010374e+00, 2.756021e+00, -1.147536e+00, 1.825089e+00,
    1.456502e-01, -1.815796e+00, 2.173568e+00, -6.209451e-02, -3.513261e+00, -2.118885e+00, -1.602712e+00, 4.641636e-01,
    -2.741400e+00, -2.196923e+00, 2.780324e-01, -2.583081e+00, 1.808517e+00, 1.019273e+00, -2.222644e+00, 4.724973e-01,
    1.027437e-01, -7.867222e-01, 1.838669e+00, 1.224012e+00, 4.555395e-01, -1.329137e+00, -3.167251e+00, -1.965215e-01,
    -1.943299e+00, 6.758549e-01, 2.163592e+00, 5.470248e-01, 3.822636e+00, 2.219997e+00, 8.063827e-01, -1.029281e+00},
   {2.936874e+00, -1.400932e+00, -1.732170e+00, 3.152018e-01, 7.228038e-01, 1.406278e+00, 3.319418e+00, -1.940197e+00,
    -5.061998e-01, -8.632461e-01, 5.836390e-01, 2.166009e-01, 1.001510e+00, 8.608479e-01, -7.803096e-01, -3.826892e+00,
    3.271749e+00, 7.245815e-01, 3.035810e+00, 2.768935e-01, -1.340382e-01, 4.003180e+00, -1.282823e+00, 2.207127e+00,
    -3.007454e-01, 2.728537e+00, -8.766568e-01, -1.447565e+00, 2.111867e+00, 2.573056e+00, 4.879938e-01, 3.968535e+00,
    1.408952e+00, -6.952851e-01, 1.861018e-01, 1.738961e-01, -2.620091e+00, -3.326083e+00, 3.156189e-01, -1.076401e+00,
    -4.198854e+00, -5.777382e-01, -1.908072e-01, -1.013165e+00, 3.664748e+00, 3.630878e-01, -2.106104e+00, 4.006293e-01,
    1.456517e+00, 1.669900e+00, 2.825593e+00, 3.016226e+00, 6.524336e-01, 1.797385e+00, -4.155711e+00, -3.808255e+00,
    7.381469e-02, -2.168271e+00, 4.067951e-01, -1.303653e+00, -9.689106e-01, 2.299851e+00, 3.646839e-01, -1.093382e+00},
   {-3.052176e+00, 2.788458e-01, 3.265809e-01, 2.126765e+00, -1.363966e+00, -2.561263e-01, 2.573131e+00, -2.818588e+00,
    6.480302e-02, 1.796559e+00, 1.953211e+00, 1.327860e+00, 2.543650e-01, 2.288869e-01, 3.273245e+00, 2.683053e+00,
    -2.417763e-01, 8.759601e-01, -3.230534e-01, 1.482380e+00, 1.929319e+00, -3.445997e+00, -1.642884e+00, -2.632713e+00,
    -3.701474e-01, -2.036628e+00, 9.414388e-01, -5.192676e+00, 7.837052e-01, -3.705332e-01, -4.184424e-02, -2.269495e+00,
    4.444061e-01, 8.368097e-01, 1.548573e+00, -2.309873e+00, 2.139428e+00, 9.641643e-01, 7.683303e-01, 6.623223e-01,
    1.315979e+00, -2.470347e+00, -7.083727e-01, 9.212372e-01, -8.653163e-01, -7.236621e-01, 2.126482e+00, 1.403333e+00,
    3.580287e+00, 6.888958e-01, -1.883493e+00, 9.219951e-01, 2.012184e-01, 4.184766e-01, 9.245282e-01, 7.490800e-01,
    2.233063e+00, 3.607121e-01, -2.262775e+00, -8.032535e-01, -1.001156e+00, 3.073316e+00, -9.210969e-01, -1.531777e+00},
   {-3.534667e+00, -9.072124e-01, -1.411225e+00, 2.349354e+00, -3.007093e+00, -1.099963e+00, 8.259593e-01, 1.074047e+00,
    4.749700e-02, 4.547492e-01, 7.770709e-01, 2.971636e-01, 6.287431e-01, -2.542874e-01, -2.250536e-01, 3.072262e+00,
    -2.017474e+00, 1.492949e+00, -2.777796e-01, -1.895722e+00, 1.677413e+00, -3.503620e+00, -6.286639e+00, -3.983569e+00,
    -7.525180e-01, -1.124321e+00, -1.204877e+00, -1.033868e+00, -1.834906e+00, -2.162413e+00, -1.287092e+00, -3.054528e+00,
    -4.483763e-01, -1.612032e+00, 1.253989e+00, -2.132987e+00, 2.112654e+00, -1.820785e+00, -1.113139e+00, 1.220413e+00,
    5.675393e-01, -2.644825e+00, -7.158561e-01, -1.395440e+00, -1.403679e+00, 2.012668e+00, 3.935384e-01, 2.036424e+00,
    5.255407e-02, 1.271501e+00, -1.013451e+00, -4.254626e-02, -1.664889e+00, -2.035508e+00, 6.486112e-01, 1.506946e+00,
    -3.847244e-01, 5.136091e-01, -1.635491e+00, 1.810276e+00, 2.884767e-01, -2.278000e-01, -9.097534e-01, -9.949510e-01},
   {-2.195226e+00, -2.897792e+00, -3.066010e+00, 2.913769e+00, -1.019071e+00, 1.863529e+00, -4.802441e-02, -8.897321e-01,
    1.630921e+00, 7.484573e-01, -1.174034e+00, 4.944426e-01, 7.210996e-02, -2.052705e+00, -8.795946e-01, 4.033293e+00,
    -1.286498e+00, 5.793623e-01, -1.515277e+00, -6.064267e-01, 2.704659e+00, -4.534654e+00, -3.851992e+00, -2.944500e+00,
    1.702598e-01, -8.001702e-01, -3.429407e-01, 2.920367e-02, -3.984357e+00, 6.691092e-01, -7.804976e-01, -6.332602e+00,
    5.648552e-01, -9.762250e-01, 6.042808e-01, 6.820958e-01, 1.823947e+00, -3.970034e+00, 4.615740e-02, 1.798595e+00,
    4.099873e+00, -1.656954e+00, -5.476711e-01, -3.991785e+00, -2.810279e+00, 1.046478e+00, -2.039096e+00, -2.670441e+00,
    -2.106669e-01, -1.192559e+00, -4.565065e+00, 2.683425e-01, -1.086247e+00, -3.291959e+00, 4.696521e+00, 2.280111e+00,
    -1.806927e+00, -3.907868e-01, 1.961225e-01, -2.944082e-01, 3.665397e-01, -1.997935e+00, 1.421312e+00, -8.964723e-01},
   {4.928346e+00, -2.442164e+00, -1.873289e+00, -2.315768e+00, 2.525894e+00, -4.432363e+00, -2.728296e+00, -2.999499e+00,
    5.978581e-01, -2.905709e+00, -7.954243e-01, 5.392211e-01, -3.241429e+00, 1.340216e-01, 4.946595e-01, -1.177753e+00,
    4.716230e-01, -2.325037e+00, -9.122396e-01, -1.232273e+00, -2.111615e-01, -4.595572e+00, 2.245242e+00, -1.109164e+00,
    2.318841e+00, 2.632751e+00, -7.906811e-01, -2.762349e+00, -1.591872e+00, -9.787027e-01, -1.032809e+00, 9.338140e-01,
    -5.278119e+00, -5.940059e-01, -3.683285e+00, 2.704271e+00, -3.153527e+00, -2.781477e+00, -1.007699e+00, -1.479839e-01,
    -1.865988e+00, 2.915474e+00, 1.382070e-01, -3.108924e+00, -1.513907e+00, -4.327094e+00, -2.108964e+00, -4.992005e-01,
    -1.112294e+00, 1.057628e+00, 4.167676e-01, -2.726849e+00, 1.851889e+00, 2.652138e+00, -1.829661e+00, -1.744521e+00,
    -1.110784e-01, 3.197993e-01, -1.089884e+00, -3.456936e+00, 1.389891e+00, 1.568243e+00, -5.656752e+00, 2.315076e+00},
   {2.481493e+00, -5.148205e-01, -6.299580e-01, 5.207959e+00, -2.291177e-01, -8.487518e-01, -6.793812e-01, 7.210435e-01,
    -5.777149e+00, 6.600544e-01, 2.150869e+00, 4.760732e-01, -1.051248e+00, 2.573260e+00, 1.955485e+00, -2.158653e+00,
    6.467317e-01, -1.974002e+00, 2.028306e+00, 2.605699e+00, -6.790457e-01, 1.981126e+00, -6.598634e+00, 2.078852e+00,
    1.634492e+00, 2.065997e-01, 2.752614e+00, -7.443125e-01, 3.549856e+00, 2.833785e+00, -1.894436e+00, 2.832394e+00,
    1.845996e+00, 8.064762e-01, 2.222875e+00, 1.308953e+00, -5.999204e-01, 2.052594e-01, 3.170578e+00, -1.630474e+00,
    9.252656e-01, 3.230879e+00, -2.476298e-01, -4.318523e-01, -2.476682e-02, 2.356822e+00, -1.061414e+00, 2.167517e+00,
    1.059231e+00, 9.150919e-01, 1.952580e+00, 2.481097e+00, 2.318506e+00, 3.128760e+00, -1.185405e+00, -4.841583e+00,
    1.404311e+00, 2.902397e-01, -8.399193e-01, -1.766014e-01, 1.370225e+00, 4.392079e-01, 1.867453e+00, -1.585285e+00},
   {-1.410116e+00, -3.194053e+00, -2.117193e+00, 3.572478e+00, 1.787882e+00, 1.649745e+00, -1.797965e+00, -6.135046e-01,
    -1.965582e+00, -3.103001e+00, -3.747615e-01, -2.127207e+00, 2.556707e+00, 1.016164e-02, 3.361485e+00, 4.892818e+00,
    -7.989559e-01, 1.291586e+00, 1.049641e+00, 1.910644e+00, 8.434114e-01, -4.767982e+00, -1.188482e+00, -2.288595e+00,
    -1.332673e+00, 5.585860e-01, -2.649124e+00, 2.029571e+00, 9.631656e-01, -1.173846e-01, 1.782846e-01, -9.731577e-01,
    4.976776e+00, 3.043269e+00, -6.721286e-01, -8.399285e-03, -3.075306e-01, -1.552756e+00, -1.645268e+00, 1.646943e+00,
    2.375645e+00, 4.261542e+00, 1.655097e+00, -3.194753e+00, -3.813125e+00, 6.185693e-01, 1.186621e+00, 7.403504e-01,
    -2.227658e-01, -1.544828e+00, -1.476229e+00, 3.704524e+00, 1.736721e+00, -2.435804e+00, 2.670110e+00, -3.198895e+00,
    3.012550e+00, 1.769977e-01, -2.615665e+00, -3.704018e+00, -1.600711e+00, 1.077305e-01, 3.556853e+00, -1.804526e+00},
   {-2.297342e+00, -3.223719e-01, -1.185453e+00, 1.347575e+00, 3.039443e-01, 1.759277e+00, 1.039854e+00, 2.176544e+00,
    -1.170374e+00, -4.319195e-01, 1.052410e+00, -3.340246e+00, 1.157303e+00, -8.829519e-01, 2.082226e+00, -6.343330e-01,
    -3.445394e+00, -2.596993e+00, 1.679520e-01, -1.341594e+00, 7.681919e-01, -5.698389e+00, -9.165899e-01, 9.351535e-01,
    -1.868007e+00, -4.463503e+00, 4.597636e-01, 2.788408e+00, 1.587658e+00, -1.944170e+00, 1.508235e-01, -4.488750e+00,
    -1.559218e+00, 3.574989e+00, 2.645770e+00, 1.288821e+00, -7.898722e-01, -7.264374e-01, 2.133567e+00, -3.483410e+00,
    -6.929265e-01, 8.196883e-01, 1.694176e-01, 4.385400e-01, 1.876612e+00, 2.598876e+00, -1.213392e+00, 1.129509e+00,
    -3.155907e+00, 4.988436e-01, -4.501282e+00, 1.575492e-01, -3.939079e+00, 4.414409e-01, 1.681262e+00, 2.120686e+00,
    -6.355784e-01, 1.244201e+00, -2.614303e+00, 1.745525e+00, -1.520101e+00, -3.711857e+00, 2.498137e+00, -2.432769e+00},
   {2.032650e+00, 2.623965e+00, 7.076632e-01, -2.177601e+00, -2.655451e+00, -2.114808e-02, 1.143312e-01, 1.084804e-01,
    3.389963e-01, 7.239810e-01, -2.033187e-01, 1.386996e+00, -2.068669e+00, 1.249400e+00, -2.940712e+00, -1.677625e+00,
    2.663930e+00, 1.059516e+00, 4.253625e-02, 1.785844e+00, 1.888315e+00, 2.732728e+00, -1.845256e-01, -2.194721e+00,
    -1.446581e+00, 3.037867e+00, 3.861793e+00, -7.560278e-01, -3.369791e+00, 1.869314e+00, 1.847768e+00, 3.405935e-01,
    -5.590751e-01, -7.701699e-01, -1.159537e+00, 2.052372e+00, 1.513325e-01, 1.184601e+00, -1.330269e+00, 7.919743e-01,
    -6.287888e-01, -1.966352e+00, 7.856542e-01, 1.287187e+00, 1.340042e+00, -2.342539e+00, -1.341822e+00, -2.251273e-01,
    -9.186589e-01, 8.157260e-01, 2.525379e+00, 2.118177e+00, 1.339365e+00, 8.548885e-01, -6.221609e-01, -4.536810e-02,
    6.920868e-01, 1.061905e+00, 1.530198e+00, -1.279106e+00, 2.816549e-01, 4.978840e+00, -2.359192e+00, 1.546846e+00},
   {-5.170828e-01, 7.598324e-01, 2.098367e-01, 1.107367e+00, -1.341366e+00, 2.142588e+00, 4.183847e+00, 4.010321e+00,
    -1.947639e+00, 4.136361e-01, 1.607181e+00, -6.821716e-01, 8.123140e-01, 2.492392e+00, -3.619646e+00, -1.669107e+00,
    2.139086e+00, -9.405621e-01, 1.673184e+00, 4.978467e-01, 2.426681e+00, -1.439441e+00, -7.981247e-01, -1.421409e+00,
    2.449657e+00, 4.003014e-01, 4.815704e+00, 2.066888e+00, -1.562442e+00, 1.653673e+00, 3.242953e+00, -1.654082e+00,
    -6.035050e-01, 1.482934e+00, 1.578715e+00, 1.229397e+00, -4.783181e-01, 5.187605e-01, 2.585819e+00, 1.989267e+00,
    1.159193e+00, -1.767025e+00, 2.990882e-01, 1.286108e+00, 8.747182e-01, 2.336962e+00, -2.303914e+00, -1.855258e-01,
    2.612191e+00, 5.930923e-01, 1.091404e+00, 3.074316e-01, -1.893435e+00, 9.523717e-01, -8.526669e-01, -6.794217e-03,
    5.409184e-02, 1.462191e+00, 4.012131e-01, 2.417631e+00, 4.019906e-01, 3.346882e+00, 1.194490e+00, -3.105298e+00},
   {-1.725973e-01, 3.716004e-01, -1.277713e+00, -1.917649e+00, 3.714919e+00, 1.098173e+00, -9.365438e-02, 5.365886e+00,
    6.397045e-01, -1.730916e+00, 4.038785e+00, -2.512589e+00, 2.261476e+00, 1.731542e+00, 3.353611e-01, -7.003289e-01,
    1.575458e+00, -3.588379e-01, 9.439028e-02, -1.965705e+00, -3.233331e+00, 1.105849e-01, -1.094651e+00, 7.551271e-01,
    -1.646876e+00, -8.278570e-01, 2.861886e+00, -3.146591e+00, 1.883162e+00, -1.663474e-01, -8.849937e-01, 5.089195e-01,
    7.702445e-01, -5.863647e-02, 1.111185e+00, -2.550045e+00, -3.492908e+00, -6.544338e-01, 1.438193e+00, 2.179275e-01,
    -2.705816e+00, 1.581913e+00, -1.656249e-01, 1.678852e+00, 2.416221e+00, 1.747734e+00, -1.747893e+00, -1.101430e+00,
    1.586340e-01, -3.248977e+00, 7.268801e-02, 7.103384e-01, -1.577902e+00, -3.755209e-01, -6.937134e-01, -7.858310e-01,
    -3.129411e+00, 1.122418e+00, 1.240971e+00, -6.558753e-01, 2.456778e+00, -7.481245e-01, 1.140624e+00, 6.947025e-01},
   {-1.303905e+00, -9.905565e-01, -6.970954e-01, 7.636238e+00, 3.726847e-01, 1.372914e+00, -8.279250e-01, 3.157292e-01,
    -1.506560e+00, -2.554325e+00, 3.554122e+00, -8.534470e-01, 1.148159e+00, 3.802946e+00, 4.984742e+00, 2.942550e+00,
    9.704693e-01, 1.082155e+00, 1.264261e+00, 4.362389e-01, 1.779076e+00, -4.889435e+00, 2.591257e-02, 6.565867e-01,
    1.291848e+00, -8.251941e-01, 7.286310e-01, 1.647384e+00, -3.459256e+00, 2.435947e+00, 7.485496e-01, 1.546760e+00,
    2.316902e+00, 3.024112e+00, 6.450407e+00, 6.849379e-02, 6.215953e-01, -1.133755e+00, 4.353752e+00, 2.171627e-01,
    1.070668e+00, -2.269550e-01, 2.139280e+00, -1.412537e+00, -1.466517e+00, 1.194010e+00, 1.147811e+00, 1.104120e+00,
    -3.693337e-01, 2.569571e-01, -1.013281e+00, 2.248237e+00, 2.666826e+00, 3.990741e-01, 5.159926e-01, -2.622869e+00,
    2.920824e+00, -1.517797e+00, -1.711933e+00, 9.827846e-01, 1.436652e-01, -4.416939e-02, 6.181864e+00, -2.143395e+00},
   {-4.983518e-01, -1.375735e+00, -2.311108e+00, -2.951179e-01, -2.384098e+00, 1.755571e+00, 6.174739e-01, -3.877907e-01,
    -2.065298e+00, 2.939892e+00, -8.015547e-01, 1.303390e+00, -4.532144e+00, 2.956096e+00, -2.362608e+00, 6.910038e-01,
    8.440571e-01, -2.430023e+00, 6.790709e-01, 2.273056e+00, 2.989485e+00, -1.089491e+00, -1.424976e+00, -1.444094e+00,
    4.285485e-01, 9.350171e-01, 1.821498e+00, -1.325742e+00, -1.675506e+00, 2.365365e-01, -3.795706e-01, -1.879038e+00,
    1.080168e+00, -2.033169e+00, 8.404227e-01, 1.424870e-01, 1.997880e-01, -2.239702e+00, -2.570909e+00, 7.708071e-01,
    1.643134e-01, -1.617540e+00, 9.201768e-02, -3.010317e+00, -6.010925e-01, -1.046791e+00, -1.034855e+00, 6.009898e-01,
    1.518712e+00, -2.793125e+00, 1.424356e+00, -9.843647e-02, 1.653357e+00, -2.192956e+00, 2.380002e-01, -1.213510e+00,
    -1.350383e+00, 1.468105e-01, -6.291870e-01, -2.945005e-01, 8.114682e-01, 2.621697e+00, 7.913388e-01, -2.470481e-01},
   {-2.412963e-01, 2.149302e+00, 3.819321e-01, 1.015414e+00, -8.230818e-01, 1.525401e+00, 7.635518e-01, -1.584438e-03,
    -4.367276e-01, 3.007831e-01, 4.270998e-01, 9.059451e-01, 9.797999e-01, 1.844135e+00, -1.223222e+00, -5.454182e+00,
    -5.451440e-02, 1.435052e+00, -6.131098e-01, -8.142260e-01, 9.417801e-01, 1.541944e+00, -2.381299e+00, 4.057979e+00,
    5.580888e-01, 5.283817e-01, -9.824740e-02, 3.773077e-01, 1.656805e+00, 2.810867e-01, 5.254945e+00, 2.117152e+00,
    -3.310312e-01, 1.012012e+00, -1.639357e+00, -1.816550e+00, -6.373291e-01, 1.125865e+00, -2.238245e+00, -2.948353e+00,
    -3.953107e+00, -1.303907e-01, -3.726275e-01, 2.288725e+00, 2.210554e+00, -9.438157e-01, -4.521410e-01, 1.118853e+00,
    3.622587e-01, 1.866565e+00, 1.166104e+00, -2.152285e+00, -2.623918e+00, 8.520923e-01, -3.106913e+00, -4.996439e+00,
    4.132090e+00, 3.170723e-02, -1.356006e+00, 6.039084e-01, -2.277048e+00, 1.784089e+00, -3.551902e-01, -8.021705e-01},
   {6.121470e-01, -1.878274e+00, -2.918826e+00, 3.639621e+00, 1.701836e+00, -1.495838e+00, -2.858174e+00, -1.034723e+00,
    -7.452964e-01, -2.232715e+00, -2.117335e+00, -5.132898e-01, 1.436038e+00, 4.571643e-01, 2.789849e+00, 3.736888e+00,
    2.759408e+00, 2.598837e-01, 1.041144e+00, 2.906659e+00, 3.545269e+00, -3.861325e+00, -1.231939e+00, 1.708975e+00,
    9.006255e-01, 7.497951e-01, -2.572702e+00, 1.357069e+00, 7.180731e-01, -4.483542e-01, -3.634203e+00, -4.097756e+00,
    3.362716e+00, 1.421440e+00, 1.926092e+00, 1.997413e+00, -1.733330e+00, -1.972474e+00, -3.801254e+00, 2.155495e-02,
    1.482854e+00, 2.978417e+00, 1.108751e-01, -5.244869e+00, -3.485347e+00, -1.171831e+00, 2.775144e-01, 2.019889e+00,
    -1.226076e+00, -2.730274e-01, -2.061043e+00, 2.354387e+00, 4.589119e+00, -6.832524e-01, -3.522259e-01, -4.118500e+00,
    2.596624e-01, -1.024883e+00, -6.477374e-01, -4.011713e+00, 3.515205e+00, 1.638425e+00, 3.388979e+00, 5.034109e-01},
   {-3.130767e+00, 1.681263e+00, 1.623509e+00, 1.642651e+00, -8.497921e-01, -1.581825e+00, 3.569051e-01, 2.176855e+00,
    2.269475e+00, 2.416298e+00, 1.747487e+00, 4.007685e-01, 1.493857e+00, -1.332106e+00, 2.536247e-01, 3.258024e+00,
    -1.001742e+00, 7.050200e-01, 6.558039e-01, 3.468244e+00, 1.267311e+00, -1.262237e+00, -2.256122e+00, -3.313989e+00,
    -8.841468e-02, -2.255274e-01, -2.297422e+00, -1.488799e+00, -1.683097e+00, -1.104658e+00, -1.609678e+00, -1.984198e+00,
    8.644450e-01, -2.667804e+00, 7.560911e-01, 1.924299e-01, 1.443761e+00, 1.824812e+00, -2.416667e+00, 1.951390e+00,
    1.660416e-01, -1.872695e+00, -1.485668e-01, -5.801098e-01, -1.799044e+00, 1.431009e+00, 4.184953e+00, 1.351416e+00,
    5.615135e-01, 7.849048e-01, -1.184939e+00, 4.395673e-01, 2.847338e-01, -2.728369e+00, 2.232464e+00, 7.935883e-01,
    -9.591553e-01, 1.115045e+00, 4.226883e-01, -1.773039e+00, 1.878921e-01, 1.341638e+00, 1.757367e+00, -7.585543e-01},
   {-2.736193e+00, -4.819613e+00, -3.730722e+00, -6.887881e-01, 3.056012e-01, 5.769004e+00, -1.049590e+00, -1.878658e+00,
    5.849122e-01, -1.773334e+00, 7.243103e-01, 4.073937e-01, 8.247011e-01, -2.369851e+00, -5.075754e+00, 1.337166e+00,
    -2.632381e+00, -3.167400e-01, -1.252895e+00, -5.688019e-01, 2.963882e+00, -2.099613e+00, -3.463831e+00, -2.812112e-01,
    -3.343094e+00, -1.705741e+00, 9.917270e-01, -7.056698e-01, -2.677503e+00, -2.290322e-01, 5.697267e-01, -2.254463e+00,
    9.582511e-02, -2.381534e-01, -2.439701e+00, 6.993963e-01, 1.192884e-01, -3.983387e+00, 6.848086e-01, -3.620653e-01,
    2.672199e+00, -2.209703e+00, 3.617926e-01, -4.916853e+00, -1.716564e+00, -9.755948e-01, -3.678114e+00, 1.239784e-01,
    -9.652197e-01, 2.151470e-01, -1.446938e+00, 1.641374e+00, -3.800032e+00, -6.396526e-01, 1.191337e+00, 2.642876e+00,
    -5.408782e-01, -3.053757e+00, -6.208373e-01, 3.748836e-03, -4.885863e+00, -1.590493e+00, 3.049892e-01, 9.627559e-01},
   {-2.836885e-01, -1.514101e+00, -2.338500e+00, -3.879491e-01, -8.151956e-02, 1.930456e+00, 1.522425e+00, 3.831897e+00,
    9.565184e-02, 1.965159e-01, 2.205832e+00, -7.095629e-01, 1.746763e+00, 2.702913e+00, 7.878286e-01, 4.151377e-01,
    6.118759e-01, -2.615294e+00, -1.761151e+00, -2.860069e-01, -1.722630e-01, -2.929439e-01, -1.101224e+00, -9.691348e-01,
    3.612686e+00, -2.970359e+00, 3.484046e-01, 7.442561e-01, -3.189487e+00, 2.641784e+00, -3.022841e+00, -1.555737e+00,
    -1.314691e-01, -3.233302e-01, -2.011491e+00, 5.424715e-01, -1.867174e+00, -2.692514e+00, 1.779092e+00, -4.148361e-02,
    -2.972652e+00, -5.807384e-01, 3.583388e-01, 3.818039e-01, 2.555875e+00, 2.456021e+00, -8.880756e-01, 1.192499e+00,
    4.105161e-01, -2.921790e+00, -1.513473e+00, 1.686179e+00, 4.494107e-01, -1.739628e+00, -7.607108e-01, 1.122519e+00,
    -3.820547e+00, 2.446300e-01, -5.497972e-01, 4.961378e-03, 4.379656e-01, -3.166107e+00, 2.530543e+00, -1.165930e+00},
   {7.690590e-01, 1.026776e+00, 3.520440e-01, 7.207800e-01, -3.533752e+00, 1.034270e+00, -1.438625e+00, 1.733650e+00,
    -1.304613e+00, 2.467372e+00, -2.197276e+00, 1.213876e-01, -3.006105e+00, 4.369458e+00, -5.397553e-01, 3.602151e-01,
    -4.602007e-01, -2.276801e+00, 6.717520e-01, 2.435268e+00, 2.150587e+00, 2.588532e-01, -1.025376e+00, 4.888359e-01,
    1.763312e+00, 1.327042e+00, 1.146733e+00, -7.727029e-03, -1.594321e+00, 7.052193e-01, -2.541342e-01, 1.207783e-01,
    9.860645e-01, -9.397328e-01, 3.479518e-01, -1.105565e+00, 2.822665e+00, 4.495348e+00, -9.881689e-01, -3.891377e-01,
    9.302132e-01, -2.999802e+00, -1.346024e-01, -8.543031e-01, 3.466522e-01, 1.103638e+00, 9.210767e-01, -9.834995e-01,
    -2.174241e+00, 4.162415e+00, 1.712114e+00, 2.515457e+00, 8.457023e-01, 2.022847e-01, 7.314706e-01, 1.428785e+00,
    7.387275e-01, 1.057662e+00, 1.147809e+00, -5.704721e-01, 1.898082e-01, 2.303580e-01, 1.576902e+00, 2.997279e-01},
   {4.884044e-01, 2.289043e+00, 1.147776e+00, 9.311497e-01, 4.653327e-01, 3.129689e+00, 2.031743e+00, -1.819062e+00,
    -3.930072e-01, -1.039814e+00, -1.849193e-01, 2.935349e+00, -4.971371e-01, 1.549299e+00, -1.292482e+00, -1.982651e+00,
    2.727270e-01, 5.721760e-01, 1.188207e+00, -1.372927e+00, 1.277253e+00, 1.752126e+00, -1.411784e+00, 2.433145e+00,
    -9.541587e-01, 2.367996e+00, 8.090840e-01, -1.852682e+00, -1.819573e-01, 1.455070e+00, 1.621533e+00, 7.607876e-01,
    -4.286800e-01, 1.169381e+00, -9.194895e-01, -1.093333e+00, -4.813111e+00, -6.283146e-01, -2.816204e-01, -2.300534e+00,
    3.713685e-01, 5.216373e-01, 4.701285e-01, 1.796320e+00, 8.216222e-02, -1.343245e+00, -5.300366e-01, 5.359375e-01,
    2.443826e+00, 4.899002e-01, 1.294426e+00, 8.012208e-01, 1.163013e-01, 6.645206e-01, 5.702701e-02, -1.166275e+00,
    1.504759e+00, 6.986870e-01, -1.681138e+00, -1.771070e+00, -1.872367e+00, 3.076821e+00, 1.285398e+00, -1.502849e+00},
   {1.592685e+00, 1.274829e+00, 7.148007e-01, 2.659257e+00, -3.114201e-01, 4.806370e-01, 2.595266e+00, -1.787948e+00,
    -1.726033e+00, -6.689636e-01, 1.051182e+00, 3.595057e+00, -7.667357e-01, 2.461540e+00, 1.482614e+00, 1.035668e+00,
    -3.492482e-01, 1.144414e-01, 2.776056e+00, -1.216179e+00, 4.746574e-01, 1.367110e+00, 9.886301e-01, 3.220100e+00,
    -2.902259e-01, 2.627140e+00, 2.654132e+00, -2.453562e+00, 2.101907e+00, 2.041388e+00, 1.892907e+00, 9.591904e-01,
    -5.330846e-01, 1.469236e+00, 1.265376e+00, 3.253874e-01, 1.190276e+00, -1.604047e+00, 1.556514e+00, -1.911578e+00,
    1.734601e+00, 1.333085e+00, 1.403260e+00, 2.872139e+00, -1.650368e+00, -9.713992e-01, 9.666256e-01, 1.104512e-02,
    3.889407e+00, 1.972579e+00, 1.843436e+00, 7.675261e-01, -1.271819e+00, -1.562072e+00, 2.191878e+00, -1.305598e+00,
    -1.143710e+00, 2.703448e+00, -2.584594e+00, -1.259162e+00, -1.753842e+00, 3.359414e+00, 8.792014e-01, -3.195946e+00},
   {1.032111e+00, -4.272585e-01, -1.734076e+00, 1.451927e+00, -5.900952e-01, 1.850648e+00, 5.413435e-01, 2.980348e+00,
    -3.454375e+00, 1.932400e-01, -2.938117e-01, -1.027558e+00, -7.545209e-01, 4.423573e+00, -2.009850e+00, 4.894424e-01,
    3.858280e+00, -9.888546e-01, 2.856503e-01, -5.603918e-01, 7.810001e-01, 1.295713e-01, -2.891209e-01, -5.005796e-01,
    8.257127e-01, 2.167123e+00, 4.568727e+00, 1.773973e+00, -8.091247e-01, 5.032708e+00, -3.705986e-01, 5.212811e-01,
    -2.512333e-01, -5.810546e-01, 2.957946e+00, 2.653952e+00, -1.010159e-01, 2.097613e+00, 1.046988e+00, 1.606675e+00,
    5.348220e-01, 4.664429e-01, 6.553503e-01, -6.595033e-01, 1.082863e+00, 2.816786e-01, -2.058984e+00, -1.944901e+00,
    1.497885e+00, -1.786597e+00, 2.043542e+00, 2.650562e+00, -3.257518e-01, 8.304968e-01, 5.189813e-01, -1.565703e+00,
    -3.627654e-01, -1.310060e+00, -1.289287e-01, 1.566442e+00, 2.256559e+00, 2.608141e+00, 1.404021e+00, 1.461353e-01},
   {2.091602e+00, 3.684630e-02, 3.545025e-01, -1.707787e+00, -1.213455e+00, -2.442270e+00, 6.891814e-01, 7.911781e-01,
    9.768731e-01, 2.922584e+00, -6.788418e-01, 5.034169e+00, -6.749736e-01, 1.818260e-01, -2.407363e+00, -3.784750e+00,
    1.292437e+00, 1.345901e+00, -4.057166e-01, 2.067437e+00, 2.887606e-01, 5.575641e+00, 1.111351e+00, -6.157831e+00,
    9.627102e-01, 1.308862e+00, 1.403854e+00, -4.035614e+00, -7.545545e+00, -2.703358e-01, -2.349355e+00, -1.301414e+00,
    1.382614e+00, -4.534193e+00, -1.718048e+00, 1.810712e+00, 1.147630e-01, 4.806091e-01, 1.286408e+00, -1.561127e+00,
    -2.734187e+00, -1.037466e+00, 3.217876e+00, 1.380411e+00, 4.061512e+00, -1.049957e+00, 3.031918e-01, -1.967089e+00,
    6.148061e-01, 1.218327e+00, -1.015189e+00, 2.404617e+00, -1.255295e-01, -2.665898e-01, -8.996101e-01, 5.209941e-01,
    -1.792818e+00, -1.821729e+00, 5.750957e+00, -1.762652e+00, 1.058684e+00, -3.296318e-01, -2.236283e+00, 3.922436e-01},
   {-2.087377e-01, 4.057330e+00, 3.980982e+00, -8.520662e-01, -6.722627e-01, 3.810281e+00, 2.678288e+00, -4.268314e-01,
    -2.005337e+00, 5.124432e-01, 2.846751e-01, 1.562898e+00, 2.194142e+00, 7.277132e-01, -2.987138e+00, -1.866541e+00,
    -1.347926e+00, 7.496035e-01, 1.100689e+00, 1.886415e-01, 8.237553e-01, 1.553617e+00, -1.070559e+00, 2.577653e+00,
    -6.663181e-01, 1.288931e+00, 1.098503e+00, -6.231422e-01, 8.700585e-01, -1.215853e-01, 5.157184e+00, 1.674928e+00,
    3.124962e-01, 2.332459e+00, -2.158383e+00, -1.782337e+00, 4.815697e-01, 3.328875e+00, -1.509496e+00, -2.976456e+00,
    -2.048310e+00, -6.710314e-01, 2.843188e-01, 4.146269e+00, -9.428422e-02, 8.221968e-01, 3.386999e+00, 1.194373e+00,
    1.839456e+00, 1.574736e+00, 1.110067e+00, 1.570367e+00, -1.470080e+00, 5.561232e-01, -6.428963e-01, -1.947888e+00,
    4.378800e+00, 1.303342e+00, -1.589903e+00, -8.624904e-01, -2.567837e+00, 2.899647e+00, 8.923731e-01, -7.456103e-01},
   {-2.638997e+00, -1.509220e+00, -1.496676e-01, 2.443855e+00, 4.808348e+00, -2.419507e+00, 3.079438e+00, 4.210850e-01,
    -2.465654e-01, 1.196853e+00, 1.773795e+00, 1.185466e+00, 3.333322e+00, 4.020452e-01, 4.482226e+00, 2.691501e-01,
    1.985232e+00, -4.462573e-02, 3.667768e+00, 4.786410e+00, 1.395476e+00, -1.395913e+00, 1.621954e+00, -5.099938e+00,
    -1.119072e+00, 6.379290e-01, 2.033219e+00, -2.454417e+00, -1.441868e+00, 1.815506e+00, -2.226756e+00, -2.381300e+00,
    3.861329e+00, 2.041004e+00, 2.844208e+00, -6.882408e-01, -1.311039e+00, -1.769575e+00, 3.729346e+00, 4.670815e+00,
    -6.594700e-01, -1.679007e+00, -1.581201e-01, 5.018584e-01, -5.786656e-01, -9.799963e-02, -5.190073e-01, 1.793005e+00,
    3.957012e+00, -1.541440e+00, -2.746974e+00, 1.506811e+00, 1.976259e+00, -1.057534e+00, 1.349475e-01, -4.145190e-01,
    1.453904e+00, -1.207837e-01, 3.861977e-01, -3.014220e+00, 1.947379e+00, 3.294177e+00, 2.487588e+00, -3.920932e+00},
   {3.884976e+00, 2.802153e+00, 2.241561e+00, -1.447154e+00, -2.176166e+00, 7.499459e-01, -1.469314e+00, 3.632915e+00,
    -2.566264e+00, -2.910936e+00, 1.433825e+00, -9.230794e-03, -5.453433e-01, 2.308105e+00, -2.200750e+00, -8.587053e-02,
    2.269270e-01, -2.448869e+00, -3.977926e+00, 4.044071e-02, 7.808704e-01, 3.256110e+00, -5.711268e-02, -1.024448e+00,
    2.858619e+00, 3.441522e+00, 5.924944e+00, 1.759651e+00, -3.519068e+00, -4.509280e-01, -1.252457e-01, -1.194418e+00,
    -2.445442e-01, -1.528371e+00, -6.411319e-02, 4.661233e+00, 7.114344e-01, 1.343416e+00, 3.862256e+00, 2.022838e+00,
    -1.295600e+00, -9.868095e-01, 5.012739e-01, 5.435296e-01, 6.763998e-01, 8.837118e-01, -2.399937e-01, -1.277515e+00,
    -5.337610e+00, 6.606804e-01, 2.432184e+00, 3.875894e+00, 1.361580e+00, 1.882161e+00, 5.074711e-01, 8.181493e-01,
    1.783345e-01, -2.410544e+00, 6.138853e-01, -1.745688e+00, -1.485236e-01, 1.165157e+00, 8.069046e-01, 3.928089e-01},
   {1.976927e-01, -2.878592e+00, -7.016239e-01, 1.024664e+00, 7.295070e-01, 1.802645e+00, 2.873936e+00, -1.301297e+00,
    -6.963810e-02, -4.006995e-01, 2.255331e+00, 4.342497e+00, 6.697513e-01, 8.209906e-01, -1.284864e+00, -5.418790e-01,
    -1.532691e+00, 6.134454e-01, 1.295412e+00, -1.550479e+00, -2.764442e-01, 2.279772e+00, 1.925047e-01, 2.000142e+00,
    -9.738246e-01, 2.577527e+00, 2.456563e+00, -3.807765e+00, -7.569754e-01, 6.570872e-01, 3.146081e+00, 1.732719e-01,
    -2.433202e+00, 2.532105e+00, 6.043705e-02, 2.270340e+00, -6.096118e-01, -3.231945e+00, 1.358125e+00, -1.666807e+00,
    1.206473e+00, 5.896289e-01, 6.186525e-01, -2.314198e+00, 1.088451e+00, -1.041715e-01, -3.274702e+00, -1.081616e+00,
    4.301865e+00, 2.193297e+00, 1.024746e+00, -1.181790e+00, -2.500964e+00, -8.270933e-01, -2.311125e+00, 1.278908e+00,
    -9.809099e-01, 5.711972e-01, -2.902667e+00, -1.667412e+00, -5.141432e+00, 3.657113e+00, -6.031273e-01, -1.368530e+00},
   {-6.910540e-01, -2.025911e+00, -8.718312e-01, 1.541119e+00, 1.165276e+00, -3.699080e+00, -9.999491e-01, 2.351996e+00,
    1.376595e-01, 1.482659e+00, 3.878734e-01, -1.497709e+00, -8.097392e-01, 3.093109e-01, 2.884919e+00, 1.048517e-01,
    4.229536e+00, -1.600601e+00, -1.299940e-01, 6.835081e-01, -7.079418e-01, -1.654527e+00, 1.408689e+00, -2.591412e+00,
    2.762845e-01, 4.478636e-01, 6.392351e-01, 6.038277e-01, -1.176057e-01, 1.015935e+00, -2.580521e+00, -2.412519e+00,
    -1.582872e-01, -2.883355e+00, 2.411614e+00, 1.316914e+00, -8.101416e-01, -2.230075e+00, 2.728234e+00, 2.370553e+00,
    -2.401862e+00, 2.521159e+00, 6.434615e-01, -3.240729e+00, -2.012260e+00, 1.503063e+00, -2.661527e+00, -1.745534e+00,
    -1.022224e+00, -1.011857e+00, -2.593061e+00, 4.554479e-01, 2.067731e+00, 1.210462e-01, -1.220579e+00, -6.423058e-02,
    -6.205505e-01, -2.279236e-01, 2.767986e+00, 8.943294e-01, 3.196023e+00, -1.333774e+00, 2.123865e-01, 4.481623e-01},
   {-3.377168e+00, 1.102067e+00, 1.483002e+00, -7.656775e-02, -1.165856e+00, 1.220143e+00, 5.013568e-01, 3.832210e+00,
    -3.050342e-01, 5.854563e-01, 2.525564e+00, 1.037067e+00, 1.589015e+00, -4.593011e-01, 6.110537e-01, 1.845961e+00,
    -1.009652e+00, -4.367218e-01, -6.731796e-01, -1.759234e+00, -2.192803e+00, -2.273403e+00, -2.129641e+00, 1.460306e-01,
    5.442511e-02, -4.267802e-01, 2.971761e+00, -2.656980e-01, -9.520320e-01, -8.014497e-01, 1.540046e+00, -3.456259e+00,
    -9.900118e-02, 2.070007e+00, -5.723173e-01, 4.488126e-01, 1.545306e+00, 8.090540e-01, 1.998647e+00, 2.081719e+00,
    1.871751e-01, -4.878350e-01, 2.003888e+00, 3.004016e+00, -2.588471e-01, -6.163564e+00, 9.666587e-01, 1.803935e+00,
    1.430939e+00, 1.703149e-01, -9.679066e-01, 1.977157e+00, -3.755692e+00, 9.484202e-01, 2.755801e+00, 3.374443e+00,
    -6.999009e-01, 7.839568e-01, -1.280275e+00, 2.942679e+00, -4.417188e+00, -2.633776e-02, 8.340469e-01, -1.079002e+00},
   {1.014604e+00, 6.547825e-01, -3.205203e-02, 1.728722e+00, 6.349465e-01, 7.171088e-01, 1.342970e+00, -1.500911e+00,
    -1.340159e+00, -1.820338e+00, 4.675474e-01, 1.499626e+00, -1.901456e+00, 2.099562e+00, 4.270402e-01, 1.081793e+00,
    9.772663e-01, 1.104573e+00, 1.153804e+00, -8.403230e-01, -2.893835e-01, 1.889941e+00, 3.110187e-01, 2.451469e+00,
    -4.587142e-01, 2.187909e+00, 1.466374e+00, -1.255769e+00, 2.206532e+00, 1.711659e+00, 1.803361e-01, 2.700598e+00,
    -3.847840e-02, 5.790852e-01, 7.834461e-01, 2.200518e-01, 2.042675e+00, 1.030446e+00, 1.498700e+00, -1.329449e+00,
    1.385797e+00, 1.600343e+00, 1.585665e+00, 1.240697e+00, -2.081300e-01, -1.375720e+00, -3.939761e+00, 1.120312e+00,
    2.409463e+00, 1.534499e+00, 2.142311e+00, 1.907424e+00, 5.705451e-01, 2.499448e+00, 8.682663e-01, -3.433136e+00,
    2.025637e+00, 3.871495e-01, -1.382345e+00, -1.334521e+00, -4.871523e-01, 2.968725e+00, 1.255660e+00, -2.801196e+00},
   {-3.877069e+00, -1.799724e+00, -1.882168e+00, 2.012802e-01, 4.010112e-01, 4.438431e+00, 8.554050e-01, 1.483499e+00,
    -8.187146e-01, -1.334267e+00, 2.099849e+00, -1.782632e+00, 1.850486e-01, -8.650944e-01, -3.242193e+00, 3.683671e+00,
    -2.807333e+00, -3.532788e-01, -1.772859e+00, 3.664178e-02, 2.014266e+00, -3.277132e+00, -3.823493e+00, -3.383975e+00,
    -6.520615e-01, -2.228250e+00, 7.665469e-01, 1.535110e+00, -2.636237e+00, -3.570497e-01, -4.539944e-02, -3.165102e+00,
    9.863757e-01, 2.331888e-01, -1.369311e+00, -1.859689e+00, 2.241572e-01, -3.302896e+00, 6.216328e-02, 6.227801e-01,
    1.930443e+00, -1.798218e+00, 3.239712e-01, -1.907599e+00, -2.360162e+00, 1.141109e+00, -2.874161e+00, -1.836899e+00,
    -3.074346e+00, 1.940583e+00, 3.414137e-01, 1.214076e+00, -3.496345e+00, -7.142580e-01, 1.659126e+00, 2.963091e-01,
    -3.004065e+00, -3.012319e+00, -1.755063e+00, 1.708249e+00, -2.342178e+00, -1.020749e+00, 1.296245e+00, 4.672419e-01},
   {1.897441e-02, 1.414980e-01, 1.161621e+00, 2.421881e+00, 2.902562e-01, -9.362327e-01, 1.652182e+00, -3.757124e+00,
    1.752061e+00, 1.106147e+00, -1.499346e+00, 4.773420e+00, 7.149705e-01, -2.537041e+00, -7.825265e-01, -1.092882e+00,
    -1.080510e+00, 1.216766e+00, 2.221389e+00, 2.501174e+00, 5.081691e-01, 1.496180e-01, 1.293813e-01, -4.610175e-01,
    -1.502591e+00, 6.658145e-01, -1.102653e+00, -4.510503e+00, -5.489369e-01, -1.156626e+00, 2.959194e+00, 4.055597e-01,
    2.201437e+00, 3.085366e+00, -2.805091e+00, -1.338769e+00, 4.968102e-01, 2.765730e-01, -1.312654e+00, 2.833532e+00,
    1.414287e+00, -5.552515e-01, -1.836376e+00, 8.100398e-01, -8.587708e-01, -3.827317e+00, 1.335888e-01, 8.241636e-01,
    -1.532024e+00, 8.673515e-01, -2.426823e+00, -1.301338e+00, -2.150484e+00, -8.084521e-01, 1.177405e+00, 4.889970e-01,
    3.333758e+00, 1.156970e+00, -1.089507e-01, -6.688678e-01, -3.921879e+00, 9.897844e-01, -8.948156e-01, -2.773903e+00},
   {1.307463e+00, -1.546459e+00, -8.745940e-01, 1.346314e+00, -1.153166e+00, 2.215859e-01, -2.413049e+00, 1.096424e+00,
    -3.691920e+00, 9.397498e-01, 2.139385e+00, -2.293215e+00, -1.091015e+00, 1.446716e+00, -1.092422e-01, -3.791438e+00,
    -2.828208e+00, 1.519348e+00, 1.339198e-01, 2.058520e+00, 1.477146e+00, 4.729852e-01, -2.925471e+00, 3.274029e+00,
    2.230782e+00, -1.973254e+00, -8.305024e-01, 1.383428e+00, 2.867446e+00, -6.651685e-01, -2.176361e-01, 2.877576e+00,
    1.642466e+00, -1.375323e+00, 1.196458e+00, -2.379673e+00, -1.899840e+00, -3.454044e-01, -2.755179e+00, -4.075373e+00,
    -3.048614e+00, 1.229926e+00, -1.259253e+00, -1.325429e+00, 1.248189e+00, 1.001221e+00, -5.331265e-01, 2.414687e+00,
    -2.523010e+00, -2.740753e-02, 1.006518e+00, -4.024545e-01, -3.876168e+00, 2.130047e+00, -1.828996e+00, -4.694201e+00,
    4.702225e-01, 6.310030e-01, -2.327049e+00, -2.771777e-01, 8.117270e-01, -2.768936e+00, 4.420858e-02, -2.326731e+00},
   {2.225589e+00, -2.277313e+00, -2.047786e+00, -3.363047e+00, 1.703063e+00, 3.879508e-01, 1.300933e-01, -4.253389e+00,
    4.431602e+00, -2.758510e+00, -3.250759e+00, 1.071036e+00, -5.784234e+00, 1.922531e+00, 2.011012e+00, 2.385594e+00,
    2.260121e+00, -6.923585e-01, -1.207651e+00, -4.161558e+00, 4.524466e+00, -3.474918e-03, -1.511115e-01, 2.294561e-02,
    2.766530e+00, 2.719174e+00, -2.115200e+00, -2.037055e-01, -1.896143e+00, -8.619553e-02, -8.955966e-01, 4.187288e-01,
    -4.232952e+00, 6.202230e-01, -1.898865e+00, 2.578637e+00, -1.556572e+00, -9.453006e-01, -3.667348e+00, -1.031618e+00,
    -1.857814e+00, -1.044279e+00, -4.204890e-01, -2.538600e+00, -2.028853e+00, -6.696328e+00, 4.272629e-01, -1.068925e+00,
    -7.460318e-01, 1.349836e-01, -6.564674e+00, -3.002407e+00, 2.747109e+00, -1.837140e+00, 2.661406e-01, -2.288928e+00,
    -1.616014e+00, 9.451227e-01, 7.686241e-01, -4.626198e+00, 2.724774e+00, 1.577362e+00, -2.529768e+00, 3.624824e+00},
   {1.867315e+00, 4.624120e-01, 3.493701e-01, -7.211485e-01, -3.853894e+00, 9.532241e-01, 1.974077e-01, 2.130876e+00,
    -3.088611e+00, 3.621795e+00, 9.329404e-01, -2.481297e+00, -7.636181e-01, 3.573475e+00, -4.294967e+00, -2.872687e+00,
    1.119661e+00, 5.561889e+00, 1.140051e+00, 4.868399e+00, -8.643034e-01, 2.764022e+00, -1.581632e+00, -1.779039e+00,
    -1.732381e-01, 7.473677e-01, 5.958130e-01, 1.683622e+00, 8.799769e-01, 2.518116e+00, -5.617208e-01, 1.228755e+00,
    2.364133e+00, -2.477463e+00, 1.052389e+00, -4.241538e+00, -6.969951e-01, 2.194107e-01, -3.319762e+00, -1.177313e+00,
    -2.039684e+00, -2.660264e+00, -1.958130e+00, -2.070424e+00, 1.155087e+00, 1.860781e-01, 1.372679e+00, 6.471184e-01,
    -2.806668e+00, 2.394402e+00, 5.073971e+00, -2.343652e+00, -1.753494e+00, -9.604236e-01, -1.520272e+00, -2.174794e+00,
    6.622150e-01, 1.813684e+00, -2.735620e-01, -8.858953e-01, 6.383052e-01, 3.072701e+00, 2.054178e+00, -1.875336e+00},
   {-2.402264e-01, 2.655930e+00, 1.177022e+00, 2.635236e-01, -2.369996e+00, -1.572070e+00, -1.838644e+00, -1.761356e-01,
    -2.306623e+00, 2.111383e+00, -1.358448e+00, 2.654762e+00, -3.213538e+00, 3.093254e+00, -2.113736e+00, 2.455405e+00,
    -1.480700e+00, -2.890248e+00, 1.644426e+00, 1.613268e+00, 1.803858e+00, -1.058280e+00, 1.985134e-01, -3.403596e+00,
    5.544942e-01, 3.151160e+00, 2.622322e+00, 5.539179e-01, -4.494866e+00, 5.539306e-01, -9.312859e-01, -1.027860e+00,
    2.834198e-01, 1.160338e-02, 4.179198e-01, 2.693247e+00, 3.459802e+00, 1.222187e+00, -1.762957e+00, 9.883025e-02,
    2.103996e+00, -3.582186e-01, 1.424254e+00, -2.778740e-01, -1.612488e+00, -1.305700e+00, 7.214784e-01, 1.497503e+00,
    -1.199461e+00, -2.044141e-01, 1.143971e-01, -8.455462e-01, 4.148324e-02, 1.428550e+00, 1.206967e+00, 2.395631e+00,
    1.376344e-01, 1.095199e+00, 2.217505e+00, -1.652938e+00, 1.579723e+00, 2.272560e+00, -1.379223e+00, 1.627886e+00},
   {2.219330e+00, -3.332583e+00, -4.538776e+00, 3.488846e+00, -5.773374e-01, 3.582184e-01, -4.259647e-02, -2.272178e-01,
    -8.652738e-02, -4.095526e+00, 1.985086e+00, -6.818029e-01, -6.350458e-01, -1.801811e+00, -3.543482e+00, -4.731742e+00,
    9.995917e-01, -1.824879e+00, -1.688348e+00, 9.905435e-03, 3.871685e-01, 4.399163e+00, -4.437229e+00, 6.110509e-01,
    1.701240e+00, 3.252464e+00, 3.615141e+00, 2.008736e+00, -4.197036e-01, 3.102590e+00, -6.394870e-01, 2.231888e+00,
    -9.257872e-01, -2.688110e-01, 1.596667e-01, -1.239251e+00, -2.580619e+00, -3.323401e+00, 1.524047e+00, 7.456172e-01,
    -4.872314e-01, 2.069103e+00, 8.361485e-01, -1.078614e+00, -5.683535e-01, 4.713686e-01, -4.615177e+00, -1.409786e+00,
    6.179378e-01, -4.711524e+00, 1.832250e+00, -1.655528e-01, -7.867275e-01, 2.498129e+00, -2.969817e+00, -4.294937e+00,
    2.216134e-01, 3.719593e-02, -2.513079e+00, 4.436423e+00, -1.468690e+00, 4.015393e+00, -1.145875e+00, -1.910905e+00},
   {3.233345e-01, 2.338082e+00, 1.280624e+00, 1.567064e-01, -7.442373e-01, -7.285271e-01, 1.459750e+00, -1.333964e+00,
    -5.148378e-02, 1.232922e+00, 2.221315e+00, -9.126648e-01, -4.010078e-01, 1.663057e+00, -6.627829e-01, -4.632733e+00,
    2.465694e-01, 6.454319e-01, -1.335599e+00, -9.078929e-02, 1.187930e+00, 2.638702e+00, -1.210313e+00, 2.337287e+00,
    1.170106e+00, 5.563582e-01, 2.670565e+00, 2.074015e-01, 1.034744e+00, 1.982365e+00, 1.134138e+00, 8.476501e-01,
    9.107131e-01, 2.376609e+00, 1.194517e+00, -1.424851e+00, 2.317443e+00, 1.901981e+00, 1.812636e+00, -2.273066e+00,
    -3.093293e+00, -2.926154e-01, -3.086764e-02, 2.297136e+00, 1.272253e+00, -4.796513e-02, -6.600558e-01, 1.213446e+00,
    2.641190e-01, 2.579674e+00, 3.531971e+00, 6.605254e-01, 1.920934e-03, 2.140799e-01, -4.928507e+00, -2.049832e+00,
    4.512330e+00, -5.577529e-01, -1.903845e+00, -2.314081e-01, 1.043203e-01, 1.686851e+00, 1.473214e+00, -1.541952e+00},
   {6.930165e-01, 2.208660e+00, 2.407700e+00, -1.906433e+00, -1.141429e+00, -2.621607e-01, 9.493860e-01, -4.623536e-01,
    -1.190485e+00, 1.365631e+00, 2.232066e+00, 1.796117e+00, -8.578867e-02, 7.666954e-01, -1.120111e+00, -4.684134e+00,
    -2.114724e+00, 1.698810e-01, -2.914934e+00, -4.405729e+00, -1.340406e+00, 2.446947e+00, -2.188296e-01, 8.394903e-01,
    9.178593e-01, 1.029487e+00, 2.472023e+00, -1.092695e+00, 9.751954e-01, 2.164056e-01, 5.115265e+00, 3.225371e-01,
    -1.902092e+00, 1.770857e+00, -1.327731e+00, -5.418296e-01, 2.103994e+00, 3.541905e+00, -3.589585e-01, -1.287679e+00,
    -1.098533e+00, -1.341289e+00, 9.482363e-01, 3.553824e+00, 2.418790e+00, -7.788711e-01, 3.277071e-01, 5.683258e-01,
    5.183768e-01, 2.069652e+00, 3.095601e+00, -3.131461e+00, -8.853287e-01, 4.164594e-01, -9.202161e-01, -3.595780e+00,
    1.547508e+00, -3.825996e-01, -7.054771e-02, 7.760209e-01, -3.395595e+00, -3.482001e-01, -1.245310e+00, 2.233813e+00},
   {5.533130e-01, -2.380350e+00, -2.801709e+00, 1.183907e+00, -6.465393e-01, 1.254822e+00, -2.779191e-01, -2.073030e+00,
    -1.530917e+00, -1.039235e+00, 6.481835e-02, 6.158651e-01, -6.357588e-01, 1.112138e+00, -8.396436e-01, -3.187328e+00,
    -2.812498e-01, 5.812758e-01, 1.327457e+00, 4.147167e-01, 1.866584e+00, 1.252390e+00, -2.057014e+00, 3.533738e+00,
    5.166078e-01, 1.698565e-01, 9.115684e-02, -1.027541e-01, 9.768875e-01, 1.468463e+00, 1.487979e+00, 2.271657e+00,
    -7.720228e-01, 1.612057e+00, 9.283958e-02, -2.626036e+00, -1.145969e+00, -2.003381e+00, -9.685323e-02, -1.918644e+00,
    -1.050368e+00, 6.545813e-01, -5.487386e-01, -6.586866e-01, 4.437685e-01, -6.667252e-01, -1.525664e+00, 4.284753e-01,
    1.127450e+00, 1.872189e-02, 1.026515e+00, 1.728281e+00, -4.401448e-01, 8.452826e-01, -8.831620e-01, -4.036787e+00,
    1.570852e+00, 1.034560e+00, -1.324223e+00, -6.813638e-01, -1.390335e+00, 7.066630e-01, 8.865318e-01, -2.350074e+00},
   {-2.746669e+00, 1.548142e+00, 1.356217e+00, 2.449511e+00, 3.049898e+00, 2.708059e+00, 3.534710e+00, -3.818478e+00,
    -1.325682e-01, 1.049695e+00, 1.625278e+00, 2.662207e+00, 9.705488e-01, 2.431948e-02, 2.338305e+00, 8.487348e-01,
    -3.553155e+00, 6.609725e-01, 3.564250e+00, 1.452814e-01, -2.891382e-01, -3.522932e+00, -2.221319e-01, -7.805060e-01,
    1.300552e-01, -5.144161e+00, -9.837511e-01, -2.921589e+00, 2.724908e+00, -2.449034e+00, 8.784456e-01, -1.913965e+00,
    3.165286e-01, 3.129964e+00, -1.080213e+00, -7.457914e+00, 2.694155e+00, 2.566010e+00, -4.993652e-01, -2.250483e+00,
    1.588865e+00, 3.963579e+00, -4.718417e+00, 3.044534e+00, -1.412163e+00, -1.983179e+00, 3.664867e+00, -1.476145e-01,
    4.762133e+00, -1.960557e+00, -2.501599e+00, -3.780936e+00, -4.971998e+00, -5.046692e+00, 3.184549e+00, 1.951353e+00,
    2.568355e+00, 7.511033e-01, -1.494232e+00, -1.468583e+00, -1.222505e+00, -9.122774e-01, 7.783349e-01, -4.286716e+00},
   {1.188558e+00, 4.854449e-01, 2.229989e-01, -5.555981e+00, -7.922296e-01, -3.451905e-01, -4.512593e+00, 1.371757e+00,
    -8.097965e-01, -7.568694e-01, -5.590732e-01, -7.010068e-01, -2.238645e+00, 4.540525e+00, -8.891187e-01, -4.289656e+00,
    1.667753e+00, 7.110159e-01, -2.763700e+00, -2.780754e+00, 4.980183e-01, 2.967769e+00, 7.717432e-01, -1.988172e+00,
    4.746319e+00, 3.236938e+00, 1.577626e+00, 1.880981e+00, -2.751876e+00, -1.289636e+00, -1.525349e+00, 1.550886e+00,
    -2.335537e+00, -1.929058e+00, 1.149451e+00, 5.492336e-01, -7.181131e-01, 4.991235e-01, 3.037006e-01, -1.171442e+00,
    -3.818057e+00, 2.426437e-01, 2.101137e+00, 1.361710e+00, 5.500210e+00, 1.423737e+00, -7.047768e-01, -1.092030e+00,
    -2.930470e+00, 1.790542e+00, 3.031926e+00, 1.764857e+00, 8.436250e-01, 9.823701e-01, -2.844588e+00, 5.180578e-01,
    -2.904209e-01, -3.222944e+00, 3.084686e+00, -2.841794e+00, 2.948979e+00, -2.516174e-01, -2.679134e+00, 1.797366e+00},
   {8.682629e-01, 1.341939e-01, -1.943719e+00, 9.789812e-01, 6.855896e-01, 3.027653e+00, 7.180952e-01, 1.156180e+00,
    -9.446080e-03, 1.813160e-01, 1.361494e+00, -3.398573e+00, -4.875036e-01, 3.294339e+00, -1.448869e+00, 3.594405e-01,
    2.276590e+00, -4.403861e-01, -1.174332e+00, -2.892258e+00, -1.887836e+00, -1.082867e+00, -3.008592e+00, 2.292397e+00,
    -1.105465e+00, 2.439455e-01, 4.597936e+00, 7.339878e-01, 8.687374e-01, 4.624021e+00, 5.788482e-01, 1.287331e+00,
    -5.951855e-01, -2.816778e+00, -7.257712e-01, -1.255899e+00, -2.291122e+00, 7.698392e-01, 1.880005e+00, 1.046682e+00,
    -8.978857e-01, -5.910105e-01, 4.246872e-01, 1.195213e+00, -1.007809e+00, -1.842875e+00, -2.102784e+00, -3.798342e+00,
    1.356813e+00, -2.891814e+00, 1.707113e+00, 1.088571e+00, -3.014482e+00, -2.130198e+00, -2.265222e-01, -2.384011e+00,
    -1.443228e+00, 1.265700e-01, -6.695815e-01, -2.353175e+00, 1.588345e+00, 1.225509e+00, 2.029689e-01, 5.941626e-01},
   {-2.687131e+00, -6.306138e-01, -1.246274e+00, -1.734301e+00, 1.471557e+00, 1.164038e+00, -2.992527e-01, 2.553231e+00,
    4.417109e-01, 2.762685e-01, -2.528205e-01, -3.576120e-01, 7.556922e-01, 1.040652e+00, 1.660033e+00, 1.136611e+00,
    8.085445e-01, -1.799202e+00, -2.423066e-02, 2.003523e-01, 8.284324e-02, -2.066519e+00, 1.940934e+00, -2.304161e+00,
    2.623354e+00, -9.660109e-01, -6.417075e-01, 2.020690e+00, -3.972409e+00, 9.212558e-01, -3.981203e+00, -1.758176e+00,
    5.650622e-01, -4.808945e-03, 3.637908e+00, 1.819591e+00, -4.566205e-01, -2.224942e+00, 9.589770e-01, 9.007578e-02,
    -1.114122e+00, 1.262565e+00, -1.837064e+00, 9.182219e-01, 2.068749e+00, 2.662892e+00, -4.096533e-01, 8.587537e-01,
    -1.099416e-02, -2.386258e+00, -1.958373e+00, 2.699780e-01, 2.297721e+00, -1.152629e+00, 7.393997e-01, 2.673890e+00,
    -2.194988e+00, -1.702571e+00, 1.733829e+00, -2.244352e+00, -3.284741e+00, -2.620332e+00, 2.116211e+00, -7.880790e-01},
   {1.406540e+00, 6.549808e-01, 2.064118e-01, 1.341826e+00, -2.041528e-01, -2.420913e+00, 1.682298e+00, -5.999159e-01,
    -2.220543e+00, 2.855204e+00, 2.165690e+00, 2.400051e+00, -3.375544e-01, 1.163265e+00, -3.457634e+00, -3.840141e-01,
    6.208762e-01, 1.709321e+00, 3.396446e+00, 1.989406e+00, 1.119102e+00, 2.017716e+00, -2.530858e-01, -2.055548e+00,
    -3.019960e+00, 2.050602e+00, 3.622024e+00, -4.734645e+00, -3.532511e+00, 1.946630e+00, 1.943376e+00, -1.732556e+00,
    2.157023e+00, 5.642128e-01, -2.086783e-01, 1.733721e+00, 3.542225e-01, 7.259305e-01, 8.668993e-01, 2.186317e+00,
    9.344994e-01, -2.416177e+00, 1.013772e+00, -4.086435e-01, -3.271816e+00, -8.816857e-01, -3.036866e-01, 7.562530e-01,
    3.430611e+00, 1.802802e-01, 6.275306e-01, -7.368932e-01, -5.709059e-01, -1.290251e-01, 1.930742e+00, 1.434372e-02,
    1.669496e+00, 5.037628e-01, -1.598955e+00, 6.965905e-01, -3.945590e-01, 3.836143e+00, 1.803803e+00, -1.198180e-01},
   {-3.206139e+00, 4.984537e-01, 8.598182e-01, -5.967320e-01, -1.713017e+00, -3.439481e+00, 1.124674e+00, 2.108485e+00,
    3.536987e+00, 1.368526e+00, 1.858803e-01, 3.648605e-01, 5.924090e-01, -3.029781e+00, 6.566651e-01, 1.886065e+00,
    -4.649716e-01, -1.316646e+00, -7.579479e-02, 1.029231e+00, 4.324685e-01, -1.654463e+00, -3.260470e-01, -2.327160e+00,
    -5.782547e-01, 6.000474e-01, 2.345195e-01, -4.995475e-01, -3.207334e+00, -5.031402e-01, -2.244125e+00, -3.204467e+00,
    1.431537e+00, 1.939840e-01, -6.339313e-01, 1.553556e+00, 1.842673e+00, 1.442966e+00, -5.991200e-01, 2.723585e+00,
    1.731414e-01, -9.392387e-01, 1.555608e+00, -6.239784e-01, -1.543184e+00, 8.051602e-01, 2.591517e+00, 2.570267e-01,
    -1.558805e-01, 7.233490e-01, -2.139201e+00, 2.858236e+00, 8.131900e-01, -2.983404e-01, 4.328554e+00, 1.921164e+00,
    1.987524e-03, 4.944272e-01, 7.096883e-01, -1.024283e+00, -2.344213e+00, 3.787932e-01, 9.933869e-01, -2.081910e+00},
   {2.773510e+00, 2.533104e+00, 2.052406e+00, -1.811277e+00, -2.556053e+00, -8.714974e-01, -2.754996e+00, -1.885556e-01,
    -1.063565e+00, 2.845819e+00, -4.775271e-01, -6.917756e-01, -1.329828e+00, 2.033661e+00, -1.700350e+00, -1.059781e+00,
    1.587538e+00, -2.313865e+00, -5.250131e-01, 1.932840e-01, 1.351753e+00, 1.676218e+00, 4.176868e-01, 6.003409e-01,
    6.922545e-01, 2.478796e+00, 6.503093e-01, 9.787477e-01, -7.720517e-01, -2.175421e+00, 3.105384e+00, 1.572654e+00,
    -9.539865e-01, -1.170852e+00, -1.864186e+00, -2.371165e+00, -4.466897e-01, 4.399509e-01, -3.097592e+00, -1.631199e+00,
    -9.517516e-01, -5.736120e-01, 1.290812e-01, 1.181601e-01, 1.287361e+00, -8.490198e-01, -1.830359e+00, -1.331520e-01,
    -1.479915e+00, 2.126114e+00, 1.511757e+00, 2.550082e-01, 3.250121e-01, 1.453570e+00, -9.070847e-01, -1.161834e+00,
    -9.966802e-01, 3.535703e-01, 3.171307e-01, -2.010768e-01, 1.199661e+00, 6.243145e-01, -2.343737e+00, -1.075464e+00},
};

// clang-format on


#endif // __RNN0_PARAMS__

