#ifndef __RNN1_PARAMS__
#define __RNN1_PARAMS__

#define RNN1_HIDD_DIM0 (64)
#define RNN1_HIDD_DIM1 (32)

// clang-format off

const float RNN1_ALPHA = (-1.527963e+00);
const float RNN1_BETA = (4.517882e-01);

const float RNN1_BIAS_UPDATE[32] = 
   {2.295117e+00, 5.939773e-01, 1.038504e+00, 7.200828e-01, -5.486161e-01, 6.347404e-01, 2.723285e+00, 1.799205e+00,
    1.177655e+00, 1.315709e+00, -4.656805e-01, 2.696321e+00, 9.413736e-01, 1.004434e+00, 3.956749e-01, 2.941097e+00,
    -4.684624e-01, 1.991375e-01, 3.231602e-01, 1.617918e+00, 4.442376e-01, 2.609616e+00, 7.317327e-01, 1.879719e+00,
    1.881689e+00, 1.699980e+00, 3.295816e-01, 1.438929e+00, 4.800059e-01, 1.348477e+00, 2.711548e+00, -2.345432e-02};

const float RNN1_W[64][32] = {
   {1.099018e+00, 3.117481e-01, 4.779273e-01, -2.046432e-01, 9.379907e-04, 4.257291e-01, 1.355453e+00, 6.226572e-01,
    6.297001e-01, -5.562110e-01, -5.010510e-01, -1.055751e+00, 3.448163e-01, 9.739611e-01, 1.113030e+00, 1.744899e+00,
    1.657228e-01, 1.110890e-01, -1.488710e-01, -4.623702e-02, 5.344905e-01, 1.821242e+00, 7.225485e-01, 2.488646e-02,
    -5.419096e-01, 5.250025e-01, 2.036592e-03, -2.352878e-01, 4.718093e-01, 1.000621e+00, -1.152089e-01, 6.363621e-01},
   {-5.133244e-01, -3.249575e-01, -8.553815e-01, 6.917814e-01, -9.740552e-01, -1.890130e-01, 1.115615e-01, -9.215800e-01,
    5.512213e-01, 7.728637e-01, -1.228085e+00, 1.030744e+00, -4.354117e-02, -5.377268e-02, -1.122343e+00, 7.774197e-01,
    -2.864926e-01, -6.249320e-01, -3.909456e-03, 6.177446e-01, 3.119352e-01, 2.409540e-01, -1.592278e-01, 5.112965e-01,
    3.653119e-01, 2.019172e+00, -2.085089e-01, 7.769932e-01, 1.981784e+00, 6.123264e-01, -9.664711e-02, 8.494194e-01},
   {-4.606957e-01, -6.658996e-02, -4.375022e-01, 8.081422e-01, -6.687011e-01, 1.330160e-01, -3.864868e-01, -9.346892e-01,
    1.333775e+00, 1.526945e+00, -6.833073e-01, 2.917705e-01, -8.822959e-02, -3.845176e-01, -7.852103e-01, 1.228950e+00,
    -3.023849e-01, -1.047696e+00, -1.437508e-02, 8.683019e-01, 2.333985e-01, 3.008540e-01, -2.180766e-02, 5.562761e-01,
    1.928236e-01, 1.456322e+00, -3.595273e-02, 7.420677e-01, 1.577310e+00, -1.006530e-01, -2.039080e-01, 9.833057e-01},
   {-9.499561e-01, -2.738487e-01, 8.132380e-01, -4.163226e-01, 6.682180e-01, -1.698863e-03, -6.637226e-02, -1.590814e+00,
    3.231684e-01, -4.379369e-02, 3.286034e-01, -2.177911e-02, -7.016189e-01, -1.101255e+00, 1.419060e-01, -3.530228e-01,
    -5.323390e-01, -3.348106e-01, 7.866642e-01, -8.577549e-01, 1.180300e-01, -1.003491e-01, -4.588753e-02, 6.907930e-01,
    -6.818135e-01, 3.492941e-01, -6.767718e-01, 7.121682e-01, -7.146816e-01, 4.998875e-02, -2.588813e-01, -5.430301e-01},
   {6.780537e-02, -7.731289e-01, 5.363780e-01, 5.394668e-01, -6.316403e-02, -9.579282e-02, -4.295076e-01, 1.210831e+00,
    -1.807161e-01, -7.013988e-01, 1.504730e+00, 3.689333e-01, 1.670433e-01, 7.279609e-01, 4.585601e-01, 6.145023e-01,
    2.061161e-01, -4.170025e-01, 1.347333e+00, 1.530501e-01, 8.334449e-01, -1.031752e+00, -1.954206e-01, 4.666561e-01,
    3.619786e-01, 1.380113e+00, 7.462633e-01, 9.415600e-01, -2.136289e+00, -1.979204e-01, -4.015311e-01, 6.628126e-01},
   {-4.292126e-01, -2.026598e-01, -1.656822e-01, 5.959072e-01, -1.088301e+00, -6.055840e-01, 5.297034e-01, 6.523445e-01,
    4.008764e-01, -1.242131e-01, -6.017043e-01, 1.296667e+00, -3.588534e-01, 4.505667e-01, 5.884032e-01, -7.940842e-01,
    -3.098249e-01, -4.793907e-01, 3.683154e-01, -2.780996e-01, -2.668427e-01, -6.130127e-01, -6.986259e-01, -1.162668e+00,
    1.122334e+00, 3.047313e-02, 5.423219e-01, -8.567645e-02, -1.385115e+00, -2.419502e-01, 7.225996e-01, -9.675046e-01},
   {-5.830441e-01, -3.697934e-01, 6.634552e-03, -4.365156e-01, -5.542576e-01, -5.727429e-01, 3.131742e-01, -7.234562e-02,
    -2.174632e-01, -9.068384e-02, -7.608740e-01, 1.091104e+00, 1.722027e-01, -1.961557e-01, 1.310222e-01, -9.980586e-01,
    -8.483300e-01, -1.133747e+00, 7.134831e-01, 5.012519e-01, 5.649346e-01, -5.278866e-01, -3.379249e-01, 5.219408e-01,
    5.899494e-02, 1.319792e+00, -5.559075e-01, 5.749499e-01, 4.016863e-01, 4.156675e-01, 2.471560e-02, -6.031677e-01},
   {-1.444204e-01, -9.100024e-01, 2.327048e-01, -1.032298e-01, 4.004133e-01, 1.219622e+00, 1.614409e+00, -3.614779e-01,
    5.669798e-01, 1.051755e+00, 1.523278e-01, -1.273165e-01, 2.139136e-01, 2.632152e-01, -1.069613e+00, -2.478770e-01,
    -4.673576e-01, 6.063835e-01, -3.092426e-01, 4.832758e-01, 1.489831e-01, -1.560492e-01, -1.089106e+00, 1.924410e+00,
    2.192345e-01, -1.711479e+00, 1.903430e-01, 2.585696e-01, 7.014545e-01, -1.126129e-01, 4.891154e-01, 1.801341e-01},
   {-3.309201e-02, 5.269092e-01, -4.182608e-01, 2.537547e-01, 3.662461e-02, -1.071420e+00, -9.602516e-01, 1.096456e+00,
    -2.464389e-01, -7.103562e-02, 1.311571e-01, 1.667841e-01, 2.830071e-01, 1.067321e+00, 4.010481e-01, 8.299130e-01,
    -2.898615e-01, -7.708622e-02, 8.447667e-02, 8.000548e-01, -8.169578e-01, 2.177273e-01, 7.067602e-01, -1.319466e+00,
    1.213161e+00, 1.171106e+00, 3.107805e-01, -5.587975e-01, -6.817307e-01, 2.593254e-01, -1.926830e-01, 5.477483e-01},
   {2.261779e-01, 8.458561e-02, 1.713027e-01, 9.894913e-02, 3.393482e-01, 5.832520e-01, -1.170317e-01, -4.420801e-01,
    -2.301518e-01, -1.251844e-02, -1.509775e-01, 1.253344e+00, -3.704759e-01, -5.383698e-01, 2.333432e-01, -2.669389e-01,
    -4.425651e-02, 6.229681e-01, 4.973024e-02, -5.796676e-01, 4.605208e-01, 5.295891e-01, -7.609840e-02, 7.768859e-01,
    -3.849763e-01, -5.427399e-01, -2.776209e-01, -1.779995e-01, 8.067479e-01, -3.253607e-01, -3.383768e-01, -1.725430e-01},
   {-5.858999e-01, -3.982430e-01, 4.613870e-02, 7.109882e-01, 8.302953e-02, 5.598678e-01, 1.318119e+00, -3.408497e-01,
    1.007536e+00, -9.636778e-02, -2.734288e-01, 5.437326e-01, -1.750727e-01, -1.007196e-01, -1.074915e+00, -1.590287e-02,
    -8.793033e-01, -4.538709e-01, 1.735082e-01, 4.531460e-01, 4.162674e-01, -2.487801e-01, -1.210539e+00, 1.667110e-01,
    2.918213e-01, -3.857524e-01, 1.712269e-01, 9.748828e-01, 3.059145e-01, 2.360860e-01, 9.681173e-01, -4.122813e-01},
   {2.560617e-02, 2.924044e-01, -7.120073e-01, -3.708279e-01, -7.533517e-01, -6.461350e-01, -2.217817e-01, 9.955882e-02,
    9.496772e-02, -5.495691e-01, -9.775556e-01, 1.475645e-01, 6.971352e-01, -2.295521e-01, 4.930654e-01, 3.604590e-01,
    -6.418587e-01, -4.324159e-01, -1.374378e-02, 4.718319e-01, 2.560869e-01, 1.143460e+00, 1.196870e+00, 5.103698e-01,
    -1.792722e-01, 1.688541e+00, -2.025779e-01, 6.992645e-02, -3.828060e-02, -1.978019e-01, -3.483091e-01, 1.273911e-01},
   {-7.575541e-01, -1.019958e+00, 8.737271e-02, 3.930111e-01, -6.454521e-01, -2.246755e-01, -7.960711e-01, 1.163809e-01,
    6.380618e-01, -1.134979e+00, 7.786492e-01, -1.305692e-01, 8.051926e-01, -4.607816e-01, 1.365443e+00, -3.881264e-01,
    -3.262110e-01, 8.551719e-01, 6.092362e-01, 3.883860e-01, 7.401583e-01, -1.170683e-01, -1.917577e-01, 1.179652e+00,
    -1.157668e-01, 4.298176e-01, -7.412527e-02, -2.671005e-01, -7.390957e-01, -1.269728e+00, 3.176971e-01, 7.668317e-03},
   {-1.119174e-01, 2.475064e-01, -5.385125e-01, 6.602563e-02, -5.856715e-02, -1.596133e-01, 2.138305e+00, -2.793359e-01,
    7.249682e-01, 9.462483e-01, -3.933351e-01, 1.262192e+00, -3.971804e-01, 1.488547e-01, -2.389597e-01, -3.475930e-01,
    -1.714187e-01, 1.472009e-01, -2.897595e-01, 2.518209e-01, -8.568134e-01, 5.826277e-01, -2.984867e-01, -8.461866e-01,
    -6.271992e-01, -1.705259e-01, 3.295473e-01, -3.998552e-01, 2.223646e-02, 6.126192e-01, 4.261434e-01, -3.009801e-01},
   {-6.033701e-01, -1.143140e-01, 1.488707e+00, -4.969331e-01, 1.183024e+00, -1.127518e-01, 7.360400e-01, -6.758525e-01,
    2.079938e-01, 8.636631e-01, 3.642069e-01, -1.304727e+00, -5.780872e-01, 3.876961e-01, -4.761276e-01, 8.935421e-01,
    -6.247162e-01, -1.472317e+00, 4.195373e-01, -5.708184e-01, -1.010664e+00, -1.612702e+00, 8.921832e-01, 3.263248e-01,
    -3.838139e-01, 5.218873e-01, -3.271704e-01, 1.896867e-02, 2.453552e-01, -3.600427e-02, 2.379634e-01, 7.028611e-01},
   {-5.463014e-01, -2.319601e-01, -1.293632e+00, -2.136461e-01, -1.503114e+00, 2.357763e-01, -9.356933e-01, -5.761797e-01,
    -1.107048e+00, -7.808155e-01, 2.907137e-01, 1.320230e+00, -7.028455e-01, -6.593808e-01, 2.434904e-01, 7.403331e-01,
    1.921576e-01, 2.415586e-02, -6.234844e-02, 1.120855e-01, -4.199482e-02, 4.339348e-01, 1.874531e-01, -3.705342e-01,
    -1.767056e-01, 6.464063e-01, 5.512941e-01, 9.142974e-02, 1.797539e-01, -1.102387e+00, -2.159490e-01, -7.310749e-01},
   {-4.173461e-01, -1.872542e-01, -6.708614e-01, -8.382756e-01, 6.352539e-01, 6.097200e-01, 4.015976e-01, 2.690831e-01,
    4.786812e-01, 2.386125e-01, 5.931258e-01, 3.795134e-01, -2.910592e-01, -3.315617e-01, 7.210288e-01, -6.136605e-01,
    3.704303e-01, 6.287336e-02, 1.046767e-01, 1.459704e+00, 7.282772e-01, -2.240007e-01, 7.104089e-02, 4.954486e-01,
    -6.936328e-01, -8.635941e-01, 1.072735e+00, 7.753099e-01, -4.491970e-02, 1.481665e+00, -5.347658e-01, 2.722970e-01},
   {-6.863059e-01, 9.403438e-02, -1.313673e-01, -3.437494e-01, -6.081244e-01, -4.813501e-02, 1.181310e+00, 6.136289e-01,
    -2.799588e-01, -4.028820e-01, 6.215168e-01, 1.214849e+00, -6.188823e-02, 3.039543e-01, 5.493287e-01, -6.072937e-01,
    -2.123620e-01, -1.472226e+00, 2.185778e-02, 6.487483e-01, 7.517922e-01, 9.785308e-02, 2.101060e-01, -1.495052e-01,
    2.674224e-01, 1.750495e+00, -4.806399e-01, -2.970584e-01, 1.318050e-01, -4.098519e-01, -1.654156e-02, 4.215175e-01},
   {-5.601318e-01, -1.878884e-01, 4.090289e-01, -1.879082e-01, 3.012151e-01, 1.681437e-02, -5.792627e-01, -3.425639e-01,
    -5.020914e-01, -5.405119e-02, 1.626846e-01, 9.442952e-01, -1.593735e-01, 9.681700e-02, 1.020491e-01, -3.353191e-01,
    -1.487155e-01, -7.385755e-01, 9.401752e-01, 1.360181e-01, 5.893180e-01, -7.080898e-01, -2.710801e-01, 5.145248e-01,
    -3.378439e-01, 7.038423e-01, 7.083510e-01, 3.467824e-01, 1.630660e-01, -3.129868e-01, -5.888247e-02, -1.725835e-01},
   {-8.145929e-01, -8.428730e-01, 5.867920e-02, -1.035202e+00, 1.034136e+00, 6.189831e-01, -5.908354e-01, -1.591748e-01,
    -9.394776e-01, -1.350982e-01, 4.965355e-01, 1.134555e+00, 1.935091e-01, -6.082503e-01, 7.077532e-01, -5.006736e-01,
    -1.552344e-01, -1.410176e-01, 1.033458e-01, 5.071503e-01, 3.335331e-01, -1.674118e-02, -1.164368e-01, 1.479629e+00,
    -6.868814e-01, -4.988816e-02, -3.845714e-01, -3.439028e-02, -5.035968e-01, -9.489948e-01, -5.679531e-01, -4.808445e-02},
   {-7.185617e-02, -2.869604e-01, -4.868393e-02, -3.178321e-01, 1.039085e-01, -2.812066e-01, -1.941079e-01, -1.333395e-01,
    -4.919566e-01, -7.760926e-02, -4.687739e-01, 9.957458e-01, 1.428810e-02, 3.317455e-01, -7.484326e-01, 4.978909e-01,
    4.227644e-02, 4.998396e-01, 3.224056e-01, 1.444007e-02, -3.448251e-01, -4.853638e-01, 1.528462e-02, 7.226505e-01,
    3.990866e-01, 2.840183e-02, -2.199872e-01, 4.996328e-02, 8.708619e-02, 2.798298e-01, -2.839997e-03, -4.399076e-01},
   {1.244272e+00, 5.566658e-01, 3.601582e-02, 1.056179e-01, 7.664796e-01, 4.556055e-01, 2.980402e-02, 7.363178e-01,
    3.873414e-01, -1.549534e-01, -6.537026e-01, -1.861295e-01, 9.996624e-01, 2.182305e+00, 1.348964e-02, 1.386989e+00,
    5.424768e-01, -2.680842e-01, -8.609746e-01, -2.797619e-01, 5.136901e-01, 2.759654e+00, 6.443442e-01, 1.542109e-01,
    -1.109774e+00, 3.082593e-01, -1.050580e-01, 4.651528e-01, 4.689354e-01, 3.229857e-01, -7.278063e-01, 1.159284e+00},
   {3.374878e-01, -2.644301e-01, 6.704413e-01, -5.648656e-01, 5.251750e-01, 2.359352e-01, -3.705322e-01, -7.893875e-01,
    4.758677e-01, 1.057708e+00, -2.909784e-01, -5.643936e-01, -4.137132e-03, 3.208274e-01, -8.025840e-01, 3.517312e-01,
    6.393808e-01, -5.247040e-01, 1.867710e-01, 6.703278e-01, -1.775265e-01, 2.633556e-01, 2.630562e-02, 3.139250e-01,
    -3.424775e-01, 9.915675e-02, -1.047987e-01, 1.028130e+00, 1.741177e+00, 5.595334e-01, -8.613773e-02, 7.340374e-01},
   {2.043328e-01, -3.549037e-02, -5.845337e-02, -1.018836e-01, -1.134509e+00, 6.210708e-02, 9.206857e-01, -7.880698e-01,
    -1.424214e+00, -1.079297e+00, -1.560056e+00, -1.418334e+00, -8.045633e-01, -7.481518e-01, 1.361963e-01, 8.139891e-01,
    6.101407e-01, 1.128189e-01, -8.450172e-01, -1.727112e+00, -7.030841e-03, 1.130821e+00, 4.178734e-01, -1.465619e+00,
    6.622470e-01, -2.128343e+00, 4.021678e-01, -1.140617e+00, -1.040987e-01, -7.973756e-01, 1.539715e+00, -4.409165e-01},
   {-5.151235e-01, -9.356605e-02, -1.766816e-01, 5.986283e-01, 9.056214e-01, 4.097783e-01, 1.904081e+00, -4.642551e-01,
    2.003540e+00, 1.164593e+00, -1.343550e+00, -5.782528e-01, -3.663687e-01, 4.902993e-01, -1.193017e+00, 1.219531e+00,
    -2.071678e-01, -3.693511e-02, -1.386537e-01, -7.630867e-01, -9.972728e-01, -1.894357e-01, -7.158304e-01, -1.819526e-01,
    6.576779e-01, -1.171472e+00, 1.175202e-01, -5.483888e-02, 5.151249e-01, 4.339123e-01, 1.552320e+00, -2.100088e-01},
   {3.531835e-01, 1.688674e-01, -9.097171e-01, -3.003378e-01, -9.406299e-01, 4.509807e-01, 9.067878e-01, -2.974754e-01,
    8.629401e-01, 5.843950e-01, -4.826994e-01, -2.035732e-01, 6.246148e-02, -7.536721e-02, -3.124376e-01, 1.210008e+00,
    -4.325410e-03, 3.666749e-01, -9.963754e-01, 1.809333e-01, 5.526848e-01, 2.799955e+00, 2.031940e-01, -1.802227e-01,
    -1.225500e+00, 9.399974e-02, 3.116617e-01, 4.834843e-01, 3.065430e-01, 8.274788e-01, -1.447385e+00, 1.172533e+00},
   {-2.673635e-02, -2.366707e-01, -1.579702e+00, 6.218269e-02, -9.626568e-01, 2.073893e-01, 1.237279e+00, -1.963179e-01,
    1.723878e+00, 5.596181e-01, 2.606200e-01, 5.337291e-01, -1.317438e-01, -6.867926e-01, -3.073792e-01, -3.553182e-01,
    -4.696992e-01, 5.456134e-02, -4.097911e-01, 4.265205e-01, 8.102496e-01, -1.048742e-01, -6.761983e-01, 8.284875e-01,
    -3.427866e-01, -4.487175e-01, 3.483298e-01, 6.273906e-01, 8.964936e-01, 1.099222e+00, 4.165618e-01, 3.242745e-01},
   {-1.773502e-01, -4.730265e-01, -5.400942e-02, 6.536474e-01, 3.154126e-01, 3.123279e-01, 1.594228e+00, 1.508562e-02,
    8.251149e-01, 9.011911e-01, 9.316457e-01, -4.591715e-01, -3.629540e-03, -2.671485e-01, -5.755149e-01, 4.733561e-01,
    -1.969231e-01, 1.120494e+00, -1.937904e-01, -1.617240e-01, -2.024354e-01, -3.444773e-01, -8.502094e-01, -1.021532e+00,
    6.731169e-01, -3.399031e+00, 3.834261e-01, 7.252326e-02, 1.395496e-01, 8.079915e-01, 4.239464e-01, -8.513944e-01},
   {-1.023385e+00, -6.917977e-01, 1.081875e+00, -2.785065e-01, 9.810012e-03, -1.209934e-01, 1.006600e+00, -1.079299e+00,
    -9.524307e-01, -3.936999e-01, -1.809071e-01, 1.232460e-01, -5.161747e-01, -4.165789e-01, 5.554873e-04, 8.373619e-01,
    -2.885846e-01, -1.716907e-01, 3.355683e-01, -1.900803e+00, 3.005192e-01, -1.400413e+00, -5.824878e-01, -5.340156e-02,
    9.928662e-01, -5.117145e-02, -4.059615e-01, 4.415676e-01, 8.723630e-01, -7.189088e-01, 3.579080e-01, -5.362110e-01},
   {-1.082629e+00, 1.682910e-02, -2.479363e-01, 6.951545e-02, 6.859474e-01, 2.099440e-01, 1.932221e-01, -2.754658e-01,
    9.766991e-01, -3.391912e-01, 3.626242e-01, 1.316076e+00, -2.992388e-01, -2.516131e-01, -5.130270e-02, 1.999713e-01,
    -2.643590e-03, -7.249924e-01, 3.709778e-01, 1.796303e-01, 6.022671e-01, -2.572454e-01, -2.991738e-01, 4.116309e-01,
    1.933474e-02, -6.490927e-01, 4.649995e-01, 1.625823e+00, -2.291637e-01, 7.242793e-01, 3.628444e-01, 2.106951e-01},
   {-1.467718e-01, 1.763386e-01, -5.390442e-01, 6.124020e-01, -1.581322e+00, 7.545447e-02, 5.776860e-01, -2.008714e-02,
    -2.130006e-02, 4.628827e-02, -1.161631e+00, -9.478553e-02, -7.891119e-02, -6.239915e-01, -3.189553e-02, 4.482138e-01,
    -6.502994e-01, -3.000231e-02, -8.708705e-01, -1.915014e-01, 3.154779e-01, 5.863541e-01, 1.068103e-01, -4.182510e-01,
    1.084593e+00, -5.712258e-02, 4.085076e-01, -2.315036e-01, 5.470693e-01, 1.898657e-01, -6.245589e-01, 3.383552e-01},
   {-3.186165e-01, -8.395512e-01, 1.794288e+00, -1.027809e+00, -4.344404e-01, 5.793750e-02, -1.343339e-01, -6.952118e-01,
    -1.865174e+00, -2.994402e-01, 1.437469e-01, 5.333154e-01, 5.528757e-02, -9.911356e-02, 6.397011e-01, 1.461031e+00,
    1.094970e+00, 8.466536e-01, -9.397943e-01, -1.582253e+00, 1.193134e+00, 5.249953e-01, 5.123165e-01, 5.003821e-01,
    -6.897717e-01, -7.288930e-01, -3.282356e-02, -1.103071e+00, -8.899590e-01, 5.851309e-01, -1.038661e+00, 2.679486e-01},
   {-5.871806e-01, -8.128678e-01, 6.634767e-01, -9.997396e-01, 3.123155e-01, 8.984026e-01, -5.031346e-01, -7.562574e-01,
    -3.957003e-01, -4.448122e-01, 9.152645e-01, 6.042137e-01, -2.377630e-01, -3.648344e-01, 1.383010e+00, -5.703337e-01,
    4.136862e-01, 8.162375e-01, 3.062734e-01, -2.975615e-01, 7.288247e-02, 1.532944e-01, -3.692176e-01, 1.386621e+00,
    -7.444230e-02, 3.616057e-01, -6.832761e-01, -1.956207e-01, -6.179247e-01, -1.029967e+00, -6.860819e-04, -1.351417e-01},
   {8.767954e-02, 4.060728e-02, -2.749047e-01, -1.330493e-01, -1.384575e+00, -7.924659e-01, -1.676394e-01, -5.519075e-01,
    -9.318599e-01, -3.550503e-01, -5.313157e-01, 7.707510e-03, -8.355792e-01, 5.019209e-01, -5.711411e-01, -1.573993e-01,
    -5.729923e-01, -6.330943e-01, 2.581535e-02, -6.382109e-01, -1.424979e-01, -1.986045e-01, -1.714191e-02, 5.861872e-01,
    4.824173e-01, 8.339273e-01, -2.743479e-01, 1.046614e+00, -8.895362e-02, 3.458050e-02, 3.427067e-01, -2.368927e-01},
   {-7.178684e-01, 1.061267e-01, 9.286830e-01, -5.330107e-02, 9.654059e-01, 5.372841e-01, 7.134580e-01, -8.840253e-01,
    6.570585e-01, 7.157934e-01, 3.606911e-01, 1.166698e-01, -8.866802e-01, -1.280428e-01, -4.095594e-01, -2.857822e-01,
    -3.667191e-01, 4.838281e-02, 8.227591e-01, -9.962024e-02, 2.022206e-01, 1.489264e-01, -3.835779e-01, 5.310143e-01,
    -7.123553e-01, -1.380076e+00, -2.245762e-01, 8.186639e-01, 3.695704e-02, -1.353328e-01, 8.054463e-01, -8.231616e-02},
   {-2.432655e-01, 5.403001e-01, -7.430983e-01, 1.055035e-01, -1.201660e-01, 6.576626e-01, 1.256138e-01, -2.148328e-01,
    2.135879e+00, 9.147020e-01, -1.114411e+00, -6.497951e-01, -1.733644e-01, 3.227599e-01, -7.471905e-01, 1.106644e+00,
    7.186543e-01, -2.148468e-01, -6.458061e-01, 9.097650e-01, -2.947195e-01, 8.032813e-01, 1.020095e-01, 2.566241e-01,
    -9.817332e-01, -1.229691e-01, 8.405699e-01, 2.160241e-01, -8.337282e-02, 8.264301e-01, -4.751087e-01, 1.767096e+00},
   {-3.836662e-01, -5.742068e-02, -3.949809e-01, 3.777816e-01, -1.352715e-01, -2.348605e-01, -6.908700e-01, -3.406628e-01,
    -4.200702e-01, -1.051593e-01, -1.324889e+00, 1.156532e+00, -4.556477e-01, 1.623688e-01, -6.148331e-01, 3.517369e-01,
    1.835696e-01, -9.185476e-01, -2.284182e-01, 8.598554e-01, -3.109492e-01, 2.217740e-01, 2.887800e-01, 7.264888e-02,
    -5.712312e-01, 1.411547e+00, -3.397768e-01, 2.348753e-02, 2.762318e-01, -4.765064e-01, -4.812385e-01, 3.788148e-01},
   {-1.618331e-01, -4.283237e-01, -9.278687e-01, 1.418733e-02, -1.759175e-01, -1.285077e-01, 2.548008e-01, -5.563973e-01,
    -1.903623e-01, 4.025013e-01, -1.270420e+00, 8.387012e-01, -5.122875e-01, -7.878150e-01, -1.071870e+00, 4.071646e-01,
    -3.982602e-02, -1.052819e+00, 2.827325e-01, 6.753824e-01, 2.624319e-02, 1.540677e-01, -2.167521e-01, -1.204560e-01,
    -1.611563e-01, 1.831970e+00, -5.181552e-03, 6.263906e-01, 1.016648e+00, -3.595290e-01, 7.210298e-02, 7.322052e-01},
   {-4.531724e-01, -2.231937e-01, -1.955061e-01, 4.604452e-01, -3.716205e-01, 4.370365e-01, 8.278126e-01, -3.215147e-01,
    1.698377e+00, 1.031834e+00, 4.995075e-01, -2.125080e-01, 9.542330e-02, -2.102379e-01, -6.587262e-01, 3.031882e-01,
    -3.986875e-01, -2.910382e-01, 6.975195e-01, 6.443908e-01, 6.161603e-01, 2.501126e-01, 8.974967e-02, 2.578708e-01,
    4.191526e-01, -3.681264e-01, 1.059330e+00, 1.479664e+00, 7.393509e-01, 1.307863e+00, 1.390898e+00, 5.406454e-01},
   {2.882022e-01, -4.542962e-01, -8.947979e-01, -3.464493e-01, 8.734338e-01, 1.465124e-01, -1.153116e+00, 8.690254e-01,
    1.390188e+00, 3.036030e-01, 1.287055e+00, -1.453169e-02, 7.860675e-01, 9.093028e-01, 2.689183e-01, -8.736857e-01,
    -6.753973e-01, -2.033587e-01, 5.921226e-01, 4.268666e+00, -5.290403e-01, 3.726029e-01, 1.775835e-01, 1.428452e+00,
    -1.215880e+00, 2.385242e+00, -1.921780e-01, 7.104733e-01, -1.707411e+00, 8.145241e-01, -1.836936e-01, 9.493435e-01},
   {-6.270129e-05, 1.185409e-01, -4.751102e-01, 1.523957e-01, -1.252591e+00, -1.569483e-01, -2.459818e-01, -1.960242e-01,
    -4.335310e-01, -5.265001e-01, -4.788184e-01, 2.869979e-01, -2.333332e-01, 4.455607e-02, 5.476610e-01, 4.171733e-01,
    4.215952e-01, -8.640615e-01, -3.919292e-01, 4.078777e-01, 5.046074e-01, 7.059303e-02, -4.081733e-01, -4.935773e-01,
    2.358661e-01, 2.372581e-01, -1.463596e-01, 9.658399e-02, -2.990279e-01, -3.496420e-01, -7.460188e-01, -1.338384e-01},
   {2.073426e-01, -1.540922e-01, 1.719526e+00, -4.764141e-01, 5.640484e-01, -3.834443e-01, -4.821673e-01, 4.290838e-01,
    -4.717455e-02, 4.249152e-01, 1.409412e-01, -3.096780e-01, -7.294526e-02, -3.579333e-02, 3.669366e-01, -1.454551e-01,
    -2.374830e-01, -6.700675e-01, 5.507286e-01, -5.137843e-01, -4.903425e-02, 1.683517e-01, 3.339152e-01, 3.931498e-01,
    -9.114286e-01, 1.371760e+00, -5.084506e-01, 8.702278e-01, -2.685093e-01, -2.836639e-02, 4.233567e-01, -7.427365e-01},
   {2.213945e-01, -1.496094e-01, -2.401020e-01, 3.751299e-01, -1.076446e+00, 4.631720e-01, 1.312496e+00, -6.890457e-01,
    1.963716e+00, 7.237070e-01, -1.091741e+00, 3.404056e-01, 2.045994e-01, 1.829462e-01, -6.355676e-01, 9.697757e-01,
    1.544826e-01, 5.085040e-01, -4.651573e-01, 1.267907e+00, -2.742188e-01, 2.029014e+00, 2.981404e-01, 3.040254e-01,
    -5.296786e-01, -1.039660e+00, 6.829404e-01, 3.920033e-01, 8.289469e-01, 8.168533e-01, 8.851937e-01, 1.337453e+00},
   {-6.141344e-01, -2.175216e-01, -9.026394e-01, 1.525596e-01, -9.986332e-01, -3.857677e-01, 4.879118e-01, -5.711433e-01,
    -1.238189e-01, 9.690701e-01, -1.255393e+00, -1.732052e-01, 3.368183e-01, 1.248530e-01, -1.281502e+00, 2.261351e-01,
    -9.612471e-01, -2.922328e-01, 4.544236e-01, 2.157016e-01, 6.124272e-02, -2.049222e-01, -2.598135e-01, 4.800008e-01,
    1.990467e-01, 1.781697e+00, -3.335530e-01, 8.395485e-01, 1.171400e+00, -5.376649e-01, 1.669360e-01, -2.603455e-01},
   {-2.821150e-01, 5.994929e-01, 4.920025e-01, 5.746309e-02, 1.062307e+00, 3.485422e-01, 1.179515e+00, -2.697762e-01,
    9.948590e-01, 5.918671e-01, 4.965309e-01, -7.815424e-02, 4.002874e-01, 2.099842e-01, 6.589190e-02, -3.668544e-01,
    -3.957013e-01, -4.479681e-02, -2.281239e-01, 2.069681e-01, -3.738670e-01, -3.449563e-01, 3.263261e-01, 1.596513e-01,
    -3.497773e-01, -1.060651e+00, -9.802239e-02, 2.671253e-01, 5.439179e-03, 8.618028e-01, -1.467032e-01, -7.837716e-02},
   {-3.675075e-01, -7.989454e-01, 5.924885e-01, 1.184756e-03, 7.516028e-01, 1.726267e+00, 1.141544e+00, -8.692629e-01,
    8.188993e-01, 4.537857e-01, -4.852975e-01, -6.330597e-01, -1.357852e-02, -5.473488e-01, -3.332402e-01, 5.260657e-01,
    -1.375695e-01, 8.565018e-01, 3.471950e-01, 5.640523e-01, -4.156051e-01, 5.442860e-02, -6.476209e-01, 1.220697e+00,
    4.383410e-01, -1.460260e+00, 2.666546e-01, 2.620690e-01, 7.593769e-01, -6.291276e-01, 1.257137e+00, 1.894552e-01},
   {-5.081948e-01, 1.612762e-01, -1.716149e-01, -2.661276e-01, 7.005743e-01, -4.747731e-01, -2.626964e-01, -3.376625e-01,
    -2.015440e-01, 6.068206e-01, -6.252515e-01, 1.355424e+00, -7.553783e-02, -1.081683e-01, -7.076623e-01, 4.858631e-01,
    -3.447080e-02, -2.020259e+00, 1.430010e-01, 4.850569e-01, 2.046244e-02, -2.912089e-01, 2.709711e-01, 3.270281e-01,
    -3.473776e-01, 1.265346e+00, -5.511218e-01, 3.225650e-01, 3.067632e-01, -8.171175e-01, 1.581315e-01, 4.148218e-01},
   {2.193997e-01, -8.546901e-01, 2.614174e-01, 3.426475e-02, 9.679214e-02, 9.595663e-01, -2.950322e-02, -1.661965e-01,
    -8.470047e-01, -1.091218e-01, -9.412685e-01, 1.479372e+00, -1.793294e-01, 7.411587e-01, -6.354916e-01, 1.232368e+00,
    5.731155e-01, -4.186658e-01, -2.569626e-03, -5.365213e-01, 3.877358e-01, -9.253821e-01, -1.500447e-01, 1.745046e+00,
    5.285789e-01, -3.810988e-01, -1.415959e+00, 2.770006e-01, -1.369870e-03, 8.050866e-02, 7.165543e-01, -2.080892e-01},
   {-5.437890e-01, 4.095210e-01, -8.598368e-01, -7.703121e-01, -4.126740e-01, -7.188717e-01, -6.406239e-01, -3.709497e-01,
    -3.593426e-01, -1.237826e+00, -1.121410e-01, -1.758008e-01, 4.370148e-01, -2.620150e-01, 1.932244e-01, -5.926711e-01,
    -7.991816e-01, -1.182989e+00, 3.733244e-01, 5.079135e-01, 3.778194e-01, -2.396706e-01, 5.699641e-01, 5.990680e-01,
    4.060191e-01, 2.491520e+00, -4.911629e-01, 8.492900e-01, -1.421384e-01, -3.064602e-01, 1.346864e-01, -9.802197e-02},
   {6.221421e-01, -4.157413e-01, -2.142811e-01, 1.664422e-01, -1.186736e+00, 9.984318e-01, 1.674904e+00, -1.902467e-01,
    -9.379002e-01, 1.152440e+00, -2.258300e+00, 6.834936e-01, -1.981401e-01, -3.930500e-01, -5.098004e-01, 1.094061e+00,
    3.936789e-02, -3.080904e-01, -6.818049e-01, -5.988716e-01, 3.205725e-01, 6.803394e-01, -7.767761e-01, 9.309962e-01,
    3.015818e-02, -2.823792e-02, -2.484063e-01, -8.239530e-03, 1.000311e+00, 2.691149e-01, -8.306246e-02, 1.132933e+00},
   {1.070679e+00, -3.629624e-01, -1.222028e-02, -4.563725e-01, -2.138897e-01, -1.757819e-01, 1.262581e+00, 9.691203e-02,
    -4.931729e-01, 4.404823e-01, -7.659250e-01, 3.148312e+00, -5.224613e-01, 9.405733e-01, -7.720091e-01, -2.258387e-01,
    1.012391e+00, 6.505737e-01, -6.869465e-01, 4.870977e-01, 6.882179e-01, 5.060212e-01, -3.348341e-01, -6.778448e-01,
    -1.143568e+00, -6.319535e-01, 7.486324e-02, -5.235779e-01, 3.493513e-01, 1.422828e+00, -3.709004e-01, 3.111056e-01},
   {-2.295281e-01, -2.167381e-01, -2.964423e-01, -7.445255e-01, -6.762521e-01, 1.136578e+00, 2.219732e+00, -3.076288e-02,
    2.339201e-01, -4.316435e-01, 7.568310e-02, 1.481223e+00, -5.382456e-01, 1.059474e-01, 8.221631e-01, -4.972974e-01,
    3.320421e-01, -2.737780e-02, -6.696910e-01, 1.051937e+00, 3.181226e-01, 2.162312e+00, -6.178982e-01, -1.358852e-01,
    -6.174507e-01, -1.185093e+00, 2.604915e-01, 3.125193e-01, -1.313559e-01, 3.656515e-01, 3.428665e-01, 1.992822e-01},
   {2.235201e-01, 2.510521e-01, 1.366668e+00, 2.062441e-01, 1.136173e+00, 4.199999e-01, -1.778596e+00, -6.379339e-01,
    -6.301698e-01, 1.145169e-03, 9.995298e-01, 4.729847e-01, -1.045132e-01, 2.392562e-01, -5.813399e-01, 1.224776e+00,
    1.560173e+00, 6.822824e-01, 7.810176e-02, -3.591027e-01, -3.722193e-01, -2.310038e-01, 1.088895e+00, -2.211953e-01,
    -1.471469e+00, -6.591347e-01, 6.740607e-01, 2.687879e-01, -1.028833e-01, 5.139177e-01, -1.288551e+00, 1.018654e+00},
   {-2.932497e-01, 2.328259e-02, 5.220316e-01, -2.294469e-02, 6.646382e-01, 4.191551e-02, 5.275995e-01, 4.004350e-01,
    4.252643e-01, 1.937522e-01, -4.917668e-01, -9.191561e-01, 2.248175e-01, 3.762056e-01, -5.396503e-01, 4.298107e-01,
    4.218773e-01, -1.993126e-01, 1.294818e-01, -4.276718e-02, 6.148840e-01, 1.263313e+00, -9.125367e-01, 8.178073e-01,
    -5.086402e-01, 7.659313e-01, 8.072444e-02, 6.589220e-01, 1.314076e-02, 5.600252e-01, -1.001378e+00, -1.300391e-01},
   {-3.137173e-01, 3.625987e-01, -1.440342e+00, -2.544579e-01, 6.945819e-01, -1.480702e-01, 2.355333e-01, -4.964101e-02,
    -3.210434e-01, -2.590729e-01, -5.710005e-01, 5.245287e-01, -1.201987e+00, 5.686671e-01, -9.235451e-01, 8.301294e-01,
    -2.144419e-01, -8.926074e-01, -1.632396e-02, 9.165379e-02, 4.883359e-01, 2.431764e-01, -9.269023e-02, -5.976096e-01,
    6.336426e-01, 1.013283e+00, -5.928530e-01, 5.944658e-01, 7.168037e-01, -7.238613e-01, 1.400728e-01, 4.893385e-02},
   {2.166159e-01, 4.733407e-01, -1.316507e+00, 1.199742e+00, -1.353143e-01, 2.395648e-02, 1.466797e-01, 3.115919e-01,
    1.003987e+00, 6.233904e-01, -1.743512e-01, -6.631045e-01, 2.007570e-01, 6.176875e-01, -3.122917e-01, 1.011960e+00,
    -4.589840e-01, -6.016259e-01, 5.338461e-01, 9.007231e-01, -4.273876e-01, -3.680215e-01, 4.936653e-01, -2.061273e-01,
    5.907419e-01, 4.910747e-01, -2.923586e-01, 1.267141e+00, 2.192668e+00, -9.431173e-01, -6.873190e-01, 8.219420e-01},
   {-2.637481e-01, -1.359010e-01, -3.353293e-01, 3.303290e-03, -6.084678e-01, 5.886797e-01, 6.079257e-02, -2.821113e-01,
    5.965296e-01, 3.370830e-01, -1.245505e+00, -5.500621e-01, -7.529482e-01, -1.068750e-01, 8.755268e-02, 8.064551e-03,
    -2.355950e-01, -9.524903e-01, -8.532030e-01, 8.371748e-01, 4.186962e-01, 3.563252e-01, -2.932457e-01, -3.376209e-01,
    5.697002e-01, -7.039288e-02, -2.399508e-02, 3.066171e-01, 7.258108e-01, 3.626642e-01, -7.489167e-01, 3.091758e-01},
   {1.632637e-01, 2.033420e-01, -3.699799e-01, -8.559567e-01, -4.471146e-01, -7.983954e-01, 6.020026e-01, -2.265480e-01,
    -7.631701e-01, 5.418754e-01, -7.910702e-03, 8.455642e-01, -2.079494e-01, -4.649675e-01, -7.152668e-01, -7.208846e-01,
    -3.891325e-01, -2.575716e-01, 4.848299e-02, -3.228399e-01, 8.074260e-03, -1.982271e-01, -3.316894e-01, -8.412126e-01,
    3.605511e-01, 1.723691e+00, -1.122265e+00, 2.073527e-01, -1.689489e-01, -2.147357e-01, -1.344252e-01, -1.307090e+00},
   {4.885972e-02, 2.366104e-01, 2.590191e-01, 5.624910e-02, -3.496588e-01, 1.495043e-01, 1.110213e-01, 3.694793e-01,
    6.805519e-01, 1.917922e+00, 3.460642e-01, 3.229454e-03, 9.850941e-01, 9.256282e-01, -8.984568e-01, 7.021880e-01,
    -9.477862e-03, 2.727169e-01, -7.285110e-01, 1.413097e+00, -2.307562e-01, -7.763559e-02, 4.551728e-01, 3.304503e-01,
    -3.286298e-01, -6.267734e-01, 7.863452e-01, -2.572699e-01, -1.630971e-01, 9.893421e-01, 3.739215e-01, 3.571856e-01},
   {-8.475673e-01, 4.903130e-02, -5.572962e-01, 8.061678e-01, 9.691250e-01, 4.536814e-01, 9.842212e-01, -7.468432e-01,
    6.729631e-01, -6.104666e-02, 1.292998e-02, -3.067570e-01, -1.568955e-01, -2.533242e-01, -1.331187e+00, 1.097459e-01,
    -5.550888e-01, 5.786879e-02, 1.011532e+00, 3.010137e-01, 1.447578e+00, -1.573650e+00, -8.536097e-01, -8.885355e-02,
    1.391260e+00, -1.240721e+00, 5.697338e-01, 1.672190e+00, -8.832809e-02, 4.838002e-01, -8.486962e-01, 1.112596e-01},
   {6.611142e-02, -4.507393e-01, 8.101316e-01, -6.537873e-01, 1.651170e+00, 3.387441e-01, 2.022575e-01, -7.084783e-01,
    3.310753e-01, 1.652810e+00, 1.108962e+00, -3.241451e-01, -2.329594e-01, 4.810896e-01, -7.943457e-01, 4.091635e-01,
    4.177949e-01, 6.158695e-01, -1.078918e-01, 6.654152e-01, 9.037876e-02, -1.695008e+00, -2.777464e-01, 1.768437e-02,
    -1.172194e+00, -1.488779e+00, 4.343102e-01, 3.320507e-01, 9.950653e-02, 9.820637e-01, 6.389112e-01, -5.232314e-01},
   {-6.414682e-02, -1.643046e-01, -1.187637e+00, 1.152258e-02, -4.133131e-01, 5.758535e-01, -4.534075e-01, -3.783825e-01,
    -7.076139e-02, -5.706880e-01, -5.757494e-01, 6.413953e-01, -3.417614e-02, 6.083105e-01, -1.963483e-01, 9.026681e-01,
    4.368784e-01, -4.406646e-01, -8.191571e-02, 7.174785e-01, 1.569509e+00, 1.157153e+00, -4.249302e-01, 5.365295e-01,
    -1.116638e+00, 6.476613e-01, 1.476640e-01, 5.246184e-01, -2.913384e-02, 2.965221e-01, -4.826897e-01, 2.085680e-01},
   {-7.856850e-01, -6.959280e-01, 5.669090e-01, -5.872054e-01, 6.152025e-01, 4.768129e-01, 7.742495e-01, -1.290691e+00,
    8.676463e-01, 6.952856e-01, 2.188098e-01, 7.013807e-01, -1.261473e+00, -8.724899e-01, 3.831169e-01, -2.093638e-01,
    3.392883e-01, 2.266017e-01, 5.833945e-01, -5.864164e-01, 5.449143e-02, -8.436900e-02, -8.923938e-01, 1.174323e+00,
    -1.200911e+00, -1.163884e+00, -2.082113e-01, 6.747653e-01, -2.956262e-01, -9.385563e-01, 1.383725e+00, -1.600171e-01},
   {7.585670e-02, -2.929776e-01, -1.240232e-01, 1.091023e+00, -6.706284e-01, 9.645261e-01, -6.863122e-01, 4.971590e-01,
    1.812628e-01, -2.614249e-01, 5.104421e-01, 1.062369e-01, 7.314896e-01, 8.220489e-01, -2.202346e-01, 7.272384e-01,
    1.318767e+00, 1.786194e+00, -6.426166e-01, 3.826176e-01, 2.778884e-01, -2.133750e-01, 1.268477e-01, -5.099915e-01,
    7.370808e-01, -1.052109e+00, 1.342161e+00, -1.055577e+00, 1.225481e+00, 1.255548e+00, -1.336294e+00, 5.459726e-01},
};

const float RNN1_U[32][32] = {
   {5.000302e-01, 2.610550e+00, 1.871831e+00, 1.952010e+00, 9.623318e-01, -2.298845e+00, -6.553397e-01, 3.287489e+00,
    -2.839553e-01, -2.278901e+00, -2.971515e-02, -1.669204e+00, 1.624228e+00, 2.610465e+00, -9.749485e-01, -7.861310e-01,
    1.433862e-02, -1.566587e-01, 3.277508e+00, 1.349200e+00, 2.417893e-01, -3.237977e-01, -7.203274e-01, -5.072471e-01,
    -2.310688e+00, -5.861782e-01, -3.948152e+00, 4.505009e-01, 1.042678e+00, -3.031276e-01, -2.525003e+00, 2.619897e+00},
   {9.514545e-02, -2.950372e+00, -4.793390e-01, -1.275911e-02, -1.790441e+00, -2.086609e-01, -1.272196e+00, 2.502120e+00,
    5.103325e-01, -5.694730e-01, -1.326793e+00, 2.015099e+00, 2.787112e+00, 1.977865e+00, -2.730507e-01, 8.655813e-01,
    1.882383e+00, -4.271737e-01, 8.533474e-01, -2.542177e+00, -6.432337e-01, -5.062638e-01, -2.328103e+00, -1.308078e+00,
    9.179993e-01, -2.906834e+00, 6.600602e-01, -2.714601e-01, -1.844983e+00, 3.540154e+00, -7.141168e-02, 3.853938e-01},
   {-1.228605e+00, 2.462898e+00, 7.070194e-01, -6.097236e-01, 3.220037e+00, -4.461723e-01, -5.152026e-01, 7.210650e-02,
    1.217793e+00, -4.186568e-01, 2.271662e+00, -7.951585e-01, -7.138729e-01, 1.780866e+00, -1.426799e+00, -1.762560e+00,
    1.079635e-01, 1.802697e+00, 2.540319e+00, 1.494275e+00, -2.205286e+00, 7.321431e-01, 1.499883e+00, -1.068853e+00,
    -2.702500e+00, -1.320121e-01, -2.295872e+00, -6.049073e-01, 1.133103e-01, -8.448243e-01, -3.400933e+00, 2.694361e+00},
   {6.543726e-01, -4.712910e-01, -3.928198e-01, -8.959863e-01, -2.018968e-01, -2.687047e+00, -1.540647e-01, 1.013301e+00,
    -1.153740e+00, 8.888962e-01, -1.080048e+00, 1.937320e+00, 2.896268e+00, 1.379043e+00, -6.118914e-01, -5.260692e-01,
    -9.277695e-02, 3.569309e-01, -7.939815e-01, -8.939582e-02, 6.604108e-01, -1.035296e+00, 1.153969e+00, 2.784791e+00,
    -6.476517e-01, -1.761731e+00, 7.101325e-01, -1.813677e-01, 1.964368e+00, 1.447285e+00, -6.442648e-01, 2.471098e-01},
   {2.357208e-01, 2.584750e+00, -1.664874e+00, -2.883577e+00, -9.784758e-01, 3.676482e+00, -2.758354e-01, -1.194674e+00,
    2.434655e-01, 2.400873e+00, -2.051942e+00, 3.127932e-01, -4.152327e-01, 2.038270e+00, -7.419894e-01, -2.440056e-02,
    1.614182e+00, -5.932785e-02, 1.863678e+00, 2.830158e-02, -4.219754e+00, 1.263498e+00, -2.852807e-01, 8.208057e-01,
    1.599684e+00, 1.671883e+00, 1.842090e+00, 3.146267e+00, 5.765685e-01, -3.926702e-01, 2.116592e-01, 5.790429e-01},
   {8.286501e-01, 1.038886e+00, -6.551993e-02, -1.058566e-01, 1.764566e+00, -5.554810e+00, 5.802867e-01, 9.528586e-01,
    -5.018333e-01, 1.581168e+00, -1.240063e-01, 1.360361e+00, -6.820757e-01, -1.459404e-02, -1.869670e-02, -1.002020e+00,
    -3.388310e+00, -1.435276e+00, -3.981213e-01, 1.857782e-01, -1.707442e+00, -9.639862e-01, -2.412009e+00, -2.732350e+00,
    -3.680244e-01, 2.404382e+00, -2.664881e+00, -8.916350e-04, -1.208202e+00, -5.722530e+00, 8.400966e-01, 1.119324e+00},
   {-1.702288e+00, -6.030863e-01, -1.436145e+00, -2.898117e+00, -3.744942e-01, 2.184710e+00, -1.724133e+00, -1.586767e+00,
    1.811561e+00, 2.190941e+00, 9.189228e-01, -4.066736e-01, -2.605671e+00, -8.262790e-01, 8.045338e-01, 9.221817e-01,
    5.626826e-01, -1.360833e+00, 6.595024e-01, 1.279625e+00, -3.668840e+00, 4.084470e-01, 1.344942e+00, -5.981201e-01,
    9.999197e-01, 8.717754e-01, 2.973101e+00, 2.415680e+00, -1.907801e+00, -6.474774e-01, 6.475027e-01, -8.823309e-01},
   {9.320009e-01, -1.441298e+00, -3.989035e-01, 1.179090e+00, 2.066274e+00, -1.220355e+00, 2.214098e+00, -1.591427e+00,
    -1.914640e+00, 5.926346e-01, -3.623775e-01, -3.363445e-01, -3.187083e-02, 8.384072e-01, -2.967733e+00, 2.082814e+00,
    -1.367141e+00, 1.398804e+00, -5.380615e-01, -1.351992e+00, 1.679452e+00, -1.707000e+00, 1.307948e+00, 2.447532e+00,
    2.695135e+00, -1.710695e+00, -4.296556e-01, 2.101199e+00, 1.682522e+00, 7.394212e-01, 1.388513e+00, 1.973130e+00},
   {-2.377422e-01, 1.933856e+00, 7.034086e-01, 1.199908e+00, -1.640956e+00, -1.156104e+00, -1.391782e+00, -4.628691e-01,
    1.670644e+00, -2.620463e-01, -9.294898e-01, -2.416766e-01, 2.484757e+00, 5.422320e-01, 1.810374e+00, -9.638699e-01,
    1.390793e+00, 1.080264e-01, 5.716571e-01, -3.895642e-01, 2.659804e-01, 5.567551e-01, -1.412565e+00, -1.639618e+00,
    -2.271584e+00, -1.263603e-01, 3.029625e-01, -1.777084e+00, 9.946826e-01, -6.371796e-01, -1.260840e+00, 9.899248e-01},
   {-1.441410e+00, 7.087629e-01, 1.642305e+00, -8.766987e-01, 4.448563e-01, 1.661551e+00, -9.325787e-02, -2.377000e+00,
    -2.257276e-01, 4.979305e+00, 1.030113e+00, -6.280586e-01, -4.838330e-02, -1.622923e+00, 1.200737e+00, -5.075153e-01,
    -5.367442e-01, 1.359333e+00, 7.487082e-01, -5.017868e-01, -1.926781e+00, -7.976390e-01, -3.188383e-01, 8.403495e-01,
    1.243246e+00, 6.010901e-01, 8.082355e-01, 2.244763e+00, -1.992146e+00, -1.416479e+00, -1.150315e+00, -1.111325e+00},
   {-4.519248e-01, 2.193339e+00, -7.839199e-01, -1.200526e+00, 4.682454e+00, 2.092896e+00, 2.093582e+00, 1.584335e+00,
    8.640828e-01, 1.978591e+00, -5.959138e-01, -2.939970e+00, -7.957008e-01, 1.897758e+00, -1.473270e+00, 9.133157e-01,
    4.659048e-02, 1.598276e+00, 9.017237e-01, 1.410479e+00, -1.286256e+00, 1.378317e+00, 5.530589e-01, -5.547022e-01,
    2.523436e-01, 1.063062e+00, -1.255801e-03, 1.307814e+00, 6.380795e-01, 8.455052e-01, -2.426655e-01, 1.301083e+00},
   {-1.742518e+00, -2.213556e+00, -4.811996e-01, -2.622698e+00, -2.767803e-01, 1.318005e+00, -4.500478e-01, -2.590450e+00,
    1.134671e+00, -1.335316e+00, -4.764499e-01, -8.995375e-01, -2.294735e+00, -1.794203e+00, 9.309403e-02, -4.287030e-01,
    -9.547108e-01, -1.504758e+00, 6.836099e-01, 2.240498e+00, -1.237624e+00, 3.862679e-01, 1.601437e+00, -7.677692e-01,
    -1.302382e+00, 1.660653e+00, -1.237058e-01, 4.976685e-02, -3.114727e+00, -1.116596e+00, 2.680085e-01, -2.224708e+00},
   {-2.108611e+00, 9.987549e-02, 9.846869e-01, 4.592358e-02, 1.239491e+00, 3.695368e-02, 2.360438e+00, -3.227757e+00,
    -4.125804e+00, 1.056070e+00, 1.148492e-01, -5.546613e-01, -9.902464e-01, 2.077830e+00, 6.138096e-01, 1.932991e+00,
    -1.530941e+00, 2.407158e+00, 1.285567e+00, 1.922139e-01, -1.021916e+00, 8.984853e-02, -1.677773e+00, 2.826865e+00,
    -1.448756e+00, -5.162140e-01, -5.239923e+00, -1.851925e+00, -3.968863e-01, 3.459328e-01, -3.081374e-01, -3.639930e-01},
   {-8.644175e-02, 4.625433e-01, 4.089278e-01, -1.387382e+00, 6.890637e-01, 4.443813e-01, 8.575542e-02, 8.962057e-01,
    -6.918784e-01, 4.900138e-01, 1.161445e+00, 4.394239e-01, -2.132654e+00, -1.065945e+00, -4.372967e-01, 9.716949e-01,
    -1.003798e+00, -6.769881e-01, 7.912464e-01, -6.110647e-01, -9.353185e-01, -1.092529e+00, 4.922025e-01, -9.322228e-01,
    -2.712944e-02, -6.248301e-02, 1.232935e+00, 3.319854e-01, 2.153481e+00, -8.373606e-01, 9.521372e-01, 1.014336e+00},
   {-8.104237e-01, 1.269917e-01, 1.287271e+00, -5.922328e-01, 1.909215e+00, 2.844805e-01, -1.092653e-01, -1.183254e+00,
    -2.503821e+00, 1.080634e+00, 1.258926e+00, -8.027735e-01, -1.946031e-01, -6.173455e-01, -1.191928e+00, 5.797859e-01,
    8.058124e-01, 1.562095e+00, 1.322172e+00, -1.580588e+00, -8.814752e-01, -1.922524e+00, -6.195599e-02, 5.086246e-01,
    6.276798e-01, -5.226295e-01, -5.592061e-01, 9.124017e-01, -2.241226e-01, -6.119204e-01, -6.604457e-01, 9.873861e-01},
   {-1.222045e+00, -1.590043e+00, -2.532725e+00, -1.774140e+00, -5.298922e-01, 2.613408e+00, 1.517782e+00, -2.060894e+00,
    -1.534520e+00, 5.867832e-01, -1.186653e+00, -5.159962e-01, -2.157497e+00, -2.061667e+00, -6.405299e-01, 2.863352e-01,
    7.796387e-01, -1.559483e+00, 9.000248e-01, 1.321015e-01, -2.519965e+00, -1.334628e+00, 4.564392e-01, 3.248202e-01,
    1.559406e+00, 1.390058e+00, 1.046033e+00, 8.871496e-01, -1.452018e+00, -1.598706e-01, 1.769327e+00, -1.467546e+00},
   {-4.172556e-01, -8.208538e-01, -4.636026e-01, -5.201735e-01, -6.890677e-01, 1.900460e+00, 1.921555e+00, -5.912910e-01,
    -3.195398e+00, 7.190508e-01, -1.059273e+00, 1.173753e+00, 1.659639e-01, -3.560951e-01, -3.171278e+00, 8.850869e-02,
    -4.616884e-01, -1.153738e+00, 2.419944e+00, 2.984923e-01, 2.837716e-02, -3.137833e+00, 1.607868e+00, 1.182349e+00,
    -8.218284e-01, -3.214580e-01, -2.004411e+00, -2.516674e-01, 7.754257e-01, 2.459632e+00, 2.656126e-01, -2.357393e+00},
   {-3.088849e-01, 1.108735e+00, -2.041397e-02, 1.654397e-01, 1.360924e+00, 1.521545e+00, 5.387399e-01, 4.348267e-01,
    -8.812730e-01, 3.327520e+00, -5.309995e-01, -4.379064e-01, 4.714390e-02, 1.268450e+00, -2.866149e+00, 4.792804e-01,
    3.789276e+00, -2.160002e+00, 4.064747e+00, 1.518100e-01, -1.869919e+00, -1.741304e+00, 3.018936e+00, 1.593441e+00,
    1.855543e+00, 5.802619e-01, -8.232900e-04, 1.549831e+00, 2.768855e+00, 1.746866e+00, -1.285578e+00, -9.317717e-01},
   {3.232913e+00, 1.341887e+00, -2.714076e+00, -2.890191e-01, -3.510025e-01, -2.000558e-02, -2.944240e+00, 1.899375e+00,
    2.398616e+00, -1.142384e+00, -3.848660e+00, -1.521603e+00, 8.278417e-01, 3.342003e+00, 9.257796e-01, -1.898212e+00,
    2.944441e+00, -9.844584e-01, -3.762769e+00, -2.109036e-01, -9.874820e-01, 3.893123e+00, 1.082413e-01, -1.198110e+00,
    -4.300266e-01, 5.453318e-01, -7.263839e-02, -1.755874e+00, 1.433015e+00, 2.781073e+00, -2.401416e+00, 6.698139e-01},
   {6.828366e-01, 2.313633e+00, 3.551606e+00, -1.726190e+00, 1.725692e+00, 8.174675e-01, 2.023253e+00, 4.368523e-01,
    1.401511e+00, 9.696871e-01, 5.986802e-01, 5.323831e-01, -2.888351e-01, 1.983718e+00, 1.584204e+00, 9.589772e-01,
    5.108610e-01, 3.990009e-01, 1.272952e+00, -1.562479e+00, -2.559112e-01, 1.429181e+00, -2.032528e+00, -1.951307e+00,
    -1.713563e+00, 8.538902e-01, -1.103982e-01, -1.356812e+00, 1.797258e+00, 1.078735e+00, 3.678081e-01, 3.477884e+00},
   {4.019262e+00, 8.514659e-01, 1.612975e+00, 1.565304e+00, 1.634546e+00, -7.815305e-01, -2.881576e-01, 3.062595e-01,
    -2.160882e+00, -1.484330e-01, 1.109236e+00, -1.498681e+00, 1.192219e+00, 2.279722e+00, 8.895581e-01, -3.001038e+00,
    -2.279399e+00, 3.384375e+00, -2.127912e+00, -1.977648e-01, -1.733765e+00, 1.917388e-01, 9.759300e-01, 4.806800e-01,
    -1.522538e+00, -5.677710e-01, -7.303319e-01, -2.492642e+00, 1.344602e+00, -6.134665e-01, 1.961779e+00, -5.520109e-01},
   {1.322355e+00, 1.783301e+00, -1.983508e-01, -2.635710e-01, -2.181234e-01, 1.180926e-01, 1.900543e+00, 1.837626e+00,
    5.279124e-01, -7.324987e-01, 3.342533e-01, 1.905190e+00, -6.040407e-01, 1.755471e+00, -7.536303e-01, 2.362474e+00,
    1.559846e+00, -2.175465e+00, 2.169529e+00, 4.307836e-01, -7.253163e-01, -6.818103e-01, -6.122119e-01, -2.438066e+00,
    -2.503029e+00, 1.311006e+00, -3.287059e-01, -1.948255e+00, 3.163815e+00, 1.469614e+00, 3.095831e-01, 2.595591e+00},
   {-1.935861e+00, -2.329507e+00, -4.984934e-02, 5.801144e-01, 4.301125e-01, 5.822185e-01, 2.876975e+00, -2.308049e+00,
    -9.624801e-01, -3.711585e-01, -1.774649e+00, 3.261972e-01, -1.163449e+00, -7.690668e-01, -1.718451e+00, 1.456689e+00,
    -4.505628e-01, -1.178155e+00, -1.280852e+00, 4.593663e-01, 1.564662e+00, 6.530172e-01, -3.912605e+00, 9.832342e-02,
    4.690007e-01, 1.731459e+00, 1.603895e+00, 9.517931e-01, 1.731419e+00, 2.446669e+00, 1.965012e+00, 6.637263e-02},
   {1.342273e+00, -1.890995e-01, -7.032700e-01, 3.195410e-01, 1.428936e+00, -1.337337e+00, -2.946521e-01, 1.048946e+00,
    -8.374497e-01, 1.893362e-01, 1.101337e-01, -2.256556e+00, -2.435743e-01, 1.148255e+00, -2.176727e-01, -1.621399e+00,
    8.086044e-02, -4.716921e-01, -1.217548e+00, 1.064647e+00, -1.315866e+00, 1.240716e+00, 1.448041e+00, 2.025547e-01,
    2.902915e+00, 1.173434e+00, -2.686094e+00, 1.177543e+00, -6.150661e-01, -1.646832e+00, -1.816561e+00, 1.261003e+00},
   {-1.670695e+00, -1.729134e+00, -9.182482e-02, -4.362203e-01, -2.342559e-01, 6.885570e-01, -1.191304e+00, -8.996906e-01,
    -5.676888e-01, -2.292569e-01, -4.631070e-01, -1.336432e+00, 2.613654e-01, -1.749720e+00, -1.368910e+00, 5.923075e-01,
    5.874916e-01, 1.451809e+00, -4.943160e-01, 4.399374e-01, -8.673722e-01, -5.821638e-02, 1.398947e+00, 3.132461e+00,
    8.316716e-01, 2.918771e-02, -1.783117e+00, 2.583908e+00, -2.072184e+00, -8.027337e-01, -1.895901e+00, -2.716217e+00},
   {1.329550e+00, -3.241850e-02, -1.099122e+00, 5.159221e-01, -2.102649e+00, -4.499737e-01, 1.062242e+00, 1.990431e+00,
    2.680467e-01, -3.184995e+00, -9.891465e-01, -4.689068e-01, 5.192529e-02, 1.931043e+00, -8.416459e-01, 1.454955e+00,
    5.181223e-01, 6.628012e-02, -3.440603e-01, 1.477835e-01, -2.970919e-01, 1.320118e+00, -1.178816e+00, -2.775573e-01,
    8.988634e-02, -1.766794e+00, -8.497400e-01, -1.096257e+00, 1.371995e+00, 2.234227e+00, -9.790970e-02, 1.923214e+00},
   {-6.146365e-02, -2.537552e-01, 1.027823e+00, -3.163167e+00, 1.158992e-01, 3.302031e+00, -3.746985e-03, -6.407084e-01,
    -1.148666e+00, 1.507206e+00, 2.889569e-01, 1.425340e+00, 1.107760e+00, -1.010543e+00, -9.852406e-01, -7.976233e-01,
    2.463469e+00, 3.733317e-01, 1.125241e+00, -4.972347e-01, 1.347343e+00, -9.768218e-01, 1.590253e+00, 1.085584e+00,
    8.534725e-01, 1.963874e-01, -6.708837e-01, 9.778354e-01, -1.136861e+00, 8.266580e-01, 2.549079e+00, -3.397804e+00},
   {2.165701e+00, 1.390152e+00, 2.715496e-01, 8.094992e-02, -2.399417e-01, 7.681967e-02, -1.505278e+00, 7.842844e-01,
    3.159847e-01, 4.246287e-01, -1.935004e+00, -1.663177e+00, 9.405607e-03, 2.074713e+00, -5.389314e-01, -2.899593e+00,
    2.848112e+00, 1.920440e+00, -4.329022e-01, -1.197984e-02, -1.596296e+00, 1.256625e+00, -5.816787e-01, 2.156168e+00,
    7.905368e-01, 1.526511e+00, -8.599063e-01, 3.482947e-02, 1.796565e+00, 1.212259e+00, -1.098473e+00, 1.195042e+00},
   {1.641814e+00, 2.303650e+00, -1.030575e+00, 5.389479e-01, -2.479862e+00, -4.446577e-02, -1.054441e+00, -1.390407e-01,
    4.152182e-01, 6.475928e-01, -3.573960e+00, 8.761273e-01, 4.204983e-01, 1.966727e-01, -2.720300e-01, -1.990917e+00,
    1.214030e+00, -3.719891e+00, 1.121693e+00, -2.233733e+00, 9.560620e-01, -1.846619e+00, -7.346866e-01, -4.979216e-01,
    1.351375e+00, -1.691603e+00, 7.482864e-01, -4.775215e-01, -4.360212e-01, 5.954569e-01, -1.310863e-01, -9.495241e-01},
   {7.844180e-01, 3.997761e-01, 1.046375e-01, 7.195753e-02, 1.025078e+00, 7.577556e-01, 7.718467e-01, -6.460896e-01,
    -1.491105e+00, 2.169315e+00, 7.218422e-01, 1.835957e-01, -7.326447e-02, -1.051319e+00, -1.414663e+00, -1.317945e+00,
    2.715438e+00, 1.302953e+00, 1.923985e+00, 1.095772e-02, -6.625880e-01, -1.416669e+00, 5.907953e-01, 1.569687e+00,
    1.064462e-01, 4.439457e-02, 2.829322e+00, -1.276954e-01, 8.566526e-01, 1.206145e-02, 2.343571e+00, -2.427299e+00},
   {-1.601266e+00, -1.935852e+00, -8.113233e-01, -1.577071e+00, -2.817897e-02, 1.919241e-01, -6.429691e-01, -3.708076e-01,
    1.838723e+00, -6.799423e-01, 1.261187e+00, 1.753528e+00, -2.414816e+00, 4.311978e-02, -1.813255e-02, 1.281220e+00,
    2.340026e-02, -1.070852e+00, -6.976728e-01, 2.516436e+00, -7.423607e-01, 1.792016e+00, 2.782847e+00, 1.027142e+00,
    5.731962e-02, 6.971879e-01, 1.619355e+00, 1.467986e+00, -1.509624e+00, 4.384810e-01, 1.885818e+00, -3.227990e-01},
   {5.901164e-01, 1.085676e+00, -6.565522e-01, -6.772263e-03, 1.163516e-01, -1.092555e+00, 1.907031e+00, 9.971236e-02,
    -1.247785e+00, 1.491345e+00, -6.172525e-01, 3.502919e+00, 6.580170e-02, -1.126275e+00, 1.246711e+00, 4.300696e-01,
    -2.211033e+00, -1.480959e+00, 4.419712e-03, -2.780586e+00, 1.273061e+00, -1.779418e+00, -2.549871e+00, -2.702061e+00,
    -7.803252e-01, -1.693081e+00, 5.611910e-01, -1.635814e+00, 1.610628e+00, -1.757875e+00, 1.233332e+00, 1.198603e+00},
};

// clang-format on


#endif // __RNN1_PARAMS__

