// This file is computer-generated by onnx2c 
// (TODO: add creating command line here)
// (TODO: print creation date here )

// ONNX model:
// produced by pytorch, version 2.4.0
// ONNX IR version: 17
// Model documentation: 
/*

*/

#include <float.h>
#include <math.h>
#include <stdbool.h>
#include <stdint.h>
#include <string.h>
#define MAX(X,Y) ( X > Y ? X : Y)
#define MIN(X,Y) ( X < Y ? X : Y)
#define CLIP(X,L) ( MAX(MIN(X,L), -L) )

static const float tensor_fc_bias[6] = 
{1.6118896007537841797f, -0.66831690073013305664f, -0.93731951713562011719f, -0.46787303686141967773f, -1.2587943077087402344f, -0.96079999208450317383f};
static const float tensor_onnx__LSTM_175[1][256][32] = 
{
  {
    {0.94457846879959106445f, 1.1034901142120361328f, -0.79046982526779174805f, -0.27154174447059631348f, -0.10352959483861923218f, -0.79138004779815673828f, 0.40007412433624267578f, 0.34115540981292724609f, -0.73567062616348266602f, -1.3971428871154785156f, -0.55468457937240600586f, 1.2639803886413574219f, 1.5548727512359619141f, 0.52133840322494506836f, 0.29427629709243774414f, 0.63196933269500732422f, 1.5391035079956054688f, 1.2822852134704589844f, -0.90656054019927978516f, -2.3507463932037353516f, -1.5952758789062500000f, -1.2509686946868896484f, -2.1903705596923828125f, -2.0787742137908935547f, -1.6743698120117187500f, -1.2367532253265380859f, -0.64774191379547119141f, -0.65636485815048217773f, -0.78620010614395141602f, -0.64574581384658813477f, -0.59044790267944335938f, 0.50686162710189819336f},
    {0.42940643429756164551f, -0.19053217768669128418f, 0.32636156678199768066f, 0.24994440376758575439f, 0.56978982686996459961f, 0.57146996259689331055f, 1.5871186256408691406f, 1.5214945077896118164f, 0.52693551778793334961f, 1.0617123842239379883f, 1.5830779075622558594f, 0.90562468767166137695f, 1.2715785503387451172f, -0.14029623568058013916f, 0.14078131318092346191f, 0.40034291148185729980f, -1.2403224706649780273f, -0.56551426649093627930f, 0.062311485409736633301f, -0.047621630132198333740f, 0.027815580368041992188f, -0.060913730412721633911f, 0.39285281300544738770f, 0.83907181024551391602f, 0.18500709533691406250f, 0.63247203826904296875f, 1.9254039525985717773f, 1.6234923601150512695f, 0.84987550973892211914f, 0.019453220069408416748f, -0.38083982467651367188f, -0.58033925294876098633f},
    {-0.14011539518833160400f, 0.38723799586296081543f, -1.0680148601531982422f, -0.84854882955551147461f, 0.51244950294494628906f, 0.81017720699310302734f, 1.1852711439132690430f, 0.97372722625732421875f, 0.22553423047065734863f, -0.75881981849670410156f, -1.4469679594039916992f, -2.3347966670989990234f, -1.2643184661865234375f, 0.20938587188720703125f, 1.0502331256866455078f, 1.3610980510711669922f, 1.2619739770889282227f, 0.93412631750106811523f, 0.40340834856033325195f, 0.37617173790931701660f, 0.11753988265991210938f, 0.70898371934890747070f, 2.4179348945617675781f, 1.4095373153686523438f, 0.059579662978649139404f, -0.55244898796081542969f, -0.13399392366409301758f, -0.29032281041145324707f, 0.039471067488193511963f, -0.41564604640007019043f, 0.10887762159109115601f, -0.16773450374603271484f},
    {-0.47589650750160217285f, 1.4608632326126098633f, 0.44889315962791442871f, 0.34599044919013977051f, 0.65113025903701782227f, 1.0090571641921997070f, 0.10558554530143737793f, 0.20721103250980377197f, -0.062552928924560546875f, 0.54320484399795532227f, 0.18693716824054718018f, -0.021759659051895141602f, -0.26660782098770141602f, -0.67696082592010498047f, -1.0612963438034057617f, -0.56970828771591186523f, 0.38377442955970764160f, 0.18829511106014251709f, -0.88438761234283447266f, -0.75436276197433471680f, -1.4042603969573974609f, -0.53317981958389282227f, 0.15952156484127044678f, 1.1316442489624023438f, 1.0127946138381958008f, 0.33339196443557739258f, 0.33569058775901794434f, -0.12757423520088195801f, -0.66794586181640625000f, -0.36487776041030883789f, -0.42093303799629211426f, -0.51701617240905761719f},
    {-0.14751397073268890381f, -0.22922267019748687744f, -1.8871570825576782227f, -1.0635108947753906250f, -0.68633639812469482422f, -0.0069171683862805366516f, -0.36867165565490722656f, -0.70761239528656005859f, -0.085874244570732116699f, -0.77130985260009765625f, -0.70409399271011352539f, 0.84272462129592895508f, 1.5431700944900512695f, 0.71354836225509643555f, 0.36426100134849548340f, 0.25041088461875915527f, -0.74434924125671386719f, -1.4793570041656494141f, -2.1588528156280517578f, -1.1960861682891845703f, -1.2554695606231689453f, -1.0430337190628051758f, -1.1608154773712158203f, -1.3666411638259887695f, -0.63156527280807495117f, -0.38034826517105102539f, -1.1455442905426025391f, -0.011790705844759941101f, 0.37847122550010681152f, -0.63927257061004638672f, -0.14406855404376983643f, -0.076559841632843017578f},
    {0.29663577675819396973f, -0.15574866533279418945f, -0.58726888895034790039f, -0.59469079971313476562f, 0.33716958761215209961f, 1.1064329147338867188f, 1.0524559020996093750f, 1.1634117364883422852f, 0.81732988357543945312f, 1.3730953931808471680f, 0.75451922416687011719f, 0.33537819981575012207f, 0.61446690559387207031f, 0.54118537902832031250f, 0.021852480247616767883f, 0.045563895255327224731f, 0.57335174083709716797f, 0.24999578297138214111f, 0.62797385454177856445f, 0.34134837985038757324f, -0.62828081846237182617f, -0.43149963021278381348f, 0.47960081696510314941f, 0.45297709107398986816f, 0.15211203694343566895f, -0.21906696259975433350f, -0.076401144266128540039f, 0.22484201192855834961f, -0.0036405038554221391678f, -0.13728103041648864746f, 0.15235041081905364990f, 0.18220189213752746582f},
    {0.12988561391830444336f, -0.056021846830844879150f, -0.35601243376731872559f, -0.72430634498596191406f, -0.11395381391048431396f, 0.015624740161001682281f, -0.73994165658950805664f, -0.56592088937759399414f, -0.045171674340963363647f, -0.087186686694622039795f, -0.83175611495971679688f, -0.55338138341903686523f, 0.53506112098693847656f, 0.44885665178298950195f, -0.73794269561767578125f, -1.3309901952743530273f, -1.4175161123275756836f, -0.96322381496429443359f, -0.61174702644348144531f, -0.20984348654747009277f, -0.35777536034584045410f, 0.021873952820897102356f, -0.016775073483586311340f, 0.49507448077201843262f, 0.77705723047256469727f, 0.30053243041038513184f, -0.059941723942756652832f, -0.016293093562126159668f, 0.20877140760421752930f, -0.17260245978832244873f, -1.4593065977096557617f, -2.2542827129364013672f},
    {-0.65222734212875366211f, -2.2741570472717285156f, -1.1796447038650512695f, 0.24917845427989959717f, -0.0015781898982822895050f, 0.17576280236244201660f, 0.67903411388397216797f, -0.57551741600036621094f, -0.92676115036010742188f, -1.7496454715728759766f, -0.37580299377441406250f, -0.84094214439392089844f, -0.32187435030937194824f, -0.28084260225296020508f, 0.24004334211349487305f, -0.085012525320053100586f, 0.19099204242229461670f, 0.82119423151016235352f, 0.21508955955505371094f, -0.26897850632667541504f, -0.024740552529692649841f, 0.26943060755729675293f, -0.20018279552459716797f, 0.048413667827844619751f, -0.086299620568752288818f, -0.46011298894882202148f, -0.98137485980987548828f, -0.69336462020874023438f, -0.94247972965240478516f, -0.32873794436454772949f, -0.12412632256746292114f, 1.2730933427810668945f},
    {-1.2182443141937255859f, -0.072410739958286285400f, -0.0043695773929357528687f, -0.47106495499610900879f, -0.22202591598033905029f, -0.28039133548736572266f, 0.76569867134094238281f, 0.43787446618080139160f, -0.19592623412609100342f, -0.51707911491394042969f, -1.4923038482666015625f, -1.7626426219940185547f, -0.91536802053451538086f, 0.64763128757476806641f, 1.6081385612487792969f, 2.2993242740631103516f, 2.2411251068115234375f, 1.7935744524002075195f, 0.74986064434051513672f, -0.30956012010574340820f, -0.51698428392410278320f, -0.27979794144630432129f, 0.19121499359607696533f, -0.86370271444320678711f, 0.20143917202949523926f, 0.55399417877197265625f, 0.40372106432914733887f, -0.042702835053205490112f, 0.47127050161361694336f, -0.026053424924612045288f, 1.0911444425582885742f, 0.64550566673278808594f},
    {0.62671822309494018555f, 0.012354957871139049530f, -0.93839937448501586914f, -0.69975459575653076172f, 0.063834749162197113037f, 1.6080820560455322266f, 3.0726809501647949219f, 2.1276092529296875000f, 0.11318807303905487061f, -1.2444806098937988281f, -1.6412385702133178711f, -1.2351673841476440430f, -1.2042053937911987305f, -1.1417213678359985352f, -0.13782191276550292969f, 0.56111770868301391602f, 0.74224227666854858398f, 0.14240381121635437012f, 0.20245224237442016602f, 1.0151430368423461914f, 0.53275746107101440430f, -0.35582020878791809082f, 0.37581822276115417480f, 0.54906928539276123047f, 0.28248900175094604492f, 0.34346053004264831543f, -0.17837214469909667969f, -0.24670150876045227051f, 0.058585911989212036133f, -0.23167805373668670654f, -0.57870030403137207031f, -0.18056195974349975586f},
    {1.3707078695297241211f, 1.2370738983154296875f, 0.80589091777801513672f, 0.053668502718210220337f, 0.39108756184577941895f, 1.1033560037612915039f, -0.15692882239818572998f, 0.82513135671615600586f, 1.3075928688049316406f, 0.11332956701517105103f, 0.40168523788452148438f, 0.44177860021591186523f, 0.48899573087692260742f, 1.6662234067916870117f, 1.6403243541717529297f, 1.0961902141571044922f, 1.1652814149856567383f, 0.87903851270675659180f, 0.66499358415603637695f, 1.4307818412780761719f, 1.0131570100784301758f, 0.60872918367385864258f, 0.40731379389762878418f, 1.0117348432540893555f, 0.68543964624404907227f, 0.49711576104164123535f, 0.45081973075866699219f, 0.40550145506858825684f, 0.39703083038330078125f, 0.34887018799781799316f, 0.58755695819854736328f, 1.2598800659179687500f},
    {-0.19692687690258026123f, 0.017502333968877792358f, 0.84487241506576538086f, 0.58838617801666259766f, 0.21989402174949645996f, 0.14763425290584564209f, -1.0168278217315673828f, -1.0707297325134277344f, -1.5547112226486206055f, -1.1072058677673339844f, -0.82303410768508911133f, -0.32030367851257324219f, -0.020899249240756034851f, 0.68922156095504760742f, -0.74550980329513549805f, -0.90205907821655273438f, -0.50814336538314819336f, -1.6995534896850585938f, -1.6708343029022216797f, -1.4435738325119018555f, -1.1411565542221069336f, -0.90268081426620483398f, -0.76702159643173217773f, -1.5056959390640258789f, -2.3973121643066406250f, -2.0392994880676269531f, -1.4152585268020629883f, 0.060171563178300857544f, -0.14844344556331634521f, -0.13091351091861724854f, -0.69764333963394165039f, -1.3455011844635009766f},
    {-0.031779233366250991821f, 0.28422644734382629395f, 1.2665094137191772461f, 2.2205719947814941406f, 1.7546899318695068359f, 1.9745254516601562500f, -0.045578334480524063110f, -1.2638901472091674805f, -0.27633550763130187988f, -1.2461248636245727539f, -1.3646452426910400391f, -0.45664051175117492676f, -0.32023999094963073730f, 1.1031682491302490234f, 1.6448688507080078125f, 1.1914056539535522461f, 1.0473139286041259766f, 1.3786411285400390625f, 1.4042227268218994141f, 1.5626211166381835938f, 1.5905016660690307617f, 1.3315809965133666992f, 1.1154640913009643555f, 0.61679482460021972656f, 0.40324181318283081055f, 0.13104496896266937256f, -0.58472377061843872070f, -1.1005567312240600586f, -0.44345563650131225586f, -0.16321355104446411133f, -0.35081949830055236816f, -0.22734493017196655273f},
    {0.40327563881874084473f, 0.48145392537117004395f, -0.38892292976379394531f, -0.51194185018539428711f, 0.69519430398941040039f, 1.6827840805053710938f, 1.1252950429916381836f, -0.48961883783340454102f, -2.0358555316925048828f, -1.8833875656127929688f, -1.0248327255249023438f, 0.10560449957847595215f, 1.1002458333969116211f, 0.49345842003822326660f, 0.73178696632385253906f, 0.023662613704800605774f, -0.28349474072456359863f, -0.83161342144012451172f, -1.2806396484375000000f, -0.38775667548179626465f, 0.43117570877075195312f, 0.075297199189662933350f, -0.51273423433303833008f, 0.35325425863265991211f, 1.2829589843750000000f, 0.25536406040191650391f, -0.46261695027351379395f, 0.46180185675621032715f, 0.27596539258956909180f, 0.42469799518585205078f, 0.44225215911865234375f, 0.011414462700486183167f},
    {-0.74828302860260009766f, -0.22859089076519012451f, -0.16807529330253601074f, 0.68440085649490356445f, 1.7125390768051147461f, 2.3382997512817382812f, 1.3507364988327026367f, 0.48459485173225402832f, 0.28256812691688537598f, 0.27375185489654541016f, 1.2311708927154541016f, -0.40600934624671936035f, -1.6734299659729003906f, -0.80701309442520141602f, 0.13606414198875427246f, 0.77644997835159301758f, 0.56733804941177368164f, -0.81077939271926879883f, 0.14765182137489318848f, 1.3558342456817626953f, -0.36455234885215759277f, -0.78041398525238037109f, 0.23375061154365539551f, 0.52202737331390380859f, 0.52455788850784301758f, 1.4350181818008422852f, 0.36206179857254028320f, -0.081090547144412994385f, -0.033813267946243286133f, -0.073111779987812042236f, -0.088009446859359741211f, 0.15993146598339080811f},
    {-2.8583202362060546875f, -2.0975096225738525391f, -1.3471783399581909180f, -1.8733013868331909180f, -1.8873411417007446289f, -1.2451957464218139648f, -0.46957153081893920898f, -0.88043814897537231445f, -0.68918758630752563477f, -1.8211584091186523438f, -1.9820972681045532227f, -1.3683997392654418945f, -2.2479524612426757812f, -2.5277767181396484375f, -1.3465083837509155273f, -1.4582170248031616211f, -0.64112257957458496094f, 0.084906898438930511475f, 0.051611468195915222168f, -0.65195578336715698242f, -0.32697829604148864746f, 0.47285953164100646973f, 0.57368725538253784180f, 0.51632118225097656250f, 0.86748796701431274414f, 0.92145192623138427734f, 0.96549504995346069336f, 0.73184263706207275391f, 0.68327850103378295898f, 0.39604482054710388184f, 0.88480114936828613281f, 1.1890554428100585938f},
    {0.94592434167861938477f, 0.76669836044311523438f, 0.58505797386169433594f, 0.090331897139549255371f, -0.078110359609127044678f, 0.65993022918701171875f, -0.27401146292686462402f, 0.056067101657390594482f, 0.27409416437149047852f, -0.30673018097877502441f, 0.62587040662765502930f, 0.53897607326507568359f, -0.38519385457038879395f, -0.17169055342674255371f, -0.13785251975059509277f, 0.85679423809051513672f, 0.73025315999984741211f, -0.24639432132244110107f, -0.42512392997741699219f, -0.74109208583831787109f, -0.89074075222015380859f, -0.23446388542652130127f, 0.32377937436103820801f, 1.0200209617614746094f, 0.73853999376296997070f, 0.67839938402175903320f, 0.14717568457126617432f, 0.22102747857570648193f, 0.18629887700080871582f, 0.93197935819625854492f, 0.58025908470153808594f, 0.56908732652664184570f},
    {-1.0363235473632812500f, -0.40380561351776123047f, -1.3577718734741210938f, -1.2997347116470336914f, 0.23127840459346771240f, 0.53866338729858398438f, 0.70875936746597290039f, -0.038241151720285415649f, -0.059193566441535949707f, -0.63820040225982666016f, -0.72762340307235717773f, -0.30888149142265319824f, -0.81132078170776367188f, -0.69529545307159423828f, -0.81110119819641113281f, -0.61780661344528198242f, 0.26492291688919067383f, 0.80201369524002075195f, 0.60000324249267578125f, 0.077958784997463226318f, 0.15592205524444580078f, 0.13849484920501708984f, 0.69469660520553588867f, 0.63535356521606445312f, 0.13059391081333160400f, 0.84055519104003906250f, 1.0389922857284545898f, 1.1636263132095336914f, 2.4604985713958740234f, 2.5933325290679931641f, 1.6973378658294677734f, 3.4540152549743652344f},
    {0.29889360070228576660f, -1.0418272018432617188f, 0.071022808551788330078f, 0.24999713897705078125f, 0.28678667545318603516f, 1.4012482166290283203f, 0.85265213251113891602f, -0.50390648841857910156f, -0.96676367521286010742f, 0.31855261325836181641f, 2.1096541881561279297f, 1.3930521011352539062f, -1.1089468002319335938f, -1.3173323869705200195f, -0.30336400866508483887f, -0.16922110319137573242f, -0.78229671716690063477f, -0.51101744174957275391f, -0.093414641916751861572f, -0.37220716476440429688f, 0.25384739041328430176f, -0.021222362294793128967f, -0.59425359964370727539f, 0.061348110437393188477f, 0.14081496000289916992f, -0.38076937198638916016f, 0.014536510221660137177f, -0.32710689306259155273f, -0.15739029645919799805f, -0.17256221175193786621f, -0.39568069577217102051f, -0.30097624659538269043f},
    {0.39505454897880554199f, -0.082038946449756622314f, 0.10169998556375503540f, 0.00080621044617146253586f, 0.87182408571243286133f, 1.0439417362213134766f, 0.99795991182327270508f, 0.78754818439483642578f, -0.11385922133922576904f, 0.54097390174865722656f, 0.86006551980972290039f, 0.48704278469085693359f, 0.16433715820312500000f, 0.49877417087554931641f, 0.60567599534988403320f, 1.9514487981796264648f, 1.7208271026611328125f, 1.3804707527160644531f, 0.49840292334556579590f, 0.28586867451667785645f, 0.39765787124633789062f, 0.39923232793807983398f, 0.93038195371627807617f, 0.71447038650512695312f, -0.30634272098541259766f, -0.18252184987068176270f, 0.17510709166526794434f, -1.3161985874176025391f, -0.73444312810897827148f, -0.51740586757659912109f, 0.67169517278671264648f, 0.79392701387405395508f},
    {-0.74696344137191772461f, -1.8493775129318237305f, -3.7498359680175781250f, -1.6029572486877441406f, -0.57569062709808349609f, 0.87197977304458618164f, 0.18149882555007934570f, 1.0038486719131469727f, 0.50214403867721557617f, -0.22529637813568115234f, -1.4769262075424194336f, -1.1459828615188598633f, 0.84842455387115478516f, 0.78781402111053466797f, 0.19244250655174255371f, -0.38963934779167175293f, -0.51080721616744995117f, 0.29898709058761596680f, 0.24464520812034606934f, 0.055107042193412780762f, -0.73369669914245605469f, -1.0881980657577514648f, -0.89614707231521606445f, 0.72058618068695068359f, 0.50516039133071899414f, -0.61618971824645996094f, -1.7628110647201538086f, -0.99748760461807250977f, -0.65257000923156738281f, -1.3994861841201782227f, -1.1079559326171875000f, -0.10424102097749710083f},
    {1.3835186958312988281f, 2.4149348735809326172f, 2.7752780914306640625f, 2.2091886997222900391f, 1.0123183727264404297f, 0.34181252121925354004f, 0.49694359302520751953f, 0.66893380880355834961f, 0.56874358654022216797f, 0.84086710214614868164f, 1.0070898532867431641f, 1.1873221397399902344f, 1.4629495143890380859f, 1.4043055772781372070f, 1.0363147258758544922f, 0.21153052151203155518f, -0.52892392873764038086f, -0.066761054098606109619f, -0.14918142557144165039f, -0.12644685804843902588f, 0.36901637911796569824f, 0.024094130843877792358f, 0.36868882179260253906f, 0.28806248307228088379f, 0.79515683650970458984f, 1.4375283718109130859f, 0.71781909465789794922f, 1.2017115354537963867f, 1.1852971315383911133f, 0.66546356678009033203f, 0.50482630729675292969f, 0.0088635189458727836609f},
    {1.0062495470046997070f, 2.0840375423431396484f, 1.0688282251358032227f, 0.52360796928405761719f, 0.41747188568115234375f, -0.88119608163833618164f, -1.7216464281082153320f, -0.81332576274871826172f, -0.62780618667602539062f, 0.17218446731567382812f, 0.44857460260391235352f, -0.16451159119606018066f, -1.0161392688751220703f, -1.2777737379074096680f, -0.59645140171051025391f, 0.16625218093395233154f, 0.89714735746383666992f, 1.3409378528594970703f, 1.0666482448577880859f, 0.66694986820220947266f, 0.61787557601928710938f, 0.59531170129776000977f, 0.38697746396064758301f, 0.32109194993972778320f, 0.61068856716156005859f, 0.64507818222045898438f, -0.041530463844537734985f, -0.97284448146820068359f, -0.75040185451507568359f, 0.75473016500473022461f, 1.1613582372665405273f, 1.2161880731582641602f},
    {-0.20082049071788787842f, 0.74160045385360717773f, 0.34131881594657897949f, 0.31087058782577514648f, 0.71582704782485961914f, -1.7754791975021362305f, -1.6603941917419433594f, -0.093183323740959167480f, 0.30202290415763854980f, -0.76536357402801513672f, -0.0083843115717172622681f, 0.37928861379623413086f, 0.73425912857055664062f, -0.72362869977951049805f, -1.1537907123565673828f, -1.5736484527587890625f, -1.0600037574768066406f, -1.2303689718246459961f, -0.53751814365386962891f, -1.0464187860488891602f, -1.1863169670104980469f, -0.70048868656158447266f, -0.21883642673492431641f, -1.0710924863815307617f, -1.0002231597900390625f, -0.87506407499313354492f, -0.83519876003265380859f, -0.55430722236633300781f, 0.031132167205214500427f, 0.29428622126579284668f, -0.40120938420295715332f, 0.47578260302543640137f},
    {-0.15189552307128906250f, -0.44085144996643066406f, -0.45740839838981628418f, -1.0003515481948852539f, -0.79595869779586791992f, -0.47920760512351989746f, -1.1964328289031982422f, -1.2127339839935302734f, -0.91875779628753662109f, -0.42298743128776550293f, 0.49891200661659240723f, 0.41709575057029724121f, -0.11547414958477020264f, -0.13378380239009857178f, 0.10274986922740936279f, 0.25634086132049560547f, 0.76368653774261474609f, 0.065374366939067840576f, -0.91809546947479248047f, -1.2419468164443969727f, -0.81257849931716918945f, -0.073454856872558593750f, -0.31815522909164428711f, -0.18058225512504577637f, 0.044997397810220718384f, 0.12296575307846069336f, 0.096236824989318847656f, 0.51139312982559204102f, 0.64463776350021362305f, 0.69817614555358886719f, 0.73847562074661254883f, 0.87074536085128784180f},
    {-0.41805347800254821777f, -0.67997014522552490234f, 0.12456657737493515015f, -1.5762124061584472656f, -2.1765494346618652344f, -1.7954354286193847656f, -1.2769024372100830078f, -1.8372929096221923828f, -1.2127370834350585938f, -0.20450592041015625000f, -0.083189032971858978271f, -0.67546170949935913086f, -0.29673114418983459473f, -1.1349632740020751953f, -0.82572007179260253906f, 0.086918123066425323486f, -0.041098255664110183716f, -1.1542507410049438477f, 0.25313317775726318359f, 0.27698007225990295410f, -0.56113892793655395508f, 0.42999914288520812988f, -0.37123644351959228516f, -0.91976630687713623047f, 0.46396380662918090820f, -0.45150780677795410156f, 0.0056118289940059185028f, 0.42925751209259033203f, 0.78383868932723999023f, 0.23098635673522949219f, 0.72927433252334594727f, -0.18513755500316619873f},
    {1.1653552055358886719f, 1.3944603204727172852f, 2.1700956821441650391f, 1.9461514949798583984f, 2.1138291358947753906f, 2.4149963855743408203f, 1.4452619552612304688f, -0.13851632177829742432f, -0.73802751302719116211f, -0.63976591825485229492f, -0.78969812393188476562f, -0.78084170818328857422f, -0.92976123094558715820f, -0.77177906036376953125f, -1.0757687091827392578f, -0.62239450216293334961f, -0.71730130910873413086f, -0.78719186782836914062f, -0.72808963060379028320f, -0.52323889732360839844f, 0.34380215406417846680f, 0.51666885614395141602f, 0.61639529466629028320f, 0.53468376398086547852f, 0.73486542701721191406f, -0.093801945447921752930f, -0.20312847197055816650f, -0.64036488533020019531f, -0.45935049653053283691f, -0.16475895047187805176f, -0.82499688863754272461f, -1.6681709289550781250f},
    {-0.13722661137580871582f, 1.4400875568389892578f, 1.2417125701904296875f, -0.086202502250671386719f, -1.7316722869873046875f, -1.6282551288604736328f, -0.44221496582031250000f, 1.7843543291091918945f, 1.9128065109252929688f, 0.95649999380111694336f, 0.92491966485977172852f, 0.44063600897789001465f, 0.37726867198944091797f, 0.89447546005249023438f, 0.94326776266098022461f, 0.28053596615791320801f, -0.41416499018669128418f, -0.15051178634166717529f, 0.48596674203872680664f, 0.21325325965881347656f, -0.32726854085922241211f, -0.51610755920410156250f, -0.74424129724502563477f, -0.27458411455154418945f, -0.20263376832008361816f, 0.034768104553222656250f, -0.047239206731319427490f, -0.33679711818695068359f, -0.58489227294921875000f, -0.74247068166732788086f, -0.38796907663345336914f, 0.078906208276748657227f},
    {0.78462648391723632812f, 0.86521321535110473633f, 0.056847836822271347046f, -0.19134545326232910156f, -0.044040285050868988037f, 0.18637336790561676025f, -0.24220122396945953369f, 0.19709166884422302246f, 0.56428706645965576172f, 0.39307832717895507812f, 0.53294682502746582031f, 0.42067575454711914062f, 0.17782783508300781250f, 0.045658141374588012695f, -0.88465297222137451172f, -1.1963200569152832031f, -1.5332083702087402344f, -0.79631173610687255859f, 0.64384526014328002930f, 0.38181030750274658203f, -0.0065030055120587348938f, 0.55476140975952148438f, 1.0927748680114746094f, 0.73269504308700561523f, -0.43992459774017333984f, -0.43866094946861267090f, -0.28904271125793457031f, 0.40630263090133666992f, 0.41251167654991149902f, 0.064873173832893371582f, 0.37788763642311096191f, 0.53098249435424804688f},
    {0.23181152343750000000f, -1.1496126651763916016f, -0.22993971407413482666f, -1.4399621486663818359f, -0.68832731246948242188f, 1.2379578351974487305f, 1.5189521312713623047f, 0.22634969651699066162f, -0.58850747346878051758f, 1.3435268402099609375f, 3.1797697544097900391f, 2.4881372451782226562f, -0.25398948788642883301f, -2.2926201820373535156f, -3.0731830596923828125f, -1.9437098503112792969f, -1.4658008813858032227f, -1.1969081163406372070f, 0.59834110736846923828f, 0.20303444564342498779f, 0.55184817314147949219f, 0.67708092927932739258f, -0.056220773607492446899f, 0.21699228882789611816f, 0.57256036996841430664f, -0.24487392604351043701f, 0.35617187619209289551f, 0.67786282300949096680f, 0.36392986774444580078f, 0.67042481899261474609f, 0.50830936431884765625f, 0.032129436731338500977f},
    {1.5205279588699340820f, 1.0438995361328125000f, -0.84370887279510498047f, -1.0372380018234252930f, -0.60168433189392089844f, -0.62265712022781372070f, 0.51856273412704467773f, 0.69018375873565673828f, 0.41047221422195434570f, 1.2643064260482788086f, 1.1600539684295654297f, 1.9932116270065307617f, 2.1719491481781005859f, 0.25523787736892700195f, -0.33817932009696960449f, 0.055131960660219192505f, -0.11975625902414321899f, -0.10818336904048919678f, -0.15946905314922332764f, 0.67490828037261962891f, 0.30280944705009460449f, 0.19385631382465362549f, 1.0999459028244018555f, 0.32209759950637817383f, 0.20552143454551696777f, -0.32341572642326354980f, -1.4418305158615112305f, -1.3853442668914794922f, -0.092993304133415222168f, 0.19166076183319091797f, 0.38428103923797607422f, -0.35615271329879760742f},
    {0.43701747059822082520f, 0.40293568372726440430f, -0.79954463243484497070f, -0.92031782865524291992f, -0.68267261981964111328f, 0.24912354350090026855f, 1.0731682777404785156f, 0.071790792047977447510f, -1.2415122985839843750f, -0.74752432107925415039f, 0.041338786482810974121f, 1.0949572324752807617f, 1.0140372514724731445f, 0.59288918972015380859f, 0.86786377429962158203f, 1.1317163705825805664f, 1.4795196056365966797f, 0.68222832679748535156f, -2.0587697029113769531f, -2.7244842052459716797f, -0.85046964883804321289f, -0.91381341218948364258f, -1.0654985904693603516f, -0.87909060716629028320f, -1.4677082300186157227f, -0.80764979124069213867f, -0.93552935123443603516f, -0.62450844049453735352f, 0.24218869209289550781f, 0.32195052504539489746f, 0.85009360313415527344f, 0.85027414560317993164f},
    {1.2581738233566284180f, 0.22288908064365386963f, 0.36762380599975585938f, 0.47788438200950622559f, 0.29600748419761657715f, 0.72485309839248657227f, 0.39119100570678710938f, -0.21232728660106658936f, 0.78400945663452148438f, 0.55023485422134399414f, 0.96600604057312011719f, 0.28852039575576782227f, 0.16710260510444641113f, -1.2078675031661987305f, -1.2814480066299438477f, -0.21088081598281860352f, 0.058565668761730194092f, 0.28263080120086669922f, 0.78255742788314819336f, -0.065439283847808837891f, -0.82768362760543823242f, -1.1962007284164428711f, -0.29684108495712280273f, 0.75182139873504638672f, 1.0409840345382690430f, 1.0984473228454589844f, 1.1655219793319702148f, 0.46016341447830200195f, 0.00050075759645551443100f, 0.53873795270919799805f, 0.44528326392173767090f, 0.27207273244857788086f},
    {-0.50747191905975341797f, -0.46229869127273559570f, -0.40975424647331237793f, -0.45522427558898925781f, -0.45447081327438354492f, -0.45378094911575317383f, 0.75786477327346801758f, 1.3260058164596557617f, 1.9628083705902099609f, 0.69692856073379516602f, 1.2983033657073974609f, 1.1042863130569458008f, 0.22696611285209655762f, -1.0102006196975708008f, 0.60468357801437377930f, 2.2328195571899414062f, 1.1631453037261962891f, -0.92169576883316040039f, -1.5808241367340087891f, -0.34225159883499145508f, -0.33204710483551025391f, -0.81055223941802978516f, 0.29622676968574523926f, 1.0273879766464233398f, 0.62747877836227416992f, 0.57671540975570678711f, 0.37250372767448425293f, 0.46798768639564514160f, 0.63306522369384765625f, 0.59788596630096435547f, 0.42665410041809082031f, 1.1828584671020507812f},
    {0.73836231231689453125f, -1.0997991561889648438f, -1.1857272386550903320f, -0.57671988010406494141f, -1.2864520549774169922f, -1.3867986202239990234f, -0.66420686244964599609f, 0.37196579575538635254f, 0.20815949141979217529f, 0.99771255254745483398f, 1.3131730556488037109f, 0.84351480007171630859f, 0.26923254132270812988f, -0.25833544135093688965f, -0.75060200691223144531f, 0.048791751265525817871f, 1.0870834589004516602f, 0.83959156274795532227f, -1.3426946401596069336f, -1.5716824531555175781f, -0.58306068181991577148f, 0.13046850264072418213f, 1.1666352748870849609f, 0.055940955877304077148f, -1.1915996074676513672f, -1.8634445667266845703f, -0.97186815738677978516f, 0.12003325670957565308f, 0.96390140056610107422f, 0.59015959501266479492f, 0.20853163301944732666f, -0.097135968506336212158f},
    {1.1959159374237060547f, 1.0996208190917968750f, 1.5307484865188598633f, 2.1585600376129150391f, 2.6967806816101074219f, 2.5087327957153320312f, 2.5295784473419189453f, 1.3013610839843750000f, 0.77327644824981689453f, 0.90534955263137817383f, -0.24530231952667236328f, -0.41392582654953002930f, -0.54984033107757568359f, -0.42538177967071533203f, 0.015890680253505706787f, -0.076508790254592895508f, 0.17137914896011352539f, 0.74817347526550292969f, 1.1882758140563964844f, 1.3415546417236328125f, 1.2599668502807617188f, 0.65657901763916015625f, 0.088644027709960937500f, -0.55249887704849243164f, -0.0017691998509690165520f, -0.38129329681396484375f, -0.042837541550397872925f, -0.72142171859741210938f, -0.65475100278854370117f, -0.14525976777076721191f, -0.51362890005111694336f, -1.1711649894714355469f},
    {-0.47426801919937133789f, -0.24716237187385559082f, 1.3649506568908691406f, 1.0192407369613647461f, 0.62748962640762329102f, 0.71932482719421386719f, 0.29503545165061950684f, -0.15536867082118988037f, -0.16577240824699401855f, -1.0660586357116699219f, -0.84239315986633300781f, -0.36482453346252441406f, -0.64629971981048583984f, -0.54845178127288818359f, -0.74506026506423950195f, 0.31215697526931762695f, 0.23254559934139251709f, -0.51015752553939819336f, -0.91372472047805786133f, -0.34849315881729125977f, 0.047639265656471252441f, 0.21093128621578216553f, 0.077475503087043762207f, 0.13180394470691680908f, 0.091390147805213928223f, 0.80834770202636718750f, 0.43396863341331481934f, 0.24652680754661560059f, 0.29603245854377746582f, 0.51199620962142944336f, 0.24265919625759124756f, 0.39281833171844482422f},
    {-0.74270373582839965820f, -1.1013069152832031250f, 0.83213061094284057617f, 1.9416748285293579102f, 0.74758630990982055664f, 1.0057356357574462891f, -0.16980567574501037598f, -1.4479626417160034180f, -0.95086598396301269531f, 0.22966890037059783936f, -0.12140683084726333618f, -0.52423024177551269531f, -0.40380525588989257812f, -0.25824725627899169922f, -0.74703979492187500000f, -1.1418603658676147461f, -0.69926398992538452148f, 0.32169052958488464355f, 0.11057024449110031128f, 0.28202372789382934570f, 0.20806615054607391357f, -0.47244727611541748047f, -0.55086863040924072266f, -0.23214067518711090088f, 0.67771679162979125977f, 0.26071381568908691406f, -0.41139492392539978027f, -0.39141911268234252930f, -0.37351325154304504395f, 0.48246333003044128418f, 0.22229786217212677002f, -0.76475787162780761719f},
    {-0.26300099492073059082f, 0.23425199091434478760f, 1.0846716165542602539f, 0.76911640167236328125f, -0.67755889892578125000f, -0.58422720432281494141f, -0.71574306488037109375f, -1.1709493398666381836f, -0.97176319360733032227f, 0.47459688782691955566f, 0.88315844535827636719f, 1.3615618944168090820f, 2.1703240871429443359f, 2.0404095649719238281f, 2.1039845943450927734f, 1.7356029748916625977f, 1.2727702856063842773f, 0.33613732457160949707f, 0.35023310780525207520f, 0.40397059917449951172f, 0.74599236249923706055f, 0.34048217535018920898f, -0.23446261882781982422f, -0.69831013679504394531f, 0.067803815007209777832f, 0.36322671175003051758f, 0.77231186628341674805f, 0.28932613134384155273f, -0.68108123540878295898f, 0.28985726833343505859f, 1.3090386390686035156f, 0.97799068689346313477f},
    {-0.71374863386154174805f, -0.63834643363952636719f, 0.24689635634422302246f, 0.71670353412628173828f, 0.64908683300018310547f, 0.17943000793457031250f, 0.39974012970924377441f, 0.38709193468093872070f, 0.96423190832138061523f, -0.67793524265289306641f, -1.3352057933807373047f, -0.30387771129608154297f, 0.93838793039321899414f, 0.71385627985000610352f, -0.095996715128421783447f, -0.41487202048301696777f, 0.12884427607059478760f, -0.51984548568725585938f, 0.33776742219924926758f, 0.79127866029739379883f, 0.10359589755535125732f, -0.59509176015853881836f, -0.55541706085205078125f, 0.031840659677982330322f, 1.0391647815704345703f, -0.096967995166778564453f, 0.91334056854248046875f, 0.66478544473648071289f, -0.29724898934364318848f, 0.32780319452285766602f, 0.40779131650924682617f, -0.056499555706977844238f},
    {-0.010068096220493316650f, 0.87441629171371459961f, 0.50140565633773803711f, 0.94537258148193359375f, 0.94109773635864257812f, 0.73435872793197631836f, -0.17896381020545959473f, -1.5203480720520019531f, -1.2090020179748535156f, -1.2199294567108154297f, -0.60591739416122436523f, 0.11262156069278717041f, -0.26462468504905700684f, -0.10759773105382919312f, 0.71542066335678100586f, 0.29879710078239440918f, 0.29815214872360229492f, 1.2007321119308471680f, 0.76825326681137084961f, 0.91197437047958374023f, 1.5019303560256958008f, 1.2343735694885253906f, 0.88426220417022705078f, 0.64492553472518920898f, -0.62935328483581542969f, -0.16150605678558349609f, -0.47732493281364440918f, -0.24086116254329681396f, 0.22661624848842620850f, 0.17585030198097229004f, -0.17294059693813323975f, 0.75220048427581787109f},
    {-0.14266702532768249512f, 0.19898271560668945312f, 0.045857943594455718994f, 0.029229983687400817871f, 0.56337654590606689453f, 0.67996752262115478516f, 0.75437229871749877930f, 1.4427083730697631836f, 1.5660810470581054688f, 0.34988430142402648926f, -0.56182521581649780273f, -1.2991083860397338867f, -0.76919472217559814453f, 0.33546906709671020508f, 0.57082307338714599609f, 0.13894948363304138184f, -0.51875954866409301758f, -2.1817171573638916016f, -1.2763329744338989258f, 0.46550944447517395020f, 0.61098051071166992188f, -0.12178871780633926392f, -0.78233128786087036133f, 0.59092491865158081055f, 1.2765105962753295898f, 1.1182655096054077148f, 0.58011043071746826172f, 0.61550515890121459961f, 1.0721322298049926758f, 0.85612255334854125977f, 0.048121243715286254883f, -0.083465285599231719971f},
    {-1.0229333639144897461f, -1.0961418151855468750f, -0.90621799230575561523f, -1.2266365289688110352f, -1.3953573703765869141f, -0.79397690296173095703f, -0.19244576990604400635f, -0.51518630981445312500f, -0.72490048408508300781f, -0.89745503664016723633f, -0.75928890705108642578f, -1.1166524887084960938f, -1.0536807775497436523f, -0.55564129352569580078f, -0.76576662063598632812f, -1.0449649095535278320f, -0.17718704044818878174f, -0.29596787691116333008f, -0.045914523303508758545f, 0.42607840895652770996f, 0.51188153028488159180f, 0.26406565308570861816f, -0.15471504628658294678f, 0.79762649536132812500f, 0.76515549421310424805f, 0.61550009250640869141f, 0.89248454570770263672f, 1.1250511407852172852f, 0.93759113550186157227f, 1.1070572137832641602f, 0.77250856161117553711f, 0.68841665983200073242f},
    {0.62920862436294555664f, 0.14589858055114746094f, -1.2641829252243041992f, 0.15581595897674560547f, -1.1362764835357666016f, -1.7707221508026123047f, -1.9476389884948730469f, -0.25427028536796569824f, 1.3056868314743041992f, 0.24572239816188812256f, -0.84853833913803100586f, -0.87952202558517456055f, 0.18428772687911987305f, 0.60076206922531127930f, -0.32466644048690795898f, -0.74312376976013183594f, -1.1194998025894165039f, -1.4669836759567260742f, -0.44653323292732238770f, -0.0079753194004297256470f, 0.33313068747520446777f, 0.33418807387351989746f, -0.66257160902023315430f, -0.43452802300453186035f, -0.41264224052429199219f, -1.0027568340301513672f, -1.8375793695449829102f, -1.3207461833953857422f, -0.46310999989509582520f, -1.1849850416183471680f, -1.2411139011383056641f, -0.084678031504154205322f},
    {-0.96800053119659423828f, 0.42621842026710510254f, 0.34022736549377441406f, 0.59935462474822998047f, 0.90507811307907104492f, 0.70811539888381958008f, -0.34123584628105163574f, -1.1328879594802856445f, -0.62951707839965820312f, -0.082333765923976898193f, 0.079885199666023254395f, 0.71880882978439331055f, 1.0395524501800537109f, 0.23610430955886840820f, -0.45900720357894897461f, -0.89838045835494995117f, 0.077862381935119628906f, 1.1483485698699951172f, 0.55148774385452270508f, 0.99114257097244262695f, 1.8421367406845092773f, 1.1578636169433593750f, 0.0095666535198688507080f, -0.49146625399589538574f, -0.39690324664115905762f, -0.38865467905998229980f, -0.28835806250572204590f, -0.55472725629806518555f, -0.54493522644042968750f, -0.56484204530715942383f, -0.22469015419483184814f, -1.5512249469757080078f},
    {-0.36512625217437744141f, -0.39148050546646118164f, 0.57122623920440673828f, -0.13130363821983337402f, -2.0004873275756835938f, -2.5985372066497802734f, -3.6977136135101318359f, -0.98201590776443481445f, 2.2566773891448974609f, 2.2786965370178222656f, 2.0479128360748291016f, 0.65246379375457763672f, -0.21022783219814300537f, 0.41660502552986145020f, 1.2208951711654663086f, 1.1815443038940429688f, 0.61372798681259155273f, -0.43491974472999572754f, -0.48538783192634582520f, 0.076795123517513275146f, 0.084354281425476074219f, -0.56067979335784912109f, -0.37840417027473449707f, -0.088335216045379638672f, -0.34786018729209899902f, 0.17471383512020111084f, 0.10129003226757049561f, 0.031339537352323532104f, -0.35597121715545654297f, 0.17803524434566497803f, 0.49007308483123779297f, -0.49448043107986450195f},
    {0.053658697754144668579f, 1.3599030971527099609f, 1.6591651439666748047f, 1.9602559804916381836f, 1.0975027084350585938f, -0.026867732405662536621f, -0.16747729480266571045f, 0.29393053054809570312f, 0.015592399053275585175f, -0.15755650401115417480f, -0.79528766870498657227f, -0.34880667924880981445f, -0.20754313468933105469f, -0.34925037622451782227f, 0.12760317325592041016f, 0.067181512713432312012f, 0.072807013988494873047f, 0.56475579738616943359f, 1.2264568805694580078f, 1.8505173921585083008f, 2.4891743659973144531f, 1.5209082365036010742f, 0.55388873815536499023f, 1.3191168308258056641f, 0.55519264936447143555f, 1.1365314722061157227f, 0.91124498844146728516f, 0.26971027255058288574f, 0.66628801822662353516f, 0.81770396232604980469f, 1.4087662696838378906f, 2.7161240577697753906f},
    {-0.12749361991882324219f, 0.46675765514373779297f, -0.29669567942619323730f, 0.40296998620033264160f, -0.46003994345664978027f, -1.6042929887771606445f, -2.7520422935485839844f, -1.3982799053192138672f, 0.17650353908538818359f, 0.094904750585556030273f, 1.1774874925613403320f, 0.77465653419494628906f, 0.46375101804733276367f, 0.59016150236129760742f, 0.80839651823043823242f, 0.56218510866165161133f, 0.41793990135192871094f, -0.86678302288055419922f, -1.1518954038619995117f, -1.3904407024383544922f, -0.99093961715698242188f, -0.47901758551597595215f, 0.71777498722076416016f, 1.0337378978729248047f, -0.80674862861633300781f, -0.90839171409606933594f, 0.18017072975635528564f, 0.19270175695419311523f, -0.18097321689128875732f, -0.47143423557281494141f, -0.63792508840560913086f, 0.095290444791316986084f},
    {0.054827008396387100220f, -0.62955236434936523438f, -1.1441755294799804688f, -0.12393615394830703735f, 0.40294185280799865723f, 0.57009887695312500000f, 1.1864064931869506836f, 0.71455478668212890625f, -0.57260435819625854492f, -0.49313881993293762207f, -1.7111061811447143555f, -2.1409261226654052734f, -1.8926318883895874023f, -1.4604327678680419922f, 0.078016072511672973633f, 1.1571900844573974609f, 1.2793338298797607422f, 1.4730870723724365234f, 1.1589021682739257812f, 0.31617429852485656738f, 0.80704164505004882812f, 0.82331883907318115234f, 0.43213847279548645020f, -0.033028885722160339355f, -0.27668446302413940430f, 0.44128116965293884277f, 0.81862092018127441406f, 0.56179594993591308594f, 0.99449139833450317383f, -0.11696576327085494995f, 0.22754570841789245605f, 1.1447223424911499023f},
    {-0.50851798057556152344f, 0.34889170527458190918f, -0.065828129649162292480f, 0.25203627347946166992f, -0.027898486703634262085f, -0.38891303539276123047f, -0.014683282934129238129f, 0.96084696054458618164f, 1.5232402086257934570f, 1.4297410249710083008f, 1.2707527875900268555f, 0.81746149063110351562f, 1.0591915845870971680f, 1.4841376543045043945f, 1.0142774581909179688f, 0.031208906322717666626f, -0.50458818674087524414f, -0.69359600543975830078f, 0.12046957015991210938f, 0.84681195020675659180f, 0.55381554365158081055f, 0.35316309332847595215f, 0.84852856397628784180f, 0.47385543584823608398f, -0.18451093137264251709f, 0.056267309933900833130f, -0.23534235358238220215f, -0.72501987218856811523f, -0.71648067235946655273f, -0.26288327574729919434f, -0.18501731753349304199f, -0.55605882406234741211f},
    {0.25920757651329040527f, 0.75259488821029663086f, 0.85565173625946044922f, 0.57608622312545776367f, -0.10882018506526947021f, -1.1240230798721313477f, -0.34688028693199157715f, 1.3812021017074584961f, 1.9780285358428955078f, 2.1733200550079345703f, 1.0559819936752319336f, 0.60884970426559448242f, 1.6789875030517578125f, 2.3439059257507324219f, 0.76306337118148803711f, -0.49362641572952270508f, 0.012490421533584594727f, -0.28383064270019531250f, -0.39481705427169799805f, -0.54263192415237426758f, -0.056886799633502960205f, 0.99693059921264648438f, 0.15543054044246673584f, -0.52593874931335449219f, -1.2314040660858154297f, -0.19182540476322174072f, -0.38238552212715148926f, -0.73256468772888183594f, -0.66503334045410156250f, -0.91380721330642700195f, -0.37885522842407226562f, 0.59462690353393554688f},
    {-0.65131187438964843750f, -0.88441854715347290039f, -2.3534402847290039062f, -2.0583059787750244141f, -1.1371282339096069336f, -0.43036130070686340332f, 0.16777855157852172852f, 0.32662710547447204590f, 0.38799121975898742676f, 0.59866893291473388672f, 1.1476370096206665039f, 0.92373543977737426758f, 0.12905567884445190430f, -1.4366580247879028320f, -1.5809197425842285156f, -1.1376236677169799805f, -0.95875561237335205078f, -0.19934964179992675781f, 0.44346582889556884766f, -0.086039379239082336426f, -0.73198384046554565430f, 0.30679091811180114746f, 0.33914852142333984375f, 0.38755390048027038574f, -0.19688376784324645996f, -0.78919625282287597656f, -0.25330075621604919434f, 0.87640118598937988281f, 0.75970816612243652344f, 0.24054780602455139160f, 0.047488521784543991089f, -0.67721921205520629883f},
    {-1.2340685129165649414f, -0.52713757753372192383f, -0.51521062850952148438f, -0.66107070446014404297f, -0.32415604591369628906f, -0.19318370521068572998f, -0.47561371326446533203f, -0.26757892966270446777f, 0.34563156962394714355f, 0.21267578005790710449f, 1.0787290334701538086f, 1.0877066850662231445f, -0.11588084697723388672f, -1.0176858901977539062f, -0.78275698423385620117f, 0.26788115501403808594f, -0.70933079719543457031f, -0.16714419424533843994f, -0.58378982543945312500f, -0.85916382074356079102f, -0.61492168903350830078f, 0.47234520316123962402f, 0.57133585214614868164f, 0.80943661928176879883f, 0.089126199483871459961f, -0.58866751194000244141f, 0.10050016641616821289f, 0.21966977417469024658f, 0.17427842319011688232f, 0.10612134635448455811f, -0.50613868236541748047f, -0.013848295435309410095f},
    {-0.28874072432518005371f, 1.7561633586883544922f, 1.5829739570617675781f, 1.0709638595581054688f, 0.48569542169570922852f, -0.24572066962718963623f, 0.68078237771987915039f, 1.0947479009628295898f, 0.50991714000701904297f, -0.57131546735763549805f, -0.48682731389999389648f, 0.46796339750289916992f, 2.0620138645172119141f, 0.95191323757171630859f, -0.45583838224411010742f, -1.2359026670455932617f, -1.3597093820571899414f, 0.12302790582180023193f, 1.3983615636825561523f, 0.69357687234878540039f, -0.88756269216537475586f, 0.34444275498390197754f, 1.8582425117492675781f, 0.53133052587509155273f, -0.26162189245223999023f, 0.29881781339645385742f, -0.073518499732017517090f, 0.37905630469322204590f, 0.63771247863769531250f, 0.72477477788925170898f, 0.66189104318618774414f, -0.22302225232124328613f},
    {-0.28744649887084960938f, -1.2276070117950439453f, -0.97239464521408081055f, -0.36295905709266662598f, 0.10078381747007369995f, 0.87959605455398559570f, 1.0689584016799926758f, -0.17645770311355590820f, -0.79398721456527709961f, -0.092534795403480529785f, -0.029651090502738952637f, -0.10659053921699523926f, -0.57798683643341064453f, -1.9003400802612304688f, -2.6043882369995117188f, -1.5719726085662841797f, 0.47154828906059265137f, 1.7419009208679199219f, 1.2244706153869628906f, 0.67974567413330078125f, 0.27461764216423034668f, 0.50788831710815429688f, 0.80255192518234252930f, -0.44168418645858764648f, -0.82000386714935302734f, -0.19203758239746093750f, -0.093832902610301971436f, 0.0077469917014241218567f, 0.59239602088928222656f, 0.040131598711013793945f, 0.16056008636951446533f, -0.052827436476945877075f},
    {0.51251542568206787109f, 0.30318796634674072266f, -0.71797227859497070312f, -0.71721285581588745117f, -0.043496884405612945557f, -0.62533169984817504883f, -0.90769213438034057617f, -0.87074869871139526367f, -1.4302586317062377930f, -0.29524135589599609375f, -0.71760791540145874023f, -0.25677055120468139648f, -1.0468087196350097656f, -1.9956104755401611328f, -2.7094585895538330078f, -0.79991114139556884766f, -0.15750661492347717285f, -0.47142556309700012207f, -0.63169652223587036133f, -0.20056788623332977295f, 0.40971213579177856445f, 0.89453768730163574219f, 0.61001086235046386719f, 0.0075124762952327728271f, -0.64867383241653442383f, -0.41420421004295349121f, -0.51726061105728149414f, 0.018936200067400932312f, 0.37495976686477661133f, -0.48752793669700622559f, -0.40406239032745361328f, 0.43404871225357055664f},
    {-1.3875862360000610352f, -1.7472972869873046875f, -1.6032364368438720703f, 0.032743811607360839844f, 0.24850119650363922119f, -0.67060476541519165039f, 0.062550544738769531250f, -0.67841309309005737305f, -1.3348414897918701172f, -0.73967909812927246094f, -0.35976701974868774414f, -0.26248618960380554199f, 0.86183011531829833984f, 1.5304872989654541016f, 0.11585807800292968750f, 0.61488485336303710938f, 0.11101108789443969727f, 0.23611694574356079102f, -0.43562969565391540527f, -0.82905423641204833984f, -1.4234051704406738281f, -0.56844419240951538086f, -0.24351255595684051514f, -0.057265717536211013794f, -0.14054390788078308105f, -0.54194402694702148438f, -0.50858646631240844727f, -1.3041484355926513672f, -0.33533143997192382812f, -0.22894610464572906494f, -0.73931813240051269531f, -0.77521753311157226562f},
    {-0.66565525531768798828f, 0.37538099288940429688f, -0.35163429379463195801f, 1.0359159708023071289f, 0.074203997850418090820f, -1.0660209655761718750f, -0.52389949560165405273f, -0.51140087842941284180f, -0.45440354943275451660f, 0.19873073697090148926f, -0.054494217038154602051f, 0.59219729900360107422f, 0.98020958900451660156f, 0.50561612844467163086f, -0.045355428010225296021f, -0.66410535573959350586f, -0.36832168698310852051f, -0.56974333524703979492f, 0.069703102111816406250f, 0.060012266039848327637f, 0.21932923793792724609f, -0.19254235923290252686f, -0.74170863628387451172f, -0.13445055484771728516f, -0.0086122415959835052490f, 0.38382571935653686523f, 1.3054884672164916992f, 1.0859547853469848633f, 0.16745026409626007080f, 0.25631356239318847656f, 0.084556013345718383789f, 0.76279258728027343750f},
    {-0.066476665437221527100f, -0.67090821266174316406f, -0.79571616649627685547f, -0.38460013270378112793f, -0.13355259597301483154f, -0.11363816261291503906f, 0.49583715200424194336f, 0.15819215774536132812f, -0.26104435324668884277f, -1.3681714534759521484f, -1.7448556423187255859f, -1.7607803344726562500f, 0.26285064220428466797f, 0.81694269180297851562f, 0.28096947073936462402f, -0.087160035967826843262f, 0.23223079741001129150f, 0.63284391164779663086f, 0.14650963246822357178f, -0.70926773548126220703f, -0.67132198810577392578f, -1.3351867198944091797f, -1.0758581161499023438f, 0.18439358472824096680f, -0.051153380423784255981f, 0.21576333045959472656f, 0.038676545023918151855f, -1.0031943321228027344f, -0.48519089818000793457f, 0.097193710505962371826f, 0.17642234265804290771f, 0.61527353525161743164f},
    {-0.20233693718910217285f, -0.39282444119453430176f, -0.060518000274896621704f, 0.26120346784591674805f, 0.11172341555356979370f, 0.59388703107833862305f, 0.52417880296707153320f, -0.29554915428161621094f, -0.78432869911193847656f, -1.0399577617645263672f, -1.3335675001144409180f, -1.3859839439392089844f, -1.5070099830627441406f, -1.0053604841232299805f, -0.029916647821664810181f, 0.060079362243413925171f, -0.24966976046562194824f, -0.52002924680709838867f, -0.28815332055091857910f, 0.24393253028392791748f, 0.30806866288185119629f, -0.20980802178382873535f, 0.025003166869282722473f, 0.070916272699832916260f, -0.25466886162757873535f, 0.30206933617591857910f, 0.040889076888561248779f, -0.67931544780731201172f, -0.33314037322998046875f, 0.16297987103462219238f, -0.40727913379669189453f, -0.71062552928924560547f},
    {-0.055642258375883102417f, -0.50512570142745971680f, 0.55893474817276000977f, 1.0851080417633056641f, 1.7582877874374389648f, 2.3080329895019531250f, 2.1686708927154541016f, 1.0923458337783813477f, 1.4547898769378662109f, 1.4355170726776123047f, 2.0992615222930908203f, 1.0316787958145141602f, 0.31947633624076843262f, -0.65476858615875244141f, -0.065198026597499847412f, 0.54218006134033203125f, 0.51358819007873535156f, 1.0836970806121826172f, 1.0390827655792236328f, 0.30561131238937377930f, 0.11657985299825668335f, 0.63218224048614501953f, 0.68496704101562500000f, 0.44739988446235656738f, 0.68716770410537719727f, 0.79388594627380371094f, 1.3389426469802856445f, 1.1400153636932373047f, 1.5284945964813232422f, 1.5763386487960815430f, 1.5313862562179565430f, 0.99588757753372192383f},
    {-0.48832830786705017090f, 0.82030624151229858398f, -0.19277489185333251953f, -0.59834903478622436523f, -0.37473022937774658203f, 0.15672259032726287842f, 0.25894469022750854492f, 0.81468963623046875000f, 0.96961367130279541016f, 0.34969487786293029785f, -0.22202683985233306885f, -0.51451730728149414062f, -0.13723088800907135010f, 0.28026252985000610352f, -0.063266865909099578857f, -0.92625868320465087891f, -1.0999964475631713867f, -0.32842004299163818359f, 0.90451735258102416992f, 1.0729999542236328125f, 0.35158675909042358398f, 0.17175810039043426514f, -0.16759055852890014648f, -0.31645500659942626953f, 0.30073460936546325684f, 1.0476855039596557617f, 0.39756658673286437988f, -0.0083418237045407295227f, 0.24885667860507965088f, 0.48764184117317199707f, 0.49654811620712280273f, 1.1072916984558105469f},
    {1.1089074611663818359f, 2.3646979331970214844f, 2.8284914493560791016f, 2.2968533039093017578f, 1.7052811384201049805f, 0.77792495489120483398f, -0.76751118898391723633f, -1.0499409437179565430f, -0.73804408311843872070f, -0.82694238424301147461f, -0.48965820670127868652f, -0.55507254600524902344f, -2.1002175807952880859f, -0.62398964166641235352f, 0.31628251075744628906f, 0.076543293893337249756f, -0.64730590581893920898f, 0.54595679044723510742f, 0.85564094781875610352f, 0.27278846502304077148f, 0.96363639831542968750f, 1.9810117483139038086f, 1.1890619993209838867f, 0.052350483834743499756f, -0.34826442599296569824f, 0.48540461063385009766f, 0.38754808902740478516f, 0.58771568536758422852f, 1.1334054470062255859f, 0.56048840284347534180f, 1.1431648731231689453f, 1.1646797657012939453f},
    {-0.73355191946029663086f, 0.11567039787769317627f, -0.19085694849491119385f, 0.54173862934112548828f, 0.43231078982353210449f, -0.50015318393707275391f, -0.60271382331848144531f, 0.39604169130325317383f, 0.45778021216392517090f, -0.81269335746765136719f, -0.70509505271911621094f, -0.17814037203788757324f, 0.27718704938888549805f, -0.32318061590194702148f, -0.47354242205619812012f, 0.25883165001869201660f, 0.23409356176853179932f, -0.47378680109977722168f, -1.4728888273239135742f, -1.6307386159896850586f, -0.97109282016754150391f, -1.5575104951858520508f, -1.6369218826293945312f, -0.82839238643646240234f, -0.53985637426376342773f, -0.17897054553031921387f, 0.0025288439355790615082f, 0.25823390483856201172f, 0.14085942506790161133f, 0.036184862256050109863f, 0.75240325927734375000f, 1.9212845563888549805f},
    {-0.51249015331268310547f, -0.63699734210968017578f, -1.4708052873611450195f, -0.11545296013355255127f, 0.16196183860301971436f, 0.42934200167655944824f, 1.5068051815032958984f, 1.4847801923751831055f, 0.25795429944992065430f, -0.091085471212863922119f, -0.68263816833496093750f, 0.027302019298076629639f, 0.71717453002929687500f, -0.75922286510467529297f, -1.9232645034790039062f, -0.72150558233261108398f, 0.18528079986572265625f, 0.14719100296497344971f, 0.50808382034301757812f, 0.89605528116226196289f, 0.80508625507354736328f, 0.27947327494621276855f, 1.0235521793365478516f, 1.0024501085281372070f, 0.20481610298156738281f, 0.38921236991882324219f, 0.76730197668075561523f, 0.49362480640411376953f, 1.1757303476333618164f, 0.027893606573343276978f, -0.69797515869140625000f, 1.0235676765441894531f},
    {-0.18103457987308502197f, -0.75328481197357177734f, -0.51852101087570190430f, -0.32524713873863220215f, -0.0026140778791159391403f, -0.094752468168735504150f, -0.075804755091667175293f, 0.31522557139396667480f, -0.11017134040594100952f, -0.93780004978179931641f, -0.70347172021865844727f, -0.61423474550247192383f, -0.16395448148250579834f, -0.27862533926963806152f, 0.070143938064575195312f, -0.29346060752868652344f, -1.4879716634750366211f, 0.94345957040786743164f, 0.79274511337280273438f, -1.2294331789016723633f, -2.2686572074890136719f, -1.2834299802780151367f, -0.86695086956024169922f, -0.81037133932113647461f, -0.33260020613670349121f, -0.082273773849010467529f, -0.43982329964637756348f, -0.48789978027343750000f, -0.84751832485198974609f, -0.36241155862808227539f, -0.71405631303787231445f, -0.13035254180431365967f},
    {-0.043020524084568023682f, -0.89015263319015502930f, -0.21435683965682983398f, 0.033777873963117599487f, 0.98716241121292114258f, 0.79237538576126098633f, 0.18578559160232543945f, -1.0896333456039428711f, -0.77041023969650268555f, -0.42951774597167968750f, -1.0930285453796386719f, -0.74870163202285766602f, -0.15654176473617553711f, -0.56514203548431396484f, -0.49639126658439636230f, -0.49599421024322509766f, 0.39132472872734069824f, 0.45949339866638183594f, -0.47976118326187133789f, -0.71087342500686645508f, -0.090813040733337402344f, -0.32202458381652832031f, -0.89030802249908447266f, -0.79712480306625366211f, 0.36630517244338989258f, 0.039768751710653305054f, -0.11814557760953903198f, -0.51798111200332641602f, 0.33990547060966491699f, 0.10703434050083160400f, -0.087789379060268402100f, -1.4510153532028198242f},
    {0.73923105001449584961f, -0.46691957116127014160f, 0.59233224391937255859f, 0.93489825725555419922f, 1.5701886415481567383f, 1.8225834369659423828f, 0.80119782686233520508f, -1.8183351755142211914f, -3.1611757278442382812f, -0.84333914518356323242f, 0.96606051921844482422f, 1.4161123037338256836f, 0.073777459561824798584f, -0.67230701446533203125f, 0.095096461474895477295f, -0.11470352113246917725f, 0.19625285267829895020f, 0.19007593393325805664f, -0.64340770244598388672f, -1.2027206420898437500f, -0.99939972162246704102f, -0.020737696439027786255f, -0.39818075299263000488f, -0.17616984248161315918f, 0.34589013457298278809f, -0.31082642078399658203f, -0.094943225383758544922f, -0.0046142702922224998474f, -0.0087147578597068786621f, 0.33060336112976074219f, 0.42154803872108459473f, 1.5363230705261230469f},
    {0.35743972659111022949f, 0.096976466476917266846f, -0.39862704277038574219f, 0.59729349613189697266f, 0.64098787307739257812f, 0.58063572645187377930f, 1.0533082485198974609f, 1.3448724746704101562f, 0.67199838161468505859f, 0.43063545227050781250f, -0.29087972640991210938f, -0.90471392869949340820f, 0.53353935480117797852f, -0.65948969125747680664f, -0.76386606693267822266f, 1.1155707836151123047f, 1.6077041625976562500f, 1.0473009347915649414f, 0.64687252044677734375f, 1.1618484258651733398f, 0.14043386280536651611f, 0.18167273700237274170f, 0.58986538648605346680f, 0.91087853908538818359f, 0.28174993395805358887f, 1.1130658388137817383f, 0.58108818531036376953f, -0.060414090752601623535f, 0.41768854856491088867f, 0.47567096352577209473f, 0.72593897581100463867f, 1.4607346057891845703f},
    {-0.71297520399093627930f, -0.85626614093780517578f, -0.77111887931823730469f, -2.3473570346832275391f, -2.0157124996185302734f, -0.85274213552474975586f, -1.5798088312149047852f, -0.71148842573165893555f, 0.23706053197383880615f, 0.14486630260944366455f, -0.83250159025192260742f, -1.3425228595733642578f, -0.40582227706909179688f, -0.52095240354537963867f, -1.1281521320343017578f, -0.66064995527267456055f, 0.35838061571121215820f, -0.31473287940025329590f, -1.3873869180679321289f, -0.94252401590347290039f, -1.1486122608184814453f, -1.2594629526138305664f, -1.3471219539642333984f, -1.2783501148223876953f, -0.87392169237136840820f, -0.50344640016555786133f, -0.29373511672019958496f, -0.21343269944190979004f, 0.22885175049304962158f, 0.11851228773593902588f, 0.34538581967353820801f, 0.23351788520812988281f},
    {-0.045647379010915756226f, 1.1795175075531005859f, 0.45562234520912170410f, 0.14801084995269775391f, 0.48050245642662048340f, 0.47767671942710876465f, 0.51622337102890014648f, 1.2305471897125244141f, 0.91390985250473022461f, -0.14184369146823883057f, -0.75373369455337524414f, -0.14900632202625274658f, 2.0404527187347412109f, 2.1611917018890380859f, 1.2345458269119262695f, -0.34969463944435119629f, -1.9849578142166137695f, -2.2136030197143554688f, -0.89738899469375610352f, 0.49786028265953063965f, 0.60372889041900634766f, 0.43621224164962768555f, -0.32317861914634704590f, 0.0097375446930527687073f, 0.98251146078109741211f, 0.082786738872528076172f, -0.30915200710296630859f, 0.64163464307785034180f, 0.94205862283706665039f, 0.48772460222244262695f, 0.42619723081588745117f, -0.40636575222015380859f},
    {0.42132768034934997559f, 0.80395358800888061523f, 0.43893897533416748047f, 1.7072519063949584961f, 1.9634138345718383789f, 1.2000544071197509766f, 0.68033343553543090820f, 0.038016237318515777588f, -1.0435999631881713867f, -1.6894234418869018555f, -0.69123387336730957031f, -0.22734883427619934082f, 0.81658047437667846680f, 1.1883925199508666992f, 1.3282784223556518555f, 0.96814000606536865234f, 0.37148812413215637207f, 0.40906855463981628418f, 0.12453784793615341187f, -1.2355796098709106445f, -1.0316889286041259766f, -0.96365946531295776367f, -1.0172723531723022461f, -0.87786716222763061523f, -0.71586859226226806641f, -1.1505625247955322266f, -1.0014225244522094727f, -1.0920708179473876953f, -0.64092832803726196289f, 0.057158559560775756836f, 0.15899169445037841797f, 2.0661659240722656250f},
    {0.82920718193054199219f, -0.32238781452178955078f, -0.12198789417743682861f, 0.20247182250022888184f, 1.5625981092453002930f, 1.8476095199584960938f, 1.9889876842498779297f, 0.052816495299339294434f, -1.9515076875686645508f, -1.9344666004180908203f, -2.5695154666900634766f, -2.0467176437377929688f, -0.71476382017135620117f, -0.10858302563428878784f, 0.031347591429948806763f, 0.014258390292525291443f, 0.58947253227233886719f, 0.90481150150299072266f, 0.37587860226631164551f, -0.44469588994979858398f, -0.28291374444961547852f, 0.10785244405269622803f, 0.18902319669723510742f, -0.25053915381431579590f, 0.70455676317214965820f, 0.27676531672477722168f, -0.048624169081449508667f, -0.68907225131988525391f, -0.81686669588088989258f, -0.80267393589019775391f, -0.43641018867492675781f, -0.53923314809799194336f},
    {0.55383503437042236328f, 0.47443634271621704102f, 0.20946131646633148193f, 0.32978513836860656738f, 0.16327266395092010498f, 0.039537858217954635620f, 0.058798909187316894531f, -0.023811385035514831543f, 0.60195821523666381836f, 0.47417837381362915039f, 0.63433068990707397461f, 0.36479002237319946289f, -0.55722677707672119141f, -0.0037701516412198543549f, 0.80201756954193115234f, 1.2327702045440673828f, 0.26761597394943237305f, 0.24674315750598907471f, 0.38454517722129821777f, 0.94547754526138305664f, 0.48235392570495605469f, 0.57162827253341674805f, 1.7316367626190185547f, 1.8607918024063110352f, 1.7183877229690551758f, 1.7484173774719238281f, 0.66209954023361206055f, -0.13309954106807708740f, -0.014105187729001045227f, 0.25558498501777648926f, 0.80747461318969726562f, 0.44455260038375854492f},
    {-0.60919576883316040039f, -1.9480611085891723633f, -2.3032927513122558594f, -1.5205284357070922852f, -0.48864790797233581543f, -0.28573429584503173828f, -0.66204601526260375977f, -0.68083912134170532227f, -0.67934644222259521484f, -1.1643658876419067383f, -0.83374071121215820312f, -0.37648794054985046387f, -0.14441257715225219727f, 0.59743523597717285156f, 0.17432768642902374268f, -0.51232713460922241211f, -0.98224395513534545898f, -1.3644908666610717773f, -1.4284493923187255859f, -1.3833408355712890625f, -1.4767831563949584961f, -0.85391283035278320312f, -0.30606785416603088379f, 0.16479226946830749512f, 0.098736971616744995117f, -0.45062032341957092285f, -0.24874979257583618164f, 0.046280227601528167725f, 0.13557131588459014893f, 0.24620120227336883545f, 0.73672258853912353516f, 1.3771165609359741211f},
    {0.99434161186218261719f, 0.96429145336151123047f, 0.33472338318824768066f, 0.27864724397659301758f, 0.53257340192794799805f, 1.1496737003326416016f, 0.50111758708953857422f, 0.44166079163551330566f, 0.39111599326133728027f, 0.30437269806861877441f, 0.28132051229476928711f, 0.98521006107330322266f, 0.78234541416168212891f, 1.2569291591644287109f, 1.0171601772308349609f, 1.1969338655471801758f, 2.0926167964935302734f, 3.0204539299011230469f, 2.8487391471862792969f, 2.0462262630462646484f, 1.2956064939498901367f, 1.6122052669525146484f, 2.1477856636047363281f, 1.6031103134155273438f, 2.6417067050933837891f, 1.9286000728607177734f, 1.6736438274383544922f, 1.9011683464050292969f, 0.93187099695205688477f, 1.0976138114929199219f, 1.7934856414794921875f, 1.8410052061080932617f},
    {-2.0614488124847412109f, 0.17914484441280364990f, 0.81251877546310424805f, -0.11074082553386688232f, -1.0953354835510253906f, -2.3500394821166992188f, -2.4318239688873291016f, -2.2817814350128173828f, -0.24360464513301849365f, -0.67667144536972045898f, -0.85267001390457153320f, -0.76218342781066894531f, -1.5215491056442260742f, -0.99231803417205810547f, 0.74146658182144165039f, 0.50535333156585693359f, -1.2798887491226196289f, -0.97838598489761352539f, -1.0048750638961791992f, -1.3016847372055053711f, -0.78477096557617187500f, -0.70253145694732666016f, -0.59674239158630371094f, -0.42968931794166564941f, -0.033897876739501953125f, 0.15531016886234283447f, -0.053125601261854171753f, -0.33241987228393554688f, -0.049082491546869277954f, 0.91446322202682495117f, 0.67591238021850585938f, 0.41418665647506713867f},
    {0.57696872949600219727f, 0.65869396924972534180f, 0.93096733093261718750f, 1.4551849365234375000f, 1.8286461830139160156f, 2.4566764831542968750f, 2.0453913211822509766f, 0.94659423828125000000f, 1.5054030418395996094f, 2.2099153995513916016f, 2.2263693809509277344f, 2.1677441596984863281f, 1.6910876035690307617f, 2.0037913322448730469f, 1.6426494121551513672f, 1.5306209325790405273f, 1.5126037597656250000f, 0.60826689004898071289f, 0.12048673629760742188f, 0.10160615295171737671f, 0.14857941865921020508f, 0.72091960906982421875f, 0.85645854473114013672f, 0.87272208929061889648f, 0.74701988697052001953f, 0.021140547469258308411f, -0.10889682173728942871f, -0.12438896298408508301f, -0.57700198888778686523f, -0.99829369783401489258f, -1.0066177845001220703f, -0.66607838869094848633f},
    {0.35437473654747009277f, 2.2643208503723144531f, -0.47811391949653625488f, -1.1775805950164794922f, -0.66748368740081787109f, -1.2689514160156250000f, -1.3149546384811401367f, -0.16822646558284759521f, 0.033017780631780624390f, 0.19755911827087402344f, -0.13756684958934783936f, -1.2196068763732910156f, -2.1202564239501953125f, -0.79714399576187133789f, 0.74530786275863647461f, 1.5567659139633178711f, 1.3277653455734252930f, -0.31154128909111022949f, -0.095269642770290374756f, 0.36882415413856506348f, -0.74644553661346435547f, -0.71636027097702026367f, 0.16998212039470672607f, -0.19434513151645660400f, -0.78015977144241333008f, -0.40504798293113708496f, -0.065378576517105102539f, 0.0051605571061372756958f, 0.29920056462287902832f, -0.27843573689460754395f, -0.50986856222152709961f, 0.40528333187103271484f},
    {-0.043182149529457092285f, -0.57511317729949951172f, -0.69464010000228881836f, -0.26251623034477233887f, -0.0074386605992913246155f, 0.46520775556564331055f, 0.56122666597366333008f, 0.23722824454307556152f, -0.36792722344398498535f, -0.11293473839759826660f, -0.070651449263095855713f, -0.51812624931335449219f, -0.21621234714984893799f, 0.020372850820422172546f, 0.072217725217342376709f, -0.22452248632907867432f, -0.32340332865715026855f, -0.36782184243202209473f, -0.72105795145034790039f, -0.99735748767852783203f, -0.81955176591873168945f, -0.38959914445877075195f, -0.72902768850326538086f, -0.93329638242721557617f, -1.4243283271789550781f, -1.3744338750839233398f, -1.0033292770385742188f, -0.44521775841712951660f, -0.61979866027832031250f, -0.61365699768066406250f, -0.82848101854324340820f, -0.72143590450286865234f},
    {0.52196311950683593750f, -0.23340784013271331787f, -1.1244623661041259766f, -0.75628811120986938477f, -1.0208362340927124023f, -1.1683259010314941406f, -1.2003211975097656250f, -1.4870629310607910156f, -1.7215384244918823242f, -1.4959874153137207031f, -1.5401897430419921875f, -0.86256808042526245117f, -0.63703763484954833984f, -1.0546157360076904297f, -0.56267482042312622070f, -0.37208294868469238281f, 0.086590945720672607422f, -0.048031330108642578125f, -0.015180824324488639832f, -0.46011233329772949219f, -0.59028953313827514648f, 0.020796751603484153748f, 0.32530993223190307617f, 0.48640525341033935547f, 0.44418850541114807129f, 0.35903605818748474121f, 0.38957294821739196777f, 0.75277560949325561523f, 0.86668527126312255859f, 1.3219523429870605469f, 1.3898408412933349609f, 1.9383001327514648438f},
    {0.029005834832787513733f, -0.15743215382099151611f, 0.017690015956759452820f, 0.30372318625450134277f, -0.071297824382781982422f, -0.67372125387191772461f, 0.022978793829679489136f, 0.24436965584754943848f, -0.60588288307189941406f, -1.0261449813842773438f, -1.1797676086425781250f, -0.51004129648208618164f, -0.49928608536720275879f, -0.17693071067333221436f, -0.41498675942420959473f, 0.11928854882717132568f, -0.19469259679317474365f, 0.16593825817108154297f, 0.71842569112777709961f, 0.097907729446887969971f, 0.14488433301448822021f, 0.26825091242790222168f, -0.022347521036863327026f, -0.15613974630832672119f, -0.18028400838375091553f, -0.86801111698150634766f, -0.98161607980728149414f, -1.5460593700408935547f, -1.6465291976928710938f, -1.2762961387634277344f, -1.9926973581314086914f, -1.2821136713027954102f},
    {-0.88138598203659057617f, -1.1983405351638793945f, -1.0799452066421508789f, -0.87681227922439575195f, 0.39329406619071960449f, 2.1577243804931640625f, 2.0691275596618652344f, 1.4249851703643798828f, 1.0573613643646240234f, 0.70276135206222534180f, -0.013551726005971431732f, -0.30855673551559448242f, 1.2204694747924804688f, 0.58747941255569458008f, -0.10980171710252761841f, -1.2331322431564331055f, -0.75155287981033325195f, -0.51976048946380615234f, 1.2018438577651977539f, 2.0332968235015869141f, 1.2329177856445312500f, 1.3008836507797241211f, 1.8256640434265136719f, 1.2411532402038574219f, -0.25053572654724121094f, -0.32961630821228027344f, 0.16875481605529785156f, 0.18613764643669128418f, -0.085421264171600341797f, -1.5500164031982421875f, -1.0333634614944458008f, -1.1557042598724365234f},
    {-0.78845220804214477539f, -1.4917126893997192383f, 0.84427845478057861328f, 0.25122091174125671387f, 1.7315261363983154297f, 1.4151341915130615234f, 1.2301137447357177734f, -0.46948412060737609863f, -2.5518164634704589844f, -1.5175733566284179688f, -0.42793214321136474609f, 0.81841534376144409180f, 0.66169655323028564453f, 0.96554535627365112305f, 1.6324816942214965820f, 1.4786247014999389648f, 1.3583090305328369141f, 0.10710054636001586914f, -2.6661283969879150391f, -2.3791828155517578125f, -0.20198658108711242676f, 0.072503700852394104004f, -1.4693510532379150391f, -0.81508708000183105469f, 0.57193470001220703125f, -0.70389693975448608398f, -0.41662767529487609863f, 0.17731490731239318848f, -0.34014901518821716309f, 0.22876885533332824707f, 0.30527648329734802246f, 0.47107899188995361328f},
    {0.56666040420532226562f, 0.25403493642807006836f, -1.2484276294708251953f, -0.49352851510047912598f, 0.45811894536018371582f, 1.3357559442520141602f, 0.96801513433456420898f, 0.99662458896636962891f, 1.4345887899398803711f, -0.039828803390264511108f, -0.89191794395446777344f, -1.2472350597381591797f, -0.39619109034538269043f, 0.36660772562026977539f, 0.47688636183738708496f, 0.17979104816913604736f, 0.84801906347274780273f, 1.3117277622222900391f, 1.0572494268417358398f, 0.21574026346206665039f, -0.88592183589935302734f, -0.10042279213666915894f, -0.25386619567871093750f, -0.35726588964462280273f, 0.073922581970691680908f, -0.062962710857391357422f, -0.34132978320121765137f, -0.20314018428325653076f, -0.15338282287120819092f, 0.0037094606086611747742f, 0.080925941467285156250f, 0.44669991731643676758f},
    {0.30584838986396789551f, 0.58472174406051635742f, 0.84132725000381469727f, 1.6773202419281005859f, 0.60924172401428222656f, -0.72497808933258056641f, -1.4119670391082763672f, -1.6981428861618041992f, -1.2252570390701293945f, -0.91394835710525512695f, -0.22515118122100830078f, 1.0584454536437988281f, 1.5545828342437744141f, -0.25254788994789123535f, -0.68643409013748168945f, -1.2341318130493164062f, -0.88566935062408447266f, 0.96937310695648193359f, 0.37043944001197814941f, -0.26089757680892944336f, -0.14676059782505035400f, -0.65538722276687622070f, -0.43182036280632019043f, -0.066696189343929290771f, 0.23953782021999359131f, -0.33612164855003356934f, -0.32198005914688110352f, -0.33003374934196472168f, -0.028911100700497627258f, -0.34688603878021240234f, -0.57941704988479614258f, -0.38078629970550537109f},
    {-0.99060714244842529297f, 0.36100807785987854004f, 0.48806086182594299316f, -0.057989504188299179077f, 0.096737585961818695068f, -0.41391530632972717285f, -2.0564818382263183594f, -1.7559272050857543945f, -0.42545294761657714844f, 0.24295358359813690186f, 0.95379769802093505859f, 0.046524517238140106201f, -0.89678770303726196289f, -1.1946917772293090820f, -0.52402561902999877930f, 0.75997054576873779297f, 1.5818753242492675781f, 2.2833297252655029297f, 1.6104576587677001953f, 0.63475275039672851562f, 0.050979726016521453857f, 0.28012678027153015137f, 0.020114419981837272644f, -0.92618191242218017578f, -0.89686632156372070312f, -0.12011082470417022705f, 0.069443367421627044678f, 0.26539021730422973633f, 0.10147269815206527710f, 0.10474021732807159424f, 0.096315793693065643311f, -0.71391040086746215820f},
    {0.24836161732673645020f, -0.40219220519065856934f, -1.8195705413818359375f, -1.3486300706863403320f, -0.24209079146385192871f, -0.25592902302742004395f, 0.63952594995498657227f, 1.8092628717422485352f, 0.15800073742866516113f, 0.030648013576865196228f, -0.27077218890190124512f, -0.97829484939575195312f, -0.33603334426879882812f, 0.57289123535156250000f, 0.98082602024078369141f, 1.5386379957199096680f, 0.53284376859664916992f, -0.43827912211418151855f, 0.071498736739158630371f, 0.38355216383934020996f, 0.068639785051345825195f, -0.16139234602451324463f, 0.81122273206710815430f, 1.4066075086593627930f, 0.41710373759269714355f, 1.4658067226409912109f, 2.0491001605987548828f, 0.77752673625946044922f, 0.25890251994132995605f, -0.17799307405948638916f, 0.024638097733259201050f, 0.61238473653793334961f},
    {0.25152388215065002441f, 0.063357636332511901855f, -0.13355533778667449951f, -0.013355180621147155762f, -0.029435982927680015564f, 0.49776616692543029785f, 0.068566799163818359375f, -0.53308826684951782227f, -0.062734656035900115967f, -0.55278027057647705078f, -0.31591799855232238770f, 0.083775624632835388184f, -0.22472569346427917480f, 0.091547228395938873291f, 0.72214078903198242188f, 0.65330189466476440430f, 0.58542382717132568359f, 0.22816637158393859863f, 0.18042966723442077637f, -0.38746455311775207520f, -0.24104012548923492432f, 0.12147263437509536743f, 0.019895385950803756714f, 0.42065918445587158203f, 0.67447006702423095703f, 0.88543081283569335938f, 0.57225245237350463867f, 1.0193942785263061523f, 0.73889863491058349609f, 0.74847966432571411133f, 0.49440544843673706055f, -0.19881328940391540527f},
    {0.28092387318611145020f, -0.47862052917480468750f, -0.20204554498195648193f, -1.8742645978927612305f, -1.6395934820175170898f, -0.72801911830902099609f, 0.33591356873512268066f, 1.1155525445938110352f, 0.77669817209243774414f, 1.3762966394424438477f, 1.8966549634933471680f, 1.7314862012863159180f, 0.30504807829856872559f, -0.29833644628524780273f, 0.20795899629592895508f, 1.6503655910491943359f, 1.7893227338790893555f, 1.1401612758636474609f, 0.54176545143127441406f, -0.069270104169845581055f, -0.75664532184600830078f, -0.23891635239124298096f, -0.33768808841705322266f, -0.43692228198051452637f, 0.54051440954208374023f, -0.44956457614898681641f, 0.18095467984676361084f, 0.063632413744926452637f, 0.74033021926879882812f, 0.59363955259323120117f, 0.53257650136947631836f, 0.44663861393928527832f},
    {0.33152163028717041016f, -0.63472044467926025391f, 0.89298009872436523438f, 1.4042416810989379883f, 2.1323461532592773438f, 2.5457854270935058594f, 0.91915154457092285156f, -2.1611025333404541016f, -2.5738027095794677734f, -0.13363914191722869873f, -0.066270343959331512451f, -0.13095536828041076660f, -0.68725484609603881836f, -0.42289325594902038574f, -0.72583496570587158203f, -0.77034515142440795898f, -0.73168367147445678711f, -0.20056481659412384033f, 0.29408752918243408203f, 0.37401729822158813477f, 0.28645810484886169434f, 0.14036960899829864502f, 0.37104520201683044434f, -0.14454565942287445068f, 0.43183934688568115234f, 0.014341112226247787476f, 0.35604178905487060547f, -0.16906036436557769775f, 0.64894539117813110352f, 0.29287007451057434082f, 0.34628403186798095703f, -0.46055528521537780762f},
    {-0.19937239587306976318f, 1.5105324983596801758f, 0.13433697819709777832f, -0.53829240798950195312f, -1.6506265401840209961f, -2.0192997455596923828f, -1.2330965995788574219f, 0.43194195628166198730f, 1.0055027008056640625f, 0.22530682384967803955f, -0.50966221094131469727f, -1.7233648300170898438f, -2.0195195674896240234f, -0.93996059894561767578f, 0.23954443633556365967f, 0.51759177446365356445f, 0.40794667601585388184f, 0.47736176848411560059f, 1.4619281291961669922f, 1.4617639780044555664f, 0.55389940738677978516f, 0.15312695503234863281f, 0.43466809391975402832f, -0.049543984234333038330f, -0.30584466457366943359f, 0.21933148801326751709f, 0.20375876128673553467f, -0.11266551911830902100f, 0.019858440384268760681f, -0.064193889498710632324f, -0.10754396766424179077f, 0.93926972150802612305f},
    {-0.054135426878929138184f, 0.86197900772094726562f, -0.24187156558036804199f, -0.097398377954959869385f, 0.39768618345260620117f, 0.55611228942871093750f, 0.87152707576751708984f, -0.039899524301290512085f, -0.22587358951568603516f, 0.020697087049484252930f, 1.1219115257263183594f, 2.7613143920898437500f, 2.0043900012969970703f, -0.27585953474044799805f, -2.5316827297210693359f, -2.2096531391143798828f, -1.7540607452392578125f, -0.91864025592803955078f, -0.20349106192588806152f, -0.23090042173862457275f, -0.73400282859802246094f, -0.37529066205024719238f, -0.081328310072422027588f, 0.74705165624618530273f, 0.012017104774713516235f, -0.33877882361412048340f, 0.10460449755191802979f, 0.37238222360610961914f, 0.26218324899673461914f, 0.23882783949375152588f, -0.11314402520656585693f, 0.26301240921020507812f},
    {1.5725015401840209961f, 2.8037824630737304688f, -0.54314708709716796875f, -1.8807988166809082031f, -0.65793049335479736328f, 0.31134432554244995117f, 1.7757605314254760742f, 0.55949383974075317383f, 0.39692297577857971191f, 1.8551855087280273438f, 2.0913057327270507812f, 2.2846722602844238281f, 1.2646157741546630859f, 0.51847600936889648438f, -0.024287674576044082642f, -1.1171261072158813477f, -1.6934473514556884766f, -1.9290187358856201172f, -0.88806188106536865234f, -0.58794111013412475586f, -1.0673640966415405273f, -0.59715551137924194336f, 0.48015102744102478027f, 0.88919270038604736328f, -0.28871050477027893066f, -0.92920881509780883789f, -0.47565618157386779785f, -0.58189475536346435547f, -0.31962424516677856445f, 0.17840501666069030762f, -0.58290565013885498047f, -0.41994532942771911621f},
    {-0.11444794386625289917f, -0.0090537965297698974609f, -0.0042808232828974723816f, -0.76520895957946777344f, -0.46891960501670837402f, -0.43373063206672668457f, 1.0781869888305664062f, 1.5283545255661010742f, 0.55331945419311523438f, -0.032824803143739700317f, -1.2576624155044555664f, -1.9633339643478393555f, -2.5459475517272949219f, -1.6274359226226806641f, 0.28379541635513305664f, 1.8056501150131225586f, 2.3800804615020751953f, 1.7568378448486328125f, 1.2599825859069824219f, 1.0311305522918701172f, 0.024423172697424888611f, -0.47240427136421203613f, 0.026949042454361915588f, -0.49225300550460815430f, -0.12091611325740814209f, 0.099272117018699645996f, 0.056171674281358718872f, -0.27391827106475830078f, 0.072063133120536804199f, -0.30225753784179687500f, -0.21098269522190093994f, 0.12822930514812469482f},
    {1.0179655551910400391f, 1.1629527807235717773f, -0.66513788700103759766f, -1.1335521936416625977f, -0.98931133747100830078f, -0.40393131971359252930f, 0.44368100166320800781f, 1.3948082923889160156f, 0.97587722539901733398f, 1.2011643648147583008f, 0.47741320729255676270f, 0.13090758025646209717f, 1.1811704635620117188f, 2.0422885417938232422f, 1.1342877149581909180f, 0.42151609063148498535f, 0.58002901077270507812f, 1.0230171680450439453f, 1.6717004776000976562f, 0.23624013364315032959f, -0.61209511756896972656f, 0.79167038202285766602f, 1.2617720365524291992f, 0.55253183841705322266f, 0.023526018485426902771f, -0.069596171379089355469f, -1.5044168233871459961f, -1.2984594106674194336f, -0.028456063941121101379f, 1.0148786306381225586f, 1.3433486223220825195f, 1.0512121915817260742f},
    {0.57723563909530639648f, -1.1962829828262329102f, -1.6138279438018798828f, -0.38915199041366577148f, 0.66610980033874511719f, 1.1503648757934570312f, 0.33199930191040039062f, -1.0586977005004882812f, -1.1402789354324340820f, -0.81379157304763793945f, -1.2361580133438110352f, -1.0426937341690063477f, -0.35690450668334960938f, -0.71690815687179565430f, -1.0062978267669677734f, -1.1255828142166137695f, -0.39361307024955749512f, 1.3151893615722656250f, 0.87229394912719726562f, 0.10963026434183120728f, 0.24292771518230438232f, 0.88260906934738159180f, 0.92827302217483520508f, 0.40604299306869506836f, 0.69461572170257568359f, 0.67511814832687377930f, -0.084772631525993347168f, -0.11953105777502059937f, 0.71198987960815429688f, 0.52395457029342651367f, 0.36212709546089172363f, 0.65208792686462402344f},
    {-0.38159599900245666504f, -0.18121968209743499756f, -1.8187743425369262695f, -2.0332429409027099609f, -1.5144840478897094727f, -1.1254307031631469727f, -0.94168430566787719727f, -1.5622481107711791992f, -1.0004056692123413086f, -0.97556710243225097656f, -0.72350782155990600586f, -1.1339405775070190430f, -0.81563842296600341797f, -0.41008377075195312500f, -0.25570893287658691406f, -0.17955020070075988770f, 0.23198631405830383301f, -0.70956587791442871094f, -0.28199556469917297363f, -0.53238356113433837891f, -0.67598032951354980469f, 0.097776062786579132080f, 0.023858366534113883972f, 0.40365973114967346191f, 0.19069638848304748535f, 0.44158053398132324219f, 0.73698192834854125977f, 1.0784177780151367188f, 1.3144439458847045898f, 1.5009980201721191406f, 1.3863127231597900391f, 2.9874765872955322266f},
    {0.23933583498001098633f, 1.1773954629898071289f, 0.40512844920158386230f, 1.1068862676620483398f, 1.1259274482727050781f, -0.32012304663658142090f, -1.0826686620712280273f, -1.0739542245864868164f, -1.3814595937728881836f, -0.55569314956665039062f, 0.11334706097841262817f, 0.71641659736633300781f, 0.0071080252528190612793f, 0.037167988717555999756f, 0.77390617132186889648f, -0.20779320597648620605f, -0.79609817266464233398f, 0.12518733739852905273f, -0.23557886481285095215f, -0.77353638410568237305f, 0.047847315669059753418f, -0.068158239126205444336f, -0.25599196553230285645f, -0.38409191370010375977f, -0.89469957351684570312f, -0.65857893228530883789f, -0.20597393810749053955f, -1.8011741638183593750f, -0.73900240659713745117f, -0.48815077543258666992f, -1.2290623188018798828f, -1.5972125530242919922f},
    {-0.77469009160995483398f, -0.073962591588497161865f, 1.0427051782608032227f, 1.9683449268341064453f, 2.3732309341430664062f, 2.3754589557647705078f, 0.28633379936218261719f, -2.6221365928649902344f, -2.5672581195831298828f, -0.84995359182357788086f, -1.3895478248596191406f, -0.85106664896011352539f, -0.33175200223922729492f, -0.34329932928085327148f, -0.29319718480110168457f, -0.52725917100906372070f, -0.096717149019241333008f, 1.1883643865585327148f, 0.82290393114089965820f, 1.1669669151306152344f, 1.9428757429122924805f, 0.71934831142425537109f, -0.45199808478355407715f, -0.76555579900741577148f, 0.41658848524093627930f, 0.84337097406387329102f, -0.023958055302500724792f, -0.56673049926757812500f, 0.062608540058135986328f, -0.34034830331802368164f, -0.33305993676185607910f, -0.24216362833976745605f},
    {-1.6039919853210449219f, -0.75828313827514648438f, 1.4599275588989257812f, 0.72118270397186279297f, -0.69610536098480224609f, -1.2294609546661376953f, -1.5599852800369262695f, -0.77747112512588500977f, -0.77582955360412597656f, -0.91694790124893188477f, -0.70410460233688354492f, -0.69713950157165527344f, -0.67096042633056640625f, 0.69154721498489379883f, 1.4913049936294555664f, 1.3081858158111572266f, 1.1444292068481445312f, 0.86203235387802124023f, -0.75741308927536010742f, 0.053664728999137878418f, 1.1931924819946289062f, 0.82262307405471801758f, 0.73134285211563110352f, -0.097748249769210815430f, -0.27153393626213073730f, -0.0079228458926081657410f, 0.16520406305789947510f, -0.25710296630859375000f, -0.59962165355682373047f, 0.027201261371374130249f, -0.25397902727127075195f, -1.1429606676101684570f},
    {1.2116050720214843750f, 0.99724447727203369141f, 2.2184903621673583984f, 1.1304574012756347656f, 0.31246957182884216309f, -0.29055190086364746094f, -1.7828912734985351562f, -1.2853612899780273438f, 0.67851173877716064453f, -0.20897611975669860840f, -0.25350248813629150391f, -0.91354411840438842773f, 0.031265579164028167725f, 0.62800443172454833984f, 1.3264676332473754883f, 0.88371992111206054688f, 1.0768378973007202148f, 1.3687373399734497070f, 0.25444585084915161133f, -0.40035635232925415039f, 0.82792907953262329102f, 1.3823493719100952148f, 0.35574463009834289551f, 0.21381194889545440674f, 0.84195798635482788086f, 0.85754907131195068359f, 0.79291981458663940430f, -0.058825053274631500244f, 0.13872548937797546387f, 1.0111202001571655273f, 1.2128491401672363281f, 0.39693191647529602051f},
    {1.8182361125946044922f, 0.055517151951789855957f, 0.22770982980728149414f, -0.44399467110633850098f, -0.75917738676071166992f, 0.71880924701690673828f, 0.34318593144416809082f, -0.60415083169937133789f, -1.8689359426498413086f, -1.7044880390167236328f, -0.028632307425141334534f, 0.39696085453033447266f, -0.074615709483623504639f, -0.66192740201950073242f, 0.25480434298515319824f, 0.45272648334503173828f, -0.30686014890670776367f, 0.92691910266876220703f, 0.23894460499286651611f, -1.3254619836807250977f, -1.0405036211013793945f, -1.0379877090454101562f, -0.048976793885231018066f, 0.12360265105962753296f, 0.10118132829666137695f, 0.50887310504913330078f, -0.26876404881477355957f, -0.058201171457767486572f, -0.15589115023612976074f, 0.085468016564846038818f, -0.040842786431312561035f, -1.2525181770324707031f},
    {0.32692283391952514648f, 0.62400257587432861328f, 0.50970870256423950195f, 0.26723423600196838379f, -0.093149393796920776367f, 0.0045585120096802711487f, 0.10260497778654098511f, 0.99196279048919677734f, 1.4415411949157714844f, 0.42805844545364379883f, -0.16979283094406127930f, 0.28207561373710632324f, 1.5889012813568115234f, 1.4748213291168212891f, 0.46351981163024902344f, -0.82618039846420288086f, -1.7990839481353759766f, -1.6023437976837158203f, -0.18392851948738098145f, -0.048298485577106475830f, 0.077599160373210906982f, 0.52513504028320312500f, 0.43404021859169006348f, -0.038710176944732666016f, -0.51655936241149902344f, -1.0518295764923095703f, -0.89237481355667114258f, -0.98134917020797729492f, -0.75265824794769287109f, -0.71265709400177001953f, -1.3439689874649047852f, -1.2788612842559814453f},
    {-0.052896589040756225586f, 0.069763213396072387695f, 0.76008415222167968750f, 1.0109685659408569336f, 0.97855949401855468750f, 0.36789953708648681641f, -1.0036547183990478516f, -1.3147273063659667969f, -0.31810325384140014648f, 0.73814368247985839844f, 0.27040749788284301758f, -0.12507802248001098633f, -0.42763477563858032227f, -1.2748076915740966797f, -1.7095528841018676758f, -1.2532601356506347656f, -1.0919121503829956055f, -0.040703948587179183960f, -0.16768412292003631592f, -0.47604814171791076660f, -0.11285455524921417236f, 0.27496376633644104004f, -0.0016053809085860848427f, -0.56691217422485351562f, -0.85211926698684692383f, -0.73054414987564086914f, 0.19964766502380371094f, -0.10700645297765731812f, 0.24710935354232788086f, 0.68369358777999877930f, 0.31534382700920104980f, -0.27226024866104125977f},
    {-0.75993537902832031250f, -0.0055703655816614627838f, -1.0465382337570190430f, -0.65826815366744995117f, -1.0266692638397216797f, -1.3033787012100219727f, -0.87586075067520141602f, 1.2852917909622192383f, 2.0555019378662109375f, 0.28853267431259155273f, -1.1263418197631835938f, -1.2736220359802246094f, 0.25726002454757690430f, 1.6705225706100463867f, 1.7458724975585937500f, 0.87550497055053710938f, -0.36065942049026489258f, -1.1944991350173950195f, -0.068212427198886871338f, 1.1982890367507934570f, 0.40442004799842834473f, -0.49404007196426391602f, -0.28506484627723693848f, 0.20195579528808593750f, 0.27624157071113586426f, 0.48227509856224060059f, 0.56745052337646484375f, 0.022320060059428215027f, 0.43858641386032104492f, 0.65903228521347045898f, 0.45544275641441345215f, 0.28654232621192932129f},
    {-0.22090329229831695557f, -0.093297094106674194336f, -0.77420884370803833008f, -0.50977712869644165039f, 0.19649504125118255615f, 0.35222008824348449707f, 0.17915055155754089355f, -1.0452725887298583984f, -0.86131435632705688477f, -0.17481148242950439453f, -0.12105306237936019897f, -0.99468070268630981445f, -1.0564138889312744141f, -0.75620889663696289062f, -0.92888140678405761719f, -0.83898097276687622070f, -0.29043272137641906738f, -0.18362998962402343750f, 0.23195707798004150391f, 0.86601114273071289062f, 0.28796234726905822754f, 0.40130183100700378418f, 0.59639722108840942383f, 0.88076716661453247070f, 0.41538721323013305664f, 1.0583273172378540039f, 1.3185915946960449219f, 1.4211269617080688477f, 1.4391603469848632812f, 1.8651410341262817383f, 1.5563620328903198242f, 1.9563277959823608398f},
    {0.36943143606185913086f, -0.95741212368011474609f, -1.7104865312576293945f, -0.78053140640258789062f, 0.35548576712608337402f, -0.48846036195755004883f, -0.20303757488727569580f, 0.67668771743774414062f, -0.079951487481594085693f, -0.045981314033269882202f, -0.36483937501907348633f, -1.0218808650970458984f, 0.074711613357067108154f, 0.30475044250488281250f, 0.64599680900573730469f, 0.85774761438369750977f, 0.24198022484779357910f, -0.38203623890876770020f, 0.34002047777175903320f, 0.47081011533737182617f, -0.61553454399108886719f, 0.16108837723731994629f, 1.0774903297424316406f, 1.7629817724227905273f, 0.62406736612319946289f, -0.18643307685852050781f, 1.3476020097732543945f, 1.1498041152954101562f, 0.66650348901748657227f, -0.23695887625217437744f, -0.82673704624176025391f, -0.13055807352066040039f},
    {-0.98604679107666015625f, -0.10926433652639389038f, 0.36681500077247619629f, 1.4542266130447387695f, 1.8796193599700927734f, 1.2087137699127197266f, -0.51634418964385986328f, -1.9814523458480834961f, -1.9151847362518310547f, -1.3986946344375610352f, -1.3122677803039550781f, -0.78398144245147705078f, 0.29999926686286926270f, 0.90430551767349243164f, 0.73039776086807250977f, 0.36330226063728332520f, 0.053788632154464721680f, 0.42560389637947082520f, 0.53562527894973754883f, 0.64519190788269042969f, 1.0300480127334594727f, -0.20689474046230316162f, -0.79272079467773437500f, -0.71106523275375366211f, -0.11421717703342437744f, -0.43182671070098876953f, -0.71242505311965942383f, -0.94925475120544433594f, 0.65263223648071289062f, 0.49818181991577148438f, 0.026991670951247215271f, -0.31848576664924621582f},
    {-0.86079549789428710938f, -1.0791890621185302734f, 1.2510710954666137695f, 1.3682960271835327148f, 0.39592549204826354980f, 1.4519779682159423828f, 0.85096472501754760742f, 1.1893475055694580078f, 0.82921558618545532227f, 1.5046608448028564453f, 1.2139711380004882812f, 0.27470633387565612793f, -0.26233685016632080078f, 0.77184230089187622070f, 0.51782280206680297852f, 0.46743389964103698730f, 0.58960282802581787109f, -0.12193652987480163574f, -0.28607502579689025879f, 0.73140799999237060547f, 0.66956639289855957031f, -0.19536028802394866943f, -0.12787099182605743408f, 0.23123964667320251465f, -0.098843120038509368896f, -0.69484066963195800781f, -0.60561239719390869141f, -0.78608536720275878906f, -1.3871998786926269531f, -1.4639390707015991211f, -0.91861075162887573242f, -1.0368388891220092773f},
    {0.61220037937164306641f, 0.61994165182113647461f, 1.3174504041671752930f, 1.7872732877731323242f, 0.52766448259353637695f, -1.0643110275268554688f, -2.7066397666931152344f, -1.9555125236511230469f, -1.3670583963394165039f, -1.7343380451202392578f, -2.1092090606689453125f, -1.2646567821502685547f, 0.091860182583332061768f, 0.76353436708450317383f, 0.68868148326873779297f, 0.14969548583030700684f, -0.41202166676521301270f, 1.1414153575897216797f, 1.2703565359115600586f, -0.48212462663650512695f, 0.51336944103240966797f, 0.78217637538909912109f, -0.35948124527931213379f, -0.71547889709472656250f, -0.016713326796889305115f, -0.11012897640466690063f, -0.56373727321624755859f, -1.0293881893157958984f, -0.27926748991012573242f, 0.15344308316707611084f, -0.19377024471759796143f, 1.0677397251129150391f},
    {-0.053132858127355575562f, -0.51399487257003784180f, -0.31903296709060668945f, 0.47663781046867370605f, 0.11689072847366333008f, -0.049217939376831054688f, -0.38377016782760620117f, 0.24063956737518310547f, 0.90094989538192749023f, 0.054460830986499786377f, 1.1753426790237426758f, 0.76560276746749877930f, 1.1429023742675781250f, 0.85226958990097045898f, 0.35675215721130371094f, -0.59517979621887207031f, -1.0639225244522094727f, -1.2418146133422851562f, 0.79058235883712768555f, 1.3443472385406494141f, 0.92069387435913085938f, 1.0134854316711425781f, 1.3753684759140014648f, 2.3702502250671386719f, 0.060400310903787612915f, -0.74929571151733398438f, 0.99196863174438476562f, 0.77091318368911743164f, -0.68885177373886108398f, -0.89226740598678588867f, -0.42936140298843383789f, 0.71900528669357299805f},
    {-0.50498062372207641602f, 0.10537601262331008911f, 0.012518944218754768372f, 0.90098023414611816406f, 0.27639684081077575684f, -0.31748524308204650879f, 0.15983034670352935791f, 0.50112563371658325195f, -0.37592667341232299805f, -0.037288941442966461182f, -1.2706311941146850586f, -0.82891958951950073242f, 0.34561061859130859375f, 0.49043357372283935547f, 0.88508445024490356445f, 0.58777511119842529297f, 0.31954294443130493164f, 1.2210731506347656250f, 1.7026261091232299805f, 1.0489319562911987305f, 1.7456259727478027344f, 0.84471166133880615234f, 0.60675871372222900391f, -0.040623918175697326660f, -0.26972737908363342285f, -1.1901776790618896484f, -1.7166779041290283203f, -2.0615141391754150391f, -1.7516660690307617188f, -2.0049982070922851562f, -1.1235803365707397461f, -0.18080048263072967529f},
    {-0.51423001289367675781f, 1.3338882923126220703f, 1.6674579381942749023f, 0.72460955381393432617f, -0.86229360103607177734f, -2.2754416465759277344f, -2.3478763103485107422f, 0.15872968733310699463f, 2.7305605411529541016f, 2.1268272399902343750f, 1.7060978412628173828f, 0.89031034708023071289f, 1.1449528932571411133f, 0.92594158649444580078f, 0.14122229814529418945f, -0.19833499193191528320f, -0.87378388643264770508f, -0.11524200439453125000f, 0.28460568189620971680f, 0.094645075500011444092f, 0.097871020436286926270f, 0.30763062834739685059f, 0.84593415260314941406f, 0.34192705154418945312f, -0.42760232090950012207f, 0.29600766301155090332f, 0.23132121562957763672f, 0.15556983649730682373f, 0.032161526381969451904f, 0.24353949725627899170f, 0.45510306954383850098f, -0.72511678934097290039f},
    {-0.14843448996543884277f, 1.0794926881790161133f, 0.77930045127868652344f, 1.7437775135040283203f, 0.30717560648918151855f, -1.5796401500701904297f, -2.1223981380462646484f, -1.2741564512252807617f, -0.52595210075378417969f, -0.54352837800979614258f, 0.71619540452957153320f, 1.7173008918762207031f, 1.3327124118804931641f, -0.075481876730918884277f, -0.65431475639343261719f, -0.42074537277221679688f, -0.52656692266464233398f, 0.92350965738296508789f, -0.66023141145706176758f, -1.8092166185379028320f, -0.33423921465873718262f, -0.010479478165507316589f, -0.13331606984138488770f, -0.26072916388511657715f, -1.0132824182510375977f, -0.91924995183944702148f, -0.39922305941581726074f, 0.010323432274162769318f, -0.039528615772724151611f, -0.11290868371725082397f, -0.43406435847282409668f, 0.98994272947311401367f},
    {1.1150897741317749023f, 0.36270737648010253906f, -0.84966176748275756836f, 0.40010410547256469727f, 1.0730290412902832031f, 0.44234117865562438965f, 0.82901048660278320312f, 1.3625583648681640625f, 1.1030640602111816406f, 0.40756824612617492676f, 0.11714641004800796509f, 0.25074595212936401367f, 0.76969105005264282227f, 0.29858377575874328613f, -0.25124996900558471680f, -0.72536653280258178711f, -1.0696281194686889648f, -0.62227606773376464844f, -0.074507817625999450684f, -0.30784767866134643555f, -0.22413894534111022949f, -0.41100355982780456543f, 0.17008790373802185059f, -0.17620237171649932861f, -0.32118716835975646973f, -0.84594839811325073242f, -1.3251231908798217773f, -1.4754762649536132812f, -1.2123548984527587891f, -0.78974437713623046875f, -0.49385133385658264160f, 0.42472746968269348145f},
    {-0.48631107807159423828f, 0.53424435853958129883f, 1.1768597364425659180f, 1.5163823366165161133f, 2.2743923664093017578f, 2.3907995223999023438f, 1.7950452566146850586f, -0.17405593395233154297f, -1.4993062019348144531f, -1.7647087574005126953f, -0.69849467277526855469f, -0.28750932216644287109f, -0.87809187173843383789f, -0.74506497383117675781f, 0.034073770046234130859f, 0.42930534482002258301f, 0.17693209648132324219f, 0.55350416898727416992f, 0.33969169855117797852f, -0.23315519094467163086f, -0.47769230604171752930f, -0.50053268671035766602f, 0.46758016943931579590f, 1.2709295749664306641f, 0.65756958723068237305f, -0.31219506263732910156f, 0.22405850887298583984f, -0.20853598415851593018f, 0.36091122031211853027f, -0.14331573247909545898f, -0.62477904558181762695f, 0.54179990291595458984f},
    {-0.81902587413787841797f, 0.57027965784072875977f, 0.74720984697341918945f, 0.82586699724197387695f, 0.26277264952659606934f, -0.45786997675895690918f, -0.24891892075538635254f, 0.32641315460205078125f, 0.27779465913772583008f, -1.4106938838958740234f, -2.6782622337341308594f, -0.61660456657409667969f, 2.1648266315460205078f, 0.49589040875434875488f, -2.8415055274963378906f, -2.6468880176544189453f, -1.0116400718688964844f, 0.098908714950084686279f, 0.91738319396972656250f, 1.3053469657897949219f, -0.42410638928413391113f, -0.33909970521926879883f, 0.91534924507141113281f, 0.35562008619308471680f, -0.76424598693847656250f, -0.45626720786094665527f, -0.40918815135955810547f, 0.0022889529354870319366f, 0.34824138879776000977f, 0.063475191593170166016f, -0.21376204490661621094f, -0.52655500173568725586f},
    {0.36887767910957336426f, 0.43834841251373291016f, 0.32274624705314636230f, -0.48706138134002685547f, 0.11913216114044189453f, 0.51678007841110229492f, 0.012026138603687286377f, 0.18337839841842651367f, -0.021724320948123931885f, 0.58576387166976928711f, 0.96286916732788085938f, 0.72941416501998901367f, 2.3078501224517822266f, 0.88988965749740600586f, -0.14791962504386901855f, 0.82310217618942260742f, 1.1906141042709350586f, 1.1418817043304443359f, -0.062590718269348144531f, -0.21247640252113342285f, 0.0031699768733233213425f, -0.14287488162517547607f, 0.075157627463340759277f, 0.42489549517631530762f, 0.037348564714193344116f, -0.070822879672050476074f, -0.0064592873677611351013f, -0.50993865728378295898f, -0.63767325878143310547f, -1.0472034215927124023f, -0.85645782947540283203f, -0.87421214580535888672f},
    {0.29583778977394104004f, -0.45951339602470397949f, -0.63225656747817993164f, -0.015799529850482940674f, 0.19531941413879394531f, 0.96026343107223510742f, 1.2134201526641845703f, 0.21949554979801177979f, -0.61595815420150756836f, -0.64215064048767089844f, 0.15972486138343811035f, -0.099629856646060943604f, -0.55186432600021362305f, -1.1137752532958984375f, -0.71749222278594970703f, 1.9070888757705688477f, 2.4746272563934326172f, 0.94943201541900634766f, -0.27342206239700317383f, 0.10533837229013442993f, 0.56716382503509521484f, 0.24631026387214660645f, 0.31448695063591003418f, 0.17274910211563110352f, 0.94569766521453857422f, 1.8867602348327636719f, 2.0573894977569580078f, 0.64526271820068359375f, 0.51868486404418945312f, -0.13626234233379364014f, -0.22012165188789367676f, 0.49372678995132446289f},
    {-0.17259329557418823242f, 0.26320198178291320801f, 0.41482013463973999023f, 1.2146590948104858398f, 1.4718850851058959961f, 1.0653488636016845703f, 1.1626098155975341797f, 0.61885505914688110352f, 0.30786931514739990234f, 1.2281916141510009766f, 1.1683275699615478516f, 0.24864585697650909424f, -0.15490522980690002441f, -0.34445980191230773926f, -0.18288721144199371338f, 0.76777642965316772461f, 0.73395437002182006836f, -0.079625889658927917480f, 0.058587197214365005493f, 0.37213224172592163086f, -0.074343033134937286377f, 0.87281227111816406250f, 0.63420408964157104492f, 0.35723477602005004883f, 1.1324908733367919922f, 0.23364521563053131104f, 0.19407884776592254639f, -0.10826167464256286621f, -0.089756093919277191162f, -0.14685830473899841309f, 0.054640684276819229126f, -0.23955783247947692871f},
