// This file is computer-generated by onnx2c 
// (TODO: add creating command line here)
// (TODO: print creation date here )

// ONNX model:
// produced by pytorch, version 2.3.1
// ONNX IR version: 17
// Model documentation: 
/*

*/

#include <float.h>
#include <math.h>
#include <stdbool.h>
#include <stdint.h>
#include <string.h>
#define MAX(X,Y) ( X > Y ? X : Y)
#define MIN(X,Y) ( X < Y ? X : Y)
#define CLIP(X,L) ( MAX(MIN(X,L), -L) )

static const float tensor_fc_bias[6] = 
{1.0455051660537719727f, -0.31912764906883239746f, -1.3859519958496093750f, -0.34263497591018676758f, -1.0097858905792236328f, -0.75446379184722900391f};
static const float tensor_onnx__LSTM_195[1][256][32] = 
{
  {
    {-0.12046801298856735229f, 0.19120663404464721680f, 0.73921960592269897461f, 1.3529449701309204102f, 0.78173828125000000000f, -0.17340885102748870850f, -0.18793869018554687500f, 0.27841177582740783691f, 0.37602758407592773438f, -0.58707392215728759766f, -0.98746407032012939453f, -0.099235028028488159180f, 0.0060007730498909950256f, -0.53884798288345336914f, -0.66110038757324218750f, -0.26066511869430541992f, -0.32819384336471557617f, 0.40686604380607604980f, 0.45640799403190612793f, 0.12804478406906127930f, 0.19163912534713745117f, 0.59595197439193725586f, 0.52752465009689331055f, -0.20602858066558837891f, -0.43623495101928710938f, -0.24592776596546173096f, -0.51903992891311645508f, -0.58170050382614135742f, -0.73147386312484741211f, -1.1899231672286987305f, -1.1532185077667236328f, -1.3947286605834960938f},
    {0.36174702644348144531f, -0.066562667489051818848f, 0.40183642506599426270f, 0.78969788551330566406f, 0.50192451477050781250f, 1.0314006805419921875f, 1.1226643323898315430f, 0.80921190977096557617f, 1.8915125131607055664f, 1.7087359428405761719f, 0.85841178894042968750f, 0.80440646409988403320f, 0.18126139044761657715f, -0.64253169298171997070f, -0.061203535646200180054f, -0.25089234113693237305f, -0.29564380645751953125f, 0.45705866813659667969f, 1.2459911108016967773f, 1.0464656352996826172f, 0.34071514010429382324f, 0.30480322241783142090f, 0.59631067514419555664f, -0.054487776011228561401f, -0.16269560158252716064f, -0.071008436381816864014f, -0.28725105524063110352f, -1.0949161052703857422f, -1.0788005590438842773f, -0.51307129859924316406f, -0.22170460224151611328f, -1.3012135028839111328f},
    {-0.77302521467208862305f, 0.26208695769309997559f, -0.25488221645355224609f, 0.33737093210220336914f, 0.32655715942382812500f, -0.34263929724693298340f, -0.096548266708850860596f, 0.14116421341896057129f, -0.77583646774291992188f, -0.96620255708694458008f, -0.25296944379806518555f, 0.63632929325103759766f, 1.0793240070343017578f, 0.68962693214416503906f, 0.75346618890762329102f, 0.55458122491836547852f, 0.99216836690902709961f, 0.76344484090805053711f, -1.2940201759338378906f, -1.5366438627243041992f, -1.2392351627349853516f, -0.73712116479873657227f, -0.45689696073532104492f, -1.1255789995193481445f, -0.68800312280654907227f, -0.74291664361953735352f, -0.99099040031433105469f, -0.12624901533126831055f, -0.27109175920486450195f, 0.13643272221088409424f, 0.47594630718231201172f, 1.0246788263320922852f},
    {0.60280096530914306641f, 0.39717248082160949707f, -0.90749776363372802734f, -1.3016262054443359375f, -1.1347513198852539062f, -1.7063778638839721680f, -1.2344123125076293945f, -2.1236455440521240234f, -1.6497383117675781250f, -0.69670206308364868164f, 0.24065417051315307617f, 0.29034218192100524902f, -0.47763168811798095703f, -0.60004705190658569336f, -0.56847733259201049805f, -0.11453872919082641602f, 0.66918939352035522461f, 0.15749388933181762695f, -0.047131691128015518188f, -0.22790500521659851074f, -0.52530348300933837891f, -0.12691412866115570068f, -0.029890276491641998291f, 0.51052844524383544922f, 0.028647420927882194519f, 0.28037849068641662598f, 0.35211247205734252930f, 0.52215850353240966797f, 0.85074424743652343750f, 1.1903314590454101562f, 0.88558948040008544922f, 1.3011952638626098633f},
    {-0.30221557617187500000f, -1.1016904115676879883f, -1.4936754703521728516f, -1.4304450750350952148f, -1.4016239643096923828f, -1.2939969301223754883f, -0.93445998430252075195f, -0.37069329619407653809f, -0.45860141515731811523f, -0.68858349323272705078f, -0.50888955593109130859f, -0.26580283045768737793f, -0.22699186205863952637f, -0.25433447957038879395f, -0.49816724658012390137f, -0.17613735795021057129f, 0.22467523813247680664f, 0.43955582380294799805f, 0.18511280417442321777f, 0.25655606389045715332f, 0.015151685103774070740f, 0.078841000795364379883f, -0.21766684949398040771f, -0.24937945604324340820f, -0.39559328556060791016f, -0.38412103056907653809f, -0.39226052165031433105f, -0.70496875047683715820f, -0.34572643041610717773f, -0.083642549812793731689f, -0.068003073334693908691f, -0.090498127043247222900f},
    {-0.15175640583038330078f, -0.83298540115356445312f, -1.0055397748947143555f, -1.1086763143539428711f, -1.1456702947616577148f, -0.93542081117630004883f, -0.54188156127929687500f, -0.62812125682830810547f, -0.39415338635444641113f, -0.39999511837959289551f, -0.31101879477500915527f, -0.48015591502189636230f, -0.20140427350997924805f, -0.28632307052612304688f, -0.34022042155265808105f, -0.84206098318099975586f, -0.60782605409622192383f, -0.59827440977096557617f, -0.72032576799392700195f, -0.73578780889511108398f, -0.97363495826721191406f, -0.58112156391143798828f, -0.25968235731124877930f, -0.10169252753257751465f, -0.015488428995013237000f, 0.48136878013610839844f, 0.14929941296577453613f, 0.34520789980888366699f, 0.70970666408538818359f, 0.90413033962249755859f, 0.38338097929954528809f, 0.22493828833103179932f},
    {0.27142298221588134766f, -0.22930172085762023926f, 0.71252292394638061523f, 0.85108309984207153320f, 1.0474957227706909180f, 1.5599871873855590820f, 1.3400123119354248047f, -0.10872587561607360840f, -0.45437571406364440918f, 0.35660910606384277344f, 0.78431099653244018555f, 0.14833930134773254395f, -0.46805801987648010254f, -0.88581651449203491211f, -0.81246906518936157227f, -0.78502851724624633789f, -0.50729537010192871094f, -1.2346489429473876953f, -0.93766361474990844727f, -0.48824682831764221191f, -0.0065758018754422664642f, -0.026632912456989288330f, -0.098271988332271575928f, -0.26004388928413391113f, 0.45854762196540832520f, 0.43539553880691528320f, 0.34714657068252563477f, 0.79037582874298095703f, 0.88800138235092163086f, 1.1596200466156005859f, 1.4118636846542358398f, 0.69854861497879028320f},
    {0.021799040958285331726f, -0.011282267980277538300f, 0.68082851171493530273f, 0.64139318466186523438f, 0.16009767353534698486f, 0.084089867770671844482f, -0.39169961214065551758f, -0.27655705809593200684f, 0.68960523605346679688f, -0.18465524911880493164f, -0.80593055486679077148f, -0.46041393280029296875f, -1.1723814010620117188f, -0.31919664144515991211f, 0.20415200293064117432f, -0.22722944617271423340f, 0.35848590731620788574f, 0.30351144075393676758f, 0.80187427997589111328f, 0.89628505706787109375f, 0.82098287343978881836f, -0.25956907868385314941f, -0.31231200695037841797f, 0.84647029638290405273f, 0.91986626386642456055f, 1.5269050598144531250f, 0.77103227376937866211f, 0.77678751945495605469f, 1.8177690505981445312f, 1.1463160514831542969f, 0.75964170694351196289f, 1.1093620061874389648f},
    {0.53944867849349975586f, 1.1450321674346923828f, 1.6814118623733520508f, 1.3142616748809814453f, 0.37464383244514465332f, 0.97880685329437255859f, 1.0839200019836425781f, 1.0427139997482299805f, 1.2844502925872802734f, 1.4200923442840576172f, 1.2023146152496337891f, 1.5335587263107299805f, 1.1516593694686889648f, 0.95462191104888916016f, 1.2321327924728393555f, 0.66127878427505493164f, 0.35424819588661193848f, 0.10435536503791809082f, -0.10932698100805282593f, 0.040068987756967544556f, 0.23928993940353393555f, -0.27917981147766113281f, 0.058013670146465301514f, 0.38450658321380615234f, 0.064986974000930786133f, -0.023708881810307502747f, -0.22182974219322204590f, -0.42981311678886413574f, -0.28423374891281127930f, -0.32458555698394775391f, -0.14371077716350555420f, -0.25171530246734619141f},
    {0.071774445474147796631f, -0.21458066999912261963f, -0.42148843407630920410f, -0.13739325106143951416f, 0.51809519529342651367f, 0.60621970891952514648f, 0.90460151433944702148f, 0.41324606537818908691f, 0.21000339090824127197f, -0.70573413372039794922f, -0.71422237157821655273f, -0.52095967531204223633f, -0.64988744258880615234f, -0.77203387022018432617f, -0.52968686819076538086f, -1.2640676498413085938f, -1.7966008186340332031f, -2.1099126338958740234f, -1.6689410209655761719f, -0.053404215723276138306f, 0.22379338741302490234f, 0.044035490602254867554f, 0.14990334212779998779f, 0.67009365558624267578f, 0.87926936149597167969f, 0.20870773494243621826f, 0.66163390874862670898f, 1.0284328460693359375f, 0.66023373603820800781f, 0.43741592764854431152f, 0.087833903729915618896f, 0.91941332817077636719f},
    {1.0543423891067504883f, 0.045425157994031906128f, -0.76877814531326293945f, -0.30158263444900512695f, 0.050882603973150253296f, -0.33371078968048095703f, -0.47768342494964599609f, 0.00044373492710292339325f, 0.57512390613555908203f, 0.78157097101211547852f, 1.0294883251190185547f, 0.61348390579223632812f, 0.57247519493103027344f, 0.11842659860849380493f, 0.23164378106594085693f, 0.55107742547988891602f, 0.38541540503501892090f, 1.0519622564315795898f, 0.78350293636322021484f, 0.56723546981811523438f, -0.072190061211585998535f, -0.054568361490964889526f, 0.45713245868682861328f, 0.58952420949935913086f, 0.73091500997543334961f, 0.52153867483139038086f, 0.45558464527130126953f, 0.46384009718894958496f, 0.24877317249774932861f, 0.13634549081325531006f, 0.00094149692449718713760f, -0.015004650689661502838f},
    {0.25155115127563476562f, 0.25350511074066162109f, 0.088697776198387145996f, 0.25368478894233703613f, 0.78799545764923095703f, 1.1862386465072631836f, 0.32814246416091918945f, -0.98944562673568725586f, -1.9683980941772460938f, -1.2610814571380615234f, 0.19781337678432464600f, 1.2122087478637695312f, 1.0254597663879394531f, 0.19116607308387756348f, 0.20563037693500518799f, 0.15215387940406799316f, -0.12962497770786285400f, -1.0633107423782348633f, -1.2218195199966430664f, -1.3079969882965087891f, -0.084679402410984039307f, 0.092414043843746185303f, -0.26790940761566162109f, -0.40551170706748962402f, 0.34014967083930969238f, -0.014480775222182273865f, -0.22787511348724365234f, 0.18435074388980865479f, -0.0086091943085193634033f, 0.37952119112014770508f, 0.24496167898178100586f, -0.40052321553230285645f},
    {0.038963634520769119263f, -0.10781329870223999023f, -0.34021329879760742188f, -0.35441449284553527832f, -0.65692967176437377930f, -0.81748604774475097656f, -0.72239083051681518555f, -0.48824763298034667969f, -0.066761299967765808105f, -0.43478542566299438477f, -0.47141101956367492676f, -0.59160858392715454102f, -0.37170818448066711426f, -0.24827924370765686035f, -0.12167524546384811401f, 0.31552240252494812012f, 0.37458044290542602539f, 0.38025167584419250488f, 0.33953496813774108887f, 0.42392081022262573242f, 0.021477982401847839355f, 0.57775557041168212891f, 0.071454681456089019775f, -0.056464374065399169922f, -0.23649542033672332764f, -0.57433509826660156250f, -0.29764446616172790527f, -0.34791469573974609375f, -0.70123493671417236328f, -1.0328689813613891602f, -1.1638232469558715820f, -0.59963893890380859375f},
    {-1.2917220592498779297f, -1.6478158235549926758f, -2.5964660644531250000f, -2.1688535213470458984f, -1.3477096557617187500f, -0.55845201015472412109f, 0.33300811052322387695f, 0.29413110017776489258f, -0.18941915035247802734f, -0.73482447862625122070f, -0.38720312714576721191f, -0.71656811237335205078f, -0.082076452672481536865f, -0.64416640996932983398f, -1.1747610569000244141f, -1.4437247514724731445f, -1.0945873260498046875f, -1.2245882749557495117f, -0.29729360342025756836f, 0.10504488646984100342f, -0.33072599768638610840f, 0.22089126706123352051f, 0.18911515176296234131f, -0.0061237169429659843445f, -0.19446095824241638184f, -0.35748031735420227051f, 0.66408950090408325195f, 0.67761820554733276367f, 0.91065108776092529297f, 0.83342951536178588867f, 0.86849516630172729492f, 0.83779728412628173828f},
    {-0.53231632709503173828f, -1.1389949321746826172f, -0.97032332420349121094f, -0.82232826948165893555f, 0.020420564338564872742f, 0.63894510269165039062f, 0.80209457874298095703f, -0.27040851116180419922f, -0.94203281402587890625f, -1.4939273595809936523f, -1.0712800025939941406f, -0.33020883798599243164f, 0.23436130583286285400f, 0.31777727603912353516f, 0.69234621524810791016f, 1.0738171339035034180f, 1.2893109321594238281f, 0.41684976220130920410f, -1.2137500047683715820f, -0.91117489337921142578f, -0.18963316082954406738f, -0.61748391389846801758f, -1.1385326385498046875f, -0.58978229761123657227f, -0.39168632030487060547f, -0.31557697057723999023f, -0.079122006893157958984f, -0.37408584356307983398f, -0.18076758086681365967f, 0.32650578022003173828f, 0.46953859925270080566f, 0.25095605850219726562f},
    {0.16447229683399200439f, 0.56275278329849243164f, 0.20073601603507995605f, 0.36566931009292602539f, -0.93212813138961791992f, -1.5665488243103027344f, -2.4674539566040039062f, -1.7024567127227783203f, 0.071650512516498565674f, 0.67633450031280517578f, 1.6654767990112304688f, 1.5513033866882324219f, 0.86497616767883300781f, 0.28975856304168701172f, -0.15717700123786926270f, -0.33798107504844665527f, -0.31206554174423217773f, -0.40959423780441284180f, -0.99514150619506835938f, -1.0130031108856201172f, -0.44689041376113891602f, -0.093771792948246002197f, -0.087855383753776550293f, 0.36920127272605895996f, -0.82975816726684570312f, -0.45342615246772766113f, 0.15756785869598388672f, 0.31614437699317932129f, 0.34489774703979492188f, -0.15621383488178253174f, -0.054927941411733627319f, 0.36066418886184692383f},
    {-0.28517082333564758301f, -0.28682273626327514648f, -0.39884880185127258301f, 0.65311580896377563477f, -0.68288666009902954102f, -1.6474668979644775391f, -1.0401316881179809570f, 0.044291712343692779541f, 0.58609348535537719727f, 0.27007383108139038086f, 0.0060705030336976051331f, 0.22930811345577239990f, 0.21798698604106903076f, -0.31628957390785217285f, -0.83307921886444091797f, -0.81928944587707519531f, -0.71002256870269775391f, -1.0679416656494140625f, -0.59055316448211669922f, -0.29820358753204345703f, 0.029997754842042922974f, 0.71962463855743408203f, 0.11979386955499649048f, -0.58253216743469238281f, -0.92386531829833984375f, -0.40276563167572021484f, -0.36051672697067260742f, -0.51723790168762207031f, -0.69254696369171142578f, -0.66362071037292480469f, -0.92450767755508422852f, -0.77721285820007324219f},
    {-0.23801997303962707520f, -0.28001415729522705078f, -1.9650111198425292969f, -1.5314831733703613281f, -1.8780766725540161133f, -1.9703841209411621094f, -1.7870128154754638672f, -1.3758070468902587891f, -0.75854909420013427734f, -0.97618621587753295898f, -1.0172610282897949219f, -1.1426873207092285156f, -0.21268521249294281006f, -0.16647489368915557861f, 0.066492237150669097900f, 0.41574940085411071777f, -0.074202753603458404541f, -0.41967639327049255371f, 0.070236355066299438477f, 0.43537068367004394531f, -0.081256359815597534180f, -0.27135041356086730957f, -0.53378492593765258789f, -0.42255356907844543457f, -0.68492692708969116211f, -0.80550849437713623047f, -0.56187582015991210938f, -0.22055432200431823730f, -0.075232632458209991455f, -0.14061217010021209717f, 0.55841165781021118164f, 1.1630486249923706055f},
    {-1.9514646530151367188f, -0.94894546270370483398f, -1.0510722398757934570f, 0.050151783972978591919f, -0.63074344396591186523f, -0.99943727254867553711f, -0.74221175909042358398f, -0.58036512136459350586f, -0.59422802925109863281f, -0.40501964092254638672f, -0.21900622546672821045f, -0.27207446098327636719f, 0.43674245476722717285f, -0.39389553666114807129f, -0.95594984292984008789f, -1.8309658765792846680f, -1.5590549707412719727f, -0.81326043605804443359f, -1.5912781953811645508f, -1.1660406589508056641f, -0.32050809264183044434f, -0.80131602287292480469f, -0.79528415203094482422f, -0.71556168794631958008f, -1.0591701269149780273f, -1.1212199926376342773f, -1.0425328016281127930f, -0.97844719886779785156f, -0.60552924871444702148f, -0.10819660872220993042f, -0.12618075311183929443f, -0.21574965119361877441f},
    {-0.0063051721081137657166f, -0.51855939626693725586f, 0.77376323938369750977f, 1.1865911483764648438f, 1.3317993879318237305f, 1.1038951873779296875f, 0.032704852521419525146f, -0.92225706577301025391f, -1.0835176706314086914f, -0.46551826596260070801f, 0.87238377332687377930f, 1.4561445713043212891f, 0.28183326125144958496f, -0.55493664741516113281f, -0.62119853496551513672f, -0.93135654926300048828f, -0.67877221107482910156f, 0.16012340784072875977f, -0.51046299934387207031f, -1.2187409400939941406f, -0.48757615685462951660f, -0.12307853996753692627f, -0.45621022582054138184f, -0.53852164745330810547f, -0.0032740044407546520233f, -0.59313189983367919922f, -0.53068923950195312500f, -0.34388366341590881348f, -0.44994649291038513184f, -0.30725181102752685547f, -0.17617449164390563965f, -0.15276627242565155029f},
    {0.49768847227096557617f, 0.82525181770324707031f, 0.18345391750335693359f, -0.13188017904758453369f, -0.019327532500028610229f, -0.38940557837486267090f, 0.71250140666961669922f, 1.0487046241760253906f, 1.2400262355804443359f, 0.94593065977096557617f, 0.35045146942138671875f, 0.033515833318233489990f, 0.023489907383918762207f, -0.26522174477577209473f, -0.20708052814006805420f, -0.33943602442741394043f, -0.77835828065872192383f, -0.66893267631530761719f, 0.16306924819946289062f, 0.84229791164398193359f, 0.23451779782772064209f, -0.39253795146942138672f, 0.15788833796977996826f, 0.44979417324066162109f, 0.46172639727592468262f, 0.26238813996315002441f, 0.47682115435600280762f, 1.1042894124984741211f, 1.0482441186904907227f, 0.33560472726821899414f, -0.54464071989059448242f, 0.064791895449161529541f},
    {0.65194261074066162109f, 0.42281723022460937500f, 0.22276072204113006592f, 0.67597657442092895508f, 0.45588514208793640137f, 0.64839476346969604492f, 0.88544321060180664062f, 1.1437156200408935547f, 0.15967792272567749023f, 0.48991578817367553711f, -0.49845495820045471191f, -0.32099452614784240723f, 0.25200492143630981445f, 0.16391508281230926514f, -0.28566420078277587891f, 0.22215309739112854004f, 0.74980115890502929688f, 1.4578522443771362305f, 1.8441866636276245117f, 1.5193544626235961914f, 1.1128441095352172852f, 1.1132858991622924805f, 0.67277252674102783203f, 0.38157919049263000488f, -0.089401945471763610840f, 0.015056818723678588867f, -0.13318228721618652344f, -0.26644498109817504883f, -0.66253036260604858398f, -0.67311412096023559570f, -0.59563815593719482422f, -0.96270978450775146484f},
    {-0.18387657403945922852f, 1.0416477918624877930f, 0.21461366117000579834f, 0.77508765459060668945f, 0.58997076749801635742f, -0.24179066717624664307f, -0.30452871322631835938f, -0.19778758287429809570f, 0.0031081447377800941467f, -0.18110667169094085693f, -0.31131425499916076660f, -0.41377359628677368164f, -0.45291724801063537598f, 0.53937631845474243164f, 0.45942708849906921387f, 0.26076260209083557129f, 0.096931166946887969971f, -0.46203505992889404297f, -0.52271974086761474609f, -0.93316179513931274414f, -0.83155184984207153320f, -0.86041629314422607422f, -0.60142803192138671875f, 0.24159915745258331299f, 0.37005734443664550781f, 0.42212259769439697266f, 0.41590356826782226562f, 0.39872702956199645996f, 0.69130283594131469727f, 0.73119401931762695312f, 0.40317091345787048340f, 0.24178005754947662354f},
    {0.40349203348159790039f, 0.84560370445251464844f, 1.2022356986999511719f, 1.3092828989028930664f, 1.9158581495285034180f, 3.3536989688873291016f, 3.0255043506622314453f, 1.8427283763885498047f, 1.5136574506759643555f, 1.0038858652114868164f, 0.94096612930297851562f, 0.54210740327835083008f, -0.32662597298622131348f, -0.46616348624229431152f, 0.36287221312522888184f, 0.30751517415046691895f, -0.16331458091735839844f, 0.029585141688585281372f, 0.44847026467323303223f, 0.011681578122079372406f, -0.27853983640670776367f, 0.42188975214958190918f, 1.4433757066726684570f, 0.96001261472702026367f, 0.20583343505859375000f, -0.28734204173088073730f, -0.21663931012153625488f, 0.35831171274185180664f, 0.11636587977409362793f, 0.0021331273019313812256f, -0.25104832649230957031f, -0.13362619280815124512f},
    {0.28305804729461669922f, 0.49617883563041687012f, -0.90450680255889892578f, -1.1527738571166992188f, -0.46541854739189147949f, -0.18620945513248443604f, 0.52289062738418579102f, 0.51378828287124633789f, -0.90229225158691406250f, -1.1971495151519775391f, -0.37493482232093811035f, 1.0263274908065795898f, 1.5376900434494018555f, 1.2336741685867309570f, 0.97947770357131958008f, 1.1907434463500976562f, 1.6678493022918701172f, 1.3800382614135742188f, -0.84303963184356689453f, -1.6297670602798461914f, -0.97121846675872802734f, -0.52147018909454345703f, -0.85778099298477172852f, -1.5157467126846313477f, -0.58749127388000488281f, -0.43217822909355163574f, -0.0040775774978101253510f, -0.34294572472572326660f, -0.77443164587020874023f, -0.36872330307960510254f, 0.13111428916454315186f, 0.94150018692016601562f},
    {-1.1480332612991333008f, -0.54101115465164184570f, 0.17823466658592224121f, 0.56639099121093750000f, -0.026228375732898712158f, -0.49043127894401550293f, -0.80323070287704467773f, 0.0045643234625458717346f, 0.48004198074340820312f, -0.79471427202224731445f, -0.63260662555694580078f, -0.24872544407844543457f, -0.52929157018661499023f, -1.1258788108825683594f, -1.0531063079833984375f, -0.51276999711990356445f, -0.46814954280853271484f, 0.051579993218183517456f, 0.060982123017311096191f, 0.098720692098140716553f, -1.6671906709671020508f, -1.3671052455902099609f, -0.65820574760437011719f, -0.80944502353668212891f, -1.0657970905303955078f, -0.98182481527328491211f, -0.73156768083572387695f, -0.056795798242092132568f, -0.28375822305679321289f, -0.39036008715629577637f, -0.52955245971679687500f, 0.39281985163688659668f},
    {0.93146067857742309570f, 1.4386091232299804688f, 1.3524423837661743164f, 1.2312638759613037109f, 1.5594269037246704102f, 0.69244295358657836914f, 0.65448856353759765625f, 0.59425437450408935547f, 0.48951578140258789062f, 0.64907008409500122070f, 0.15660034120082855225f, -0.54175084829330444336f, -0.60233449935913085938f, -0.40325686335563659668f, -0.16952182352542877197f, -0.039530441164970397949f, 0.27841752767562866211f, 1.0155371427536010742f, 0.95559871196746826172f, 1.0853265523910522461f, 0.49194493889808654785f, 0.42495748400688171387f, 0.19490110874176025391f, -0.45177543163299560547f, -0.58816069364547729492f, -0.39572077989578247070f, -0.47991651296615600586f, -0.56356900930404663086f, -0.74092864990234375000f, -1.0292851924896240234f, -0.94310712814331054688f, -0.83707135915756225586f},
    {-0.32043081521987915039f, 0.65897411108016967773f, 1.0403914451599121094f, 1.6891685724258422852f, 2.2326912879943847656f, 2.7744536399841308594f, 3.0533792972564697266f, 1.9214825630187988281f, 0.56311798095703125000f, 0.38794085383415222168f, 0.55483865737915039062f, 0.084868423640727996826f, 0.35209342837333679199f, 0.30357688665390014648f, 0.20310635864734649658f, 0.89240139722824096680f, 0.42336052656173706055f, 0.29486799240112304688f, 0.43219026923179626465f, 0.72876489162445068359f, 0.98334056138992309570f, 1.1317938566207885742f, 0.90121871232986450195f, 0.93413937091827392578f, 0.46062737703323364258f, 0.22614535689353942871f, -0.11036586016416549683f, -0.21697781980037689209f, -0.089591383934020996094f, -0.52142518758773803711f, -0.36616539955139160156f, 0.32341548800468444824f},
    {0.24870023131370544434f, 0.68092417716979980469f, 0.23581328988075256348f, 0.38064599037170410156f, 0.47847115993499755859f, 0.88945555686950683594f, 1.6798572540283203125f, 1.4178318977355957031f, 0.80081140995025634766f, -0.021788038313388824463f, 0.59974443912506103516f, 1.5224049091339111328f, 0.99212896823883056641f, 0.059633128345012664795f, 0.62738656997680664062f, 1.7898458242416381836f, 1.0056648254394531250f, -0.043159492313861846924f, -0.52424389123916625977f, -0.20316343009471893311f, -0.67397391796112060547f, -0.51814860105514526367f, 0.19152887165546417236f, -0.17144370079040527344f, -0.15274983644485473633f, -0.61493772268295288086f, 0.18311356008052825928f, 0.52352654933929443359f, 0.46330907940864562988f, 0.72766739130020141602f, 0.78376805782318115234f, 0.37700265645980834961f},
    {-0.60308122634887695312f, -0.74329894781112670898f, -0.20743376016616821289f, -0.11596801131963729858f, 0.12275337427854537964f, 0.28785556554794311523f, 0.071355566382408142090f, -0.23426386713981628418f, -1.0016962289810180664f, -0.29277724027633666992f, 0.86260098218917846680f, 2.4778983592987060547f, 1.4315367937088012695f, 0.55799490213394165039f, 0.041381001472473144531f, 0.37202960252761840820f, 1.0070966482162475586f, 0.70573419332504272461f, -1.1009994745254516602f, -0.53426057100296020508f, 0.88845372200012207031f, 0.35839033126831054688f, -0.21776063740253448486f, -1.2359184026718139648f, -0.46771189570426940918f, 0.32377141714096069336f, 0.23051090538501739502f, 0.42665943503379821777f, 0.20343850553035736084f, 0.47543111443519592285f, 0.54046016931533813477f, 0.15397873520851135254f},
    {0.24614402651786804199f, -0.54784965515136718750f, -0.30665102601051330566f, -0.29777050018310546875f, -0.15411730110645294189f, 0.48757961392402648926f, 0.54532283544540405273f, 0.43736386299133300781f, 0.26589632034301757812f, 0.29100951552391052246f, 1.0472608804702758789f, 1.7019896507263183594f, 0.94679379463195800781f, -0.10287795215845108032f, -0.54030531644821166992f, -0.79134351015090942383f, -0.72090220451354980469f, -0.73760229349136352539f, -0.91258007287979125977f, -1.2686824798583984375f, -0.51125645637512207031f, -0.059209618717432022095f, -0.00033814494963735342026f, -0.015426260419189929962f, 0.22432269155979156494f, -0.17605219781398773193f, -0.13974185287952423096f, -0.28500699996948242188f, -0.46982306241989135742f, -0.49348637461662292480f, -0.12564261257648468018f, -0.60716658830642700195f},
    {-0.44077441096305847168f, -1.2019984722137451172f, -0.088460274040699005127f, -0.11221544444561004639f, 0.74717235565185546875f, 1.4314545392990112305f, 0.95502316951751708984f, -0.28092235326766967773f, -0.86914896965026855469f, 0.88925516605377197266f, 2.1601433753967285156f, 1.4482702016830444336f, -1.1920613050460815430f, -2.2536907196044921875f, -1.4600338935852050781f, -1.1176732778549194336f, -1.1952347755432128906f, -0.85825979709625244141f, 0.065324336290359497070f, -0.56553190946578979492f, 0.31770491600036621094f, 0.66739237308502197266f, 0.024894891306757926941f, -0.11025881022214889526f, 0.24471081793308258057f, -0.24282215535640716553f, -0.00069255381822586059570f, 0.18476377427577972412f, -0.40916869044303894043f, 0.16018101572990417480f, 0.13554832339286804199f, -0.68691730499267578125f},
    {-0.40546151995658874512f, -0.83600813150405883789f, -1.5548272132873535156f, -1.6376321315765380859f, -0.83274072408676147461f, -0.74001985788345336914f, -1.0404876470565795898f, -1.7510192394256591797f, -1.2277624607086181641f, -1.0712763071060180664f, -0.62288373708724975586f, 0.031845476478338241577f, 0.012706991285085678101f, -0.67476046085357666016f, -1.2241008281707763672f, -0.94183003902435302734f, -0.077380940318107604980f, 0.53702366352081298828f, 0.41848102211952209473f, 0.46135506033897399902f, 0.12441956251859664917f, -0.10885559767484664917f, -0.11393802613019943237f, 0.13505460321903228760f, 0.52270931005477905273f, 0.66650450229644775391f, 1.0221649408340454102f, 1.3370835781097412109f, 1.6537337303161621094f, 1.4469056129455566406f, 1.0181763172149658203f, 0.97863370180130004883f},
    {-0.24511606991291046143f, -0.34213769435882568359f, -0.33738964796066284180f, -0.34124243259429931641f, -0.51188206672668457031f, -0.28396633267402648926f, -0.065029956400394439697f, 0.73689204454421997070f, 1.4453194141387939453f, 0.99713855981826782227f, 1.1513429880142211914f, 0.99456381797790527344f, 1.1559506654739379883f, 0.96068710088729858398f, -0.0015846935566514730453f, -0.19462923705577850342f, -0.19822217524051666260f, -0.47189825773239135742f, -0.63562637567520141602f, -0.58874857425689697266f, -0.59187960624694824219f, 0.15912061929702758789f, -0.029451182112097740173f, -0.21728496253490447998f, -0.28629916906356811523f, -0.49513453245162963867f, -0.32916727662086486816f, -0.27493837475776672363f, -0.0069846031256020069122f, -0.24541074037551879883f, -0.20169909298419952393f, -0.64697551727294921875f},
    {0.12865009903907775879f, 0.10289595276117324829f, 0.94821697473526000977f, 1.0736745595932006836f, 0.66619366407394409180f, 0.36232912540435791016f, 0.29854965209960937500f, 0.63846337795257568359f, 1.1837785243988037109f, 1.6202962398529052734f, 0.40713393688201904297f, 0.22932554781436920166f, 0.20299258828163146973f, 0.12400279939174652100f, -0.11585567146539688110f, -0.66763085126876831055f, -0.28022867441177368164f, 0.73133480548858642578f, 0.35203200578689575195f, -0.31363314390182495117f, 0.42905592918395996094f, 0.24261645972728729248f, -0.46964371204376220703f, -0.40825125575065612793f, 0.021660340949892997742f, -0.015424843877553939819f, -0.48434063792228698730f, -0.89688181877136230469f, -1.0359394550323486328f, -0.31801125407218933105f, -0.43385034799575805664f, -0.10518024116754531860f},
    {0.23059464991092681885f, -0.15087041258811950684f, -0.17850869894027709961f, -0.13868623971939086914f, 0.22809317708015441895f, 0.46188941597938537598f, 0.51185446977615356445f, 0.19060587882995605469f, 0.20975603163242340088f, 0.51900553703308105469f, 0.89806646108627319336f, 0.63398563861846923828f, 0.71441131830215454102f, 0.73007088899612426758f, 0.62521463632583618164f, -0.12319783121347427368f, -0.55501610040664672852f, -0.68968647718429565430f, -0.38630649447441101074f, -0.26936134696006774902f, -0.32382363080978393555f, -0.35637950897216796875f, -0.34094068408012390137f, -0.089230284094810485840f, -0.23764567077159881592f, -0.49009495973587036133f, -0.30115869641304016113f, -0.45635017752647399902f, -0.57029086351394653320f, -0.69153773784637451172f, -0.33664980530738830566f, -0.018587971106171607971f},
    {-1.9987387657165527344f, -0.80335831642150878906f, -0.82548272609710693359f, -0.48923614621162414551f, -1.0880719423294067383f, -1.1147880554199218750f, -0.21525186300277709961f, 1.1138780117034912109f, 2.0343422889709472656f, 0.66613250970840454102f, -0.78935992717742919922f, -0.43989646434783935547f, 0.80927282571792602539f, 1.0796318054199218750f, -0.41274899244308471680f, -1.4085434675216674805f, -2.2788217067718505859f, -2.3849401473999023438f, -0.44226628541946411133f, 0.57724165916442871094f, -0.16468617320060729980f, -0.77135354280471801758f, -1.4833372831344604492f, -0.11983370035886764526f, 0.14344561100006103516f, -0.53119844198226928711f, -0.57816934585571289062f, -0.67546838521957397461f, -0.59810608625411987305f, -0.93632090091705322266f, -0.14666265249252319336f, 0.81470906734466552734f},
    {-0.10084026306867599487f, -0.57501673698425292969f, -3.4852519035339355469f, -1.3077838420867919922f, -1.1130276918411254883f, -0.98419588804244995117f, -0.054438568651676177979f, 0.51370984315872192383f, 0.14256499707698822021f, -0.98453670740127563477f, -0.72024738788604736328f, -0.13053187727928161621f, 0.61085104942321777344f, -0.10763325542211532593f, -0.81409609317779541016f, -0.85870403051376342773f, -0.42144033312797546387f, 0.019392091780900955200f, 0.29252120852470397949f, 0.49397793412208557129f, -0.13398012518882751465f, -0.25995841622352600098f, -0.44833981990814208984f, 0.40443751215934753418f, 0.23088292777538299561f, 0.16192139685153961182f, 0.62675052881240844727f, 0.26332077383995056152f, 0.46041259169578552246f, -0.079225033521652221680f, -0.16611698269844055176f, 1.1372182369232177734f},
    {-1.0998662710189819336f, -0.21998815238475799561f, 0.38184735178947448730f, 0.19646559655666351318f, 0.20482774078845977783f, 0.60857963562011718750f, -0.19704635441303253174f, 0.089261539280414581299f, 0.22700725495815277100f, -0.080935373902320861816f, -0.38724470138549804688f, -0.85453641414642333984f, -0.39216142892837524414f, 0.16108886897563934326f, 1.0922939777374267578f, 1.2459493875503540039f, 0.60182464122772216797f, 1.3043494224548339844f, 1.3464921712875366211f, 1.2934141159057617188f, 1.6436386108398437500f, 0.51309889554977416992f, 0.48531210422515869141f, 1.0332953929901123047f, 0.95806705951690673828f, 1.1987230777740478516f, 1.0234798192977905273f, 0.41717955470085144043f, 0.42500710487365722656f, 0.52401274442672729492f, 0.58187949657440185547f, 0.33007061481475830078f},
    {-0.62410801649093627930f, 0.0065607740543782711029f, 0.39554741978645324707f, 0.99734359979629516602f, 0.85989248752593994141f, 0.78514820337295532227f, 0.87259596586227416992f, 0.48909837007522583008f, 0.33341702818870544434f, -0.38418647646903991699f, -1.0248035192489624023f, -0.82540112733840942383f, -0.18836790323257446289f, 0.082043163478374481201f, -0.14211894571781158447f, -0.18834069371223449707f, -0.51893705129623413086f, -0.17345260083675384521f, 0.48568874597549438477f, 0.68962109088897705078f, 0.13707584142684936523f, -0.017120426520705223083f, -0.42366376519203186035f, 0.022015534341335296631f, 0.31555664539337158203f, 0.35562801361083984375f, 0.56969940662384033203f, 0.44748675823211669922f, 0.16737405955791473389f, 0.24769343435764312744f, 0.17794308066368103027f, -0.55671417713165283203f},
    {0.22425536811351776123f, -0.74283081293106079102f, -0.27876657247543334961f, -0.43162712454795837402f, 0.37347698211669921875f, 1.4602411985397338867f, 1.4448953866958618164f, 0.41724061965942382812f, -0.70689004659652709961f, -0.98307138681411743164f, -0.95435053110122680664f, -0.80720955133438110352f, -1.7535183429718017578f, -2.5175166130065917969f, -2.0126826763153076172f, -0.43551585078239440918f, 1.1259654760360717773f, 1.5761311054229736328f, 0.87689846754074096680f, 0.85598379373550415039f, 0.65260106325149536133f, 0.47934007644653320312f, 0.23453940451145172119f, 0.012214871123433113098f, -0.0064436402171850204468f, 0.41870340704917907715f, 0.29541614651679992676f, 0.60625940561294555664f, 0.52608835697174072266f, 0.15725089609622955322f, 0.24793989956378936768f, -0.42215016484260559082f},
    {-0.41110697388648986816f, 0.31779709458351135254f, 1.3620189428329467773f, 1.3648923635482788086f, 1.2093268632888793945f, 1.3823624849319458008f, 1.4492304325103759766f, 1.1726299524307250977f, 1.2627074718475341797f, 1.0481748580932617188f, 1.2615737915039062500f, 0.79408526420593261719f, 1.0266643762588500977f, 1.3959131240844726562f, 0.95955693721771240234f, 0.53940826654434204102f, -0.16400024294853210449f, -0.48166447877883911133f, -0.82012653350830078125f, -0.093952864408493041992f, -0.19069981575012207031f, -0.35044428706169128418f, 0.059991475194692611694f, 0.12002783268690109253f, -0.17560100555419921875f, -0.19511339068412780762f, -0.13842514157295227051f, -0.20885178446769714355f, -0.68874704837799072266f, -0.80224055051803588867f, -0.73358678817749023438f, -1.1944216489791870117f},
    {0.031501118093729019165f, 0.76260739564895629883f, 0.28113532066345214844f, -0.41469132900238037109f, 0.59884637594223022461f, 0.65084379911422729492f, 0.016729429364204406738f, -0.59182733297348022461f, -1.1701338291168212891f, -1.8827667236328125000f, -1.1587797403335571289f, -0.65953946113586425781f, -0.56371110677719116211f, -0.77627986669540405273f, -1.1789940595626831055f, -0.67789697647094726562f, -0.61060404777526855469f, -1.3407698869705200195f, -0.63768738508224487305f, -0.10827978700399398804f, -0.26115974783897399902f, 0.029880369082093238831f, 0.15908032655715942383f, 0.49298122525215148926f, 0.76244801282882690430f, 0.50921428203582763672f, 0.32468089461326599121f, 0.90575945377349853516f, 0.62871968746185302734f, 0.24173651635646820068f, -0.49251922965049743652f, 0.14153282344341278076f},
    {-0.80365610122680664062f, -0.95768696069717407227f, -0.53087943792343139648f, -0.76173001527786254883f, -0.46318829059600830078f, -0.24580527842044830322f, -0.14902625977993011475f, -0.44642433524131774902f, -0.39517804980278015137f, -0.42119234800338745117f, -0.78986656665802001953f, -0.87539011240005493164f, -0.64936912059783935547f, -0.23142434656620025635f, -0.057358954101800918579f, 0.67887765169143676758f, 0.86708557605743408203f, 0.68611025810241699219f, 0.93888223171234130859f, 0.85134994983673095703f, 0.72748541831970214844f, -0.049809038639068603516f, 0.50493699312210083008f, 0.94033372402191162109f, 0.87520420551300048828f, 1.0750112533569335938f, 1.2671927213668823242f, 1.2201809883117675781f, 1.7122884988784790039f, 1.8163175582885742188f, 1.6345918178558349609f, 1.3967068195343017578f},
    {-0.50511419773101806641f, -0.71303671598434448242f, -0.70528066158294677734f, 0.33285096287727355957f, 0.94636702537536621094f, 0.40678724646568298340f, 0.32630559802055358887f, 0.12338226288557052612f, 0.17288391292095184326f, 0.24089492857456207275f, 0.43300276994705200195f, 0.76850730180740356445f, 1.1023148298263549805f, 0.43805029988288879395f, -0.012402895838022232056f, -0.67563122510910034180f, -0.58751684427261352539f, 0.57971096038818359375f, 0.82726222276687622070f, -0.44325959682464599609f, 0.25134706497192382812f, 0.91766655445098876953f, -0.27622938156127929688f, 0.13849233090877532959f, 0.80205756425857543945f, 0.47974014282226562500f, 0.39825674891471862793f, 0.47911348938941955566f, -0.15867450833320617676f, 0.15417852997779846191f, 0.40527862310409545898f, 0.27841171622276306152f},
    {0.62490004301071166992f, 0.61543112993240356445f, 0.87196010351181030273f, 0.94587564468383789062f, 0.99014198780059814453f, 1.1114856004714965820f, 0.92041957378387451172f, 1.0109673738479614258f, 1.0460188388824462891f, 0.55131930112838745117f, 0.52026832103729248047f, 0.70060259103775024414f, 0.81574934720993041992f, 0.12316611409187316895f, -0.15087366104125976562f, -1.4576492309570312500f, -1.0499771833419799805f, -1.6595895290374755859f, -2.2292559146881103516f, -1.9615397453308105469f, -1.0419698953628540039f, -0.68942421674728393555f, -0.39171636104583740234f, -0.66462254524230957031f, -0.85483229160308837891f, -0.059165529906749725342f, 0.38764220476150512695f, 0.75498265027999877930f, 1.0328679084777832031f, 0.37313136458396911621f, 0.23358936607837677002f, 0.58160257339477539062f},
    {-0.65686380863189697266f, 0.097351245582103729248f, 0.67811214923858642578f, 1.4980320930480957031f, 1.3049358129501342773f, 0.90240287780761718750f, -0.21646919846534729004f, -1.0752120018005371094f, -0.87712401151657104492f, -0.75523680448532104492f, 0.030487582087516784668f, 0.81261247396469116211f, 0.21729677915573120117f, -0.31743204593658447266f, -0.62103408575057983398f, -0.19484667479991912842f, 0.51435321569442749023f, 0.81878888607025146484f, 0.70994955301284790039f, 0.81894129514694213867f, 1.0526348352432250977f, 0.35894826054573059082f, -0.48927259445190429688f, -0.51410377025604248047f, 0.13024987280368804932f, 0.69065457582473754883f, -0.086455561220645904541f, -0.17409545183181762695f, 0.097543962299823760986f, -0.045070718973875045776f, 0.052001912146806716919f, 0.50224113464355468750f},
    {0.23423737287521362305f, 0.24674437940120697021f, 0.75561517477035522461f, 0.86038231849670410156f, 0.29151767492294311523f, 0.43144965171813964844f, 0.58163166046142578125f, 1.0479009151458740234f, 0.92990916967391967773f, 0.75211626291275024414f, 0.21314494311809539795f, 0.35668751597404479980f, 0.28842929005622863770f, -0.071955144405364990234f, -0.25479134917259216309f, 0.22454234957695007324f, 0.99983155727386474609f, 0.23541577160358428955f, 0.089188799262046813965f, 0.13327658176422119141f, -0.075797095894813537598f, -0.068908624351024627686f, 0.51552730798721313477f, 0.98337703943252563477f, 0.71985799074172973633f, 0.91407775878906250000f, 0.77872341871261596680f, 0.80853629112243652344f, 1.1929093599319458008f, 1.3639899492263793945f, 1.0653228759765625000f, 0.80529558658599853516f},
    {0.079257711768150329590f, 0.75287663936614990234f, -0.33773231506347656250f, -0.25770226120948791504f, -0.099703654646873474121f, 0.13761496543884277344f, 0.37536668777465820312f, -0.047617103904485702515f, -0.20092880725860595703f, -0.015331614762544631958f, -0.72256743907928466797f, -0.65281695127487182617f, -0.60581803321838378906f, -1.0177311897277832031f, -0.51378196477890014648f, 0.35244244337081909180f, 0.79529267549514770508f, 1.1462811231613159180f, 1.2516180276870727539f, 0.86941719055175781250f, -0.12687386572360992432f, 0.033110119402408599854f, 0.90588515996932983398f, 0.78806591033935546875f, -0.063456930220127105713f, 0.039978388696908950806f, -0.11553490906953811646f, -0.23632262647151947021f, 0.22068966925144195557f, 0.13309796154499053955f, 0.039778791368007659912f, 0.30047503113746643066f},
    {-1.0092583894729614258f, -0.93771111965179443359f, -0.41902178525924682617f, 0.18796961009502410889f, -0.44814154505729675293f, -0.41121307015419006348f, -0.95486855506896972656f, -0.74795842170715332031f, -0.77251958847045898438f, -1.3852845430374145508f, -1.0711503028869628906f, -0.22233588993549346924f, 0.019006093963980674744f, 0.18047304451465606689f, -0.0092155281454324722290f, -0.31155514717102050781f, -0.22325642406940460205f, 0.80513691902160644531f, 0.69552081823348999023f, 0.31636914610862731934f, -0.67336511611938476562f, 0.022703779861330986023f, 0.27626547217369079590f, -0.13895323872566223145f, -0.79765248298645019531f, -0.70647382736206054688f, -0.24869380891323089600f, -0.63084781169891357422f, -0.64504092931747436523f, -0.57943367958068847656f, 0.20795625448226928711f, 0.73337340354919433594f},
    {-0.47281858325004577637f, -0.91379404067993164062f, 0.0084053426980972290039f, -0.19387944042682647705f, -0.46969664096832275391f, -0.069260157644748687744f, -0.016601100564002990723f, -0.63331103324890136719f, -0.95409369468688964844f, -1.1234130859375000000f, -0.99158513545989990234f, -0.62118220329284667969f, -0.75318700075149536133f, -1.4297990798950195312f, -1.6422421932220458984f, -0.73790037631988525391f, 1.0463294982910156250f, 1.8141361474990844727f, 1.5507932901382446289f, 1.0090031623840332031f, 0.72622376680374145508f, 0.38252550363540649414f, 0.48936814069747924805f, 0.034812562167644500732f, -0.52324402332305908203f, -0.061033915728330612183f, 0.048207923769950866699f, 0.13776287436485290527f, 0.023679710924625396729f, -0.036604389548301696777f, 0.16216668486595153809f, 0.076262854039669036865f},
    {-0.19613580405712127686f, -0.029889889061450958252f, 0.37980675697326660156f, 0.60893863439559936523f, 1.2924463748931884766f, 2.1021056175231933594f, 1.8798666000366210938f, -0.079468578100204467773f, -1.7600485086441040039f, -1.5506598949432373047f, -0.73097127676010131836f, 0.17141219973564147949f, 0.30262345075607299805f, 0.42414861917495727539f, 0.56568545103073120117f, 0.28254547715187072754f, -0.90996998548507690430f, -1.4950923919677734375f, -1.2712409496307373047f, -0.51132893562316894531f, 0.030423559248447418213f, 0.11705051362514495850f, -0.24056434631347656250f, 0.16155083477497100830f, 0.69662988185882568359f, -0.28561392426490783691f, -0.41554600000381469727f, 0.51337385177612304688f, -0.18066839873790740967f, 0.28440576791763305664f, -0.17994675040245056152f, -0.19448329508304595947f},
    {-1.0365660190582275391f, -1.3259888887405395508f, -1.0589789152145385742f, -1.1421235799789428711f, -1.3750373125076293945f, -1.3568518161773681641f, -1.1381784677505493164f, -0.70639503002166748047f, -0.53960222005844116211f, -0.48791545629501342773f, -0.21363757550716400146f, -0.63847213983535766602f, -0.91051912307739257812f, -1.2875441312789916992f, -0.58007949590682983398f, -0.68976444005966186523f, -0.60205346345901489258f, -0.27038353681564331055f, -0.068580910563468933105f, 0.12557226419448852539f, 0.58650362491607666016f, 0.67634207010269165039f, 0.58271449804306030273f, 0.055570483207702636719f, -0.18359060585498809814f, 0.071863852441310882568f, 0.12146309763193130493f, -0.12919545173645019531f, -0.0042350641451776027679f, 0.35360899567604064941f, -0.0031110488343983888626f, -0.077312409877777099609f},
    {-0.20263025164604187012f, -0.92349535226821899414f, -1.6188315153121948242f, -1.1549642086029052734f, -1.3735667467117309570f, -1.0992113351821899414f, -0.23916324973106384277f, -0.15331400930881500244f, -0.32113674283027648926f, 0.29422217607498168945f, 0.33304053544998168945f, -0.11956098675727844238f, 0.63968491554260253906f, 1.2630127668380737305f, 0.82304716110229492188f, 0.29328557848930358887f, -0.31712940335273742676f, 0.053835101425647735596f, 0.32450097799301147461f, 0.34373992681503295898f, 0.079648002982139587402f, 0.044105228036642074585f, 0.74304372072219848633f, 0.77464467287063598633f, -0.040604077279567718506f, -0.26845568418502807617f, 0.082434557378292083740f, -0.11665485799312591553f, -0.10237765312194824219f, 0.20705452561378479004f, -0.48567423224449157715f, -0.78195530176162719727f},
    {-0.38667771220207214355f, -0.92856633663177490234f, -0.97141659259796142578f, -0.42428144812583923340f, -0.33858802914619445801f, -0.58220744132995605469f, 0.12148416042327880859f, 0.18339753150939941406f, 0.71969866752624511719f, 0.29947522282600402832f, 0.63610678911209106445f, 1.1329562664031982422f, 0.75189000368118286133f, 0.33137643337249755859f, 0.34825709462165832520f, 0.13338473439216613770f, -0.26984825730323791504f, -0.61594688892364501953f, -0.72408163547515869141f, -0.10547301918268203735f, 0.26235091686248779297f, 0.26235479116439819336f, -0.39084923267364501953f, 0.0053942869417369365692f, -0.12964907288551330566f, -0.43848139047622680664f, -0.54807424545288085938f, 0.018192013725638389587f, 0.27575886249542236328f, 0.92967659235000610352f, 0.99519425630569458008f, 0.85668414831161499023f},
    {0.0022971257567405700684f, 0.20706871151924133301f, 0.86567085981369018555f, 0.56591665744781494141f, 0.091478601098060607910f, 0.32676538825035095215f, 0.53806817531585693359f, 0.065276585519313812256f, -0.30664017796516418457f, 0.32188770174980163574f, 0.59486067295074462891f, 0.46163123846054077148f, -0.54269272089004516602f, -0.65405195951461791992f, -0.72047621011734008789f, -0.37730690836906433105f, -0.26825037598609924316f, 1.2956734895706176758f, 1.3691059350967407227f, 1.1145365238189697266f, 0.74434459209442138672f, 0.58558374643325805664f, 0.41331839561462402344f, 0.25434833765029907227f, 0.0036184522323310375214f, 0.27819007635116577148f, 0.54085117578506469727f, 0.085480630397796630859f, -0.15695957839488983154f, 0.64243769645690917969f, 0.22848618030548095703f, 0.11213026195764541626f},
    {-0.86748373508453369141f, -0.23480276763439178467f, 0.22237664461135864258f, -0.032981991767883300781f, 0.26983752846717834473f, 0.49235475063323974609f, 0.62500762939453125000f, 0.34563657641410827637f, -0.49547892808914184570f, -0.76823753118515014648f, -1.0042914152145385742f, -1.0058596134185791016f, -1.5792337656021118164f, -1.2281545400619506836f, -0.32008752226829528809f, 0.54837936162948608398f, 1.0344234704971313477f, 0.99736034870147705078f, 0.63763815164566040039f, 0.51590859889984130859f, 0.24719661474227905273f, 0.063990890979766845703f, -0.27523285150527954102f, -0.071167625486850738525f, 0.0016916856402531266212f, 0.31681093573570251465f, -0.31222000718116760254f, -0.27082964777946472168f, -0.10380458831787109375f, -0.26522371172904968262f, -0.28350400924682617188f, 0.34782552719116210938f},
    {-0.014670843258500099182f, 0.29400658607482910156f, 0.54787391424179077148f, 0.64183354377746582031f, -0.092416897416114807129f, -0.41305935382843017578f, -1.0319224596023559570f, 0.035438500344753265381f, 1.1065593957901000977f, 0.91494262218475341797f, 0.88784533739089965820f, 0.087947219610214233398f, -0.22873535752296447754f, 0.16019760072231292725f, -0.36190724372863769531f, 0.11194636672735214233f, 0.25453019142150878906f, 1.0988752841949462891f, 1.3813030719757080078f, 1.1418527364730834961f, -0.66387516260147094727f, -0.14446502923965454102f, -0.24743127822875976562f, -0.098223030567169189453f, -0.17230175435543060303f, 0.12870985269546508789f, 0.28531849384307861328f, 0.12837156653404235840f, 0.16353280842304229736f, -0.031308691948652267456f, -0.12248339504003524780f, -0.36600169539451599121f},
    {0.027193216606974601746f, 0.26436486840248107910f, -0.38391101360321044922f, -0.52296000719070434570f, 0.15383580327033996582f, 0.75735151767730712891f, 0.74655866622924804688f, 0.22691142559051513672f, 0.36426833271980285645f, 0.15670013427734375000f, -0.080904118716716766357f, -0.63814675807952880859f, -1.3065129518508911133f, -1.5634998083114624023f, -0.50079053640365600586f, 0.91895657777786254883f, 1.1559923887252807617f, 0.81165421009063720703f, 1.1976054906845092773f, 0.98277294635772705078f, 0.84859633445739746094f, 0.34362459182739257812f, 0.75980776548385620117f, 1.1348919868469238281f, 0.88648647069931030273f, 1.2506120204925537109f, 0.56391286849975585938f, 0.58087080717086791992f, 0.42326357960700988770f, -0.18639792501926422119f, -0.46503821015357971191f, -0.35796567797660827637f},
    {0.26154085993766784668f, 0.91272366046905517578f, 1.2240444421768188477f, 0.55058211088180541992f, 0.47894522547721862793f, 0.28184837102890014648f, 0.32761996984481811523f, 0.40893328189849853516f, 0.40232947468757629395f, 0.24553637206554412842f, -0.0049695204943418502808f, 0.40646302700042724609f, 0.21461178362369537354f, -0.11784888058900833130f, -0.21840545535087585449f, -0.031027041375637054443f, -0.11948750168085098267f, -0.29852318763732910156f, -0.78792840242385864258f, -1.0731266736984252930f, -1.3311984539031982422f, -1.0127770900726318359f, -1.0598531961441040039f, -0.51453572511672973633f, -0.35494410991668701172f, -0.44641217589378356934f, -0.25661817193031311035f, 0.95150125026702880859f, 1.2601801156997680664f, 1.5022075176239013672f, 1.5148226022720336914f, 1.5724078416824340820f},
    {1.3034361600875854492f, -0.67736309766769409180f, -0.58316385746002197266f, -0.27317744493484497070f, -0.80768334865570068359f, -0.21317249536514282227f, -0.37830975651741027832f, -0.075149059295654296875f, 0.10854916274547576904f, 0.74444437026977539062f, 1.8997786045074462891f, 1.8121252059936523438f, -0.62344080209732055664f, -1.7936354875564575195f, -1.6361851692199707031f, -0.74898165464401245117f, -0.012996387667953968048f, 0.053546071052551269531f, -0.39277118444442749023f, -0.64800781011581420898f, -0.059498388320207595825f, 0.16181088984012603760f, 0.30009150505065917969f, 0.27435216307640075684f, -0.30600503087043762207f, -0.45429089665412902832f, -0.24443103373050689697f, -0.099209986627101898193f, 0.21318076550960540771f, -0.23253765702247619629f, -0.058811951428651809692f, -0.23104824125766754150f},
    {0.036294084042310714722f, 0.30127635598182678223f, -0.0078795459121465682983f, 0.30542394518852233887f, 0.57280093431472778320f, 0.34392261505126953125f, -0.026483274996280670166f, -0.042419154196977615356f, 0.15650029480457305908f, 0.44880884885787963867f, -0.15286912024021148682f, -0.76762795448303222656f, -1.1918494701385498047f, -1.5489480495452880859f, -2.2815017700195312500f, -2.5193948745727539062f, -1.8215572834014892578f, -0.74354779720306396484f, -0.071952469646930694580f, 0.28391122817993164062f, 0.29448208212852478027f, 0.50753277540206909180f, 0.24960318207740783691f, 0.42195305228233337402f, 0.28262558579444885254f, 0.00067586451768875122070f, -0.14796754717826843262f, -0.58142828941345214844f, -0.22565242648124694824f, 0.077581703662872314453f, 0.10901390761137008667f, -0.31033578515052795410f},
    {-1.6343311071395874023f, -1.4573162794113159180f, -2.1447153091430664062f, -1.5726155042648315430f, -0.86757558584213256836f, -0.34650093317031860352f, -0.087690763175487518311f, -0.68614977598190307617f, -1.2539678812026977539f, -0.73047775030136108398f, -0.23059765994548797607f, -0.0021841598208993673325f, 0.19889302551746368408f, -0.49740955233573913574f, -0.63792443275451660156f, 0.12948307394981384277f, 0.71382397413253784180f, 0.83563649654388427734f, 0.60587936639785766602f, 0.15130434930324554443f, -0.061786700040102005005f, -0.23683708906173706055f, -0.068645335733890533447f, -0.34270271658897399902f, -0.29658225178718566895f, 0.056361813098192214966f, 0.23700428009033203125f, 0.42745915055274963379f, 0.78008830547332763672f, 0.93769967555999755859f, 0.84481716156005859375f, 1.1538914442062377930f},
    {0.82567411661148071289f, 0.66667366027832031250f, -0.23638316988945007324f, 0.14039474725723266602f, 0.18805356323719024658f, -0.47152602672576904297f, -0.71905857324600219727f, -0.46475946903228759766f, -0.62368243932723999023f, -1.0952504873275756836f, -0.69590961933135986328f, 0.73428112268447875977f, 1.6091663837432861328f, 0.10902463644742965698f, -1.6671030521392822266f, -1.8197678327560424805f, -0.76949083805084228516f, -0.10829716175794601440f, -0.57742583751678466797f, -0.26267778873443603516f, -0.70732992887496948242f, -0.032086171209812164307f, 0.030877426266670227051f, -0.41023457050323486328f, -0.10973997414112091064f, 0.22500701248645782471f, -0.25914263725280761719f, -0.065562151372432708740f, 0.50830477476119995117f, 0.052453428506851196289f, -0.098575279116630554199f, -0.19857302308082580566f},
    {0.67295312881469726562f, 0.46160760521888732910f, 0.64811706542968750000f, 0.32717430591583251953f, -0.59039175510406494141f, -0.83194380998611450195f, -1.3270732164382934570f, -1.0119550228118896484f, -0.81321632862091064453f, -0.41350212693214416504f, 0.10769817233085632324f, 0.60749042034149169922f, -0.11699819564819335938f, -0.43041634559631347656f, -0.52785301208496093750f, -0.92571485042572021484f, -0.54899144172668457031f, -0.12551300227642059326f, -0.70539575815200805664f, -1.1801348924636840820f, 0.18251766264438629150f, 1.0900461673736572266f, 0.057740222662687301636f, -0.28032952547073364258f, 0.60021525621414184570f, 0.63815432786941528320f, 0.29534038901329040527f, 0.13435542583465576172f, -0.087359584867954254150f, 0.18114455044269561768f, 0.86769050359725952148f, 0.28794232010841369629f},
    {0.24839645624160766602f, 0.30791082978248596191f, -0.36729866266250610352f, -0.43752774596214294434f, 0.33777117729187011719f, 0.45773872733116149902f, -0.15862922370433807373f, -0.49986192584037780762f, -0.99950575828552246094f, -0.79931831359863281250f, -1.3345535993576049805f, -1.4161821603775024414f, -1.2814569473266601562f, -1.0755718946456909180f, 0.19913850724697113037f, 0.83161091804504394531f, 1.0791878700256347656f, 0.80906599760055541992f, 0.51200133562088012695f, 0.44000774621963500977f, -0.00057277228916063904762f, -0.16682811081409454346f, 0.061248008161783218384f, -0.13660122454166412354f, 0.20655028522014617920f, 0.076575621962547302246f, 0.49215134978294372559f, -0.25413686037063598633f, 0.34820690751075744629f, 0.066783852875232696533f, 0.19730265438556671143f, 0.065253794193267822266f},
    {1.0970191955566406250f, 0.71554642915725708008f, 0.34142971038818359375f, 0.67555201053619384766f, 0.59310108423233032227f, 0.70359879732131958008f, 1.2265014648437500000f, 1.8253856897354125977f, 1.8690582513809204102f, 1.1599987745285034180f, 0.55692899227142333984f, 0.43975734710693359375f, 0.081452645361423492432f, 0.31349137425422668457f, 0.60646557807922363281f, 0.89348351955413818359f, 1.4505788087844848633f, 0.93010300397872924805f, 0.89779889583587646484f, 0.45590096712112426758f, -0.058463092893362045288f, -0.27845945954322814941f, -0.35698491334915161133f, 0.021879805251955986023f, 0.15180291235446929932f, 0.20343346893787384033f, -0.080098584294319152832f, -0.17269800603389739990f, 0.10476244240999221802f, 0.50176233053207397461f, 0.049091260880231857300f, 0.099999628961086273193f},
    {0.34184122085571289062f, -0.53068596124649047852f, -0.19275474548339843750f, -1.1219751834869384766f, -0.48257720470428466797f, 0.37660944461822509766f, 0.84769487380981445312f, 0.77839511632919311523f, 0.61518967151641845703f, 1.8920222520828247070f, 3.0343077182769775391f, 2.4748373031616210938f, 1.5234961509704589844f, 0.47059959173202514648f, 0.37769591808319091797f, 0.48980990052223205566f, -0.076731607317924499512f, -0.67377722263336181641f, -0.63542395830154418945f, 0.024375414475798606873f, -0.20377451181411743164f, 0.20898117125034332275f, 0.42018267512321472168f, 0.23735408484935760498f, -0.32887330651283264160f, 0.080379672348499298096f, 0.22664006054401397705f, 0.26486730575561523438f, 0.72695827484130859375f, 0.23866572976112365723f, -0.10937555879354476929f, 0.0097267646342515945435f},
    {0.21853154897689819336f, -0.086506105959415435791f, -0.15382647514343261719f, -0.082410298287868499756f, -0.16019724309444427490f, -0.37314900755882263184f, -0.30947893857955932617f, 0.019989114254713058472f, 0.39388144016265869141f, 0.39289310574531555176f, -0.12314967811107635498f, -0.13959883153438568115f, -0.094789452850818634033f, 0.057043701410293579102f, -0.27973234653472900391f, 0.079583801329135894775f, 0.73099231719970703125f, 0.40003928542137145996f, 0.39557841420173645020f, 0.35063624382019042969f, 0.11459378153085708618f, 0.23975148797035217285f, 0.0076395324431359767914f, -0.36204349994659423828f, -0.53754442930221557617f, -0.26564240455627441406f, 0.066701978445053100586f, -0.0058292322792112827301f, -0.15060319006443023682f, 0.15185716748237609863f, 0.15915036201477050781f, -0.14254009723663330078f},
    {0.78963869810104370117f, -0.058997519314289093018f, -0.29021501541137695312f, 0.060093943029642105103f, 0.054601110517978668213f, -0.54545813798904418945f, -1.0403918027877807617f, -1.5883269309997558594f, -0.98313981294631958008f, -0.82219916582107543945f, -0.72990787029266357422f, -0.21989803016185760498f, -0.20182469487190246582f, -0.55779230594635009766f, -0.56067001819610595703f, -0.55008083581924438477f, -0.17247875034809112549f, -0.29077237844467163086f, -0.36871653795242309570f, -0.12729294598102569580f, -0.42305105924606323242f, -0.017046323046088218689f, 0.32967120409011840820f, 0.49956315755844116211f, 0.17270566523075103760f, 0.49860098958015441895f, 0.20049872994422912598f, 0.70910882949829101562f, 1.4220384359359741211f, 1.4056687355041503906f, 1.2681882381439208984f, 1.3754366636276245117f},
    {0.67099320888519287109f, -0.36471530795097351074f, -0.81259369850158691406f, -1.2416884899139404297f, -1.1574661731719970703f, -1.2086917161941528320f, -0.58573740720748901367f, -0.57224190235137939453f, -0.13475967943668365479f, 0.17885847389698028564f, 0.66353732347488403320f, 0.90870904922485351562f, 0.33764398097991943359f, 0.21033933758735656738f, 0.23854310810565948486f, -0.47117096185684204102f, -0.79705083370208740234f, -0.23559792339801788330f, -0.61933451890945434570f, -0.76510238647460937500f, -0.71633410453796386719f, -0.34091547131538391113f, -0.36635369062423706055f, -0.33112221956253051758f, 0.12529630959033966064f, 0.27547574043273925781f, -0.19883236289024353027f, -0.83058798313140869141f, -0.40175545215606689453f, 0.13174669444561004639f, -0.14322128891944885254f, -0.50219106674194335938f},
    {0.21689350903034210205f, 0.45127135515213012695f, -0.058832373470067977905f, -0.19533273577690124512f, -0.86095082759857177734f, -1.0591002702713012695f, -1.3060384988784790039f, -1.1990007162094116211f, -0.42569965124130249023f, -1.4181109666824340820f, -0.99905192852020263672f, 0.26856142282485961914f, 0.51718270778656005859f, 1.2663213014602661133f, 0.70300918817520141602f, 0.29902368783950805664f, 0.091052271425724029541f, 0.43955001235008239746f, -0.024869740009307861328f, -0.96850538253784179688f, -0.46362099051475524902f, -0.58710426092147827148f, -0.49907872080802917480f, -0.50960922241210937500f, -0.037704713642597198486f, 0.37852391600608825684f, -0.39568534493446350098f, -1.0875442028045654297f, -0.70420247316360473633f, -0.71454918384552001953f, -1.0573828220367431641f, -0.86752498149871826172f},
    {-0.050828468054533004761f, 0.19205114245414733887f, -0.45940569043159484863f, -0.86497575044631958008f, -0.57196187973022460938f, -0.23738469183444976807f, -0.017325557768344879150f, 0.43072617053985595703f, -0.029965553432703018188f, 0.32100906968116760254f, -0.90268433094024658203f, -1.7084732055664062500f, -2.6803092956542968750f, -1.4804185628890991211f, 0.52255892753601074219f, 2.0082716941833496094f, 2.1838583946228027344f, 1.3355284929275512695f, 0.66417229175567626953f, 0.67402768135070800781f, 0.12316597998142242432f, -0.52892559766769409180f, -0.17307642102241516113f, -0.0035966173745691776276f, -0.25825402140617370605f, 0.010008080862462520599f, 0.086229138076305389404f, -0.0034296424128115177155f, 0.042527277022600173950f, -0.26147952675819396973f, -0.10489613562822341919f, -0.26280483603477478027f},
    {-0.75143754482269287109f, 0.39497789740562438965f, 0.094543628394603729248f, -0.044316753745079040527f, 0.10584484785795211792f, -0.16479946672916412354f, -0.10126025974750518799f, 0.0067772390320897102356f, 0.15759092569351196289f, -0.54821550846099853516f, -0.68786829710006713867f, -0.71584212779998779297f, -0.27602338790893554688f, 0.84268182516098022461f, 1.8609071969985961914f, 1.5944797992706298828f, 0.19692848622798919678f, -0.91709417104721069336f, -0.91240519285202026367f, 0.066036805510520935059f, -0.24614758789539337158f, -0.51303052902221679688f, -0.51055955886840820312f, 0.082293972373008728027f, 0.38741558790206909180f, 0.23794080317020416260f, 0.00054609519429504871368f, -0.091238394379615783691f, 0.31377005577087402344f, 0.35260871052742004395f, 0.036591306328773498535f, -0.026067189872264862061f},
    {0.47127547860145568848f, 0.24614824354648590088f, -0.12299864739179611206f, -0.46882933378219604492f, -0.25623878836631774902f, -0.36221763491630554199f, -0.54202795028686523438f, -0.59156477451324462891f, -0.44869744777679443359f, -0.70489203929901123047f, -0.26397985219955444336f, -0.0036453101783990859985f, 0.21196433901786804199f, -0.18027852475643157959f, -0.45857751369476318359f, -0.72990077733993530273f, -0.93923366069793701172f, -0.66245067119598388672f, -1.0116937160491943359f, -1.1743885278701782227f, -1.5847324132919311523f, -1.0576877593994140625f, -0.16597501933574676514f, 0.56095296144485473633f, 0.33050066232681274414f, 0.28882297873497009277f, 0.30584028363227844238f, 0.59677249193191528320f, 0.73225444555282592773f, 0.92313212156295776367f, 0.93473821878433227539f, 1.1908077001571655273f},
    {0.45238545536994934082f, 0.30570852756500244141f, 0.070193931460380554199f, 0.00024664273951202630997f, 0.35262572765350341797f, 0.44661012291908264160f, 0.31025597453117370605f, -0.18982419371604919434f, -0.18042716383934020996f, -0.36135202646255493164f, 0.37858766317367553711f, 0.70867395401000976562f, 0.26600226759910583496f, 0.43149828910827636719f, 1.0792191028594970703f, 1.4648120403289794922f, 0.74487388134002685547f, -0.74303245544433593750f, -0.95737129449844360352f, -0.29635828733444213867f, 0.25805854797363281250f, 0.98684370517730712891f, 0.26540622115135192871f, -0.034989181905984878540f, 0.24638634920120239258f, -0.36252996325492858887f, -0.39562693238258361816f, 0.28406292200088500977f, 0.21738766133785247803f, 0.18416838347911834717f, 0.25783732533454895020f, -0.063036054372787475586f},
    {-0.68833601474761962891f, 0.36935842037200927734f, -0.32934713363647460938f, 0.022191599011421203613f, 0.80863237380981445312f, 0.72431898117065429688f, 1.0307562351226806641f, 0.70371323823928833008f, 0.62245953083038330078f, 1.2165716886520385742f, 0.37039226293563842773f, 0.37002778053283691406f, 0.73410767316818237305f, 0.67163729667663574219f, 0.52858805656433105469f, 1.1166083812713623047f, 1.2196867465972900391f, 0.82933050394058227539f, 0.55273640155792236328f, 0.37323513627052307129f, -0.20028886198997497559f, 0.64765113592147827148f, 0.92656499147415161133f, 0.50546354055404663086f, 0.029055425897240638733f, -0.29897138476371765137f, 0.29020383954048156738f, 0.31863027811050415039f, -0.049108754843473434448f, -0.23159852623939514160f, -0.14103606343269348145f, 0.81123143434524536133f},
    {-0.59244525432586669922f, -0.10158535838127136230f, 0.35656654834747314453f, 0.26988941431045532227f, 0.97209936380386352539f, -0.20629636943340301514f, -0.52485561370849609375f, -0.24055516719818115234f, -0.49313089251518249512f, -0.37324723601341247559f, -0.94649112224578857422f, -0.11977086216211318970f, -0.067459583282470703125f, 0.46052837371826171875f, 0.31806325912475585938f, -0.37362435460090637207f, -0.94711035490036010742f, -0.30459040403366088867f, 0.084948018193244934082f, 0.24689967930316925049f, -0.20128314197063446045f, 0.20693045854568481445f, 0.58906596899032592773f, 0.95318406820297241211f, 0.28633865714073181152f, -0.11266855150461196899f, -0.052005738019943237305f, -0.25798100233078002930f, -0.32767751812934875488f, -0.51130717992782592773f, -0.56805014610290527344f, -0.83516138792037963867f},
    {0.13524435460567474365f, 0.12303815782070159912f, 0.13782237470149993896f, 0.12353308498859405518f, -0.55258864164352416992f, 0.26857820153236389160f, 1.3935739994049072266f, 1.2473224401473999023f, 0.38763248920440673828f, 0.0031827071215957403183f, 0.087247684597969055176f, 0.25442519783973693848f, 0.017958559095859527588f, -0.043686758726835250854f, 0.28165003657341003418f, 0.67004358768463134766f, 1.5853822231292724609f, 0.80480641126632690430f, -0.24977183341979980469f, -0.37762334942817687988f, 0.040513861924409866333f, 0.12964746356010437012f, 0.65008413791656494141f, -0.049514528363943099976f, -0.41454592347145080566f, -1.1773597002029418945f, -0.80759614706039428711f, -0.34930554032325744629f, 0.57425397634506225586f, -0.044381182640790939331f, 0.029729234054684638977f, 0.30430170893669128418f},
    {0.15219727158546447754f, 0.83426195383071899414f, -0.28131431341171264648f, -0.57019084692001342773f, -1.8973284959793090820f, -2.7922115325927734375f, -2.6692779064178466797f, -0.024021739140152931213f, 1.3999619483947753906f, 1.2635509967803955078f, 0.88521260023117065430f, 0.49079772830009460449f, 0.67263627052307128906f, 0.98538303375244140625f, 0.47236931324005126953f, 0.50776308774948120117f, 0.78424590826034545898f, 0.72144269943237304688f, 0.72307223081588745117f, 0.23266264796257019043f, 0.093668349087238311768f, 0.40924555063247680664f, 0.61514842510223388672f, 0.060081154108047485352f, -0.64011657238006591797f, -0.45656773447990417480f, -0.072652131319046020508f, -0.56238013505935668945f, -0.36777916550636291504f, -0.55226695537567138672f, -0.31379005312919616699f, -0.16992537677288055420f},
    {1.1308871507644653320f, -0.45583620667457580566f, -1.4283032417297363281f, -0.82475084066390991211f, -0.34791815280914306641f, -0.60403895378112792969f, -1.0284863710403442383f, -1.4173949956893920898f, -1.2739554643630981445f, -0.43343958258628845215f, 0.49128180742263793945f, 0.50778466463088989258f, 0.031339503824710845947f, -0.67288613319396972656f, -0.25730556249618530273f, 0.66775393486022949219f, 1.4868925809860229492f, 1.1476333141326904297f, 0.71747493743896484375f, -0.68659907579421997070f, -0.40360727906227111816f, 0.46173053979873657227f, 0.037273239344358444214f, -0.41737496852874755859f, -1.2482423782348632812f, -1.1253210306167602539f, 0.25087195634841918945f, 0.13564336299896240234f, 0.47309583425521850586f, 0.38492903113365173340f, 0.24102900922298431396f, 1.0834225416183471680f},
    {0.18106105923652648926f, -0.25091251730918884277f, -0.98009866476058959961f, -0.50989329814910888672f, -1.0680021047592163086f, -0.76386439800262451172f, 0.20325058698654174805f, 0.61595749855041503906f, 0.58300685882568359375f, -0.50230532884597778320f, -0.69421285390853881836f, -0.40224161744117736816f, 0.69022047519683837891f, 0.33874943852424621582f, 0.064966864883899688721f, -0.10993050038814544678f, -0.23892691731452941895f, -0.099359095096588134766f, 0.49625661969184875488f, 0.22228743135929107666f, -0.028589595109224319458f, -0.019001236185431480408f, -0.67228746414184570312f, -0.61859399080276489258f, -0.31049171090126037598f, -0.11010091006755828857f, 0.17502427101135253906f, 0.20583373308181762695f, 0.45353046059608459473f, 0.22996918857097625732f, 1.2965531349182128906f, 2.4519960880279541016f},
    {-2.0338363647460937500f, -1.2283561229705810547f, -1.0742164850234985352f, -0.44595408439636230469f, -0.31363627314567565918f, -1.0741930007934570312f, -0.60995256900787353516f, -0.012521225959062576294f, -0.038756787776947021484f, 0.25483089685440063477f, -0.61351186037063598633f, -0.26895362138748168945f, 0.50842696428298950195f, 1.1441483497619628906f, 0.66195464134216308594f, 0.24050819873809814453f, 0.020372265949845314026f, 1.0406637191772460938f, 1.6069147586822509766f, 0.90102565288543701172f, 1.0754362344741821289f, 0.61191993951797485352f, 0.26495561003684997559f, -0.56392878293991088867f, -0.54321765899658203125f, -0.67764878273010253906f, -0.41082909703254699707f, -0.68708670139312744141f, -0.66825634241104125977f, -0.16952762007713317871f, -0.18306666612625122070f, 0.25290778279304504395f},
    {-0.53635382652282714844f, -1.0127916336059570312f, -0.28145053982734680176f, -0.29344350099563598633f, -0.42813783884048461914f, 0.13339197635650634766f, -0.00045958161354064941406f, -0.13664218783378601074f, -0.43105095624923706055f, -0.11463061720132827759f, 0.57554167509078979492f, 0.064844228327274322510f, -0.40645286440849304199f, -0.39543214440345764160f, 0.077769368886947631836f, -0.071733459830284118652f, 0.053001485764980316162f, 0.19113829731941223145f, 1.5616199970245361328f, 1.7128393650054931641f, 1.1768456697463989258f, 0.81361263990402221680f, 0.12798264622688293457f, 0.17401359975337982178f, 1.4414770603179931641f, 1.0840421915054321289f, 0.89995342493057250977f, 0.76361697912216186523f, 0.44371676445007324219f, 0.21715213358402252197f, -0.52584648132324218750f, -0.90174514055252075195f},
    {-0.26910057663917541504f, 0.74664819240570068359f, -0.26188638806343078613f, -0.33958086371421813965f, -0.47263455390930175781f, -0.89359515905380249023f, 0.37350222468376159668f, 0.94830638170242309570f, 1.0871471166610717773f, 0.16419531404972076416f, -1.1145411729812622070f, -1.8230835199356079102f, -1.2383732795715332031f, 0.35968741774559020996f, 1.2021431922912597656f, 0.93594753742218017578f, 0.32783222198486328125f, 0.068468347191810607910f, 0.91805708408355712891f, 1.1385045051574707031f, 0.27172127366065979004f, -0.64943397045135498047f, -0.020570607855916023254f, 0.039891432970762252808f, -0.14157713949680328369f, 0.084218174219131469727f, -0.16900299489498138428f, -0.10842862725257873535f, -0.12787689268589019775f, 0.26712107658386230469f, -0.37053930759429931641f, 0.49438318610191345215f},
    {0.37291097640991210938f, -0.068308621644973754883f, -1.0119264125823974609f, -0.024803897365927696228f, -0.60803627967834472656f, -1.1895678043365478516f, -1.4361878633499145508f, -0.93649762868881225586f, -0.74902725219726562500f, -1.0024473667144775391f, -0.41684097051620483398f, -0.054527226835489273071f, 0.59341579675674438477f, 0.78419303894042968750f, 0.78424137830734252930f, 0.37541416287422180176f, 1.1141843795776367188f, 0.84379488229751586914f, -0.27288618683815002441f, -0.61833822727203369141f, -0.43489676713943481445f, -0.34734645485877990723f, -0.10484889894723892212f, -0.15275619924068450928f, -0.55086666345596313477f, -0.65920364856719970703f, 0.011084561236202716827f, -0.11604455858469009399f, 0.12451294809579849243f, -0.089852996170520782471f, -0.32661756873130798340f, 0.31409409642219543457f},
    {0.13450777530670166016f, -0.060651164501905441284f, -1.5880709886550903320f, -1.4265241622924804688f, -2.0409004688262939453f, -2.0283205509185791016f, -1.6032038927078247070f, -0.62212753295898437500f, -0.084442496299743652344f, 0.17268602550029754639f, 0.62430018186569213867f, 0.65893441438674926758f, 0.57921665906906127930f, 0.59885030984878540039f, 0.38394787907600402832f, 0.14980415999889373779f, -0.23453444242477416992f, -0.66698467731475830078f, -0.61096191406250000000f, -0.34358933568000793457f, -0.23181726038455963135f, 0.16310364007949829102f, 0.35289153456687927246f, 1.0040481090545654297f, 0.28356212377548217773f, 0.27614164352416992188f, 0.86011809110641479492f, 0.76290929317474365234f, 0.87678456306457519531f, 0.17144843935966491699f, 0.022251801565289497375f, 1.0172399282455444336f},
    {-0.99480402469635009766f, -2.5752105712890625000f, -0.85063594579696655273f, -1.5894908905029296875f, -1.7066875696182250977f, -0.35024294257164001465f, -0.091160632669925689697f, 0.030875938013195991516f, 0.051768753677606582642f, 0.41567200422286987305f, 1.4557813405990600586f, 1.2452845573425292969f, 0.51643699407577514648f, -0.096566930413246154785f, -0.22209292650222778320f, -0.15066871047019958496f, -0.14359951019287109375f, -0.37254390120506286621f, -0.026887770742177963257f, 0.37844350934028625488f, 0.20283356308937072754f, -0.53411978483200073242f, -0.87549400329589843750f, -0.47354680299758911133f, 0.077488914132118225098f, 0.53677433729171752930f, -0.30463472008705139160f, -0.49252924323081970215f, -0.85139000415802001953f, -0.47331646084785461426f, -0.17402696609497070312f, -0.93555492162704467773f},
    {0.18142296373844146729f, 0.041157245635986328125f, 0.66731250286102294922f, 0.50862306356430053711f, 1.0912959575653076172f, 1.2820036411285400391f, 1.3463442325592041016f, 0.66190707683563232422f, -0.17625293135643005371f, -0.24090692400932312012f, -0.083216018974781036377f, -0.20439085364341735840f, -0.32701027393341064453f, 0.13719512522220611572f, 0.92123430967330932617f, 1.0317274332046508789f, 0.95423495769500732422f, 0.50719159841537475586f, 0.14093320071697235107f, -0.36183056235313415527f, -0.29870486259460449219f, -0.0088238613680005073547f, 0.30334421992301940918f, 0.024575818330049514771f, 0.17212346196174621582f, 0.26950085163116455078f, -0.16044028103351593018f, 0.068400375545024871826f, 0.050865981727838516235f, 0.32700890302658081055f, 0.10869548469781875610f, 0.28210371732711791992f},
    {-0.37712877988815307617f, 0.46512582898139953613f, 0.67419058084487915039f, 1.1858524084091186523f, 1.4271602630615234375f, 1.2819517850875854492f, 0.75039172172546386719f, 0.87512987852096557617f, 0.41867542266845703125f, 0.17500853538513183594f, 0.34689170122146606445f, 0.29492357373237609863f, 0.21573504805564880371f, -0.12285364419221878052f, 0.18713599443435668945f, 0.56375217437744140625f, 0.34741917252540588379f, 0.85276198387145996094f, 0.25792726874351501465f, 0.55241751670837402344f, -0.25098949670791625977f, -0.93493270874023437500f, -0.64836531877517700195f, -0.56010729074478149414f, -0.68887233734130859375f, -1.1189661026000976562f, -1.0513296127319335938f, -0.65633231401443481445f, -0.95804136991500854492f, -0.80168360471725463867f, 0.12469733506441116333f, 1.4566978216171264648f},
    {-0.015996914356946945190f, -0.84500187635421752930f, -0.29270955920219421387f, 0.66194635629653930664f, 1.5858941078186035156f, 2.3005073070526123047f, 1.4622640609741210938f, -1.0979684591293334961f, -2.1158237457275390625f, -0.86157441139221191406f, -0.35655722022056579590f, -0.38023734092712402344f, -0.52129328250885009766f, -0.71038877964019775391f, -1.1621638536453247070f, -1.1333605051040649414f, -0.29285883903503417969f, 0.68765407800674438477f, 0.71633619070053100586f, 0.44017022848129272461f, 0.30917301774024963379f, 0.61770689487457275391f, 0.31371462345123291016f, -0.27415716648101806641f, 0.047346908599138259888f, -0.033147826790809631348f, -0.021801318973302841187f, -0.12565754354000091553f, 0.30137196183204650879f, 0.17354364693164825439f, 0.18648290634155273438f, -0.42688047885894775391f},
    {0.041814181953668594360f, -1.0643876791000366211f, -0.14224837720394134521f, 0.076398313045501708984f, 1.4248261451721191406f, 2.1378536224365234375f, 2.1148142814636230469f, 0.25304722785949707031f, -1.4611941576004028320f, -1.1523108482360839844f, -1.2403862476348876953f, -0.64853155612945556641f, -0.62652182579040527344f, -0.19215311110019683838f, 0.41516840457916259766f, 0.11965644359588623047f, -0.12044678628444671631f, -0.49918031692504882812f, -0.31936812400817871094f, -0.24765445291996002197f, -0.23602026700973510742f, 0.062426719814538955688f, -0.36170232295989990234f, -0.51545894145965576172f, 0.55773258209228515625f, -0.20656141638755798340f, -0.43891277909278869629f, 0.16855587065219879150f, 0.18816418945789337158f, -0.65693366527557373047f, -0.16776905953884124756f, 0.50517529249191284180f},
    {0.31121119856834411621f, -0.37582528591156005859f, -0.38299465179443359375f, -0.41928377747535705566f, 0.46040502190589904785f, 0.61410176753997802734f, -0.046289753168821334839f, -1.1688238382339477539f, -2.1113855838775634766f, -1.2542072534561157227f, -0.68667089939117431641f, -0.027682255953550338745f, -0.73272240161895751953f, -0.89901113510131835938f, -0.53245109319686889648f, 0.33692553639411926270f, 0.48123657703399658203f, 0.23176416754722595215f, 0.14721620082855224609f, -0.10283733159303665161f, -0.19614031910896301270f, -0.051569655537605285645f, 0.15353752672672271729f, 0.23083849251270294189f, 0.058847729116678237915f, -0.13141079246997833252f, 0.10739833861589431763f, 0.28261840343475341797f, 0.30535414814949035645f, 0.24556022882461547852f, 0.41719400882720947266f, 0.23328828811645507812f},
    {0.39289212226867675781f, -0.11686145514249801636f, 0.60529005527496337891f, 0.51623427867889404297f, 0.48706829547882080078f, 0.56923347711563110352f, 0.38111481070518493652f, -0.72026628255844116211f, -1.6255342960357666016f, -0.99189341068267822266f, 0.39028474688529968262f, 0.96111184358596801758f, 0.21797069907188415527f, -0.10750579833984375000f, 0.53824388980865478516f, 0.63082212209701538086f, 0.62943112850189208984f, 0.88602781295776367188f, -1.2067936658859252930f, -1.7541856765747070312f, -0.30411106348037719727f, -0.54447817802429199219f, -1.5170570611953735352f, -1.4388443231582641602f, 0.077224887907505035400f, 0.19448035955429077148f, -0.76405489444732666016f, -0.30792453885078430176f, -0.054014232009649276733f, 0.26263701915740966797f, 0.24418583512306213379f, -0.29114162921905517578f},
    {0.12880250811576843262f, -0.55388033390045166016f, -1.1526244878768920898f, -1.1296114921569824219f, -0.047538328915834426880f, 0.95090311765670776367f, 1.3891028165817260742f, 0.38060089945793151855f, -0.32198959589004516602f, -0.34947165846824645996f, 0.52254939079284667969f, 1.2311164140701293945f, 1.1425578594207763672f, 0.60432481765747070312f, 0.045857235789299011230f, -0.11321713030338287354f, -0.29036140441894531250f, -0.84109771251678466797f, -1.0799499750137329102f, -1.0207283496856689453f, -0.25886124372482299805f, 0.21864451467990875244f, 0.011656441725790500641f, 0.31186476349830627441f, 0.68022477626800537109f, 0.12246154248714447021f, 0.035207331180572509766f, 0.59712362289428710938f, 0.83986127376556396484f, 0.93845063447952270508f, 0.83632689714431762695f, 0.26420861482620239258f},
    {-0.31950610876083374023f, -0.17199480533599853516f, -0.57104486227035522461f, -0.68985527753829956055f, 0.28620362281799316406f, 0.91366684436798095703f, 1.7132760286331176758f, 1.6654214859008789062f, 1.0703408718109130859f, 2.2863266468048095703f, 1.7070760726928710938f, -0.076048500835895538330f, -0.87467372417449951172f, -0.52508854866027832031f, 0.15037299692630767822f, -0.35776922106742858887f, 0.22904255986213684082f, -0.099057480692863464355f, -0.032262984663248062134f, 0.30384850502014160156f, 1.0170608758926391602f, 1.2185420989990234375f, 1.6940374374389648438f, 0.90075117349624633789f, 0.44980990886688232422f, 0.34032374620437622070f, 0.44650182127952575684f, 0.37735855579376220703f, 0.26454448699951171875f, 0.14057433605194091797f, -0.069809496402740478516f, -0.89055353403091430664f},
    {-0.26188662648200988770f, -0.064424388110637664795f, -0.031045099720358848572f, 0.54550123214721679688f, 0.25453057885169982910f, 0.054403826594352722168f, -0.56735664606094360352f, -1.5238173007965087891f, -1.8580619096755981445f, -1.6023960113525390625f, -0.70366007089614868164f, 0.042012397199869155884f, -0.51937502622604370117f, -1.0973206758499145508f, -1.0439192056655883789f, -1.0714086294174194336f, -0.86248123645782470703f, -0.98543256521224975586f, -1.5109360218048095703f, -0.52017182111740112305f, 0.25527140498161315918f, -0.15639808773994445801f, -0.17404164373874664307f, 0.63826680183410644531f, 0.79115635156631469727f, 0.93676739931106567383f, 1.2322604656219482422f, 1.2965984344482421875f, 1.1044187545776367188f, 1.1260360479354858398f, 0.63295871019363403320f, 0.31775459647178649902f},
    {-0.34434089064598083496f, 0.20993033051490783691f, 0.67603594064712524414f, 0.67987412214279174805f, 0.84355211257934570312f, 0.63787639141082763672f, -0.32633709907531738281f, -0.58631652593612670898f, -0.72153198719024658203f, -0.49321773648262023926f, 0.84994381666183471680f, 1.2860531806945800781f, 1.0069812536239624023f, -0.52048695087432861328f, -1.3117415904998779297f, -0.81107449531555175781f, -0.47326189279556274414f, -0.37645334005355834961f, -0.66538447141647338867f, -1.0726103782653808594f, -0.51145762205123901367f, 0.33812457323074340820f, 0.18294271826744079590f, 0.32873633503913879395f, 0.33743131160736083984f, -0.15787225961685180664f, -0.10731101781129837036f, -0.042048364877700805664f, 0.29631942510604858398f, 0.27838951349258422852f, 0.025461815297603607178f, -0.12682612240314483643f},
    {-0.13972273468971252441f, 0.24860651791095733643f, 1.3749444484710693359f, 2.0916650295257568359f, 1.4329559803009033203f, 0.48247158527374267578f, -0.89309793710708618164f, -2.3195688724517822266f, -2.0037355422973632812f, -1.7490226030349731445f, -1.2761766910552978516f, -0.46437922120094299316f, 0.061118841171264648438f, 0.029642511159181594849f, 0.31422385573387145996f, -0.33392867445945739746f, 0.11706818640232086182f, 0.54714882373809814453f, -0.020373445004224777222f, 0.27356538176536560059f, 0.94163155555725097656f, 0.83130556344985961914f, -0.25458607077598571777f, -0.081058807671070098877f, 0.84256333112716674805f, 0.79288697242736816406f, 0.22528591752052307129f, -0.071223713457584381104f, 0.028911534696817398071f, -0.16653481125831604004f, -0.14785484969615936279f, 0.13368238508701324463f},
    {0.069331936538219451904f, 0.27617809176445007324f, 0.84541577100753784180f, 0.93748736381530761719f, 0.52291709184646606445f, 0.053052682429552078247f, -0.93677502870559692383f, -1.2234799861907958984f, -0.60721302032470703125f, 0.011229454539716243744f, 0.69450217485427856445f, 0.68446391820907592773f, 0.34354892373085021973f, 0.13811732828617095947f, 0.25236693024635314941f, 0.26375269889831542969f, 0.17102484405040740967f, -0.22795584797859191895f, -1.3204498291015625000f, -0.98419654369354248047f, 0.14674384891986846924f, 0.42202150821685791016f, 0.18029123544692993164f, -0.31664821505546569824f, -1.0860446691513061523f, -1.1312569379806518555f, -0.39939630031585693359f, -0.50874727964401245117f, -0.53482753038406372070f, -0.69918382167816162109f, -0.47421267628669738770f, -0.58777594566345214844f},
    {-1.0328996181488037109f, 0.0024234633892774581909f, 0.19978600740432739258f, 0.13532796502113342285f, 0.58580672740936279297f, 0.48317396640777587891f, 1.6180007457733154297f, 1.9541351795196533203f, 1.3786613941192626953f, 0.39567133784294128418f, -0.54037648439407348633f, -0.12250931560993194580f, 2.0482900142669677734f, 1.0008782148361206055f, 0.56485509872436523438f, 1.1159411668777465820f, 0.49420624971389770508f, 0.61520946025848388672f, 0.51007241010665893555f, -0.036228317767381668091f, -0.34767061471939086914f, -0.069607652723789215088f, -0.22007200121879577637f, -0.36137351393699645996f, -0.029981482774019241333f, 0.24727465212345123291f, 0.0017821551300585269928f, -0.37822988629341125488f, 0.14603531360626220703f, 0.38538503646850585938f, 0.43845945596694946289f, 0.95951515436172485352f},
    {-0.26112502813339233398f, -0.050876878201961517334f, -0.28587779402732849121f, 1.0967777967453002930f, 1.6898130178451538086f, 1.0337477922439575195f, 0.74973875284194946289f, 1.3029466867446899414f, 0.42877393960952758789f, -0.58128529787063598633f, -0.87802559137344360352f, -0.14401842653751373291f, 0.80940431356430053711f, 0.19117522239685058594f, 0.20146943628787994385f, 0.48433724045753479004f, 0.35943666100502014160f, 0.91743236780166625977f, 0.66219627857208251953f, 0.69508248567581176758f, 0.54263138771057128906f, 0.19912724196910858154f, -0.034517835825681686401f, -0.19280865788459777832f, -0.44607049226760864258f, -0.58595532178878784180f, -0.42670574784278869629f, -1.0556789636611938477f, -1.0383152961730957031f, -1.3409942388534545898f, -1.0817725658416748047f, -0.95817869901657104492f},
    {-0.065862104296684265137f, -0.32824596762657165527f, 0.92524671554565429688f, 1.5661416053771972656f, 1.5408724546432495117f, 0.88099551200866699219f, -0.34180885553359985352f, -2.2486405372619628906f, -2.6471366882324218750f, -1.6818686723709106445f, -1.2083590030670166016f, -0.90391367673873901367f, 0.13038159906864166260f, 0.85897523164749145508f, 1.0761052370071411133f, 0.11432633548974990845f, 0.30532240867614746094f, 0.71771299839019775391f, 0.36448925733566284180f, -0.17956514656543731689f, -0.39175897836685180664f, 0.21849009394645690918f, -0.082950875163078308105f, -0.21554055809974670410f, 0.28047671914100646973f, 0.046566426753997802734f, -0.22118188440799713135f, -0.42956635355949401855f, -0.37678462266921997070f, -0.25699225068092346191f, -0.13067983090877532959f, 0.23184058070182800293f},
    {-1.7746795415878295898f, -0.19014278054237365723f, 0.13806819915771484375f, 0.67816430330276489258f, 0.42959049344062805176f, -0.019352527335286140442f, 0.12848728895187377930f, 0.94119006395339965820f, 1.1352889537811279297f, 0.78595727682113647461f, 0.11031028628349304199f, -0.063676491379737854004f, 0.50523757934570312500f, 0.58006131649017333984f, -0.043030716478824615479f, -0.12675453722476959229f, -0.49108347296714782715f, 0.13458164036273956299f, 0.70832508802413940430f, 0.63875138759613037109f, 0.64070999622344970703f, 0.85411441326141357422f, 0.62504285573959350586f, 0.45411795377731323242f, -0.48646888136863708496f, -0.75467401742935180664f, -0.94080245494842529297f, -0.41791597008705139160f, 0.051082603633403778076f, -0.45826292037963867188f, -0.39843308925628662109f, -1.0774383544921875000f},
    {-0.056523334234952926636f, 0.58276522159576416016f, 1.8136087656021118164f, 1.2290643453598022461f, 0.43559712171554565430f, 0.87059849500656127930f, 0.85204350948333740234f, 0.62988018989562988281f, 0.38145771622657775879f, 0.88578510284423828125f, 0.60330003499984741211f, 0.78402465581893920898f, 0.13620258867740631104f, 0.092288479208946228027f, 0.63842219114303588867f, 0.99805241823196411133f, 0.52471762895584106445f, 0.49451339244842529297f, 0.30466419458389282227f, -0.37187215685844421387f, -0.31643405556678771973f, -0.038032084703445434570f, 0.59634113311767578125f, 0.79107105731964111328f, 0.74389231204986572266f, 0.49977123737335205078f, 0.34577196836471557617f, -0.10442882776260375977f, -0.29271125793457031250f, -0.67751753330230712891f, -1.1130850315093994141f, -1.0688136816024780273f},
    {-1.2515337467193603516f, -0.025297097861766815186f, 0.42879912257194519043f, 0.40789279341697692871f, -0.43621248006820678711f, -0.95233219861984252930f, -1.2937482595443725586f, -0.44308298826217651367f, 0.89690530300140380859f, 0.88278621435165405273f, 0.56909060478210449219f, 0.90123069286346435547f, 1.7131617069244384766f, 1.4591790437698364258f, 0.22536592185497283936f, -0.49836251139640808105f, -0.82867372035980224609f, -0.54562777280807495117f, -0.28847050666809082031f, -0.11047423630952835083f, -0.062254637479782104492f, -0.19782733917236328125f, 0.56906998157501220703f, 0.60438477993011474609f, -0.055546954274177551270f, -0.18319526314735412598f, 0.50270241498947143555f, 0.11948423087596893311f, -0.21235579252243041992f, -0.33200863003730773926f, -0.12680184841156005859f, -0.35391083359718322754f},
    {1.4760236740112304688f, 1.3875938653945922852f, 1.6855890750885009766f, 1.1602489948272705078f, 1.1559475660324096680f, 1.5988166332244873047f, 1.1558120250701904297f, 0.69889122247695922852f, 0.18959526717662811279f, -0.14871297776699066162f, -0.25501111149787902832f, -0.17983379960060119629f, -0.33827775716781616211f, -0.16828298568725585938f, -1.0356338024139404297f, -0.34737992286682128906f, 0.31897351145744323730f, 1.2996966838836669922f, 1.1931964159011840820f, 0.58231872320175170898f, -0.11017876118421554565f, -0.11255758255720138550f, -0.047024961560964584351f, -0.22872282564640045166f, 0.16371022164821624756f, 0.22394217550754547119f, 0.26520508527755737305f, 0.31482589244842529297f, 0.30917188525199890137f, 0.0031948126852512359619f, -0.10025046765804290771f, 0.42193788290023803711f},
    {-0.37193784117698669434f, -0.80086338520050048828f, -0.66688108444213867188f, -0.38033452630043029785f, 0.43904560804367065430f, 0.50664746761322021484f, 0.33207088708877563477f, -0.034532900899648666382f, -0.66918796300888061523f, -0.10508685559034347534f, -0.071078896522521972656f, -0.90338045358657836914f, -0.81232869625091552734f, -1.2383313179016113281f, -0.87807434797286987305f, -0.55000579357147216797f, -0.26174083352088928223f, -0.70819455385208129883f, -1.4511444568634033203f, -1.4359869956970214844f, -0.91139972209930419922f, -1.0334842205047607422f, -0.81174695491790771484f, -0.98133790493011474609f, -0.76576167345046997070f, -0.12514773011207580566f, -0.15313842892646789551f, 0.16457711160182952881f, 0.43058809638023376465f, 0.68513512611389160156f, 0.30754968523979187012f, 0.29279050230979919434f},
    {0.39350405335426330566f, 0.49781847000122070312f, -0.089675456285476684570f, -0.037671368569135665894f, 0.11757148802280426025f, -0.22554174065589904785f, -1.0332601070404052734f, -0.88472080230712890625f, -0.75208091735839843750f, -0.44381710886955261230f, 0.028445202857255935669f, -0.31581684947013854980f, -0.78472036123275756836f, -0.61604124307632446289f, -0.70399802923202514648f, -0.75881659984588623047f, -0.54204553365707397461f, -0.13867145776748657227f, -0.76573866605758666992f, -0.84325361251831054688f, -0.38388234376907348633f, -0.26318657398223876953f, -0.15494367480278015137f, -0.15117213129997253418f, 0.043727919459342956543f, 0.060130104422569274902f, -0.077212870121002197266f, -0.30225905776023864746f, -0.65173488855361938477f, -0.50375026464462280273f, -0.42785513401031494141f, -0.15962244570255279541f},
    {-0.058653030544519424438f, 0.35324698686599731445f, 1.2774127721786499023f, 1.1258505582809448242f, 0.46399858593940734863f, -0.69008320569992065430f, -0.98982268571853637695f, -0.70457386970520019531f, -0.31080406904220581055f, -1.3946906328201293945f, -1.4216157197952270508f, -1.3852214813232421875f, -1.0604115724563598633f, -0.73526269197463989258f, -0.92721176147460937500f, -1.2895047664642333984f, -0.28261932730674743652f, -0.054368752986192703247f, 0.18263654410839080811f, -0.39331591129302978516f, 0.51363557577133178711f, 0.29915904998779296875f, 0.16445884108543395996f, -0.15603598952293395996f, -0.40130209922790527344f, -0.57447230815887451172f, -0.28253036737442016602f, 0.32933229207992553711f, 0.55143970251083374023f, -0.068610221147537231445f, 0.094619378447532653809f, 0.68569558858871459961f},
    {-0.31840634346008300781f, 0.62866908311843872070f, 0.10909453779458999634f, 0.17819672822952270508f, -0.016085453331470489502f, -0.46015647053718566895f, -1.1263020038604736328f, -1.0227072238922119141f, -1.2647284269332885742f, -0.28071516752243041992f, -0.50042510032653808594f, -0.15557010471820831299f, -0.15639254450798034668f, -0.61501866579055786133f, -0.27633407711982727051f, -0.024890558794140815735f, -0.21127869188785552979f, -0.25345334410667419434f, 0.022105654701590538025f, -0.12584857642650604248f, -0.34851321578025817871f, -0.45676699280738830566f, -0.10704938322305679321f, -0.23794491589069366455f, -0.16582368314266204834f, 0.030916867777705192566f, 0.038136143237352371216f, -0.28372696042060852051f, -0.24999512732028961182f, -0.41519233584403991699f, -0.65232962369918823242f, 0.063319608569145202637f},
    {-0.50904196500778198242f, -0.29571431875228881836f, -1.0794414281845092773f, -1.0009086132049560547f, -1.0910553932189941406f, -0.67677390575408935547f, -0.40702167153358459473f, -0.60054445266723632812f, -0.97555667161941528320f, -0.86453366279602050781f, -0.78092104196548461914f, -1.3251833915710449219f, -1.5132672786712646484f, -0.63381868600845336914f, 0.27200365066528320312f, 0.68840444087982177734f, 0.51152521371841430664f, -0.79950869083404541016f, -1.2073584794998168945f, -1.0156710147857666016f, -1.3497781753540039062f, -0.69870179891586303711f, -0.44938302040100097656f, -0.10337790846824645996f, -0.49182409048080444336f, -0.55656480789184570312f, -0.61262619495391845703f, -0.31189909577369689941f, 0.22468252480030059814f, 0.27739337086677551270f, 0.35821717977523803711f, 0.97826784849166870117f},
    {0.53219246864318847656f, 0.86794215440750122070f, 0.084123626351356506348f, -0.029126727953553199768f, 0.28183943033218383789f, 0.50189346075057983398f, 0.16243892908096313477f, -0.34867402911186218262f, -0.70614981651306152344f, -0.48137322068214416504f, -0.89988422393798828125f, -1.0561100244522094727f, -1.5269722938537597656f, -1.3391504287719726562f, -0.18730407953262329102f, 0.10545181483030319214f, 0.91620975732803344727f, 1.0520260334014892578f, 0.45543611049652099609f, 0.23629170656204223633f, -0.055600702762603759766f, -0.066887728869915008545f, -0.039235670119524002075f, -0.53477472066879272461f, -0.34242817759513854980f, -0.43466538190841674805f, -0.26248896121978759766f, -0.17221096158027648926f, 0.43963965773582458496f, 0.090696774423122406006f, 0.052018560469150543213f, 0.45245492458343505859f},
    {-0.49208950996398925781f, -0.090344227850437164307f, -0.24908696115016937256f, -0.091849550604820251465f, -0.38642743229866027832f, -0.43431121110916137695f, -0.96626925468444824219f, -0.62806975841522216797f, -0.10821335017681121826f, 0.081149943172931671143f, 0.40347751975059509277f, 1.0857632160186767578f, 1.4947501420974731445f, 1.5119651556015014648f, 1.1681219339370727539f, 0.57241743803024291992f, 0.82921695709228515625f, 0.55607104301452636719f, 0.41297513246536254883f, 0.20582193136215209961f, 0.46894788742065429688f, 0.42521768808364868164f, 0.088113091886043548584f, -0.11411090195178985596f, -0.73824942111968994141f, -0.98929041624069213867f, -0.21189886331558227539f, -0.12004828453063964844f, -0.59681183099746704102f, -0.48684474825859069824f, -0.45476153492927551270f, 0.15355846285820007324f},
    {-0.62966924905776977539f, -0.74427670240402221680f, -0.15945836901664733887f, 0.39010748267173767090f, 1.1372174024581909180f, 0.90563905239105224609f, 0.92262482643127441406f, 0.81067883968353271484f, 0.97034525871276855469f, 0.98457539081573486328f, -0.14722506701946258545f, -0.48413300514221191406f, 0.69785541296005249023f, 0.98917716741561889648f, 0.54062885046005249023f, -0.48179283738136291504f, -0.27097260951995849609f, -0.029054125770926475525f, 0.67496514320373535156f, 1.3061457872390747070f, 0.71326667070388793945f, 1.1379450559616088867f, 1.1051111221313476562f, 0.31610339879989624023f, -0.29998847842216491699f, -0.61982685327529907227f, -0.15419933199882507324f, 0.034176442772150039673f, 0.10044218599796295166f, -0.44905453920364379883f, -0.65183007717132568359f, -0.56136840581893920898f},
    {-0.28387022018432617188f, -0.68329930305480957031f, -0.24421896040439605713f, -0.12940801680088043213f, -0.44176888465881347656f, 0.029502237215638160706f, 0.61518019437789916992f, 0.30130869150161743164f, -0.067523211240768432617f, -0.25007346272468566895f, -0.31294327974319458008f, -0.56019151210784912109f, -0.072136066854000091553f, 1.7309476137161254883f, 3.2441732883453369141f, 2.7654788494110107422f, 1.4536523818969726562f, 0.25211107730865478516f, -0.36569923162460327148f, -0.012227247469127178192f, 0.79537361860275268555f, 0.066197045147418975830f, -0.43239352107048034668f, 0.0048457463271915912628f, 0.054961849004030227661f, -0.29297643899917602539f, -0.92152655124664306641f, -0.11679201573133468628f, -0.12778648734092712402f, 0.42583122849464416504f, 0.23852871358394622803f, -0.81876200437545776367f},
    {-1.0612530708312988281f, -0.77567261457443237305f, -1.1642093658447265625f, -1.1920422315597534180f, -0.59573370218276977539f, -0.46033671498298645020f, 0.26646205782890319824f, 0.20575639605522155762f, -0.16339528560638427734f, 0.052694581449031829834f, 0.20321871340274810791f, 0.83109706640243530273f, 1.3602402210235595703f, 0.68576169013977050781f, 0.76045495271682739258f, 1.8775048255920410156f, 2.1035184860229492188f, 1.4932259321212768555f, 0.26955398917198181152f, 0.12088134139776229858f, 1.2365013360977172852f, 1.5712828636169433594f, 1.2290545701980590820f, 0.15663050115108489990f, -0.22564680874347686768f, -0.036025851964950561523f, -0.35977590084075927734f, -0.73973894119262695312f, -0.32486951351165771484f, 0.00070193089777603745461f, -0.0048985849134624004364f, -0.071409665048122406006f},
    {0.88781970739364624023f, -0.046193517744541168213f, -0.50973659753799438477f, -0.38988411426544189453f, -1.0728508234024047852f, -1.5701036453247070312f, -1.7683583498001098633f, -0.54009121656417846680f, -0.073409967124462127686f, -0.12294536828994750977f, -1.1010822057723999023f, -0.82057034969329833984f, -0.22862748801708221436f, 0.32629442214965820312f, -0.16947294771671295166f, -0.56473249197006225586f, -0.13867945969104766846f, 0.97933936119079589844f, 1.4333597421646118164f, 0.54264855384826660156f, -0.41944900155067443848f, -0.98618435859680175781f, -0.70135736465454101562f, -1.0177394151687622070f, -1.1295816898345947266f, -1.0890500545501708984f, -0.75097161531448364258f, -1.7041879892349243164f, -0.91065371036529541016f, 0.12487256526947021484f, -0.22816243767738342285f, -0.79744005203247070312f},
    {0.60331010818481445312f, 0.36861866712570190430f, 0.17034362256526947021f, 0.34547391533851623535f, 0.45851182937622070312f, -0.080851256847381591797f, -0.38984850049018859863f, -0.61865597963333129883f, -0.53328603506088256836f, -0.15691630542278289795f, 1.4555668830871582031f, 1.9951390027999877930f, 0.89114201068878173828f, -0.12391751259565353394f, -0.59558796882629394531f, -0.83287525177001953125f, -0.93055373430252075195f, -0.18481519818305969238f, -0.75148415565490722656f, -1.0482618808746337891f, -0.92975807189941406250f, -0.15758219361305236816f, -0.12007927894592285156f, -0.28708192706108093262f, -0.62201517820358276367f, -0.51459395885467529297f, -0.57627320289611816406f, -0.48489943146705627441f, -0.20183566212654113770f, -0.52278238534927368164f, -0.38408806920051574707f, -0.49371173977851867676f},
    {-0.62048822641372680664f, -0.14438521862030029297f, -0.18573038280010223389f, -0.39873895049095153809f, -0.83478063344955444336f, -0.76693433523178100586f, -0.72818058729171752930f, -0.67363125085830688477f, -1.0800002813339233398f, -0.44895589351654052734f, -0.56531512737274169922f, -0.70682811737060546875f, -1.6491167545318603516f, -1.5249528884887695312f, -0.51314359903335571289f, -0.84236514568328857422f, -0.60238385200500488281f, -0.23305474221706390381f, -0.60362070798873901367f, -0.068732552230358123779f, -0.59900093078613281250f, -0.76163381338119506836f, 0.0030422438867390155792f, -0.25098800659179687500f, -0.55158370733261108398f, -0.29342377185821533203f, -0.38104516267776489258f, -0.88222903013229370117f, -0.25278532505035400391f, -0.25892910361289978027f, -0.83863854408264160156f, -1.3113875389099121094f},
